1.052511930465698242e-01
-6.084052845835685730e-02
1.838068664073944092e-01
3.010283969342708588e-02
1.926210075616836548e-01
1.490572243928909302e-01
1.287086773663759232e-02
-1.336237192153930664e-01
-3.040748536586761475e-01
1.763049513101577759e-01
-4.471734911203384399e-02
3.345379605889320374e-02
-1.648636162281036377e-02
-6.884841620922088623e-02
2.364087151363492012e-03
-4.775517061352729797e-02
-1.918257623910903931e-01
9.972485713660717010e-03
6.795785576105117798e-02
2.102026939392089844e-01
-3.012689016759395599e-02
-4.948066920042037964e-02
-1.258506178855895996e-01
2.041087150573730469e-01
3.343029022216796875e-01
-2.298190258443355560e-02
-2.440672926604747772e-02
1.123588681221008301e-01
1.656591445207595825e-01
7.620558142662048340e-02
-3.222724422812461853e-02
1.491511464118957520e-01
2.408905923366546631e-01
-1.769648343324661255e-01
-2.271350286900997162e-02
-3.519726172089576721e-02
1.687769144773483276e-01
-4.589446634054183960e-02
-1.364455837756395340e-02
-1.302592754364013672e-01
-3.747813031077384949e-02
-4.284846410155296326e-02
-4.382048547267913818e-02
-2.545604407787322998e-01
9.981340169906616211e-02
1.597432494163513184e-01
-1.362544298171997070e-01
3.598559275269508362e-02
9.040313959121704102e-02
-1.888291351497173309e-02
-2.836052775382995605e-01
1.090435609221458435e-01
4.295456781983375549e-02
-2.126570194959640503e-01
-1.015801206231117249e-01
5.357443168759346008e-02
-1.885872781276702881e-01
5.460723116993904114e-02
9.531226754188537598e-02
6.768757849931716919e-02
6.407889723777770996e-02
-9.931053966283798218e-02
-9.441521018743515015e-02
-2.491587996482849121e-01
-2.047995924949645996e-01
1.620353758335113525e-01
6.575007736682891846e-02
1.002857834100723267e-01
6.538291461765766144e-03
1.101174056529998779e-01
-4.812318086624145508e-02
-3.715877234935760498e-01
-2.664083540439605713e-01
6.105091571807861328e-01
-6.843118369579315186e-02
7.291570305824279785e-02
-4.210064560174942017e-02
-2.319327369332313538e-02
4.132230579853057861e-01
-2.456780225038528442e-01
3.470799326896667480e-01
-9.329370409250259399e-02
-2.104216814041137695e-01
1.873951964080333710e-02
1.254578083753585815e-01
-1.641544550657272339e-01
6.041032448410987854e-02
2.856247685849666595e-02
-7.335544377565383911e-02
-9.455960243940353394e-02
2.015371918678283691e-01
3.518848121166229248e-01
-5.206741392612457275e-02
-1.850419044494628906e-01
4.061051011085510254e-01
-1.822914630174636841e-01
-1.620125919580459595e-01
-2.603366971015930176e-01
6.979318708181381226e-02
-1.178844124078750610e-01
2.128525674343109131e-01
-1.074860990047454834e-01
1.933792829513549805e-01
-1.070202514529228210e-02
4.827362298965454102e-02
-1.729910075664520264e-01
-5.057343468070030212e-02
6.948175281286239624e-02
4.499974101781845093e-02
-2.206131964921951294e-01
-1.727998554706573486e-01
3.629132211208343506e-01
8.156438916921615601e-02
1.747094467282295227e-02
-1.867703646421432495e-01
1.868683658540248871e-02
3.746791779994964600e-01
-5.482272058725357056e-02
1.084542721509933472e-01
1.117236986756324768e-01
-2.811902761459350586e-01
1.339374184608459473e-01
6.699941307306289673e-02
-2.077071964740753174e-01
8.619090169668197632e-02
-4.420489966869354248e-01
4.324242100119590759e-02
1.361787766218185425e-01
