-7.540600746870040894e-02
5.969363078474998474e-02
-2.560057640075683594e-01
-2.186270654201507568e-01
-7.471513748168945312e-02
-3.881051018834114075e-02
-2.751681804656982422e-01
2.352526038885116577e-01
-6.239396706223487854e-02
-4.775820672512054443e-02
3.631315007805824280e-02
2.777351140975952148e-01
-1.566556096076965332e-01
2.987107262015342712e-02
2.001426070928573608e-01
-1.772894524037837982e-02
-2.359100133180618286e-01
6.175936758518218994e-02
-5.985422804951667786e-02
9.314581006765365601e-02
-1.568732410669326782e-01
-2.084129303693771362e-01
1.709033548831939697e-01
7.132934033870697021e-02
1.804207861423492432e-01
-2.579844594001770020e-01
-6.158077623695135117e-03
4.788155481219291687e-02
-1.628273129463195801e-01
-1.358148008584976196e-01
-1.485238522291183472e-01
-3.682923316955566406e-01
-2.202991843223571777e-01
8.567437529563903809e-03
-1.119875907897949219e-02
-1.314045935869216919e-01
-8.830233663320541382e-02
-4.751537367701530457e-02
-4.705654978752136230e-01
-7.057990878820419312e-02
-1.795123964548110962e-01
-7.776733022183179855e-03
3.440306335687637329e-02
-6.652700155973434448e-02
-1.961975842714309692e-01
-3.094683587551116943e-01
-2.779887318611145020e-01
-3.497258946299552917e-02
-3.002941049635410309e-02
-1.333222538232803345e-01
1.261010318994522095e-01
1.725417226552963257e-01
8.031239360570907593e-02
6.198194250464439392e-02
-1.539427787065505981e-01
-3.420264273881912231e-02
8.788575977087020874e-02
-2.638222575187683105e-01
-4.291133210062980652e-02
2.755008637905120850e-01
-1.094427779316902161e-01
-1.965492367744445801e-01
-1.815083026885986328e-01
-3.100504167377948761e-02
-2.130047231912612915e-01
1.767279803752899170e-01
-1.413118932396173477e-02
1.122935861349105835e-01
-3.765211254358291626e-02
8.486270904541015625e-02
-2.894844412803649902e-01
-3.741001244634389877e-03
1.375284790992736816e-01
6.695640087127685547e-02
-1.507303863763809204e-01
8.756592869758605957e-03
-9.607869386672973633e-02
4.805313423275947571e-02
3.002130426466464996e-02
-3.280787914991378784e-02
-1.652435809373855591e-01
1.606574654579162598e-02
-2.683792449533939362e-02
1.228861957788467407e-01
-9.209541976451873779e-02
-3.223474696278572083e-02
-2.581694424152374268e-01
-2.293680757284164429e-01
-2.812607027590274811e-02
-2.234614640474319458e-01
6.117080152034759521e-02
7.468306273221969604e-02
-1.976324021816253662e-01
-2.680147190403658897e-05
-4.673666507005691528e-02
-9.593218564987182617e-03
1.519859433174133301e-01
4.714035242795944214e-02
8.749226480722427368e-02
1.883126497268676758e-01
9.728538803756237030e-03
-6.242328137159347534e-02
4.011434316635131836e-02
-2.027817368507385254e-01
1.971642673015594482e-01
-2.832998633384704590e-01
1.659195404499769211e-03
2.214047824963927269e-03
-1.411056965589523315e-01
-4.204729106277227402e-03
4.204656183719635010e-02
-1.233272999525070190e-01
-3.400336951017379761e-02
-1.340649724006652832e-01
-8.409875631332397461e-02
6.505274772644042969e-02
-5.305168777704238892e-02
-1.411346495151519775e-01
-1.577568501234054565e-01
2.594359777867794037e-02
7.375696301460266113e-02
-1.302754729986190796e-01
1.322874724864959717e-01
-2.497483789920806885e-01
-2.961907982826232910e-01
1.060230731964111328e-01
-1.737369298934936523e-01
1.179445981979370117e-01
