-7.652979493141174316e-01
9.299939125776290894e-02
-2.637448348104953766e-02
-3.535418510437011719e-01
5.174362659454345703e-01
-8.414197713136672974e-02
1.054904758930206299e-01
-4.534835517406463623e-01
-1.545423984527587891e+00
9.038614034652709961e-01
-1.663427986204624176e-02
-2.401185929775238037e-01
4.282752275466918945e-01
-3.401677608489990234e-01
3.573989868164062500e-01
-1.887040734291076660e-01
-2.759134471416473389e-01
-1.030890941619873047e-01
-6.919170618057250977e-01
6.218626499176025391e-01
1.795649081468582153e-01
-3.074649572372436523e-01
-2.001302391290664673e-01
1.591658353805541992e+00
1.504852056503295898e+00
1.651981659233570099e-02
9.924200922250747681e-02
5.900257229804992676e-01
7.253910899162292480e-01
-9.174446761608123779e-02
-4.376606047153472900e-01
-1.327089071273803711e-01
-7.298199925571680069e-03
-1.757049262523651123e-01
1.476840227842330933e-01
-2.008669674396514893e-01
3.349944949150085449e-01
-3.910927176475524902e-01
-1.363780945539474487e-01
-2.073840051889419556e-01
5.407396554946899414e-01
-9.064390510320663452e-02
9.268022775650024414e-01
-9.698877930641174316e-01
7.304747700691223145e-01
6.614818423986434937e-02
1.001294478774070740e-01
7.366604208946228027e-01
3.268426060676574707e-01
1.488224416971206665e-01
-1.623682864010334015e-02
1.027450084686279297e+00
3.627909421920776367e-01
-1.343628317117691040e-01
-7.090642303228378296e-02
4.915990680456161499e-02
-1.732045561075210571e-01
-1.707952655851840973e-02
3.207590281963348389e-01
8.054293394088745117e-01
6.142567396163940430e-01
-6.408138871192932129e-01
-1.045540809631347656e+00
-4.503543972969055176e-01
-2.369796335697174072e-01
2.123160511255264282e-01
1.642760634422302246e-01
7.805102318525314331e-02
-1.598995923995971680e-01
4.048772752285003662e-01
-4.402040690183639526e-02
1.363770216703414917e-01
-1.826134920120239258e-01
-1.650938153266906738e+00
-6.456624865531921387e-01
1.373809427022933960e-01
8.338403701782226562e-02
-3.480845987796783447e-01
1.957952857017517090e+00
3.304047584533691406e-01
3.341530263423919678e-01
-6.319316029548645020e-01
-4.579056799411773682e-01
-2.430867962539196014e-02
9.606125950813293457e-01
-2.800683975219726562e-01
-2.849647998809814453e-01
7.920035123825073242e-01
2.089544981718063354e-01
-3.704998195171356201e-01
1.235730051994323730e+00
2.475884109735488892e-01
-1.199500635266304016e-02
1.476330757141113281e-01
5.337633490562438965e-01
1.007906198501586914e+00
3.533330261707305908e-01
-5.633223652839660645e-01
6.890124082565307617e-01
-2.877231538295745850e-01
3.244895339012145996e-01
2.258566319942474365e-01
2.550756335258483887e-01
-3.629209101200103760e-01
2.426626086235046387e-01
-5.874333381652832031e-01
-7.126485705375671387e-01
6.328896284103393555e-01
6.900570988655090332e-01
-3.431684970855712891e-01
-8.928110003471374512e-01
9.454564452171325684e-01
5.721605420112609863e-01
2.724507749080657959e-01
-1.346408277750015259e-01
1.481999754905700684e-01
4.417459666728973389e-01
-8.632375597953796387e-01
-1.518487185239791870e-01
3.383603394031524658e-01
-1.370934024453163147e-02
5.147661566734313965e-01
3.316418230533599854e-01
-6.099972724914550781e-01
-1.106835622340440750e-02
-2.035106658935546875e+00
-1.173106953501701355e-01
5.875142216682434082e-01
