-6.463200598955154419e-02
7.807885296642780304e-03
-1.921123266220092773e-02
-2.574666738510131836e-01
1.904512941837310791e-01
-2.138254493474960327e-01
1.114599704742431641e-01
3.395696729421615601e-02
-2.394621074199676514e-01
-3.603273034095764160e-01
5.667905211448669434e-01
1.137615218758583069e-01
-1.745855510234832764e-01
-5.183262750506401062e-02
6.489955782890319824e-01
-1.039572581648826599e-01
-6.682571768760681152e-02
-9.934865683317184448e-02
-4.392167329788208008e-01
-3.223420307040214539e-02
4.072467386722564697e-01
4.721521735191345215e-01
6.229953765869140625e-01
2.211786210536956787e-01
6.544761061668395996e-01
-2.079907357692718506e-01
7.111068069934844971e-02
4.428356587886810303e-01
5.103903636336326599e-02
-2.598906159400939941e-01
-7.024981826543807983e-02
-2.974152863025665283e-01
-2.027936875820159912e-01
1.778208464384078979e-01
3.595817983150482178e-01
-3.023481741547584534e-02
-1.688846796751022339e-01
3.901795744895935059e-01
-1.018773436546325684e+00
-2.412095963954925537e-01
-9.411712735891342163e-02
6.545557081699371338e-02
4.146424680948257446e-02
-3.934797346591949463e-01
4.076929986476898193e-01
-1.148050308227539062e+00
9.302249550819396973e-02
7.388705015182495117e-02
3.243035078048706055e-01
5.898980423808097839e-02
3.266047239303588867e-01
4.684515297412872314e-01
3.358659148216247559e-01
2.480324059724807739e-01
-2.858389616012573242e-01
-7.031466066837310791e-02
8.106566965579986572e-02
-2.033626846969127655e-02
2.896138131618499756e-01
6.576296091079711914e-01
3.320780992507934570e-01
-1.035310328006744385e-01
2.194895595312118530e-02
-3.385656177997589111e-01
-3.464223444461822510e-02
3.217405676841735840e-01
-4.605822861194610596e-01
-3.047271631658077240e-02
-2.573454380035400391e-01
-3.071796596050262451e-01
-3.678755760192871094e-01
-6.277894973754882812e-02
1.749802678823471069e-01
3.894317150115966797e-01
-4.057722389698028564e-01
-6.720267236232757568e-02
3.198756873607635498e-01
1.421791762113571167e-01
5.019170045852661133e-01
2.484746426343917847e-01
1.411763727664947510e-01
-5.000945925712585449e-02
9.727864712476730347e-02
6.271599233150482178e-02
1.327665299177169800e-01
1.841836795210838318e-02
-2.840094268321990967e-01
-1.094485446810722351e-01
4.910218417644500732e-01
-3.769824504852294922e-01
6.457862257957458496e-01
-2.390831559896469116e-01
-5.512222647666931152e-01
8.199751973152160645e-01
-1.472149491310119629e-01
5.925189256668090820e-01
2.627828717231750488e-01
2.157726287841796875e-01
1.568080633878707886e-01
4.386975169181823730e-01
8.910543471574783325e-02
7.315681315958499908e-03
-7.345659285783767700e-02
-6.182974576950073242e-01
2.235792577266693115e-01
-5.948051810264587402e-01
-2.847264111042022705e-01
3.781585693359375000e-01
3.313814103603363037e-02
-2.989822812378406525e-02
-6.164477393031120300e-02
2.206491678953170776e-01
9.741106629371643066e-01
-3.777395784854888916e-01
-1.623197048902511597e-01
5.022119730710983276e-02
-1.946457177400588989e-01
1.575619131326675415e-01
-2.632991075515747070e-01
2.374803274869918823e-02
3.357608020305633545e-01
9.838899374008178711e-01
7.961460351943969727e-01
-1.928530782461166382e-01
-4.780389666557312012e-01
-2.162216305732727051e-01
-5.656828284263610840e-01
7.825567722320556641e-01
