-5.341802909970283508e-02,6.490281224250793457e-02,6.918823719024658203e-02,9.795160032808780670e-03,3.171429783105850220e-02,6.454462558031082153e-02,-4.764767363667488098e-02,-8.141516149044036865e-02,2.054975368082523346e-02,1.020196452736854553e-01,-6.514866650104522705e-02,3.586585447192192078e-02,8.852463960647583008e-02,-4.620810225605964661e-02,6.360675394535064697e-02,3.653270751237869263e-02,5.341311916708946228e-02,6.885460019111633301e-02,-1.609341613948345184e-02,-4.373301938176155090e-02,-8.287707716226577759e-02,-1.118134260177612305e-01,-9.637968987226486206e-02,-3.327889367938041687e-02,1.109294816851615906e-01,7.231354713439941406e-02,5.017433781176805496e-03,-3.853874281048774719e-02,1.032477766275405884e-01,8.377885818481445312e-02,8.436683565378189087e-02,-5.892197042703628540e-02,5.351694673299789429e-02,-2.872622758150100708e-02,1.659068628214299679e-03,-4.325418919324874878e-02,-4.145419225096702576e-02,8.504056185483932495e-02,6.316669285297393799e-02,-3.280253335833549500e-02,4.977722838521003723e-02,4.337732121348381042e-02,-2.041052281856536865e-02,4.760375246405601501e-02,2.853365987539291382e-02,9.586263447999954224e-02,3.537008538842201233e-02,5.947519093751907349e-02,-6.606228649616241455e-02,-5.079672113060951233e-02,5.341237038373947144e-02,9.944161772727966309e-02,5.189919471740722656e-02,-7.984128315001726151e-04,-7.974565029144287109e-02,3.555417060852050781e-02,-4.984449595212936401e-02,9.577938169240951538e-02,7.767339795827865601e-02,4.562751576304435730e-02,7.295203208923339844e-02,-3.104723803699016571e-02,5.826880410313606262e-02,-1.258995477110147476e-02,9.354083985090255737e-02,8.565498143434524536e-02,5.312171950936317444e-02,-4.819142073392868042e-02,2.399700880050659180e-02,3.158545866608619690e-02,-2.341977879405021667e-02,-1.046023145318031311e-01,-4.040786623954772949e-02,1.452375203371047974e-01,5.632027983665466309e-02,4.113781265914440155e-03,-3.870810847729444504e-03,-8.256025612354278564e-02,-4.369238018989562988e-02,4.629345610737800598e-02,4.132859408855438232e-02,-2.145542576909065247e-02,-1.150607764720916748e-01,-3.236338868737220764e-02,-5.968084186315536499e-02,-6.614475697278976440e-02,-1.165426224470138550e-01,-5.732072889804840088e-02,7.253037393093109131e-02,-7.912126928567886353e-02,5.909536033868789673e-02,7.225264608860015869e-02,6.564701348543167114e-02,2.639998309314250946e-02,1.098622381687164307e-01,4.534660652279853821e-02,-4.435645788908004761e-02,1.666765846312046051e-02,1.115232110023498535e-01,1.219724491238594055e-01,1.424150764942169189e-01,-9.148627519607543945e-02,6.978307664394378662e-02,7.525899261236190796e-02,-3.246073797345161438e-02,6.537538021802902222e-02,-5.402857437729835510e-02,2.699941396713256836e-02,7.805471122264862061e-02,-7.785458862781524658e-02,-8.607326447963714600e-02,4.808201640844345093e-02,4.277442395687103271e-02,-3.156781569123268127e-02,4.454301670193672180e-02,1.247418746352195740e-01,4.833662882447242737e-02,4.312194138765335083e-02,-3.196917474269866943e-02,-4.197345674037933350e-02,-1.056850701570510864e-01,2.675438113510608673e-02,-3.845485672354698181e-02,5.799821391701698303e-02,-5.309444293379783630e-02,8.400576561689376831e-02,-6.974080204963684082e-02,2.009648643434047699e-02
-3.856460005044937134e-02,-8.700614422559738159e-02,-9.670391678810119629e-02,2.959142811596393585e-02,-5.556358397006988525e-02,6.930021941661834717e-02,-6.904694437980651855e-02,-5.207303166389465332e-02,-9.019964933395385742e-02,-9.467115253210067749e-02,-5.933969095349311829e-02,6.474244594573974609e-02,7.205880433320999146e-02,1.006211489439010620e-01,-7.253957539796829224e-02,-7.517670094966888428e-02,4.537666961550712585e-02,8.222535997629165649e-02,-1.309951581060886383e-02,6.147993728518486023e-02,-3.533005714416503906e-02,2.754207886755466461e-02,5.413911491632461548e-02,-3.252167999744415283e-02,-6.260495632886886597e-02,6.716444343328475952e-02,-5.517077073454856873e-02,1.002757102251052856e-01,-6.248223409056663513e-02,4.558979719877243042e-02,-4.735072329640388489e-02,-9.300919622182846069e-02,-2.961245924234390259e-02,7.048407569527626038e-03,6.406407058238983154e-02,7.981540262699127197e-02,-6.210530549287796021e-02,-9.898591041564941406e-02,3.652312606573104858e-02,-6.225051358342170715e-02,5.883098766207695007e-02,6.675749272108078003e-02,-1.054802909493446350e-02,7.490380108356475830e-02,-3.168065473437309265e-02,1.020504459738731384e-01,-2.763213030993938446e-02,4.402593150734901428e-02,6.975833326578140259e-02,9.032326191663742065e-02,2.825393900275230408e-02,-3.362910076975822449e-02,-6.965701282024383545e-02,4.941212385892868042e-02,6.252466142177581787e-02,3.080952167510986328e-02,-3.230754286050796509e-02,-5.139860883355140686e-02,-3.023328073322772980e-02,-4.205702245235443115e-02,-1.289702206850051880e-01,9.092460572719573975e-02,-7.035283744335174561e-02,1.105239838361740112e-01,-5.944725126028060913e-02,-4.990483820438385010e-02,-4.228451848030090332e-02,-5.887849256396293640e-02,4.331625625491142273e-02,4.454093426465988159e-02,4.613009095191955566e-02,-6.619371473789215088e-03,-6.025537475943565369e-02,-7.961601763963699341e-02,3.175520151853561401e-02,-6.563373655080795288e-02,2.659956924617290497e-02,6.758090108633041382e-02,-4.418696463108062744e-02,7.175886631011962891e-02,1.197947561740875244e-02,-7.608009129762649536e-02,1.581551134586334229e-02,-3.055097162723541260e-02,7.450316846370697021e-02,-4.930399730801582336e-02,-7.622145861387252808e-02,-4.469813033938407898e-02,-2.383723296225070953e-02,9.363558143377304077e-02,-8.047248423099517822e-02,-3.601140156388282776e-02,-8.287029713392257690e-02,4.392305389046669006e-02,-5.637480318546295166e-02,-5.986824259161949158e-02,6.143569201231002808e-02,-5.027155950665473938e-02,-5.933181196451187134e-02,-6.777371466159820557e-02,-8.183718472719192505e-02,8.455113321542739868e-02,-5.203068256378173828e-02,4.479682818055152893e-02,-5.256298184394836426e-02,-6.493628770112991333e-02,-4.023993387818336487e-03,5.048051025369204581e-05,5.745010823011398315e-02,4.932939261198043823e-02,4.936974495649337769e-02,6.407217681407928467e-02,7.029820233583450317e-02,5.590308830142021179e-02,-8.303891867399215698e-02,-7.748138904571533203e-02,6.634274125099182129e-02,4.578941967338323593e-03,1.222385466098785400e-01,-3.392495959997177124e-02,-9.120245277881622314e-02,-2.625803649425506592e-02,-4.272840544581413269e-02,7.130210101604461670e-02,-7.385610044002532959e-02,-8.828114718198776245e-02,6.868174672126770020e-02,3.153197467327117920e-02
1.869283057749271393e-02,-4.258237406611442566e-02,-5.437973421066999435e-03,-5.930349230766296387e-02,-7.836404442787170410e-02,-2.485297806560993195e-02,7.539710402488708496e-02,3.024196252226829529e-02,-3.818959370255470276e-02,-1.540002226829528809e-02,-2.316717244684696198e-02,-8.580461889505386353e-02,-8.433264680206775665e-03,5.179829522967338562e-02,-5.590022727847099304e-02,1.386695355176925659e-01,-6.279870122671127319e-02,6.389392912387847900e-02,-7.658921927213668823e-02,-5.535410344600677490e-02,-4.871428757905960083e-02,7.796903699636459351e-02,1.777894981205463409e-02,1.079928427934646606e-01,4.104978218674659729e-02,-4.551910609006881714e-02,-5.056080967187881470e-02,-6.476379185914993286e-02,-4.411695897579193115e-02,5.767587199807167053e-02,-1.044143959879875183e-01,1.133084949105978012e-02,6.134719029068946838e-02,1.157871186733245850e-01,-9.918558597564697266e-02,-2.964786067605018616e-02,9.351565688848495483e-02,-2.074526710202917457e-04,-1.055476814508438110e-01,-6.474868208169937134e-02,-6.429267674684524536e-02,-5.818616226315498352e-02,-2.324918098747730255e-02,5.986139923334121704e-02,-7.850039750337600708e-02,-4.827168956398963928e-02,-5.645164102315902710e-02,-3.821539878845214844e-02,1.873449981212615967e-02,-4.041969031095504761e-02,2.301415801048278809e-02,3.853965550661087036e-02,-8.630470186471939087e-02,-7.464450597763061523e-02,-7.560695707798004150e-02,8.643943071365356445e-02,-4.748647660017013550e-02,7.415611296892166138e-02,-7.061548531055450439e-02,-3.821821510791778564e-02,-5.520816519856452942e-02,-7.223811000585556030e-02,1.016318425536155701e-01,-1.077753491699695587e-02,2.395462011918425560e-03,-5.038590729236602783e-02,-6.930674612522125244e-02,-9.567832574248313904e-03,3.877132385969161987e-02,-7.883921265602111816e-02,2.292943000793457031e-02,8.048075437545776367e-02,5.599048361182212830e-02,-3.326898813247680664e-02,-7.079680263996124268e-02,3.827577084302902222e-02,5.785903334617614746e-02,1.055284738540649414e-01,3.993108868598937988e-02,-1.404000073671340942e-01,-1.339780688285827637e-01,1.319362074136734009e-01,1.689501106739044189e-02,-4.308418557047843933e-02,-3.905136883258819580e-02,8.495935797691345215e-02,2.770193666219711304e-02,-5.024481937289237976e-02,-3.693826124072074890e-02,-2.485820464789867401e-02,-4.675742238759994507e-02,-4.368215426802635193e-02,8.940433710813522339e-02,-1.268507242202758789e-01,5.904122442007064819e-02,-5.585157126188278198e-02,2.711752615869045258e-02,-1.863989979028701782e-02,-4.389751702547073364e-02,2.221034141257405281e-03,-5.765242502093315125e-03,2.737035974860191345e-02,-1.289590075612068176e-02,-6.199048087000846863e-02,8.590111136436462402e-02,6.622926890850067139e-02,6.723902188241481781e-03,-8.251095563173294067e-02,-7.351134717464447021e-02,5.318253114819526672e-02,4.902512207627296448e-02,-6.099490076303482056e-02,-3.529332950711250305e-02,5.125955212861299515e-03,-3.898664563894271851e-02,-4.124992061406373978e-03,-9.026464819908142090e-02,-7.891330868005752563e-02,3.573896735906600952e-02,-4.310230165719985962e-02,3.205250203609466553e-02,-4.445127397775650024e-02,7.315082848072052002e-02,-3.069228865206241608e-02,-3.940003737807273865e-02,-4.135583341121673584e-02,5.458613485097885132e-02,-2.580766007304191589e-02
-7.698547840118408203e-02,5.957584455609321594e-02,6.516928225755691528e-02,-9.278570860624313354e-02,5.657605454325675964e-02,-3.961186110973358154e-02,6.877394020557403564e-02,7.792481034994125366e-02,7.544650137424468994e-02,-3.257465735077857971e-02,9.095147252082824707e-02,-6.226850673556327820e-02,-2.836105413734912872e-02,-6.905802339315414429e-02,-1.713095605373382568e-02,-6.084066256880760193e-02,-5.220994353294372559e-02,-9.674078226089477539e-02,8.751199394464492798e-02,-6.141180917620658875e-02,1.049248799681663513e-01,1.949768513441085815e-02,-6.028739735484123230e-02,-2.127368375658988953e-02,-1.369151752442121506e-02,-1.024861484766006470e-01,8.734018355607986450e-02,6.274970620870590210e-02,7.507016509771347046e-02,-6.504803150892257690e-02,-7.765745371580123901e-02,-6.655813008546829224e-02,7.465760409832000732e-02,-5.390971899032592773e-02,2.680126577615737915e-02,-3.187967836856842041e-02,-5.705498903989791870e-02,1.143339648842811584e-01,-1.006542593240737915e-01,6.694999337196350098e-02,6.226769462227821350e-02,-9.033280611038208008e-02,9.400999546051025391e-02,-7.441698014736175537e-02,1.507490780204534531e-02,-4.834780842065811157e-02,7.129519432783126831e-02,-5.087194219231605530e-02,-6.628729403018951416e-02,-5.549667775630950928e-02,-9.374100714921951294e-02,-4.173868894577026367e-02,3.639745712280273438e-02,3.965672850608825684e-02,-4.009288921952247620e-02,-3.093513660132884979e-02,6.305802613496780396e-02,6.787331402301788330e-02,8.981714956462383270e-03,7.798814028501510620e-02,6.289168447256088257e-02,5.551252141594886780e-02,5.074099078774452209e-02,-1.386801432818174362e-02,-5.026547983288764954e-02,1.575469411909580231e-02,1.310714613646268845e-02,4.458405449986457825e-02,-9.199837222695350647e-03,2.551429532468318939e-02,-1.185516491532325745e-01,9.415331482887268066e-02,8.981477469205856323e-02,-3.109893016517162323e-02,5.377473682165145874e-02,-1.013343259692192078e-01,-1.125203967094421387e-01,-3.468371927738189697e-02,-2.724945731461048126e-02,-1.566188633441925049e-01,-6.690672039985656738e-02,5.457254126667976379e-02,5.297467857599258423e-02,-7.363430690020322800e-03,-2.633102796971797943e-02,2.847467549145221710e-02,6.869116332381963730e-03,-6.025427579879760742e-02,-8.068791031837463379e-02,6.344620138406753540e-02,6.062699481844902039e-02,1.312413718551397324e-03,-4.893752932548522949e-02,2.876038290560245514e-02,-6.188929080963134766e-02,8.151629567146301270e-02,3.131512179970741272e-02,-1.623732782900333405e-02,-2.328797243535518646e-02,-1.096311882138252258e-01,-6.365389376878738403e-02,-9.977376461029052734e-02,-3.061548620462417603e-02,3.960506618022918701e-02,9.068704396486282349e-02,-1.136163175106048584e-01,9.609147906303405762e-02,4.921369627118110657e-02,7.915750890970230103e-02,-4.641664680093526840e-03,-7.944509387016296387e-02,4.609882459044456482e-02,4.782235249876976013e-02,-9.445662051439285278e-02,5.506819859147071838e-02,-1.187201440334320068e-01,-4.366292804479598999e-02,-5.913431756198406219e-03,6.886942777782678604e-03,-6.302066892385482788e-02,-8.884904673323035240e-04,4.821652173995971680e-02,-9.782842546701431274e-02,-5.494381487369537354e-02,-2.471710741519927979e-02,8.145207911729812622e-02,9.705734997987747192e-02,5.239764228463172913e-02
7.705818116664886475e-02,8.345732837915420532e-02,-1.210974249988794327e-02,4.345010966062545776e-02,-1.837770082056522369e-02,-4.945431649684906006e-02,5.770830437541007996e-02,7.732551544904708862e-03,4.461977630853652954e-02,6.564821302890777588e-02,5.404308065772056580e-02,9.978940337896347046e-02,-1.264756172895431519e-01,-5.954993516206741333e-02,4.663645103573799133e-02,-4.709944501519203186e-02,-7.691149413585662842e-02,-1.023039072751998901e-01,5.787138640880584717e-02,-4.811679199337959290e-02,-1.095473393797874451e-02,7.266677170991897583e-02,4.325413331389427185e-02,-5.383570492267608643e-02,-7.980532944202423096e-02,-3.176197037100791931e-02,5.352196469902992249e-02,3.274360299110412598e-02,-8.002009242773056030e-02,-9.541497379541397095e-02,1.026721894741058350e-01,1.157380118966102600e-01,-2.187227085232734680e-02,-3.656692057847976685e-02,3.584372624754905701e-02,-6.204874068498611450e-02,1.150560528039932251e-01,-1.187487412244081497e-02,2.077626530081033707e-03,4.688320681452751160e-02,-6.670434027910232544e-02,-6.374571472406387329e-02,2.473580092191696167e-02,-7.774218916893005371e-02,5.458220094442367554e-02,-1.383803486824035645e-01,3.405391424894332886e-02,-2.512990497052669525e-02,4.170076921582221985e-02,3.740055114030838013e-02,2.412888966500759125e-02,-6.072123348712921143e-02,3.582613915205001831e-02,4.932462051510810852e-02,3.036717697978019714e-02,-4.829030856490135193e-02,6.573484838008880615e-02,-9.911670535802841187e-02,5.311745032668113708e-02,3.900875896215438843e-02,7.121779769659042358e-02,-8.015295118093490601e-02,-5.808746442198753357e-02,-4.657360166311264038e-02,8.823014795780181885e-02,4.792557656764984131e-02,6.214649975299835205e-02,5.544447526335716248e-02,2.782456576824188232e-03,-7.179141789674758911e-02,4.720040038228034973e-02,-4.368789121508598328e-02,7.303943485021591187e-02,-1.898774504661560059e-02,-5.977319553494453430e-02,9.044784307479858398e-02,6.987987458705902100e-02,-6.859280169010162354e-02,7.975403219461441040e-02,1.051893308758735657e-01,-2.287849225103855133e-02,-3.542288392782211304e-02,7.859011739492416382e-02,1.205138862133026123e-01,-2.019997686147689819e-02,5.748511105775833130e-02,5.103158578276634216e-02,5.521030351519584656e-02,5.790226161479949951e-02,-4.986328259110450745e-02,3.050358407199382782e-02,5.755646899342536926e-02,-4.653362557291984558e-02,1.772124879062175751e-02,-1.024065166711807251e-01,4.241193085908889771e-02,-6.400832533836364746e-02,-4.629024118185043335e-02,7.460792362689971924e-02,6.597818434238433838e-02,3.046013042330741882e-02,8.026206493377685547e-02,3.262075409293174744e-02,-1.091593224555253983e-02,-6.810662150382995605e-02,-1.265198690816760063e-03,-4.311057180166244507e-02,2.454673312604427338e-02,-4.934667050838470459e-02,-8.734071254730224609e-02,2.814756333827972412e-02,-2.839643321931362152e-02,-1.058395132422447205e-01,4.779383167624473572e-02,4.382551833987236023e-02,7.192984968423843384e-02,7.218001782894134521e-02,6.946112215518951416e-02,-2.877448685467243195e-02,1.101140230894088745e-01,5.833070725202560425e-02,4.769159480929374695e-02,5.142807960510253906e-02,-2.580449357628822327e-02,8.607093989849090576e-02,-2.927057445049285889e-02,-4.000296071171760559e-02,-8.962576836347579956e-02
4.102643206715583801e-02,-2.026726305484771729e-02,-2.412155456840991974e-02,4.593665897846221924e-02,6.717389822006225586e-02,-4.056267440319061279e-02,-8.118212968111038208e-02,7.530998438596725464e-02,6.928102672100067139e-02,-8.806183934211730957e-02,1.370967458933591843e-02,-1.690059155225753784e-01,-1.775835826992988586e-02,1.453208830207586288e-02,7.319522649049758911e-02,-7.494023442268371582e-02,4.309501498937606812e-02,-2.816897630691528320e-02,7.946246117353439331e-02,1.107835620641708374e-01,6.469459086656570435e-02,-5.990321934223175049e-02,-2.755754441022872925e-02,6.639851629734039307e-02,5.367027968168258667e-02,-7.249508798122406006e-02,-3.564162179827690125e-02,-5.165633931756019592e-02,1.096782088279724121e-02,-9.975655376911163330e-02,4.658827930688858032e-02,6.985190510749816895e-02,-1.273840963840484619e-01,8.692429214715957642e-02,-9.171806275844573975e-02,9.530687332153320312e-02,-4.408409819006919861e-02,-4.006842151284217834e-02,2.671205252408981323e-02,6.131882965564727783e-02,-4.719365015625953674e-02,4.806817322969436646e-02,7.398108392953872681e-02,-4.816255345940589905e-02,-8.207901380956172943e-03,-7.731945719569921494e-03,-2.938210219144821167e-02,-7.965415134094655514e-04,-9.233751893043518066e-02,9.523248299956321716e-03,-8.223394304513931274e-02,-6.136236712336540222e-02,-8.352421224117279053e-02,-8.491829782724380493e-02,8.036271482706069946e-02,-3.216142579913139343e-02,4.505578055977821350e-02,-5.205052345991134644e-02,-6.466720253229141235e-02,-2.824140153825283051e-02,-6.523595005273818970e-02,5.709350481629371643e-02,-3.300660848617553711e-02,-1.313680689781904221e-02,-9.342475980520248413e-02,4.750827699899673462e-02,-5.666865035891532898e-02,7.240026444196701050e-02,-1.276646703481674194e-01,-5.269405245780944824e-02,2.410211041569709778e-02,2.270446904003620148e-02,-5.301544442772865295e-02,6.236685439944267273e-03,-4.770970717072486877e-02,5.384822189807891846e-02,-1.297485381364822388e-01,2.491713128983974457e-02,1.196576748043298721e-02,3.526466712355613708e-02,7.900195568799972534e-02,7.751972973346710205e-02,-8.419813215732574463e-02,4.339745268225669861e-02,1.100507602095603943e-01,-5.917265638709068298e-02,3.677298873662948608e-02,1.248050481081008911e-01,3.068322129547595978e-02,2.969600027427077293e-03,-3.304671868681907654e-02,-6.256271153688430786e-02,7.989064604043960571e-02,-6.838480383157730103e-02,-3.117882832884788513e-02,-7.449799031019210815e-02,-9.288608282804489136e-02,1.402122378349304199e-01,-3.730044886469841003e-02,1.398374512791633606e-02,5.550252273678779602e-03,5.153761431574821472e-02,1.515092607587575912e-02,-4.574978351593017578e-02,2.021892741322517395e-02,5.552928894758224487e-02,5.318057164549827576e-02,-6.414871662855148315e-02,-5.271249637007713318e-02,4.147230088710784912e-02,2.603177540004253387e-02,-8.838036656379699707e-02,-5.729895457625389099e-02,-1.557857636362314224e-02,-4.748137667775154114e-02,1.043036133050918579e-01,-9.632060676813125610e-02,-5.356216430664062500e-02,-1.132147088646888733e-01,8.042819052934646606e-02,7.318431884050369263e-02,-2.524844743311405182e-02,7.245827466249465942e-02,1.659204065799713135e-02,3.848655521869659424e-02,-1.128351315855979919e-02,-5.597472563385963440e-02,-2.253526449203491211e-02
