2.346111834049224854e-02
8.692897856235504150e-02
7.667820900678634644e-02
-1.572290509939193726e-01
-7.444138079881668091e-02
-1.392257213592529297e-01
-1.562160849571228027e-01
-3.734052181243896484e-03
2.475802786648273468e-02
-1.388256102800369263e-01
-1.317868474870920181e-02
1.513978987932205200e-01
3.233439847826957703e-02
-2.618179321289062500e-01
4.119312390685081482e-03
-6.005807220935821533e-02
9.193877130746841431e-02
-1.238068491220474243e-01
-1.792411357164382935e-01
6.855832762084901333e-04
2.441301755607128143e-02
-1.683340966701507568e-02
5.254063010215759277e-02
-1.319295018911361694e-01
1.338640749454498291e-01
1.702951639890670776e-02
-5.729283019900321960e-02
8.071131259202957153e-02
-5.214840918779373169e-02
-7.186774164438247681e-02
-1.237872913479804993e-01
-1.261222958564758301e-01
5.864116549491882324e-02
-1.037833541631698608e-01
-7.684431225061416626e-02
-2.125389277935028076e-01
-4.156035557389259338e-02
1.235601231455802917e-01
-3.118809545412659645e-03
-1.885239332914352417e-01
1.671006083488464355e-01
4.149430617690086365e-02
-1.366820633411407471e-01
2.414593547582626343e-01
-1.110943593084812164e-02
4.937515780329704285e-02
1.027394905686378479e-01
3.836907073855400085e-02
-5.856028199195861816e-02
-2.093227580189704895e-02
3.209432959556579590e-01
3.225713223218917847e-02
1.855846866965293884e-02
1.155884861946105957e-01
1.828247122466564178e-02
-1.373628973960876465e-01
7.220298051834106445e-02
1.155346482992172241e-01
2.205159701406955719e-02
9.059315174818038940e-02
1.145583540201187134e-01
-5.729675665497779846e-02
-1.116340514272451401e-02
-3.583228215575218201e-02
-1.388193070888519287e-01
1.373577266931533813e-01
4.647834971547126770e-02
-6.113488599658012390e-02
8.977866731584072113e-03
2.063199877738952637e-02
-2.248234450817108154e-01
1.526745557785034180e-01
1.074161678552627563e-01
-1.141667068004608154e-01
-2.147794142365455627e-02
-1.369812488555908203e-01
2.602785639464855194e-02
6.768827885389328003e-02
2.003713101148605347e-01
8.995294570922851562e-02
6.493007391691207886e-02
-1.091810688376426697e-01
9.928216040134429932e-02
-4.402131587266921997e-02
5.161910131573677063e-02
-1.401649564504623413e-01
-1.063684597611427307e-01
-1.002825051546096802e-01
5.570784956216812134e-02
-7.980220764875411987e-02
2.623363025486469269e-02
7.374870777130126953e-02
-6.178822740912437439e-02
5.051099136471748352e-02
-8.699644356966018677e-02
-6.055879965424537659e-02
-1.461194921284914017e-02
9.209782630205154419e-02
1.013908684253692627e-01
3.748186305165290833e-02
-1.118010580539703369e-01
1.192495226860046387e-01
-2.284197881817817688e-02
4.471143707633018494e-02
5.758210271596908569e-02
-5.112826824188232422e-02
-9.949868917465209961e-02
1.559331119060516357e-01
9.559800848364830017e-03
-3.826941177248954773e-02
9.932989627122879028e-02
-5.575931817293167114e-02
7.694902271032333374e-02
2.129748754668980837e-04
2.028665319085121155e-02
5.515572801232337952e-02
-1.815943270921707153e-01
1.555064879357814789e-02
2.428736165165901184e-02
2.087334357202053070e-02
1.919872611761093140e-01
1.080320030450820923e-01
1.701494678854942322e-02
6.230775639414787292e-02
-9.895203262567520142e-02
4.420223459601402283e-02
7.264282554388046265e-02
-4.510560631752014160e-02
