1.181091368198394775e-01
-7.268164306879043579e-02
1.354037970304489136e-02
-3.556323796510696411e-02
-1.210205070674419403e-02
6.228845193982124329e-02
-5.020726844668388367e-02
4.461290314793586731e-02
-1.707222610712051392e-01
2.890076674520969391e-02
3.306450322270393372e-02
4.212196171283721924e-02
4.172980040311813354e-02
1.095852348953485489e-03
8.232922106981277466e-02
6.328191608190536499e-02
-8.378870785236358643e-03
5.727980285882949829e-02
1.039362102746963501e-01
-1.788143068552017212e-02
1.656145416200160980e-02
3.778790310025215149e-02
-4.695651680231094360e-02
-3.767898678779602051e-02
-2.676012367010116577e-02
-3.313688933849334717e-02
4.051681980490684509e-02
2.609378844499588013e-02
6.683315336704254150e-02
-1.840962655842304230e-02
-6.978314369916915894e-02
8.077137917280197144e-02
-8.338497579097747803e-02
-9.133747965097427368e-02
1.091327238827943802e-02
-1.732380688190460205e-02
1.847139000892639160e-02
2.792918309569358826e-02
-1.940887048840522766e-02
7.315501570701599121e-02
3.052977658808231354e-02
1.208384260535240173e-01
8.990272134542465210e-02
-2.024089917540550232e-02
2.501949295401573181e-02
-1.231778413057327271e-02
-1.997943595051765442e-02
5.816221237182617188e-02
6.728687882423400879e-02
-1.036376580595970154e-01
-9.669230133295059204e-02
-8.375404030084609985e-02
-3.276050090789794922e-02
7.205426692962646484e-02
1.501077413558959961e-02
-1.345347985625267029e-02
-2.064118534326553345e-02
-1.413792092353105545e-02
-9.579379111528396606e-02
-7.097207009792327881e-02
1.134890690445899963e-01
-2.913099341094493866e-02
-1.017737165093421936e-01
5.109290406107902527e-02
3.797682002186775208e-02
-6.375246495008468628e-02
-6.113590672612190247e-03
-9.306795150041580200e-02
6.153186410665512085e-02
7.186141796410083771e-03
5.782357975840568542e-02
-5.453863367438316345e-02
-1.350075937807559967e-02
-1.640829630196094513e-02
2.064489573240280151e-02
7.838626950979232788e-02
-5.333251133561134338e-02
-1.152489110827445984e-01
-9.852062165737152100e-02
-2.920541353523731232e-02
1.525999326258897781e-02
-1.165828630328178406e-01
2.509755268692970276e-02
3.167645260691642761e-02
5.061365291476249695e-02
1.016428172588348389e-01
8.580467663705348969e-03
-2.054911293089389801e-02
1.067938059568405151e-01
-7.934377342462539673e-02
7.055192720144987106e-03
-8.966989070177078247e-02
7.438802719116210938e-02
-6.212202459573745728e-02
-5.085616558790206909e-02
4.821084067225456238e-02
-7.869117893278598785e-03
5.455230921506881714e-02
7.898687385022640228e-03
9.530308097600936890e-02
-2.150118350982666016e-02
-4.552209377288818359e-02
-1.240674331784248352e-01
-4.931584000587463379e-03
-3.972197696566581726e-02
-6.848232448101043701e-02
4.652343317866325378e-02
-2.143621258437633514e-02
-2.810727059841156006e-02
2.688319236040115356e-02
4.275282844901084900e-02
-5.323887988924980164e-02
-1.165580749511718750e-02
1.214706338942050934e-02
1.012095436453819275e-01
-4.842524603009223938e-02
-9.436257928609848022e-02
3.680825605988502502e-02
4.387107491493225098e-02
6.972955167293548584e-02
5.246293544769287109e-02
3.599875047802925110e-02
-1.082364469766616821e-03
-3.640357777476310730e-02
-4.822917282581329346e-02
1.329087931662797928e-02
-8.421007543802261353e-02
1.140602901577949524e-01
-4.164011031389236450e-02
-7.229808717966079712e-03
-3.822942078113555908e-02
6.624682282563298941e-05
1.073802355676889420e-02
9.361825883388519287e-03
5.541428923606872559e-03
-6.194118782877922058e-02
-1.651454903185367584e-02
-1.676189713180065155e-02
8.063249289989471436e-02
-4.419563338160514832e-02
-1.165474299341440201e-02
-8.429387211799621582e-02
-1.486849877983331680e-02
-4.050206020474433899e-02
1.645867712795734406e-02
3.629392385482788086e-02
4.398155584931373596e-02
3.812932968139648438e-02
3.568939631804823875e-03
8.734659850597381592e-02
4.279396310448646545e-02
-2.849278412759304047e-02
1.275349967181682587e-02
-4.101882502436637878e-02
4.114737734198570251e-03
3.440228477120399475e-02
4.094908758997917175e-02
-1.453090012073516846e-01
-8.240244537591934204e-02
-9.539484977722167969e-02
-6.369137763977050781e-02
-7.510682195425033569e-02
-9.386903606355190277e-03
-5.471605062484741211e-02
1.463231295347213745e-01
-9.097669273614883423e-02
-4.966336302459239960e-03
-2.283315658569335938e-01
4.342490341514348984e-03
5.073536885902285576e-04
1.154530346393585205e-01
8.714096248149871826e-02
-8.785621076822280884e-02
-2.338811755180358887e-02
3.479009121656417847e-02
6.178458686918020248e-03
5.927313119173049927e-02
8.194831758737564087e-02
-4.986711964011192322e-02
-1.465333439409732819e-02
1.745355315506458282e-02
1.232640817761421204e-01
-7.091386709362268448e-03
1.697259955108165741e-02
1.793615520000457764e-02
5.029271543025970459e-02
-2.795303985476493835e-02
6.701252609491348267e-02
6.790035218000411987e-02
-1.074514165520668030e-02
3.243510052561759949e-02
1.357658654451370239e-01
2.277967333793640137e-02
-9.337732195854187012e-02
6.193772424012422562e-03
1.401817500591278076e-01
-6.522960215806961060e-02
-4.870641976594924927e-02
-2.882623672485351562e-02
2.943272702395915985e-02
4.426990076899528503e-02
4.566907417029142380e-03
2.812832407653331757e-02
3.553667291998863220e-02
9.090412408113479614e-02
-8.296771906316280365e-03
-7.875879108905792236e-02
-4.183190688490867615e-02
-4.369477555155754089e-02
3.127902280539274216e-03
8.431075513362884521e-02
-1.150591648183763027e-03
5.438768118619918823e-02
1.785714551806449890e-02
-1.721629314124584198e-02
-9.154146164655685425e-02
-1.349414512515068054e-02
9.606981277465820312e-02
8.023039251565933228e-02
5.596521124243736267e-02
-7.814200595021247864e-03
-2.314952015876770020e-02
-2.368725463747978210e-02
7.958885282278060913e-03
-4.928020387887954712e-02
-5.299685895442962646e-02
6.258787959814071655e-02
-2.956980839371681213e-02
-6.416990887373685837e-03
5.273091141134500504e-03
1.914077065885066986e-02
-4.704529047012329102e-02
2.745249681174755096e-02
-3.342948108911514282e-02
3.054779209196567535e-02
2.412070147693157196e-02
8.486560732126235962e-02
7.526594400405883789e-02
-3.010662831366062164e-02
-1.177947502583265305e-02
-2.755662240087985992e-02
2.735170722007751465e-02
-1.287269499152898788e-02
3.901803400367498398e-03
1.332353949546813965e-01
-2.120144106447696686e-02
3.955891588702797890e-04
-1.441477425396442413e-02
-5.934081971645355225e-02
4.617624729871749878e-02
-4.907253384590148926e-02
1.850731112062931061e-02
3.182497620582580566e-02
5.707399919629096985e-03
2.738892287015914917e-02
-6.484030932188034058e-02
2.472561039030551910e-02
-2.681462839245796204e-02
-3.739731013774871826e-02
-1.233175862580537796e-02
2.140660025179386139e-02
-6.356586702167987823e-03
-6.009168922901153564e-02
-6.918570399284362793e-02
8.144272863864898682e-02
1.646682620048522949e-02
-1.692669466137886047e-02
-8.973097428679466248e-03
-5.720388889312744141e-02
2.860449068248271942e-02
6.087695434689521790e-02
5.762186367064714432e-03
-3.767225146293640137e-02
1.947719603776931763e-02
-7.211863994598388672e-02
1.645031385123729706e-02
1.158439670689404011e-03
2.438800968229770660e-02
9.039831161499023438e-02
2.299008704721927643e-02
-9.860206628218293190e-04
5.103000625967979431e-02
1.892554573714733124e-02
-7.826534658670425415e-02
1.105899550020694733e-02
9.675579145550727844e-03
8.932722359895706177e-02
-1.821340620517730713e-02
-9.052424132823944092e-02
6.339843571186065674e-02
1.240382865071296692e-01
3.626929223537445068e-02
-6.935027986764907837e-02
3.266352228820323944e-03
2.898997161537408829e-03
3.742143884301185608e-02
-5.959650874137878418e-02
-3.079756349325180054e-02
-3.987735882401466370e-02
-6.883655488491058350e-02
3.069238550961017609e-02
-3.634326159954071045e-02
2.362605556845664978e-02
-5.390427634119987488e-02
4.838254302740097046e-02
-1.396093368530273438e-01
1.648479104042053223e-01
2.510631829500198364e-02
2.978135086596012115e-02
-2.573091769590973854e-03
2.880346961319446564e-02
-4.852234199643135071e-02
-4.208621568977832794e-03
-7.867639511823654175e-02
-4.131158813834190369e-02
-2.076257951557636261e-02
-2.193207852542400360e-03
-2.901598252356052399e-02
7.694568485021591187e-02
1.582757383584976196e-02
3.863827884197235107e-02
-5.487120524048805237e-02
-4.145535826683044434e-02
-2.147951871156692505e-01
-3.316470421850681305e-03
2.254137955605983734e-02
-8.192225545644760132e-02
2.105250582098960876e-02
7.960711419582366943e-02
8.617539890110492706e-03
7.300744205713272095e-02
2.109411871060729027e-03
-6.158744916319847107e-02
2.310780622065067291e-02
-3.851016983389854431e-02
7.002452015876770020e-02
5.729696247726678848e-03
1.670958846807479858e-02
-6.869466509670019150e-03
-6.519420538097620010e-03
-8.955043740570545197e-03
2.917021326720714569e-02
-7.695876061916351318e-02
-3.597475215792655945e-02
-5.735172703862190247e-02
-8.119606971740722656e-02
1.830643042922019958e-03
-1.213583536446094513e-02
-1.618304476141929626e-02
-5.378209799528121948e-02
-3.572912514209747314e-02
1.943114213645458221e-02
-3.616058826446533203e-02
2.996496856212615967e-02
-2.559922449290752411e-02
-5.139399785548448563e-03
4.478110466152429581e-03
1.080138981342315674e-02
3.978853113949298859e-03
5.402360856533050537e-02
-2.419883757829666138e-02
-2.752066031098365784e-02
1.363831851631402969e-02
6.037887930870056152e-02
-1.208304334431886673e-02
-3.226930275559425354e-02
-1.186792459338903427e-02
5.111508443951606750e-02
-2.727510221302509308e-02
1.502661220729351044e-02
-2.436709590256214142e-03
1.280017495155334473e-01
-8.727541565895080566e-02
-4.615476354956626892e-02
-9.772597812116146088e-03
-6.373051437549293041e-04
-1.600422896444797516e-02
-1.775582553818821907e-03
-9.773600846529006958e-03
2.229057485237717628e-03
8.534738793969154358e-03
2.758347243070602417e-02
-1.972963567823171616e-03
2.131323516368865967e-02
7.982273399829864502e-02
4.678319394588470459e-02
3.529101982712745667e-02
-7.050667423754930496e-03
-1.517021209001541138e-01
-1.037017405033111572e-01
4.451463371515274048e-02
-1.775864139199256897e-02
-9.512280672788619995e-02
1.667293533682823181e-02
3.182044923305511475e-01
2.404387667775154114e-02
-1.138200983405113220e-02
1.061346530914306641e-01
-7.415555417537689209e-02
2.084092982113361359e-02
1.007957011461257935e-02
-2.181238532066345215e-01
-2.409006468951702118e-02
-2.153440564870834351e-02
-3.781549260020256042e-02
7.359505444765090942e-02
-7.970499247312545776e-02
-1.996808312833309174e-02
-2.523137331008911133e-01
-8.546461910009384155e-02
-1.344443019479513168e-02
1.117438673973083496e-01
4.928929731249809265e-02
3.758006542921066284e-02
-9.129254519939422607e-02
-2.246652543544769287e-01
2.108105421066284180e-01
-7.137079536914825439e-02
-1.466407328844070435e-01
-6.808821856975555420e-02
-1.511228736490011215e-02
1.330864578485488892e-01
1.495793908834457397e-01
-2.504047453403472900e-01
-8.288162201642990112e-02
-7.179775834083557129e-02
-5.518259946256875992e-03
-4.400689154863357544e-02
-8.799911290407180786e-02
3.899833858013153076e-01
-7.768759876489639282e-02
-7.560849189758300781e-02
-3.247422352433204651e-02
2.141187712550163269e-02
-1.595220267772674561e-01
-1.946061402559280396e-01
-8.857697993516921997e-02
2.766494825482368469e-02
-2.126006595790386200e-02
2.051484584808349609e-02
-8.848535828292369843e-03
-1.542727369815111160e-02
1.049160361289978027e-01
4.458258673548698425e-02
1.619646400213241577e-01
-9.453564882278442383e-02
-1.300312578678131104e-02
-4.412274807691574097e-02
-7.187814265489578247e-02
5.450566485524177551e-02
4.282172024250030518e-02
-2.494539692997932434e-02
1.216685995459556580e-01
-7.228045165538787842e-02
-5.839258804917335510e-02
5.225335061550140381e-02
-9.711183607578277588e-02
-2.783923223614692688e-02
-1.198435574769973755e-01
-1.577628403902053833e-02
1.869571581482887268e-02
-5.585780739784240723e-02
-4.250213205814361572e-01
-9.162933379411697388e-02
-2.009653300046920776e-02
-3.745242953300476074e-02
6.560414284467697144e-02
-8.779130876064300537e-03
-2.817391417920589447e-02
5.610875319689512253e-03
-6.216385960578918457e-02
-1.991553790867328644e-02
7.309447228908538818e-02
-6.161904707551002502e-02
5.656094104051589966e-02
-8.048545569181442261e-03
2.777709066867828369e-02
3.135187923908233643e-02
2.373956143856048584e-02
-4.845943674445152283e-02
4.918670654296875000e-02
-2.789256535470485687e-02
3.725634887814521790e-02
1.042413562536239624e-01
-2.996144443750381470e-02
3.562299162149429321e-02
4.325987398624420166e-02
-2.630882710218429565e-02
2.023381926119327545e-02
5.406859889626502991e-02
-4.911443963646888733e-02
-3.283193707466125488e-02
-3.150147967971861362e-04
4.743625686387531459e-05
2.496324479579925537e-02
-3.015050478279590607e-02
-4.990187287330627441e-02
-5.452698562294244766e-03
-5.701048672199249268e-02
-1.837087571620941162e-01
-8.864261209964752197e-03
1.854381151497364044e-02
-1.080657169222831726e-01
5.732185021042823792e-02
1.521196812391281128e-01
8.718159049749374390e-03
-2.882048301398754120e-02
2.993229217827320099e-02
7.012308388948440552e-02
1.331344991922378540e-01
7.464677840471267700e-02
5.446695536375045776e-02
-1.086429357528686523e-01
1.437253039330244064e-02
1.619337871670722961e-02
4.219252243638038635e-02
4.203271493315696716e-02
-1.854052990674972534e-01
-6.211734935641288757e-02
-2.534218877553939819e-02
-6.093648448586463928e-02
5.283732898533344269e-04
-1.744467467069625854e-01
9.328429400920867920e-02
7.558804005384445190e-02
8.320444822311401367e-02
7.177804410457611084e-02
-2.903448976576328278e-02
4.669446498155593872e-02
1.910789906978607178e-01
-4.006755352020263672e-02
4.873799160122871399e-02
-1.633170433342456818e-02
1.065591815859079361e-02
-2.301966585218906403e-02
1.020199991762638092e-02
3.970261663198471069e-02
1.470001786947250366e-02
-2.590380376204848289e-03
-3.730625286698341370e-02
9.541562944650650024e-02
-6.111961789429187775e-03
-5.781752988696098328e-02
-2.662217617034912109e-02
5.501066148281097412e-02
9.274435043334960938e-02
-2.759302221238613129e-02
-7.611879706382751465e-02
-2.626711875200271606e-02
-4.171821102499961853e-02
-3.281343355774879456e-02
1.962534934282302856e-01
1.254938095808029175e-01
7.777284830808639526e-02
6.374351680278778076e-02
4.200834780931472778e-02
4.118231311440467834e-02
-2.312685735523700714e-02
-2.246277034282684326e-02
-2.008390612900257111e-03
-1.281999796628952026e-01
-1.162365153431892395e-01
-8.720091730356216431e-02
6.671667098999023438e-02
2.866765484213829041e-02
1.026215925812721252e-01
5.492058023810386658e-02
1.689594835042953491e-01
-1.582141593098640442e-02
3.824041783809661865e-02
3.130308538675308228e-02
-1.011738553643226624e-01
-2.263358794152736664e-02
4.525083303451538086e-02
-3.814906813204288483e-03
1.341882348060607910e-01
-6.855636090040206909e-02
-2.730572968721389771e-02
-1.352317184209823608e-01
-2.812508866190910339e-02
9.434785693883895874e-02
-8.836609870195388794e-02
3.516759350895881653e-02
5.612251907587051392e-02
5.846487358212471008e-03
1.349629368633031845e-02
-1.934061050415039062e-01
-7.266815006732940674e-02
-4.740793630480766296e-02
-1.996321417391300201e-02
1.136315688490867615e-01
-7.499585300683975220e-02
-2.183838374912738800e-02
-4.457622021436691284e-02
4.755659401416778564e-02
1.923817954957485199e-02
3.335181623697280884e-02
-1.037598997354507446e-01
4.143679141998291016e-02
9.237661026418209076e-03
7.590906694531440735e-03
7.731109112501144409e-02
2.202610485255718231e-02
5.834582820534706116e-02
-4.460784140974283218e-03
3.625134006142616272e-02
1.255362853407859802e-02
5.340420454740524292e-02
2.196055836975574493e-02
1.510560791939496994e-02
-4.371437430381774902e-02
-6.149899214506149292e-02
1.846285164356231689e-02
9.698218107223510742e-02
1.193605456501245499e-02
-2.601970732212066650e-02
9.593052789568901062e-03
-7.132647093385457993e-03
1.531622651964426041e-02
-8.474161475896835327e-02
-5.226460844278335571e-02
-1.246124133467674255e-02
-3.488620370626449585e-02
2.887016534805297852e-02
7.208263128995895386e-02
9.800338000059127808e-02
-5.465292371809482574e-03
-3.243969380855560303e-02
-2.544000931084156036e-02
3.425846993923187256e-02
-1.066687423735857010e-02
2.739292196929454803e-02
9.234660863876342773e-02
1.477551758289337158e-01
-4.437968879938125610e-02
-2.085793018341064453e-02
-1.409223228693008423e-01
-2.144404873251914978e-02
3.854821622371673584e-02
2.142535895109176636e-02
-9.309868514537811279e-02
-1.178093478083610535e-01
1.106209233403205872e-01
2.053648233413696289e-02
-4.320779815316200256e-02
-6.099908798933029175e-02
-9.735362604260444641e-03
6.988287717103958130e-02
1.800830103456974030e-02
-1.149525493383407593e-02
-6.703209131956100464e-02
-1.214517094194889069e-02
-2.983192447572946548e-03
-5.009502544999122620e-02
-2.204372361302375793e-02
-3.054066561162471771e-02
4.073994606733322144e-02
-4.296560771763324738e-03
1.054266244173049927e-01
-2.016138099133968353e-02
-5.952641367912292480e-02
3.640887141227722168e-02
1.361448550596833229e-03
-2.819871902465820312e-02
5.463760718703269958e-02
-3.971162810921669006e-02
2.206146158277988434e-02
-1.153416000306606293e-03
4.016579315066337585e-02
2.321765944361686707e-02
2.391884289681911469e-02
7.627920061349868774e-02
-2.581827528774738312e-02
-1.829487457871437073e-02
1.125835534185171127e-02
-1.071617081761360168e-01
6.444547325372695923e-02
-7.227205205708742142e-03
4.528154060244560242e-02
-1.191461160778999329e-01
3.231301531195640564e-02
-2.077904995530843735e-03
-2.455847524106502533e-02
-4.095364362001419067e-02
7.807196676731109619e-02
-7.565156370401382446e-02
5.101887881755828857e-02
5.774721503257751465e-03
1.902131922543048859e-02
1.619620621204376221e-01
4.576499015092849731e-02
-4.026939347386360168e-02
5.077939480543136597e-02
-2.969224238768219948e-03
5.095487460494041443e-03
9.287112951278686523e-02
6.600345671176910400e-02
-8.539072424173355103e-02
3.618115559220314026e-03
-7.349690888077020645e-03
-1.950005069375038147e-02
-1.634275764226913452e-01
-2.206598781049251556e-02
1.248952969908714294e-01
7.249442487955093384e-02
1.196887418627738953e-01
2.172273769974708557e-02
3.039413318037986755e-02
-1.876101642847061157e-01
5.721722170710563660e-02
-3.432506695389747620e-03
3.463462460786104202e-03
1.546860113739967346e-02
-5.416663736104965210e-02
3.388296067714691162e-02
-4.439626634120941162e-02
-4.665578529238700867e-02
-2.839146181941032410e-02
3.839926794171333313e-02
-8.539790660142898560e-02
-2.299381047487258911e-02
-2.463467186316847801e-03
-1.918151602149009705e-02
-7.407192885875701904e-02
3.614803031086921692e-02
-2.760733477771282196e-02
-9.409854188561439514e-03
-3.708865121006965637e-02
4.977821186184883118e-02
5.215920507907867432e-02
-5.814687907695770264e-02
-4.559820890426635742e-02
-4.302546754479408264e-02
-3.763700649142265320e-02
-1.651496998965740204e-02
-2.522373199462890625e-02
4.390574991703033447e-02
-1.232068836688995361e-01
-4.301677644252777100e-02
4.225006699562072754e-02
-2.012244611978530884e-02
-3.601697087287902832e-02
-1.592157036066055298e-02
-1.466035470366477966e-02
1.226384565234184265e-02
-4.570501297712326050e-02
-6.042896956205368042e-02
1.822612248361110687e-02
1.991294883191585541e-02
3.724361956119537354e-02
-1.133005414158105850e-02
5.573377944529056549e-03
5.557893309742212296e-03
-7.204878143966197968e-03
-1.616763696074485779e-02
1.520222518593072891e-02
1.403825134038925171e-01
-6.138556078076362610e-02
7.937987893819808960e-02
5.410763435065746307e-03
4.217319563031196594e-02
-6.623440235853195190e-02
3.171483054757118225e-02
3.701665624976158142e-02
1.104223802685737610e-01
-6.789417564868927002e-02
8.109256625175476074e-02
1.060909703373908997e-01
9.009858593344688416e-03
1.759812980890274048e-02
3.326172754168510437e-02
-3.449841961264610291e-02
-2.079576440155506134e-02
1.338435858488082886e-01
-1.564554311335086823e-02
4.996633902192115784e-02
7.216380327008664608e-04
1.808010600507259369e-02
-7.222414016723632812e-02
-6.579013913869857788e-02
2.113428711891174316e-02
3.465313091874122620e-02
-3.147677332162857056e-02
3.192812576889991760e-02
-5.709743499755859375e-02
-3.226999659091234207e-03
1.027821227908134460e-01
5.506448075175285339e-02
-4.831968992948532104e-02
-4.882244020700454712e-02
-2.297885343432426453e-02
-5.195159465074539185e-02
-4.609377309679985046e-02
3.711118828505277634e-03
1.819225959479808807e-02
4.960184916853904724e-02
-8.791776001453399658e-02
-8.270453661680221558e-02
2.586154267191886902e-02
-8.677938580513000488e-02
4.219472408294677734e-02
-4.332202672958374023e-02
-2.778437547385692596e-02
6.360805034637451172e-02
1.486960649490356445e-01
-3.816354647278785706e-02
1.944505423307418823e-02
3.343651071190834045e-02
-8.655998855829238892e-03
9.488006681203842163e-02
9.793649613857269287e-02
-5.048734322190284729e-02
-1.276191473007202148e-01
1.862812973558902740e-02
4.900699853897094727e-02
-1.960080862045288086e-02
-2.323953248560428619e-02
7.582910358905792236e-02
2.190489135682582855e-02
4.021860286593437195e-02
-7.045860588550567627e-02
-3.229599446058273315e-02
8.840539306402206421e-02
1.365970727056264877e-02
3.406675159931182861e-02
-6.736581027507781982e-02
-4.706751182675361633e-02
-2.151909470558166504e-02
9.266696125268936157e-02
1.294094789773225784e-02
-2.114572003483772278e-02
1.587958633899688721e-02
-2.550770714879035950e-02
5.104452371597290039e-02
6.076093632145784795e-05
-7.573813945055007935e-02
8.033736050128936768e-02
-7.179047912359237671e-02
-6.716758757829666138e-02
-7.001008093357086182e-02
-2.440473251044750214e-02
-9.330252185463905334e-03
-6.697562336921691895e-02
-6.568509154021739960e-03
-6.008550524711608887e-02
1.301681529730558395e-02
7.408550381660461426e-02
-5.646515637636184692e-02
8.371328935027122498e-03
3.671712800860404968e-02
-1.311056129634380341e-02
5.172673612833023071e-03
-3.710043430328369141e-02
6.351390480995178223e-02
8.017441630363464355e-02
9.795726835727691650e-02
4.576933011412620544e-02
1.490318328142166138e-01
4.977733641862869263e-02
-5.723324045538902283e-02
3.802945837378501892e-02
1.382422596216201782e-01
2.492186054587364197e-02
-1.239814087748527527e-01
-3.925585001707077026e-02
-1.016910821199417114e-01
4.548834636807441711e-02
7.431374862790107727e-03
2.500379830598831177e-02
-5.101127550005912781e-02
8.229614794254302979e-02
1.961787976324558258e-02
9.535308927297592163e-03
-7.714505773037672043e-03
-7.860013283789157867e-03
-1.247857511043548584e-02
4.560109600424766541e-02
-2.872965671122074127e-02
8.401663973927497864e-03
3.187952563166618347e-02
1.432354301214218140e-01
1.419311016798019409e-02
-1.804759353399276733e-02
2.210497111082077026e-02
5.064232274889945984e-02
1.398990862071514130e-02
-5.809313803911209106e-02
1.882863789796829224e-02
5.426245555281639099e-02
2.323320321738719940e-02
2.921419776976108551e-02
-3.147989744320511818e-03
1.909514330327510834e-02
-5.257376655936241150e-02
1.727674342691898346e-02
2.008464001119136810e-02
-9.112694300711154938e-03
2.087778039276599884e-02
-2.637138962745666504e-02
-1.891752704977989197e-03
-4.958631936460733414e-03
1.406190842390060425e-01
1.989410258829593658e-02
-1.617441512644290924e-02
-2.234126906841993332e-03
-7.995358109474182129e-02
-2.140460163354873657e-02
2.934095263481140137e-02
1.103384885936975479e-02
4.925195593386888504e-03
-4.928188398480415344e-02
1.726063340902328491e-02
8.147538453340530396e-02
3.591798990964889526e-02
-8.220751583576202393e-02
-1.867215335369110107e-02
-6.362365558743476868e-03
2.646832959726452827e-03
-7.145461440086364746e-02
5.693306680768728256e-03
-2.886306680738925934e-02
-4.360112175345420837e-02
-3.499827813357114792e-03
6.315766274929046631e-02
-6.625400483608245850e-02
-1.356886029243469238e-01
-3.585326718166470528e-03
1.322322487831115723e-01
2.077916823327541351e-02
3.390408121049404144e-03
-2.384122088551521301e-02
6.484447512775659561e-03
1.205059662461280823e-01
1.827695406973361969e-02
-2.817684551700949669e-03
1.726439036428928375e-02
1.036337693221867085e-03
-2.472197636961936951e-02
-4.201577976346015930e-02
4.338595271110534668e-02
-1.165594533085823059e-01
6.540204584598541260e-02
-4.890486598014831543e-03
-6.935544312000274658e-02
-2.898785099387168884e-02
2.881947159767150879e-02
-4.521746188402175903e-02
-4.736520349979400635e-02
9.344983845949172974e-02
4.065182060003280640e-02
-4.162620007991790771e-02
4.288381710648536682e-02
1.130520366132259369e-02
1.279719918966293335e-01
9.639838710427284241e-03
8.223763853311538696e-02
-4.488806053996086121e-02
1.270840689539909363e-02
-1.156194414943456650e-02
5.993043631315231323e-02
3.522114828228950500e-02
-4.127110168337821960e-02
-2.713631652295589447e-02
1.665282845497131348e-01
-1.338884979486465454e-01
3.238247707486152649e-02
7.697497960180044174e-03
-6.014240160584449768e-02
-9.229959547519683838e-02
4.784878809005022049e-03
-1.002449821680784225e-02
1.422065347433090210e-01
8.678531646728515625e-02
7.688622176647186279e-02
5.512506514787673950e-02
-1.337741594761610031e-02
5.573848634958267212e-02
-4.115548450499773026e-03
-3.906915709376335144e-02
2.108801342546939850e-02
-4.713970050215721130e-02
3.049625642597675323e-02
5.430066958069801331e-02
-2.370139025151729584e-02
6.856773793697357178e-02
-1.030220612883567810e-01
-1.095209270715713501e-02
-1.659677363932132721e-02
5.588769540190696716e-02
-3.776808828115463257e-02
1.134668886661529541e-01
1.305314153432846069e-02
-1.454725954681634903e-02
5.438383668661117554e-02
1.819122023880481720e-02
7.207397371530532837e-02
-3.554683551192283630e-02
-1.595559529960155487e-02
-7.528561353683471680e-02
8.876208961009979248e-02
2.938756719231605530e-02
1.717884838581085205e-02
-3.886538371443748474e-02
3.781710565090179443e-02
-1.285863965749740601e-01
-1.333997845649719238e-01
-6.478004902601242065e-02
-1.535089779645204544e-02
-6.729526072740554810e-02
2.147104591131210327e-02
-1.738546043634414673e-02
2.433306537568569183e-02
3.417092561721801758e-02
3.421422466635704041e-02
-5.200473591685295105e-02
-8.360268920660018921e-02
3.600748255848884583e-02
-4.148372262716293335e-02
-1.786704920232295990e-02
7.308587897568941116e-03
-6.450241059064865112e-02
-7.769209891557693481e-02
-8.908456563949584961e-02
7.880036532878875732e-02
-7.385668903589248657e-02
4.026994854211807251e-02
8.855017274618148804e-02
3.860019892454147339e-02
1.980743184685707092e-02
-7.278921455144882202e-02
2.744874730706214905e-02
-1.390044391155242920e-02
-4.454822279512882233e-03
1.713022589683532715e-03
6.117783859372138977e-02
-7.437657564878463745e-03
8.583232760429382324e-03
1.433487329632043839e-02
-5.695601552724838257e-02
-4.116533696651458740e-02
2.002578042447566986e-02
4.316287115216255188e-02
1.197285484522581100e-03
-4.980762489140033722e-03
-2.948358468711376190e-02
3.577516414225101471e-03
-1.392323523759841919e-02
9.017373435199260712e-03
-3.999116271734237671e-02
-8.865636587142944336e-02
1.579262688755989075e-02
2.096131071448326111e-02
-4.969405382871627808e-02
-6.268254667520523071e-02
1.359303016215562820e-02
-1.691961474716663361e-02
-1.020368933677673340e-02
2.779901213943958282e-02
-1.144832447171211243e-01
-7.202010136097669601e-03
-8.298754692077636719e-02
-1.235305052250623703e-02
3.052415139973163605e-02
3.472661599516868591e-02
4.985335096716880798e-02
-1.378144919872283936e-01
-7.400689274072647095e-02
2.412870153784751892e-02
-7.047951966524124146e-02
1.676318608224391937e-02
-3.059900552034378052e-02
2.281873300671577454e-02
-4.108932625968009233e-04
-1.018636021763086319e-02
-3.983013704419136047e-02
6.447006762027740479e-02
-2.504497207701206207e-02
-9.577579051256179810e-02
5.266286805272102356e-02
3.967808932065963745e-02
3.923190757632255554e-02
-7.252878695726394653e-02
2.198028378188610077e-02
3.561425022780895233e-03
4.302983358502388000e-02
9.509719163179397583e-02
-7.420729845762252808e-02
-1.127758845686912537e-01
1.807766733691096306e-03
1.669963262975215912e-02
-2.303607761859893799e-02
-1.268662512302398682e-02
-3.362871706485748291e-02
-4.713186621665954590e-02
1.495317462831735611e-02
7.588579319417476654e-03
-4.650295525789260864e-02
6.519806105643510818e-03
2.963558398187160492e-02
-1.896822080016136169e-02
1.353609561920166016e-02
-6.386569142341613770e-02
-3.161223232746124268e-02
-2.582303620874881744e-02
7.861440628767013550e-02
1.510551571846008301e-02
4.957422614097595215e-02
-4.520447924733161926e-03
2.860521338880062103e-02
1.545225859445054084e-05
6.485717371106147766e-03
-1.712573692202568054e-02
-4.135225340723991394e-02
1.090990304946899414e-01
-6.283136457204818726e-02
-4.187447577714920044e-02
-6.005724892020225525e-02
1.282473951578140259e-01
-3.143436834216117859e-02
-3.008118830621242523e-02
9.666968882083892822e-02
4.820614680647850037e-02
-2.066941931843757629e-03
-4.806860536336898804e-02
1.597062870860099792e-02
-1.420745067298412323e-02
-2.385613322257995605e-02
-1.201735343784093857e-02
-1.064203958958387375e-02
-1.809617877006530762e-02
-2.248683571815490723e-02
1.283709984272718430e-02
7.059127092361450195e-02
4.978132620453834534e-02
-1.150633580982685089e-02
1.905450224876403809e-02
3.614817932248115540e-02
4.398238845169544220e-03
-1.469346601516008377e-02
6.285864114761352539e-02
-2.463523484766483307e-02
-2.776790037751197815e-02
1.438027527183294296e-02
-4.678263794630765915e-03
5.853305337950587273e-04
-9.582880884408950806e-02
-3.175425902009010315e-02
1.304383296519517899e-02
6.661827862262725830e-02
-6.087110564112663269e-02
1.654524169862270355e-02
4.442184790968894958e-02
2.065741457045078278e-02
-2.114728093147277832e-02
8.958480507135391235e-02
-2.942405082285404205e-02
-7.408893108367919922e-02
-5.624888464808464050e-02
-6.675303913652896881e-03
-9.850133210420608521e-03
3.220703452825546265e-02
1.624114625155925751e-02
3.631292283535003662e-02
6.300076097249984741e-02
5.068997666239738464e-02
-2.537228725850582123e-02
9.336196817457675934e-03
-1.584045961499214172e-02
-4.115215968340635300e-03
-5.851435009390115738e-03
2.864354103803634644e-02
-1.098873689770698547e-01
2.597895823419094086e-02
-2.922352589666843414e-02
7.646100968122482300e-02
-4.310241783969104290e-04
-1.396011188626289368e-02
-2.796981669962406158e-02
9.233585558831691742e-03
-3.038016520440578461e-02
8.586259186267852783e-02
-2.903649583458900452e-02
9.379742667078971863e-03
6.648921221494674683e-02
-3.782603144645690918e-02
3.429879248142242432e-02
6.507378816604614258e-02
-1.434571761637926102e-02
5.306981503963470459e-03
5.569943785667419434e-02
1.007230803370475769e-01
2.057743445038795471e-02
5.840471480041742325e-03
8.021393418312072754e-02
-2.474530227482318878e-02
-1.011864468455314636e-02
4.553196206688880920e-02
1.750448159873485565e-02
3.704109787940979004e-02
6.926101446151733398e-02
-6.650245934724807739e-02
-5.903286393731832504e-03
3.192494437098503113e-02
-3.636291250586509705e-02
-1.657126285135746002e-02
3.767102956771850586e-02
2.796422317624092102e-02
6.417366862297058105e-02
-4.703445360064506531e-02
-1.691304333508014679e-02
4.833540413528680801e-03
1.321542542427778244e-02
-3.273500129580497742e-02
-2.765172161161899567e-02
5.165888369083404541e-02
1.465800404548645020e-02
-6.789398938417434692e-02
-6.455010175704956055e-02
3.719935775734484196e-04
2.639265358448028564e-02
7.607258856296539307e-02
4.639868438243865967e-02
2.709956467151641846e-02
-3.985134139657020569e-02
8.985278010368347168e-02
7.207220885902643204e-03
1.856910809874534607e-02
1.728519499301910400e-01
-6.171643268316984177e-03
7.851360365748405457e-03
8.217096328735351562e-02
3.930512070655822754e-02
-8.624984323978424072e-02
3.992467746138572693e-02
-3.875753656029701233e-02
4.279799014329910278e-02
2.583003137260675430e-03
5.838931538164615631e-03
-3.925056755542755127e-02
4.188891872763633728e-02
7.380317151546478271e-02
-2.614589640870690346e-03
3.171810880303382874e-02
-1.260289084166288376e-02
3.291224688291549683e-02
-1.836647465825080872e-02
-1.765607111155986786e-02
-1.699272077530622482e-03
-1.230449676513671875e-01
-1.209313701838254929e-02
6.909792870283126831e-02
-3.069377690553665161e-02
-2.696526004001498222e-03
-3.927603736519813538e-02
-4.528114572167396545e-02
8.831616491079330444e-03
1.637542247772216797e-02
1.838977262377738953e-02
1.450974680483341217e-02
3.852544724941253662e-02
1.986254937946796417e-02
7.474108785390853882e-02
3.596488852053880692e-03
-7.452903781086206436e-03
-1.656899601221084595e-02
-4.995267838239669800e-02
1.086929347366094589e-02
6.777182221412658691e-02
-1.778294518589973450e-02
5.759324133396148682e-02
1.885503344237804413e-02
-1.596975699067115784e-02
-1.899175532162189484e-02
-5.602959543466567993e-03
5.712726153433322906e-03
-3.295171633362770081e-02
-2.342754043638706207e-02
6.246269913390278816e-04
1.007740348577499390e-01
-1.286038160324096680e-01
1.242545321583747864e-01
-4.066393896937370300e-02
-5.368363577872514725e-03
-1.388063840568065643e-02
8.067419752478599548e-03
-4.276924591977149248e-04
-4.504304844886064529e-03
3.793753683567047119e-02
3.847821429371833801e-02
1.101169828325510025e-02
6.082529202103614807e-02
4.256517812609672546e-02
-1.683008372783660889e-01
-9.619656950235366821e-03
7.238824386149644852e-03
8.506566286087036133e-02
-5.196355283260345459e-02
3.836764954030513763e-03
-2.891502715647220612e-02
-1.661431230604648590e-02
3.224285691976547241e-02
-2.701022103428840637e-02
3.979674354195594788e-02
-7.280923426151275635e-02
-1.696725562214851379e-02
2.736324071884155273e-02
1.089594047516584396e-02
-2.539180964231491089e-02
9.256596863269805908e-02
2.390836551785469055e-02
-3.275147080421447754e-02
-1.766676269471645355e-02
1.708129048347473145e-02
-3.609851747751235962e-02
8.528308570384979248e-02
1.289055962115526199e-02
1.185834854841232300e-01
-1.155848428606987000e-02
-1.496532652527093887e-02
8.340962231159210205e-02
-4.116475582122802734e-02
-1.863040216267108917e-02
-9.280668199062347412e-02
-3.737907111644744873e-02
-2.489475347101688385e-02
-2.602341212332248688e-02
6.839352846145629883e-02
1.724150963127613068e-02
2.294274233281612396e-02
-9.726862609386444092e-02
1.490588299930095673e-02
-2.759834192693233490e-02
-4.846453666687011719e-02
1.207941621541976929e-01
6.933416426181793213e-02
-1.487433165311813354e-02
4.006321355700492859e-02
6.018878147006034851e-02
5.492088198661804199e-02
-1.697780378162860870e-02
6.402231007814407349e-02
-4.903174564242362976e-02
-5.484797805547714233e-02
1.217729076743125916e-01
8.413498848676681519e-02
3.861332312226295471e-02
1.372506283223628998e-02
3.528830828145146370e-03
-2.211063727736473083e-02
-4.772692918777465820e-02
7.528356742113828659e-03
9.329479187726974487e-02
-1.442773267626762390e-03
4.594182595610618591e-02
4.618404805660247803e-02
1.033295691013336182e-02
4.285740107297897339e-02
-4.337937384843826294e-02
-2.292202226817607880e-02
3.563844365999102592e-04
9.665465913712978363e-03
5.731613561511039734e-02
-7.322286069393157959e-02
4.801462218165397644e-02
4.805694799870252609e-03
-8.929327875375747681e-02
-1.269198954105377197e-01
7.031819969415664673e-02
9.646621532738208771e-03
-1.091542392969131470e-01
-1.337704509496688843e-01
5.874530225992202759e-02
4.508285783231258392e-03
8.255404420197010040e-03
-7.458718866109848022e-02
5.122493021190166473e-03
-1.130621414631605148e-02
-9.409400075674057007e-02
5.593250691890716553e-02
-3.079327871091663837e-04
-2.368746558204293251e-03
1.708274334669113159e-02
1.313508022576570511e-02
-4.111664835363626480e-03
2.971093542873859406e-02
6.890792399644851685e-02
2.470770850777626038e-02
4.260747134685516357e-02
-9.010296314954757690e-02
-2.777178399264812469e-02
4.467134363949298859e-03
-5.863407626748085022e-02
6.447271909564733505e-03
-1.939064636826515198e-02
7.772262394428253174e-02
3.624671697616577148e-02
-1.236816942691802979e-01
-6.043849140405654907e-02
-2.213367260992527008e-03
5.857832357287406921e-02
-9.569063037633895874e-02
-3.532146289944648743e-02
-3.139607980847358704e-02
2.893890812993049622e-02
-8.955413848161697388e-02
4.344297200441360474e-02
-1.017488390207290649e-01
1.042193621397018433e-01
5.896628834307193756e-03
9.577913582324981689e-02
-7.994443178176879883e-02
4.595634713768959045e-02
1.608348102308809757e-03
3.480196371674537659e-02
5.405199900269508362e-02
-3.916772827506065369e-02
-3.689243691042065620e-03
5.745247472077608109e-03
1.043746173381805420e-01
7.502675056457519531e-02
1.260664430446922779e-03
-2.912590093910694122e-02
-2.417790470644831657e-03
2.115424908697605133e-02
-5.917157977819442749e-02
-3.803845494985580444e-02
6.244673952460289001e-02
-5.464052408933639526e-02
4.689366742968559265e-02
2.873594313859939575e-02
-3.920140117406845093e-02
-8.676849305629730225e-03
-1.261331140995025635e-02
-2.098327316343784332e-02
-7.907435297966003418e-02
-1.196353510022163391e-02
-7.751999795436859131e-02
-7.571160048246383667e-02
-2.431114017963409424e-01
-1.050346717238426208e-02
8.124132640659809113e-03
4.850454628467559814e-02
-1.011650171130895615e-02
2.890996262431144714e-02
-4.362425953149795532e-02
1.141863688826560974e-01
-5.435567349195480347e-02
5.272666364908218384e-02
-1.259831804782152176e-02
-3.781110420823097229e-02
-1.190076768398284912e-01
-6.851489841938018799e-02
1.403245776891708374e-01
5.130612850189208984e-02
-3.531222790479660034e-02
-9.791540913283824921e-03
3.480385243892669678e-02
4.421606287360191345e-02
-2.674435973167419434e-01
-3.641486167907714844e-03
-2.351405099034309387e-02
3.392249345779418945e-01
3.815886378288269043e-02
1.744248159229755402e-02
5.712141841650009155e-02
-2.612349763512611389e-02
4.275346919894218445e-02
-3.655068576335906982e-02
6.411480903625488281e-02
-1.509191542863845825e-01
-2.863324247300624847e-02
3.244049549102783203e-01
-5.751800537109375000e-02
-4.228072240948677063e-02
-4.115178063511848450e-02
4.651204217225313187e-03
-4.329666122794151306e-02
1.920587122440338135e-01
-8.876292034983634949e-03
5.393934622406959534e-02
-2.660771086812019348e-02
-4.048936814069747925e-02
-2.856257185339927673e-02
-1.208508759737014771e-02
-4.273047670722007751e-02
-1.893377862870693207e-02
-4.275833722203969955e-03
-1.650876253843307495e-01
-7.008524984121322632e-02
1.985031366348266602e-02
-2.905763499438762665e-02
-5.084285512566566467e-02
4.423332214355468750e-02
2.767595462501049042e-02
5.890429951250553131e-03
7.010463159531354904e-04
-3.107918053865432739e-02
4.481799155473709106e-02
-5.000869184732437134e-02
-4.089725390076637268e-02
2.813064306974411011e-02
6.719335168600082397e-02
2.624031528830528259e-02
-4.975823685526847839e-02
-7.223526947200298309e-03
-4.833342134952545166e-02
2.098167315125465393e-03
-1.449785847216844559e-02
-6.200846750289201736e-03
-7.334702461957931519e-02
6.280250102281570435e-02
-3.256504237651824951e-02
1.642857342958450317e-01
7.221872359514236450e-02
2.969026099890470505e-03
-5.748387426137924194e-02
-2.312205918133258820e-02
-1.154571119695901871e-02
2.739979140460491180e-02
-2.359233796596527100e-02
-7.634232193231582642e-02
7.150515448302030563e-03
-2.299823984503746033e-02
-6.883314996957778931e-02
-6.433217227458953857e-02
6.579437106847763062e-02
1.089389100670814514e-01
3.728833049535751343e-02
5.851316452026367188e-02
2.456282451748847961e-02
-1.533648185431957245e-02
6.978330761194229126e-02
7.017858326435089111e-02
-6.509719043970108032e-02
-4.169927909970283508e-03
3.318032622337341309e-02
9.776438027620315552e-02
-4.450102860573679209e-04
4.019888490438461304e-02
-7.955695502460002899e-03
-2.676178701221942902e-02
-7.336013019084930420e-03
-6.242905929684638977e-02
2.021801844239234924e-02
-2.430116198956966400e-02
7.046216167509555817e-03
-2.683802694082260132e-02
-8.137736469507217407e-02
1.675056107342243195e-02
2.514420635998249054e-02
5.703154206275939941e-02
-1.018386241048574448e-02
1.272900551557540894e-01
-2.515562064945697784e-02
-1.504020328866317868e-04
-5.258607119321823120e-02
1.147835887968540192e-02
2.999264746904373169e-03
-2.068775793304666877e-04
-1.026761308312416077e-01
-2.659030072391033173e-02
5.577242001891136169e-02
6.284981220960617065e-02
5.240222089923918247e-04
4.129860177636146545e-02
-7.620088011026382446e-02
-1.708616316318511963e-02
1.247083395719528198e-01
1.285476982593536377e-01
1.294745597988367081e-02
4.020207375288009644e-02
-2.867748402059078217e-02
2.218639552593231201e-01
7.702048867940902710e-03
4.149766266345977783e-02
1.205119714140892029e-01
-1.002039480954408646e-02
1.092417910695075989e-01
8.103557862341403961e-03
1.173180490732192993e-01
-8.416775614023208618e-02
4.015629179775714874e-03
7.383251935243606567e-02
4.899718239903450012e-02
7.153783738613128662e-02
-2.579011917114257812e-01
-5.805172957479953766e-03
-2.074946835637092590e-02
7.475717458873987198e-03
7.925883680582046509e-02
-3.102030791342258453e-02
7.445159554481506348e-02
-4.115043953061103821e-02
-1.032243072986602783e-01
8.286768943071365356e-02
2.079541422426700592e-02
4.463074263185262680e-03
-1.623769551515579224e-01
9.953456930816173553e-03
5.586043000221252441e-02
-7.774647325277328491e-02
-9.264148771762847900e-02
2.318836189806461334e-02
-3.415343910455703735e-02
-3.097118064761161804e-02
-5.481216311454772949e-02
-3.788060694932937622e-02
2.159452997148036957e-03
1.734481938183307648e-02
-3.899222984910011292e-02
6.553209573030471802e-02
5.563591420650482178e-02
-5.004576221108436584e-02
-1.079755276441574097e-02
-5.550854280591011047e-02
-1.681347191333770752e-02
-1.402980647981166840e-02
1.893806830048561096e-02
1.129696294665336609e-01
-1.193963885307312012e-01
3.123703226447105408e-02
-2.980786561965942383e-02
5.885045975446701050e-03
2.088969759643077850e-02
4.842253029346466064e-02
2.888916991651058197e-02
1.883331313729286194e-02
-1.866276725195348263e-03
-2.664188481867313385e-02
-3.133926540613174438e-02
-3.142914921045303345e-02
6.471521407365798950e-02
8.402278274297714233e-02
-3.579434007406234741e-02
-2.067625150084495544e-02
8.416753262281417847e-03
-3.096918575465679169e-02
-7.225373387336730957e-02
-1.129122152924537659e-01
1.616418920457363129e-02
2.880954416468739510e-03
2.131857909262180328e-02
-1.181658878922462463e-01
-1.828077621757984161e-02
2.918600849807262421e-02
1.591062406077980995e-03
-2.945971675217151642e-02
1.043146625161170959e-01
-1.446227077394723892e-03
2.419433370232582092e-02
6.161934882402420044e-02
3.410811303183436394e-03
-8.991769701242446899e-02
-3.004091419279575348e-02
-2.022518776357173920e-02
2.764341048896312714e-02
-4.133814200758934021e-02
-5.062191188335418701e-02
6.327398866415023804e-02
3.370314836502075195e-02
2.553658187389373779e-02
-1.064498163759708405e-02
3.896139562129974365e-02
-3.944355249404907227e-02
-1.108622327446937561e-01
-7.164864987134933472e-02
-1.420597583055496216e-01
1.237455522641539574e-03
2.964168787002563477e-02
3.506864234805107117e-02
1.007316820323467255e-02
-2.931092679500579834e-02
4.986039549112319946e-02
1.478120312094688416e-02
-7.598694413900375366e-02
-2.124757170677185059e-01
-2.317407727241516113e-02
-2.196487970650196075e-02
-2.482291869819164276e-02
5.718492716550827026e-02
7.083167880773544312e-02
-2.801374904811382294e-02
5.800171196460723877e-02
8.199956268072128296e-02
1.954553276300430298e-02
-8.794313296675682068e-03
-2.480884268879890442e-02
9.172566235065460205e-03
4.704071208834648132e-02
-3.758777678012847900e-02
-1.175850164145231247e-02
2.365763997659087181e-03
5.945864692330360413e-02
7.193397730588912964e-03
-9.665778838098049164e-03
3.250649571418762207e-02
9.849222749471664429e-02
6.383973360061645508e-02
-4.717189818620681763e-02
2.372646890580654144e-02
9.075611084699630737e-02
-4.200196266174316406e-02
-2.825914695858955383e-02
-1.804416067898273468e-02
3.428695723414421082e-02
7.849092036485671997e-02
1.520321611315011978e-02
2.233885414898395538e-02
-2.281788364052772522e-02
6.354762613773345947e-02
-1.068175770342350006e-02
-6.375467032194137573e-02
-1.500502079725265503e-01
-3.257097303867340088e-02
-5.920941010117530823e-02
-2.344099059700965881e-02
-8.644396439194679260e-03
-2.158362418413162231e-02
-1.678353920578956604e-02
-2.667170017957687378e-02
-2.580794692039489746e-02
7.474204152822494507e-02
-8.712328225374221802e-02
-1.144360750913619995e-03
-1.840083487331867218e-02
9.173776209354400635e-02
-1.008317768573760986e-01
-1.159422695636749268e-01
-1.014495268464088440e-02
2.541827969253063202e-02
1.533201150596141815e-02
5.063142254948616028e-02
-5.292474757879972458e-03
5.221902206540107727e-02
3.959168680012226105e-03
-8.867721259593963623e-02
-8.104534447193145752e-02
-1.945578306913375854e-02
-1.551468111574649811e-02
-5.567970219999551773e-03
9.034001827239990234e-02
-2.537809126079082489e-02
7.974673807621002197e-02
1.531540695577859879e-02
-1.789603382349014282e-02
4.262813553214073181e-02
-2.162780426442623138e-02
1.929989270865917206e-02
-4.637611284852027893e-02
1.143981609493494034e-02
3.900901228189468384e-02
3.994738683104515076e-02
3.211693838238716125e-02
-5.325150489807128906e-02
-7.070215791463851929e-02
1.011202335357666016e-01
2.865238487720489502e-02
3.815386816859245300e-02
1.524819061160087585e-02
3.235871717333793640e-02
1.239293813705444336e-02
-1.081119179725646973e-01
-3.091824473813176155e-03
5.486352369189262390e-02
3.116854093968868256e-02
3.768900933209806681e-04
-1.409480610163882375e-04
2.027310803532600403e-02
1.962202228605747223e-02
-4.338512942194938660e-02
-4.628393054008483887e-02
3.097011335194110870e-02
2.703381888568401337e-02
-6.377854943275451660e-02
-3.577861562371253967e-02
1.309822052717208862e-01
-1.238399837166070938e-02
3.920048475265502930e-03
8.428495493717491627e-04
-5.756063386797904968e-02
-5.315689370036125183e-03
2.929444052278995514e-02
2.654625568538904190e-03
2.798988949507474899e-03
-2.330725081264972687e-02
-9.091200307011604309e-03
5.425215512514114380e-02
-8.529407531023025513e-02
7.898918539285659790e-02
-3.937461972236633301e-02
-4.357084631919860840e-02
2.990163629874587059e-03
-4.322141408920288086e-02
2.574210986495018005e-02
6.639542430639266968e-02
-3.817820549011230469e-02
-1.078272424638271332e-02
7.755010575056076050e-02
3.610141575336456299e-02
9.295183233916759491e-03
6.636780500411987305e-02
1.584784686565399170e-02
7.828165590763092041e-02
-1.847601309418678284e-02
-1.493593212217092514e-02
4.520056396722793579e-02
5.074106901884078979e-02
1.670790091156959534e-02
-5.837584380060434341e-03
5.838889628648757935e-03
1.016993671655654907e-01
-3.743192180991172791e-02
-2.793291024863719940e-02
-8.801756054162979126e-02
2.282801270484924316e-02
-1.107142791152000427e-01
1.357811875641345978e-02
1.357355993241071701e-02
5.863121896982192993e-02
3.329031541943550110e-02
-5.454367771744728088e-02
1.253496408462524414e-01
1.122931670397520065e-02
-1.310717687010765076e-02
1.428847666829824448e-02
-4.071278125047683716e-02
9.764575399458408356e-03
3.235388919711112976e-02
-9.832765161991119385e-02
-2.583550475537776947e-02
-6.219854578375816345e-03
-1.533864438533782959e-01
-6.879289448261260986e-02
4.810940101742744446e-02
-6.701881997287273407e-03
-3.701212629675865173e-02
3.611051663756370544e-02
4.923037253320217133e-03
1.055184900760650635e-01
-7.530010491609573364e-02
-8.601959049701690674e-02
1.188317164778709412e-01
7.620833814144134521e-02
2.873526327311992645e-02
3.466867841780185699e-03
-6.034757010638713837e-03
-1.374658793210983276e-01
-2.781493403017520905e-02
-1.746863685548305511e-02
6.774832308292388916e-02
1.887425221502780914e-02
2.480145357549190521e-02
-1.086096558719873428e-02
-7.692196965217590332e-02
4.200799448881298304e-04
-3.648805990815162659e-02
5.515701323747634888e-02
1.352938078343868256e-02
3.202405059710144997e-03
5.670521780848503113e-02
-1.067698560655117035e-02
-1.915418915450572968e-02
-2.197884209454059601e-02
-4.009180888533592224e-02
1.243779435753822327e-03
5.269309505820274353e-02
2.814458310604095459e-02
-8.434135466814041138e-02
9.868584573268890381e-02
-2.093261480331420898e-02
3.786238655447959900e-02
2.356324344873428345e-02
-3.571665287017822266e-02
9.830266237258911133e-02
6.044117268174886703e-03
-4.764382541179656982e-02
-2.681509405374526978e-02
-1.190669983625411987e-01
2.160110883414745331e-02
4.163165017962455750e-02
9.737510699778795242e-04
8.567643165588378906e-02
5.914954468607902527e-02
-4.499655961990356445e-02
1.307199336588382721e-02
-4.217963293194770813e-02
-1.181078329682350159e-02
2.541487105190753937e-02
3.630702383816242218e-03
7.531694322824478149e-02
9.843749552965164185e-02
7.801530882716178894e-03
8.389301598072052002e-03
6.566253304481506348e-02
-7.220073789358139038e-02
-4.508428275585174561e-03
7.599791977554559708e-03
-4.778327047824859619e-02
4.655800387263298035e-02
6.309884483925998211e-04
-4.760678112506866455e-02
1.982311904430389404e-02
-1.797047443687915802e-02
3.334124758839607239e-02
3.559526428580284119e-02
-1.028949301689863205e-02
-4.382817074656486511e-02
-1.576849631965160370e-02
1.200606226921081543e-01
1.872797310352325439e-02
-1.259020417928695679e-01
3.716654703021049500e-02
5.252535641193389893e-02
-6.674609333276748657e-02
-3.164332732558250427e-02
-4.124216735363006592e-02
4.503893479704856873e-02
3.846282511949539185e-02
-3.189311549067497253e-02
-8.098836988210678101e-02
5.403304100036621094e-02
-2.811179496347904205e-02
5.322377011179924011e-02
-1.424371264874935150e-02
1.127239502966403961e-02
-7.500711083412170410e-02
-4.465379938483238220e-02
-2.205368503928184509e-02
2.124942652881145477e-02
-1.428525801748037338e-02
-2.231549471616744995e-02
7.118937559425830841e-03
2.658629417419433594e-02
-5.922097340226173401e-02
-3.016748279333114624e-02
-1.532548479735851288e-02
3.455382958054542542e-02
-6.294412910938262939e-02
-8.166459202766418457e-02
-4.078524932265281677e-02
-2.020704268943518400e-04
7.682733237743377686e-02
-3.890044614672660828e-02
-2.609414048492908478e-02
-1.402664463967084885e-02
-1.801947131752967834e-02
1.052403729408979416e-02
-8.053614944219589233e-02
3.680521249771118164e-02
-3.027025668416172266e-04
-2.235819771885871887e-02
3.011365793645381927e-02
-3.444446623325347900e-02
6.707476079463958740e-02
-1.939640194177627563e-02
8.419550955295562744e-02
6.336435209959745407e-03
7.124739140272140503e-02
8.834864199161529541e-02
4.580838978290557861e-02
-1.305945664644241333e-01
-2.425721287727355957e-02
4.412054270505905151e-02
3.633448109030723572e-02
4.921853542327880859e-02
5.446084961295127869e-02
1.372833829373121262e-02
5.688634887337684631e-02
-3.507106006145477295e-02
-5.685805156826972961e-02
-3.704212605953216553e-02
-1.577328704297542572e-02
5.043353512883186340e-02
1.005019620060920715e-02
-4.555315524339675903e-02
1.570053957402706146e-02
-1.123336050659418106e-02
-4.936372488737106323e-02
1.631486862897872925e-01
-4.584592953324317932e-02
-5.558332800865173340e-02
1.377592831850051880e-01
-7.828847505152225494e-03
-2.452197112143039703e-02
4.422052204608917236e-02
-1.865478605031967163e-02
-1.013739556074142456e-01
-8.050631731748580933e-02
7.808501273393630981e-02
-1.648934371769428253e-02
2.694161236286163330e-02
-4.978352785110473633e-02
-2.165312133729457855e-02
-8.924861997365951538e-02
-3.521807491779327393e-02
-1.355691719800233841e-02
-1.243770197033882141e-01
2.088898420333862305e-02
-8.187085390090942383e-02
-4.855021834373474121e-02
1.684128493070602417e-02
1.646385155618190765e-02
1.663722284138202667e-02
4.089159891009330750e-02
-1.250456832349300385e-02
4.301297664642333984e-02
1.116440594196319580e-01
-1.271731257438659668e-01
8.867534250020980835e-02
-9.108137339353561401e-02
6.920646131038665771e-02
1.459343917667865753e-02
1.469572540372610092e-02
9.124895930290222168e-02
3.531735017895698547e-02
-8.817283064126968384e-02
1.296063419431447983e-02
1.174883171916007996e-02
4.880452994257211685e-03
1.091171149164438248e-02
-7.535290438681840897e-03
-9.271462261676788330e-02
5.042337253689765930e-02
1.524919178336858749e-02
1.898522675037384033e-02
3.130921395495533943e-03
-2.804462052881717682e-02
-9.644009172916412354e-03
-7.422286272048950195e-02
-2.966694347560405731e-02
-1.747123897075653076e-02
-6.066225096583366394e-02
9.007500857114791870e-02
6.932062096893787384e-03
2.347829565405845642e-02
-3.939969837665557861e-02
5.910587683320045471e-02
2.029990218579769135e-02
6.306847929954528809e-02
-2.579861506819725037e-02
-4.886689409613609314e-02
1.087688952684402466e-01
6.372182816267013550e-02
1.121749207377433777e-01
6.640695035457611084e-02
5.029214546084403992e-02
4.605602473020553589e-02
4.520589858293533325e-02
-3.975762985646724701e-03
-7.050966471433639526e-02
1.053314656019210815e-02
2.567824907600879669e-02
1.418880932033061981e-02
4.906267672777175903e-02
-2.764878561720252037e-03
-7.987538352608680725e-03
-9.571194648742675781e-03
5.374573171138763428e-03
4.530551284551620483e-02
-2.158363908529281616e-02
8.301831781864166260e-02
2.867008559405803680e-02
-4.606629163026809692e-02
-2.630318887531757355e-02
5.540362000465393066e-02
7.567267119884490967e-02
-3.506970778107643127e-02
2.300881780683994293e-02
-4.651952162384986877e-02
3.387930989265441895e-02
-3.623431175947189331e-02
-4.924141801893711090e-03
-1.129690706729888916e-01
-4.565672576427459717e-02
1.489686872810125351e-02
3.589282557368278503e-02
-6.439372152090072632e-02
-5.474920198321342468e-02
3.830287605524063110e-02
1.275827735662460327e-01
1.137544773519039154e-02
-7.285073399543762207e-02
-2.209053188562393188e-02
1.732334308326244354e-02
9.841234982013702393e-02
-1.821645721793174744e-02
5.520286411046981812e-02
-2.770178206264972687e-02
-3.818914410658180714e-04
3.317186608910560608e-02
2.468439750373363495e-02
1.175597123801708221e-02
-9.554189443588256836e-02
-6.312991492450237274e-03
4.286947660148143768e-03
1.234891387866809964e-04
-2.607028931379318237e-02
-2.222978696227073669e-02
-2.829002030193805695e-02
-3.973272815346717834e-02
4.230381175875663757e-02
-5.374103039503097534e-02
-9.534914791584014893e-02
-7.416557986289262772e-03
2.368671447038650513e-02
5.215032026171684265e-02
8.549695461988449097e-02
6.211880967020988464e-02
-3.532237187027931213e-02
5.598048493266105652e-02
-2.166236005723476410e-02
-2.896327897906303406e-02
-5.414118990302085876e-03
5.098321475088596344e-03
-3.188112005591392517e-02
-1.591707766056060791e-02
-1.494343131780624390e-01
3.143536671996116638e-02
1.165422983467578888e-02
7.254837546497583389e-03
-1.337133347988128662e-02
2.111196145415306091e-02
-3.372663864865899086e-03
-2.822699770331382751e-02
-4.985376261174678802e-03
-2.858940511941909790e-03
-1.049174740910530090e-01
-5.335576087236404419e-02
5.899982899427413940e-02
3.158273547887802124e-02
-2.442609705030918121e-02
2.789122611284255981e-02
-4.502709582448005676e-02
-1.978217437863349915e-02
-1.215077266097068787e-01
-2.354175969958305359e-02
-2.449609152972698212e-02
3.459003940224647522e-02
-6.363965570926666260e-02
2.155612222850322723e-02
2.055083028972148895e-02
6.637518107891082764e-02
1.925562135875225067e-02
2.215254306793212891e-02
1.626535202376544476e-03
9.129144251346588135e-02
1.762777194380760193e-02
2.254205988720059395e-03
-1.296710409224033356e-02
-4.730370361357927322e-03
-8.497426286339759827e-03
-2.016250602900981903e-02
4.056124761700630188e-02
1.110138446092605591e-01
-9.258057922124862671e-03
-2.674173563718795776e-02
5.466611683368682861e-02
3.444152697920799255e-02
2.520099841058254242e-02
-1.753169856965541840e-02
-1.860589906573295593e-02
2.871578000485897064e-02
8.886395953595638275e-03
-1.120279822498559952e-02
1.188411936163902283e-01
4.911267757415771484e-02
5.333482474088668823e-02
6.585954688489437103e-03
4.229783080518245697e-03
-1.528018806129693985e-02
-7.458192855119705200e-02
5.569496378302574158e-02
5.112696811556816101e-02
3.755801357328891754e-03
3.364729508757591248e-02
-1.638080365955829620e-02
-1.338357031345367432e-01
2.801120094954967499e-02
-2.465964667499065399e-02
3.007606370374560356e-03
-5.678302142769098282e-03
6.774469465017318726e-02
3.542972356081008911e-02
7.857397198677062988e-02
-1.759531907737255096e-02
-5.207474157214164734e-02
-4.436831548810005188e-02
-1.692444644868373871e-02
-6.312817335128784180e-02
4.458396136760711670e-02
3.065357357263565063e-02
-1.927906833589076996e-02
-3.047125041484832764e-02
1.298941206187009811e-02
-7.115742564201354980e-02
2.830327861011028290e-02
3.337841480970382690e-02
-6.073625758290290833e-03
-3.331159800291061401e-02
-2.798117883503437042e-02
8.861517906188964844e-02
4.715291317552328110e-03
-1.093093864619731903e-02
3.127139061689376831e-02
1.150982268154621124e-02
1.589436270296573639e-02
-5.722402408719062805e-02
4.595268890261650085e-02
9.259352460503578186e-03
-6.417600065469741821e-02
-7.450063526630401611e-02
2.459874004125595093e-02
5.077938362956047058e-02
-6.018307432532310486e-02
1.690584048628807068e-02
8.054652065038681030e-02
4.764091223478317261e-02
3.403387591242790222e-02
5.965540185570716858e-02
2.041504345834255219e-02
4.817074909806251526e-02
-4.081221297383308411e-03
1.911306381225585938e-02
-7.776900380849838257e-02
-1.420594304800033569e-01
-4.796715453267097473e-02
-1.322793066501617432e-01
7.237653434276580811e-02
-4.695327579975128174e-02
7.536873221397399902e-02
7.422436028718948364e-02
-7.179018855094909668e-02
-1.460612285882234573e-02
2.520177885890007019e-02
-1.137352213263511658e-01
6.152275949716567993e-02
-6.656821817159652710e-02
9.400577098131179810e-02
-6.349288672208786011e-02
5.201203003525733948e-02
6.014887243509292603e-02
-8.513177931308746338e-02
2.734033763408660889e-02
-7.404221221804618835e-03
-1.020370498299598694e-01
3.283251821994781494e-02
2.380686067044734955e-02
9.703124314546585083e-02
-1.364717446267604828e-02
5.314982030540704727e-03
-1.520116534084081650e-02
1.811953820288181305e-02
9.974520653486251831e-03
-3.493164479732513428e-02
1.835283190011978149e-01
-1.682954467833042145e-02
-5.556432995945215225e-03
2.821198105812072754e-02
7.198376581072807312e-03
1.700759865343570709e-02
8.393932366743683815e-04
-2.300099655985832214e-02
6.919843610376119614e-03
8.319643139839172363e-02
3.196354582905769348e-02
1.701568439602851868e-02
3.976709768176078796e-02
-3.314133733510971069e-02
-1.693877740763127804e-03
-8.008507639169692993e-02
3.253519535064697266e-02
-8.324613794684410095e-03
2.701045945286750793e-02
-5.262802168726921082e-02
1.165597140789031982e-02
-1.583102159202098846e-02
6.278151646256446838e-03
-1.722623780369758606e-02
2.535636536777019501e-02
-1.293350458145141602e-01
2.340952306985855103e-02
4.134507849812507629e-02
9.683456271886825562e-02
-6.979546695947647095e-02
-4.671913385391235352e-02
-1.561126206070184708e-02
-6.345264613628387451e-02
2.755977958440780640e-02
-2.119005843997001648e-02
9.803473949432373047e-03
-2.560937777161598206e-02
-3.520982339978218079e-02
2.062536031007766724e-02
1.844531111419200897e-02
-3.926458582282066345e-02
1.735374890267848969e-02
2.892399951815605164e-02
3.606787323951721191e-02
-7.158656418323516846e-02
-2.458566054701805115e-02
5.216217786073684692e-02
-6.359826028347015381e-02
-1.046877168118953705e-02
-8.378929644823074341e-02
-1.256781965494155884e-01
-5.887968093156814575e-02
2.860878035426139832e-02
1.986870914697647095e-02
2.267542667686939240e-02
-8.190006762742996216e-02
9.860312566161155701e-03
-2.922824583947658539e-02
-2.777306362986564636e-02
-3.962877392768859863e-02
9.099545888602733612e-03
3.041101433336734772e-02
-6.865334510803222656e-02
3.696509078145027161e-02
-6.914474070072174072e-02
-4.444488440640270710e-04
4.489025566726922989e-03
-1.031619757413864136e-01
-1.434406638145446777e-01
-1.115913223475217819e-02
2.631015330553054810e-02
-3.560982644557952881e-03
-4.449286311864852905e-02
5.798982456326484680e-02
8.132889121770858765e-02
-2.002390247071161866e-04
-7.695680856704711914e-02
-6.691613234579563141e-03
-4.384995251893997192e-02
1.939318329095840454e-02
-5.854699388146400452e-02
-1.984383538365364075e-02
-5.294938385486602783e-02
2.437727898359298706e-02
-7.394754141569137573e-02
1.969472505152225494e-02
-1.411629766225814819e-01
3.449166938662528992e-02
5.653937906026840210e-02
-1.172030717134475708e-01
-5.670684576034545898e-02
-1.081439703702926636e-01
4.004783928394317627e-02
-1.682594977319240570e-02
4.533382132649421692e-03
3.498628363013267517e-02
-7.178066670894622803e-02
-3.165121749043464661e-02
6.459140777587890625e-02
-6.857318431138992310e-02
-8.768057823181152344e-02
1.577650569379329681e-02
-6.559044867753982544e-02
4.002143442630767822e-02
5.276976153254508972e-02
5.776247754693031311e-02
3.107363358139991760e-02
7.099827378988265991e-02
-3.515533357858657837e-02
4.196411371231079102e-02
-9.041609615087509155e-02
6.207855045795440674e-02
-3.445211052894592285e-02
3.544938564300537109e-02
2.185387304052710533e-03
-3.889045119285583496e-02
1.178429424762725830e-01
-1.177783403545618057e-02
5.635632202029228210e-02
7.531112525612115860e-03
1.859141327440738678e-02
-1.258384715765714645e-02
-8.340027928352355957e-02
4.445105791091918945e-02
-3.111561993137001991e-03
1.429902017116546631e-01
3.377540037035942078e-02
3.308604657649993896e-02
6.641294062137603760e-02
-4.023272916674613953e-02
2.750157751142978668e-02
-3.809146955609321594e-02
5.536797270178794861e-02
1.364530157297849655e-02
4.552742466330528259e-02
-2.818607166409492493e-02
2.951290085911750793e-02
-3.485146537423133850e-02
4.089231789112091064e-02
-4.986796528100967407e-02
4.903814941644668579e-02
-4.645083472132682800e-02
-3.330302238464355469e-02
-6.815525144338607788e-02
8.091130107641220093e-02
-2.152539975941181183e-02
3.803618997335433960e-02
2.609400823712348938e-02
3.624875098466873169e-02
-1.337011307477951050e-01
7.631192356348037720e-02
-6.743421405553817749e-02
-8.782910555601119995e-02
-1.011977903544902802e-02
2.577537670731544495e-02
-9.322056174278259277e-02
-6.660481542348861694e-02
-4.633184056729078293e-03
5.195174366235733032e-03
-1.152028143405914307e-01
1.736694388091564178e-02
5.981031432747840881e-02
-3.454475104808807373e-02
-5.521308258175849915e-02
4.685156792402267456e-02
-1.350723356008529663e-01
-8.819261938333511353e-02
-7.346411794424057007e-02
-1.655107364058494568e-02
-4.273867979645729065e-02
-9.207177907228469849e-03
5.519159510731697083e-02
-1.463270094245672226e-02
3.824096871539950371e-03
1.571052521467208862e-02
1.123441103845834732e-02
9.301155805587768555e-02
3.253700211644172668e-02
-6.369560956954956055e-02
-4.560452327132225037e-02
-5.524653475731611252e-03
-3.450907766819000244e-02
4.279621317982673645e-02
-6.854136288166046143e-02
-1.076679024845361710e-02
-4.489387571811676025e-02
-1.873368769884109497e-02
1.090251933783292770e-02
-9.089056402444839478e-02
6.817393749952316284e-02
-3.668235242366790771e-02
-5.935272201895713806e-02
2.224297448992729187e-02
3.488579764962196350e-02
2.486437559127807617e-02
5.798872560262680054e-02
-1.651647733524441719e-03
-1.903724856674671173e-03
-5.981117114424705505e-02
4.903807491064071655e-02
-8.414293406531214714e-04
2.218565344810485840e-02
4.787036776542663574e-02
4.362790286540985107e-02
3.540464863181114197e-02
-1.887148246169090271e-02
-1.004360690712928772e-01
1.092994883656501770e-01
1.464186459779739380e-01
2.318533696234226227e-02
-4.044271260499954224e-02
3.335508331656455994e-02
3.704331442713737488e-02
-9.770107455551624298e-03
9.180472791194915771e-02
-1.734652929008007050e-02
-5.836812779307365417e-02
5.885430146008729935e-03
1.771208085119724274e-02
-3.842173144221305847e-02
3.231485188007354736e-02
-4.454790148884057999e-03
7.150159217417240143e-03
-1.460477430373430252e-02
3.167729079723358154e-02
-5.583579186350107193e-03
-4.204286634922027588e-02
8.553602546453475952e-02
1.918317973613739014e-01
3.528140112757682800e-02
-1.123657356947660446e-02
-2.639266252517700195e-01
-6.139375641942024231e-02
-9.976937435567378998e-03
-3.898783028125762939e-02
7.600382715463638306e-02
-2.343496866524219513e-02
3.677825257182121277e-02
7.048706524074077606e-03
3.682103380560874939e-02
1.233789604157209396e-03
-2.349048405885696411e-01
3.270711284130811691e-03
4.355632141232490540e-02
9.204190969467163086e-02
3.904999792575836182e-02
-1.130322217941284180e-01
7.487550843507051468e-03
2.355050668120384216e-02
1.408686786890029907e-01
1.441417727619409561e-02
-7.850990630686283112e-03
3.639263287186622620e-02
-1.570429466664791107e-02
-6.596174091100692749e-03
1.529625710099935532e-02
6.644132733345031738e-02
8.555640280246734619e-02
3.297706367447972298e-03
-1.197320409119129181e-02
-2.539235167205333710e-02
-3.523404151201248169e-02
-1.689545623958110809e-02
-5.869413260370492935e-03
3.271362558007240295e-02
1.007448285818099976e-01
-8.162961341440677643e-03
1.492283539846539497e-03
-1.943806558847427368e-02
-4.431011155247688293e-02
-4.789161495864391327e-03
3.936988115310668945e-02
-1.591586321592330933e-02
1.165316533297300339e-02
8.302805013954639435e-03
-2.881360799074172974e-02
8.668712526559829712e-02
5.915675312280654907e-02
3.518053144216537476e-02
3.344032913446426392e-02
-3.287250921130180359e-02
2.777781523764133453e-02
-8.618669211864471436e-02
5.157141014933586121e-03
3.277927637100219727e-02
1.265676785260438919e-02
-1.290466189384460449e-01
-4.089511185884475708e-02
-9.587890468537807465e-03
3.492594510316848755e-02
6.299748271703720093e-02
3.882965445518493652e-02
5.644420534372329712e-02
-2.766502788290381432e-03
-9.951450675725936890e-02
-4.023840278387069702e-02
5.766138434410095215e-02
2.661752887070178986e-02
-9.120242297649383545e-02
-5.083362758159637451e-02
-4.512355476617813110e-02
2.478344552218914032e-02
4.652979597449302673e-02
3.246736526489257812e-02
3.622739762067794800e-02
-4.115980118513107300e-02
-1.299949269741773605e-02
-4.310926795005798340e-02
9.397354722023010254e-02
-2.577035315334796906e-02
-2.764040417969226837e-02
8.918932825326919556e-02
2.491361461579799652e-02
4.633506014943122864e-02
-4.118570685386657715e-02
-4.003271088004112244e-02
1.792805641889572144e-02
1.451249122619628906e-01
8.196274191141128540e-02
2.903188765048980713e-02
5.149284377694129944e-02
-7.361724972724914551e-02
-8.223658800125122070e-02
-5.776757374405860901e-02
-6.132057681679725647e-02
9.998084977269172668e-03
-7.186461705714464188e-03
-8.489400893449783325e-02
-2.833863347768783569e-02
-1.371183525770902634e-02
-2.510425448417663574e-02
9.457538835704326630e-03
6.688521057367324829e-02
-1.184554211795330048e-02
1.088225515559315681e-03
-2.319605089724063873e-02
1.912455307319760323e-03
-1.224039345979690552e-01
-2.585517242550849915e-02
-8.058458566665649414e-02
-1.526489015668630600e-02
-1.312227174639701843e-02
-8.915366604924201965e-03
7.195112109184265137e-02
-5.075294524431228638e-02
1.018706038594245911e-01
-3.850109351333230734e-04
-2.171773761510848999e-01
5.374603439122438431e-03
1.109237410128116608e-02
-8.952296525239944458e-02
-3.284694999456405640e-02
-4.520218819379806519e-03
4.061886295676231384e-02
-3.891023993492126465e-02
-3.274515643715858459e-02
8.078252896666526794e-03
4.060987848788499832e-03
-8.312415331602096558e-03
-6.120819598436355591e-02
-5.078639462590217590e-02
4.744410049170255661e-03
-5.488462746143341064e-02
3.617098554968833923e-02
6.343827396631240845e-02
-7.098606228828430176e-02
2.604655548930168152e-02
1.068765297532081604e-01
2.925199270248413086e-02
-1.194053590297698975e-01
-8.981497026979923248e-03
8.193603903055191040e-02
-5.173092335462570190e-02
-4.589170962572097778e-02
-2.068273536860942841e-02
4.756055027246475220e-02
-2.066174708306789398e-02
1.033512726426124573e-01
-1.130603905767202377e-02
5.701826885342597961e-02
-9.628724306821823120e-02
9.948674589395523071e-02
-2.905887737870216370e-02
3.474638611078262329e-02
-2.720732241868972778e-02
6.427451968193054199e-02
4.346301406621932983e-02
-3.874562308192253113e-02
-4.610292240977287292e-02
-2.381846867501735687e-02
-1.825023069977760315e-02
-2.444556355476379395e-02
-3.519511222839355469e-02
-2.018943242728710175e-02
-4.029844701290130615e-02
-3.850639238953590393e-02
-7.544277608394622803e-02
7.441823929548263550e-02
7.162350416183471680e-02
-3.866843134164810181e-02
5.142642930150032043e-02
7.637756061740219593e-04
-2.150650322437286377e-02
-1.956415735185146332e-02
-5.331096705049276352e-03
4.862637817859649658e-02
-2.030202746391296387e-02
-1.925408281385898590e-02
-6.878139823675155640e-02
1.736144348978996277e-02
-5.105075985193252563e-02
1.854325085878372192e-02
9.705347940325737000e-03
-1.380315888673067093e-02
-3.401691559702157974e-03
-3.912577405571937561e-02
2.942877821624279022e-02
-3.726533055305480957e-02
-4.515310004353523254e-02
-4.552295897156000137e-03
-6.903350353240966797e-02
-4.502683505415916443e-02
-6.406048685312271118e-02
5.600519478321075439e-02
-1.678476184606552124e-01
-4.470974206924438477e-02
4.875790327787399292e-02
5.195644125342369080e-02
-1.038173958659172058e-01
3.443512320518493652e-02
-3.565376996994018555e-02
-6.765998899936676025e-02
-2.330951625481247902e-03
2.227895334362983704e-02
2.921206131577491760e-02
2.544169500470161438e-02
-1.279435306787490845e-01
-2.501555159687995911e-02
-3.042715042829513550e-02
3.844196349382400513e-02
5.673248320817947388e-03
4.316037893295288086e-02
5.548284202814102173e-02
-1.411553844809532166e-02
-8.812684565782546997e-02
3.054450452327728271e-02
-3.500035777688026428e-02
1.219042856246232986e-02
3.229646757245063782e-02
-1.150833722203969955e-02
3.271611174568533897e-03
-8.565446478314697742e-04
6.679378449916839600e-02
8.379698544740676880e-02
1.371688861399888992e-02
-1.242640241980552673e-02
2.306346967816352844e-02
-2.622110024094581604e-02
2.813850156962871552e-02
7.395588792860507965e-03
3.142556920647621155e-02
-7.121851295232772827e-02
4.779214411973953247e-02
1.895169727504253387e-02
1.836572401225566864e-02
-4.559899866580963135e-02
-3.849460557103157043e-02
-3.727786242961883545e-02
3.994045406579971313e-02
2.911984547972679138e-02
-4.115319624543190002e-02
2.104637213051319122e-02
5.525172501802444458e-02
-5.115944892168045044e-02
-5.848623812198638916e-02
2.823369391262531281e-02
-3.102768398821353912e-02
8.063185960054397583e-03
4.497938975691795349e-02
-1.330654602497816086e-02
4.806179180741310120e-02
-9.719971421873196959e-05
8.774752914905548096e-02
-1.260040551424026489e-01
2.118844166398048401e-02
8.560336194932460785e-03
6.471500266343355179e-03
-4.080277681350708008e-02
-6.393816322088241577e-02
-6.513632833957672119e-02
-1.283029466867446899e-02
1.692869118414819241e-03
-6.515122950077056885e-02
-5.749130621552467346e-02
-3.624798962846398354e-03
-6.028659269213676453e-02
-2.422127686440944672e-02
-4.917745664715766907e-02
6.638147751800715923e-04
2.688768133521080017e-02
1.217456068843603134e-02
-1.621475368738174438e-01
2.748780883848667145e-03
-6.024233251810073853e-02
-1.288852095603942871e-01
-4.272926598787307739e-02
-2.289277128875255585e-02
-2.756354957818984985e-02
9.615725278854370117e-02
8.572380244731903076e-02
-1.441114097833633423e-01
-9.553120471537113190e-03
-3.037120029330253601e-02
3.214132040739059448e-02
3.384640440344810486e-02
7.914905250072479248e-02
1.001980435103178024e-02
-1.634367555379867554e-02
8.743963390588760376e-02
1.316185891628265381e-01
2.884754538536071777e-02
-3.555353730916976929e-02
-4.109392687678337097e-02
7.469958066940307617e-02
1.064926162362098694e-01
4.302532225847244263e-02
2.239603176712989807e-02
5.968753993511199951e-02
6.695803254842758179e-03
1.863537728786468506e-02
-8.369152434170246124e-03
-5.891544371843338013e-02
4.130781814455986023e-02
-4.105538129806518555e-02
2.191005833446979523e-02
-4.641698673367500305e-02
1.078045219182968140e-01
-4.880029335618019104e-02
1.450295560061931610e-02
-8.198961615562438965e-02
-3.153298422694206238e-02
-3.017948940396308899e-03
7.706567179411649704e-03
-5.310501158237457275e-02
-1.189759746193885803e-02
9.117785096168518066e-02
7.724159955978393555e-02
4.195031709969043732e-03
-5.997393280267715454e-02
1.266981754451990128e-02
1.057256460189819336e-01
2.450931444764137268e-02
9.672188758850097656e-02
-5.909220781177282333e-03
-1.205476466566324234e-02
9.069517999887466431e-02
2.725646458566188812e-02
-7.785717397928237915e-02
8.857414126396179199e-03
-4.136148095130920410e-02
-9.290691465139389038e-02
3.868420422077178955e-02
5.550980195403099060e-02
5.291349068284034729e-02
-1.294810920953750610e-01
-1.772732660174369812e-02
2.889364771544933319e-02
-1.515645766630768776e-03
4.159629344940185547e-02
-6.562685966491699219e-02
-7.057328522205352783e-02
1.933887484483420849e-03
-3.240603581070899963e-02
1.915420591831207275e-02
2.878494746983051300e-02
6.648984737694263458e-03
-1.895756646990776062e-02
3.151562437415122986e-02
-2.507280744612216949e-02
-1.633562147617340088e-01
-4.041686281561851501e-02
-2.543012797832489014e-02
-7.886940613389015198e-03
-1.185119710862636566e-02
-6.895111501216888428e-02
-1.065577100962400436e-02
3.684348613023757935e-02
1.789600588381290436e-02
1.012861263006925583e-02
6.577742099761962891e-02
-6.536974757909774780e-02
-5.977364256978034973e-02
-1.227036770433187485e-02
2.043754048645496368e-02
-6.602720916271209717e-02
1.362816244363784790e-01
-4.211247712373733521e-02
-4.581102728843688965e-02
5.119905620813369751e-02
-5.351671017706394196e-03
4.537345375865697861e-03
7.871688902378082275e-02
-6.776516139507293701e-02
-3.445798531174659729e-02
-4.753649607300758362e-02
-1.538003087043762207e-01
-3.707944974303245544e-02
-2.707420848309993744e-03
-4.615844413638114929e-02
-1.373724788427352905e-01
-4.465830326080322266e-02
3.766060620546340942e-02
-5.709813907742500305e-02
5.961284413933753967e-02
3.804489597678184509e-02
1.292748749256134033e-02
-2.426549978554248810e-02
-9.499872475862503052e-02
2.247876860201358795e-02
-9.030729532241821289e-03
2.669893205165863037e-02
5.199764668941497803e-02
-8.867471478879451752e-03
-3.362816944718360901e-02
-3.441302105784416199e-02
-2.421521209180355072e-02
4.726607352495193481e-03
-4.934787005186080933e-02
6.356300413608551025e-02
-8.233271073549985886e-04
-6.738837063312530518e-02
3.804458677768707275e-02
8.621484786272048950e-02
-6.354083772748708725e-03
-5.387999117374420166e-02
-3.627993911504745483e-02
6.728673353791236877e-03
-5.795172974467277527e-02
3.146799281239509583e-02
-1.524199149571359158e-03
9.642841666936874390e-02
-1.445060782134532928e-02
8.149458095431327820e-03
-6.148029491305351257e-02
-4.752181842923164368e-02
-1.169175095856189728e-02
-1.664502024650573730e-01
-7.457653060555458069e-03
2.601608820259571075e-02
4.801691323518753052e-02
-7.779485732316970825e-02
6.446930766105651855e-02
3.020295873284339905e-03
8.812240511178970337e-02
1.878344081342220306e-02
-6.701076030731201172e-02
3.068575635552406311e-02
4.374529421329498291e-02
5.246758926659822464e-03
-1.016394328325986862e-02
8.714616298675537109e-02
-5.395495146512985229e-02
-2.562564425170421600e-02
3.746032342314720154e-02
9.781398624181747437e-02
4.732648376375436783e-03
-7.345218211412429810e-03
2.894254773855209351e-02
2.170016616582870483e-02
-4.060789197683334351e-02
-1.004260256886482239e-01
1.930704223923385143e-03
1.528926938772201538e-02
3.746916726231575012e-02
-1.941695250570774078e-02
-3.535836935043334961e-02
1.404833397828042507e-03
-3.417148441076278687e-02
1.006303280591964722e-01
1.768000051379203796e-02
-3.768659755587577820e-02
2.256254665553569794e-02
2.819713577628135681e-02
-6.142855063080787659e-02
-7.555995602160692215e-03
2.308997884392738342e-02
5.394383333623409271e-04
-5.953691527247428894e-02
1.869767322205007076e-03
8.588936924934387207e-02
-6.226882711052894592e-02
-3.318193554878234863e-02
4.846388474106788635e-02
3.963578864932060242e-02
-7.848156988620758057e-02
1.482333540916442871e-01
3.988019376993179321e-02
-1.206806860864162445e-02
1.309551745653152466e-01
-4.763524979352951050e-02
9.125459939241409302e-02
2.491654269397258759e-02
-6.582868099212646484e-02
-1.735377311706542969e-02
1.211947128176689148e-01
-2.630173228681087494e-02
7.629482075572013855e-03
-3.963965456932783127e-03
-3.437612205743789673e-02
5.901159718632698059e-02
6.426394730806350708e-02
-6.445945799350738525e-02
7.236620038747787476e-02
5.369377508759498596e-02
4.741296544671058655e-02
5.743965879082679749e-02
-2.438557706773281097e-02
-1.012308988720178604e-02
-1.943239867687225342e-01
-5.231395363807678223e-02
-3.009071387350559235e-02
-7.510214298963546753e-02
5.241819843649864197e-02
7.907575368881225586e-02
7.984369993209838867e-02
-1.085386425256729126e-01
8.282635360956192017e-02
4.443117603659629822e-02
3.766764327883720398e-02
1.182502508163452148e-01
4.474730417132377625e-02
-2.535199187695980072e-02
6.824502348899841309e-02
-1.143013779073953629e-02
-3.706180956214666367e-03
-2.019266970455646515e-02
-6.732489448040723801e-03
-1.059078425168991089e-01
-3.156355023384094238e-02
8.186954259872436523e-02
7.517628371715545654e-02
1.908354833722114563e-02
-1.732884347438812256e-02
4.287107661366462708e-02
-7.035449892282485962e-02
1.035154089331626892e-01
5.161907989531755447e-03
-1.345991156995296478e-02
1.928388141095638275e-02
1.931229420006275177e-02
1.137865483760833740e-01
-3.431118279695510864e-02
2.833546698093414307e-02
6.044686585664749146e-02
-2.314524725079536438e-02
1.672766357660293579e-02
-1.565077155828475952e-02
5.011774599552154541e-02
-2.978037297725677490e-02
-7.607952505350112915e-02
-2.201662957668304443e-02
2.828047797083854675e-02
5.805652588605880737e-02
3.895446658134460449e-02
-1.037953607738018036e-02
-3.659647330641746521e-02
7.066654413938522339e-02
-5.466050282120704651e-02
6.751309335231781006e-02
6.991463899612426758e-02
8.204061887226998806e-04
4.805191233754158020e-02
-9.942647069692611694e-03
-5.151166021823883057e-02
-8.389726281166076660e-02
-8.947065100073814392e-03
4.115428030490875244e-02
-3.238688223063945770e-03
-2.322252374142408371e-03
9.585867077112197876e-02
6.787501275539398193e-02
9.169349819421768188e-02
-4.011947289109230042e-02
3.865698724985122681e-02
-5.066458508372306824e-02
-1.369222905486822128e-02
5.599415674805641174e-02
-3.321532905101776123e-02
5.374934524297714233e-02
-5.211414396762847900e-02
-1.066747158765792847e-01
8.037564903497695923e-02
8.443682640790939331e-02
-7.853022217750549316e-02
-9.845730848610401154e-03
-3.207105398178100586e-02
1.321483030915260315e-02
1.181524805724620819e-02
7.171075046062469482e-02
7.441855221986770630e-02
-4.625781998038291931e-02
-1.679001189768314362e-02
4.474342241883277893e-02
-9.947230666875839233e-02
2.655234653502702713e-03
2.091483026742935181e-01
-1.205628365278244019e-01
-2.179407281801104546e-03
3.179801627993583679e-02
-1.097766030579805374e-02
1.586751639842987061e-01
3.027658537030220032e-02
-2.897175028920173645e-02
-2.686264365911483765e-02
5.443849042057991028e-02
6.011291407048702240e-03
4.478274658322334290e-02
-3.158615157008171082e-02
2.347565814852714539e-02
-1.487811747938394547e-02
1.656115427613258362e-02
-5.533506628125905991e-04
8.170084096491336823e-03
9.288535453379154205e-03
-8.300970308482646942e-03
-5.447740107774734497e-02
1.877237297594547272e-02
-3.325019404292106628e-02
-1.033776439726352692e-02
4.911827668547630310e-02
3.205077350139617920e-02
-8.291787467896938324e-03
5.812649428844451904e-02
-1.625304482877254486e-02
-1.768928021192550659e-02
3.382856771349906921e-02
-4.803011566400527954e-02
-4.851644858717918396e-03
3.668285533785820007e-02
-9.512363001704216003e-03
4.774169623851776123e-02
4.550310224294662476e-02
3.138820827007293701e-02
6.762309465557336807e-03
2.699650079011917114e-02
1.982518844306468964e-02
-6.698656082153320312e-02
2.065889351069927216e-02
4.723520949482917786e-02
-1.536589395254850388e-02
-1.921121403574943542e-02
-6.461840588599443436e-03
8.276744931936264038e-02
-3.348184982314705849e-03
-5.266125872731208801e-02
3.927187621593475342e-02
-5.263857170939445496e-02
1.289464831352233887e-01
-4.752909298986196518e-03
-1.077637821435928345e-02
4.006823152303695679e-02
-9.879342280328273773e-03
1.078863441944122314e-02
-1.331376936286687851e-02
-1.735067553818225861e-02
-2.024961635470390320e-02
-8.493465930223464966e-02
-4.863271117210388184e-02
1.018616408109664917e-01
-1.046317722648382187e-02
-4.385067149996757507e-02
-7.910247892141342163e-03
-1.495591364800930023e-02
-3.350458294153213501e-02
-2.006775699555873871e-02
2.917473018169403076e-02
3.874973859637975693e-03
1.015173085033893585e-02
-1.609786152839660645e-01
3.269828483462333679e-02
2.456597052514553070e-02
6.122827064245939255e-03
4.981844127178192139e-02
-3.854322712868452072e-03
9.115400724112987518e-03
4.258209839463233948e-02
-1.425936724990606308e-02
7.712116930633783340e-03
-2.150063373846933246e-04
2.437594905495643616e-02
3.932008892297744751e-02
-9.432326070964336395e-03
-1.094837207347154617e-02
5.435482412576675415e-02
-2.052068710327148438e-03
3.156484290957450867e-02
2.638490498065948486e-02
1.237556859850883484e-01
-4.774222150444984436e-02
-8.592211455106735229e-02
2.829368785023689270e-02
-2.880094107240438461e-03
6.861234549432992935e-03
-3.639772161841392517e-02
1.351676229387521744e-02
1.054675411432981491e-02
-3.505406901240348816e-02
-8.413323201239109039e-03
-9.506976231932640076e-03
-1.683554798364639282e-02
3.199549391865730286e-03
-8.106024563312530518e-02
1.776215620338916779e-02
-7.170482724905014038e-02
-2.081297524273395538e-02
1.622631389182060957e-04
2.590014226734638214e-02
2.568778581917285919e-02
1.005774736404418945e-02
1.240472961217164993e-02
5.166126880794763565e-03
1.201512739062309265e-01
-6.142905727028846741e-02
3.887502849102020264e-02
9.770039469003677368e-03
1.338516026735305786e-01
-5.423446372151374817e-02
-5.379034206271171570e-02
1.139544881880283356e-02
-3.720247745513916016e-02
2.736075595021247864e-02
4.387999325990676880e-02
-9.078535251319408417e-03
4.983535408973693848e-02
-1.269155591726303101e-01
-5.358128109946846962e-04
-6.023300811648368835e-04
-8.744964748620986938e-02
5.920801684260368347e-02
-7.500635832548141479e-02
-2.245676144957542419e-02
3.722065361216664314e-03
4.740174859762191772e-02
4.762563109397888184e-02
1.678549125790596008e-02
-9.276467561721801758e-02
-1.326748915016651154e-02
5.058049038052558899e-02
-1.255910247564315796e-01
1.543294731527566910e-02
-1.597259007394313812e-02
6.659374386072158813e-02
-2.318076230585575104e-02
2.065626531839370728e-02
2.087323181331157684e-02
2.633859589695930481e-02
-5.971280112862586975e-02
-1.860081776976585388e-02
1.113602239638566971e-02
2.954884804785251617e-02
-7.668377459049224854e-02
-8.167373016476631165e-03
-1.016430184245109558e-02
4.222816973924636841e-02
5.492539703845977783e-02
-3.417630866169929504e-02
-3.385459631681442261e-02
-3.638957440853118896e-02
2.545054443180561066e-02
9.435463696718215942e-02
1.915258355438709259e-02
-2.016258984804153442e-02
-6.862097978591918945e-02
6.484205834567546844e-03
2.687798812985420227e-02
3.196268517058342695e-04
5.240909755229949951e-02
5.664206296205520630e-02
7.118428498506546021e-02
1.401414722204208374e-01
-1.132225152105093002e-02
4.209620505571365356e-02
-1.382844056934118271e-02
7.019540667533874512e-02
-5.329992156475782394e-03
1.261920295655727386e-02
-1.551749743521213531e-02
-4.226523451507091522e-03
3.796499595046043396e-02
3.176925331354141235e-02
-8.783981949090957642e-02
5.475213378667831421e-02
-4.900943487882614136e-02
-1.677054725587368011e-02
-2.510113827884197235e-02
3.747285902500152588e-02
-3.975305333733558655e-02
2.219253219664096832e-02
-5.255221202969551086e-02
-5.437918752431869507e-02
-1.185231003910303116e-02
-1.641121879220008850e-02
5.448001623153686523e-02
-1.769192516803741455e-02
4.765750374644994736e-03
-7.239522039890289307e-02
1.847171224653720856e-02
-8.290576934814453125e-02
2.262975089251995087e-02
4.855117946863174438e-02
8.170678466558456421e-02
-1.849889010190963745e-02
5.312645807862281799e-02
-1.477049291133880615e-01
8.602130413055419922e-02
-9.229842573404312134e-03
1.520864386111497879e-02
-6.052300799638032913e-03
1.736108772456645966e-02
-5.997897684574127197e-02
-3.613853454589843750e-02
-3.798388177528977394e-03
-9.220725297927856445e-02
1.054401975125074387e-03
-3.083536401391029358e-02
-5.213078111410140991e-02
1.310951542109251022e-02
-2.315061353147029877e-02
8.332766592502593994e-04
-1.954272203147411346e-02
-5.612524598836898804e-02
1.694669574499130249e-01
4.127110913395881653e-02
5.513105168938636780e-02
4.455412551760673523e-02
-3.874152898788452148e-02
3.699067607522010803e-02
8.950783871114253998e-03
-1.778765022754669189e-02
-1.105693448334932327e-02
-1.934534683823585510e-02
-7.746007293462753296e-02
-5.964817851781845093e-02
1.032384228892624378e-03
-3.956392779946327209e-02
5.916190147399902344e-02
1.233910210430622101e-02
-4.113359004259109497e-02
-2.919030934572219849e-02
-4.689271003007888794e-02
6.460923701524734497e-03
2.655719779431819916e-02
-1.197567023336887360e-02
-6.845350842922925949e-03
-5.547208338975906372e-02
5.250641331076622009e-02
9.762496687471866608e-03
2.826002240180969238e-02
-1.118464395403862000e-01
2.610008046030998230e-02
-3.028545714914798737e-02
3.495009616017341614e-02
-4.301448538899421692e-02
-2.447560243308544159e-02
-8.375282399356365204e-03
1.560424827039241791e-02
7.102235406637191772e-02
1.357864215970039368e-02
2.493681386113166809e-02
-2.897321712225675583e-03
1.082581207156181335e-01
9.169075638055801392e-03
2.209470979869365692e-02
-6.286861002445220947e-02
-4.248441383242607117e-02
9.526038542389869690e-03
9.546000510454177856e-03
-2.970184013247489929e-02
-3.848493099212646484e-02
-1.144244819879531860e-01
1.618044078350067139e-02
4.658057168126106262e-02
-4.409351851791143417e-03
2.534724771976470947e-02
-5.577510222792625427e-03
-1.714070886373519897e-02
3.773807361721992493e-02
-5.745486915111541748e-02
-1.513668149709701538e-02
1.626364886760711670e-03
-7.806104421615600586e-02
-7.375000417232513428e-02
4.401728510856628418e-03
-3.139989450573921204e-02
-1.003889814019203186e-01
4.394104331731796265e-02
2.612801082432270050e-02
-2.155900187790393829e-02
-1.395563874393701553e-02
-2.393071353435516357e-02
3.896076232194900513e-02
7.239717245101928711e-02
-2.136719878762960434e-03
7.135343551635742188e-02
1.294836997985839844e-01
1.875176443718373775e-03
-1.146667376160621643e-01
-9.061451070010662079e-03
2.535520307719707489e-02
2.476569823920726776e-02
7.154004182666540146e-03
2.125223912298679352e-02
1.457967795431613922e-02
3.260192275047302246e-02
-3.468359261751174927e-02
-8.521679788827896118e-02
-5.657098442316055298e-02
-4.825107287615537643e-03
4.337367787957191467e-02
-4.154298454523086548e-02
4.947368428111076355e-02
5.131755769252777100e-02
-4.628782346844673157e-02
-3.737736120820045471e-02
1.772849857807159424e-01
5.905820056796073914e-02
1.069256570190191269e-02
-1.668583750724792480e-01
-4.070187918841838837e-03
-9.642538428306579590e-02
2.580720186233520508e-02
1.306940242648124695e-02
3.515527397394180298e-02
-3.596724569797515869e-02
-4.319130443036556244e-03
1.276737824082374573e-02
4.886541143059730530e-02
-7.670095562934875488e-02
3.332366049289703369e-02
5.034666880965232849e-02
-6.499305367469787598e-02
-1.989696733653545380e-02
4.919891804456710815e-02
9.034987539052963257e-03
-1.077380264177918434e-03
-2.783322241157293320e-03
3.733466565608978271e-02
3.210405632853507996e-02
-2.354307472705841064e-02
-5.427395552396774292e-02
-3.854763461276888847e-03
1.148061640560626984e-02
4.085727035999298096e-02
-1.145755499601364136e-02
-2.821888402104377747e-02
2.876582741737365723e-02
3.302553296089172363e-02
1.724862813716754317e-04
1.519260108470916748e-01
-5.863786488771438599e-02
-9.488885104656219482e-02
5.518220365047454834e-02
-1.003738865256309509e-01
-5.142183974385261536e-02
-1.015741080045700073e-01
-2.383025735616683960e-02
2.165404707193374634e-02
-1.981581747531890869e-02
-1.736922562122344971e-02
-5.849727615714073181e-02
-4.224424436688423157e-02
1.514784339815378189e-02
-3.802523016929626465e-02
-2.482547797262668610e-02
-3.635557740926742554e-02
-1.047087740153074265e-02
-8.856284432113170624e-03
1.640179567039012909e-02
-2.024836279451847076e-02
8.633510209619998932e-03
5.715565010905265808e-02
1.959162531420588493e-03
1.079613938927650452e-01
7.186235487461090088e-02
4.195100441575050354e-02
-4.048765450716018677e-02
6.262763589620590210e-02
-3.722139075398445129e-02
3.133241459727287292e-02
-3.942098468542098999e-03
3.078095987439155579e-02
2.624368295073509216e-02
5.001103971153497696e-03
1.898004859685897827e-02
5.414173752069473267e-02
-4.262363538146018982e-03
-9.126947261393070221e-03
4.785420745611190796e-02
-3.294449299573898315e-02
6.492874026298522949e-02
-1.498555298894643784e-02
-3.490047901868820190e-02
3.104721568524837494e-02
5.179079994559288025e-02
4.426445439457893372e-02
-2.631190605461597443e-02
-1.037285011261701584e-02
-8.516541123390197754e-02
-2.041523717343807220e-02
7.969801314175128937e-03
-1.086203474551439285e-02
-1.226525194942951202e-02
-8.443470578640699387e-04
7.051570713520050049e-02
-2.610174007713794708e-02
4.282068926841020584e-03
3.602519631385803223e-02
3.797697648406028748e-02
-6.602603197097778320e-02
3.541106358170509338e-02
-2.064415253698825836e-02
-8.966523222625255585e-03
6.961289793252944946e-02
9.645216632634401321e-04
3.506107628345489502e-02
-2.638491988182067871e-02
7.802987471222877502e-03
-5.990781635046005249e-02
3.858058899641036987e-02
2.366011589765548706e-02
1.454015970230102539e-01
8.804227411746978760e-02
-3.353356942534446716e-02
-1.851297542452812195e-02
2.340320497751235962e-02
9.958354756236076355e-03
1.976412907242774963e-02
-8.550032973289489746e-03
1.049045007675886154e-02
-2.408172562718391418e-02
4.390694946050643921e-02
-1.731761544942855835e-02
-2.854600735008716583e-02
-3.657847270369529724e-02
8.289249613881111145e-03
-7.585562299937009811e-03
-9.390538185834884644e-02
-3.439724445343017578e-02
3.161612525582313538e-02
-2.036742120981216431e-02
-6.291272491216659546e-02
4.092349112033843994e-02
5.540711805224418640e-02
2.300083264708518982e-02
-4.618293046951293945e-02
6.100264191627502441e-02
-1.147171109914779663e-02
-1.592372171580791473e-02
-3.657973930239677429e-02
3.991957381367683411e-02
4.921788722276687622e-02
2.146899350918829441e-04
-2.053765347227454185e-03
2.360290288925170898e-02
-6.813327223062515259e-02
-2.777434710878878832e-04
-2.243232354521751404e-02
6.305906455963850021e-03
2.031502313911914825e-02
-4.122519865632057190e-02
-3.206513822078704834e-02
-8.027932047843933105e-02
1.326887495815753937e-02
-2.789299003779888153e-02
-7.445513270795345306e-03
-9.672334999777376652e-04
4.198914021253585815e-02
-1.016009375452995300e-01
-5.672986805438995361e-02
-2.936830371618270874e-02
3.509825095534324646e-02
9.433895349502563477e-02
4.040525481104850769e-02
1.398352347314357758e-02
-7.261546328663825989e-03
-2.217821404337882996e-02
3.231834992766380310e-02
-9.401525557041168213e-02
9.000986069440841675e-02
-1.625986583530902863e-02
-2.333465404808521271e-02
8.390934020280838013e-02
4.226689413189888000e-02
3.734497819095849991e-03
5.511298775672912598e-02
4.495453834533691406e-02
-1.227649953216314316e-02
-4.086981341242790222e-02
-4.816036298871040344e-02
5.477532744407653809e-02
1.535631436854600906e-02
2.365951798856258392e-02
-8.841174421831965446e-04
6.731318309903144836e-03
2.673586457967758179e-02
4.729339480400085449e-02
-5.731027573347091675e-03
-1.315824594348669052e-02
-2.192992717027664185e-02
1.115811243653297424e-01
-2.683060802519321442e-02
-4.137195274233818054e-02
2.338272519409656525e-03
6.379862781614065170e-03
-5.311175715178251266e-03
2.772210724651813507e-02
-5.359877273440361023e-02
-8.654658682644367218e-03
1.030628010630607605e-01
3.790536150336265564e-02
-2.424272522330284119e-02
-2.392166480422019958e-02
6.233527511358261108e-02
-4.629825241863727570e-03
6.517832633107900620e-03
-2.204631082713603973e-02
-3.278854116797447205e-02
1.619799062609672546e-02
-3.559051826596260071e-02
4.239179939031600952e-02
7.543011754751205444e-02
6.281787995249032974e-03
2.655055373907089233e-02
3.515444695949554443e-02
-9.287241846323013306e-03
2.405855618417263031e-02
-1.971890305867418647e-04
3.865299746394157410e-02
1.969868093729019165e-01
-1.500546280294656754e-02
-6.977767217904329300e-03
5.488440021872520447e-02
-2.329435944557189941e-02
-1.335401367396116257e-02
-1.605841517448425293e-02
-7.646279036998748779e-02
-1.461996417492628098e-02
1.602648571133613586e-02
1.204344094730913639e-03
3.609228506684303284e-02
1.674257218837738037e-02
-1.183219603262841702e-03
4.163663089275360107e-02
-2.209651982411742210e-03
4.371477290987968445e-02
9.459853172302246094e-03
-3.722564503550529480e-02
3.048574924468994141e-02
-3.695723041892051697e-02
1.434065960347652435e-02
1.244772318750619888e-02
2.027612365782260895e-02
-3.172741830348968506e-02
-2.791779674589633942e-02
1.731647923588752747e-02
7.286917418241500854e-03
8.097178302705287933e-03
-4.678745940327644348e-02
-4.551790282130241394e-02
1.180179975926876068e-02
1.931269839406013489e-02
-1.038612145930528641e-02
1.774872653186321259e-02
4.693749174475669861e-02
-7.265352457761764526e-02
-5.889595672488212585e-02
5.591569840908050537e-02
4.425098374485969543e-02
-3.574359789490699768e-02
1.130394712090492249e-01
8.695837855339050293e-02
2.668832615017890930e-02
-5.630116164684295654e-02
-5.055227782577276230e-03
-9.465859085321426392e-02
2.752539329230785370e-02
-1.306408434174954891e-03
8.662667125463485718e-02
1.755854301154613495e-02
-1.055033877491950989e-03
2.499071322381496429e-02
4.585222154855728149e-02
5.167308077216148376e-02
-1.521917991340160370e-02
1.276528462767601013e-02
-1.147440075874328613e-02
-3.354296460747718811e-02
-2.087784931063652039e-02
3.705779463052749634e-02
4.838886857032775879e-02
1.665846444666385651e-02
-7.394703477621078491e-02
3.496973589062690735e-02
1.866723038256168365e-02
6.204703822731971741e-05
-5.078074708580970764e-02
-4.752457514405250549e-02
3.666853904724121094e-02
-1.449748221784830093e-02
3.399790823459625244e-02
2.488593384623527527e-02
1.682155877351760864e-01
-6.368289701640605927e-03
-2.833257662132382393e-03
-6.755109876394271851e-02
4.837400838732719421e-02
9.927248582243919373e-03
5.118549335747957230e-03
4.689871892333030701e-02
-1.418916229158639908e-02
2.006702870130538940e-02
-6.558713316917419434e-02
-2.100856043398380280e-02
-4.175526089966297150e-03
1.658151112496852875e-02
-4.976457729935646057e-02
-3.030296415090560913e-03
4.772873967885971069e-02
3.594472259283065796e-02
3.641202300786972046e-02
7.557824254035949707e-03
4.705157876014709473e-02
1.693671569228172302e-02
-1.939784176647663116e-02
5.348560959100723267e-02
-2.013411931693553925e-02
-2.212543599307537079e-02
1.950398646295070648e-02
5.458132177591323853e-02
1.375340111553668976e-02
2.553653437644243240e-03
-2.390054799616336823e-02
-4.726194962859153748e-02
-8.236624300479888916e-03
4.923515766859054565e-02
3.946893662214279175e-02
-1.634112186729907990e-02
2.716619148850440979e-02
-4.362072423100471497e-02
-3.984433785080909729e-02
-8.286839723587036133e-02
6.010477244853973389e-02
-2.518280642107129097e-03
7.917317561805248260e-03
-3.998655453324317932e-02
1.078070048242807388e-02
-4.103549569845199585e-02
1.011196672916412354e-01
-6.635388731956481934e-02
2.008684910833835602e-02
-4.250599071383476257e-02
-2.873110771179199219e-02
-3.423760458827018738e-02
-7.283664494752883911e-02
-6.427612155675888062e-03
-2.642789855599403381e-02
-1.712835207581520081e-02
2.404182031750679016e-02
-3.214050456881523132e-02
-4.147324711084365845e-02
-1.034745350480079651e-01
-2.848726138472557068e-02
1.130061224102973938e-02
6.069145724177360535e-02
2.285847067832946777e-02
-1.803781650960445404e-02
-1.303624920547008514e-02
6.484093517065048218e-02
1.319417636841535568e-02
-6.917704595252871513e-04
1.781486719846725464e-02
-5.887086689472198486e-02
-6.308557000011205673e-03
1.826113462448120117e-02
1.044298551278188825e-05
9.222364053130149841e-03
6.288082152605056763e-02
4.190419241786003113e-02
-8.492936193943023682e-02
-6.776746362447738647e-02
-5.633856635540723801e-03
-3.291349858045578003e-02
-3.156721219420433044e-02
1.785171777009963989e-02
-1.594049483537673950e-01
-1.145845279097557068e-01
4.388315137475728989e-03
-8.002607151865959167e-03
1.358170807361602783e-02
-2.947574295103549957e-02
2.775672636926174164e-02
8.527980744838714600e-02
-2.444993704557418823e-02
-2.640855871140956879e-02
3.537805378437042236e-02
-4.945425316691398621e-02
3.057426773011684418e-02
1.047603115439414978e-01
-4.519069939851760864e-02
-2.031096629798412323e-02
-5.739136040210723877e-02
5.788705497980117798e-02
-3.410060890018939972e-03
1.882047764956951141e-02
7.088176440447568893e-03
-1.212998256087303162e-01
-1.890459284186363220e-02
1.386192161589860916e-02
4.872180148959159851e-02
5.308842286467552185e-02
-3.674103319644927979e-02
5.138619989156723022e-02
3.814579918980598450e-03
1.802387647330760956e-02
-3.888617083430290222e-02
-6.675487011671066284e-02
-1.156452521681785583e-01
-4.679819568991661072e-02
9.065019898116588593e-03
6.644862890243530273e-02
2.565319184213876724e-03
1.464576181024312973e-02
-9.316890686750411987e-02
-5.891217663884162903e-02
-4.885061830282211304e-02
-6.855365633964538574e-02
1.921312324702739716e-02
-2.927616238594055176e-02
6.660957634449005127e-02
8.077287347987294197e-04
2.733233384788036346e-02
8.383887261152267456e-02
5.614620074629783630e-02
1.392122358083724976e-01
3.688218817114830017e-02
1.098694838583469391e-02
3.115376643836498260e-02
-4.339733719825744629e-02
-3.755261749029159546e-02
-2.465351112186908722e-02
-4.078392976225586608e-06
-2.918126434087753296e-02
-7.350469380617141724e-02
-4.813656210899353027e-02
5.816335324198007584e-03
2.420352958142757416e-02
7.100228220224380493e-03
3.538327291607856750e-02
2.560751698911190033e-02
4.267108812928199768e-02
-2.078255079686641693e-02
-6.214794144034385681e-02
-5.160564091056585312e-03
4.584461450576782227e-02
-4.275418072938919067e-02
-2.662804536521434784e-02
-2.300632558763027191e-02
2.802538312971591949e-02
3.558186581358313560e-03
6.888646632432937622e-02
6.813105940818786621e-02
-3.661661222577095032e-02
-1.402369514107704163e-02
1.383249089121818542e-02
-5.209513008594512939e-02
-3.355812281370162964e-02
1.279964111745357513e-02
9.120581299066543579e-02
6.486488040536642075e-03
-4.937145859003067017e-02
-3.343098610639572144e-02
3.476427495479583740e-02
-3.061218559741973877e-02
-1.222757101058959961e-01
2.529668621718883514e-03
7.518495619297027588e-02
-1.135629191994667053e-01
2.305154129862785339e-02
-1.253866851329803467e-01
8.697020821273326874e-03
4.128983244299888611e-02
2.041819319128990173e-02
-5.662201344966888428e-02
-3.105341829359531403e-02
-4.112096130847930908e-02
-1.544731855392456055e-02
-5.378960072994232178e-02
-1.682365499436855316e-02
-1.892354898154735565e-02
2.847220189869403839e-02
-1.812171377241611481e-02
-2.310168743133544922e-02
1.013444457203149796e-02
-1.206771731376647949e-01
-4.762450233101844788e-02
5.398853495717048645e-02
-1.496369857341051102e-02
2.603409066796302795e-02
-5.574270617216825485e-03
8.183416724205017090e-02
6.713200360536575317e-02
-5.586478393524885178e-03
-2.114460431039333344e-02
-1.710638590157032013e-02
-3.784817457199096680e-02
-1.169219538569450378e-01
3.080393001437187195e-02
-7.194840162992477417e-02
5.375128611922264099e-02
-1.045490615069866180e-02
-6.874887645244598389e-02
6.951415538787841797e-02
-2.083383686840534210e-02
-2.221956662833690643e-02
2.999427355825901031e-02
-5.866359546780586243e-02
-7.624728232622146606e-02
-1.500476151704788208e-01
-7.860518991947174072e-02
3.001096285879611969e-02
3.635895624756813049e-02
-6.501078605651855469e-03
-8.269422501325607300e-02
-3.741240501403808594e-02
-1.304443925619125366e-01
-1.327652931213378906e-01
3.818947449326515198e-02
2.578801661729812622e-02
1.595965772867202759e-02
-8.686508238315582275e-02
-1.295590028166770935e-02
6.543914973735809326e-02
4.140758514404296875e-02
8.934888057410717010e-03
-6.625224649906158447e-02
-3.558335825800895691e-02
6.103057879954576492e-03
1.006777361035346985e-01
-2.898622304201126099e-02
-4.212228581309318542e-02
-5.147124081850051880e-02
-1.397266387939453125e-01
-9.940514713525772095e-02
-3.737439215183258057e-02
1.320679038763046265e-01
6.408605724573135376e-02
5.301873013377189636e-02
2.254085242748260498e-02
-3.371457755565643311e-02
5.395409092307090759e-02
2.976488508284091949e-02
-3.655883669853210449e-02
1.863658078946173191e-03
-6.000789348036050797e-03
1.181993335485458374e-01
-2.520741336047649384e-02
-1.227428391575813293e-02
