7.204128894954919815e-03
-7.395256310701370239e-02
-4.585539549589157104e-02
-1.053410992026329041e-01
-3.638198971748352051e-02
1.097918152809143066e-01
1.166115421801805496e-02
1.658308692276477814e-02
-6.731001194566488266e-03
-3.165908157825469971e-02
-1.404350530356168747e-02
-2.866351306438446045e-01
-1.646376699209213257e-01
1.588155925273895264e-01
1.326152533292770386e-01
-8.312991261482238770e-02
-2.167676202952861786e-02
-1.730356514453887939e-01
1.771628111600875854e-02
-1.012472808361053467e-02
-1.166536509990692139e-01
-9.443285316228866577e-02
-5.162516981363296509e-02
1.791429966688156128e-01
5.700679495930671692e-02
9.044838696718215942e-02
3.088236227631568909e-02
1.296430081129074097e-01
-2.646824531257152557e-02
-2.678182348608970642e-02
-7.411811500787734985e-02
9.366027265787124634e-02
-6.574385613203048706e-02
-3.980424255132675171e-02
1.310360152274370193e-02
-3.496517986059188843e-02
-1.099280491471290588e-01
5.200654268264770508e-02
-2.691083028912544250e-02
-1.312247365713119507e-01
-7.309049367904663086e-02
-2.017573714256286621e-01
-1.002987753599882126e-02
5.218811333179473877e-02
-1.405891180038452148e-01
5.707805976271629333e-02
2.310288138687610626e-02
-3.075714595615863800e-02
-5.893503129482269287e-02
8.765347301959991455e-03
2.283567748963832855e-02
-6.737113744020462036e-02
-3.863636031746864319e-02
-1.478149741888046265e-01
2.729650214314460754e-02
9.007541835308074951e-02
-2.332373335957527161e-02
4.020235314965248108e-02
-3.794332966208457947e-02
6.724982708692550659e-02
5.313951522111892700e-02
-7.124401628971099854e-02
2.059734426438808441e-02
4.977691452950239182e-03
5.394164472818374634e-02
8.064047247171401978e-02
1.298910826444625854e-01
2.413175301626324654e-03
1.637556850910186768e-01
2.565801143646240234e-01
-2.176767587661743164e-02
6.850658357143402100e-02
1.393213123083114624e-01
1.023307666182518005e-01
1.160412356257438660e-01
5.898517556488513947e-03
1.852919906377792358e-02
7.317906618118286133e-02
-4.628248885273933411e-02
2.295724488794803619e-02
1.285806596279144287e-01
7.357583194971084595e-02
3.869979083538055420e-02
-9.845145046710968018e-02
-4.652499686926603317e-03
4.161901772022247314e-02
6.098154466599225998e-03
-1.209314018487930298e-01
-1.517881173640489578e-02
-4.118083044886589050e-03
-4.285367205739021301e-02
1.544546894729137421e-02
-1.227187737822532654e-01
1.896583102643489838e-02
-1.259499788284301758e-01
4.264624416828155518e-02
6.177182868123054504e-02
-7.423312962055206299e-02
3.636395931243896484e-02
-2.315616607666015625e-02
7.185585796833038330e-02
4.214417189359664917e-02
3.441039100289344788e-02
-6.025421619415283203e-02
-1.770667172968387604e-02
1.897629164159297943e-02
-1.261882781982421875e-01
-1.262680441141128540e-01
-8.323481678962707520e-02
-7.228616625070571899e-02
-1.268496215343475342e-01
-8.626496791839599609e-02
-3.064539432525634766e-01
-3.049432858824729919e-02
-7.813777774572372437e-02
-3.717051446437835693e-02
2.100921794772148132e-02
-7.275172322988510132e-02
-1.820403188467025757e-01
7.906085252761840820e-02
1.610518619418144226e-02
-1.111732795834541321e-01
4.506206139922142029e-02
9.161797910928726196e-02
1.575462371110916138e-01
-9.486665576696395874e-02
-1.974838785827159882e-02
-5.165427550673484802e-02
-1.566924899816513062e-01
2.219519019126892090e-02
-6.705722212791442871e-02
3.083957917988300323e-02
8.772236853837966919e-02
-8.167398720979690552e-02
6.208093091845512390e-02
-9.145701676607131958e-02
1.436550021171569824e-01
2.235366404056549072e-02
1.405170070938766003e-03
1.973813474178314209e-01
-1.634347587823867798e-01
2.813856117427349091e-02
-4.116785153746604919e-02
6.269238144159317017e-02
2.748831873759627342e-03
1.202965900301933289e-01
1.249990239739418030e-02
5.984556302428245544e-02
1.583260297775268555e-01
-3.296086192131042480e-02
1.222351044416427612e-01
1.247269883751869202e-01
6.060392409563064575e-02
-3.761983662843704224e-02
7.186888903379440308e-02
-4.962204024195671082e-02
-2.118387073278427124e-01
9.440749883651733398e-02
7.712304592132568359e-02
5.081734154373407364e-03
1.312625110149383545e-01
6.172124296426773071e-02
-6.347835063934326172e-02
-1.539660096168518066e-01
1.133887097239494324e-01
-8.623476326465606689e-02
1.492527276277542114e-01
2.114027179777622223e-02
1.453943178057670593e-02
5.449150502681732178e-02
-9.862796217203140259e-02
1.239864435046911240e-02
5.786949023604393005e-02
-3.885148093104362488e-02
-8.494006097316741943e-02
-4.447058960795402527e-02
-3.092284873127937317e-02
-6.946846842765808105e-02
1.760847121477127075e-02
-1.512607280164957047e-02
-4.017174988985061646e-02
-5.638212710618972778e-02
-1.139661949127912521e-02
-8.772020787000656128e-02
-8.148601278662681580e-03
-1.238379850983619690e-01
-2.086496353149414062e-02
3.523639962077140808e-02
-9.259396791458129883e-02
-2.266478911042213440e-02
-3.810665756464004517e-02
1.024663299322128296e-01
-2.405517362058162689e-02
-7.662486284971237183e-02
2.946542389690876007e-02
4.411088302731513977e-02
-9.436641633510589600e-02
-9.101690375246107578e-04
-1.039383374154567719e-02
7.498753815889358521e-02
-4.770224168896675110e-02
1.021995022892951965e-01
-4.181248694658279419e-02
1.234159432351589203e-02
6.792574375867843628e-02
-1.617665290832519531e-01
-9.410125017166137695e-02
-1.163750961422920227e-01
9.680963307619094849e-02
7.625331729650497437e-02
-5.336537212133407593e-02
-6.074286997318267822e-02
1.063202619552612305e-01
-1.068620383739471436e-01
-2.017090283334255219e-02
-2.938093990087509155e-02
-1.580980792641639709e-02
-1.558017879724502563e-01
1.158625036478042603e-01
6.019692122936248779e-02
-7.903484255075454712e-02
5.315024405717849731e-02
1.837896704673767090e-01
-2.307039871811866760e-02
2.884033508598804474e-02
-1.577833294868469238e-02
-3.045566612854599953e-03
4.291082546114921570e-02
6.932448130100965500e-03
-4.447849467396736145e-03
5.624523386359214783e-02
9.976704604923725128e-04
-1.062207221984863281e-01
6.655356287956237793e-02
-1.657013036310672760e-02
-1.713166385889053345e-01
-1.000855863094329834e-01
-3.643334610387682915e-03
-2.003901079297065735e-02
1.365162879228591919e-01
-1.131096854805946350e-01
4.153176397085189819e-02
1.247878069989383221e-03
1.939848996698856354e-02
2.375463992357254028e-01
2.629629075527191162e-01
8.801481872797012329e-02
7.868713885545730591e-02
8.888322860002517700e-03
4.307891800999641418e-02
-1.145296618342399597e-01
-6.637439876794815063e-02
1.891761459410190582e-02
-5.874568130820989609e-03
-1.911477744579315186e-02
2.322202920913696289e-02
6.781125813722610474e-02
-2.040706202387809753e-02
5.844954028725624084e-02
-7.915793359279632568e-02
6.346116308122873306e-03
5.420539900660514832e-02
6.608477979898452759e-02
-3.441146761178970337e-02
-3.548477217555046082e-02
-7.472878694534301758e-02
-3.653264790773391724e-02
-1.040444597601890564e-01
4.551345109939575195e-02
-6.697148829698562622e-02
-4.756806790828704834e-02
7.292823493480682373e-02
7.153619825839996338e-02
-4.598767496645450592e-03
4.933704808354377747e-02
-2.640813775360584259e-02
2.903906162828207016e-03
-1.268361359834671021e-01
-4.027771204710006714e-02
2.397404462099075317e-01
-7.815441116690635681e-03
3.834705054759979248e-02
4.393780604004859924e-02
-1.075457315891981125e-02
-1.748658157885074615e-02
-9.128808230161666870e-02
-4.924611374735832214e-02
1.774544455111026764e-02
4.574796184897422791e-02
-1.296751946210861206e-01
3.141164407134056091e-02
-4.835304804146289825e-03
-3.501497209072113037e-02
1.884451881051063538e-02
-2.478242479264736176e-02
-1.724049448966979980e-02
1.882824152708053589e-01
1.342745274305343628e-01
5.650605261325836182e-02
1.174330431967973709e-02
-7.470362633466720581e-02
2.464889548718929291e-02
5.272068455815315247e-02
-7.105588447302579880e-04
1.364797540009021759e-02
-3.644720418378710747e-03
-3.754400834441184998e-02
2.052605152130126953e-03
-1.132348477840423584e-01
6.147897243499755859e-02
2.599498815834522247e-02
-8.747131563723087311e-03
8.702762424945831299e-02
4.646327346563339233e-02
-3.495055134408175945e-04
1.205310784280300140e-02
4.822880402207374573e-02
1.545869000256061554e-02
-3.356103971600532532e-02
1.311439722776412964e-01
1.038861945271492004e-01
7.241061422973871231e-03
-5.142190679907798767e-02
-3.229041397571563721e-02
-1.400068253278732300e-01
5.954205989837646484e-02
4.286813363432884216e-02
-2.416659845039248466e-03
2.110770046710968018e-01
1.037636175751686096e-01
3.449353948235511780e-02
3.330010920763015747e-02
9.391865693032741547e-03
2.487050555646419525e-02
-5.162581056356430054e-02
-7.055423408746719360e-02
1.444306969642639160e-01
-7.001250982284545898e-02
2.674953639507293701e-02
1.762505024671554565e-01
-4.918068274855613708e-02
9.818995743989944458e-02
7.031782716512680054e-02
1.122426167130470276e-01
-2.426422946155071259e-02
-1.621175110340118408e-01
-3.551672771573066711e-02
-2.851439453661441803e-02
-3.053592890501022339e-02
-9.312187321484088898e-04
-2.988886460661888123e-02
2.179336920380592346e-02
-6.561613082885742188e-02
-4.227554798126220703e-02
1.287629306316375732e-01
-4.615589231252670288e-02
6.538463383913040161e-02
8.910988271236419678e-02
1.383072584867477417e-01
-2.098126560449600220e-01
-1.822199113667011261e-02
1.040852628648281097e-02
-1.913856901228427887e-02
5.441947653889656067e-02
1.130833625793457031e-01
2.580721490085124969e-02
-4.010774940252304077e-02
-7.172523438930511475e-02
-4.894248023629188538e-02
-1.721090264618396759e-02
3.227251768112182617e-02
-6.999219954013824463e-02
1.096962839365005493e-01
-2.652878463268280029e-01
-6.271600723266601562e-02
-1.617309264838695526e-02
-2.936927368864417076e-03
-1.871200799942016602e-01
6.667135655879974365e-02
2.272749319672584534e-02
-3.905099257826805115e-02
-1.285819429904222488e-02
9.035678952932357788e-02
-2.696191333234310150e-02
-1.207977160811424255e-01
-3.884420692920684814e-01
-1.777492463588714600e-02
-1.371806561946868896e-01
-8.167158067226409912e-02
-8.814854919910430908e-02
-8.550059795379638672e-02
2.561929821968078613e-02
4.183332622051239014e-02
5.077944323420524597e-02
-9.913892298936843872e-02
-2.280968576669692993e-01
-3.495816141366958618e-02
-8.442670106887817383e-02
2.500354684889316559e-02
-2.497003972530364990e-02
-9.349661320447921753e-02
-2.366340905427932739e-01
6.963356863707304001e-03
-4.391371831297874451e-02
2.366279996931552887e-02
-3.256551176309585571e-02
1.012630295008420944e-03
5.641249939799308777e-02
-1.633539199829101562e-01
-4.707448929548263550e-02
3.093735314905643463e-02
-6.061986461281776428e-02
1.418617554008960724e-02
1.258462369441986084e-01
2.505059354007244110e-02
-6.050015799701213837e-03
-3.559926524758338928e-02
-2.666995488107204437e-02
5.878622084856033325e-02
1.242137923836708069e-01
-3.046838194131851196e-02
-6.845796853303909302e-02
-9.075194597244262695e-02
-1.685907691717147827e-01
3.204036504030227661e-03
2.068876475095748901e-01
-8.181448280811309814e-02
-1.169113591313362122e-01
-3.557042405009269714e-02
-1.104980800300836563e-02
1.674836687743663788e-02
-1.614525020122528076e-01
-5.934900417923927307e-02
1.093463674187660217e-01
-8.515135943889617920e-02
1.908384030684828758e-03
1.242236583493649960e-03
1.299586496315896511e-03
7.629222422838211060e-02
8.208898827433586121e-03
8.859078586101531982e-02
-2.101896796375513077e-03
8.794909715652465820e-02
-9.589690715074539185e-03
2.291962318122386932e-02
1.091536581516265869e-01
9.830448776483535767e-02
4.178521689027547836e-03
1.883463934063911438e-02
1.149806603789329529e-01
8.316250145435333252e-02
-1.098246797919273376e-01
-2.981401048600673676e-02
-2.068508043885231018e-02
-1.133367232978343964e-02
6.865840405225753784e-02
1.151253134012222290e-01
-4.527708142995834351e-02
-3.785901237279176712e-03
3.715119510889053345e-02
-4.868375603109598160e-03
5.235316231846809387e-02
4.655425995588302612e-02
-1.336860805749893188e-01
-8.774994313716888428e-02
-5.400288477540016174e-02
-4.076344147324562073e-02
2.094747498631477356e-02
6.847879290580749512e-02
8.968085795640945435e-02
3.082003593444824219e-01
6.450833380222320557e-02
1.604382134974002838e-02
-1.385113149881362915e-01
1.139642223715782166e-01
3.908680751919746399e-02
-6.025848910212516785e-02
-6.077507883310317993e-02
-5.436121672391891479e-02
6.400007009506225586e-02
1.136375293135643005e-01
-1.415923535823822021e-01
-1.490394175052642822e-01
-5.600346997380256653e-02
-1.582273542881011963e-01
8.603248745203018188e-02
-9.187288582324981689e-02
-6.944942474365234375e-02
-5.391077697277069092e-02
2.071198970079421997e-01
-1.995502971112728119e-02
-6.231187283992767334e-02
1.980265369638800621e-03
-6.602022796869277954e-02
-2.168129570782184601e-02
4.553762823343276978e-02
3.084499575197696686e-02
-5.125758424401283264e-02
2.434919402003288269e-02
-1.290109455585479736e-01
-1.443106234073638916e-01
-2.759156189858913422e-02
-1.732566766440868378e-02
-3.307095263153314590e-03
7.207046449184417725e-02
1.054734438657760620e-01
8.030969649553298950e-02
3.055602312088012695e-02
6.199692375957965851e-03
-1.743284463882446289e-01
3.250083327293395996e-01
-1.214798092842102051e-01
-5.737108364701271057e-02
1.806298345327377319e-01
6.129253190010786057e-03
3.240025043487548828e-02
-9.469478577375411987e-02
-2.880105935037136078e-02
-4.815378412604331970e-02
4.407002124935388565e-03
-5.282828211784362793e-02
-1.339713633060455322e-01
1.158306226134300232e-01
7.272374816238880157e-03
5.458592996001243591e-02
7.531791925430297852e-02
-1.299938000738620758e-02
-1.416716724634170532e-01
3.886341303586959839e-02
8.036395907402038574e-02
1.206045318394899368e-02
1.036032736301422119e-01
3.513956442475318909e-02
4.409222304821014404e-02
6.885504722595214844e-02
-4.968409985303878784e-02
1.081081926822662354e-01
-7.980188727378845215e-02
3.374062711372971535e-03
-2.067614905536174774e-02
1.861587464809417725e-01
-9.765551239252090454e-02
3.395866602659225464e-03
1.059829816222190857e-02
-7.224232703447341919e-02
-6.710991263389587402e-02
4.438135772943496704e-02
1.482922136783599854e-01
2.490795254707336426e-01
-7.864516228437423706e-02
5.303756147623062134e-02
1.137838885188102722e-02
-1.056140363216400146e-01
-7.312729954719543457e-02
-3.591936081647872925e-02
7.023103535175323486e-02
-8.445139229297637939e-02
5.568519234657287598e-02
4.864381626248359680e-02
1.642127782106399536e-01
-2.145954966545104980e-02
4.922500252723693848e-02
7.220842689275741577e-02
1.049946993589401245e-01
-1.100576668977737427e-01
-3.335664421319961548e-02
-9.913919121026992798e-02
2.777921967208385468e-02
-1.389957219362258911e-01
-8.223992586135864258e-02
-9.607690572738647461e-02
-1.812640577554702759e-01
1.035745739936828613e-01
-9.220373630523681641e-02
-1.528492104262113571e-02
5.406033992767333984e-02
-2.217726223170757294e-02
-3.421573713421821594e-02
1.239102780818939209e-01
-4.276774078607559204e-02
2.022969350218772888e-02
5.846588686108589172e-02
1.198620125651359558e-01
4.986292496323585510e-02
1.154334768652915955e-01
-6.763704866170883179e-02
-8.892729878425598145e-02
-4.315146710723638535e-03
-7.929373532533645630e-02
6.304814666509628296e-02
5.039820820093154907e-02
1.174838021397590637e-01
-1.566402167081832886e-01
5.226643383502960205e-02
1.217110548168420792e-02
4.188656806945800781e-02
1.233192160725593567e-02
-8.433869481086730957e-02
-2.189750038087368011e-02
-5.905203521251678467e-02
4.037157446146011353e-02
-3.296134248375892639e-02
-2.556233294308185577e-02
9.942217916250228882e-02
1.042936667799949646e-01
-3.600546717643737793e-02
-2.108853869140148163e-02
-1.574569642543792725e-01
-3.230793029069900513e-02
1.884757308289408684e-03
1.637605726718902588e-01
-4.934840276837348938e-02
1.097614318132400513e-01
4.060653969645500183e-02
-2.484229765832424164e-02
-1.013143807649612427e-01
2.019983679056167603e-01
-2.049463987350463867e-02
-8.943652361631393433e-02
-1.159197539091110229e-01
-8.975300192832946777e-02
2.822813205420970917e-02
1.284086424857378006e-02
4.124458134174346924e-02
-2.833543419837951660e-01
5.705916788429021835e-03
-1.971813291311264038e-02
8.279727399349212646e-02
-1.470284163951873779e-01
9.388688951730728149e-02
8.700135350227355957e-02
9.419461130164563656e-04
8.491414785385131836e-02
2.441339893266558647e-03
-6.254558265209197998e-02
-2.074202522635459900e-03
4.313429817557334900e-02
4.024183377623558044e-02
-2.321682125329971313e-02
1.634174957871437073e-02
8.262094110250473022e-02
1.001812238246202469e-02
1.269150152802467346e-02
7.797123491764068604e-02
6.409268081188201904e-02
-1.015172228217124939e-01
1.544537395238876343e-01
4.293301701545715332e-02
-4.994209855794906616e-02
-8.062788099050521851e-02
-3.099015355110168457e-02
-3.246451495215296745e-03
5.969039350748062134e-02
-8.620364964008331299e-02
-1.191927772015333176e-02
-3.561741858720779419e-02
3.574452549219131470e-02
1.155413761734962463e-01
-2.390210703015327454e-02
1.312783509492874146e-01
1.760713011026382446e-02
-1.612373068928718567e-02
4.110028967261314392e-02
-5.343328788876533508e-02
4.309881106019020081e-02
-5.291020870208740234e-02
-8.801030926406383514e-03
-4.323984682559967041e-02
1.653383821249008179e-01
1.237575933337211609e-01
3.882896155118942261e-02
-1.141569204628467560e-02
-4.008491337299346924e-02
-4.281288012862205505e-02
5.638737976551055908e-02
-2.874123752117156982e-01
4.232301563024520874e-02
2.284305728971958160e-02
-1.004033014178276062e-01
8.763301372528076172e-02
1.038815453648567200e-01
-1.346496790647506714e-01
-1.867127977311611176e-02
3.963383845984935760e-03
4.456986859440803528e-02
-6.486853957176208496e-02
3.400458395481109619e-02
5.524198524653911591e-03
-2.313523553311824799e-02
-3.519102931022644043e-02
8.762308955192565918e-02
-6.584740430116653442e-02
-7.646496593952178955e-02
-1.031627506017684937e-02
5.142330192029476166e-03
3.669204190373420715e-02
-3.375640138983726501e-03
-9.313239157199859619e-02
-6.930214911699295044e-02
9.774102270603179932e-02
2.259358949959278107e-02
-8.854661136865615845e-03
7.349063456058502197e-02
-5.196040030568838120e-03
-6.921377032995223999e-02
-9.251770377159118652e-02
8.779148571193218231e-03
5.708722397685050964e-02
-2.330006062984466553e-01
1.383483111858367920e-01
-9.655273705720901489e-02
-1.026639640331268311e-01
1.528342515230178833e-01
1.413297653198242188e-01
2.068355083465576172e-01
-3.579836571589112282e-03
-1.417274624109268188e-01
-9.163609147071838379e-02
-1.355388462543487549e-01
-1.076309196650981903e-02
8.853563666343688965e-02
1.160631142556667328e-02
-1.964061260223388672e-01
1.432238146662712097e-02
3.613433241844177246e-02
-2.866151044145226479e-03
-7.258143275976181030e-02
-2.902056090533733368e-02
7.238877564668655396e-02
-4.403105974197387695e-01
-6.859266757965087891e-02
-5.344846844673156738e-02
-7.582437247037887573e-02
9.791484102606773376e-03
-7.855422049760818481e-02
4.713296517729759216e-02
4.920303449034690857e-02
4.696647077798843384e-02
5.623496836051344872e-04
-3.833400830626487732e-02
1.704856604337692261e-01
-6.493145227432250977e-02
9.208895266056060791e-02
1.468372195959091187e-01
6.100178509950637817e-02
-1.616865098476409912e-01
2.576814219355583191e-02
-1.099668741226196289e-01
-5.411488469690084457e-03
-8.338961750268936157e-02
-1.352092530578374863e-02
-1.031966879963874817e-01
-1.497505307197570801e-01
5.013252049684524536e-02
-1.137703955173492432e-01
-4.130955785512924194e-02
2.403189688920974731e-01
-1.248131096363067627e-01
-2.915011160075664520e-02
4.339021816849708557e-02
4.159948974847793579e-02
7.457375526428222656e-02
8.593762293457984924e-03
-5.349070951342582703e-02
2.464463002979755402e-03
-8.054481586441397667e-04
-4.453689977526664734e-02
-2.832033634185791016e-01
-4.493503645062446594e-02
2.905764803290367126e-02
-1.276493421755731106e-03
-3.999942168593406677e-02
1.809107139706611633e-02
-5.612621083855628967e-02
6.930726021528244019e-02
5.684436857700347900e-02
-3.956466168165206909e-02
-1.148740574717521667e-02
9.068079292774200439e-03
3.604632019996643066e-01
-1.208963841199874878e-01
-9.467255324125289917e-02
4.025416076183319092e-02
-1.161209046840667725e-01
7.003267109394073486e-02
4.904344305396080017e-02
2.778354333713650703e-03
-9.298155456781387329e-02
-2.410234138369560242e-02
-1.983665525913238525e-01
1.939621055498719215e-03
-9.799726307392120361e-02
1.382033433765172958e-02
-5.329334363341331482e-02
-8.057402074337005615e-02
-9.709662199020385742e-02
1.234326809644699097e-01
3.561194613575935364e-02
1.240839213132858276e-01
-1.203605681657791138e-01
7.764288783073425293e-02
1.086108908057212830e-01
-4.284643009305000305e-02
-1.658334434032440186e-01
1.237412318587303162e-01
3.005465306341648102e-02
-8.608683943748474121e-02
3.663046285510063171e-02
-6.735897064208984375e-02
1.166604533791542053e-01
-6.494498229585587978e-04
-9.115456044673919678e-02
-4.758789762854576111e-02
1.990206539630889893e-02
-1.370363235473632812e-01
-6.664780434221029282e-03
-4.067800194025039673e-02
3.413647413253784180e-02
-2.367380447685718536e-02
-5.517534911632537842e-02
-4.007650911808013916e-02
-4.967253655195236206e-02
-1.761994063854217529e-01
-7.213710248470306396e-02
2.987409383058547974e-02
2.321842621313408017e-04
1.375909596681594849e-01
-1.055013481527566910e-02
1.120088025927543640e-01
-1.512530259788036346e-02
1.836794428527355194e-02
3.823594003915786743e-02
2.818890474736690521e-02
-1.133531033992767334e-01
-5.509391054511070251e-02
-1.978250034153461456e-02
-1.691144853830337524e-01
-7.395309209823608398e-02
7.778427749872207642e-02
7.238266617059707642e-02
7.019724696874618530e-02
1.545778512954711914e-01
-1.708949953317642212e-01
-9.244861453771591187e-02
-2.996963635087013245e-02
2.339962124824523926e-02
1.536808628588914871e-02
-5.326789990067481995e-02
-1.466328464448451996e-02
-1.035756468772888184e-01
1.376760900020599365e-01
-8.076626062393188477e-02
-9.982989728450775146e-02
1.848071813583374023e-02
-1.532961986958980560e-02
1.918595843017101288e-02
8.634378761053085327e-02
1.302045732736587524e-01
-2.677710354328155518e-02
-2.001916058361530304e-02
-8.921653032302856445e-02
7.684963755309581757e-03
7.202356308698654175e-02
-1.517143249511718750e-01
1.209192126989364624e-01
2.021039836108684540e-03
-3.791483864188194275e-02
-8.316388353705406189e-03
2.043360657989978790e-02
-2.864088863134384155e-02
-1.063963174819946289e-01
3.867349028587341309e-02
2.358882687985897064e-02
-2.678340300917625427e-02
-4.637119546532630920e-02
4.724134132266044617e-02
-5.845252424478530884e-02
-5.544777587056159973e-02
-4.374753683805465698e-02
2.008257992565631866e-02
-1.108239740133285522e-01
-1.200920790433883667e-01
-5.281912907958030701e-02
1.036304514855146408e-02
-9.849491715431213379e-02
4.142240285873413086e-01
1.738295406103134155e-01
-4.422783106565475464e-02
-1.483078747987747192e-01
2.795094251632690430e-02
-2.408171258866786957e-02
-4.523479193449020386e-02
-4.799103364348411560e-02
-8.155769668519496918e-03
6.166046950966119766e-03
-1.782952062785625458e-02
2.527028322219848633e-02
4.213442653417587280e-02
2.084301225841045380e-02
8.810164034366607666e-02
-2.998942881822586060e-02
-2.865450084209442139e-02
9.834113530814647675e-03
1.921136826276779175e-01
1.967183314263820648e-02
4.327731579542160034e-02
-5.799200758337974548e-02
9.918136149644851685e-02
6.976954638957977295e-02
-1.216637343168258667e-01
2.846259437501430511e-02
5.831608921289443970e-02
1.362701803445816040e-01
1.184403300285339355e-01
-5.841070413589477539e-02
-6.093081831932067871e-02
-5.861188098788261414e-02
2.457335591316223145e-02
5.496577173471450806e-02
8.533823490142822266e-02
-8.924450725317001343e-02
-3.187003359198570251e-02
5.331159383058547974e-02
-8.665288239717483521e-02
-3.450220525264739990e-01
7.836514711380004883e-02
-1.145921926945447922e-02
2.024510130286216736e-02
9.693606942892074585e-02
-9.302217513322830200e-02
-7.254025898873806000e-03
-1.027561351656913757e-01
5.671926587820053101e-02
1.028636544942855835e-01
-2.096394076943397522e-02
3.663784125819802284e-03
1.360987871885299683e-01
7.773610949516296387e-02
-8.468202501535415649e-02
1.070940569043159485e-01
-1.037393976002931595e-02
-8.154363185167312622e-02
-9.152332320809364319e-03
-5.808033049106597900e-02
7.047265768051147461e-02
-7.249192148447036743e-02
6.592335551977157593e-02
-5.043157935142517090e-02
4.158971458673477173e-02
-2.368205785751342773e-02
-6.951447576284408569e-02
1.384328454732894897e-01
-5.572788044810295105e-02
-1.101377531886100769e-01
6.442708522081375122e-02
1.006274968385696411e-01
6.866866350173950195e-02
-1.254217028617858887e-01
-9.998486936092376709e-02
7.192499935626983643e-02
5.499992985278367996e-04
-1.085831001400947571e-01
-7.118380814790725708e-02
-9.631024673581123352e-03
-9.096039831638336182e-02
1.017145067453384399e-01
-3.873273357748985291e-02
1.298859715461730957e-01
4.408422484993934631e-02
-1.065513566136360168e-01
-5.456585437059402466e-02
-8.270680904388427734e-03
-9.608699008822441101e-03
-1.699600815773010254e-01
-4.172364249825477600e-02
7.099930942058563232e-02
-8.802508935332298279e-03
-1.056079939007759094e-01
5.205116048455238342e-02
1.092912405729293823e-01
8.572742342948913574e-02
3.125860542058944702e-02
-1.307701412588357925e-02
1.199754141271114349e-02
-7.636033743619918823e-02
-1.059181522578001022e-02
1.048019677400588989e-01
4.601302742958068848e-02
1.401575468480587006e-02
1.333472901023924351e-03
6.617132574319839478e-02
7.068496197462081909e-02
-6.780648976564407349e-02
5.949739739298820496e-02
6.363324075937271118e-02
-3.682770580053329468e-02
-7.885293662548065186e-02
-1.541766673326492310e-01
1.176880374550819397e-01
1.723794825375080109e-02
7.220884412527084351e-02
-8.052793145179748535e-02
1.671069264411926270e-01
2.851228043437004089e-02
-1.856940984725952148e-02
4.815443232655525208e-02
-1.000559329986572266e-02
-2.558698132634162903e-02
4.647317528724670410e-01
-5.362597852945327759e-02
-8.226180798374116421e-04
-1.625465974211692810e-02
1.255673021078109741e-01
1.631719172000885010e-01
1.102008596062660217e-01
1.940701901912689209e-02
-7.646291702985763550e-02
-5.373500287532806396e-02
-1.501926966011524200e-02
4.144016280770301819e-02
-7.091927342116832733e-03
4.850628972053527832e-02
-1.483100950717926025e-01
-1.833756268024444580e-01
-2.626042068004608154e-02
-5.758190900087356567e-02
-2.206817967817187309e-03
-8.478393405675888062e-02
1.836444949731230736e-03
-2.169126272201538086e-01
-1.283142417669296265e-01
-4.622236266732215881e-02
-2.630878686904907227e-01
-2.337752282619476318e-02
1.848297268152236938e-01
2.383691519498825073e-01
1.726561784744262695e-01
-7.391083240509033203e-02
2.684043347835540771e-02
3.666323795914649963e-02
4.018815234303474426e-03
1.774335652589797974e-02
1.112006790935993195e-02
-2.551535069942474365e-01
-1.820454001426696777e-01
-1.391044408082962036e-01
-5.363731458783149719e-02
-1.208184286952018738e-01
-1.111435815691947937e-01
5.031088367104530334e-02
-1.027339845895767212e-01
-3.991337120532989502e-02
1.818616539239883423e-01
-1.039215996861457825e-01
1.012441143393516541e-01
3.142841160297393799e-02
-1.378964036703109741e-01
-5.051778256893157959e-02
-1.770950853824615479e-02
8.210504055023193359e-02
-3.483694419264793396e-02
-1.847955286502838135e-01
8.779516816139221191e-02
-3.933702036738395691e-02
-1.615463197231292725e-01
1.961047500371932983e-01
-9.845553897321224213e-03
-9.878961741924285889e-02
3.457270562648773193e-01
-7.305146008729934692e-02
5.361308529973030090e-02
5.909619852900505066e-03
7.503959350287914276e-03
-5.753860622644424438e-02
9.640687145292758942e-03
1.005613207817077637e-01
-3.372922912240028381e-02
1.194440573453903198e-01
-3.180250152945518494e-02
3.736352175474166870e-02
-1.818327046930789948e-02
2.383746765553951263e-02
3.321264684200286865e-02
1.233395114541053772e-01
-1.479001045227050781e-01
1.042974889278411865e-01
-7.174883782863616943e-02
9.002050757408142090e-02
-1.904850006103515625e-01
8.549275249242782593e-02
1.009398400783538818e-01
3.296748921275138855e-02
2.059861272573471069e-01
-1.123745068907737732e-01
6.261216104030609131e-02
-6.651072949171066284e-02
1.472798455506563187e-02
-6.446242332458496094e-02
3.667643293738365173e-02
9.839553385972976685e-02
2.312554605305194855e-02
-5.693856254220008850e-02
-4.237495362758636475e-02
-4.643651098012924194e-02
-9.744032472372055054e-02
1.096600145101547241e-01
-6.458790600299835205e-02
-1.122406683862209320e-02
4.795710369944572449e-02
7.486449927091598511e-02
2.175607904791831970e-02
8.873408287763595581e-02
7.440898567438125610e-03
5.254336073994636536e-02
1.812111027538776398e-02
-1.006215363740921021e-01
1.919881254434585571e-01
7.879897952079772949e-02
-3.438122197985649109e-02
2.189743891358375549e-02
-8.700136095285415649e-02
3.384708240628242493e-02
2.491102740168571472e-02
-6.539339572191238403e-02
-5.415959656238555908e-02
4.622482880949974060e-02
-1.607081741094589233e-01
-1.857813447713851929e-01
3.641297295689582825e-02
-1.156840100884437561e-01
-2.085748165845870972e-01
1.633818894624710083e-01
9.005988948047161102e-03
-5.027393344789743423e-03
2.055046558380126953e-01
4.216868802905082703e-02
9.098929911851882935e-02
-9.669239819049835205e-02
3.194011747837066650e-02
4.432515799999237061e-02
-1.045818552374839783e-01
8.683206886053085327e-02
-3.615492954850196838e-02
6.652320176362991333e-02
2.696221694350242615e-03
-1.204954460263252258e-01
-1.466103084385395050e-02
-1.421351134777069092e-01
1.128026936203241348e-02
-1.222568675875663757e-01
-8.676771819591522217e-02
-9.988961741328239441e-03
-8.265618234872817993e-02
3.344473615288734436e-02
5.035217385739088058e-03
-1.207314580678939819e-01
5.843156948685646057e-02
6.057719886302947998e-02
-4.918223246932029724e-02
-1.337124407291412354e-01
-2.548203170299530029e-01
-9.340450912714004517e-02
1.211870908737182617e-01
-1.604115217924118042e-01
-1.941493302583694458e-01
7.733204960823059082e-02
-1.923004090785980225e-01
-2.053404785692691803e-02
1.156981214880943298e-01
-2.330723404884338379e-01
4.955593124032020569e-02
-2.234447747468948364e-02
9.396169334650039673e-02
-1.813114583492279053e-01
-8.897613734006881714e-02
-3.832312766462564468e-03
-1.536057591438293457e-01
1.184171414934098721e-03
-5.925394594669342041e-03
6.562478840351104736e-02
1.277932971715927124e-01
4.383942112326622009e-03
2.364775864407420158e-03
8.209733664989471436e-02
-1.708599328994750977e-01
7.280320674180984497e-02
-8.004740811884403229e-03
-9.558656893204897642e-05
-1.154480352997779846e-01
-5.232563987374305725e-02
8.303797990083694458e-02
-4.382230713963508606e-02
7.757607847452163696e-02
-4.630557075142860413e-02
-7.459983974695205688e-02
6.703305244445800781e-02
-4.236329346895217896e-02
5.657048150897026062e-02
-1.582802273333072662e-02
-4.996815696358680725e-02
2.457512076944112778e-03
2.984670363366603851e-02
4.239823296666145325e-02
-1.460840925574302673e-02
4.820909351110458374e-02
1.291207224130630493e-01
-1.099991649389266968e-01
-6.319635082036256790e-03
-6.523971259593963623e-02
4.073924943804740906e-02
1.030198018997907639e-02
1.478212922811508179e-01
-4.067248478531837463e-02
-3.682995215058326721e-03
1.066155955195426941e-01
1.686306856572628021e-02
5.755753815174102783e-02
-9.650800377130508423e-03
-1.352034211158752441e-01
-1.643274910748004913e-02
-7.831622660160064697e-02
-8.331611752510070801e-02
-1.082717031240463257e-01
1.920567452907562256e-02
1.474721729755401611e-02
-2.165961712598800659e-01
-2.297230809926986694e-02
8.526647090911865234e-02
-1.182442530989646912e-02
-6.325145065784454346e-02
-8.039328455924987793e-02
-1.033965796232223511e-01
1.195695325732231140e-01
-3.883749246597290039e-02
-1.139753684401512146e-01
-1.658484223298728466e-03
4.150849767029285431e-03
-1.284312158823013306e-01
-1.864294894039630890e-02
-1.012388691306114197e-01
5.277040973305702209e-02
-2.608919702470302582e-02
-4.317954927682876587e-02
2.042279988527297974e-01
-2.032642066478729248e-02
1.594150513410568237e-01
7.289171963930130005e-02
1.927329786121845245e-02
5.524658481590449810e-04
-8.062224835157394409e-03
1.489399820566177368e-01
-3.507718443870544434e-02
1.431909501552581787e-01
-1.834823563694953918e-02
3.157644765451550484e-03
3.081159666180610657e-02
9.673944674432277679e-03
-3.713708603754639626e-03
1.150806471705436707e-01
8.737929910421371460e-02
-3.851730376482009888e-02
-4.551428556442260742e-02
-2.094057649374008179e-01
-2.203892469406127930e-01
-4.519783705472946167e-02
1.475804671645164490e-02
1.059076786041259766e-01
-8.313205093145370483e-02
1.418154686689376831e-01
1.914226263761520386e-01
-9.777037799358367920e-02
-8.233632892370223999e-02
3.502694517374038696e-02
-2.177396118640899658e-01
-6.668034475296735764e-03
2.325024008750915527e-01
-2.304546302184462547e-03
1.082093492150306702e-01
9.020493924617767334e-02
6.031895056366920471e-03
-5.303686484694480896e-02
1.200511679053306580e-01
6.969312578439712524e-02
-2.606516703963279724e-02
-5.965394899249076843e-02
2.474928088486194611e-02
-6.601567566394805908e-02
-6.755068898200988770e-02
9.393911063671112061e-02
-1.330960690975189209e-01
3.117689676582813263e-02
-1.090045198798179626e-01
7.058807462453842163e-02
-2.025911398231983185e-02
6.675551086664199829e-02
2.355972072109580040e-03
-6.784430146217346191e-02
3.257204890251159668e-01
-2.843376807868480682e-02
-4.776483774185180664e-02
-1.511450707912445068e-01
2.020279178395867348e-03
-5.630151927471160889e-02
2.818875759840011597e-02
-1.387342214584350586e-01
3.838800266385078430e-02
7.695197314023971558e-02
-1.590338908135890961e-02
-8.093132637441158295e-03
5.761045217514038086e-02
-7.947323471307754517e-02
9.439767897129058838e-02
3.422299772500991821e-02
1.810034364461898804e-02
8.745171874761581421e-02
1.097687184810638428e-01
-9.004629403352737427e-02
5.837405100464820862e-02
2.766954153776168823e-02
-3.931120038032531738e-02
8.871023356914520264e-02
-3.218696685507893562e-03
-1.190069168806076050e-01
-4.455525055527687073e-02
7.516338676214218140e-02
-5.314655601978302002e-02
2.353036999702453613e-01
-9.389012306928634644e-02
-9.902192652225494385e-02
-6.476586312055587769e-02
-1.916951686143875122e-02
-1.831751316785812378e-01
2.209179848432540894e-02
-8.849108964204788208e-02
3.959426656365394592e-02
6.351099908351898193e-02
3.784039989113807678e-02
-5.705062299966812134e-02
-6.370321661233901978e-02
-1.776357740163803101e-01
-4.529862850904464722e-02
1.242386326193809509e-01
1.008430570363998413e-01
4.705485701560974121e-02
-1.750360243022441864e-02
3.261939063668251038e-02
5.214774608612060547e-02
6.300091743469238281e-02
-2.214845968410372734e-03
-4.159438610076904297e-02
-3.885280713438987732e-02
-1.403784453868865967e-01
-1.382447034120559692e-01
7.104708999395370483e-02
1.228283420205116272e-01
9.016579948365688324e-03
7.061278820037841797e-02
-9.234315156936645508e-02
-1.432554423809051514e-01
2.744066528975963593e-02
1.167655810713768005e-01
-4.469475522637367249e-02
-1.389444433152675629e-02
-1.724184155464172363e-01
-8.620723336935043335e-02
-3.890040889382362366e-02
1.439314614981412888e-02
5.291240289807319641e-02
-3.119429014623165131e-02
1.564822793006896973e-01
1.521108448505401611e-01
3.643475100398063660e-02
1.115137245506048203e-02
-8.176899701356887817e-02
1.194999516010284424e-01
1.684136241674423218e-01
-1.895368844270706177e-02
-2.973489835858345032e-02
1.270027607679367065e-01
1.003883592784404755e-02
6.047159433364868164e-02
1.199207827448844910e-01
-9.046665392816066742e-03
-5.233033001422882080e-02
-5.540646612644195557e-02
3.459228319115936756e-04
-1.825003474950790405e-01
2.390682101249694824e-01
1.009019836783409119e-01
9.435103833675384521e-02
4.318389296531677246e-02
-4.864535480737686157e-02
2.247924655675888062e-01
-4.052126780152320862e-02
7.442209124565124512e-02
-2.422796934843063354e-02
-2.673584967851638794e-02
2.200171351432800293e-02
-2.068565972149372101e-02
9.177231229841709137e-03
-1.112808510661125183e-01
2.149769514799118042e-01
-8.024852722883224487e-02
-1.620644517242908478e-02
9.525646269321441650e-02
-8.513275533914566040e-02
2.998922392725944519e-02
1.944236271083354950e-02
8.609788864850997925e-02
-1.929754763841629028e-01
-6.730762124061584473e-02
1.266311109066009521e-01
1.235588118433952332e-01
-1.010632961988449097e-01
-2.853179536759853363e-02
1.748329214751720428e-02
7.206752896308898926e-02
-1.329302787780761719e-01
1.019132286310195923e-01
4.450723901391029358e-02
6.760460883378982544e-02
6.344930082559585571e-02
-1.280392259359359741e-01
4.453056305646896362e-02
-6.315051764249801636e-02
1.002830266952514648e-01
2.392156980931758881e-02
-1.515105515718460083e-01
-1.706591248512268066e-02
2.845186740159988403e-02
-6.150120869278907776e-02
-1.026261299848556519e-01
6.047348957508802414e-03
1.371313780546188354e-01
-1.599756628274917603e-01
3.229580447077751160e-02
1.162231341004371643e-02
-2.337706647813320160e-02
7.036895304918289185e-02
2.711468748748302460e-02
-4.555982886813580990e-04
2.355446666479110718e-02
-6.672702729701995850e-02
-1.453878581523895264e-01
1.610398106276988983e-02
4.075376689434051514e-02
-1.039151176810264587e-01
-7.986322045326232910e-02
8.223280310630798340e-02
2.345647960901260376e-01
1.450232509523630142e-02
7.634423673152923584e-02
6.656239740550518036e-03
-6.276097893714904785e-02
2.020047456026077271e-01
-7.822252064943313599e-02
2.442907728254795074e-02
3.387248888611793518e-02
2.105729095637798309e-02
5.090962722897529602e-02
2.532442333176732063e-03
-1.244444698095321655e-01
7.235579937696456909e-02
-5.233228579163551331e-02
-2.096382714807987213e-02
1.149575635790824890e-01
-7.851004600524902344e-02
8.353683166205883026e-03
4.095626249909400940e-02
1.919645518064498901e-01
1.274482160806655884e-01
-5.522344633936882019e-02
-1.443812064826488495e-02
-1.396761089563369751e-01
-1.069932803511619568e-01
8.997648954391479492e-02
-3.553978353738784790e-02
1.758085489273071289e-01
-9.492917358875274658e-02
-6.162632629275321960e-02
-1.191653385758399963e-01
1.218861043453216553e-01
7.802803069353103638e-02
1.031839400529861450e-01
-1.648118346929550171e-01
-3.243977949023246765e-02
-1.378413196653127670e-02
2.613492682576179504e-02
5.695639178156852722e-02
3.384064882993698120e-02
1.097334995865821838e-01
-9.093622793443500996e-04
-1.725900731980800629e-02
5.779999122023582458e-02
1.476071588695049286e-02
7.843035273253917694e-03
-6.189277023077011108e-02
2.128408700227737427e-01
-7.655458897352218628e-02
-3.913849592208862305e-02
6.608034670352935791e-02
-8.587548136711120605e-02
7.834591716527938843e-02
3.071320429444313049e-02
2.349090389907360077e-02
3.410726040601730347e-02
-5.783086642622947693e-02
9.973232634365558624e-03
-5.167092196643352509e-03
-7.774937897920608521e-02
-1.495693176984786987e-01
-5.234403908252716064e-02
-1.693388260900974274e-02
-2.607777714729309082e-01
1.677165552973747253e-02
1.597497463226318359e-01
9.108331799507141113e-02
-4.776845499873161316e-02
-2.540093380957841873e-03
-4.752809181809425354e-02
-8.017972111701965332e-02
1.736453152261674404e-03
-9.625955671072006226e-02
1.575498282909393311e-01
1.467613279819488525e-01
1.601787358522415161e-01
-1.044510379433631897e-01
6.236745044589042664e-02
1.246877089142799377e-01
-7.240710314363241196e-03
-1.656980067491531372e-01
-8.483745157718658447e-02
-1.880584843456745148e-02
-7.517442852258682251e-02
-1.376840565353631973e-02
1.431903690099716187e-01
9.782631695270538330e-02
2.958679012954235077e-02
-4.938347265124320984e-02
-1.185215562582015991e-01
4.115696623921394348e-02
7.795514166355133057e-02
2.865591086447238922e-02
5.171743780374526978e-02
7.065638154745101929e-02
-5.790694057941436768e-02
-1.184682268649339676e-02
-1.168889179825782776e-01
6.385517120361328125e-02
2.382804900407791138e-01
8.956431597471237183e-02
-1.490090936422348022e-01
3.320394083857536316e-02
-2.562284171581268311e-01
-1.117415353655815125e-01
-1.566475629806518555e-02
1.358504891395568848e-01
7.095500081777572632e-02
-3.088675998151302338e-02
2.355312556028366089e-01
-1.283457279205322266e-01
4.051385819911956787e-02
1.219242438673973083e-01
9.674281626939773560e-02
4.730518907308578491e-02
4.351184517145156860e-02
-2.200669795274734497e-02
-8.697278797626495361e-03
5.354225262999534607e-02
5.213902890682220459e-02
-2.490529045462608337e-02
-1.431134492158889771e-01
2.161671407520771027e-03
4.403537884354591370e-02
7.468222826719284058e-02
-3.845629515126347542e-03
-2.330292761325836182e-01
-3.348135948181152344e-02
-2.581992931663990021e-02
5.341318901628255844e-03
1.571305096149444580e-01
3.008458018302917480e-02
1.113351285457611084e-01
-1.323993206024169922e-01
-8.870507031679153442e-02
-5.792545154690742493e-02
-5.645663477480411530e-03
-3.631980158388614655e-03
2.913183718919754028e-02
-7.854717969894409180e-02
-3.697584196925163269e-02
2.755270525813102722e-02
1.951518058776855469e-01
5.472812056541442871e-02
-5.338525399565696716e-02
3.757698088884353638e-02
-2.805437743663787842e-01
-7.941269129514694214e-02
4.414891079068183899e-02
-2.965440973639488220e-02
-1.049108803272247314e-01
1.230226457118988037e-01
1.276541873812675476e-02
9.701666422188282013e-03
-4.036657884716987610e-02
3.861968591809272766e-02
-2.082759514451026917e-02
-1.496662572026252747e-02
1.536366343498229980e-01
9.370230883359909058e-02
-6.794185191392898560e-02
1.111981049180030823e-01
-3.826876729726791382e-02
1.043631508946418762e-01
-2.920842170715332031e-02
4.718328639864921570e-02
3.592933714389801025e-02
2.035421878099441528e-02
2.529825270175933838e-02
2.476084232330322266e-02
3.280488774180412292e-02
5.218526348471641541e-02
2.349407039582729340e-02
-3.805070742964744568e-02
9.526615589857101440e-02
3.677891194820404053e-01
4.362570494413375854e-02
-5.493534728884696960e-02
-6.783720105886459351e-02
-3.548253327608108521e-02
1.911253482103347778e-02
4.731354489922523499e-02
-7.188753783702850342e-02
2.446593903005123138e-02
-1.108481064438819885e-01
-4.588233679533004761e-02
6.452146917581558228e-02
7.892990112304687500e-02
-3.394965082406997681e-02
3.785279393196105957e-02
5.183622241020202637e-02
1.146433427929878235e-01
4.630981758236885071e-02
-6.669979542493820190e-02
9.427080303430557251e-02
5.329815298318862915e-02
1.138013899326324463e-01
-1.643305271863937378e-02
2.409607470035552979e-01
-8.319750428199768066e-02
-9.464716911315917969e-02
-1.684325337409973145e-01
1.037188097834587097e-01
-9.319859743118286133e-02
1.170495823025703430e-01
-2.691625058650970459e-02
-9.460297226905822754e-02
8.333269506692886353e-02
-1.394613236188888550e-01
2.586069889366626740e-02
-9.947619400918483734e-03
7.847135514020919800e-02
7.673954218626022339e-02
4.216530546545982361e-02
9.703108668327331543e-02
2.283148914575576782e-01
3.896115720272064209e-02
7.852511107921600342e-02
1.420886218547821045e-01
2.318227849900722504e-02
4.567617923021316528e-02
3.260967135429382324e-02
1.210478767752647400e-01
-2.671285346150398254e-02
3.097803145647048950e-02
1.246951147913932800e-01
4.023828078061342239e-03
-2.202339842915534973e-02
-9.244770556688308716e-02
-3.690525889396667480e-02
-9.026821702718734741e-03
1.252503097057342529e-01
-1.491587460041046143e-01
-1.192907243967056274e-02
1.155890822410583496e-01
-5.902079492807388306e-02
-2.265274897217750549e-02
-1.390632987022399902e-01
-7.335574179887771606e-02
1.372393127530813217e-02
-3.174619376659393311e-02
1.533972769975662231e-01
-1.124474406242370605e-01
-7.156976964324712753e-03
-2.970379777252674103e-02
5.604417994618415833e-02
9.881684184074401855e-02
1.098153274506330490e-02
-5.166280642151832581e-02
-9.979598224163055420e-02
2.804822847247123718e-02
2.611727826297283173e-02
-1.106167584657669067e-01
1.021745577454566956e-01
1.905258148908615112e-01
-6.553400307893753052e-02
1.711800135672092438e-02
2.832795726135373116e-03
1.753463745117187500e-01
-2.295852825045585632e-02
5.401676148176193237e-02
3.256008401513099670e-02
-1.082611307501792908e-01
-3.047529235482215881e-02
1.761934347450733185e-02
-1.638011634349822998e-01
-4.106556624174118042e-02
2.535334229469299316e-02
3.441683202981948853e-02
1.074053999036550522e-02
1.181433349847793579e-01
3.683230280876159668e-02
-3.410371020436286926e-02
7.269176095724105835e-02
-2.271938771009445190e-01
6.092984601855278015e-02
7.952771335840225220e-02
-4.754174500703811646e-02
-1.366748213768005371e-01
-8.354219049215316772e-02
-2.280679345130920410e-02
-4.151411727070808411e-02
1.327183842658996582e-01
7.719935476779937744e-02
-2.726805955171585083e-02
-2.851421199738979340e-02
6.198768317699432373e-02
5.822820821776986122e-04
8.555103838443756104e-02
-5.436352803371846676e-04
-4.217628017067909241e-02
-1.224624738097190857e-01
-1.249099243432283401e-02
-9.442006237804889679e-03
-4.850311949849128723e-02
4.944323375821113586e-02
-4.255553707480430603e-02
-2.893872000277042389e-02
7.795397937297821045e-02
-9.232972748577594757e-03
-6.388006359338760376e-02
-7.771985977888107300e-02
-2.622461318969726562e-02
6.489001959562301636e-02
1.262782812118530273e-01
-1.298959553241729736e-01
3.881436586380004883e-02
-9.787946194410324097e-02
3.992198035120964050e-02
1.151329874992370605e-01
-6.322748214006423950e-02
-1.740686409175395966e-02
-1.387928146868944168e-02
-3.588217124342918396e-02
3.660051897168159485e-02
-8.316833525896072388e-02
-2.618640847504138947e-02
6.976666301488876343e-02
7.925783842802047729e-02
-4.927480965852737427e-02
-4.894525557756423950e-02
5.414073355495929718e-03
1.334302276372909546e-01
3.173564746975898743e-02
1.974189877510070801e-01
-6.351609528064727783e-02
-5.033508688211441040e-02
-2.422407083213329315e-02
8.514000102877616882e-03
4.383838269859552383e-03
-3.007634915411472321e-02
-1.376297920942306519e-01
-1.363708730787038803e-02
-3.700022399425506592e-02
1.492648501880466938e-03
1.400825381278991699e-01
-1.934964954853057861e-01
-1.578008197247982025e-02
2.617331920191645622e-03
4.789111390709877014e-02
-1.584075689315795898e-01
-1.087792292237281799e-01
-1.036133617162704468e-01
1.408128589391708374e-01
6.537070032209157944e-03
-8.207771927118301392e-03
8.221566677093505859e-02
2.981193363666534424e-02
6.447494029998779297e-02
6.810139864683151245e-02
-1.372677180916070938e-02
1.201928928494453430e-01
1.142456475645303726e-02
5.579411610960960388e-02
-1.178318336606025696e-01
4.371768981218338013e-02
6.093674525618553162e-02
-4.374113399535417557e-03
-1.302424352616071701e-02
8.732573688030242920e-02
1.405103355646133423e-01
5.879084393382072449e-02
-6.955463439226150513e-02
3.304294496774673462e-02
-2.190968394279479980e-02
-6.651720404624938965e-02
-2.389405388385057449e-03
-4.355747252702713013e-02
9.513439238071441650e-02
4.682328924536705017e-02
-1.680878996849060059e-01
5.046131089329719543e-02
-3.708600997924804688e-02
2.992107346653938293e-02
-9.318521479144692421e-04
1.586217433214187622e-02
-1.186069250106811523e-01
-1.416724920272827148e-01
-6.734985858201980591e-02
4.440576955676078796e-02
4.132648929953575134e-02
3.223720192909240723e-02
7.147859036922454834e-02
-3.703106567263603210e-02
3.706517815589904785e-02
-2.635473757982254028e-02
-2.205929756164550781e-01
3.053066693246364594e-02
-1.378381066024303436e-02
-3.960204124450683594e-02
4.967103153467178345e-02
1.068984642624855042e-01
-7.518851011991500854e-02
1.769219525158405304e-02
-3.985609859228134155e-02
4.449902847409248352e-02
-5.919027701020240784e-02
-2.246318385004997253e-02
4.403566196560859680e-02
-6.350544281303882599e-03
9.072396159172058105e-02
8.300362527370452881e-02
2.511950731277465820e-01
3.681284561753273010e-02
7.237699627876281738e-02
1.463877595961093903e-02
1.248427033424377441e-01
-1.123326569795608521e-01
2.762064896523952484e-02
3.234907612204551697e-02
3.055906593799591064e-01
-5.643676221370697021e-02
4.840413853526115417e-02
-3.535908181220293045e-03
-9.609984606504440308e-02
1.114787254482507706e-02
9.083632379770278931e-03
-9.983148425817489624e-02
-2.819846756756305695e-02
4.033943265676498413e-02
3.211868461221456528e-03
-7.713796943426132202e-02
1.679068952798843384e-01
-1.665539457462728024e-04
-1.131303757429122925e-01
-1.121175289154052734e-01
-7.301399111747741699e-02
3.388223052024841309e-02
1.508150435984134674e-02
6.612171977758407593e-02
-5.056651309132575989e-02
3.832960501313209534e-02
-6.164293363690376282e-02
1.422309875488281250e-01
-2.360241301357746124e-02
3.854509070515632629e-02
-1.270504444837570190e-01
-4.169368371367454529e-02
-4.375419020652770996e-02
2.500094100832939148e-02
-7.739147543907165527e-02
3.965344745665788651e-03
-3.666354808956384659e-03
-5.290633440017700195e-02
-2.012248337268829346e-01
-1.011627390980720520e-01
1.289648562669754028e-01
5.702591687440872192e-02
-3.619525209069252014e-02
5.546965822577476501e-02
-1.216582767665386200e-02
-1.632869094610214233e-01
-1.179420277476310730e-01
4.964061826467514038e-02
1.381924301385879517e-01
1.293334364891052246e-01
2.848985791206359863e-02
-1.749367453157901764e-02
-4.582550376653671265e-02
5.768195912241935730e-02
1.549636572599411011e-02
1.271115243434906006e-01
-7.145266979932785034e-02
-1.384795922785997391e-02
8.788331598043441772e-02
3.221983835101127625e-02
-6.667179521173238754e-03
-7.850373163819313049e-03
-1.079154387116432190e-01
-4.685132578015327454e-02
-8.704307489097118378e-03
6.414131820201873779e-02
-1.148871961049735546e-03
-9.090673178434371948e-02
-7.105383556336164474e-03
-1.804296970367431641e-01
1.774192787706851959e-02
7.241548597812652588e-02
-4.042923450469970703e-02
4.580896347761154175e-03
1.187921389937400818e-01
1.210444122552871704e-01
-1.866206675767898560e-01
-1.406324952840805054e-01
1.095657348632812500e-01
7.468830049037933350e-02
1.281653437763452530e-02
-1.561223529279232025e-02
2.772799693048000336e-03
-2.762353233993053436e-02
7.740169018507003784e-02
-6.476041860878467560e-03
-4.287705570459365845e-02
-1.630501151084899902e-01
1.227995567023754120e-02
-3.413148969411849976e-02
1.700521446764469147e-02
-5.740433186292648315e-02
8.000774681568145752e-02
1.347271725535392761e-03
-1.843954809010028839e-02
-4.587079584598541260e-02
-6.007260829210281372e-02
-1.155924703925848007e-02
2.086283266544342041e-02
6.561914831399917603e-02
1.049927100539207458e-01
-6.738049536943435669e-02
-7.284164428710937500e-02
-7.403706666082143784e-03
-1.746192723512649536e-01
-2.143365889787673950e-01
-3.573414310812950134e-02
3.579938085749745369e-03
-3.749971464276313782e-02
-8.906696923077106476e-03
-7.361672073602676392e-02
7.832529395818710327e-02
1.937434636056423187e-02
2.705801650881767273e-02
-1.079436093568801880e-01
1.090628374367952347e-02
6.505473051220178604e-03
-2.998573705554008484e-03
1.862612366676330566e-01
5.674852430820465088e-02
-5.474587902426719666e-02
-1.654119789600372314e-02
3.970665391534566879e-03
-9.467041672905907035e-05
6.771761924028396606e-02
6.058984249830245972e-02
7.667302619665861130e-03
2.025336585938930511e-02
3.029518295079469681e-03
-2.074191533029079437e-02
3.983968123793601990e-02
-2.273641061037778854e-03
-1.137873716652393341e-02
1.732636094093322754e-01
1.764765009284019470e-02
5.063476413488388062e-02
6.520267575979232788e-02
-8.808553218841552734e-02
6.960341706871986389e-04
-8.478911221027374268e-02
-5.490278825163841248e-02
-1.139363199472427368e-01
2.164745144546031952e-02
-4.030142351984977722e-02
-1.534862518310546875e-01
1.905246824026107788e-01
-1.094959024339914322e-02
1.654173582792282104e-01
6.543030589818954468e-02
-2.442356897518038750e-03
1.131229801103472710e-03
-4.784708470106124878e-02
-1.513022836297750473e-02
1.842686980962753296e-01
1.448201239109039307e-01
-4.434143006801605225e-02
3.663889830932021141e-03
1.069163437932729721e-02
4.726270213723182678e-02
-9.680039435625076294e-02
4.984229058027267456e-02
5.900008976459503174e-02
2.156560122966766357e-01
-3.811417892575263977e-02
-1.019539982080459595e-01
-5.680060759186744690e-02
-2.305942028760910034e-02
-4.491223022341728210e-02
2.765541337430477142e-02
2.476138621568679810e-02
-2.809791080653667450e-02
4.299676418304443359e-02
-1.243046522140502930e-01
-5.894581601023674011e-02
1.322072558104991913e-02
-5.871729180216789246e-02
-8.594713360071182251e-02
-1.514799892902374268e-01
-5.911150947213172913e-02
-2.537176385521888733e-02
-7.173044979572296143e-02
8.745224773883819580e-02
5.367925018072128296e-02
-6.447932124137878418e-02
1.030284017324447632e-01
-5.023393779993057251e-02
5.807267874479293823e-02
-1.405702382326126099e-01
2.051906287670135498e-02
-3.426443040370941162e-02
4.395543038845062256e-02
1.370527893304824829e-01
-2.742044068872928619e-02
-1.126825883984565735e-01
-1.795897632837295532e-02
-8.663580566644668579e-02
-2.622474357485771179e-02
-8.926798403263092041e-02
8.656554855406284332e-03
-1.174308806657791138e-01
-6.749110668897628784e-02
4.480329900979995728e-02
4.999990016222000122e-02
6.054949015378952026e-02
-4.827602952718734741e-02
-1.132452785968780518e-01
-4.089212417602539062e-02
-4.920629411935806274e-02
-1.350297480821609497e-01
-3.224715823307633400e-03
-1.554641872644424438e-02
1.962285675108432770e-02
2.866153419017791748e-02
2.552080550231039524e-04
4.242813587188720703e-02
6.286295503377914429e-02
1.748761907219886780e-02
3.237004205584526062e-02
-1.368829756975173950e-01
-1.869590766727924347e-02
1.814000308513641357e-01
-6.415435671806335449e-02
6.688731163740158081e-02
-7.370973378419876099e-02
-9.547262638807296753e-02
1.287364214658737183e-01
-1.063434034585952759e-02
9.307130426168441772e-02
-1.121217161417007446e-01
-9.604195505380630493e-02
-3.288171812891960144e-02
4.155791923403739929e-02
-1.562709212303161621e-01
-1.066133603453636169e-01
-5.353480204939842224e-02
-8.415924012660980225e-02
7.562334090471267700e-02
-1.871510595083236694e-01
1.040909960865974426e-01
-4.642927646636962891e-02
-5.289274826645851135e-02
8.177161961793899536e-02
1.007526889443397522e-01
-5.368906259536743164e-02
2.869131974875926971e-02
4.951829090714454651e-02
-2.124871499836444855e-02
-8.055857382714748383e-03
-1.582424044609069824e-01
-1.612106561660766602e-01
9.788340330123901367e-02
5.266904830932617188e-02
-9.406933188438415527e-02
1.338078454136848450e-02
3.233507275581359863e-02
-4.145358130335807800e-02
-9.314565919339656830e-03
6.610326468944549561e-02
7.820244133472442627e-02
-7.572831958532333374e-02
1.566073745489120483e-01
1.479053497314453125e-01
6.009059026837348938e-02
3.616265207529067993e-02
-5.299010127782821655e-02
2.892738282680511475e-01
-9.239826351404190063e-03
6.048362329602241516e-02
-4.027650505304336548e-02
-5.701535940170288086e-02
-1.860616757767274976e-04
-4.744131490588188171e-02
-1.729029975831508636e-02
-1.176594570279121399e-01
1.048424467444419861e-01
3.306786343455314636e-02
1.420206204056739807e-02
-6.305278092622756958e-02
1.932251155376434326e-01
-6.034416705369949341e-02
9.557979553937911987e-02
3.962543234229087830e-02
-3.450674936175346375e-02
-1.022870615124702454e-01
-2.211665734648704529e-02
3.426438570022583008e-02
5.038410797715187073e-02
5.519507080316543579e-02
-6.129243969917297363e-02
6.802507676184177399e-03
1.882395744323730469e-01
1.690447889268398285e-02
-1.900329627096652985e-02
3.298856317996978760e-02
7.449743151664733887e-02
-1.897080987691879272e-02
6.365667562931776047e-03
9.921100735664367676e-02
-7.830753922462463379e-02
-1.838969439268112183e-02
-1.170708835124969482e-01
2.444168552756309509e-02
1.203722432255744934e-01
-6.683179736137390137e-02
2.230171412229537964e-01
-1.189503632485866547e-02
1.211955472826957703e-01
1.547462958842515945e-02
1.053875982761383057e-01
1.356903314590454102e-01
-4.140289127826690674e-02
3.545701876282691956e-02
-3.789406269788742065e-02
2.411519922316074371e-02
3.606069460511207581e-02
-5.597039312124252319e-02
-4.144480079412460327e-02
-1.241972669959068298e-01
8.913462609052658081e-02
1.007872819900512695e-01
-4.552993923425674438e-02
-9.927693754434585571e-03
7.952632755041122437e-02
3.274751454591751099e-02
4.881443828344345093e-02
-3.762143477797508240e-02
-3.735652193427085876e-02
-2.738743554800748825e-03
1.717656501568853855e-03
-8.988723275251686573e-04
-1.698483526706695557e-01
4.323314875364303589e-02
-2.691748179495334625e-02
2.113782241940498352e-02
-3.373437002301216125e-02
1.776489056646823883e-02
-3.057395108044147491e-02
-3.768828883767127991e-02
1.605643704533576965e-02
-2.865435741841793060e-02
-1.398839354515075684e-01
6.325582414865493774e-02
2.235076390206813812e-02
-8.689170330762863159e-02
-7.695472985506057739e-02
4.297992959618568420e-02
-1.368360966444015503e-01
4.811313003301620483e-03
2.531146071851253510e-02
1.761567406356334686e-02
1.124318502843379974e-02
-4.335919022560119629e-02
8.201895654201507568e-02
1.728887856006622314e-02
-1.026059016585350037e-01
-3.867616876959800720e-02
-3.328110277652740479e-02
2.603811770677566528e-02
5.295587703585624695e-03
3.635095804929733276e-02
1.653881818056106567e-01
-2.162874490022659302e-01
7.724516838788986206e-02
-9.588421881198883057e-02
1.034749150276184082e-01
-7.553177885711193085e-03
-1.016943901777267456e-01
-4.324769973754882812e-02
1.064652353525161743e-01
-6.189528107643127441e-02
-1.887923032045364380e-01
8.878967911005020142e-02
-5.792533606290817261e-02
-8.483586460351943970e-02
-3.268849832238629460e-05
-3.975323215126991272e-02
-1.485202908515930176e-01
6.943655759096145630e-02
7.633943110704421997e-02
-9.714503772556781769e-03
-9.659791737794876099e-02
-1.684157177805900574e-02
-1.205362975597381592e-01
3.711551800370216370e-02
1.465910859405994415e-02
1.899513602256774902e-02
-7.323661446571350098e-02
-5.601636692881584167e-02
1.076757237315177917e-01
-1.664128452539443970e-01
-7.705688476562500000e-02
-1.051833853125572205e-01
-1.428905874490737915e-01
-1.871443688869476318e-01
-5.506268143653869629e-02
3.048054128885269165e-02
9.574948810040950775e-03
7.791011035442352295e-02
1.174495071172714233e-01
9.849235415458679199e-02
6.379607319831848145e-02
-9.652758389711380005e-02
-9.334201924502849579e-03
3.128043899778276682e-04
-5.110944062471389771e-02
-1.136526390910148621e-01
-1.222964283078908920e-02
-1.531684212386608124e-02
1.279916055500507355e-02
-8.123810589313507080e-02
-1.047338768839836121e-01
-2.828001417219638824e-02
9.425378590822219849e-02
3.060547262430191040e-02
1.457539945840835571e-02
2.733855135738849640e-02
-1.441178023815155029e-01
2.469932846724987030e-02
1.162566244602203369e-01
-2.585731912404298782e-03
-1.599109023809432983e-01
-3.092047385871410370e-02
-5.454936251044273376e-02
5.448924005031585693e-02
-7.824384421110153198e-02
-9.106926620006561279e-02
-1.872640103101730347e-02
1.961497217416763306e-01
1.773966401815414429e-01
-7.720119506120681763e-02
-4.323696345090866089e-02
5.277043674141168594e-03
6.327180564403533936e-02
6.930763274431228638e-02
-5.544468760490417480e-02
-9.561377018690109253e-02
2.702202200889587402e-01
-8.992183208465576172e-02
-9.409114718437194824e-02
1.336263716220855713e-01
-2.607262879610061646e-02
2.415533363819122314e-02
-3.137344494462013245e-03
-2.079442888498306274e-02
-7.052293419837951660e-02
1.008684486150741577e-01
-1.846985332667827606e-02
-8.241753093898296356e-03
5.795161053538322449e-02
-3.185375779867172241e-02
1.243339665234088898e-02
-1.449776161462068558e-02
1.240048557519912720e-01
-2.602590480819344521e-03
5.244660004973411560e-02
-1.319509148597717285e-01
-1.525070983916521072e-02
6.296887248754501343e-02
4.546396434307098389e-02
-9.990364313125610352e-02
4.096396639943122864e-02
-1.781877502799034119e-02
1.012605130672454834e-01
1.415300965309143066e-01
8.167699724435806274e-02
3.357893526554107666e-01
6.551672518253326416e-02
8.095615543425083160e-03
-8.353205025196075439e-02
-2.287080287933349609e-01
-1.565892696380615234e-01
-1.183673962950706482e-01
-1.292118616402149200e-02
-1.681383140385150909e-02
-3.125201165676116943e-02
1.439081132411956787e-02
-3.150689005851745605e-01
-2.538695372641086578e-02
-4.550420120358467102e-02
9.465653449296951294e-02
4.618294909596443176e-02
6.373874377459287643e-03
-5.353004112839698792e-02
-1.504614353179931641e-01
-7.450361549854278564e-02
2.381753548979759216e-02
1.104773730039596558e-01
-2.791414409875869751e-02
1.212607026100158691e-01
1.372817605733871460e-01
1.358982920646667480e-01
1.179916877299547195e-02
1.216328293085098267e-01
2.553932555019855499e-02
-8.707189932465553284e-03
-9.910640306770801544e-03
9.437388926744461060e-02
-1.386281996965408325e-01
-5.301276221871376038e-02
-1.178214326500892639e-02
-7.421186566352844238e-02
1.215157881379127502e-01
-8.273135125637054443e-02
3.985821455717086792e-02
1.212024763226509094e-01
1.562775671482086182e-01
1.791652292013168335e-03
1.348402500152587891e-01
-1.482388228178024292e-01
1.467987149953842163e-01
-7.807834446430206299e-02
-4.080841317772865295e-02
-6.131938472390174866e-02
5.299217533320188522e-03
-5.282657966017723083e-02
7.581993192434310913e-02
1.410510390996932983e-01
-1.456225812435150146e-01
-1.296131908893585205e-01
-1.760458350181579590e-01
-4.474756866693496704e-02
1.424843966960906982e-01
-1.102607920765876770e-01
-2.613755501806735992e-02
4.763266071677207947e-02
1.001050695776939392e-02
-1.322374027222394943e-02
-1.872324049472808838e-01
9.157690405845642090e-02
-1.628788746893405914e-02
-2.226635813713073730e-01
-1.780308932065963745e-01
-2.378034964203834534e-02
-9.699694067239761353e-02
-7.671090215444564819e-02
7.763330638408660889e-02
-8.895110338926315308e-02
-1.594440042972564697e-01
-3.227930143475532532e-02
1.280065998435020447e-02
-6.494312733411788940e-02
2.832937985658645630e-02
3.171589970588684082e-02
-3.684700652956962585e-02
-1.124563743360340595e-03
-1.775454729795455933e-02
1.157429739832878113e-01
-7.254143804311752319e-02
1.841942667961120605e-01
-8.315101265907287598e-02
5.285486113280057907e-03
-1.211987109854817390e-03
-1.034164428710937500e-01
2.438114210963249207e-02
2.550604380667209625e-02
8.153530210256576538e-02
1.165010631084442139e-01
-1.035669371485710144e-01
6.905225664377212524e-02
-9.237951040267944336e-02
1.349887251853942871e-01
-2.293992042541503906e-02
-2.949018497020006180e-03
-8.038596715778112411e-04
-1.058145146816968918e-02
-1.113231703639030457e-01
-1.897338628768920898e-01
-5.307711288332939148e-02
-6.764729321002960205e-02
-6.363426893949508667e-02
5.823266133666038513e-02
4.729008302092552185e-02
7.232417818158864975e-03
-6.545379012823104858e-02
7.637206465005874634e-02
-8.733800053596496582e-02
1.560741476714611053e-02
1.880350708961486816e-01
3.194938227534294128e-02
-6.820899434387683868e-03
1.296704709529876709e-01
3.608258813619613647e-02
4.229052737355232239e-02
-1.145102009177207947e-01
9.800191223621368408e-02
-1.152297928929328918e-01
-2.299927733838558197e-02
3.677112609148025513e-02
-1.028996333479881287e-02
1.775800138711929321e-01
-1.428791433572769165e-01
1.188765615224838257e-01
-3.881640359759330750e-02
-2.320788055658340454e-01
-1.360298879444599152e-02
2.113261446356773376e-02
-4.662055894732475281e-02
-9.801401197910308838e-02
-2.063803561031818390e-02
-1.365691237151622772e-02
3.730794787406921387e-02
1.841415278613567352e-02
-3.216296061873435974e-02
1.159090362489223480e-02
-1.025084629654884338e-01
3.400787711143493652e-02
-1.037883907556533813e-01
7.907439768314361572e-02
-3.253411129117012024e-02
-8.699364215135574341e-02
-6.020012870430946350e-02
-1.378524601459503174e-01
6.382036954164505005e-02
7.478645443916320801e-02
-4.002436995506286621e-02
3.629381954669952393e-02
-1.644377037882804871e-02
1.596861518919467926e-02
-4.080992937088012695e-02
-2.128660446032881737e-03
5.064357072114944458e-02
-9.963050484657287598e-03
3.774294396862387657e-03
1.078031733632087708e-01
3.839688003063201904e-02
-1.674846746027469635e-02
-3.239649161696434021e-02
-7.288738340139389038e-02
2.779522538185119629e-02
-3.297191113233566284e-02
4.144617915153503418e-02
-2.074105106294155121e-02
5.211482942104339600e-02
-7.728961110115051270e-02
-1.589865535497665405e-01
4.855482652783393860e-02
6.869848817586898804e-02
3.854229673743247986e-02
3.799748420715332031e-02
-8.373954333364963531e-03
-3.852549940347671509e-02
-5.233266204595565796e-02
-1.316459774971008301e-01
2.969103120267391205e-02
1.203650012612342834e-01
-1.123192533850669861e-01
-6.417594850063323975e-02
-1.820735484361648560e-01
-6.539619714021682739e-02
2.279311418533325195e-02
1.023201420903205872e-01
8.173938258551061153e-04
3.273647651076316833e-02
-8.744048327207565308e-02
6.301179528236389160e-02
6.945933401584625244e-02
3.715568780899047852e-02
1.659337989985942841e-02
4.702263325452804565e-02
-5.837458744645118713e-02
-3.274219110608100891e-02
-1.417292356491088867e-01
-3.762943204492330551e-03
-1.372557599097490311e-02
-1.055334415286779404e-02
-1.094892099499702454e-01
7.192499190568923950e-02
-9.335990250110626221e-02
3.507772460579872131e-02
-3.235056996345520020e-02
1.753247827291488647e-01
9.883053600788116455e-02
-9.030853211879730225e-02
-3.267686069011688232e-02
-3.775555640459060669e-02
-2.311886101961135864e-02
4.795959591865539551e-02
-7.514595985412597656e-02
-1.674124225974082947e-02
1.703253202140331268e-02
-4.441813006997108459e-02
-6.845821440219879150e-02
4.445606842637062073e-02
1.078535392880439758e-01
5.947604775428771973e-02
-2.804477931931614876e-03
-3.629159554839134216e-02
-1.142141148447990417e-01
9.316430240869522095e-02
5.244538933038711548e-02
-1.692483015358448029e-02
2.897140383720397949e-02
1.556091103702783585e-02
6.612709164619445801e-02
-7.528243958950042725e-02
2.380403503775596619e-02
1.251369267702102661e-01
-6.068334355950355530e-02
-1.158354952931404114e-01
-1.583778560161590576e-01
-2.940060198307037354e-02
-3.273819759488105774e-02
1.163699030876159668e-01
1.221049297600984573e-02
4.787382110953330994e-02
4.380497336387634277e-02
5.248594656586647034e-02
-1.510154157876968384e-01
-8.855308592319488525e-02
-9.185018390417098999e-02
2.490411698818206787e-02
-4.314373433589935303e-02
-1.028209552168846130e-01
-4.764416441321372986e-02
-1.561847776174545288e-01
-1.717152148485183716e-01
1.518124938011169434e-01
-1.507373452186584473e-01
-9.635633230209350586e-02
3.428417444229125977e-02
2.435860969126224518e-02
8.732693642377853394e-02
1.516851037740707397e-02
9.394222497940063477e-02
-5.388132110238075256e-02
-8.957589417695999146e-02
6.371004972606897354e-03
7.791218161582946777e-02
-3.936338797211647034e-02
9.270972013473510742e-02
1.760732196271419525e-02
8.639114350080490112e-02
5.215417966246604919e-02
-1.195635348558425903e-01
-1.184612279757857323e-03
-2.338814176619052887e-02
-8.088260889053344727e-02
-5.433143302798271179e-02
1.849816590547561646e-01
6.190107762813568115e-02
5.547527968883514404e-02
-4.197532311081886292e-02
-3.860369697213172913e-02
1.031070575118064880e-01
2.405995875597000122e-01
-2.063194960355758667e-01
7.368940860033035278e-02
-4.796460643410682678e-02
6.798651814460754395e-02
-7.765798363834619522e-03
7.848868519067764282e-02
3.110193414613604546e-03
-3.945770487189292908e-02
4.785246029496192932e-02
-5.730960145592689514e-02
1.612160205841064453e-01
1.615086011588573456e-02
3.549034474417567253e-03
4.178177192807197571e-02
-4.583580419421195984e-02
8.250429295003414154e-03
2.581312507390975952e-02
-3.544947132468223572e-02
4.451521486043930054e-02
-2.274565584957599640e-02
6.070345267653465271e-02
-2.487641945481300354e-02
7.564834505319595337e-02
-2.061263844370841980e-02
2.030188962817192078e-02
5.683321878314018250e-02
1.937984488904476166e-03
-4.407446458935737610e-02
-1.468975245952606201e-01
1.319032907485961914e-02
9.151752106845378876e-03
-1.163832992315292358e-01
1.663775742053985596e-01
4.465096443891525269e-02
-7.036212831735610962e-02
-2.099046856164932251e-02
1.520154327154159546e-01
-2.195418253540992737e-02
-1.991123706102371216e-02
1.821760684251785278e-01
-7.967353798449039459e-03
-4.755111783742904663e-02
1.079669594764709473e-01
-3.249574080109596252e-02
8.556676656007766724e-02
7.519720494747161865e-02
-1.616961322724819183e-02
-5.943996086716651917e-02
4.421825986355543137e-03
8.706760592758655548e-03
-7.287468761205673218e-02
-1.074014827609062195e-01
-7.366556674242019653e-03
-2.016081809997558594e-01
-3.204258158802986145e-02
6.090393755584955215e-03
-3.819395229220390320e-02
2.142646349966526031e-03
-5.413211137056350708e-02
3.703162074089050293e-02
6.904606707394123077e-03
5.152838677167892456e-02
-2.118348143994808197e-02
1.615306138992309570e-01
6.634782999753952026e-02
-8.395451307296752930e-02
1.616840809583663940e-01
3.343399614095687866e-02
6.138227507472038269e-02
5.132220685482025146e-02
1.998036354780197144e-02
-3.207179903984069824e-01
2.479895204305648804e-02
1.820124313235282898e-02
-2.995428815484046936e-02
1.628710329532623291e-01
-8.794867992401123047e-02
-1.725122779607772827e-01
9.470537304878234863e-03
2.290017902851104736e-02
-7.573505397886037827e-03
1.194917783141136169e-02
-1.435122638940811157e-01
-5.789950117468833923e-02
-1.092686504125595093e-01
-5.156336817890405655e-03
-1.633094996213912964e-01
-6.147903949022293091e-02
-7.428582012653350830e-02
-1.320076733827590942e-02
4.061136860400438309e-03
8.149600028991699219e-02
-2.917776443064212799e-02
1.711369007825851440e-01
2.191481143236160278e-01
6.220968067646026611e-02
-6.882680207490921021e-02
-3.846397623419761658e-02
-9.962412714958190918e-02
-5.870534479618072510e-02
-4.165567085146903992e-02
1.106742918491363525e-01
4.136615619063377380e-02
-1.221088841557502747e-01
-1.408170014619827271e-01
-2.601395826786756516e-04
-1.234250143170356750e-01
1.283377259969711304e-01
1.165565997362136841e-01
-1.648647338151931763e-01
-2.246619947254657745e-02
-1.437037289142608643e-01
-8.488332852721214294e-03
4.734072461724281311e-02
1.122707407921552658e-02
7.613089680671691895e-02
5.568336695432662964e-03
-4.573271796107292175e-02
-6.959754973649978638e-03
-2.804632857441902161e-02
-8.332716673612594604e-02
-2.084384411573410034e-01
2.573133818805217743e-02
-1.523688901215791702e-02
2.538634091615676880e-02
-7.947971671819686890e-02
5.547503754496574402e-02
-4.898747801780700684e-02
-3.784925043582916260e-01
-8.399979770183563232e-02
5.197882279753684998e-02
2.303815633058547974e-02
-4.359297826886177063e-02
1.010112985968589783e-01
8.774838596582412720e-02
-8.743714541196823120e-02
1.044744178652763367e-01
3.658121451735496521e-02
3.115805983543395996e-02
7.253537327051162720e-02
9.507368505001068115e-02
1.463066786527633667e-01
9.898386150598526001e-02
3.264974430203437805e-02
1.778039336204528809e-01
2.449627034366130829e-02
1.401247382164001465e-01
5.757483094930648804e-02
3.997605293989181519e-02
3.065510466694831848e-02
2.660145238041877747e-02
-1.942205801606178284e-02
-1.072297394275665283e-01
-1.215443760156631470e-01
1.116235032677650452e-01
-5.776661634445190430e-02
1.689467877149581909e-01
-1.137685626745223999e-01
-1.940316986292600632e-03
7.125927507877349854e-02
5.162563174962997437e-03
8.368078619241714478e-02
4.831605404615402222e-02
-1.431365683674812317e-02
-2.214258164167404175e-02
1.115327626466751099e-01
-1.561334282159805298e-01
-1.197719573974609375e-01
2.047021314501762390e-02
5.106833577156066895e-02
-8.308102935552597046e-02
-1.416322588920593262e-01
2.183906547725200653e-02
-4.572177305817604065e-03
6.347421556711196899e-02
-6.674570962786674500e-03
-1.782224923372268677e-01
1.091658324003219604e-01
8.136250078678131104e-02
-6.929767131805419922e-02
-6.914284825325012207e-02
-1.774871349334716797e-02
9.861874394118785858e-03
1.000632420182228088e-01
-1.312172506004571915e-02
-2.668557465076446533e-01
8.673405647277832031e-02
2.556028775870800018e-02
3.400772064924240112e-02
5.323951691389083862e-02
-5.241529643535614014e-02
-2.237428165972232819e-02
-4.273110628128051758e-02
-5.750405415892601013e-02
-2.351143863052129745e-03
1.845031529664993286e-01
-9.805359691381454468e-02
-4.403320327401161194e-02
1.290340274572372437e-01
3.957872092723846436e-02
-7.186399400234222412e-02
-1.566255651414394379e-02
-1.850898750126361847e-02
-2.462774068117141724e-01
-2.509272396564483643e-01
5.808051675558090210e-02
-6.112623214721679688e-02
-2.817727252840995789e-02
1.493308395147323608e-01
-2.937168441712856293e-02
8.127481490373611450e-02
8.713198453187942505e-02
2.478691563010215759e-02
-1.253686845302581787e-01
2.808718197047710419e-02
1.860220283269882202e-01
9.839047677814960480e-03
-3.784820064902305603e-02
5.281829833984375000e-02
1.230701655149459839e-01
-1.516750752925872803e-01
6.900839507579803467e-02
-3.834142908453941345e-02
-2.125046998262405396e-01
1.533741038292646408e-02
-7.990207523107528687e-02
6.399039179086685181e-02
4.074231535196304321e-02
-1.263331621885299683e-01
-2.957131527364253998e-02
2.771659381687641144e-02
-1.686450280249118805e-02
4.082814231514930725e-02
4.489352926611900330e-02
1.536527462303638458e-02
-3.611963987350463867e-02
1.104326173663139343e-02
3.024912439286708832e-03
-3.312478214502334595e-02
6.977814435958862305e-02
2.759234607219696045e-02
-6.721971929073333740e-02
-1.683946885168552399e-02
1.285762637853622437e-01
1.730241626501083374e-01
2.079538255929946899e-02
-4.367164801806211472e-03
1.078292448073625565e-02
-3.661985695362091064e-02
-1.950280517339706421e-01
-9.602376073598861694e-02
3.683197870850563049e-02
-3.484911099076271057e-02
-1.565785408020019531e-01
2.770419232547283173e-03
-1.539157032966613770e-01
-1.784839928150177002e-01
9.165842831134796143e-02
3.759725391864776611e-02
1.043137833476066589e-01
7.400379981845617294e-03
-7.710950076580047607e-02
8.520019054412841797e-02
4.016881436109542847e-02
1.547377649694681168e-02
-6.859489530324935913e-02
1.035525929182767868e-02
2.674785815179347992e-02
-6.906381249427795410e-02
-8.218967914581298828e-02
1.109825447201728821e-02
-1.013990864157676697e-01
8.780582249164581299e-02
1.314411405473947525e-03
9.831521660089492798e-02
-2.231413312256336212e-02
2.850357815623283386e-02
1.299179941415786743e-01
-4.942539613693952560e-03
-9.522269666194915771e-02
-6.447517871856689453e-02
1.090021878480911255e-01
4.136048629879951477e-02
1.244109198451042175e-01
1.589600741863250732e-01
-1.452000737190246582e-01
-5.719836428761482239e-02
-3.088860400021076202e-02
2.248652651906013489e-02
-2.664080122485756874e-03
-5.439204163849353790e-03
1.606216654181480408e-02
3.126169368624687195e-02
4.241075366735458374e-02
-1.022985484451055527e-02
2.252680063247680664e-02
-3.359830379486083984e-02
-1.304308921098709106e-01
-1.132680755108594894e-02
-2.014513872563838959e-02
3.824548423290252686e-02
-1.216974388808012009e-02
-1.752662658691406250e-01
-1.890394464135169983e-02
-1.104270964860916138e-01
-1.428702622652053833e-01
9.760217368602752686e-02
7.993341982364654541e-02
1.952598616480827332e-02
4.568557813763618469e-02
1.118480926379561424e-03
5.396109074354171753e-03
4.039892554283142090e-02
1.386827509850263596e-02
3.982020914554595947e-02
-2.988567948341369629e-02
-1.365715563297271729e-01
9.786716103553771973e-02
1.244703009724617004e-01
5.527868866920471191e-03
-5.414156615734100342e-02
7.950066030025482178e-02
-7.405728101730346680e-02
6.303881108760833740e-02
-5.133235454559326172e-02
-2.837360464036464691e-02
4.073772951960563660e-02
-2.138646086677908897e-03
-1.840553595684468746e-03
-1.306575257331132889e-02
5.062505975365638733e-02
3.945400193333625793e-02
3.601538017392158508e-02
-3.812609240412712097e-02
-1.372253894805908203e-01
-1.028671190142631531e-01
3.438486903905868530e-02
9.428051114082336426e-02
-4.230970889329910278e-02
6.628637760877609253e-02
-2.566195093095302582e-02
3.477322682738304138e-02
-2.189351059496402740e-02
4.786858335137367249e-02
-7.050854712724685669e-02
-6.692562997341156006e-02
1.200523134320974350e-02
4.382396116852760315e-02
9.623034298419952393e-02
2.965391427278518677e-02
-2.224393486976623535e-01
5.692312493920326233e-03
9.251216799020767212e-02
4.314137995243072510e-02
3.390364050865173340e-01
-9.251601248979568481e-02
1.263881921768188477e-01
-4.679745808243751526e-02
7.098674029111862183e-02
-2.578263543546199799e-02
1.429789066314697266e-01
-9.163603186607360840e-02
-7.289515435695648193e-02
2.537077758461236954e-03
-2.131440043449401855e-01
7.055421918630599976e-02
-1.164292097091674805e-01
-4.144135862588882446e-02
5.276065692305564880e-02
-1.635837256908416748e-01
-5.583489686250686646e-02
1.409121900796890259e-01
7.027905434370040894e-02
-3.221516683697700500e-02
-3.290875628590583801e-02
1.200891435146331787e-01
1.550515592098236084e-01
-6.352296471595764160e-02
5.735655501484870911e-02
2.840876281261444092e-01
5.872098729014396667e-02
7.339543104171752930e-02
9.475842863321304321e-02
1.197170168161392212e-01
-4.501869082450866699e-01
6.589806079864501953e-02
1.348330378532409668e-01
-1.474281493574380875e-02
-2.918185666203498840e-02
-8.152342587709426880e-02
2.367947064340114594e-02
1.204314008355140686e-01
-6.483307480812072754e-02
-6.061254069209098816e-02
-1.363535523414611816e-01
1.103618368506431580e-01
-1.303486973047256470e-01
-4.981967620551586151e-03
-7.727597653865814209e-02
-2.385242432355880737e-01
-2.305044531822204590e-01
-1.152319535613059998e-01
-4.719119518995285034e-02
-1.212141439318656921e-01
1.554026082158088684e-02
-2.041657641530036926e-02
-7.829595357179641724e-02
-6.032641232013702393e-02
-1.218318790197372437e-01
4.546755924820899963e-02
3.182347863912582397e-02
-1.014110743999481201e-01
-5.386913195252418518e-02
-1.932717859745025635e-02
-8.807644993066787720e-02
-1.395968645811080933e-01
-1.878544338978827000e-03
6.351617723703384399e-02
1.131702065467834473e-01
5.016722530126571655e-02
1.620133668184280396e-01
7.099168002605438232e-02
8.692370355129241943e-02
-5.701248347759246826e-02
-7.767791301012039185e-02
1.395125538110733032e-01
-9.692997485399246216e-02
8.612389862537384033e-02
-8.387846499681472778e-02
-9.830658882856369019e-02
5.449275299906730652e-02
-1.304260492324829102e-01
-6.198097020387649536e-02
6.974885612726211548e-02
3.788316622376441956e-02
3.758458420634269714e-02
4.201577976346015930e-03
-2.870913036167621613e-02
3.853453323245048523e-02
-4.198224470019340515e-02
1.940856338478624821e-03
2.858907356858253479e-02
1.093481034040451050e-01
3.623860776424407959e-01
-1.264096051454544067e-01
7.377842068672180176e-02
1.943398863077163696e-01
6.608035415410995483e-02
-8.287248015403747559e-02
6.786521524190902710e-02
-2.624675333499908447e-01
-3.319722041487693787e-02
5.420461297035217285e-02
9.884856641292572021e-02
1.059667319059371948e-01
3.904653340578079224e-02
1.711718440055847168e-01
-1.236029621213674545e-02
9.270791709423065186e-02
-1.189861819148063660e-01
2.549885511398315430e-01
3.674355894327163696e-02
-5.376387014985084534e-02
4.574853181838989258e-02
4.534193128347396851e-02
2.914304472506046295e-02
5.675932392477989197e-03
3.865448758006095886e-02
5.971494689583778381e-02
-1.088912487030029297e-01
1.156882569193840027e-01
-7.666438817977905273e-02
1.327311061322689056e-02
-3.581670299172401428e-02
9.228786081075668335e-02
3.019534423947334290e-02
-1.792491227388381958e-02
1.820216514170169830e-02
-1.470060050487518311e-01
1.490356624126434326e-01
-1.036750823259353638e-01
3.156287372112274170e-01
-7.372341305017471313e-02
8.791872859001159668e-02
1.140813007950782776e-01
1.538876295089721680e-01
1.470347028225660324e-02
-4.941931739449501038e-02
-1.394730806350708008e-01
-4.749770741909742355e-03
6.636617239564657211e-03
5.576534569263458252e-02
-8.427753299474716187e-02
-8.833730965852737427e-02
8.137626945972442627e-02
-1.310964673757553101e-01
1.509955152869224548e-02
-1.045759185217320919e-03
7.806010544300079346e-02
-5.772138014435768127e-02
-3.772547468543052673e-02
-4.321320354938507080e-02
4.531271010637283325e-02
-5.219903588294982910e-02
7.627689838409423828e-02
4.384757205843925476e-02
1.586876064538955688e-01
-3.127990663051605225e-02
8.532279171049594879e-03
1.002209335565567017e-01
1.050846129655838013e-01
1.884221285581588745e-01
2.646834403276443481e-02
1.133725345134735107e-01
3.859412297606468201e-02
1.067965105175971985e-01
-8.629784733057022095e-02
1.152220517396926880e-01
5.456590652465820312e-02
1.049407348036766052e-01
-8.687772601842880249e-02
1.260142922401428223e-01
-8.572925627231597900e-02
2.437463216483592987e-02
-6.810030434280633926e-03
6.155017763376235962e-02
2.724931761622428894e-02
8.208394795656204224e-02
-1.321276184171438217e-02
4.220775887370109558e-02
1.990066375583410263e-03
-1.947165578603744507e-01
-3.932039812207221985e-02
6.040256470441818237e-02
7.112592458724975586e-03
-9.444569051265716553e-02
8.811676502227783203e-02
7.766892760992050171e-02
1.292960345745086670e-02
1.280311197042465210e-01
-2.344820946455001831e-01
7.082217838615179062e-03
-1.311274766921997070e-01
-8.416474610567092896e-02
1.551883071660995483e-01
-6.388821452856063843e-02
-2.396014984697103500e-03
6.615306437015533447e-02
-5.078137665987014771e-02
-5.693714320659637451e-02
1.839113384485244751e-01
4.626482352614402771e-02
8.500615507364273071e-02
-4.865927621722221375e-02
6.830211728811264038e-03
-7.733009755611419678e-02
-3.181797638535499573e-02
-5.286214873194694519e-02
8.051970042288303375e-03
3.725579008460044861e-02
-1.286173611879348755e-01
-1.391893774271011353e-01
3.771445155143737793e-02
-3.011216036975383759e-02
8.239428699016571045e-02
1.813150644302368164e-01
6.490072607994079590e-02
-1.317591071128845215e-01
5.635676905512809753e-03
-1.485655549913644791e-02
-2.327991090714931488e-02
-1.507983915507793427e-02
3.255213424563407898e-02
-4.513372853398323059e-02
-1.493434309959411621e-01
1.249077022075653076e-01
2.896721847355365753e-02
1.781673170626163483e-02
-2.745917141437530518e-01
1.434739679098129272e-01
6.604685634374618530e-02
9.507588297128677368e-02
-8.638606220483779907e-02
9.560265392065048218e-02
7.281150668859481812e-02
6.647666543722152710e-02
-2.858832851052284241e-02
3.241022303700447083e-02
3.023725152015686035e-01
1.508520543575286865e-02
4.006411880254745483e-02
-5.531001091003417969e-02
1.710565946996212006e-02
4.843288287520408630e-02
6.417582184076309204e-02
-8.213698118925094604e-02
2.274122275412082672e-02
1.952841132879257202e-01
5.373349785804748535e-02
1.005811914801597595e-01
-2.624480426311492920e-02
-2.319398522377014160e-02
1.135964132845401764e-02
-7.495359331369400024e-02
-4.071458801627159119e-02
1.591044962406158447e-01
5.023825541138648987e-02
1.082676351070404053e-01
-4.748216271400451660e-02
-1.190847158432006836e-01
-1.469234675168991089e-01
5.901329219341278076e-02
6.204515323042869568e-02
-6.037295330315828323e-03
5.135765671730041504e-02
-3.671021014451980591e-02
8.275890350341796875e-02
3.451057150959968567e-02
-8.279767818748950958e-03
2.779578045010566711e-02
-7.221424579620361328e-02
-5.450765043497085571e-02
1.792654395103454590e-01
-6.834901869297027588e-02
-6.553824245929718018e-02
6.149490177631378174e-02
7.303965836763381958e-02
2.999503165483474731e-02
1.642657257616519928e-02
2.773321419954299927e-02
-4.175380244851112366e-02
2.611760050058364868e-02
-5.238213017582893372e-02
1.906967918330337852e-05
-3.226557746529579163e-02
1.292340010404586792e-01
-4.635651037096977234e-02
-1.522317230701446533e-01
1.801015809178352356e-02
1.305186152458190918e-01
-1.580439880490303040e-02
-3.361511602997779846e-02
-1.383197866380214691e-02
-5.818866193294525146e-02
-8.374721743166446686e-03
-6.223025918006896973e-02
4.842226952314376831e-02
-3.105720691382884979e-02
-1.392672862857580185e-02
7.421427965164184570e-02
9.358935803174972534e-02
-5.987992510199546814e-03
1.870677992701530457e-02
6.198970973491668701e-02
-3.248210996389389038e-02
1.016911938786506653e-01
-3.063790686428546906e-02
-1.694239117205142975e-02
1.218702420592308044e-01
2.925201319158077240e-02
-5.914985388517379761e-02
-9.556599892675876617e-03
1.622069161385297775e-03
6.322701275348663330e-02
7.535609602928161621e-02
-2.619062550365924835e-02
-5.033512786030769348e-02
-5.754821002483367920e-02
-4.656512662768363953e-02
1.900178007781505585e-02
1.076562926173210144e-01
-1.671000756323337555e-02
-2.371281199157238007e-02
2.272624075412750244e-01
-1.970105059444904327e-02
9.259440749883651733e-02
1.002011895179748535e-01
2.076997607946395874e-02
-1.522264480590820312e-01
3.029254265129566193e-02
-2.019099518656730652e-02
-2.760665304958820343e-02
2.595667913556098938e-02
-8.816105313599109650e-03
6.216214038431644440e-03
2.628603763878345490e-02
4.964728280901908875e-02
-5.785935372114181519e-02
-3.058854639530181885e-01
3.534287214279174805e-02
-5.329180136322975159e-02
-6.570468842983245850e-02
8.017171919345855713e-02
-8.554186671972274780e-02
6.414921581745147705e-02
-4.164983704686164856e-02
-3.889774205163121223e-03
-8.956155180931091309e-02
5.772560834884643555e-02
7.208956032991409302e-02
7.800931483507156372e-02
1.104141846299171448e-01
-2.001016139984130859e-01
3.802437568083405495e-03
1.013917401432991028e-01
-1.095272377133369446e-01
1.086850091814994812e-01
1.912280917167663574e-02
1.800360903143882751e-02
-2.555555291473865509e-02
7.173112779855728149e-02
2.381934076547622681e-01
1.400794833898544312e-01
1.359564363956451416e-01
3.847232088446617126e-02
-2.581639401614665985e-02
1.474565081298351288e-02
-3.256918117403984070e-02
-6.880150735378265381e-02
-9.910544613376259804e-04
-1.099735721945762634e-01
7.133232802152633667e-02
-1.197722107172012329e-01
-4.245334118604660034e-02
3.681049868464469910e-02
-9.546201676130294800e-02
4.000354558229446411e-02
-3.943118453025817871e-02
1.251208335161209106e-01
5.462319590151309967e-03
-1.207529604434967041e-01
-4.914996027946472168e-02
5.096905678510665894e-02
-1.180993616580963135e-01
-6.698097288608551025e-02
-7.395598292350769043e-02
-2.357866987586021423e-02
9.525506943464279175e-02
4.066874831914901733e-02
1.441773027181625366e-01
1.968985944986343384e-01
-4.382028710097074509e-03
-1.176031157374382019e-01
1.468188166618347168e-01
-1.498795598745346069e-01
-1.989237405359745026e-02
-2.332016453146934509e-02
4.602970927953720093e-02
7.981842011213302612e-02
-4.787909984588623047e-02
-2.866011671721935272e-02
-1.002425625920295715e-01
1.219494864344596863e-01
3.177678585052490234e-02
5.283332616090774536e-02
1.886668205261230469e-01
-1.260976046323776245e-01
-1.694918796420097351e-02
8.234591782093048096e-02
-5.241473764181137085e-02
1.849275641143321991e-02
1.993306279182434082e-01
8.152035623788833618e-02
1.579719483852386475e-01
5.915968492627143860e-02
9.760434180498123169e-02
-2.110864268615841866e-03
1.801965236663818359e-01
-1.558908075094223022e-01
-4.286553710699081421e-02
5.598302930593490601e-02
-7.556057535111904144e-04
9.990876913070678711e-02
1.147708389908075333e-03
-3.585027065128087997e-03
3.378633782267570496e-02
6.303070485591888428e-02
1.926489621400833130e-01
-3.296709060668945312e-02
-1.325117498636245728e-01
8.408576995134353638e-02
-1.570145189762115479e-01
3.275287896394729614e-02
1.294623613357543945e-01
-1.617684960365295410e-02
-9.681642055511474609e-02
7.384905964136123657e-02
-3.455272410064935684e-03
-8.042306452989578247e-02
5.191498622298240662e-02
-7.411088445223867893e-04
-3.032671101391315460e-02
8.654452115297317505e-02
-5.300666391849517822e-02
-4.356617853045463562e-02
-1.200187057256698608e-01
-5.295999720692634583e-02
-3.325312957167625427e-02
-5.414715781807899475e-02
-3.370309248566627502e-02
-4.949652776122093201e-02
-1.179817877709865570e-02
2.789269201457500458e-02
-7.035280764102935791e-02
6.274648010730743408e-02
-8.260633796453475952e-02
1.704641245305538177e-02
-8.775571733713150024e-02
-9.347657114267349243e-02
5.698869936168193817e-03
-1.234560236334800720e-01
1.395179182291030884e-01
6.057433411478996277e-02
-5.315490067005157471e-02
-3.047951869666576385e-02
-6.269382685422897339e-02
-8.393922448158264160e-02
5.292458832263946533e-02
9.489826112985610962e-02
1.509817689657211304e-01
-9.617417305707931519e-02
2.404225617647171021e-02
2.688103355467319489e-03
6.128333508968353271e-03
-3.133510425686836243e-02
6.308166682720184326e-02
-6.038638949394226074e-02
-1.556466817855834961e-01
-1.178242173045873642e-02
-2.400140613317489624e-01
-8.085539937019348145e-02
-1.682923361659049988e-02
-9.340171515941619873e-02
4.002082161605358124e-03
-3.841926902532577515e-02
-7.618464529514312744e-02
5.304507911205291748e-02
-3.893485292792320251e-02
-5.247174203395843506e-02
-2.023840844631195068e-01
8.292205631732940674e-02
8.382273465394973755e-02
-1.008288785815238953e-01
4.823336005210876465e-02
2.165609784424304962e-02
-1.305122971534729004e-01
-2.112816646695137024e-02
9.912580251693725586e-02
-2.202919721603393555e-01
8.622203022241592407e-02
1.758218929171562195e-02
6.174875795841217041e-02
3.858974948525428772e-02
3.901056945323944092e-02
-1.269740611314773560e-02
-1.498976796865463257e-01
-7.211627066135406494e-02
-6.971881538629531860e-02
-1.267331689596176147e-01
-2.784122945740818977e-03
-1.187037378549575806e-01
6.460212171077728271e-02
-2.123465761542320251e-02
-5.969956144690513611e-02
4.259726777672767639e-02
-1.490824390202760696e-02
1.135789826512336731e-01
-1.142644509673118591e-01
1.427257359027862549e-01
2.045288868248462677e-02
-9.834572672843933105e-02
-6.901071965694427490e-02
7.120203971862792969e-02
7.486585527658462524e-02
-2.420607395470142365e-02
1.157114282250404358e-01
-2.776680700480937958e-02
1.006227359175682068e-01
-1.938099563121795654e-01
-9.966442734003067017e-02
-9.612082690000534058e-02
-1.470703482627868652e-01
-4.257650300860404968e-02
-1.855171769857406616e-01
-4.321860894560813904e-02
6.128143891692161560e-02
-9.700859338045120239e-02
-1.256237924098968506e-02
9.130253456532955170e-03
-5.198631435632705688e-02
-3.638422489166259766e-02
2.613189630210399628e-03
-8.803568780422210693e-02
-4.974721465259790421e-03
-4.700150340795516968e-02
4.084999859333038330e-02
3.724914416670799255e-02
-1.211596536450088024e-03
-6.571082025766372681e-02
-1.152755320072174072e-01
5.084287375211715698e-03
-1.390085667371749878e-01
6.878007948398590088e-02
4.583580791950225830e-02
4.196507390588521957e-03
5.039339885115623474e-02
2.205804362893104553e-02
-1.085240915417671204e-01
2.692991495132446289e-02
6.354303658008575439e-02
1.379814743995666504e-02
-1.095437481999397278e-01
-1.520398817956447601e-02
5.543862283229827881e-02
4.234536737203598022e-02
8.219770342111587524e-02
9.129250049591064453e-02
-5.841872841119766235e-02
1.012494564056396484e-01
7.588448375463485718e-02
6.114089628681540489e-04
1.076750606298446655e-01
3.879782930016517639e-02
-1.991771161556243896e-02
1.269719842821359634e-02
7.252690941095352173e-02
-2.578305313363671303e-03
1.057270541787147522e-01
-8.309683203697204590e-02
1.917055547237396240e-01
-2.079753205180168152e-02
-7.803663611412048340e-02
4.081231355667114258e-02
7.730858027935028076e-02
3.247252479195594788e-02
-1.218043640255928040e-01
4.531409963965415955e-02
-1.611101999878883362e-02
-1.436673104763031006e-01
2.143567986786365509e-02
-2.426240593194961548e-02
3.474294021725654602e-02
-8.559629321098327637e-02
5.743887275457382202e-02
-1.614360511302947998e-01
-2.205395139753818512e-03
-1.041167154908180237e-01
-2.052541449666023254e-02
-1.778298243880271912e-02
-1.471021864563226700e-02
-1.135240644216537476e-01
-1.346379611641168594e-02
1.506426185369491577e-01
-8.746106177568435669e-02
1.097978930920362473e-02
-3.049840591847896576e-02
-9.512173011898994446e-03
-2.900107949972152710e-02
3.923710808157920837e-02
3.559181839227676392e-02
6.200048327445983887e-02
6.384504586458206177e-02
-1.565294153988361359e-02
-8.629238605499267578e-02
-1.144335418939590454e-01
-6.679037958383560181e-02
-9.031534194946289062e-03
-1.001203507184982300e-01
-2.568160742521286011e-02
-7.219261676073074341e-02
-4.217273369431495667e-02
4.447118192911148071e-02
7.838025689125061035e-02
1.843180134892463684e-02
7.387384306639432907e-03
-7.848151028156280518e-02
6.628331542015075684e-02
8.769080787897109985e-02
-2.961171418428421021e-02
-7.569914311170578003e-02
-9.707201272249221802e-02
-1.356616336852312088e-02
1.598525419831275940e-02
1.326067596673965454e-01
2.773517370223999023e-02
6.655941158533096313e-02
2.404771745204925537e-02
-1.412138622254133224e-02
7.820460945367813110e-02
7.809951901435852051e-02
9.217392653226852417e-03
2.300406396389007568e-01
3.947909176349639893e-02
-8.042664080858230591e-02
-1.448999643325805664e-01
1.223749294877052307e-02
-1.040127947926521301e-01
6.773185729980468750e-02
6.257885694503784180e-02
1.995388865470886230e-01
-3.766215220093727112e-02
1.194363925606012344e-03
9.019799530506134033e-02
1.889786273241043091e-01
-2.121980637311935425e-01
-2.609536983072757721e-02
4.434984922409057617e-02
1.269117891788482666e-01
7.204246707260608673e-03
1.018408685922622681e-01
1.146490033715963364e-02
-1.269523054361343384e-01
-2.102849632501602173e-02
-4.422226175665855408e-02
1.058983430266380310e-01
3.255898505449295044e-02
-3.295369073748588562e-02
1.319480538368225098e-01
8.722355216741561890e-02
5.388155952095985413e-02
1.249473728239536285e-02
1.373945474624633789e-01
4.321940988302230835e-02
9.787719696760177612e-02
4.644870758056640625e-01
2.984660491347312927e-02
-6.262956187129020691e-03
-9.327138774096965790e-03
1.556341350078582764e-01
2.476265095174312592e-02
8.328083902597427368e-02
2.622012235224246979e-02
-5.671077407896518707e-03
-8.669820427894592285e-02
-8.453744649887084961e-02
1.090324074029922485e-01
-1.174152549356222153e-02
4.408404976129531860e-02
3.458546102046966553e-02
-1.986037008464336395e-02
5.937371402978897095e-02
-1.496784202754497528e-02
-9.534633904695510864e-02
-2.709988318383693695e-02
-2.646296843886375427e-02
-7.240454200655221939e-03
-9.945357590913772583e-02
5.426060874015092850e-03
1.300329715013504028e-01
-9.457721561193466187e-02
3.704315423965454102e-02
-1.502500623464584351e-01
-1.954026967287063599e-01
-3.559235017746686935e-03
-1.345330849289894104e-02
-1.366944704204797745e-02
-1.134300976991653442e-01
-1.783748120069503784e-01
-1.028439402580261230e-02
-2.558326348662376404e-03
1.276232600212097168e-01
1.806805655360221863e-02
-3.147320076823234558e-02
4.820373281836509705e-02
-3.468792140483856201e-02
3.752444311976432800e-02
1.257364265620708466e-02
-6.114003434777259827e-02
-8.949962258338928223e-02
-7.991238497197628021e-03
3.523619472980499268e-02
-7.735982537269592285e-03
-5.649270117282867432e-02
-2.013583481311798096e-02
3.883618488907814026e-02
3.113058395683765411e-02
6.592867523431777954e-02
-1.073752045631408691e-01
3.724943473935127258e-02
-1.267541479319334030e-02
-3.342000767588615417e-02
7.516445964574813843e-02
-9.000380523502826691e-03
-6.914882361888885498e-02
3.014865890145301819e-02
1.956229954957962036e-01
7.472407072782516479e-02
1.472442504018545151e-02
-5.110700614750385284e-03
-4.176178947091102600e-02
-2.233869023621082306e-02
-4.976907372474670410e-02
6.380661576986312866e-02
-7.350274920463562012e-02
-1.459227353334426880e-01
2.714898586273193359e-01
4.048219881951808929e-03
1.075804978609085083e-02
3.225757740437984467e-03
-5.826073884963989258e-02
1.370539665222167969e-01
-1.059398129582405090e-01
-1.047974228858947754e-01
8.812720328569412231e-02
3.932435065507888794e-02
3.824098780751228333e-02
1.186521444469690323e-02
-9.588995017111301422e-03
-6.794242560863494873e-02
-4.271526634693145752e-02
5.392421782016754150e-02
-2.214157134294509888e-01
7.522586733102798462e-02
-1.167253777384757996e-02
-6.564473360776901245e-02
-6.734882295131683350e-02
-4.939374327659606934e-02
-5.065449327230453491e-02
-3.581718355417251587e-02
1.364205628633499146e-01
4.587856307625770569e-02
7.846994698047637939e-02
-4.222719371318817139e-02
-5.628431215882301331e-02
-2.713399231433868408e-01
-7.370781153440475464e-02
7.982765324413776398e-03
6.310175359249114990e-02
1.319690328091382980e-02
2.830171771347522736e-02
-6.436919327825307846e-03
-4.446434602141380310e-02
2.709645032882690430e-02
2.087013050913810730e-02
1.565189287066459656e-02
1.199222132563591003e-01
4.376988112926483154e-02
-3.388346359133720398e-02
-1.421719640493392944e-01
1.928056776523590088e-02
-4.193519428372383118e-02
-3.239313885569572449e-02
-5.280096456408500671e-02
-6.324635446071624756e-02
-1.344098988920450211e-02
8.219799399375915527e-02
6.096648424863815308e-02
8.477157354354858398e-02
3.782613202929496765e-02
1.412184257060289383e-02
-4.856252670288085938e-02
-1.216314360499382019e-01
8.100312203168869019e-02
7.268388569355010986e-02
1.665417477488517761e-02
-9.570123255252838135e-02
1.676149293780326843e-02
-5.213801749050617218e-03
8.516730368137359619e-02
4.443208500742912292e-02
-2.792202681303024292e-02
-5.466229282319545746e-03
8.371431380510330200e-02
1.571749150753021240e-01
8.355195820331573486e-02
1.207289248704910278e-01
-7.015816122293472290e-02
2.909077331423759460e-02
4.670247808098793030e-02
-5.991532932966947556e-03
8.466476202011108398e-02
4.754476249217987061e-02
-3.163513494655489922e-03
1.636261306703090668e-02
-5.421605892479419708e-03
1.034070178866386414e-01
1.382030993700027466e-01
-1.223715860396623611e-02
3.104695677757263184e-02
-6.220042239874601364e-03
8.021008968353271484e-02
-3.427627263590693474e-03
-9.972259402275085449e-02
5.686216056346893311e-02
1.190441474318504333e-01
1.562674939632415771e-01
7.893796265125274658e-02
8.556399494409561157e-02
-1.697660088539123535e-01
6.617388874292373657e-02
4.088078159838914871e-03
-7.283652666956186295e-03
-1.537693738937377930e-01
3.290894627571105957e-02
2.584719061851501465e-01
-2.971786772832274437e-03
2.795115672051906586e-02
-3.347318992018699646e-02
4.322027787566184998e-02
5.434796586632728577e-02
9.978273510932922363e-02
-3.513660281896591187e-02
-1.845223642885684967e-02
-2.854131162166595459e-03
4.820946604013442993e-02
2.525818534195423126e-02
-8.951935917139053345e-03
4.634669050574302673e-02
-3.203187370672821999e-03
6.493903696537017822e-02
-6.345949321985244751e-02
3.691213205456733704e-02
-1.343101321253925562e-04
9.148831665515899658e-02
1.427614130079746246e-02
4.499661922454833984e-02
3.144090250134468079e-02
4.799994826316833496e-02
-5.042134225368499756e-02
-2.688114717602729797e-02
3.114329092204570770e-02
-2.708255313336849213e-02
2.212550118565559387e-02
4.838195443153381348e-02
-2.645095251500606537e-02
-3.883770480751991272e-02
3.926350176334381104e-02
1.026619225740432739e-03
4.815558344125747681e-02
9.151841513812541962e-03
1.702703535556793213e-02
1.829398274421691895e-01
-6.965564680285751820e-04
7.839872688055038452e-02
-1.045242697000503540e-01
2.211896516382694244e-02
-2.770667430013418198e-03
-1.329920589923858643e-01
-8.290274068713188171e-03
-9.887460619211196899e-02
1.332457810640335083e-01
5.715028941631317139e-02
1.161550730466842651e-01
-1.543789505958557129e-01
-4.738385975360870361e-02
-1.043422371149063110e-01
3.681311383843421936e-02
-1.052847802639007568e-01
7.989212125539779663e-02
1.742798238992691040e-01
-1.148202195763587952e-01
-1.352470070123672485e-01
-1.948592066764831543e-02
1.205428391695022583e-01
-5.344687774777412415e-02
-4.404964298009872437e-02
2.424815148115158081e-01
1.109930686652660370e-03
-7.410433888435363770e-02
-3.132582828402519226e-02
9.236107766628265381e-02
4.650226980447769165e-02
-2.955372212454676628e-03
4.533603787422180176e-02
-3.662144765257835388e-02
8.722771890461444855e-03
-9.464615024626255035e-03
-1.390802562236785889e-01
-6.962073594331741333e-02
-4.645731672644615173e-02
-1.611609198153018951e-02
7.775451987981796265e-02
9.755968302488327026e-02
2.006918936967849731e-02
2.208224534988403320e-01
2.584028290584683418e-03
1.041283644735813141e-02
-8.329610526561737061e-02
-2.694542706012725830e-02
-2.021081447601318359e-01
7.892765849828720093e-02
-4.065450653433799744e-02
-7.524777203798294067e-02
1.767130568623542786e-02
3.724179789423942566e-02
2.281794138252735138e-02
-2.609615027904510498e-02
6.738734990358352661e-02
-1.743429526686668396e-02
-2.714049816131591797e-02
1.947785168886184692e-02
-4.979636520147323608e-02
-3.910980373620986938e-02
6.494753062725067139e-02
-4.226677864789962769e-02
-9.959124773740768433e-02
2.099968306720256805e-02
9.409019723534584045e-03
-1.021333038806915283e-01
-1.786827109754085541e-02
2.184402942657470703e-02
-1.001732423901557922e-01
-3.447344526648521423e-02
-7.081621442921459675e-04
5.309959128499031067e-02
1.421696841716766357e-01
8.225347101688385010e-02
-1.573654860258102417e-01
-1.940972357988357544e-01
-7.169206510297954082e-04
9.461254626512527466e-02
3.331668907776474953e-03
4.956134036183357239e-02
1.570152193307876587e-01
-2.445159666240215302e-02
-9.046054631471633911e-02
4.447924438863992691e-03
8.164029568433761597e-02
9.694850444793701172e-02
-1.948248222470283508e-02
