-8.186684921383857727e-03,-1.273871213197708130e-02,-5.616348981857299805e-02,7.686407119035720825e-02,2.713084220886230469e-01,1.462286114692687988e-01,1.225812360644340515e-01,-2.850720584392547607e-01,-1.201302558183670044e-01,-1.870306022465229034e-02,2.725150287151336670e-01,-8.088343590497970581e-02,3.358429372310638428e-01,-8.370101451873779297e-02,5.944043025374412537e-02,1.515061110258102417e-01,2.630913853645324707e-01,6.366690993309020996e-02,1.407794561237096786e-02,-1.175477877259254456e-01,1.306837350130081177e-01,2.304010242223739624e-01,1.692310571670532227e-01,4.911059141159057617e-02,7.705441117286682129e-02,-3.545503616333007812e-01,2.075340785086154938e-02,-1.399115771055221558e-01,-3.660179078578948975e-01,1.421720832586288452e-01,-5.337286591529846191e-01,-1.252798438072204590e-01,5.045937374234199524e-03,9.343174099922180176e-02,-2.543705701828002930e-01,-1.194795221090316772e-01,2.710299100726842880e-03,1.615279167890548706e-01,5.689876899123191833e-02,1.474228650331497192e-01,-2.189295142889022827e-01,1.481003016233444214e-01,1.098130866885185242e-01,-1.569339632987976074e-01,-2.318101525306701660e-01,1.931909285485744476e-02,5.108668655157089233e-02,-8.231862448155879974e-03,-1.975165307521820068e-01,-1.751525402069091797e-01,-5.343273282051086426e-02,1.434091925621032715e-01,-2.338966131210327148e-01,-2.553222477436065674e-01,-1.859878748655319214e-02,7.462497055530548096e-02,-1.217701062560081482e-01,-1.551850587129592896e-01,-9.618163108825683594e-02,-2.968926131725311279e-01,-5.516206845641136169e-02,2.830231487751007080e-01,3.228593766689300537e-01,-2.401710897684097290e-01,-1.919680088758468628e-01,-1.095276921987533569e-01,3.279152140021324158e-02,-2.528220713138580322e-01,-5.188305303454399109e-02,-9.616142138838768005e-03,-1.273673772811889648e-01,-6.134907156229019165e-02,9.793229401111602783e-02,-1.403374671936035156e-01,-1.477260887622833252e-01,1.018964648246765137e-01,2.362392693758010864e-01,-1.472409907728433609e-02,-1.244034897536039352e-02,1.085082590579986572e-01,-5.067360401153564453e-02,-1.396442949771881104e-01,-2.019345015287399292e-01,-4.963261261582374573e-02,-1.199697330594062805e-01,3.155321776866912842e-01,-1.021481826901435852e-01,1.688800007104873657e-02,2.012908309698104858e-01,-2.957210503518581390e-02,-1.593201607465744019e-01,-1.285683512687683105e-01,-4.161994904279708862e-02,5.070813372731208801e-02,1.262780930846929550e-02,1.303374767303466797e-01,1.463508009910583496e-01,-5.202615261077880859e-02,1.232435852289199829e-01,5.335722118616104126e-03,3.962776809930801392e-02,-1.444112230092287064e-02,-2.819437719881534576e-02,2.035376429557800293e-01,-1.893576234579086304e-01,1.671500355005264282e-01,-4.355435073375701904e-02,-6.744004040956497192e-02,-7.022756338119506836e-02,3.872047364711761475e-02,1.428820639848709106e-01,7.544556260108947754e-02,9.152340143918991089e-02,1.312810480594635010e-01,-1.151377335190773010e-01,3.502304852008819580e-01,-3.469001650810241699e-01,-5.401404947042465210e-02,1.159734874963760376e-01,-2.422400861978530884e-01,1.756449043750762939e-01,-3.008139133453369141e-01,1.448645144701004028e-01,-1.800454780459403992e-02,-3.597024083137512207e-02,1.082222014665603638e-01,1.202568113803863525e-01,8.016967773437500000e-02
-1.160795316100120544e-01,2.063482552766799927e-01,2.021259069442749023e-02,1.979682967066764832e-02,1.477218121290206909e-01,-8.796221017837524414e-02,3.247590065002441406e-01,2.169995382428169250e-02,-6.586892902851104736e-02,1.367468684911727905e-01,-9.808424115180969238e-02,1.428003311157226562e-01,-2.624284625053405762e-01,-4.626648873090744019e-02,9.876592457294464111e-02,1.425791066139936447e-02,-1.070011034607887268e-01,3.220440819859504700e-02,1.348894834518432617e-01,-1.408805698156356812e-01,5.867517590522766113e-01,2.607453167438507080e-01,-1.379867494106292725e-01,1.797560304403305054e-01,-3.123489767313003540e-02,2.577857673168182373e-01,-2.801586389541625977e-01,-1.995293498039245605e-01,-1.792317628860473633e-01,2.242492511868476868e-02,3.133863508701324463e-01,3.277480602264404297e-03,-1.040668785572052002e-01,-2.492789477109909058e-01,-4.372601211071014404e-02,1.349221915006637573e-01,-1.028301939368247986e-01,1.105227842926979065e-01,-1.666798591613769531e-01,-4.950061440467834473e-02,4.306832328438758850e-02,-1.402879059314727783e-01,1.052004396915435791e-01,-8.359558880329132080e-02,-1.317690163850784302e-01,-9.120163321495056152e-02,1.159930825233459473e-01,5.025881156325340271e-02,-1.211068704724311829e-01,7.867788895964622498e-03,1.889481991529464722e-01,-1.026539057493209839e-01,-1.910960376262664795e-01,3.346269130706787109e-01,-1.918465085327625275e-02,-2.921651862561702728e-02,2.822028696537017822e-01,-6.018767878413200378e-02,-1.684661358594894409e-01,-1.039309799671173096e-01,3.469992280006408691e-01,-1.486359089612960815e-01,2.648285590112209320e-02,1.836540400981903076e-01,-4.062140360474586487e-03,1.907674670219421387e-01,-9.641860425472259521e-02,1.213498413562774658e-02,-7.186957448720932007e-02,-2.138428986072540283e-01,-7.794141769409179688e-02,1.101699769496917725e-01,-9.945644065737724304e-03,-1.639494001865386963e-01,3.981196135282516479e-02,-9.149939753115177155e-03,6.444060057401657104e-02,-1.348679214715957642e-01,1.433210372924804688e-01,-3.100620815530419350e-03,-5.476474016904830933e-02,3.078025951981544495e-02,2.695758640766143799e-02,-8.277554064989089966e-02,4.668622743338346481e-03,3.902167081832885742e-02,9.803968481719493866e-03,-4.656238555908203125e-01,1.458839178085327148e-01,1.319740265607833862e-01,-1.703470945358276367e-02,9.042710810899734497e-02,-1.899870485067367554e-01,5.380700156092643738e-02,-6.093281134963035583e-02,-1.312765032052993774e-01,-9.629618376493453979e-02,7.179508358240127563e-02,-6.206860393285751343e-02,1.066752821207046509e-01,1.577283293008804321e-01,-1.540020760148763657e-02,-2.118673771619796753e-01,1.165857538580894470e-02,-6.469444185495376587e-02,4.179411754012107849e-02,4.796461462974548340e-01,-3.960693478584289551e-01,1.254292279481887817e-01,2.454275339841842651e-01,5.147266387939453125e-02,-7.635763287544250488e-02,8.141554147005081177e-02,6.655387580394744873e-02,-2.216003835201263428e-02,9.778164327144622803e-02,-7.710383832454681396e-02,1.918865591287612915e-01,1.725332736968994141e-01,6.860397011041641235e-02,-7.042416185140609741e-02,-5.616887658834457397e-02,1.668376177549362183e-01,1.524878293275833130e-01,-6.159035861492156982e-02,-1.137175038456916809e-02,-9.273863583803176880e-02,-4.199989885091781616e-02
-2.561946809291839600e-01,-3.288629651069641113e-01,-1.655540168285369873e-01,-2.177236825227737427e-01,3.818379715085029602e-02,5.439205467700958252e-02,2.458703666925430298e-01,1.021514758467674255e-01,2.539556659758090973e-02,-3.343261778354644775e-01,-6.602235138416290283e-02,-9.078264981508255005e-02,9.149806201457977295e-02,-1.735104024410247803e-01,2.972146868705749512e-01,2.320237904787063599e-01,-2.858130820095539093e-02,-1.217439994215965271e-01,-1.866075396537780762e-01,8.111125230789184570e-02,-2.624703012406826019e-02,1.278285235166549683e-01,-1.355046778917312622e-01,-3.614801913499832153e-02,2.730951607227325439e-01,-7.249715179204940796e-02,2.047425359487533569e-01,1.153517439961433411e-01,3.630222752690315247e-02,-8.596408367156982422e-02,2.770231291651725769e-02,-1.057406961917877197e-01,-7.387425750494003296e-02,1.004730351269245148e-03,1.523553580045700073e-01,1.380104571580886841e-01,1.835576444864273071e-01,4.685677215456962585e-02,-3.203889131546020508e-01,-2.530127167701721191e-01,2.791312336921691895e-01,1.027795597910881042e-01,2.669363915920257568e-01,-3.583296835422515869e-01,3.136850893497467041e-02,4.597077369689941406e-01,2.024859637022018433e-01,1.199124455451965332e-01,3.474201261997222900e-01,1.821159124374389648e-01,-1.308903694152832031e-01,-2.151376903057098389e-01,-6.714214384555816650e-02,1.707846224308013916e-01,1.268430501222610474e-01,4.743123799562454224e-02,-1.583430469036102295e-01,9.231617674231529236e-03,4.444548860192298889e-02,1.463614217936992645e-02,1.142997518181800842e-01,-4.363846182823181152e-01,-1.584456115961074829e-01,-5.083641037344932556e-02,-5.255699530243873596e-02,-1.533853560686111450e-01,-9.803710505366325378e-03,6.504833698272705078e-02,-2.864094972610473633e-01,-3.066674806177616119e-03,6.452743709087371826e-02,-1.097976639866828918e-01,3.701851367950439453e-01,-3.464910387992858887e-01,2.475491724908351898e-02,9.044924378395080566e-02,-1.070962175726890564e-01,7.773636281490325928e-02,-2.440334558486938477e-01,-1.820326596498489380e-01,8.091029524803161621e-02,1.738708615303039551e-01,5.363148823380470276e-02,-1.280128061771392822e-01,-9.565437585115432739e-02,-1.989268511533737183e-02,1.321818083524703979e-01,-2.119368910789489746e-01,-5.448403209447860718e-02,-8.239231258630752563e-02,-1.566524058580398560e-01,1.955381780862808228e-01,8.704496175050735474e-02,1.976885050535202026e-01,8.329629153013229370e-02,1.659992188215255737e-01,1.353066265583038330e-01,9.607569128274917603e-02,1.909717172384262085e-01,1.045067980885505676e-01,1.355312764644622803e-01,-4.456917643547058105e-01,-6.212191656231880188e-02,-7.181565463542938232e-02,6.521070376038551331e-03,-1.000645905733108521e-01,-1.616736054420471191e-01,-1.449285596609115601e-01,-5.052236840128898621e-02,-7.409914582967758179e-02,2.009637355804443359e-01,-1.352922990918159485e-02,2.136639654636383057e-01,-3.765646740794181824e-02,1.101870238780975342e-01,-2.259431779384613037e-01,1.993101276457309723e-02,1.330160647630691528e-01,-4.797653853893280029e-02,1.501498967409133911e-01,-1.765169203281402588e-02,1.778750270605087280e-01,2.523609399795532227e-01,-1.376044303178787231e-01,-2.047243993729352951e-03,3.361172676086425781e-01,3.967983648180961609e-02,-2.076507806777954102e-01
-2.630480937659740448e-02,9.054151922464370728e-02,2.577309869229793549e-02,-1.917133480310440063e-02,-2.355077490210533142e-02,-4.823392629623413086e-02,1.181651204824447632e-01,9.871516376733779907e-02,1.476546935737133026e-02,6.696955859661102295e-02,-5.823267623782157898e-02,1.317920908331871033e-02,1.095561981201171875e-01,3.439561650156974792e-02,2.581823803484439850e-02,4.578075185418128967e-02,4.926919192075729370e-02,2.803086116909980774e-02,-3.165255859494209290e-02,-3.352779522538185120e-02,-2.834623679518699646e-02,4.834780469536781311e-02,-1.003800146281719208e-02,5.875568464398384094e-02,-3.873702511191368103e-02,1.153144612908363342e-02,6.309679150581359863e-02,9.671036899089813232e-02,-2.375559322535991669e-02,1.680308766663074493e-02,-6.859752535820007324e-02,-5.023098737001419067e-02,-2.389244362711906433e-02,4.941495135426521301e-02,-2.839129231870174408e-02,2.891317196190357208e-02,9.468070417642593384e-02,2.636520564556121826e-02,8.941371738910675049e-02,5.887623876333236694e-02,1.107325032353401184e-01,-6.180920824408531189e-02,8.012770116329193115e-02,-1.561938133090734482e-02,-8.931811153888702393e-02,-4.254189319908618927e-03,2.247400581836700439e-02,-1.169968396425247192e-02,-9.005334228277206421e-02,1.040855422616004944e-03,1.116184704005718231e-02,1.151970680803060532e-02,-1.017336081713438034e-02,-4.582463577389717102e-02,2.552802860736846924e-02,-2.603604458272457123e-02,4.444088041782379150e-02,3.485588729381561279e-02,-9.882496297359466553e-02,4.933730885386466980e-02,2.623752690851688385e-02,3.179611405357718468e-03,-3.239113092422485352e-02,1.056500896811485291e-02,3.864398598670959473e-02,8.882780373096466064e-02,-2.651230990886688232e-02,2.312118001282215118e-02,1.456332579255104065e-02,-6.172997131943702698e-02,3.252079710364341736e-02,6.925844401121139526e-02,1.427636593580245972e-01,-4.177053272724151611e-02,9.044349193572998047e-03,6.832928210496902466e-02,-1.896133646368980408e-02,7.575160264968872070e-02,8.504205197095870972e-02,-4.277655854821205139e-02,1.164581067860126495e-02,-6.821148842573165894e-02,-3.880364820361137390e-02,1.925187744200229645e-02,-3.940020501613616943e-02,6.001012772321701050e-02,-1.251133829355239868e-01,8.744973689317703247e-02,4.210721328854560852e-02,-5.690085701644420624e-03,6.388822942972183228e-02,-4.479866102337837219e-02,-3.756908001378178596e-03,-7.607218623161315918e-02,2.741181664168834686e-02,3.143743425607681274e-02,1.029104888439178467e-01,-6.396556645631790161e-02,4.637699946761131287e-02,4.414421319961547852e-02,1.527353562414646149e-02,3.887006267905235291e-02,8.493868261575698853e-02,-2.211222052574157715e-02,-6.854695081710815430e-02,-1.385056525468826294e-01,7.298883795738220215e-02,5.987606942653656006e-02,-4.808653891086578369e-02,4.495609924197196960e-02,1.388774365186691284e-01,2.188679762184619904e-02,-8.480506390333175659e-02,1.485686935484409332e-02,-2.870403230190277100e-02,-2.439530380070209503e-02,-3.114365972578525543e-02,6.611602753400802612e-02,9.647126495838165283e-02,3.243643417954444885e-02,-5.966880917549133301e-02,-1.120243500918149948e-02,-5.540840700268745422e-02,2.823112765327095985e-03,1.187106035649776459e-02,1.020775139331817627e-01,-1.270501874387264252e-02,3.451617807149887085e-02
1.581078618764877319e-01,1.026462614536285400e-01,-2.470508962869644165e-02,-2.682703435420989990e-01,-2.845301330089569092e-01,-4.998656921088695526e-03,-1.439249068498611450e-01,-2.023910731077194214e-02,-1.066088452935218811e-01,1.629853993654251099e-01,-2.526073455810546875e-01,1.776739358901977539e-01,1.687382459640502930e-01,4.957718774676322937e-02,-2.162363231182098389e-01,1.089205779135227203e-02,3.151634335517883301e-01,4.202207177877426147e-02,-3.685095533728599548e-02,-3.225126862525939941e-01,-1.954531297087669373e-02,1.997781991958618164e-01,-1.395883411169052124e-01,-1.192794297821819782e-03,-2.732136845588684082e-02,1.004415899515151978e-01,1.396502703428268433e-01,6.171629298478364944e-03,9.128521382808685303e-02,3.060957975685596466e-02,-6.468728929758071899e-02,2.098444998264312744e-01,5.041709635406732559e-03,3.790012300014495850e-01,3.969004154205322266e-01,-6.260795891284942627e-02,-2.920356690883636475e-01,2.330456674098968506e-02,-9.416292607784271240e-02,1.281470358371734619e-01,-2.917621731758117676e-01,6.495991349220275879e-02,6.006069108843803406e-02,-6.539180874824523926e-02,1.060391589999198914e-01,2.551828883588314056e-02,-1.047309637069702148e-01,1.233071908354759216e-01,-5.318432301282882690e-02,-5.164981260895729065e-02,2.333602309226989746e-02,-6.734824925661087036e-02,-2.301981598138809204e-01,-3.253938630223274231e-02,7.120329886674880981e-02,-1.411103308200836182e-01,-4.214890301227569580e-02,-1.164550036191940308e-01,3.131680786609649658e-01,3.060101158916950226e-02,-1.066836565732955933e-01,-1.793540716171264648e-01,4.612198844552040100e-02,-3.115009143948554993e-02,-7.900515198707580566e-02,-2.457863185554742813e-03,1.032238230109214783e-01,6.432132422924041748e-02,5.067862570285797119e-02,1.134646758437156677e-01,6.199382618069648743e-02,1.896994709968566895e-01,2.832689285278320312e-01,-2.178928703069686890e-01,-2.060887403786182404e-02,5.780941620469093323e-02,9.598410874605178833e-02,-8.678311482071876526e-03,-1.215881407260894775e-01,-1.788600236177444458e-01,1.971557363867759705e-02,-2.324072867631912231e-01,3.272244706749916077e-02,-7.624319195747375488e-02,2.532910704612731934e-01,3.925586119294166565e-02,-2.393438518047332764e-01,5.671828612685203552e-02,-1.401647031307220459e-01,2.288999259471893311e-01,2.197977602481842041e-01,1.685553789138793945e-01,2.169706970453262329e-01,-5.527349188923835754e-02,8.049160242080688477e-02,-1.083230748772621155e-01,-8.323131501674652100e-02,3.227509260177612305e-01,2.103948406875133514e-02,-1.402913928031921387e-01,4.105383530259132385e-03,9.500128030776977539e-02,-1.521694809198379517e-01,2.703813314437866211e-01,-1.189691200852394104e-01,-2.346028946340084076e-02,-2.382759377360343933e-02,8.573272079229354858e-02,1.222624480724334717e-01,1.857980042695999146e-01,5.976288113743066788e-03,2.067810297012329102e-02,-5.477070435881614685e-02,-1.716245263814926147e-01,-6.925813853740692139e-02,-2.286037057638168335e-01,7.133618742227554321e-02,1.438196282833814621e-02,-2.021211981773376465e-01,1.257031112909317017e-01,2.352507784962654114e-02,1.294974051415920258e-02,-1.397899240255355835e-01,3.712528944015502930e-01,3.353151306509971619e-02,-7.963480055332183838e-02,1.180970892310142517e-01,2.086012661457061768e-01
-2.185653336346149445e-02,-1.746133267879486084e-01,3.839989006519317627e-01,-3.580328077077865601e-02,-9.443179704248905182e-03,1.450272649526596069e-01,-7.345554232597351074e-02,-4.159086570143699646e-02,-1.631727442145347595e-02,-1.256950050592422485e-01,3.487648963928222656e-01,2.899471111595630646e-02,1.865379512310028076e-01,-1.613032259047031403e-02,3.480190783739089966e-02,3.814569488167762756e-02,-1.444947421550750732e-01,1.252126842737197876e-01,-9.594550728797912598e-02,1.584215089678764343e-02,-7.996837794780731201e-02,-8.588154613971710205e-02,1.076442748308181763e-01,-6.179586052894592285e-02,-1.071136817336082458e-01,-1.444232761859893799e-01,2.160786390304565430e-01,7.796357572078704834e-02,9.255421347916126251e-03,1.370709091424942017e-01,4.803643748164176941e-02,1.757183223962783813e-01,-2.790911495685577393e-01,-2.658071815967559814e-01,-5.898167192935943604e-02,7.103372365236282349e-02,-7.393833994865417480e-02,2.597016096115112305e-01,-9.983508847653865814e-03,-1.543607749044895172e-02,-9.027141332626342773e-02,-6.550974398851394653e-02,-2.635359168052673340e-01,3.390046954154968262e-02,5.543975159525871277e-02,-2.373500727117061615e-03,6.397815048694610596e-02,-4.236516356468200684e-02,-2.142595797777175903e-01,-1.464105844497680664e-01,2.281049340963363647e-01,-1.583321392536163330e-01,6.912127137184143066e-02,-2.309084981679916382e-01,1.521862894296646118e-01,2.586884982883930206e-02,5.586742237210273743e-02,-7.442028727382421494e-04,2.985560521483421326e-02,-2.466051280498504639e-01,2.437215149402618408e-01,-1.112668290734291077e-01,-4.665004834532737732e-02,1.195064783096313477e-01,-1.936081796884536743e-01,9.934988617897033691e-02,-1.077162995934486389e-01,-5.162614979781210423e-04,5.184736847877502441e-02,-2.051366567611694336e-01,4.124961048364639282e-02,1.512111276388168335e-01,-2.340643554925918579e-01,-1.802752763032913208e-01,1.621125638484954834e-01,-8.425539731979370117e-02,-1.796085834503173828e-01,1.313915252685546875e-01,1.609773784875869751e-01,-9.090621769428253174e-02,-1.736007034778594971e-01,-7.380994409322738647e-02,-3.853143006563186646e-02,-1.196148172020912170e-01,1.209220737218856812e-01,-1.908421963453292847e-01,-2.654194235801696777e-01,7.835765182971954346e-02,-2.813466824591159821e-02,1.122495830059051514e-01,4.235171154141426086e-02,1.177493333816528320e-01,1.374455094337463379e-01,-4.291918128728866577e-02,1.210120879113674164e-02,-1.282875686883926392e-01,1.038408055901527405e-01,7.579306513071060181e-02,1.606611721217632294e-02,-1.678218692541122437e-01,1.315784007310867310e-01,-1.807882487773895264e-01,-4.641366750001907349e-02,1.470897495746612549e-01,7.418915629386901855e-02,-6.788842380046844482e-02,1.275114063173532486e-02,-4.174408316612243652e-02,-5.912269651889801025e-02,5.542993173003196716e-02,8.164194226264953613e-02,4.456067830324172974e-02,-2.443185076117515564e-02,9.343904256820678711e-02,1.291732639074325562e-01,3.679715842008590698e-02,2.307575643062591553e-01,4.657350480556488037e-03,-5.759760737419128418e-02,-7.708660513162612915e-02,1.642258763313293457e-01,1.140187308192253113e-01,-5.763956159353256226e-02,-9.172227978706359863e-02,2.685259282588958740e-01,-1.238374635577201843e-01,1.038219686597585678e-02,-1.710512787103652954e-01
5.357392132282257080e-02,-2.068285644054412842e-01,-7.785000652074813843e-02,1.037237271666526794e-01,-8.137492090463638306e-02,-1.891103237867355347e-01,1.212033852934837341e-01,-2.438335567712783813e-01,1.003351360559463501e-01,-1.676204949617385864e-01,1.744751445949077606e-02,-4.478738829493522644e-02,-1.219965592026710510e-01,-7.037597149610519409e-02,-9.092591702938079834e-02,2.529029548168182373e-01,2.634926885366439819e-02,2.183298915624618530e-01,3.725553164258599281e-03,-3.621602803468704224e-02,-8.500400185585021973e-02,-3.277917206287384033e-02,3.546611592173576355e-02,1.448360383510589600e-01,1.320567429065704346e-01,1.466063708066940308e-01,-2.054745145142078400e-02,1.161150410771369934e-01,1.756490953266620636e-02,6.402936577796936035e-02,1.040259003639221191e-02,-1.543262749910354614e-01,2.761027030646800995e-02,1.530143916606903076e-01,1.952685713768005371e-01,2.481408566236495972e-01,1.343303546309471130e-02,-1.197597198188304901e-02,-1.483278162777423859e-02,1.527903676033020020e-01,-5.014244839549064636e-02,-1.949106603860855103e-01,1.796249300241470337e-01,-1.417510807514190674e-01,7.491245120763778687e-02,8.458790928125381470e-02,1.330078020691871643e-02,-1.147240027785301208e-02,4.441409930586814880e-02,1.593725085258483887e-01,2.192253470420837402e-01,-4.608578979969024658e-02,-2.532097883522510529e-02,8.018730580806732178e-02,2.829775400459766388e-02,-1.765276640653610229e-01,6.678851693868637085e-02,-1.184187643229961395e-02,4.155627638101577759e-02,-9.490540623664855957e-02,2.576561458408832550e-02,6.703615933656692505e-02,-5.401072558015584946e-03,-2.094748802483081818e-02,5.688292160630226135e-02,2.898495877161622047e-03,-5.867886915802955627e-02,-1.142511293292045593e-01,-1.097366772592067719e-02,2.135978043079376221e-01,2.937106601893901825e-02,1.264651566743850708e-01,-4.008555039763450623e-02,-1.458496600389480591e-01,-1.584086567163467407e-01,-3.069536946713924408e-02,-4.922297596931457520e-02,1.621837168931961060e-01,-2.022017836570739746e-01,-6.607593968510627747e-03,-8.186302334070205688e-02,-2.015404403209686279e-02,-2.412923611700534821e-02,2.857947945594787598e-01,-1.459833830595016479e-01,-1.253530830144882202e-01,-4.306332021951675415e-02,4.170036688446998596e-02,1.491206139326095581e-01,1.771397888660430908e-02,2.099852077662944794e-02,1.689332723617553711e-01,-5.704672262072563171e-02,1.987826824188232422e-01,1.905204057693481445e-01,2.582890093326568604e-01,-1.870860308408737183e-01,-4.197261296212673187e-03,4.824106395244598389e-02,-8.255480974912643433e-02,-1.769551038742065430e-01,7.510299235582351685e-02,1.995122283697128296e-01,-1.757950782775878906e-01,-2.180523127317428589e-01,2.064433991909027100e-01,1.131956428289413452e-01,1.900675334036350250e-02,9.265048801898956299e-02,7.245789468288421631e-02,-1.797501929104328156e-02,-5.956856906414031982e-02,-2.312683016061782837e-01,-9.317270666360855103e-02,-3.551029413938522339e-02,-1.113310754299163818e-01,-6.142553314566612244e-02,7.851509004831314087e-02,8.901765197515487671e-02,-2.205023467540740967e-01,2.294968813657760620e-01,-7.556336000561714172e-03,-5.773892626166343689e-02,-5.889372155070304871e-02,1.406951099634170532e-01,-1.186347082257270813e-01,-5.784136056900024414e-02,-2.719043195247650146e-02
1.136960089206695557e-01,3.065630495548248291e-01,2.426759805530309677e-03,7.486800849437713623e-02,8.850418031215667725e-02,4.476762935519218445e-02,-9.982094168663024902e-02,-1.885540410876274109e-02,7.562644779682159424e-02,1.128220260143280029e-01,1.749734431505203247e-01,-3.043374605476856232e-02,-1.125645712018013000e-01,1.731450259685516357e-01,5.235423892736434937e-02,-7.080380618572235107e-02,2.045921385288238525e-01,8.940100669860839844e-02,-1.521651297807693481e-01,1.122058182954788208e-01,-1.874330490827560425e-01,1.376037597656250000e-01,2.334537729620933533e-02,3.629529103636741638e-02,2.694398351013660431e-02,1.039277389645576477e-01,6.086594611406326294e-02,1.785546243190765381e-01,1.199024096131324768e-01,-3.181123360991477966e-02,1.608746051788330078e-01,7.426531612873077393e-02,9.598461538553237915e-02,-7.015936821699142456e-02,7.373821735382080078e-02,-2.580207027494907379e-02,1.426702141761779785e-01,-2.648446261882781982e-01,-6.667348556220531464e-03,5.225655809044837952e-02,-1.559360772371292114e-01,3.290518820285797119e-01,2.833693847060203552e-02,-1.148440986871719360e-01,-1.349707245826721191e-01,-8.084169588983058929e-03,-3.029817529022693634e-02,2.700047567486763000e-02,2.796720899641513824e-02,-1.582678705453872681e-01,5.643083900213241577e-02,-4.774613678455352783e-02,-7.609105855226516724e-02,-8.075178414583206177e-02,-2.944080233573913574e-01,-7.378109544515609741e-02,-1.686712930677458644e-04,-3.179157972335815430e-01,-1.254532337188720703e-01,-1.646294444799423218e-01,-1.722481846809387207e-02,-1.355193257331848145e-01,-2.110934406518936157e-01,1.594534665346145630e-01,-2.371657453477382660e-02,-2.226017266511917114e-01,-2.246875464916229248e-01,-1.424515098333358765e-01,-1.684164255857467651e-01,-6.183607969433069229e-03,5.391296464949846268e-03,-3.346742689609527588e-02,-4.564356803894042969e-02,3.419821858406066895e-01,-3.057397007942199707e-01,9.878952801227569580e-02,4.949519410729408264e-03,-2.933634817600250244e-01,-6.476700305938720703e-02,2.157647535204887390e-02,-1.154980063438415527e-01,5.900447815656661987e-02,1.511219143867492676e-01,-1.177749782800674438e-01,-2.835586965084075928e-01,7.667083293199539185e-02,-2.070084661245346069e-01,6.686308234930038452e-02,-9.753587096929550171e-02,1.982465833425521851e-01,-9.699620306491851807e-02,-8.168526738882064819e-02,-5.401860550045967102e-02,5.547475069761276245e-02,-1.269999593496322632e-01,2.168856188654899597e-02,2.562609910964965820e-01,-2.837836509570479393e-03,1.085644811391830444e-01,-1.531769931316375732e-01,1.736040562391281128e-01,-5.454396829009056091e-02,-6.617781706154346466e-03,-4.747907444834709167e-02,-6.260837614536285400e-02,1.108814999461174011e-01,-1.863082200288772583e-01,-9.794379025697708130e-02,5.976224690675735474e-02,1.382783148437738419e-02,1.257795840501785278e-01,-2.135169059038162231e-01,-1.922948099672794342e-02,-3.229583501815795898e-01,-8.748051524162292480e-02,1.836154907941818237e-01,1.646001823246479034e-02,1.070214733481407166e-01,-2.367838174104690552e-01,-1.156188920140266418e-01,2.593661472201347351e-02,-1.115898974239826202e-02,1.540553271770477295e-01,2.170492857694625854e-01,-7.062535732984542847e-02,1.534202247858047485e-01,-6.134565547108650208e-02,-1.650085113942623138e-02
-2.464334964752197266e-01,4.673834517598152161e-02,-1.814246922731399536e-01,-9.269062429666519165e-02,-5.971764028072357178e-02,-2.027737200260162354e-01,-9.826849400997161865e-02,5.858086943626403809e-01,8.585982024669647217e-02,-1.155272796750068665e-01,-1.964137330651283264e-02,-1.740547120571136475e-01,-1.546625047922134399e-01,2.111168503761291504e-01,1.455270498991012573e-01,-9.920668601989746094e-02,-3.095088303089141846e-01,-2.380730807781219482e-01,-4.113108292222023010e-02,1.789306700229644775e-01,1.036156117916107178e-01,-2.888801395893096924e-01,-1.313828825950622559e-01,-9.398163110017776489e-02,-4.791852831840515137e-02,7.306158542633056641e-02,-3.966909646987915039e-02,5.925139412283897400e-02,9.780567139387130737e-02,3.622802793979644775e-01,4.077879190444946289e-01,-4.770660027861595154e-02,-7.802481204271316528e-02,1.958042979240417480e-01,-4.385914653539657593e-02,-6.379717495292425156e-03,-3.990427777171134949e-02,-8.172331750392913818e-02,2.340625226497650146e-01,4.643321502953767776e-03,-1.475967317819595337e-01,-5.708682816475629807e-03,-1.720877885818481445e-01,1.010123342275619507e-01,2.127363085746765137e-01,-2.440918423235416412e-02,1.784286648035049438e-01,7.764121145009994507e-02,1.372204720973968506e-01,-1.681756548350676894e-04,-1.212860867381095886e-01,-1.853835284709930420e-01,-1.420003324747085571e-01,2.250565290451049805e-01,2.460284233093261719e-01,-2.758529782295227051e-02,3.773560281842947006e-03,1.148120164871215820e-01,1.167978942394256592e-01,-3.465104401111602783e-01,7.588418573141098022e-02,2.092965319752693176e-02,-2.736047208309173584e-01,-2.225021123886108398e-01,1.031411513686180115e-01,-2.025831639766693115e-01,2.863408029079437256e-01,-1.962668902706354856e-04,-3.984071910381317139e-01,6.718861311674118042e-02,-5.089147388935089111e-02,4.179238155484199524e-02,-1.924762874841690063e-01,-2.600716426968574524e-02,-3.124155998229980469e-01,-1.009619445540010929e-03,2.111665904521942139e-01,7.275986671447753906e-02,-1.785907149314880371e-01,7.287119328975677490e-02,-1.035380065441131592e-01,-1.853321641683578491e-01,3.565378114581108093e-02,1.434263139963150024e-01,8.192703127861022949e-02,2.052707821130752563e-01,-1.701923273503780365e-02,2.695543691515922546e-02,1.257433146238327026e-01,4.878215864300727844e-02,2.051981240510940552e-01,1.871315538883209229e-01,2.492704428732395172e-02,-2.343070358037948608e-01,1.720308363437652588e-01,1.105014048516750336e-02,6.429873406887054443e-02,1.199501901865005493e-01,1.768390387296676636e-01,-2.185532450675964355e-01,3.435245528817176819e-02,-1.304417848587036133e-01,3.005075454711914062e-02,-1.334426701068878174e-01,-3.061683475971221924e-01,-1.136110723018646240e-01,-2.058398723602294922e-01,2.102980166673660278e-01,-9.785236418247222900e-02,1.144090518355369568e-01,-8.425679802894592285e-02,7.404970377683639526e-02,-5.583083629608154297e-02,6.606807559728622437e-02,2.453525662422180176e-01,2.081903368234634399e-01,-1.219203472137451172e-01,-5.844744294881820679e-02,-1.397441327571868896e-01,3.036198765039443970e-02,1.310100555419921875e-01,-5.582800135016441345e-02,1.951947659254074097e-01,1.648031324148178101e-01,1.742234826087951660e-01,-1.599797233939170837e-02,-8.166263997554779053e-02,-1.112305298447608948e-01
2.293613702058792114e-01,7.819458842277526855e-02,1.047286242246627808e-01,-8.272034674882888794e-02,6.483763922005891800e-03,-4.065414518117904663e-02,-1.514162868261337280e-01,-5.897277593612670898e-02,-2.328414320945739746e-01,2.001507133245468140e-01,2.762214243412017822e-01,2.911592423915863037e-01,1.136401388794183731e-02,6.710738688707351685e-02,-5.172605440020561218e-02,6.777777522802352905e-02,3.056551814079284668e-01,-1.206795126199722290e-01,1.074797064065933228e-01,-9.170636534690856934e-02,-1.631995290517807007e-01,-3.193874955177307129e-01,8.319401741027832031e-02,-8.834670484066009521e-02,-1.977452486753463745e-01,-3.375507295131683350e-01,-2.365275770425796509e-01,-4.025620967149734497e-02,-3.017751574516296387e-01,1.456436663866043091e-01,3.248661458492279053e-01,-3.066449165344238281e-01,3.429414331912994385e-01,-5.544484406709671021e-02,-1.826378144323825836e-02,-7.778523117303848267e-02,2.005019187927246094e-01,1.111539304256439209e-01,-1.824885457754135132e-01,-9.224405884742736816e-02,2.531950473785400391e-01,-2.872802019119262695e-01,-1.590153127908706665e-01,9.661082923412322998e-02,6.817641854286193848e-02,-7.822509109973907471e-02,4.351974651217460632e-02,2.999607026576995850e-01,1.070071384310722351e-01,-2.683987319469451904e-01,1.669477485120296478e-02,-2.157232351601123810e-02,5.482330173254013062e-02,7.418204843997955322e-02,6.915285438299179077e-02,-1.327144056558609009e-01,7.699805311858654022e-03,-2.991162240505218506e-01,2.324814721941947937e-02,-9.080573916435241699e-02,2.775647044181823730e-01,-3.561864495277404785e-01,-2.383197285234928131e-02,4.088826477527618408e-02,-1.074372753500938416e-01,-1.196317002177238464e-01,2.040719240903854370e-01,-2.396750450134277344e-02,1.393168978393077850e-02,3.461273014545440674e-02,1.988242939114570618e-02,-7.728758454322814941e-02,-2.187872231006622314e-01,-1.086028590798377991e-01,-4.305072128772735596e-03,7.243671268224716187e-02,1.816688328981399536e-01,3.910325095057487488e-02,1.422186940908432007e-02,5.344974622130393982e-02,1.975961476564407349e-01,-1.107394248247146606e-01,-6.525081396102905273e-02,-1.497103087604045868e-02,2.142375856637954712e-01,-3.813939690589904785e-01,1.397624909877777100e-01,1.246803998947143555e-01,-5.442228913307189941e-02,-2.052883803844451904e-01,-8.656618744134902954e-02,-6.658711284399032593e-02,8.977133035659790039e-02,-2.392446398735046387e-01,3.821941316127777100e-01,-3.313248604536056519e-02,1.003931686282157898e-01,7.666533440351486206e-02,-6.111565604805946350e-02,-2.198590040206909180e-01,-2.501083910465240479e-01,-1.791328489780426025e-01,2.529211156070232391e-02,7.540773600339889526e-02,8.743485808372497559e-02,-9.093233942985534668e-02,-1.585455238819122314e-02,2.081798166036605835e-01,-2.210666835308074951e-01,1.482067704200744629e-01,-2.231250889599323273e-02,-5.852066725492477417e-02,4.017289727926254272e-02,-1.978098228573799133e-02,2.977946400642395020e-01,-1.935311257839202881e-01,-1.705174744129180908e-01,2.665093541145324707e-01,1.321955621242523193e-01,-3.754719197750091553e-01,1.869494616985321045e-01,-3.014834970235824585e-02,2.456551045179367065e-01,-2.303122729063034058e-01,7.375767827033996582e-02,1.074951812624931335e-01,-4.015973210334777832e-02,1.236913353204727173e-01
-1.373323053121566772e-01,1.157243028283119202e-01,-8.131854236125946045e-02,-2.058838307857513428e-02,-1.217370703816413879e-01,-9.789158403873443604e-02,-8.523022383451461792e-02,1.227789372205734253e-01,-7.362629473209381104e-02,-1.166435629129409790e-01,-4.881661012768745422e-02,-6.231496855616569519e-02,-3.848856687545776367e-02,-7.978208363056182861e-02,2.932479605078697205e-02,-5.045634135603904724e-02,-1.176693141460418701e-01,6.947077065706253052e-02,8.582205325365066528e-02,-3.397176265716552734e-01,7.268435508012771606e-02,2.088154852390289307e-01,-1.375676691532135010e-02,-8.555950969457626343e-02,5.995647236704826355e-02,-1.058801114559173584e-01,-7.943218946456909180e-02,-6.710610538721084595e-02,1.245098114013671875e-01,-2.316520176827907562e-02,7.318789511919021606e-02,1.173026743344962597e-03,2.071079015731811523e-01,2.423360049724578857e-01,7.623726502060890198e-03,8.382010459899902344e-02,7.477714866399765015e-02,1.865988671779632568e-01,-5.855310335755348206e-02,-6.941983848810195923e-02,1.118057146668434143e-01,2.078306116163730621e-02,1.753426790237426758e-01,2.015618979930877686e-01,2.131139636039733887e-01,7.947995513677597046e-02,-1.797800511121749878e-01,2.856127545237541199e-02,-4.594961926341056824e-02,4.815402626991271973e-02,1.006602272391319275e-01,4.545903205871582031e-02,2.608062932267785072e-03,-1.770538836717605591e-01,-7.698669284582138062e-02,-7.767665386199951172e-02,-2.044588625431060791e-01,-2.010733187198638916e-01,2.770123817026615143e-02,1.615680009126663208e-02,-2.888208068907260895e-02,7.545289397239685059e-02,7.103679818101227283e-04,7.601319998502731323e-02,-1.132017299532890320e-01,-1.495095342397689819e-02,-2.687901072204113007e-02,-2.349675633013248444e-02,-2.873361669480800629e-02,6.165144219994544983e-02,2.573601529002189636e-02,-1.865648925304412842e-01,-4.896470308303833008e-01,-1.074359752237796783e-02,3.282063454389572144e-02,2.202033996582031250e-02,-3.942390158772468567e-02,-8.635716885328292847e-02,1.576221734285354614e-01,1.641902774572372437e-01,-2.429981529712677002e-01,-2.489264123141765594e-02,2.720278874039649963e-02,-3.546580672264099121e-02,-2.693276405334472656e-01,5.215079337358474731e-02,-3.406374529004096985e-02,-2.815203927457332611e-02,-4.499690830707550049e-01,1.598072201013565063e-01,-2.617966830730438232e-01,-1.803127080202102661e-01,1.834457963705062866e-01,-4.351176917552947998e-01,1.500916182994842529e-01,5.779694393277168274e-02,5.194856226444244385e-02,-5.094588547945022583e-02,-1.534117609262466431e-01,1.715701073408126831e-01,2.288683056831359863e-01,-5.291868746280670166e-02,-2.066735774278640747e-01,-5.907796323299407959e-02,-1.507359445095062256e-01,-1.162395030260086060e-01,-1.290287822484970093e-01,-1.887416541576385498e-01,3.568054139614105225e-01,6.806822121143341064e-02,-1.168648004531860352e-01,3.658780083060264587e-02,-2.734288014471530914e-02,2.888458408415317535e-02,-6.050605326890945435e-02,1.294442117214202881e-01,4.946248233318328857e-02,-1.117573827505111694e-01,-7.791909575462341309e-02,1.269840747117996216e-01,6.543710827827453613e-02,1.713200286030769348e-02,-1.443772017955780029e-02,-1.734887212514877319e-01,1.404251009225845337e-01,-6.687947362661361694e-02,4.141903296113014221e-02,4.036175087094306946e-02
-6.899736821651458740e-02,1.574519090354442596e-02,-9.973023086786270142e-02,-3.151901438832283020e-02,1.184293925762176514e-01,6.599457561969757080e-02,1.654646843671798706e-01,3.849192336201667786e-02,-4.361497983336448669e-02,-1.032427921891212463e-01,8.664088696241378784e-02,3.240853920578956604e-02,1.615041047334671021e-01,-4.165471345186233521e-02,-1.337167024612426758e-01,2.740605175495147705e-02,4.042086750268936157e-02,2.643764577805995941e-02,-1.806002557277679443e-01,1.719905138015747070e-01,1.599658280611038208e-01,-3.493135422468185425e-02,1.198118031024932861e-01,-1.500688344240188599e-01,6.647735089063644409e-02,-1.328053474426269531e-01,-2.737112715840339661e-02,1.043478772044181824e-01,-1.426988691091537476e-01,1.021858751773834229e-01,-2.383698523044586182e-02,9.718964993953704834e-02,-1.612217426300048828e-01,-7.228498905897140503e-02,-1.253114640712738037e-01,2.577713690698146820e-02,1.054818928241729736e-01,-5.679328739643096924e-02,3.315827995538711548e-02,5.909730494022369385e-02,-2.064491361379623413e-01,-8.897903375327587128e-03,7.246500998735427856e-02,1.100897416472434998e-02,-2.653924562036991119e-02,-2.160469815135002136e-02,-1.370282173156738281e-01,3.534219413995742798e-02,-2.234850227832794189e-01,3.998024389147758484e-02,-1.069766841828823090e-02,1.084537431597709656e-01,2.907286286354064941e-01,1.242770925164222717e-01,8.315733820199966431e-02,3.001575171947479248e-01,1.469372063875198364e-01,-4.471607878804206848e-02,2.107270658016204834e-01,2.390610985457897186e-02,-2.482344768941402435e-02,-9.856703132390975952e-02,1.119760349392890930e-01,-1.192628443241119385e-01,2.293606987223029137e-03,-2.943841516971588135e-01,-1.808005422353744507e-01,2.912761270999908447e-02,-5.089714005589485168e-02,7.456258684396743774e-02,-1.851154863834381104e-01,1.109166964888572693e-01,-2.547981590032577515e-02,1.153604909777641296e-01,2.919724211096763611e-02,-7.572110742330551147e-02,-1.545967757701873779e-01,-1.729976385831832886e-01,-9.955683350563049316e-02,4.717203602194786072e-02,5.286901444196701050e-02,6.271272152662277222e-02,-3.003854155540466309e-01,5.730309337377548218e-02,1.438725441694259644e-01,-1.173220649361610413e-01,2.726106345653533936e-01,8.635755628347396851e-02,1.815473437309265137e-01,-9.723042696714401245e-02,-9.314161539077758789e-02,-2.623249962925910950e-02,8.026986569166183472e-02,-9.706790000200271606e-02,2.205396741628646851e-01,6.635580956935882568e-02,-6.725302338600158691e-02,1.119751036167144775e-01,1.395148336887359619e-01,1.178455352783203125e-01,-8.771774917840957642e-02,6.145340949296951294e-02,-8.317872136831283569e-02,-5.958475172519683838e-03,-1.014218851923942566e-01,-1.155787240713834763e-02,1.692770570516586304e-01,1.436025798320770264e-01,-1.174193322658538818e-01,2.756996452808380127e-01,-2.512032389640808105e-01,-1.368570774793624878e-01,3.106233179569244385e-01,-1.348094791173934937e-01,3.118348717689514160e-01,1.268546283245086670e-01,-1.184035316109657288e-01,1.099483668804168701e-01,3.025963157415390015e-02,-3.585192188620567322e-02,-5.733687803149223328e-02,2.540834546089172363e-01,-1.122390925884246826e-01,2.339105457067489624e-01,1.222502589225769043e-01,-6.465737521648406982e-02,8.229485154151916504e-02,1.843637079000473022e-01
3.972257953137159348e-03,-1.489016264677047729e-01,-1.207521036267280579e-01,9.799916297197341919e-02,-1.803749240934848785e-02,1.663161665201187134e-01,-9.949677437543869019e-02,-4.063207283616065979e-02,-1.478464528918266296e-02,4.314477741718292236e-02,-1.465160027146339417e-02,3.120747208595275879e-02,1.179114952683448792e-01,6.606338173151016235e-02,2.149236947298049927e-01,-4.521667491644620895e-03,-1.358975172042846680e-01,-4.690460115671157837e-02,-2.667002379894256592e-01,-1.448913663625717163e-01,1.301908772438764572e-02,-1.273286342620849609e-01,1.959547586739063263e-02,-9.629373997449874878e-02,1.823394000530242920e-02,-3.757078945636749268e-01,8.700376749038696289e-02,7.993975281715393066e-02,5.768770352005958557e-02,-1.095282360911369324e-01,5.598508194088935852e-02,-1.551877856254577637e-01,-6.654500216245651245e-02,-3.914393018931150436e-03,2.910329774022102356e-02,-1.061137095093727112e-01,-1.219389066100120544e-01,2.561967261135578156e-02,1.612785905599594116e-01,1.198988109827041626e-01,1.524468511343002319e-02,8.856543898582458496e-02,1.176063045859336853e-01,2.985458076000213623e-01,1.267399489879608154e-01,1.602954231202602386e-02,8.256275951862335205e-02,5.401610396802425385e-03,-1.697227060794830322e-01,-1.915286630392074585e-01,1.007974222302436829e-01,1.654658466577529907e-01,1.356843393296003342e-02,-2.037094384431838989e-01,-1.542411744594573975e-01,-1.862143166363239288e-02,1.548496037721633911e-01,-8.045634627342224121e-02,-2.358519658446311951e-02,1.214995384216308594e-01,1.050523817539215088e-01,-8.346046507358551025e-02,3.802132850978523493e-04,3.335772315040230751e-03,2.523275017738342285e-01,1.318157017230987549e-01,-4.959947429597377777e-03,7.341136038303375244e-02,8.765244483947753906e-02,9.469605237245559692e-02,-2.403877675533294678e-01,8.384837955236434937e-02,2.556636929512023926e-02,2.540594935417175293e-01,1.230520606040954590e-01,2.386345714330673218e-01,-1.209235563874244690e-01,3.629914298653602600e-02,-1.393485218286514282e-01,7.284324616193771362e-02,1.497946977615356445e-01,-5.076576024293899536e-02,2.182981520891189575e-01,-1.153755336999893188e-01,-2.048867940902709961e-01,-4.019335657358169556e-02,-1.477222740650177002e-01,-2.535974979400634766e-01,8.637419342994689941e-02,3.163613379001617432e-01,-1.727721244096755981e-01,1.578103303909301758e-01,-1.207361370325088501e-01,3.048698604106903076e-01,-5.797839257866144180e-03,-4.223471134901046753e-02,-1.062322854995727539e-01,1.036403998732566833e-01,-2.197864800691604614e-01,-1.373708397150039673e-01,1.917622424662113190e-02,-1.452308446168899536e-01,2.807980962097644806e-02,-2.252345681190490723e-01,-1.583507359027862549e-01,3.133362531661987305e-02,-5.174221843481063843e-02,-1.646825820207595825e-01,-1.964940130710601807e-01,7.773921638727188110e-02,8.436946570873260498e-02,-6.764742545783519745e-03,-1.574473232030868530e-01,-2.077314257621765137e-01,-8.932368457317352295e-02,1.251772195100784302e-01,-9.735208749771118164e-02,9.137624502182006836e-02,2.940855361521244049e-02,2.665379270911216736e-02,-1.781397908926010132e-01,-5.857718363404273987e-02,-1.186045585200190544e-03,1.340458542108535767e-01,-8.261011540889739990e-02,-6.981848925352096558e-02,-1.109283417463302612e-01,4.441214352846145630e-02
-1.000504195690155029e-01,7.621204946190118790e-03,7.321603596210479736e-02,1.934699565172195435e-01,-1.104358062148094177e-01,-1.950037628412246704e-01,-2.154612988233566284e-01,3.820294979959726334e-03,1.014543231576681137e-02,7.481626421213150024e-02,-1.447104364633560181e-01,2.032080851495265961e-02,-4.425139632076025009e-03,-2.347206473350524902e-01,-7.956378161907196045e-02,2.189085334539413452e-01,1.177923101931810379e-02,-3.633501008152961731e-02,1.506085507571697235e-02,2.124913632869720459e-01,-3.466100990772247314e-01,-2.567355930805206299e-01,-1.486083213239908218e-02,9.981927275657653809e-02,4.124379158020019531e-01,2.422315478324890137e-01,-1.426254957914352417e-01,6.753585487604141235e-02,-1.066100075840950012e-01,-9.435958415269851685e-02,-1.320636421442031860e-01,-5.358543246984481812e-03,5.945748463273048401e-02,-8.401613682508468628e-02,-7.308088243007659912e-02,-5.524724721908569336e-02,5.707182362675666809e-02,-3.394713625311851501e-02,3.134011626243591309e-01,-2.663517184555530548e-02,-2.226608544588088989e-01,1.173900365829467773e-01,-2.153311669826507568e-01,-3.105309419333934784e-02,8.182623423635959625e-03,1.357794404029846191e-01,-1.493220925331115723e-01,1.046341210603713989e-01,-8.372369408607482910e-02,-1.551212966442108154e-01,4.075199365615844727e-02,1.440338492393493652e-01,-2.745737135410308838e-01,-4.926253110170364380e-02,-1.662414222955703735e-01,1.562153697013854980e-01,7.220309972763061523e-02,-1.081573963165283203e-01,-4.104947298765182495e-02,1.563900709152221680e-01,3.076128289103507996e-02,1.283386945724487305e-01,1.287600100040435791e-01,3.692260757088661194e-02,-3.494059741497039795e-01,1.936724931001663208e-01,3.189570829272270203e-02,9.004335105419158936e-02,-1.854060776531696320e-02,-3.725826367735862732e-02,-3.005814552307128906e-01,5.254356563091278076e-02,-1.171812936663627625e-01,-1.713728308677673340e-01,-1.342606637626886368e-02,9.524182230234146118e-02,3.296509757637977600e-02,-2.132529616355895996e-01,-7.843889296054840088e-02,1.596094109117984772e-02,1.806806921958923340e-01,-1.687968671321868896e-01,2.108414918184280396e-01,-3.690148890018463135e-02,5.353458598256111145e-02,-1.781645715236663818e-01,2.387343645095825195e-01,7.385123521089553833e-02,-1.671882532536983490e-02,1.148397549986839294e-01,9.219732135534286499e-02,5.825271084904670715e-02,-1.790372878313064575e-01,6.950699537992477417e-02,5.067504942417144775e-02,-1.590756922960281372e-01,-1.033639237284660339e-01,2.255072146654129028e-01,7.818102836608886719e-02,6.671441346406936646e-02,-2.069983631372451782e-02,-8.399213850498199463e-02,-4.463211447000503540e-02,7.184283435344696045e-02,2.255379259586334229e-01,6.409348547458648682e-02,-3.171142190694808960e-02,-4.245915412902832031e-01,-4.979271814227104187e-02,7.000910490751266479e-02,2.663510851562023163e-02,1.381313055753707886e-01,6.061199679970741272e-02,-3.172255754470825195e-01,-1.207870617508888245e-01,-2.763712704181671143e-01,-1.676463149487972260e-02,2.184107750654220581e-01,7.347010821104049683e-02,5.347033962607383728e-02,-1.944240927696228027e-01,3.247329294681549072e-01,4.390679299831390381e-03,-1.753561347723007202e-01,1.375741660594940186e-01,-7.998571544885635376e-02,2.793451547622680664e-01,1.196961477398872375e-01
6.582577526569366455e-02,1.513095498085021973e-01,5.789767485111951828e-03,-3.734740242362022400e-02,-3.916451707482337952e-02,1.161907892674207687e-02,3.201594054698944092e-01,-1.741770654916763306e-02,-5.791366100311279297e-02,1.460657920688390732e-02,-1.122664138674736023e-01,7.418286055326461792e-02,6.387349218130111694e-02,1.493249386548995972e-01,5.097295716404914856e-02,-1.392225176095962524e-01,-6.570038199424743652e-02,7.873284071683883667e-02,-1.640905886888504028e-01,-2.099263295531272888e-02,7.895810902118682861e-02,4.694510996341705322e-02,-2.673628330230712891e-01,-8.806210942566394806e-03,-4.302183166146278381e-02,-4.755555465817451477e-02,-1.810414940118789673e-01,-5.879524350166320801e-02,-4.651107639074325562e-02,1.214091852307319641e-01,9.315278381109237671e-02,1.877138465642929077e-01,1.438596248626708984e-01,-2.594053447246551514e-01,-1.540284603834152222e-02,9.214601665735244751e-02,9.344128519296646118e-02,9.146706759929656982e-02,-1.016893014311790466e-01,-9.523910284042358398e-02,-5.329014733433723450e-02,-7.898606359958648682e-02,-1.496702432632446289e-01,-1.431798655539751053e-02,-6.360494066029787064e-03,3.095472455024719238e-01,-1.960894316434860229e-01,-8.803918957710266113e-02,1.095526441931724548e-01,-3.142251968383789062e-01,-3.347930908203125000e-01,1.571358144283294678e-01,5.992943793535232544e-02,1.989922299981117249e-02,5.069603770971298218e-02,-3.712591826915740967e-01,1.194602847099304199e-01,2.248336561024188995e-03,2.568039000034332275e-01,1.310627758502960205e-01,1.153881400823593140e-01,2.506264150142669678e-01,-3.657335788011550903e-02,9.461414813995361328e-02,-1.108620464801788330e-01,-1.767618348821997643e-03,1.487713754177093506e-01,-9.355852752923965454e-02,1.300685480237007141e-02,1.395165771245956421e-01,-1.940946131944656372e-01,-1.332735083997249603e-02,9.766416251659393311e-02,3.390136957168579102e-01,-9.701826423406600952e-02,-5.720873177051544189e-02,-1.134598702192306519e-01,9.546086192131042480e-02,-1.919165253639221191e-01,-6.449331343173980713e-02,6.396798789501190186e-02,4.834728315472602844e-02,-1.011900380253791809e-01,8.839703164994716644e-03,7.738294452428817749e-02,7.179682701826095581e-02,-1.154304668307304382e-01,2.619156986474990845e-02,9.755588322877883911e-02,4.846957325935363770e-02,1.001698896288871765e-01,-8.497755974531173706e-03,3.028945326805114746e-01,2.372060418128967285e-01,-1.348310410976409912e-01,-1.388114988803863525e-01,1.853758692741394043e-01,4.364395886659622192e-02,1.547490525990724564e-02,1.083642616868019104e-01,-4.376157373189926147e-02,2.749080955982208252e-01,1.881328970193862915e-01,-2.170454263687133789e-01,4.787782952189445496e-02,1.188304722309112549e-01,-2.791646867990493774e-02,7.344636321067810059e-02,1.047911960631608963e-02,-5.067379400134086609e-02,-1.158116012811660767e-01,-8.996882475912570953e-03,-9.604160673916339874e-03,-1.896117255091667175e-02,-9.516670554876327515e-02,-1.156970113515853882e-01,4.586390778422355652e-02,5.936907231807708740e-02,-2.744796499609947205e-02,6.077522411942481995e-02,2.320408672094345093e-01,-3.557006129994988441e-03,-3.078256361186504364e-02,-1.120951771736145020e-01,-8.498580753803253174e-02,2.047982066869735718e-01,-1.895267702639102936e-02,-5.627385526895523071e-02
-1.619790345430374146e-01,1.703713238239288330e-01,1.083200201392173767e-01,1.153685431927442551e-02,-2.224300056695938110e-02,1.540427953004837036e-01,1.854354701936244965e-02,-6.096619367599487305e-02,-2.388908267021179199e-01,-5.134485661983489990e-02,7.173687219619750977e-02,-1.337345689535140991e-01,4.418614506721496582e-02,-3.394574671983718872e-02,6.381927430629730225e-02,-5.498708784580230713e-02,2.529394440352916718e-02,2.567358314990997314e-02,1.153735443949699402e-01,1.066426709294319153e-01,-1.050324589014053345e-01,-8.954139053821563721e-02,-1.103502139449119568e-01,2.424286007881164551e-01,3.840516321361064911e-03,7.732991874217987061e-02,7.447700202465057373e-02,-1.684143207967281342e-02,-5.055940523743629456e-02,-1.395751605741679668e-03,5.882635340094566345e-02,1.674921810626983643e-01,2.601948976516723633e-01,1.201941724866628647e-02,9.787384420633316040e-02,2.415122985839843750e-01,2.653234302997589111e-01,-4.744654055684804916e-03,-1.004788950085639954e-01,8.169252425432205200e-02,2.260393947362899780e-01,1.139755174517631531e-01,-6.410233676433563232e-02,-1.344221085309982300e-01,-8.935815840959548950e-02,-1.153469756245613098e-01,9.183059632778167725e-02,8.429208770394325256e-03,1.033412590622901917e-01,-1.879060827195644379e-02,3.304725587368011475e-01,-2.680240385234355927e-02,5.939320102334022522e-02,-8.304991573095321655e-02,-4.710169881582260132e-02,1.334705352783203125e-01,-4.529305920004844666e-02,1.540254503488540649e-01,1.054698750376701355e-01,-5.156523361802101135e-02,-8.670571446418762207e-02,-3.679029759950935841e-04,5.125382170081138611e-02,-1.032273545861244202e-01,-8.168046921491622925e-02,-1.514041125774383545e-01,-4.944287240505218506e-02,3.637569397687911987e-02,1.631770096719264984e-02,-7.877619937062263489e-03,-1.191560402512550354e-01,1.097856163978576660e-01,2.539773657917976379e-02,-8.642739802598953247e-02,-4.185898602008819580e-02,-1.022624000906944275e-01,-9.870745986700057983e-02,9.469419717788696289e-02,2.332534790039062500e-01,-6.840978562831878662e-02,1.844566166400909424e-01,-2.087885886430740356e-01,1.404096782207489014e-01,1.654968112707138062e-01,-7.226049900054931641e-02,-3.527439758181571960e-02,-4.054629430174827576e-02,7.675699889659881592e-02,-5.386329442262649536e-02,-1.730929017066955566e-01,-2.288296222686767578e-01,7.173381745815277100e-02,-1.773132830858230591e-01,6.459231674671173096e-02,-1.860319823026657104e-01,-1.732281595468521118e-01,-4.123355902265757322e-04,1.717127859592437744e-01,1.752752959728240967e-01,-2.999957799911499023e-01,1.036542803049087524e-01,9.245631843805313110e-02,-1.148146539926528931e-01,1.862282119691371918e-02,-2.115239053964614868e-01,2.510351128876209259e-02,4.429817572236061096e-02,7.128913886845111847e-03,1.489913370460271835e-02,-1.310510933399200439e-01,-4.849598556756973267e-02,1.582898572087287903e-02,1.549458503723144531e-02,1.389767322689294815e-02,-9.457405656576156616e-02,1.110989674925804138e-01,5.631289631128311157e-02,-1.566336452960968018e-01,4.214039444923400879e-02,1.983000785112380981e-01,1.581222116947174072e-01,8.103599399328231812e-02,-1.447111517190933228e-01,2.690783701837062836e-02,4.567303135991096497e-02,-7.770606875419616699e-02,-5.132718011736869812e-02,6.008052825927734375e-02
2.402256727218627930e-01,4.962953925132751465e-02,-2.098683118820190430e-01,-1.877009309828281403e-02,-1.404410898685455322e-01,-2.506263554096221924e-01,3.990502953529357910e-01,2.255078256130218506e-01,-2.399450400844216347e-03,1.124923899769783020e-01,-1.227822527289390564e-02,7.996338605880737305e-02,-1.533193737268447876e-01,-2.033416181802749634e-01,3.608825057744979858e-02,9.374266862869262695e-02,-5.088116228580474854e-02,1.319148391485214233e-01,-9.787030518054962158e-02,1.495624482631683350e-01,2.921776473522186279e-02,-8.752989768981933594e-02,4.210479930043220520e-02,2.879546582698822021e-01,-3.113245069980621338e-01,-1.351445317268371582e-01,2.329179272055625916e-02,-8.285412192344665527e-02,2.062793970108032227e-01,1.085419282317161560e-01,9.375498443841934204e-02,-1.378336250782012939e-01,5.798534303903579712e-02,-9.823214262723922729e-02,-1.923787146806716919e-01,-5.416605249047279358e-02,1.259904950857162476e-01,3.058305941522121429e-02,-6.169505789875984192e-02,1.900485008955001831e-01,-2.489042431116104126e-01,-9.199431538581848145e-02,-6.023903191089630127e-02,7.440089434385299683e-02,4.384159743785858154e-01,8.354218304157257080e-02,-6.584674119949340820e-02,-2.993087172508239746e-01,1.431933194398880005e-01,8.732741698622703552e-03,7.184938527643680573e-03,-5.739438161253929138e-02,1.017113551497459412e-01,-1.271125525236129761e-01,-3.602573871612548828e-01,3.002769947052001953e-01,-1.690916419029235840e-01,1.790756434202194214e-01,2.205347083508968353e-02,1.561548933386802673e-02,3.975726291537284851e-02,-1.512354165315628052e-01,2.284775823354721069e-01,5.157123133540153503e-02,3.545351093634963036e-03,-1.454482674598693848e-01,-2.024846076965332031e-01,-4.029649496078491211e-02,3.657250106334686279e-01,8.558049798011779785e-03,-3.525434527546167374e-03,1.671779900789260864e-01,2.417864799499511719e-01,-2.287960797548294067e-01,-2.070230692625045776e-01,1.274241507053375244e-02,4.683015868067741394e-02,-2.854274511337280273e-01,-1.129206642508506775e-02,-2.643254995346069336e-01,-1.339299827814102173e-01,3.847205778583884239e-03,-1.159166097640991211e-01,6.103883311152458191e-02,-1.803190261125564575e-01,-4.826075164601206779e-04,-2.217365503311157227e-01,-1.177571266889572144e-01,-3.195270523428916931e-02,5.325398966670036316e-02,-3.250654041767120361e-02,1.254180967807769775e-01,-2.279785461723804474e-02,-1.024222150444984436e-01,-2.037886530160903931e-01,1.197128593921661377e-01,1.064615994691848755e-01,-3.282629325985908508e-02,-7.938306033611297607e-02,2.099670469760894775e-01,-1.107559353113174438e-01,-1.142245531082153320e-01,-3.767678886651992798e-02,7.525262981653213501e-02,-2.908219955861568451e-02,8.411540836095809937e-02,-1.388691663742065430e-01,-1.442290693521499634e-01,3.382561728358268738e-02,-1.577041894197463989e-01,-2.928802967071533203e-01,2.852730453014373779e-01,1.096104383468627930e-01,-1.989819481968879700e-02,2.527127265930175781e-01,-2.647931873798370361e-01,-1.527737975120544434e-01,-1.427085101604461670e-01,-6.398673355579376221e-02,-2.840795181691646576e-02,-1.701466888189315796e-01,7.967883348464965820e-02,1.363384276628494263e-01,3.523077815771102905e-02,8.884595334529876709e-02,7.688992470502853394e-02,9.026096761226654053e-02,3.337271809577941895e-01
7.578269392251968384e-02,-5.252583324909210205e-02,4.174334928393363953e-03,2.766964770853519440e-02,2.083985507488250732e-01,-4.721955955028533936e-02,-2.124597430229187012e-01,-1.405178457498550415e-01,1.345212608575820923e-01,-1.512203663587570190e-01,-8.729756623506546021e-02,-2.431374192237854004e-01,1.297944188117980957e-01,1.250669509172439575e-01,-2.459898404777050018e-02,1.863155066967010498e-01,2.482919991016387939e-01,-2.883254289627075195e-01,-6.652134656906127930e-02,-1.868999153375625610e-01,-7.757505029439926147e-02,6.403309851884841919e-02,1.317695677280426025e-01,3.273279368877410889e-01,-2.809982895851135254e-01,-9.138643741607666016e-02,-7.364472001791000366e-02,2.106009423732757568e-02,8.057875931262969971e-02,6.894312333315610886e-03,1.713866554200649261e-02,-1.789710521697998047e-01,6.035151705145835876e-02,-1.253250539302825928e-01,-2.020786255598068237e-01,6.384638696908950806e-02,8.881731446308549494e-06,1.881825476884841919e-01,-1.655446290969848633e-01,9.932510554790496826e-03,-6.923373788595199585e-02,1.582353115081787109e-01,1.141417771577835083e-01,1.002731621265411377e-01,1.102908700704574585e-01,-5.788404867053031921e-02,-4.723810032010078430e-02,4.892231523990631104e-02,1.715001612901687622e-01,1.643957346677780151e-01,-3.550434857606887817e-02,3.344969153404235840e-01,-9.705328941345214844e-02,5.114995688199996948e-02,9.192907810211181641e-02,1.827176809310913086e-01,-6.158971786499023438e-02,-2.389304898679256439e-02,2.382906824350357056e-01,4.699725250247865915e-04,-7.333780825138092041e-02,-1.049773395061492920e-01,9.858757257461547852e-02,1.453907936811447144e-01,1.375212073326110840e-01,-7.598366588354110718e-02,9.276306629180908203e-02,-1.416708528995513916e-01,-2.007257193326950073e-01,2.590287625789642334e-01,-5.534222349524497986e-03,-4.443356301635503769e-03,-2.954530343413352966e-02,3.049506247043609619e-01,-9.317640215158462524e-02,2.387239038944244385e-02,-1.985905915498733521e-01,-4.881015047430992126e-04,-1.953781694173812866e-01,-2.736070454120635986e-01,-1.122183799743652344e-01,-2.121106348931789398e-02,-1.497995108366012573e-01,-1.232203841209411621e-01,2.080617994070053101e-01,-3.476268053054809570e-02,5.880857352167367935e-03,-1.836078912019729614e-01,1.300252135843038559e-02,-5.528446659445762634e-02,7.909458875656127930e-02,-4.277201741933822632e-02,-1.295154243707656860e-01,-1.801092475652694702e-01,1.211281940340995789e-01,3.592548891901969910e-02,-9.108529239892959595e-02,-1.180948242545127869e-01,1.408436000347137451e-01,-1.690694876015186310e-02,1.640562117099761963e-01,-1.093565523624420166e-01,-1.115957200527191162e-01,-7.490666210651397705e-02,2.485940605401992798e-01,-7.651067525148391724e-02,4.180844500660896301e-02,-3.488380089402198792e-02,1.755011081695556641e-01,-9.086942672729492188e-02,-1.144818216562271118e-02,-1.030002832412719727e-01,-2.183438837528228760e-02,-1.366178970783948898e-02,-2.855344116687774658e-01,1.251566708087921143e-01,3.441175445914268494e-02,-2.736894786357879639e-02,2.781292609870433807e-02,-1.872890745289623737e-03,-8.932779729366302490e-02,5.275720730423927307e-02,-5.179800093173980713e-02,-6.287037581205368042e-02,2.231229692697525024e-01,1.147266328334808350e-01,-6.908876821398735046e-04,-3.446631133556365967e-01
5.205429717898368835e-02,3.395067527890205383e-02,-1.076922789216041565e-01,-1.059320643544197083e-01,-2.507348954677581787e-01,9.387467801570892334e-02,3.790161013603210449e-01,-2.114795297384262085e-01,1.452896595001220703e-01,3.645645081996917725e-02,-1.322218775749206543e-01,-6.829167157411575317e-02,-7.578982412815093994e-02,-1.179679781198501587e-01,8.809906989336013794e-02,-2.192581295967102051e-01,-1.359218657016754150e-01,-8.003484457731246948e-02,-7.515826076269149780e-02,5.330397561192512512e-02,-1.311099082231521606e-01,-1.060422323644161224e-02,2.324750646948814392e-02,5.647826194763183594e-02,-2.592648565769195557e-01,1.125363260507583618e-01,2.064853310585021973e-01,-5.249529331922531128e-02,-1.324080526828765869e-01,-1.164898425340652466e-01,1.770077645778656006e-01,-1.053029447793960571e-01,-7.343441713601350784e-03,-1.393699739128351212e-02,-4.098394140601158142e-02,-4.548812806606292725e-01,-3.901596879586577415e-03,2.932110726833343506e-01,-2.208955287933349609e-01,7.668972760438919067e-02,3.240124285221099854e-01,-1.381886452436447144e-01,-2.161742597818374634e-01,1.921913027763366699e-01,-1.965022385120391846e-01,-1.385432034730911255e-01,-2.008510008454322815e-02,-1.688523590564727783e-01,2.046641111373901367e-01,3.519752621650695801e-02,8.275794982910156250e-02,-1.744396984577178955e-01,-3.555128276348114014e-01,-4.527392983436584473e-02,-1.443409472703933716e-01,-6.984469294548034668e-02,2.288790345191955566e-01,-1.182068511843681335e-01,-1.976990886032581329e-02,2.144553512334823608e-01,2.144359052181243896e-02,-7.216396927833557129e-02,2.929818332195281982e-01,-1.943369805812835693e-01,-2.100889831781387329e-01,1.450777947902679443e-01,-6.875485926866531372e-02,-8.795025199651718140e-02,-2.503277957439422607e-01,2.164857536554336548e-01,-6.900898367166519165e-02,-1.439694166183471680e-01,1.688010543584823608e-01,-8.175084739923477173e-02,-9.024395048618316650e-02,-5.088024586439132690e-02,-1.791697442531585693e-01,1.063472628593444824e-01,-2.720692753791809082e-01,3.041528910398483276e-02,-2.221906334161758423e-01,1.678890287876129150e-01,-3.486197814345359802e-02,-1.279547903686761856e-02,-1.241090428084135056e-02,2.053945511579513550e-01,2.875413298606872559e-01,1.613015830516815186e-01,-1.987731605768203735e-01,1.277525126934051514e-01,-2.419695109128952026e-01,-1.296803951263427734e-01,-1.094479039311408997e-01,-5.003032740205526352e-03,-5.898989364504814148e-02,-9.592142701148986816e-02,-6.086685881018638611e-02,-4.068965092301368713e-02,-2.133775316178798676e-02,-2.319111227989196777e-01,-1.228584647178649902e-01,-4.054331034421920776e-02,1.224786713719367981e-01,1.987592503428459167e-02,4.985078796744346619e-02,1.089600846171379089e-01,8.879573643207550049e-02,2.787326574325561523e-01,6.352446973323822021e-02,-1.160622388124465942e-01,2.646296285092830658e-02,-2.858243696391582489e-02,1.887125819921493530e-01,3.839284181594848633e-01,-1.056728959083557129e-01,-1.212279945611953735e-01,1.957852542400360107e-01,9.949770569801330566e-02,6.537640839815139771e-02,3.738405928015708923e-02,1.433027833700180054e-01,-7.920945435762405396e-02,3.349075093865394592e-02,3.941516391932964325e-03,5.358399823307991028e-03,-1.222368106245994568e-01,-6.073711067438125610e-02,-2.436723113059997559e-01
1.024939003400504589e-03,-1.018919274210929871e-01,-8.995804935693740845e-02,-7.965102791786193848e-02,3.218439817428588867e-01,-2.466281130909919739e-02,1.746565103530883789e-01,7.287236396223306656e-03,2.075792253017425537e-01,-2.137423008680343628e-01,-2.161043137311935425e-01,4.015226289629936218e-02,2.024843543767929077e-01,-1.409938484430313110e-01,1.427371203899383545e-01,-1.053649783134460449e-01,-1.970397494733333588e-02,1.349901407957077026e-01,-4.524831473827362061e-02,-7.284900546073913574e-02,-1.434930413961410522e-01,-1.266442239284515381e-01,3.577162027359008789e-01,-1.823624670505523682e-01,-1.988513916730880737e-01,-1.827128827571868896e-01,-2.802745811641216278e-02,1.370867192745208740e-01,-1.355540305376052856e-01,3.336083889007568359e-02,1.041243523359298706e-01,2.318341881036758423e-01,2.127330154180526733e-01,1.333400309085845947e-01,-1.788913309574127197e-01,-7.092428207397460938e-02,-1.526259183883666992e-01,2.891889028251171112e-02,-2.068232744932174683e-01,2.022600919008255005e-02,-6.867215037345886230e-02,1.745474934577941895e-01,-6.174101494252681732e-03,5.041303858160972595e-02,-1.151171699166297913e-01,-8.169202134013175964e-03,1.551628950983285904e-02,5.253040418028831482e-02,1.774127632379531860e-01,6.154792383313179016e-02,9.671025723218917847e-02,-8.209186047315597534e-02,3.061814606189727783e-02,-4.540571477264165878e-03,7.963372766971588135e-02,2.329256087541580200e-01,7.392428349703550339e-03,1.281920075416564941e-01,2.838456928730010986e-01,-1.542901247739791870e-01,3.368606865406036377e-01,-9.800509549677371979e-03,-8.500519394874572754e-02,-9.588971734046936035e-02,-1.870406121015548706e-01,-2.847228758037090302e-02,1.801785230636596680e-01,4.599097371101379395e-02,2.328876405954360962e-02,-1.808048188686370850e-01,1.773791909217834473e-01,6.014303863048553467e-02,-4.473299905657768250e-02,-1.878071427345275879e-01,-2.187368869781494141e-01,7.859195023775100708e-02,-7.071319967508316040e-02,6.488048937171697617e-03,2.579902410507202148e-01,8.342931419610977173e-02,1.569848507642745972e-01,2.052041590213775635e-01,-1.326241996139287949e-02,8.070444688200950623e-03,1.199025847017765045e-02,-3.167698159813880920e-02,-3.838194534182548523e-02,-2.727201394736766815e-02,5.646711215376853943e-03,2.377958595752716064e-01,-1.219539269804954529e-01,-4.853812456130981445e-01,2.988661825656890869e-01,-5.664759129285812378e-02,-1.768010668456554413e-02,-2.561714351177215576e-01,-1.399361342191696167e-01,-1.153654977679252625e-02,5.952597595751285553e-03,-4.843638278543949127e-03,-1.196927949786186218e-02,5.302639305591583252e-02,-2.587971091270446777e-01,-3.445551693439483643e-01,2.606991529464721680e-01,2.965449690818786621e-01,5.215212004259228706e-04,-2.334447503089904785e-01,9.902162104845046997e-02,9.145326167345046997e-02,-2.230949550867080688e-01,1.064000502228736877e-01,-3.770622014999389648e-01,2.443407475948333740e-02,-1.064928472042083740e-01,2.859262004494667053e-02,-2.724114954471588135e-01,1.593143790960311890e-01,-5.276907701045274734e-03,3.254777938127517700e-02,-5.359349399805068970e-02,-1.838539093732833862e-01,-7.167848199605941772e-02,1.922191232442855835e-01,-3.063615970313549042e-02,-1.750998344505205750e-04,-9.301920980215072632e-02,2.805357240140438080e-02
9.625858068466186523e-02,4.025410488247871399e-02,1.074161082506179810e-01,1.339569091796875000e-01,1.175922825932502747e-01,1.155683994293212891e-01,-2.468069493770599365e-01,3.173105120658874512e-01,-4.331263154745101929e-02,-2.054000943899154663e-01,-5.845097079873085022e-02,-2.637753188610076904e-01,1.166381835937500000e-01,-6.030497699975967407e-02,-2.899139821529388428e-01,-1.362094283103942871e-01,-4.756289534270763397e-03,6.260794401168823242e-02,-7.471489161252975464e-02,-1.738285273313522339e-01,7.699908316135406494e-02,1.227710172533988953e-01,-1.018142849206924438e-01,1.233774274587631226e-01,-8.204942196607589722e-02,8.123363554477691650e-02,8.201873861253261566e-03,-6.151976063847541809e-02,-1.557115167379379272e-01,2.993879616260528564e-01,2.803802490234375000e-02,-2.189490199089050293e-01,-1.715134978294372559e-01,-9.060932695865631104e-02,-1.036303304135799408e-02,-1.721789240837097168e-01,-1.069628000259399414e-01,-2.451929301023483276e-01,1.719749271869659424e-01,3.174342587590217590e-02,3.596753478050231934e-01,3.079124391078948975e-01,-9.288964420557022095e-02,9.820154309272766113e-02,2.974179200828075409e-02,-1.066547259688377380e-01,2.455687969923019409e-01,-4.495751112699508667e-02,9.070325642824172974e-02,-5.099607631564140320e-02,-1.153520718216896057e-01,-3.246258199214935303e-02,3.033399023115634918e-02,-1.283059418201446533e-01,-2.968757152557373047e-01,6.717161834239959717e-02,3.033564984798431396e-01,-8.526276051998138428e-02,2.726766169071197510e-01,2.486381083726882935e-01,-1.330922916531562805e-02,-3.933617100119590759e-02,3.532908484339714050e-02,-2.469771355390548706e-01,-3.738456591963768005e-02,-2.197745144367218018e-01,-2.803507260978221893e-03,-2.219428569078445435e-01,-3.181164711713790894e-02,-3.008290529251098633e-01,6.718786805868148804e-02,-9.537693113088607788e-02,-1.235917955636978149e-01,-2.138018608093261719e-01,1.074010804295539856e-01,-1.034105047583580017e-01,-2.311076968908309937e-01,1.008211914449930191e-02,-2.432657629251480103e-01,2.929648570716381073e-02,1.782884150743484497e-01,6.462090462446212769e-02,1.248216405510902405e-01,-8.376774191856384277e-02,-3.257283940911293030e-02,-1.863895654678344727e-01,1.571598052978515625e-01,2.543823048472404480e-02,-1.288226339966058731e-02,2.066908180713653564e-01,5.463186278939247131e-02,2.584184408187866211e-01,3.614684194326400757e-02,-3.930289298295974731e-03,1.891966015100479126e-01,-4.188980907201766968e-03,2.075472921133041382e-01,-1.316483765840530396e-01,2.185478210449218750e-01,7.129976153373718262e-02,-1.039889752864837646e-01,5.507243424654006958e-02,-3.492965549230575562e-02,6.693116575479507446e-02,-2.401530276983976364e-03,-2.912744283676147461e-01,6.102957576513290405e-02,-6.727806478738784790e-02,7.536862790584564209e-02,-1.753714978694915771e-01,6.469793617725372314e-02,1.943462342023849487e-01,-6.756859272718429565e-02,-7.844427973031997681e-02,-2.026928365230560303e-01,-1.835524588823318481e-01,-2.184891849756240845e-01,-1.695962250232696533e-01,5.371342226862907410e-02,-2.695598453283309937e-02,1.953197270631790161e-01,2.131989449262619019e-01,1.365146785974502563e-01,1.506548970937728882e-01,6.250543054193258286e-03,1.147454604506492615e-01,-1.387472450733184814e-01,-1.552805453538894653e-01
-6.757266074419021606e-02,9.631605446338653564e-02,2.909419685602188110e-02,3.437700448557734489e-03,-4.716106131672859192e-02,1.302293092012405396e-01,-9.925106912851333618e-02,-9.923405945301055908e-02,1.387276351451873779e-01,3.343493118882179260e-02,-2.053032368421554565e-01,-2.059478908777236938e-01,1.333585679531097412e-01,2.385709993541240692e-02,2.688718438148498535e-01,6.103689782321453094e-03,3.304887413978576660e-01,-1.593472659587860107e-01,-1.182078793644905090e-01,2.320455312728881836e-01,2.056663781404495239e-01,-7.095956057310104370e-02,2.212441265583038330e-01,-1.020920649170875549e-01,2.477801144123077393e-01,1.218414679169654846e-01,-5.525423213839530945e-02,6.549496948719024658e-02,-1.705827862024307251e-01,1.538140624761581421e-01,-1.748861372470855713e-01,-1.000303030014038086e-02,2.011345624923706055e-01,-1.532534360885620117e-01,6.421684473752975464e-02,-2.336956560611724854e-01,-1.434062421321868896e-01,-1.278248876333236694e-01,-1.332611441612243652e-01,-1.775193028151988983e-02,1.973624676465988159e-01,-8.104645460844039917e-02,3.931650519371032715e-02,6.619242578744888306e-02,1.402290761470794678e-01,-2.820069193840026855e-01,1.990468055009841919e-02,-8.152531832456588745e-02,6.481666117906570435e-02,1.480693221092224121e-01,-3.426790237426757812e-01,-2.549833357334136963e-01,5.090810358524322510e-02,-1.830980926752090454e-01,1.370683461427688599e-01,-1.219196245074272156e-03,1.884216070175170898e-01,6.250547617673873901e-02,3.828939422965049744e-02,-5.635282769799232483e-02,1.867123693227767944e-01,2.707400359213352203e-02,1.615724712610244751e-01,6.758905947208404541e-02,-1.420159488916397095e-01,6.295903772115707397e-02,-2.097217738628387451e-01,5.952120572328567505e-02,6.063315644860267639e-02,-3.165768459439277649e-02,-1.044617369771003723e-01,-8.094203472137451172e-02,1.170650720596313477e-01,-3.378979489207267761e-02,7.065967470407485962e-02,-4.034410044550895691e-02,2.174852788448333740e-01,-3.779368475079536438e-02,2.017697691917419434e-01,-2.044627368450164795e-01,-1.811942085623741150e-02,-2.781679630279541016e-01,6.956352293491363525e-02,9.640543721616268158e-03,-1.519776135683059692e-01,2.602584660053253174e-02,9.760255925357341766e-03,-2.797901332378387451e-01,2.016001045703887939e-01,1.549661904573440552e-01,9.936057031154632568e-02,-2.044628858566284180e-01,1.779543963493779302e-04,-5.498176813125610352e-02,8.998139947652816772e-02,5.187052860856056213e-02,-1.621216535568237305e-01,1.610303521156311035e-01,-1.655403375625610352e-01,-5.539167672395706177e-02,1.853230595588684082e-01,7.337862253189086914e-02,-6.677954457700252533e-03,1.004553362727165222e-01,5.912999436259269714e-02,-1.813287287950515747e-02,6.364460289478302002e-02,1.176341995596885681e-01,4.829620942473411560e-02,1.111048087477684021e-01,-8.677026629447937012e-02,3.475158941000699997e-03,-4.339942242950201035e-03,-3.306518122553825378e-02,2.616265714168548584e-01,-1.215406060218811035e-01,2.959003672003746033e-02,1.266514956951141357e-01,7.041891664266586304e-02,5.742195621132850647e-02,1.958634704351425171e-02,-4.870249330997467041e-02,-1.359143704175949097e-01,-1.488458812236785889e-01,-9.216797351837158203e-02,-1.399946808815002441e-01,-8.309207856655120850e-02,-1.214917898178100586e-01
1.624894738197326660e-01,1.546884328126907349e-01,2.081709802150726318e-01,-1.943222582340240479e-01,-1.681077294051647186e-02,1.714488267898559570e-01,2.456124313175678253e-02,-2.114867419004440308e-02,-1.176593825221061707e-01,8.841988444328308105e-02,-1.459122002124786377e-01,-7.406803220510482788e-02,9.207803755998611450e-02,-5.196567997336387634e-02,9.780006110668182373e-02,-3.874336779117584229e-01,-3.799822628498077393e-01,4.959926009178161621e-02,-2.049915939569473267e-01,5.532591021619737148e-04,-1.484192758798599243e-01,-9.684777259826660156e-02,-9.444188326597213745e-02,-8.794211596250534058e-02,6.091488525271415710e-02,-4.896305873990058899e-02,-2.472523748874664307e-01,9.371118992567062378e-02,-1.431336253881454468e-01,1.539980247616767883e-02,-8.211766928434371948e-02,-4.818761721253395081e-02,3.879547715187072754e-01,1.526195704936981201e-01,-1.328739523887634277e-01,-1.386109273880720139e-03,1.574518531560897827e-01,9.890747070312500000e-02,4.686394333839416504e-02,-1.778015494346618652e-01,-1.258716881275177002e-01,1.069720182567834854e-02,-9.031796455383300781e-02,-1.458438485860824585e-01,-3.376683592796325684e-02,-1.818342655897140503e-01,1.331713348627090454e-01,5.423446372151374817e-02,-1.525637954473495483e-01,4.467307329177856445e-01,-5.457518622279167175e-02,-2.967852167785167694e-02,6.254986673593521118e-02,9.535809606313705444e-02,-1.082427240908145905e-02,-1.272854655981063843e-01,8.996751159429550171e-02,-4.449053481221199036e-02,-7.384487893432378769e-03,-2.110735774040222168e-01,-4.068965092301368713e-02,-3.018268384039402008e-02,-2.011135034263134003e-02,1.555060595273971558e-01,6.852793693542480469e-02,-1.492473930120468140e-01,-5.941432714462280273e-02,-2.557253837585449219e-01,-4.425280541181564331e-02,1.548006851226091385e-02,1.511584371328353882e-01,-1.269215494394302368e-01,-7.847691327333450317e-02,-1.873507499694824219e-01,2.689853310585021973e-01,1.886212080717086792e-01,4.400381073355674744e-02,1.321368962526321411e-01,-1.731932908296585083e-01,-2.422116249799728394e-01,1.447658985853195190e-01,-6.834050174802541733e-03,-9.137102216482162476e-02,-1.943186372518539429e-01,-1.450289785861968994e-01,4.126118421554565430e-01,-2.273956984281539917e-01,-5.612377822399139404e-02,3.962183743715286255e-02,6.413429230451583862e-02,-2.214677818119525909e-02,1.029103994369506836e-01,2.381865866482257843e-02,1.040127351880073547e-01,3.696056548506021500e-03,2.462139725685119629e-01,3.630026057362556458e-02,-2.085258066654205322e-01,-1.758469194173812866e-01,-3.348685055971145630e-02,-8.856280148029327393e-02,-1.684260219335556030e-01,2.496986649930477142e-02,1.613208204507827759e-01,-1.614867597818374634e-01,-2.409864813089370728e-01,8.557575941085815430e-02,3.382846713066101074e-02,-1.194312497973442078e-01,2.676530480384826660e-01,1.221711263060569763e-01,6.577685475349426270e-02,7.656925171613693237e-02,-1.989322016015648842e-03,-9.490057826042175293e-02,-3.313397988677024841e-02,1.332659870386123657e-01,-2.330732718110084534e-02,2.111171931028366089e-02,7.763224095106124878e-02,4.498131945729255676e-02,1.769125834107398987e-02,1.162185743451118469e-01,-2.442604675889015198e-02,3.992357552051544189e-01,2.114664763212203979e-02,1.251902803778648376e-02,1.320565789937973022e-01
-1.119755953550338745e-01,-2.167367041110992432e-01,-5.927053838968276978e-02,1.163132339715957642e-01,-2.133222073316574097e-01,2.295446693897247314e-01,3.993912041187286377e-02,2.162078320980072021e-01,-6.158479303121566772e-02,2.953296005725860596e-01,-1.911353170871734619e-01,1.099274605512619019e-01,-1.470347773283720016e-02,-5.398927256464958191e-02,1.360474824905395508e-01,2.302661596331745386e-04,-2.795847654342651367e-01,-1.803892999887466431e-01,3.126577138900756836e-01,-1.537137776613235474e-01,-2.552880942821502686e-01,-1.407547146081924438e-01,2.248539328575134277e-01,2.441351301968097687e-02,2.648646235466003418e-01,1.887647807598114014e-02,-1.778251118957996368e-02,1.052690595388412476e-01,6.426706165075302124e-02,6.744732707738876343e-02,1.323456317186355591e-01,1.134760528802871704e-01,-2.301791869103908539e-02,1.905015558004379272e-01,-1.000427678227424622e-01,-3.184960037469863892e-02,-3.135834932327270508e-01,1.422997266054153442e-01,5.703144520521163940e-02,-1.392485350370407104e-01,-1.041898801922798157e-01,-4.207788407802581787e-02,-1.650496870279312134e-01,1.853855326771736145e-02,5.451089516282081604e-02,1.301418393850326538e-01,-8.987700566649436951e-03,-1.598775088787078857e-01,-2.140472382307052612e-01,1.081013157963752747e-01,8.854739367961883545e-03,-5.971140041947364807e-02,1.065472960472106934e-01,8.411794155836105347e-02,-2.811528146266937256e-01,2.051514685153961182e-01,2.063385955989360809e-02,-1.601605862379074097e-02,2.017911151051521301e-02,-1.237829998135566711e-01,-2.425751835107803345e-02,-6.774364970624446869e-03,-2.383702248334884644e-01,-1.842382401227951050e-01,-7.583535462617874146e-02,-1.310604959726333618e-01,-9.729693084955215454e-02,-1.121461763978004456e-01,-1.853626817464828491e-01,1.453088317066431046e-02,1.443317979574203491e-01,-8.134496212005615234e-02,3.022863864898681641e-01,5.890885740518569946e-02,-1.183001138269901276e-02,-1.468063294887542725e-01,4.128155484795570374e-02,-1.926462501287460327e-01,1.071599200367927551e-01,4.229554533958435059e-02,2.626702189445495605e-01,7.785756886005401611e-02,3.032660782337188721e-01,3.710944205522537231e-02,2.009728224948048592e-03,-3.130296468734741211e-01,-6.791552305221557617e-01,2.153630256652832031e-01,-8.682639151811599731e-02,-7.128447294235229492e-02,-1.786470115184783936e-01,-1.045330762863159180e-01,-7.892851531505584717e-02,1.652607768774032593e-01,-4.434774443507194519e-02,1.297290176153182983e-01,-3.625084161758422852e-01,-1.051058769226074219e-01,2.438570410013198853e-01,1.183980032801628113e-01,2.957289293408393860e-02,2.864885926246643066e-01,2.194053977727890015e-01,8.218330889940261841e-02,-6.403315812349319458e-02,8.064811676740646362e-02,6.238228455185890198e-02,-6.884001195430755615e-02,5.040065571665763855e-02,-3.544639796018600464e-02,-4.599410593509674072e-01,-1.825459301471710205e-01,3.886637091636657715e-01,7.210813462734222412e-02,-1.660491079092025757e-01,1.553287357091903687e-01,-9.175164997577667236e-02,4.506938904523849487e-02,-1.273834854364395142e-01,-1.639980673789978027e-01,-5.286818370223045349e-02,-1.307140141725540161e-01,-1.403256207704544067e-01,-4.025666415691375732e-02,-7.411391008645296097e-03,1.393523812294006348e-01,-1.902463729493319988e-03,-2.029976397752761841e-01
4.743363335728645325e-02,-1.036946624517440796e-01,-4.609652236104011536e-02,-5.075129121541976929e-02,-1.990969479084014893e-01,-3.136048908345401287e-04,-1.298147886991500854e-01,-2.497287541627883911e-01,9.055238962173461914e-02,1.616160422563552856e-01,-5.271729547530412674e-03,-2.269604653120040894e-01,-3.423416242003440857e-02,4.982181265950202942e-02,-1.756518892943859100e-02,-4.980506747961044312e-02,-7.043506950139999390e-02,6.810116767883300781e-02,-4.522278308868408203e-01,-1.342730820178985596e-01,-1.122286170721054077e-01,-2.875931560993194580e-03,1.685481965541839600e-01,-3.256869316101074219e-02,-2.126385271549224854e-02,-4.832677077502012253e-03,-2.319445759057998657e-01,-6.677418947219848633e-02,3.702094554901123047e-01,1.701869964599609375e-01,-7.136375457048416138e-02,4.272463545203208923e-02,9.995601326227188110e-02,3.291224827989935875e-03,7.856211625039577484e-03,2.152513414621353149e-01,-2.634829841554164886e-02,-2.876787781715393066e-01,1.485517621040344238e-01,-3.190721273422241211e-01,-1.622399128973484039e-02,-2.267173379659652710e-01,3.795631825923919678e-01,4.857263341546058655e-02,-1.178964972496032715e-01,-6.384137272834777832e-02,1.775705814361572266e-02,-6.354807317256927490e-02,2.879663407802581787e-01,1.194841414690017700e-01,3.759554401040077209e-02,-2.620888054370880127e-01,-8.160737156867980957e-02,-5.065267905592918396e-02,6.790488958358764648e-02,1.902756690979003906e-01,-5.994861200451850891e-02,2.216871082782745361e-01,-1.215013712644577026e-01,-3.058243729174137115e-02,-1.050442573614418507e-03,-1.186713278293609619e-01,1.848831623792648315e-01,8.115499466657638550e-02,2.326678186655044556e-01,-2.783147692680358887e-01,-1.303402781486511230e-01,2.922102212905883789e-01,-1.738971285521984100e-02,-5.591655150055885315e-03,-4.100437834858894348e-02,-3.360496163368225098e-01,-2.139467298984527588e-01,-1.472410857677459717e-01,-8.344461210072040558e-03,-2.894648909568786621e-01,-2.487240135669708252e-01,1.741904392838478088e-02,1.165064573287963867e-01,2.317177951335906982e-01,-1.316004097461700439e-01,-1.831977516412734985e-01,-2.906939201056957245e-02,3.009807765483856201e-01,2.347650527954101562e-01,3.635304421186447144e-02,-2.600598037242889404e-01,2.471836842596530914e-02,2.532829903066158295e-02,1.180069670081138611e-01,-8.632750809192657471e-02,-1.509990543127059937e-01,-8.392439223825931549e-03,1.501810550689697266e-01,-2.074432093650102615e-03,-4.339462220668792725e-01,3.288199603557586670e-01,1.074282228946685791e-01,-1.906770467758178711e-01,1.947678923606872559e-01,4.519136250019073486e-02,3.814641833305358887e-01,1.306270509958267212e-01,1.411677300930023193e-01,-2.092638052999973297e-02,-5.379236862063407898e-02,-2.137343585491180420e-02,-6.679973751306533813e-02,-1.299632638692855835e-01,-2.390012145042419434e-02,-1.204335838556289673e-01,-1.580024957656860352e-01,-1.285432577133178711e-01,1.849996298551559448e-01,-5.908729135990142822e-02,-1.432066410779953003e-02,1.774038970470428467e-01,1.662291288375854492e-01,2.742601931095123291e-02,-1.159048900008201599e-01,-1.179339885711669922e-01,-5.777651816606521606e-02,9.284014254808425903e-02,-7.530566304922103882e-03,2.707213349640369415e-02,-1.993019580841064453e-01,2.377502322196960449e-01,3.189187869429588318e-02
-2.416769266128540039e-01,-1.291886866092681885e-01,2.347555756568908691e-02,2.238477617502212524e-01,-9.137057699263095856e-03,-3.750357925891876221e-01,-3.581958636641502380e-02,-3.957254588603973389e-01,1.160730272531509399e-01,1.677254289388656616e-01,-2.212440669536590576e-01,-3.515843451023101807e-01,-3.865374019369482994e-04,-1.058304868638515472e-02,-6.453444715589284897e-03,-5.505561456084251404e-02,-4.280142858624458313e-02,8.440189063549041748e-02,-2.641194164752960205e-01,-6.031551212072372437e-02,1.920400410890579224e-01,-6.960923969745635986e-02,-4.354720935225486755e-02,2.072448432445526123e-01,1.422815620899200439e-01,-8.259290456771850586e-02,4.078271985054016113e-02,1.573216021060943604e-01,-1.742468588054180145e-02,1.478550396859645844e-02,3.299018144607543945e-01,8.048553019762039185e-02,7.862784899771213531e-03,4.314299300312995911e-02,-7.489287108182907104e-02,-1.447968184947967529e-01,3.639708831906318665e-02,-1.140801012516021729e-01,2.766592800617218018e-01,-1.530072689056396484e-01,-9.069041907787322998e-02,-1.254380196332931519e-01,-1.556750833988189697e-01,1.042862702161073685e-02,-5.786669999361038208e-02,1.049699932336807251e-01,-6.867918372154235840e-02,1.047409325838088989e-01,1.214354187250137329e-01,1.210436746478080750e-01,2.923160209320485592e-04,4.826477915048599243e-02,1.333698779344558716e-01,-8.304046839475631714e-02,1.359249185770750046e-02,-3.542739897966384888e-02,4.759971983730792999e-03,-1.219758689403533936e-01,-4.970367997884750366e-02,-6.106814369559288025e-02,6.704910099506378174e-02,8.171156980097293854e-03,-3.120069950819015503e-02,-2.021744996309280396e-01,3.836499750614166260e-01,-1.117181554436683655e-01,1.586448252201080322e-01,-1.534197926521301270e-01,1.920825541019439697e-01,-1.021363288164138794e-01,-4.868388641625642776e-04,-1.884897798299789429e-01,1.266877502202987671e-01,2.422870546579360962e-01,-1.373662240803241730e-02,-9.293682128190994263e-02,1.488917274400591850e-03,-3.104208037257194519e-02,-5.205808207392692566e-02,-1.276927143335342407e-01,-4.485666379332542419e-02,-8.265821635723114014e-02,-1.480317413806915283e-01,-3.906541466712951660e-01,7.021430134773254395e-02,7.327183336019515991e-02,-8.913750201463699341e-02,1.527062803506851196e-01,-1.044794544577598572e-01,-3.620283305644989014e-02,-2.563040852546691895e-01,-8.116506040096282959e-02,5.282191094011068344e-03,2.268562279641628265e-02,-1.995686069130897522e-02,-2.451558858156204224e-01,-1.687980443239212036e-01,-8.556447178125381470e-02,8.466347306966781616e-02,-1.473029106855392456e-01,-1.568767875432968140e-01,-1.076339110732078552e-01,-4.458449780941009521e-02,7.996027916669845581e-02,8.634372800588607788e-02,1.642007939517498016e-02,-3.248365968465805054e-02,-1.373906880617141724e-01,-3.693416714668273926e-02,6.028661876916885376e-02,2.269974052906036377e-01,6.859229505062103271e-02,1.533646881580352783e-01,-1.371569186449050903e-01,-2.430512905120849609e-01,-1.321858465671539307e-01,-1.864119321107864380e-01,2.288966327905654907e-01,5.214897170662879944e-02,1.596337556838989258e-01,2.877510152757167816e-02,5.514970049262046814e-02,-6.641395390033721924e-02,-8.571796864271163940e-02,-2.250704467296600342e-01,-3.160139173269271851e-02,-2.322216033935546875e-01,-1.736294798320159316e-04
-1.456908416002988815e-02,-2.407696396112442017e-01,-8.319522440433502197e-02,-8.514612913131713867e-02,2.349660918116569519e-02,-2.374349161982536316e-02,-2.359369397163391113e-01,2.578896284103393555e-01,-5.797459930181503296e-02,-6.881631165742874146e-02,-4.759427160024642944e-02,2.025446742773056030e-01,-3.816197216510772705e-01,2.063945308327674866e-02,-1.800066679716110229e-01,1.300145089626312256e-01,6.309691816568374634e-02,2.722118794918060303e-01,9.192664921283721924e-02,1.276013441383838654e-02,1.544892638921737671e-01,-3.071997873485088348e-02,4.970722272992134094e-02,2.552092671394348145e-01,-2.654407024383544922e-01,-8.263488858938217163e-02,-2.313425987958908081e-01,1.856341809034347534e-01,2.630272135138511658e-02,-1.399246901273727417e-01,-2.898940742015838623e-01,-1.823830753564834595e-01,1.191908195614814758e-01,-3.181537091732025146e-01,2.370625585317611694e-01,-6.849587708711624146e-02,7.152400165796279907e-02,1.682301163673400879e-01,2.052431255578994751e-01,1.052072197198867798e-01,-2.044113576412200928e-01,1.720967590808868408e-01,-6.010585650801658630e-02,1.367698907852172852e-01,-2.469478696584701538e-01,6.612735241651535034e-02,-1.875515729188919067e-01,-1.921176612377166748e-01,3.244338557124137878e-02,1.663171499967575073e-01,-1.992649212479591370e-02,-7.041780650615692139e-02,-2.146393433213233948e-02,-1.836914569139480591e-02,-1.692052781581878662e-01,8.690313994884490967e-02,-1.020727530121803284e-01,8.450471609830856323e-02,3.317355364561080933e-02,-9.214345365762710571e-02,9.003335982561111450e-02,1.097692698240280151e-01,-1.484935879707336426e-01,2.329403301700949669e-03,1.954876929521560669e-01,-2.008541822433471680e-01,-4.982295632362365723e-02,-4.337849467992782593e-02,-4.692477639764547348e-03,3.460353910923004150e-01,-2.702364027500152588e-01,-1.231696605682373047e-01,1.639414727687835693e-01,-8.938447386026382446e-02,4.111312031745910645e-01,5.112510174512863159e-02,5.121841095387935638e-03,1.913233101367950439e-01,-2.302507311105728149e-01,-1.196413636207580566e-01,9.501995891332626343e-02,7.519295066595077515e-02,3.761711418628692627e-01,8.119723200798034668e-02,-1.501709669828414917e-01,-2.186637604609131813e-03,-9.803570061922073364e-02,7.934589684009552002e-02,-4.631146416068077087e-02,-1.736440062522888184e-01,3.118964433670043945e-01,-2.887322306632995605e-01,-1.160246040672063828e-02,4.313291981816291809e-02,7.421050965785980225e-02,-3.652000725269317627e-01,2.220780998468399048e-01,1.055705943144857883e-04,1.030231118202209473e-01,5.293713137507438660e-02,1.221332550048828125e-01,-7.127109169960021973e-02,2.844876609742641449e-02,1.198279261589050293e-01,1.555516570806503296e-01,-1.443392336368560791e-01,-7.398291025310754776e-03,1.163506284356117249e-01,2.220843285322189331e-01,-2.438033372163772583e-02,1.696166098117828369e-01,-1.500521302223205566e-01,2.175413668155670166e-01,-1.271357536315917969e-01,4.334655702114105225e-01,-2.561176382005214691e-02,1.934422254562377930e-01,-1.100981142371892929e-02,-1.832625418901443481e-01,-5.993644148111343384e-02,3.439675550907850266e-03,1.185570377856492996e-02,1.626658439636230469e-01,1.044098404236137867e-03,-1.417311578989028931e-01,-9.780643880367279053e-02,-2.136264443397521973e-01,-2.081373780965805054e-01
4.946912825107574463e-02,6.900902092456817627e-02,1.151930168271064758e-02,-1.500162333250045776e-01,-2.816931344568729401e-03,-1.171243265271186829e-01,-9.783004969358444214e-02,3.596201539039611816e-02,1.391086280345916748e-01,3.559047356247901917e-03,-1.513642370700836182e-01,2.345111668109893799e-01,1.099665239453315735e-01,8.707883954048156738e-02,2.505771219730377197e-01,1.783303618431091309e-01,-1.064107790589332581e-01,-1.635161638259887695e-01,2.427812665700912476e-02,-1.583680361509323120e-01,-8.411996811628341675e-02,7.854586094617843628e-02,-8.227328956127166748e-02,-1.362086385488510132e-01,2.413948066532611847e-02,8.505536615848541260e-02,1.757359206676483154e-01,-3.964067399501800537e-01,-5.061995983123779297e-02,-1.296879202127456665e-01,1.245000809431076050e-01,-8.987613022327423096e-02,-6.062203273177146912e-02,8.560927212238311768e-02,1.017752662301063538e-01,8.774272166192531586e-03,-3.882801905274391174e-02,-9.388481080532073975e-02,3.571932390332221985e-02,2.148393839597702026e-01,-3.022193908691406250e-02,-1.438033878803253174e-01,-1.182750090956687927e-01,-1.426046788692474365e-01,-8.778679370880126953e-02,-1.956295967102050781e-02,-1.804525554180145264e-01,-8.933560550212860107e-02,9.232293069362640381e-02,6.478497385978698730e-02,-2.070450596511363983e-02,1.711816787719726562e-01,1.906006634235382080e-01,-1.204808503389358521e-01,1.918407082557678223e-01,8.623100072145462036e-02,-2.264532074332237244e-02,1.595710776746273041e-02,2.065109759569168091e-01,9.948967024683952332e-03,-2.717437222599983215e-02,-2.672489173710346222e-02,1.636002361774444580e-01,-2.794187888503074646e-02,3.402712568640708923e-02,-1.785508543252944946e-01,-6.562396418303251266e-03,1.788930222392082214e-02,1.889733970165252686e-01,-2.314955145120620728e-01,-3.265038132667541504e-01,-6.262482702732086182e-02,-1.454624086618423462e-01,-2.763460874557495117e-01,7.595188170671463013e-02,1.055173277854919434e-01,1.658162474632263184e-01,1.661846041679382324e-01,1.758227348327636719e-01,4.424182698130607605e-02,-2.538966536521911621e-01,1.492737382650375366e-01,-5.342533811926841736e-02,-3.170760720968246460e-02,-1.641793996095657349e-01,1.028673052787780762e-01,2.750017866492271423e-02,1.831252574920654297e-01,-1.582728177309036255e-01,-3.908895328640937805e-02,2.539066374301910400e-01,-2.220598235726356506e-02,5.922019015997648239e-03,5.081769078969955444e-02,-4.248403757810592651e-02,-5.744142085313796997e-02,-1.249019727110862732e-01,-2.941330075263977051e-01,3.764534369111061096e-02,-1.393733918666839600e-01,-6.801740825176239014e-02,-9.838827699422836304e-02,1.070851534605026245e-01,8.930710703134536743e-02,-3.263869509100914001e-02,2.582624852657318115e-01,-1.474388986825942993e-01,-3.706198930740356445e-02,1.770346015691757202e-01,1.280822907574474812e-04,1.520484089851379395e-01,-8.620326966047286987e-02,-1.883622109889984131e-01,-6.886668503284454346e-03,9.331163763999938965e-02,7.661231607198715210e-02,5.076096951961517334e-02,1.151080951094627380e-01,1.136698797345161438e-01,3.071659803390502930e-02,1.153332293033599854e-01,1.387841850519180298e-01,-4.312790185213088989e-02,2.285188809037208557e-02,1.323367357254028320e-01,-3.657549619674682617e-02,-3.206819891929626465e-01,-7.646117359399795532e-02
-1.179892122745513916e-01,9.775251895189285278e-02,1.858838647603988647e-01,-1.237000674009323120e-01,1.202515512704849243e-01,7.591093331575393677e-02,1.821780055761337280e-01,-9.409066289663314819e-02,6.125278025865554810e-02,7.730166614055633545e-02,-1.528141647577285767e-01,9.482144564390182495e-02,-1.551792174577713013e-01,2.096511870622634888e-01,-1.552011817693710327e-01,-1.430707797408103943e-02,-8.275766670703887939e-02,5.668440088629722595e-02,-2.497024135664105415e-03,2.199198752641677856e-01,-1.552482098340988159e-01,1.945886760950088501e-01,-5.824601277709007263e-03,-2.204823940992355347e-01,3.911148011684417725e-02,-2.265206724405288696e-01,-2.735861837863922119e-01,-6.002968922257423401e-02,-7.200514525175094604e-02,-9.206110984086990356e-02,-1.224001273512840271e-01,-4.789431020617485046e-02,-2.193439453840255737e-01,1.460599899291992188e-01,8.002366125583648682e-02,2.889688014984130859e-01,4.905907809734344482e-02,-2.818461693823337555e-02,5.411713942885398865e-02,3.987037762999534607e-02,2.149059623479843140e-01,3.339151293039321899e-02,1.075651589781045914e-02,9.032532572746276855e-02,1.903794109821319580e-01,-2.176036089658737183e-01,-1.632407009601593018e-01,-2.161086499691009521e-01,-2.295925468206405640e-01,6.262295879423618317e-03,5.377707537263631821e-03,2.873540390282869339e-03,1.569811552762985229e-01,1.374297291040420532e-01,-1.749752014875411987e-01,6.611100584268569946e-02,-7.391336560249328613e-02,3.315527439117431641e-01,1.472332775592803955e-01,-4.948778450489044189e-02,-1.437484868802130222e-03,3.297411371022462845e-03,3.562691435217857361e-02,-1.184269264340400696e-01,9.062781929969787598e-02,1.428502649068832397e-01,3.573226928710937500e-01,-9.690858423709869385e-02,-2.389864809811115265e-02,-5.718609318137168884e-02,8.431442826986312866e-02,-8.430168777704238892e-02,-1.766826808452606201e-01,-2.055023461580276489e-01,-2.878471612930297852e-01,8.759146183729171753e-02,6.758527457714080811e-02,1.701074689626693726e-01,2.398029267787933350e-01,2.797483205795288086e-01,-5.657216534018516541e-02,-5.012293159961700439e-02,1.752843707799911499e-01,-2.518809586763381958e-02,2.298239022493362427e-01,2.776240408420562744e-01,-4.025701060891151428e-02,-2.492746263742446899e-01,-6.525709480047225952e-02,-1.971376389265060425e-01,-1.491877585649490356e-01,-5.629624053835868835e-02,-6.912375241518020630e-02,2.617504894733428955e-01,-1.764097213745117188e-01,2.079368233680725098e-01,1.707026362419128418e-01,1.323492825031280518e-01,1.259107887744903564e-01,-1.796737909317016602e-01,-1.788425296545028687e-01,-9.448160231113433838e-02,-1.105248853564262390e-01,1.837158948183059692e-01,7.351551949977874756e-02,2.830109000205993652e-02,1.296807676553726196e-01,2.553929807618260384e-03,2.590947151184082031e-01,-2.701238542795181274e-02,2.513834834098815918e-01,-7.443470507860183716e-02,1.759485155344009399e-01,-3.153197467327117920e-01,-2.139142751693725586e-01,-1.087591573596000671e-01,-1.204167008399963379e-01,1.662406623363494873e-01,-1.650252006947994232e-02,-1.053153350949287415e-01,-2.617133855819702148e-01,-1.032612398266792297e-01,1.744970530271530151e-01,2.204610556364059448e-01,8.459061384201049805e-02,4.058535397052764893e-01,1.513502001762390137e-01,6.470913439989089966e-02
-1.813611686229705811e-01,-2.693612314760684967e-02,2.008412331342697144e-01,2.343400008976459503e-02,4.292604699730873108e-02,8.491410315036773682e-02,8.435145020484924316e-02,4.377720504999160767e-02,-1.116043329238891602e-01,6.785586476325988770e-02,9.330585598945617676e-02,-2.626320719718933105e-01,2.494613640010356903e-03,4.190750792622566223e-02,-1.594331413507461548e-01,1.327637135982513428e-01,1.802834868431091309e-01,-5.962150916457176208e-02,2.966369390487670898e-01,1.041205152869224548e-01,3.224702551960945129e-02,1.154759675264358521e-01,-1.339023187756538391e-02,-1.043234318494796753e-01,2.259957604110240936e-02,-9.382424876093864441e-03,-5.264997109770774841e-02,-1.574799604713916779e-02,-1.022823154926300049e-01,-1.936502568423748016e-02,-3.349279612302780151e-02,-2.909039147198200226e-02,-7.619941979646682739e-02,9.492827951908111572e-02,-2.440787553787231445e-01,7.197710871696472168e-02,4.741318058222532272e-03,-3.954928815364837646e-01,-1.231372356414794922e-01,-2.350789867341518402e-02,-1.382073462009429932e-01,-1.826674193143844604e-01,-8.664923720061779022e-03,5.345729645341634750e-03,5.868506059050559998e-02,7.332110544666647911e-05,-1.359617263078689575e-01,-4.656538739800453186e-02,-1.262458264827728271e-01,1.621375679969787598e-01,8.405687659978866577e-02,-3.431182503700256348e-01,1.506937742233276367e-01,4.358944669365882874e-02,-2.490933425724506378e-02,4.303009063005447388e-02,3.524499014019966125e-02,1.002847477793693542e-01,2.611296949908137321e-03,4.349306598305702209e-02,-1.802890188992023468e-02,1.351732462644577026e-01,6.671089679002761841e-02,1.532430648803710938e-01,1.058698445558547974e-01,-2.276317328214645386e-01,1.026588827371597290e-01,6.119612604379653931e-02,-8.846605569124221802e-02,-1.307964324951171875e-01,5.557954311370849609e-02,8.496811985969543457e-02,3.561179041862487793e-01,2.205751985311508179e-01,1.231402680277824402e-01,-1.179401725530624390e-01,-5.616074055433273315e-02,5.284971743822097778e-02,-3.635496273636817932e-02,-2.599101066589355469e-01,7.718650996685028076e-02,2.550272643566131592e-01,1.645660847425460815e-01,-5.482131987810134888e-02,-1.942462325096130371e-01,-1.535382568836212158e-01,4.554624110460281372e-02,2.142560034990310669e-01,-1.535604894161224365e-01,2.738620638847351074e-01,9.202298521995544434e-02,1.442716121673583984e-01,2.665590345859527588e-01,-1.133055537939071655e-01,-6.893759965896606445e-02,-1.364890635013580322e-01,1.244780123233795166e-01,-4.919391497969627380e-02,-2.306724190711975098e-01,-1.800403296947479248e-01,-1.060443930327892303e-02,-1.012518405914306641e-01,-8.265237510204315186e-02,-2.850390672683715820e-01,-9.903184324502944946e-02,2.779516875743865967e-01,-1.204151008278131485e-02,8.113479614257812500e-02,-8.957078307867050171e-02,-3.702050745487213135e-01,3.579812124371528625e-02,9.017740190029144287e-02,-1.059094741940498352e-01,-1.799182966351509094e-02,-3.105538487434387207e-01,-1.639482080936431885e-01,5.506645143032073975e-02,7.013312727212905884e-02,-1.227984949946403503e-01,-1.520808935165405273e-01,8.766673505306243896e-03,-6.553667783737182617e-02,8.233822882175445557e-02,5.513565614819526672e-02,2.442155778408050537e-01,-5.912960320711135864e-02,3.444149196147918701e-01,1.311228722333908081e-01
