-8.443099260330200195e-02
-1.901910156011581421e-01
-3.645988553762435913e-02
3.048044256865978241e-02
9.247805923223495483e-02
-2.950493991374969482e-01
4.097530618309974670e-03
1.439245790243148804e-02
2.472207099199295044e-01
-4.152773022651672363e-01
-2.067980021238327026e-01
1.647986769676208496e-01
-3.086983859539031982e-01
7.404550164937973022e-02
1.861082464456558228e-01
-9.825385361909866333e-02
1.755589097738265991e-01
-1.806944608688354492e-01
-7.229245454072952271e-02
-5.033109188079833984e-01
-1.274439245462417603e-01
-8.695781975984573364e-02
-1.485710442066192627e-01
-1.674103289842605591e-01
-8.896538615226745605e-02
-3.446187078952789307e-01
-1.950223594903945923e-01
-2.390656769275665283e-01
-1.560890525579452515e-01
-1.337018162012100220e-01
-7.573967427015304565e-02
2.175583988428115845e-01
-5.975679755210876465e-01
-1.321098208427429199e-01
-2.462895810604095459e-01
-7.124401628971099854e-02
-1.654682159423828125e-01
-3.583947718143463135e-01
-1.505391597747802734e-01
2.281493991613388062e-01
6.916008889675140381e-02
-8.799702860414981842e-03
3.027809411287307739e-02
-3.140616416931152344e-01
-4.253456592559814453e-01
-1.901477575302124023e-01
-2.307594716548919678e-01
-1.178379133343696594e-01
-2.475567609071731567e-01
1.374718099832534790e-01
-8.404198288917541504e-02
6.490727514028549194e-02
7.372790575027465820e-02
-8.995929360389709473e-02
-7.847384363412857056e-02
7.524541765451431274e-02
-7.509604841470718384e-02
-8.022753000259399414e-01
-3.055011332035064697e-01
-8.975902199745178223e-02
-1.359816193580627441e-01
4.239340499043464661e-02
-1.291364580392837524e-01
-8.549944162368774414e-01
-1.803101748228073120e-01
2.658104337751865387e-02
-2.262587100267410278e-01
-2.323980480432510376e-01
-2.374920994043350220e-03
-5.511981248855590820e-01
2.015253454446792603e-01
-2.782849669456481934e-01
4.884533584117889404e-02
-3.418584913015365601e-02
1.849486380815505981e-01
1.678435206413269043e-01
-7.014106959104537964e-02
-3.215777277946472168e-01
-5.644741281867027283e-02
-6.167178601026535034e-02
-3.662772178649902344e-01
7.540725916624069214e-02
-5.982511118054389954e-02
-6.023306772112846375e-02
1.747371703386306763e-01
-1.540001183748245239e-01
1.076365187764167786e-01
7.716068532317876816e-03
-9.399131685495376587e-02
-2.247025072574615479e-01
-2.747853696346282959e-01
-7.520118728280067444e-03
-2.889440357685089111e-01
7.122097164392471313e-02
-7.559189200401306152e-02
-2.206056751310825348e-02
-6.897913757711648941e-03
-3.917027711868286133e-01
2.798034846782684326e-01
-1.391647905111312866e-01
-1.032692641019821167e-01
-3.512775897979736328e-01
1.724614650011062622e-01
-1.522199213504791260e-01
-3.569941818714141846e-01
1.790619939565658569e-01
-1.084393449127674103e-02
-8.634952455759048462e-02
-2.347550988197326660e-01
4.485481232404708862e-02
-6.143876314163208008e-01
-1.989250257611274719e-02
-2.334254384040832520e-01
6.277410686016082764e-02
-3.976126015186309814e-02
-6.521009802818298340e-01
7.218787819147109985e-02
-1.299255192279815674e-01
-2.927224040031433105e-01
6.248895823955535889e-02
-1.730549782514572144e-01
-1.625651866197586060e-02
-6.969247758388519287e-02
2.302730530500411987e-01
-3.397518992424011230e-01
-1.811542212963104248e-01
-1.372175067663192749e-01
3.650242686271667480e-01
-1.117260679602622986e-01
-4.517000913619995117e-01
1.551017314195632935e-01
-5.397133529186248779e-02
-5.798700824379920959e-02
1.440992206335067749e-01
-1.021039634943008423e-01
6.456291675567626953e-02
-2.382715046405792236e-01
-1.144952550530433655e-01
-3.387561067938804626e-02
-2.357111126184463501e-01
-5.411621183156967163e-02
-1.089062094688415527e+00
1.859043389558792114e-01
-2.039908021688461304e-01
1.425020396709442139e-01
2.371625006198883057e-01
1.451169997453689575e-01
-4.268653690814971924e-02
8.599450439214706421e-02
-1.024456098675727844e-01
-7.836276292800903320e-02
-2.862048149108886719e-01
2.600991129875183105e-01
-3.782531619071960449e-02
1.405532099306583405e-02
-1.556271165609359741e-01
-7.771787792444229126e-02
-8.865809440612792969e-02
-3.766844794154167175e-02
2.058878913521766663e-02
1.229878142476081848e-02
-2.538872957229614258e-01
-4.254205897450447083e-02
1.184286773204803467e-01
-2.369075864553451538e-01
-4.823151230812072754e-01
-1.075989976525306702e-01
-1.279139816761016846e-01
-5.634228587150573730e-01
-8.501276373863220215e-02
9.024560451507568359e-02
-3.170970082283020020e-02
3.072068095207214355e-01
1.756849884986877441e-01
-9.821967035531997681e-02
5.835297331213951111e-02
6.793911755084991455e-02
1.365388631820678711e-01
-4.494731128215789795e-01
-5.978187546133995056e-02
-3.781213192269206047e-03
3.286441266536712646e-01
1.097705811262130737e-01
1.731115877628326416e-01
-5.915367230772972107e-02
2.395189180970191956e-02
5.266290158033370972e-03
-2.306244522333145142e-01
5.434935539960861206e-02
1.109290271997451782e-01
-1.499865353107452393e-01
9.998784959316253662e-02
-8.504480868577957153e-02
-1.519426554441452026e-01
-3.262379765510559082e-01
4.519800841808319092e-02
-2.457622140645980835e-01
-2.185271382331848145e-01
-6.653092801570892334e-02
3.789915516972541809e-02
-9.260281175374984741e-02
-3.042927384376525879e-01
-3.844768553972244263e-02
-4.899108111858367920e-01
2.312127500772476196e-01
-3.160690963268280029e-01
2.212707512080669403e-02
-6.515802443027496338e-02
-1.854547113180160522e-01
3.127882257103919983e-02
-8.555128239095211029e-03
-5.306994318962097168e-01
-9.296338260173797607e-02
-3.819574415683746338e-02
-3.059924393892288208e-02
-1.199272125959396362e-01
-1.152122204075567424e-04
-1.272807866334915161e-01
-1.190680861473083496e-01
1.824417859315872192e-01
-4.969663023948669434e-01
1.735466532409191132e-02
-3.229725733399391174e-02
2.656559273600578308e-02
4.150836914777755737e-02
-2.028758823871612549e-01
-3.357111215591430664e-01
-9.197311848402023315e-02
-1.839431077241897583e-01
-7.520387321710586548e-02
1.424908190965652466e-01
-1.790505647659301758e-01
-1.620063781738281250e-01
-2.138668447732925415e-01
-3.362574428319931030e-02
5.268432945013046265e-02
-1.088083684444427490e-01
-3.375250846147537231e-02
-2.223629802465438843e-01
-4.209437966346740723e-01
-2.952578961849212646e-01
-3.009556233882904053e-01
-2.721064388751983643e-01
-4.724735335912555456e-04
-6.013622879981994629e-01
-2.423871904611587524e-01
-1.665520519018173218e-01
9.809714555740356445e-02
-6.301629543304443359e-02
-2.451815605163574219e-01
-1.720445007085800171e-01
-7.918833941221237183e-02
1.212311387062072754e-01
-5.362696573138237000e-02
-6.326786875724792480e-01
-4.623205661773681641e-01
-6.671056151390075684e-01
-2.903630733489990234e-01
-1.377507671713829041e-02
-4.881180077791213989e-02
-1.450812667608261108e-01
1.260601282119750977e-01
-1.552425883710384369e-02
8.204799890518188477e-02
3.606201335787773132e-02
2.053250223398208618e-01
-4.331272840499877930e-02
-7.685695290565490723e-01
-3.088932037353515625e-01
-7.418172433972358704e-03
-2.298143357038497925e-01
-2.792643569409847260e-02
-1.124539375305175781e-01
-2.968804165720939636e-02
2.242278307676315308e-02
-8.756428956985473633e-03
-4.032144322991371155e-02
-1.264936327934265137e-01
-4.620923995971679688e-01
-1.109659075736999512e-01
-2.658382952213287354e-01
-2.540362998843193054e-02
-1.783732175827026367e-01
-3.622985631227493286e-02
-8.482521772384643555e-01
-1.973291039466857910e-01
-1.100299209356307983e-01
1.898209750652313232e-01
-4.663993045687675476e-02
-1.218221560120582581e-01
4.288770630955696106e-02
-1.736707687377929688e-01
3.956766426563262939e-02
-3.898297250270843506e-01
8.344540372490882874e-03
-3.309164941310882568e-01
-5.194420814514160156e-01
3.303233161568641663e-02
7.521918043494224548e-03
-1.706226915121078491e-01
7.506305724382400513e-02
-3.413961529731750488e-01
-7.011906057596206665e-02
-5.772258639335632324e-01
-1.917889565229415894e-01
-1.800628937780857086e-02
1.108338385820388794e-01
-2.308319360017776489e-01
-7.006849348545074463e-02
4.297637566924095154e-02
6.636688113212585449e-02
-1.806022524833679199e-01
-2.485773563385009766e-01
-4.046155512332916260e-01
-5.134518072009086609e-02
-3.308948278427124023e-01
-5.478187277913093567e-02
-7.851088047027587891e-02
8.251672238111495972e-02
-1.536742746829986572e-01
-2.289428710937500000e-01
-2.701896429061889648e-01
-3.252071440219879150e-01
-1.587453931570053101e-01
-2.805184572935104370e-02
5.682381987571716309e-02
-8.596397191286087036e-02
-8.017813414335250854e-02
-4.799174666404724121e-01
-4.416224360466003418e-01
-3.877515196800231934e-01
-1.299747526645660400e-01
1.332780867815017700e-01
-1.037467569112777710e-01
-4.020212963223457336e-02
-5.686702951788902283e-02
6.816953420639038086e-02
-5.912399888038635254e-01
-2.767141759395599365e-01
-6.544084101915359497e-02
1.450618505477905273e-01
-3.651697337627410889e-01
-3.040761351585388184e-01
1.271979138255119324e-02
1.318585034459829330e-02
-1.503024995326995850e-01
1.214332357048988342e-01
-9.825660288333892822e-02
-1.519018858671188354e-01
-2.810411155223846436e-01
-4.185678958892822266e-01
1.114444285631179810e-01
-6.186888366937637329e-02
7.392396032810211182e-02
-8.655623197555541992e-01
-1.688981056213378906e-01
-1.409834474325180054e-01
-6.774727106094360352e-01
-6.787800192832946777e-01
-4.078064858913421631e-01
9.931882377713918686e-04
-2.005701065063476562e-01
-1.260952651500701904e-01
-1.162526383996009827e-02
1.242997720837593079e-01
-1.392668485641479492e-01
-7.066088318824768066e-01
-3.382818400859832764e-02
1.374293118715286255e-01
-1.812475174665451050e-02
-1.049404591321945190e-01
-1.294277608394622803e-01
1.283943802118301392e-01
-7.990107685327529907e-02
-5.302642583847045898e-01
9.076558798551559448e-02
-1.277242302894592285e-01
-2.436491847038269043e-01
6.327438633888959885e-03
2.775680646300315857e-02
1.690743416547775269e-01
-1.867631822824478149e-01
-6.143088936805725098e-01
2.513680160045623779e-01
-2.683167755603790283e-01
-9.082002937793731689e-02
1.499462723731994629e-01
-2.624961435794830322e-01
-5.501542240381240845e-02
-1.948314346373081207e-02
1.484547704458236694e-01
3.101770207285881042e-02
-3.144261613488197327e-02
8.009338751435279846e-03
-4.191006124019622803e-01
1.212451606988906860e-01
1.656803302466869354e-02
4.196445643901824951e-02
4.890913842245936394e-04
-1.167102903127670288e-01
-1.793621629476547241e-01
-1.411067545413970947e-01
-6.060323119163513184e-01
1.940113492310047150e-02
-3.777280077338218689e-02
-4.526251256465911865e-01
-2.658231556415557861e-01
-2.090747505426406860e-01
-2.182732075452804565e-01
-8.640812337398529053e-02
-3.774514496326446533e-01
-8.032096922397613525e-02
-6.240231916308403015e-02
-1.675256155431270599e-02
1.157511547207832336e-01
-2.638834295794367790e-03
-4.969591498374938965e-01
-7.834494858980178833e-02
-6.208100318908691406e-01
-1.086650998331606388e-03
-2.537074498832225800e-02
-2.999312477186322212e-03
-1.624455451965332031e-01
8.101118355989456177e-02
-1.016477346420288086e+00
4.831307008862495422e-02
-8.392263203859329224e-02
-1.117762178182601929e-02
-5.429437160491943359e-01
-7.829646766185760498e-02
3.497841954231262207e-02
-7.717944681644439697e-02
-8.702470362186431885e-02
-2.163523882627487183e-01
-1.850417628884315491e-02
-6.795188784599304199e-02
2.280078828334808350e-02
-3.689158558845520020e-01
8.938771486282348633e-02
-5.745251849293708801e-02
-1.512644886970520020e-01
-3.981842398643493652e-01
1.709790378808975220e-01
-2.287685573101043701e-01
9.730258025228977203e-03
-1.902040243148803711e-01
-2.095752395689487457e-02
9.427123516798019409e-02
-4.992409050464630127e-01
1.210549026727676392e-01
-2.093973159790039062e-01
-6.434996426105499268e-02
-1.968474835157394409e-01
-2.273126393556594849e-01
-8.295717835426330566e-02
-4.650168418884277344e-01
-9.655357003211975098e-01
1.718326210975646973e-01
-1.559984218329191208e-02
-2.051975727081298828e-01
-9.900063276290893555e-02
9.269655495882034302e-02
-2.996254563331604004e-01
4.276242572814226151e-03
-1.284797191619873047e-01
-2.314186543226242065e-01
4.858221393078565598e-03
-1.698001027107238770e-01
-4.552245438098907471e-01
3.833815455436706543e-02
-1.277088820934295654e-01
-5.071812774986028671e-03
-3.089205622673034668e-01
-8.580794930458068848e-02
-2.081876099109649658e-01
-6.879227757453918457e-01
-4.979368746280670166e-01
-1.982467174530029297e-01
-5.922794342041015625e-01
-4.237165153026580811e-01
-1.400424838066101074e-01
1.097849532961845398e-01
-6.573823839426040649e-02
4.805297590792179108e-03
-1.523116827011108398e-01
8.948778361082077026e-02
1.282847672700881958e-02
-1.129802539944648743e-01
-1.436948478221893311e-01
-8.155134320259094238e-02
-3.697420954704284668e-01
2.378343343734741211e-01
3.838719427585601807e-02
-2.199996411800384521e-01
4.410853609442710876e-02
-2.983358502388000488e-01
-2.930594682693481445e-01
-1.399924010038375854e-01
-3.881669789552688599e-02
-2.604732811450958252e-01
1.489628106355667114e-01
2.037284523248672485e-01
-1.242108196020126343e-01
-1.123758673667907715e+00
-1.027235202491283417e-02
-7.379058003425598145e-02
-2.742003500461578369e-01
1.619225442409515381e-01
5.347563326358795166e-02
-3.155970200896263123e-02
-2.453501075506210327e-01
7.784408330917358398e-02
