-6.586079299449920654e-02
1.150550171732902527e-01
-6.622495502233505249e-02
5.852593854069709778e-02
1.136386245489120483e-01
1.729442551732063293e-02
5.636802688241004944e-02
-7.818331941962242126e-03
-4.996829479932785034e-02
2.177473902702331543e-01
4.178715404123067856e-03
6.469175964593887329e-02
4.015792906284332275e-02
-2.544279024004936218e-02
-3.871236369013786316e-02
1.210927069187164307e-01
-1.279860436916351318e-01
1.490879803895950317e-03
2.789616398513317108e-02
-5.090853199362754822e-02
-1.081049740314483643e-01
-1.926124542951583862e-01
8.728476613759994507e-02
-1.271648891270160675e-02
5.869425460696220398e-02
-9.605673700571060181e-02
-1.059897243976593018e-01
1.498766839504241943e-01
-1.600340008735656738e-02
-2.014928869903087616e-02
1.218583062291145325e-02
-5.267672985792160034e-02
-2.199109047651290894e-01
-4.114232957363128662e-02
-1.597487926483154297e-01
5.220277979969978333e-02
1.148649863898754120e-02
-1.478968411684036255e-01
-5.270279198884963989e-02
-1.268196702003479004e-01
2.271824888885021210e-02
5.495188292115926743e-03
-1.072154268622398376e-01
3.233360499143600464e-02
-9.665594995021820068e-02
-5.194939672946929932e-02
6.547801196575164795e-03
1.339512914419174194e-01
-3.255300223827362061e-02
-2.119172364473342896e-01
-3.489364311099052429e-02
7.544785737991333008e-02
3.823254629969596863e-02
9.622838348150253296e-02
-6.475667655467987061e-02
7.700166106224060059e-02
9.607937186956405640e-02
1.082110963761806488e-02
4.786589369177818298e-02
1.601939275860786438e-02
-7.053641974925994873e-02
-1.473309546709060669e-01
-1.139088422060012817e-01
-3.590573789551854134e-03
1.398001462221145630e-01
-1.814783923327922821e-02
-1.228049248456954956e-01
2.286729030311107635e-02
-3.074507787823677063e-02
1.111866682767868042e-01
6.269489973783493042e-02
1.310659479349851608e-02
-1.780581623315811157e-01
1.011812537908554077e-01
1.512161940336227417e-01
2.553766071796417236e-01
2.939769625663757324e-01
-9.646221250295639038e-02
5.108846724033355713e-02
2.716964855790138245e-02
1.291359066963195801e-01
4.202845692634582520e-02
3.637132048606872559e-02
3.902011737227439880e-02
-7.302638143301010132e-02
-1.209679022431373596e-01
1.115545723587274551e-02
-7.552073895931243896e-02
-8.875985443592071533e-02
-1.867918968200683594e-01
1.070261187851428986e-02
1.874217987060546875e-01
1.432558298110961914e-01
-1.867129653692245483e-02
7.592606823891401291e-03
-1.553863380104303360e-02
-2.953353710472583771e-02
-7.145652174949645996e-02
4.673653095960617065e-02
-1.333282589912414551e-01
8.171007782220840454e-02
-5.044387280941009521e-02
2.847134321928024292e-02
-3.276142850518226624e-02
7.310154289007186890e-02
3.949353843927383423e-02
-1.018973886966705322e-01
1.062258481979370117e-01
9.810380637645721436e-02
-5.130415409803390503e-02
5.915797129273414612e-02
-6.667286902666091919e-02
5.245638638734817505e-02
-1.898530684411525726e-02
1.391557417809963226e-02
-5.668386071920394897e-02
5.261742323637008667e-02
-5.096318572759628296e-02
-1.139659732580184937e-01
2.920591831207275391e-01
-7.957775145769119263e-02
-1.339940577745437622e-01
-2.175873704254627228e-02
7.960993051528930664e-02
-5.167479813098907471e-02
1.558490544557571411e-01
-2.706260047852993011e-02
7.765536010265350342e-02
-5.098089203238487244e-02
-5.482042580842971802e-02
2.572642080485820770e-02
5.535782873630523682e-02
4.218599200248718262e-02
8.580394834280014038e-02
1.247483026236295700e-02
3.658057004213333130e-02
-3.885760204866528511e-03
-3.191849216818809509e-02
-6.063813716173171997e-02
-3.576565161347389221e-02
2.182179316878318787e-02
-4.068148508667945862e-02
3.359120711684226990e-02
-1.171152517199516296e-01
-1.012006700038909912e-01
-4.915394261479377747e-02
1.567972265183925629e-02
7.802183181047439575e-02
5.459913983941078186e-02
-8.022751659154891968e-03
-9.118175506591796875e-02
-2.031491696834564209e-02
-1.265716254711151123e-01
-9.466689079999923706e-02
2.221257835626602173e-01
-1.127679198980331421e-01
-4.780986160039901733e-02
-3.653506562113761902e-02
6.760351359844207764e-02
3.881778940558433533e-02
-6.767096370458602905e-02
4.307060688734054565e-02
1.039465442299842834e-01
6.482846289873123169e-02
-3.932065889239311218e-02
-8.382015675306320190e-02
1.154270023107528687e-01
1.969877444207668304e-02
6.753269582986831665e-02
-5.220834165811538696e-02
-7.696839421987533569e-02
1.237406730651855469e-01
-3.677977621555328369e-02
1.187560185790061951e-01
-1.444767694920301437e-03
4.785514436662197113e-03
-1.106946095824241638e-01
1.373517734464257956e-04
7.834921777248382568e-02
-1.821261458098888397e-02
7.592561841011047363e-02
-4.735464602708816528e-02
-1.000396236777305603e-01
1.737696118652820587e-02
3.463695943355560303e-02
1.923146098852157593e-02
-1.516816788353025913e-03
-1.155074220150709152e-02
-1.126014292240142822e-01
5.145848914980888367e-02
-3.892230242490768433e-02
-1.082895603030920029e-02
5.845958366990089417e-03
5.904220417141914368e-02
5.794242024421691895e-03
-5.761751905083656311e-02
-2.065480314195156097e-02
7.041348144412040710e-03
2.657090313732624054e-02
-1.282205730676651001e-01
-3.119410276412963867e-01
3.636531159281730652e-02
-4.822041094303131104e-02
4.485809057950973511e-02
-4.098148643970489502e-02
5.416742991656064987e-03
2.621710002422332764e-01
2.796816825866699219e-02
-9.975901246070861816e-02
-1.710691861808300018e-02
2.346672490239143372e-02
-8.190420269966125488e-02
-2.150147855281829834e-01
-1.560428738594055176e-02
1.090804114937782288e-01
-8.506039530038833618e-02
3.891017660498619080e-02
-6.226550042629241943e-02
1.360747218132019043e-01
-5.414696410298347473e-02
1.189309582114219666e-01
7.043334841728210449e-02
-1.206775382161140442e-01
-1.133988425135612488e-01
-2.701127901673316956e-02
-2.464217133820056915e-02
-1.976848579943180084e-02
5.238021910190582275e-02
-1.317364871501922607e-01
1.121642781072296202e-04
-4.685285314917564392e-02
-4.186472296714782715e-02
-1.746408194303512573e-01
-1.569944666698575020e-03
-1.661140173673629761e-01
1.000021919608116150e-01
-3.559536486864089966e-02
-3.585159406065940857e-02
-6.736496835947036743e-02
1.504339836537837982e-02
7.310376316308975220e-02
-9.146931022405624390e-02
7.303004711866378784e-02
6.416688114404678345e-02
-9.638569504022598267e-02
3.162598609924316406e-02
-1.095335558056831360e-02
-3.842476308345794678e-01
5.086926743388175964e-02
-8.008633553981781006e-02
5.418036133050918579e-02
2.693752176128327847e-04
-5.322870984673500061e-02
3.620602190494537354e-02
-1.970636658370494843e-02
-8.086825907230377197e-02
-5.195532366633415222e-02
7.556887716054916382e-02
1.818385533988475800e-02
-1.320981085300445557e-01
4.760380461812019348e-02
6.213498301804065704e-03
1.082274839282035828e-01
-7.523269951343536377e-02
1.291140215471386909e-03
5.768398940563201904e-02
2.698716334998607635e-02
-6.267818063497543335e-02
-5.392644181847572327e-02
7.567387074232101440e-02
-1.237924024462699890e-01
-2.445038035511970520e-02
-1.797105967998504639e-01
-9.504111111164093018e-02
-1.115476712584495544e-02
-2.274970114231109619e-01
8.731918036937713623e-02
-4.946428537368774414e-02
9.484598785638809204e-02
5.239318311214447021e-02
1.164634227752685547e-01
-2.628687955439090729e-02
1.304890513420104980e-01
8.357113599777221680e-02
1.782350987195968628e-02
-3.264277800917625427e-02
-7.027849555015563965e-02
-3.629574179649353027e-02
-2.631962113082408905e-02
-9.080446511507034302e-02
-7.739450037479400635e-02
-2.951751276850700378e-02
-2.115125209093093872e-01
9.173633158206939697e-02
1.182971755042672157e-03
-1.543942559510469437e-02
9.472109377384185791e-02
8.646879345178604126e-03
-5.101792514324188232e-02
-5.295455455780029297e-02
8.977580815553665161e-02
4.305973649024963379e-02
-6.557796895503997803e-02
4.093592520803213120e-03
4.631425440311431885e-02
6.821175664663314819e-02
-1.938365586102008820e-02
-2.679263986647129059e-02
-5.504822731018066406e-02
-7.355688512325286865e-02
5.746894702315330505e-02
3.960408642888069153e-02
1.339237950742244720e-02
-7.878740876913070679e-02
-9.081565588712692261e-02
7.630676031112670898e-02
6.842418760061264038e-02
-3.842519968748092651e-02
-7.181742787361145020e-02
-1.463445723056793213e-01
1.989523693919181824e-02
-3.423026204109191895e-02
-3.947919979691505432e-02
1.164171844720840454e-02
-4.374033957719802856e-02
-1.288488134741783142e-02
8.643152564764022827e-02
-3.443024680018424988e-02
-2.496328204870223999e-01
-7.781900465488433838e-02
3.831934928894042969e-02
8.802441507577896118e-02
1.605254113674163818e-01
-2.896676585078239441e-02
-7.664012163877487183e-02
4.272668808698654175e-02
8.462867885828018188e-02
8.729043602943420410e-02
5.776078999042510986e-02
-4.621715098619461060e-02
-1.718774205073714256e-03
9.231134317815303802e-03
-6.229240447282791138e-02
-1.475046388804912567e-02
1.213101204484701157e-02
-6.922660022974014282e-02
-2.189060673117637634e-02
1.242949515581130981e-01
-1.166955754160881042e-01
1.257475614547729492e-01
1.333824247121810913e-01
2.822569571435451508e-02
-4.127299040555953979e-02
-1.394843310117721558e-02
4.577009379863739014e-02
-1.157684549689292908e-01
2.088476121425628662e-01
4.903286695480346680e-02
2.992867678403854370e-02
-5.427272990345954895e-03
7.327143102884292603e-02
3.335182368755340576e-02
-4.251524433493614197e-02
-1.881637983024120331e-02
-5.469941720366477966e-02
5.687257647514343262e-02
-8.022016845643520355e-03
-8.710619062185287476e-02
-4.709122702479362488e-02
4.071813821792602539e-02
-9.432543069124221802e-02
-2.832246385514736176e-02
-9.004812687635421753e-02
7.999300211668014526e-02
-2.693394571542739868e-02
7.322447746992111206e-02
-3.791401162743568420e-02
-1.046881377696990967e-01
-1.640536785125732422e-01
5.528816208243370056e-02
-1.640823669731616974e-02
1.935965567827224731e-02
-5.257393792271614075e-02
-7.871418446302413940e-02
2.566709555685520172e-02
6.488756742328405380e-03
3.206554055213928223e-02
1.293925344944000244e-01
1.213798858225345612e-02
-1.235620211809873581e-02
2.591666020452976227e-02
2.191905677318572998e-02
2.063178829848766327e-02
-7.583241164684295654e-02
-2.166050374507904053e-01
-2.885518595576286316e-02
3.603763179853558540e-03
-8.819106966257095337e-03
-1.443273946642875671e-02
-2.331937290728092194e-02
-2.363198995590209961e-02
4.788607358932495117e-02
-9.770417958498001099e-02
-2.565079368650913239e-02
1.000483334064483643e-02
6.130118668079376221e-02
-4.795951768755912781e-02
-1.683696061372756958e-01
2.848071791231632233e-02
-8.609663695096969604e-02
-1.444851309061050415e-01
7.871598005294799805e-02
1.227436661720275879e-01
-9.425981342792510986e-02
6.250563263893127441e-02
4.375510290265083313e-02
-6.548362970352172852e-02
3.618991374969482422e-02
-1.555418819189071655e-01
-2.273899316787719727e-02
1.743644326925277710e-01
5.108590796589851379e-02
-1.116408631205558777e-01
-1.483018100261688232e-01
2.037489116191864014e-01
4.081138223409652710e-02
-7.830494642257690430e-02
-1.136806141585111618e-02
1.130435094237327576e-01
-2.409799844026565552e-01
-8.186049759387969971e-02
-1.695697754621505737e-01
-1.357893645763397217e-01
-4.340604692697525024e-02
-2.714360365644097328e-03
5.532453581690788269e-02
-4.040334746241569519e-02
-1.984462291002273560e-01
7.208228111267089844e-02
3.039720095694065094e-02
1.239686459302902222e-02
-6.485817581415176392e-02
3.242447227239608765e-02
-1.607806235551834106e-02
5.123222619295120239e-02
-8.846420794725418091e-02
-1.902421936392784119e-02
-4.355142265558242798e-02
1.759680211544036865e-01
1.262564637727336958e-05
-9.942679107189178467e-02
-5.803433433175086975e-02
3.683877363801002502e-02
5.698855221271514893e-02
3.021544516086578369e-01
-8.748152107000350952e-02
-2.364873439073562622e-01
4.789585713297128677e-03
-6.892367452383041382e-02
-8.967167139053344727e-02
-1.257713437080383301e-01
-6.507000327110290527e-02
5.366763100028038025e-02
6.566391885280609131e-02
3.667499497532844543e-02
-4.394941031932830811e-02
6.331255286931991577e-02
8.255801349878311157e-02
-1.252922713756561279e-01
-1.937109977006912231e-01
2.780504897236824036e-02
-7.014288753271102905e-02
-1.238171383738517761e-02
-1.391218900680541992e-01
4.451106768101453781e-03
3.122345805168151855e-01
7.019088417291641235e-02
1.592120900750160217e-02
-3.080235421657562256e-02
-9.014704823493957520e-02
1.169062405824661255e-02
4.195067286491394043e-02
1.037359535694122314e-01
-3.391543403267860413e-02
4.212023317813873291e-02
-1.946709677577018738e-02
-2.451852522790431976e-02
1.455228868871927261e-02
1.192031130194664001e-01
7.415168732404708862e-02
-1.899008303880691528e-01
2.420416921377182007e-01
6.972107291221618652e-02
1.088151484727859497e-01
-3.704693913459777832e-02
-1.461204886436462402e-01
1.248264461755752563e-01
-3.847226873040199280e-02
-4.847835376858711243e-02
5.041262879967689514e-02
1.749020516872406006e-01
-4.726037383079528809e-02
4.257014766335487366e-02
-7.683903723955154419e-02
-1.919890940189361572e-02
1.180013045668601990e-01
-5.379907786846160889e-02
3.404124826192855835e-02
4.105211794376373291e-02
-2.764441817998886108e-02
5.744704231619834900e-02
-1.715733669698238373e-02
1.007317230105400085e-01
-4.920491948723793030e-02
-4.756672773510217667e-03
1.137886494398117065e-01
4.098455421626567841e-03
-6.450497359037399292e-02
-5.921882018446922302e-02
-5.682847928255796432e-03
5.395252257585525513e-03
1.971631497144699097e-02
2.080796062946319580e-01
3.078528121113777161e-02
1.835689134895801544e-02
-2.108374051749706268e-02
-7.449961453676223755e-02
7.604495435953140259e-02
-2.750740945339202881e-01
-5.972268804907798767e-02
-1.367059163749217987e-02
-2.839602297171950340e-03
-2.431437373161315918e-02
-1.722155371680855751e-03
-1.207458786666393280e-02
-1.126275658607482910e-01
-1.688960045576095581e-01
1.901325955986976624e-02
5.442901328206062317e-02
-1.080246567726135254e-01
-1.589118316769599915e-02
5.482293292880058289e-02
3.887498006224632263e-02
-3.464032709598541260e-02
1.026963144540786743e-01
-9.766895323991775513e-02
1.233954802155494690e-01
2.376362914219498634e-03
1.041917428374290466e-01
2.963523752987384796e-02
1.330596357583999634e-01
-5.353935062885284424e-02
-2.007468938827514648e-01
1.499684900045394897e-02
-6.215643137693405151e-02
3.471168223768472672e-03
2.234165221452713013e-01
-9.970318526029586792e-02
5.157047137618064880e-02
-7.791808992624282837e-02
1.624370552599430084e-02
-2.133632004261016846e-01
3.974588215351104736e-02
5.580386519432067871e-02
-1.214431971311569214e-01
3.128786757588386536e-02
-2.112206816673278809e-02
2.380466833710670471e-02
2.308267168700695038e-02
-2.205364555120468140e-01
8.849310874938964844e-02
-3.873428329825401306e-02
3.299019858241081238e-02
-2.967622689902782440e-02
8.109578490257263184e-02
-1.091409102082252502e-01
-1.131840422749519348e-01
-1.591004617512226105e-02
5.967011675238609314e-02
5.132087692618370056e-02
2.559483423829078674e-02
4.062552377581596375e-02
-3.581790626049041748e-02
3.023240901529788971e-02
-2.218221127986907959e-01
1.133838575333356857e-02
-3.552305325865745544e-02
9.038150310516357422e-02
2.933244109153747559e-01
8.218398690223693848e-02
9.539221227169036865e-02
-6.959901750087738037e-02
-8.939213305711746216e-02
-1.634330600500106812e-01
-4.615557193756103516e-02
-6.171273812651634216e-02
-8.183705806732177734e-02
2.240458689630031586e-02
2.939218096435070038e-02
1.391676962375640869e-01
-1.901919394731521606e-01
3.929312899708747864e-02
2.207754850387573242e-01
-2.616379596292972565e-02
7.222459465265274048e-02
-8.041689544916152954e-02
7.937991619110107422e-02
5.296186730265617371e-02
-4.599039256572723389e-02
3.450297983363270760e-03
-1.079171448945999146e-01
-3.087619319558143616e-03
-6.037579849362373352e-02
-3.704331815242767334e-03
-5.730287730693817139e-02
-6.988861411809921265e-02
-6.398911774158477783e-02
-1.907399296760559082e-01
3.111057914793491364e-02
-1.175007782876491547e-02
5.551510304212570190e-02
-1.661450713872909546e-01
1.344067696481943130e-02
4.960546642541885376e-02
8.444920927286148071e-02
-1.322896778583526611e-01
5.999906361103057861e-02
-3.086978942155838013e-02
3.467983007431030273e-01
-1.137200091034173965e-02
8.406371623277664185e-02
-3.265772759914398193e-02
8.825188130140304565e-02
7.284130901098251343e-02
1.025527790188789368e-01
-3.412880375981330872e-02
3.712702309712767601e-03
-8.608094602823257446e-02
-1.660699695348739624e-01
1.703824847936630249e-01
-1.148511469364166260e-01
1.540396362543106079e-01
-1.838455535471439362e-02
-7.656295597553253174e-02
-9.518294781446456909e-02
-3.841717913746833801e-02
1.608612947165966034e-02
-5.501993745565414429e-02
6.272447109222412109e-02
-3.256425261497497559e-02
1.440611630678176880e-01
6.452164798974990845e-02
-3.405632451176643372e-02
-6.884750723838806152e-02
5.178700387477874756e-02
-1.881867498159408569e-01
-1.076853200793266296e-01
1.275177448987960815e-01
5.017099902033805847e-02
-1.412777304649353027e-01
-1.104021668434143066e-01
-1.472594290971755981e-01
-6.210579723119735718e-02
-5.866590421646833420e-03
-3.820363059639930725e-02
4.258001223206520081e-02
-2.722866237163543701e-01
-3.447847440838813782e-02
4.905985668301582336e-02
4.527173191308975220e-02
-7.305891066789627075e-02
-1.249822881072759628e-02
-2.359455674886703491e-01
2.598637016490101814e-03
-9.268217533826828003e-02
2.661486156284809113e-02
-1.155768111348152161e-01
1.292706131935119629e-01
-7.628006488084793091e-02
5.750485882163047791e-02
-2.836440205574035645e-01
3.874938562512397766e-02
1.396391540765762329e-01
-1.107833757996559143e-01
-1.770020425319671631e-01
-1.703213453292846680e-01
-1.213552989065647125e-02
2.986498177051544189e-02
8.193510770797729492e-02
-1.713665574789047241e-02
2.874809503555297852e-02
-4.829273372888565063e-02
5.690008774399757385e-02
1.939724385738372803e-01
-9.286186844110488892e-02
-1.300620883703231812e-01
2.405120804905891418e-02
2.846450507640838623e-01
-5.968151241540908813e-02
-9.996718168258666992e-02
-3.557844832539558411e-02
1.683653444051742554e-01
-2.669176645576953888e-02
-1.544291824102401733e-01
-3.303799778223037720e-02
4.214930906891822815e-02
1.421236898750066757e-03
9.391517192125320435e-02
3.565060719847679138e-02
-1.019450128078460693e-01
-1.072183847427368164e-01
4.283683001995086670e-02
2.329308092594146729e-01
1.262590438127517700e-01
-1.274756621569395065e-02
2.670086361467838287e-02
-8.865816518664360046e-03
-2.643824927508831024e-02
5.181897431612014771e-02
-2.873652148991823196e-03
4.232472553849220276e-02
5.624237470328807831e-03
-9.791129827499389648e-02
1.601539254188537598e-01
-4.393876343965530396e-02
-2.354932576417922974e-02
3.613388538360595703e-02
9.395807981491088867e-02
-3.276995569467544556e-02
5.246690660715103149e-02
9.741694666445255280e-03
1.624467433430254459e-03
-1.949213296175003052e-01
-4.284211248159408569e-02
-4.532814770936965942e-02
2.452981716487556696e-04
4.439744353294372559e-02
-2.980141155421733856e-02
1.464392095804214478e-01
-4.988220706582069397e-02
4.072628915309906006e-02
7.007919996976852417e-02
-4.320161417126655579e-02
-2.233494259417057037e-02
8.267816901206970215e-02
-1.654453948140144348e-02
3.644654899835586548e-02
-9.641729295253753662e-02
-1.803343929350376129e-02
-4.482675716280937195e-02
3.691197186708450317e-02
-6.004232913255691528e-03
9.382362477481365204e-03
-4.321540147066116333e-02
-8.111948519945144653e-02
-3.610286489129066467e-02
-1.938345581293106079e-01
-1.354263126850128174e-01
3.892374411225318909e-02
7.421312481164932251e-02
-5.495843291282653809e-02
9.403122216463088989e-02
4.302265495061874390e-02
-1.283114552497863770e-01
6.904071569442749023e-02
-4.755667969584465027e-02
-1.888279058039188385e-02
4.226280003786087036e-02
-1.933656334877014160e-01
5.590802431106567383e-02
-2.281857188791036606e-03
6.637680530548095703e-02
6.382008641958236694e-02
-4.576123133301734924e-02
4.155976325273513794e-02
-1.270841807126998901e-01
4.975365847349166870e-02
-8.805179595947265625e-02
7.633358240127563477e-02
-6.560947000980377197e-02
-9.039273113012313843e-02
-5.514726787805557251e-02
-5.489476397633552551e-02
-8.391851931810379028e-02
-2.962473407387733459e-02
-5.644129589200019836e-02
-4.518597945570945740e-02
5.013925209641456604e-02
7.144482433795928955e-02
1.031879484653472900e-01
8.327756822109222412e-02
6.068299990147352219e-03
8.539810031652450562e-02
6.998569518327713013e-02
7.377277128398418427e-03
-3.523399680852890015e-02
-1.024442762136459351e-01
-5.300533771514892578e-02
-6.317618489265441895e-02
-4.280557110905647278e-02
1.127018928527832031e-01
1.090460568666458130e-01
-8.560196496546268463e-03
6.336132995784282684e-03
1.056234687566757202e-01
-5.299188941717147827e-02
3.354756534099578857e-02
-1.335804816335439682e-02
-2.523358464241027832e-01
5.668997764587402344e-02
-1.055213510990142822e-01
-8.037115633487701416e-02
3.696337109431624413e-03
-5.250696092844009399e-02
1.308284401893615723e-01
-4.417370632290840149e-02
-1.014781147241592407e-01
4.131973162293434143e-02
4.486580193042755127e-02
1.108447685837745667e-01
-9.218003600835800171e-02
1.287920176982879639e-01
9.700095653533935547e-02
-1.292089670896530151e-01
-1.567094586789608002e-02
9.900619834661483765e-02
-1.147498190402984619e-01
7.778114080429077148e-02
-3.712854906916618347e-02
2.159348502755165100e-02
8.046363294124603271e-02
1.605414599180221558e-01
9.248758107423782349e-02
3.440755978226661682e-02
-4.720267280936241150e-02
-1.038363296538591385e-02
3.497822955250740051e-02
1.222000196576118469e-01
3.228908032178878784e-02
-6.181300431489944458e-02
-8.185545355081558228e-02
1.008499115705490112e-01
-7.062987983226776123e-02
-1.300636678934097290e-01
8.764682710170745850e-02
-1.410270947962999344e-02
5.110462382435798645e-02
2.610434778034687042e-02
-1.563964039087295532e-02
-6.932982057332992554e-02
1.054156497120857239e-01
-6.137724965810775757e-02
1.072544828057289124e-01
5.243031308054924011e-03
-5.614488199353218079e-02
1.364571005105972290e-01
2.328230300918221474e-03
1.635634340345859528e-02
1.978867053985595703e-01
-5.365712568163871765e-02
1.272452324628829956e-01
1.488791853189468384e-01
4.646493121981620789e-02
-2.573238313198089600e-02
-5.693462118506431580e-02
-8.409097045660018921e-02
7.590573281049728394e-02
8.621627837419509888e-02
-3.478478267788887024e-02
1.357569359242916107e-02
5.687607824802398682e-02
-9.348581731319427490e-02
7.608727365732192993e-02
4.008883982896804810e-02
-1.170208491384983063e-02
6.731905788183212280e-02
6.692163646221160889e-02
-1.263487339019775391e-01
-3.841107338666915894e-02
-7.332612574100494385e-02
-1.531098335981369019e-01
-1.493762154132127762e-02
-5.130253266543149948e-03
1.162590608000755310e-01
-2.459689974784851074e-01
-1.053210906684398651e-02
-2.577768452465534210e-02
-4.215984046459197998e-02
2.330699004232883453e-02
2.046886831521987915e-02
-3.968489822000265121e-03
6.006802991032600403e-02
9.106573415920138359e-04
2.350498456507921219e-03
-6.698203831911087036e-02
5.761202890425920486e-03
1.595129221677780151e-01
1.545563489198684692e-01
-2.486834116280078888e-02
2.165860123932361603e-02
-6.958793848752975464e-03
2.284035581396892667e-04
4.275131970643997192e-03
-3.440333902835845947e-02
1.955894231796264648e-01
2.675884589552879333e-02
3.172158962115645409e-03
1.716179996728897095e-01
-5.596046149730682373e-02
2.538694813847541809e-02
-9.016786515712738037e-02
9.323136880993843079e-03
1.105022504925727844e-01
-2.645893767476081848e-02
-8.334612846374511719e-02
-8.245651423931121826e-02
-4.648725688457489014e-02
-2.140167355537414551e-01
2.249376103281974792e-02
-4.266102984547615051e-02
-7.195204030722379684e-03
9.858948737382888794e-02
-4.000085890293121338e-01
-5.440455302596092224e-02
-3.585319966077804565e-02
-8.196872659027576447e-03
-7.156156003475189209e-02
-8.672790229320526123e-02
8.412381261587142944e-02
6.098934635519981384e-02
-5.711270123720169067e-02
-1.849892735481262207e-01
2.072658762335777283e-02
9.167965501546859741e-02
-9.758919477462768555e-02
1.037006601691246033e-01
1.347298622131347656e-01
-5.381796881556510925e-02
-1.841395050287246704e-01
5.968747660517692566e-03
-1.430734097957611084e-01
-7.154690474271774292e-02
-1.028500497341156006e-01
1.198388412594795227e-01
-1.171366423368453979e-01
6.923655420541763306e-02
-8.973443508148193359e-02
-2.080802433192729950e-02
3.024552762508392334e-02
-4.099573567509651184e-02
1.258044093847274780e-01
-7.768476754426956177e-02
-3.848604112863540649e-02
1.100241243839263916e-01
-7.475756853818893433e-02
6.348950415849685669e-02
1.040861196815967560e-02
4.369152709841728210e-02
5.553421005606651306e-02
-4.219973832368850708e-02
-2.617316544055938721e-01
4.687471687793731689e-02
-1.160820499062538147e-01
7.665140181779861450e-02
3.696636855602264404e-02
4.191939160227775574e-02
6.762531120330095291e-03
1.033728644251823425e-01
2.618813812732696533e-01
9.611222892999649048e-02
-2.891731448471546173e-02
-1.119901053607463837e-02
2.306578122079372406e-02
9.314566850662231445e-03
1.266957074403762817e-01
-1.922396123409271240e-01
-4.114666581153869629e-02
7.475153356790542603e-02
-7.705877721309661865e-02
-2.576638013124465942e-02
1.547743231058120728e-01
-4.536654800176620483e-02
-4.105766117572784424e-02
1.025037989020347595e-01
4.032021760940551758e-02
-4.587570205330848694e-02
-1.652985438704490662e-02
8.402760140597820282e-03
-1.323942244052886963e-01
-1.922861114144325256e-02
-1.876140385866165161e-01
-3.214807808399200439e-01
-1.355709433555603027e-01
3.284069523215293884e-02
-2.476386912167072296e-02
1.024129707366228104e-02
5.907111614942550659e-02
3.952969610691070557e-02
2.481071464717388153e-02
6.498341262340545654e-02
1.814057081937789917e-01
-1.204447541385889053e-02
-2.153228521347045898e-01
-1.687487959861755371e-01
2.013827674090862274e-02
7.707802206277847290e-02
1.200803741812705994e-01
1.516098678112030029e-01
8.898457512259483337e-03
1.048624739050865173e-01
-1.640268564224243164e-01
9.835287183523178101e-02
-1.379356384277343750e-01
2.821064926683902740e-02
-8.042314648628234863e-02
-1.989527791738510132e-02
-1.959641836583614349e-02
-1.463446468114852905e-01
-1.367072314023971558e-01
2.195696532726287842e-02
-7.766225188970565796e-02
3.923923149704933167e-02
-8.057421445846557617e-02
-6.754705309867858887e-02
1.127905473113059998e-01
1.417187005281448364e-01
-5.784933641552925110e-02
1.828083209693431854e-02
5.024942383170127869e-02
6.438522040843963623e-02
-9.278681129217147827e-02
9.425869584083557129e-02
4.104679974261671305e-04
1.078222692012786865e-01
-1.031056717038154602e-01
2.524533681571483612e-02
1.209144759923219681e-02
-2.482575923204421997e-02
-7.944557815790176392e-02
-7.559960335493087769e-02
-1.036312878131866455e-01
1.082934811711311340e-01
-4.482017457485198975e-02
-7.922122627496719360e-02
-3.333172202110290527e-02
1.591486632823944092e-01
2.156553324311971664e-03
1.397227775305509567e-02
1.236945539712905884e-01
5.612582713365554810e-02
-1.259531229734420776e-01
-1.463444996625185013e-02
2.006814628839492798e-02
-2.158727124333381653e-02
5.626717209815979004e-02
5.969024822115898132e-02
9.147655218839645386e-02
7.815660536289215088e-02
-2.996578812599182129e-02
6.104675680398941040e-02
-1.948748826980590820e-01
-1.143219843506813049e-01
8.293677121400833130e-02
-7.462401688098907471e-02
4.971779137849807739e-02
-1.351260929368436337e-03
5.480519309639930725e-02
-3.287204727530479431e-02
6.494985427707433701e-03
1.110662072896957397e-01
1.327531877905130386e-02
4.438437893986701965e-02
-8.103785663843154907e-02
-1.446906775236129761e-01
2.626499347388744354e-02
3.795154020190238953e-02
-6.312680244445800781e-02
-1.449898928403854370e-01
5.518143251538276672e-02
4.492804035544395447e-02
4.881714284420013428e-02
-7.814109325408935547e-02
7.259365171194076538e-02
-1.965702027082443237e-01
2.814761362969875336e-02
-1.300315856933593750e-01
-7.511872798204421997e-02
-8.668515086174011230e-02
-2.441841736435890198e-02
1.258316077291965485e-02
1.934932321310043335e-01
4.934744164347648621e-02
-1.049080118536949158e-01
-7.315714657306671143e-02
1.294239461421966553e-01
5.291531980037689209e-02
-1.754826307296752930e-01
-3.925293684005737305e-02
6.043203175067901611e-02
-1.068629920482635498e-01
-1.017780080437660217e-01
-8.185561001300811768e-02
1.036874502897262573e-01
-1.025045290589332581e-01
3.143956139683723450e-02
-8.046866953372955322e-02
3.953325748443603516e-02
2.419398128986358643e-01
1.006764993071556091e-01
-6.244493648409843445e-02
6.609063595533370972e-02
-1.623872481286525726e-02
1.819508969783782959e-01
7.138381898403167725e-02
6.284027546644210815e-02
-2.360017038881778717e-02
-9.346367418766021729e-02
4.675477743148803711e-02
1.862623840570449829e-01
-4.672253504395484924e-02
3.400104492902755737e-02
3.520111739635467529e-02
5.165486037731170654e-02
-2.209974266588687897e-02
-1.520625650882720947e-01
-4.082230478525161743e-02
1.497176289558410645e-01
-1.580442339181900024e-01
-5.061976145952939987e-03
4.779561609029769897e-02
4.165491089224815369e-02
7.989813387393951416e-02
1.240840274840593338e-02
-1.550472900271415710e-02
-4.286101611796766520e-04
1.795319765806198120e-01
-8.682474493980407715e-02
9.672751650214195251e-03
-7.333921268582344055e-03
-4.685687273740768433e-02
2.905527949333190918e-01
4.611175134778022766e-02
-4.639444127678871155e-02
9.759845584630966187e-02
-1.098841428756713867e-02
4.796764627099037170e-02
1.762302219867706299e-02
1.051685437560081482e-01
-1.530258357524871826e-02
9.900236129760742188e-02
-1.668853163719177246e-01
-5.810441821813583374e-02
8.558452129364013672e-02
-8.220172673463821411e-02
2.060895971953868866e-02
8.381416648626327515e-02
3.515555523335933685e-03
-8.827622979879379272e-02
-2.190756984055042267e-02
6.681382656097412109e-02
5.631930753588676453e-02
-1.176288053393363953e-01
8.476994186639785767e-02
6.623700261116027832e-02
5.100482609122991562e-03
6.399677367880940437e-04
2.328399196267127991e-02
-7.586013991385698318e-03
3.108504414558410645e-01
3.931175544857978821e-02
6.054224446415901184e-03
5.111579783260822296e-03
-3.564213216304779053e-02
3.814783692359924316e-02
-7.975783199071884155e-02
7.554123178124427795e-03
1.569582074880599976e-01
8.780357241630554199e-02
3.960574977099895477e-03
5.122240260243415833e-02
3.275673091411590576e-02
1.639632284641265869e-01
-4.520538449287414551e-02
-5.108519271016120911e-02
-4.115267843008041382e-02
3.046493604779243469e-02
-1.106502339243888855e-01
4.254278168082237244e-02
-9.520559012889862061e-02
-5.167356878519058228e-02
-6.029072403907775879e-02
-5.651808902621269226e-02
3.415002226829528809e-01
1.506936401128768921e-01
8.021576702594757080e-02
1.500816550105810165e-02
-9.473036229610443115e-02
-5.481907352805137634e-02
-2.172550559043884277e-02
1.486077755689620972e-01
-5.383927747607231140e-02
-7.651945203542709351e-02
1.614993065595626831e-02
5.225010961294174194e-02
-5.176689848303794861e-02
1.581156067550182343e-02
-1.676618307828903198e-01
1.344916969537734985e-01
1.011204198002815247e-01
9.608699381351470947e-02
1.705442555248737335e-02
1.129112020134925842e-01
-3.069398924708366394e-03
-8.678644895553588867e-02
7.592023909091949463e-02
-1.768612489104270935e-02
-1.076781973242759705e-01
7.661199569702148438e-02
1.784204691648483276e-02
6.731816381216049194e-02
-4.734011739492416382e-02
8.792323619127273560e-02
-2.700634859502315521e-02
-3.698725486174225807e-03
5.121685191988945007e-02
-7.788595277816057205e-03
-7.956663146615028381e-03
1.219720840454101562e-01
1.161269024014472961e-01
-6.597952544689178467e-02
-2.350916862487792969e-01
-6.039030849933624268e-02
8.363176137208938599e-02
1.312007196247577667e-03
-1.163134817034006119e-02
-1.591373085975646973e-01
-1.918182373046875000e-01
1.848132535815238953e-02
-6.408243626356124878e-02
-8.265934139490127563e-02
2.081892043352127075e-01
-4.662599787116050720e-02
-4.719306528568267822e-02
-2.171908766031265259e-01
5.890880525112152100e-02
-1.031622663140296936e-01
1.340710669755935669e-01
-1.628778576850891113e-01
1.306182593107223511e-01
-7.571835815906524658e-02
-1.091244909912347794e-02
5.092726275324821472e-02
6.587763875722885132e-02
1.167423054575920105e-01
-4.014740139245986938e-02
2.885471843183040619e-02
2.249918691813945770e-02
8.019579201936721802e-02
9.634214639663696289e-02
-2.058655619621276855e-01
1.389169832691550255e-03
-1.063356027007102966e-01
2.000014297664165497e-02
1.053500622510910034e-01
3.711216524243354797e-02
-5.627758800983428955e-02
-1.018029823899269104e-01
1.412451546639204025e-02
2.814626321196556091e-02
9.946693480014801025e-02
1.112078204751014709e-01
-1.266400143504142761e-02
8.783645182847976685e-02
5.718203634023666382e-02
-4.764524754136800766e-03
-9.197836369276046753e-02
-1.026530168019235134e-03
1.082751248031854630e-02
6.477162241935729980e-02
-1.198371723294258118e-01
-6.619799882173538208e-03
2.775855734944343567e-02
6.223148852586746216e-02
-8.501358330249786377e-02
6.437313742935657501e-03
-2.962211333215236664e-02
1.500162035226821899e-01
7.078158855438232422e-02
5.169135704636573792e-02
-2.901561744511127472e-02
-1.543007977306842804e-02
-3.376538865268230438e-03
-1.527127325534820557e-01
-1.918474957346916199e-02
4.966906830668449402e-02
1.745946258306503296e-01
-2.791031002998352051e-01
1.107827480882406235e-02
8.984374254941940308e-02
-7.928289473056793213e-02
-1.837355792522430420e-01
1.143378615379333496e-01
8.951356261968612671e-02
8.493066579103469849e-02
5.897644534707069397e-02
-8.497937023639678955e-02
1.693022400140762329e-01
1.697654649615287781e-02
-8.837637491524219513e-03
-3.644548356533050537e-02
-1.004281714558601379e-01
6.522619514726102352e-04
-2.411259151995182037e-02
-1.173862889409065247e-01
-7.669654488563537598e-02
6.679631769657135010e-02
-2.411779947578907013e-02
2.701507881283760071e-02
-1.881959587335586548e-01
4.071786999702453613e-02
-1.788478344678878784e-01
-6.145782303065061569e-03
1.086999848484992981e-01
9.094165265560150146e-02
-8.151475340127944946e-02
1.039534136652946472e-01
-1.133413463830947876e-01
1.134413876570761204e-03
-6.232905760407447815e-02
1.033056080341339111e-01
-1.612585270777344704e-03
-1.228483468294143677e-01
-7.435282319784164429e-02
1.128688678145408630e-01
1.148403361439704895e-01
-7.489559799432754517e-02
-1.825755834579467773e-02
1.769417971372604370e-01
4.499747604131698608e-02
2.610195055603981018e-02
-7.372642867267131805e-03
-4.021814092993736267e-02
-7.869827002286911011e-02
1.281167846173048019e-02
5.300966277718544006e-02
-3.421808406710624695e-02
-6.859685480594635010e-02
6.446307897567749023e-02
3.397518303245306015e-04
7.334091514348983765e-02
2.700437791645526886e-02
6.219183281064033508e-02
1.187366992235183716e-01
-5.375028029084205627e-02
1.117156744003295898e-01
-7.734180241823196411e-02
2.425415664911270142e-01
-1.410471946001052856e-01
1.332633048295974731e-01
1.430404931306838989e-01
5.033672973513603210e-02
6.396237015724182129e-02
-4.073310643434524536e-02
-1.736365109682083130e-01
-9.989141486585140228e-03
-4.826020821928977966e-02
-1.071901395916938782e-01
8.856184780597686768e-03
5.389475822448730469e-02
-1.605330258607864380e-01
-4.308194667100906372e-02
2.520821392536163330e-01
-9.001405537128448486e-02
-8.416552096605300903e-02
-2.081986665725708008e-01
1.165772750973701477e-01
1.034349761903285980e-02
-4.343411419540643692e-03
1.059841066598892212e-01
-7.589494343847036362e-03
-9.700222313404083252e-02
4.165588319301605225e-02
1.128494888544082642e-01
1.018112301826477051e-01
1.061407662928104401e-02
1.138343736529350281e-01
8.056603372097015381e-02
7.880053669214248657e-02
-9.526938945055007935e-02
-3.480297699570655823e-02
-1.491746399551630020e-02
6.283449381589889526e-02
-6.066886708140373230e-02
9.433357976377010345e-03
-6.185602396726608276e-02
-9.627926349639892578e-02
3.019361197948455811e-01
2.644059062004089355e-02
5.955788493156433105e-02
-3.004884719848632812e-01
-2.563828416168689728e-02
6.202705577015876770e-02
4.934021458029747009e-02
-1.164205595850944519e-01
1.075303778052330017e-01
9.559120982885360718e-02
6.302683800458908081e-02
2.545070648193359375e-02
-1.368596497923135757e-02
-4.402034729719161987e-02
-6.849534064531326294e-02
-9.035918861627578735e-02
-1.409656405448913574e-01
1.519381906837224960e-02
-1.401922553777694702e-01
-1.278860121965408325e-02
7.186003029346466064e-02
4.157979413866996765e-02
-2.196530997753143311e-01
-1.362604089081287384e-02
-4.283381253480911255e-02
1.045769155025482178e-01
-1.820630952715873718e-02
-1.807557046413421631e-02
4.909389093518257141e-02
4.053566232323646545e-02
6.063289195299148560e-02
-1.048551425337791443e-01
2.369377389550209045e-02
6.089856475591659546e-02
1.106937974691390991e-02
4.022793099284172058e-02
-1.545780431479215622e-02
1.482049375772476196e-01
1.877344213426113129e-02
5.867715924978256226e-02
-5.153397563844919205e-03
-6.859060376882553101e-02
-1.067631095647811890e-01
1.060521677136421204e-01
-4.463730752468109131e-02
-3.491809964179992676e-02
-9.365060925483703613e-02
-1.129356920719146729e-01
1.564794629812240601e-01
2.332808673381805420e-01
4.438434541225433350e-02
5.079422891139984131e-02
1.474132835865020752e-01
-1.377816498279571533e-01
7.167448103427886963e-02
4.958926513791084290e-02
-3.610106557607650757e-02
7.000810652971267700e-02
5.068400874733924866e-02
7.706987857818603516e-02
-3.568856418132781982e-02
3.304960578680038452e-02
-4.692154750227928162e-02
1.005827710032463074e-01
-1.147427856922149658e-01
1.048537157475948334e-02
-1.834301836788654327e-02
5.562932044267654419e-02
3.950514644384384155e-02
5.411550402641296387e-02
6.239750236272811890e-02
-5.295487865805625916e-02
-9.282406535930931568e-04
-2.544443681836128235e-02
-5.369014665484428406e-02
4.867675527930259705e-02
-2.085161209106445312e-02
6.039515137672424316e-02
1.043574810028076172e-01
-9.573367238044738770e-02
5.261673778295516968e-02
-9.339617937803268433e-02
-5.716691259294748306e-03
-2.398822456598281860e-02
1.173074264079332352e-02
-6.369826197624206543e-02
2.616715803742408752e-02
5.522541329264640808e-02
6.425394862890243530e-02
-2.707574889063835144e-02
-4.219355434179306030e-02
8.843015879392623901e-02
1.296858936548233032e-01
-1.010745316743850708e-01
-2.145068906247615814e-02
4.795021936297416687e-02
6.642560660839080811e-02
5.720895901322364807e-02
-1.003295481204986572e-01
-1.692165434360504150e-02
-1.061103120446205139e-01
9.303572773933410645e-02
4.196405410766601562e-02
7.972835004329681396e-02
-7.808655500411987305e-04
2.507593296468257904e-02
-9.242596477270126343e-02
6.889095902442932129e-02
-8.208660036325454712e-02
4.672342538833618164e-02
-2.857942506670951843e-02
-3.823210299015045166e-02
-6.626850366592407227e-02
7.889759540557861328e-02
-5.159106105566024780e-03
-2.625059895217418671e-02
4.113825410604476929e-02
-9.289582818746566772e-02
-5.953592248260974884e-03
3.267349675297737122e-02
7.413717918097972870e-03
-3.132642433047294617e-02
1.632496118545532227e-01
1.768998801708221436e-01
-3.999739885330200195e-02
-8.470935374498367310e-02
2.767432667315006256e-02
-7.954976707696914673e-02
-6.590708345174789429e-02
3.982892259955406189e-03
-3.005605936050415039e-02
6.905815750360488892e-02
8.755154162645339966e-02
1.042988821864128113e-01
9.231854230165481567e-02
2.805651910603046417e-02
-1.520684808492660522e-01
1.027594283223152161e-01
-3.582389280200004578e-02
5.631191190332174301e-03
-7.589894533157348633e-02
6.730332970619201660e-02
-9.505424648523330688e-03
1.207908466458320618e-01
-7.891536690294742584e-03
-1.259545516222715378e-02
4.151454567909240723e-02
3.186414763331413269e-02
-4.649349302053451538e-02
-1.529343146830797195e-02
1.368189156055450439e-01
2.921539545059204102e-02
-3.022602759301662445e-02
9.884286671876907349e-02
-6.676115840673446655e-02
-3.925649076700210571e-02
4.851376637816429138e-02
3.191308351233601570e-03
2.791057899594306946e-02
-4.218709096312522888e-02
1.792573370039463043e-02
1.207724064588546753e-01
-9.279029071331024170e-02
2.679659286513924599e-03
7.811619341373443604e-02
-1.019453629851341248e-01
-5.201704427599906921e-02
-2.726356033235788345e-03
8.734127879142761230e-02
1.378588825464248657e-01
7.723674178123474121e-02
-3.293566871434450150e-03
4.631246253848075867e-02
-1.033680811524391174e-01
-6.088285520672798157e-02
-4.739427939057350159e-02
1.979503966867923737e-02
3.554015234112739563e-02
-1.532287895679473877e-02
-4.536003991961479187e-02
-1.921906471252441406e-01
-3.398451488465070724e-03
-4.297791456338018179e-04
-8.724116533994674683e-02
-2.823808491230010986e-01
-6.794729828834533691e-02
-2.161319740116596222e-02
-5.315832421183586121e-02
3.531247377395629883e-02
9.727616608142852783e-02
1.010770201683044434e-01
-1.022319048643112183e-01
-9.056652896106243134e-03
9.744037874042987823e-03
5.160227417945861816e-02
3.186969459056854248e-02
3.633250668644905090e-02
1.916788667440414429e-01
-3.327656071633100510e-03
-6.758315861225128174e-02
-8.822222799062728882e-02
-1.256790198385715485e-02
3.425170481204986572e-02
1.165370177477598190e-02
1.621259748935699463e-02
2.271332032978534698e-02
-6.832039356231689453e-02
-7.268657535314559937e-02
-6.582336127758026123e-02
-1.107848435640335083e-01
-1.234456002712249756e-01
6.937351077795028687e-02
4.058988764882087708e-02
5.043734610080718994e-02
3.812712803483009338e-02
-3.348634764552116394e-02
6.064941734075546265e-02
-8.588068187236785889e-03
5.642056465148925781e-02
-3.528943657875061035e-02
-4.136807844042778015e-02
6.852050125598907471e-02
5.288223270326852798e-03
-1.104961633682250977e-01
-1.022810116410255432e-01
2.122124098241329193e-02
2.096766792237758636e-02
-3.576584160327911377e-02
-1.112018227577209473e-01
-2.102383039891719818e-02
-4.053319618105888367e-02
1.076424610801041126e-03
-9.793359786272048950e-02
-3.552141785621643066e-02
-2.008382976055145264e-02
-8.316467516124248505e-03
4.988056048750877380e-02
4.222484305500984192e-02
1.703298687934875488e-01
-8.088631182909011841e-02
5.800302140414714813e-03
5.327460542321205139e-02
-6.691708695143461227e-03
2.377322316169738770e-02
-1.104731410741806030e-01
5.027019977569580078e-02
1.495762914419174194e-01
-6.407926231622695923e-02
-4.166315495967864990e-02
-6.110329926013946533e-02
5.137533880770206451e-03
1.388741750270128250e-02
-5.304275825619697571e-02
8.599598705768585205e-02
7.261750102043151855e-02
-4.850680753588676453e-02
1.635936833918094635e-02
-5.521212145686149597e-02
1.615166850388050079e-02
-1.054373681545257568e-01
-5.517378076910972595e-02
-7.227138429880142212e-02
5.223579332232475281e-02
-8.169193752110004425e-03
-4.556008055806159973e-02
6.619224697351455688e-02
1.919274777173995972e-02
-1.703319251537322998e-01
-9.353914298117160797e-03
-7.039272040128707886e-02
-4.020480439066886902e-02
9.414494037628173828e-02
-6.718223541975021362e-02
-3.720799088478088379e-02
-1.082409396767616272e-01
6.393234245479106903e-03
2.903404831886291504e-02
6.983680278062820435e-02
2.540056034922599792e-02
-5.738643929362297058e-02
-6.079405918717384338e-02
1.138035766780376434e-02
-1.295699179172515869e-01
-1.967922747135162354e-01
-5.923810228705406189e-02
-8.746506646275520325e-03
2.511538006365299225e-02
-9.472337365150451660e-02
6.696517765522003174e-02
6.732223182916641235e-02
-1.096171662211418152e-01
5.619599297642707825e-02
-9.246754460036754608e-03
-3.588108345866203308e-02
-7.221566140651702881e-02
-7.683349773287773132e-03
-7.757581025362014771e-02
2.018329128623008728e-02
5.013610795140266418e-02
-6.377474963665008545e-02
-1.399023085832595825e-01
-6.269607692956924438e-02
1.389798521995544434e-01
2.329383231699466705e-02
3.892915323376655579e-02
2.994200773537158966e-02
4.812462627887725830e-02
1.359843909740447998e-01
2.021515667438507080e-01
1.555887144058942795e-02
1.285247784107923508e-02
-3.634814545512199402e-02
-1.701210886240005493e-01
-5.651451274752616882e-02
-4.249873757362365723e-02
1.878018304705619812e-02
7.167822122573852539e-02
-6.531513482332229614e-02
-2.341634780168533325e-02
-4.872756078839302063e-03
5.462336540222167969e-02
8.519405126571655273e-02
4.766445979475975037e-02
5.317224189639091492e-02
1.566359959542751312e-02
5.923841148614883423e-02
-6.068906933069229126e-02
-1.482056677341461182e-01
-6.913847476243972778e-02
5.773333460092544556e-02
1.017224490642547607e-01
-5.904508754611015320e-02
5.758187547326087952e-02
7.730642706155776978e-02
4.032499715685844421e-02
-1.383840143680572510e-01
-1.067325174808502197e-01
-1.613109558820724487e-02
-3.498413786292076111e-02
8.027578890323638916e-02
5.572455748915672302e-02
1.078570336103439331e-01
-2.777162007987499237e-02
4.719484597444534302e-02
-5.735548585653305054e-02
-7.258056430146098137e-04
-1.719105094671249390e-01
5.039048567414283752e-02
-1.379032880067825317e-01
3.040271997451782227e-02
-1.001057028770446777e-01
-1.011096686124801636e-01
-2.783760614693164825e-02
7.903561927378177643e-03
-8.602695167064666748e-02
1.333303749561309814e-01
9.214755892753601074e-02
3.860443131998181343e-03
4.269203916192054749e-02
5.419372767210006714e-02
1.966038485988974571e-03
6.566286832094192505e-02
1.259088665246963501e-01
6.654459983110427856e-02
-3.489728644490242004e-02
3.566065058112144470e-02
4.036511760205030441e-03
-2.722973702475428581e-03
-1.358544528484344482e-01
2.442128956317901611e-02
4.910632595419883728e-02
5.038224626332521439e-03
-8.132318407297134399e-02
5.409877374768257141e-02
1.834911853075027466e-01
-4.681186005473136902e-02
2.564821951091289520e-02
-6.816717982292175293e-02
-7.408096920698881149e-03
-1.717982441186904907e-02
6.793902814388275146e-02
-7.179690152406692505e-02
1.107078120112419128e-01
1.804677210748195648e-02
-9.126978367567062378e-02
9.472639113664627075e-02
-1.502784192562103271e-01
-3.648295253515243530e-02
-1.884616445749998093e-03
-1.411807537078857422e-02
1.082414090633392334e-01
-2.379456907510757446e-02
3.000473603606224060e-02
-3.519145771861076355e-02
4.311842843890190125e-03
-3.965607285499572754e-02
8.922208100557327271e-03
1.124822646379470825e-01
1.469725184142589569e-02
7.421035785228013992e-03
1.055958960205316544e-02
2.281640842556953430e-02
-1.516068447381258011e-02
-3.508260473608970642e-02
-1.794100850820541382e-01
-2.562264800071716309e-01
-4.609834030270576477e-02
-4.847464710474014282e-02
3.448394685983657837e-02
2.265042439103126526e-02
-2.028555795550346375e-02
-8.680193871259689331e-02
-3.945127874612808228e-02
-7.123810797929763794e-02
1.730198226869106293e-02
5.498238652944564819e-02
-2.219485613750293851e-04
1.831169426441192627e-01
-6.012044847011566162e-02
7.659040857106447220e-03
5.289335176348686218e-02
-1.020378991961479187e-02
-1.384042948484420776e-01
-3.234718739986419678e-02
-7.069451361894607544e-02
-6.653568893671035767e-02
9.109325706958770752e-02
-1.401989907026290894e-02
-1.216075494885444641e-01
6.455244123935699463e-02
-4.614382982254028320e-02
6.396014988422393799e-02
-6.866308301687240601e-02
-1.274133771657943726e-01
6.340111792087554932e-02
5.075291544198989868e-02
1.471244096755981445e-01
2.764300629496574402e-02
1.709462521830573678e-04
-4.610928706824779510e-03
1.172854453325271606e-01
-1.097742468118667603e-01
-2.929987572133541107e-02
-5.697704479098320007e-02
9.558288753032684326e-02
-1.122618317604064941e-01
-2.505355142056941986e-02
7.056710869073867798e-02
4.065673053264617920e-02
-1.023726537823677063e-01
-2.456328365951776505e-03
3.186238929629325867e-02
-1.333777233958244324e-02
-1.759603172540664673e-01
-7.263456471264362335e-03
7.132465392351150513e-02
1.442559659481048584e-01
-3.900737967342138290e-03
1.174810379743576050e-01
1.160132419317960739e-02
-1.340321004390716553e-01
5.867979023605585098e-03
6.672884523868560791e-02
-1.383800655603408813e-01
1.886835508048534393e-02
7.599292695522308350e-02
4.553091898560523987e-02
7.201142609119415283e-02
2.682826220989227295e-01
5.066434293985366821e-02
-6.525071710348129272e-02
-1.059732437133789062e-01
-3.790145367383956909e-02
9.081399440765380859e-02
2.013081163167953491e-01
1.050706803798675537e-01
-7.644528895616531372e-02
-1.153085660189390182e-02
6.993528455495834351e-02
1.522825807332992554e-01
4.054141789674758911e-02
-3.270649164915084839e-02
3.278363123536109924e-02
-1.103208214044570923e-01
-5.640921741724014282e-02
1.850620657205581665e-01
9.797586500644683838e-02
-9.051343053579330444e-02
-7.925032079219818115e-02
3.052552603185176849e-02
8.452233672142028809e-02
9.462425857782363892e-02
-8.492985367774963379e-02
-3.594224154949188232e-02
2.263380214571952820e-02
5.377120897173881531e-02
6.689880788326263428e-02
2.591759152710437775e-02
2.623008564114570618e-02
-4.259311407804489136e-02
-1.612882874906063080e-02
-1.219249069690704346e-01
-2.140085250139236450e-01
-2.644745260477066040e-02
9.533082693815231323e-02
1.702359877526760101e-02
-1.717548817396163940e-02
-8.366748690605163574e-02
1.017940714955329895e-01
1.402231771498918533e-02
3.171612322330474854e-02
1.685256510972976685e-01
-1.471860259771347046e-01
5.757737159729003906e-02
1.549047650769352913e-03
2.493069469928741455e-01
1.102992519736289978e-01
-1.390364468097686768e-01
-1.409136503934860229e-01
-3.391384705901145935e-02
-5.166479572653770447e-02
-2.411901578307151794e-02
6.858133524656295776e-02
-8.330863714218139648e-02
9.396798163652420044e-02
-3.260654583573341370e-02
-5.168114602565765381e-02
-9.818238765001296997e-02
9.924063831567764282e-02
2.412547171115875244e-02
1.988281309604644775e-02
-3.338837705086916685e-04
1.983354799449443817e-02
1.617546938359737396e-02
4.541378468275070190e-03
-8.241534233093261719e-02
-7.997858524322509766e-02
-1.677923090755939484e-02
1.919897086918354034e-02
-1.559358239173889160e-01
1.059803962707519531e-01
5.326107516884803772e-02
-8.869655430316925049e-03
-3.328618826344609261e-03
-3.744564577937126160e-02
-8.386050909757614136e-02
9.503770619630813599e-02
-9.653830900788307190e-03
-1.111107096076011658e-01
-4.360661283135414124e-02
3.304547071456909180e-01
-9.095082432031631470e-02
-7.414849824272096157e-04
4.876842349767684937e-02
4.276152700185775757e-02
1.512894928455352783e-01
-1.754892431199550629e-02
1.664117723703384399e-01
6.195847317576408386e-02
-9.504462033510208130e-02
-9.709055721759796143e-02
5.858466029167175293e-02
8.980158716440200806e-02
-4.424254596233367920e-02
-9.990635327994823456e-03
4.946066811680793762e-02
-1.528096497058868408e-01
-9.604390710592269897e-02
1.143241077661514282e-01
4.216188564896583557e-03
2.653483767062425613e-03
-2.444534189999103546e-02
-6.523327901959419250e-03
-1.441853493452072144e-01
-3.672527149319648743e-02
-2.124839276075363159e-02
5.831533297896385193e-02
-9.805180132389068604e-03
3.860701248049736023e-02
3.024712577462196350e-02
-2.538947202265262604e-02
-7.115769386291503906e-02
-7.462250441312789917e-02
2.237548306584358215e-02
-2.429299987852573395e-02
-2.370030991733074188e-02
2.244586125016212463e-02
-1.148720532655715942e-01
1.223329976201057434e-01
1.048911437392234802e-01
9.321372956037521362e-02
-1.449669338762760162e-02
-4.890436679124832153e-02
-2.526008337736129761e-02
7.939893007278442383e-02
3.574607521295547485e-02
-1.419970393180847168e-01
1.457365509122610092e-02
4.269008338451385498e-02
5.611810460686683655e-02
-2.104152441024780273e-01
3.176202997565269470e-02
-1.121326014399528503e-01
-4.045358672738075256e-02
-5.123624950647354126e-02
-4.919563978910446167e-02
-3.424330800771713257e-02
-3.046615980565547943e-02
1.232424005866050720e-01
1.004918292164802551e-01
-6.158560514450073242e-02
1.384725570678710938e-01
-5.325157195329666138e-02
7.976604998111724854e-02
-6.455732136964797974e-02
5.315042287111282349e-02
1.439864784479141235e-01
-1.710728555917739868e-02
1.740686967968940735e-02
2.979890257120132446e-02
-9.631927311420440674e-02
-5.015863571316003799e-04
-9.075220674276351929e-02
1.267285048961639404e-01
-1.053503081202507019e-01
-4.461440257728099823e-03
-4.988314118236303329e-03
-1.226107478141784668e-01
4.700942337512969971e-02
-7.398182153701782227e-02
8.014301955699920654e-02
2.934617735445499420e-02
6.650726497173309326e-02
-8.008888363838195801e-02
6.233717501163482666e-02
2.684174105525016785e-02
-7.048640400171279907e-02
-7.964483462274074554e-03
7.511764764785766602e-02
1.722394861280918121e-02
-4.527538269758224487e-02
9.126409888267517090e-02
1.125808991491794586e-02
7.170733064413070679e-02
-3.870716318488121033e-02
1.018630936741828918e-01
1.847267597913742065e-01
1.136408001184463501e-01
-5.774465203285217285e-02
4.884727671742439270e-02
-1.402888894081115723e-01
4.970764368772506714e-02
-1.927417516708374023e-01
-6.113803945481777191e-03
4.886198788881301880e-02
1.941182650625705719e-02
2.864399738609790802e-02
-5.253621190786361694e-02
6.979202479124069214e-02
5.815331824123859406e-03
-1.467871945351362228e-02
4.929289221763610840e-02
1.078573800623416901e-02
-1.470785588026046753e-03
2.668976038694381714e-02
-2.799014037009328604e-04
1.264915019273757935e-01
3.420945256948471069e-02
-1.020111367106437683e-01
-1.956992037594318390e-02
-1.251067384146153927e-03
1.224013343453407288e-01
-6.803666055202484131e-02
1.147599443793296814e-01
1.230255067348480225e-01
2.487980201840400696e-02
-8.815766125917434692e-02
-5.425676703453063965e-02
-2.906917035579681396e-01
4.075068049132823944e-03
-1.026399135589599609e-01
-9.404475241899490356e-02
-1.069374009966850281e-02
1.079346016049385071e-01
8.397375047206878662e-02
5.123491957783699036e-02
2.797005698084831238e-02
-5.601276177912950516e-03
-1.150145977735519409e-01
3.967617079615592957e-02
1.046213805675506592e-01
-6.864276528358459473e-02
-1.754737049341201782e-01
-2.473321184515953064e-02
-1.497054249048233032e-01
3.025994449853897095e-02
-6.229212880134582520e-02
5.603935103863477707e-03
7.764667272567749023e-02
3.016878105700016022e-02
6.810412555932998657e-02
1.265685912221670151e-02
1.626087166368961334e-02
-2.486938424408435822e-02
-3.999595716595649719e-02
-3.338311333209276199e-03
-4.671611636877059937e-02
-3.968291915953159332e-03
-6.134900450706481934e-02
-6.235486268997192383e-02
3.114586882293224335e-02
3.433471918106079102e-02
7.904072105884552002e-02
2.737522497773170471e-02
-5.153930559754371643e-02
-5.103486776351928711e-02
1.236440911889076233e-01
-8.440957218408584595e-02
1.577433571219444275e-02
-4.526623710989952087e-02
2.589722350239753723e-02
3.913760185241699219e-03
1.500178575515747070e-01
-7.191000133752822876e-02
1.337696462869644165e-01
3.023004159331321716e-02
-1.871917024254798889e-02
-6.594045553356409073e-04
-1.468173712491989136e-01
-1.095200181007385254e-01
-1.473956108093261719e-01
-2.313395217061042786e-02
-6.679794937372207642e-02
-1.090185418725013733e-01
8.099047094583511353e-02
1.232836991548538208e-01
-3.396734595298767090e-02
2.905386500060558319e-02
-2.889823354780673981e-02
-1.074834242463111877e-01
-2.158518582582473755e-01
-9.359194897115230560e-03
7.919979095458984375e-02
-1.714709699153900146e-01
-2.332473173737525940e-03
1.021606996655464172e-01
7.620646618306636810e-03
-6.068953871726989746e-02
2.209679689258337021e-03
-3.984314575791358948e-02
5.474345758557319641e-02
4.904630780220031738e-02
4.948188364505767822e-02
3.118359483778476715e-02
4.592738300561904907e-02
-1.843148469924926758e-02
-2.501323120668530464e-03
2.241539070382714272e-03
-2.054082751274108887e-01
3.913124278187751770e-02
2.354388125240802765e-02
-7.413218915462493896e-02
3.805372118949890137e-02
-6.793314963579177856e-02
-5.861568078398704529e-02
1.860264129936695099e-02
2.788044884800910950e-02
9.600407630205154419e-02
-3.964466974139213562e-02
-1.199055314064025879e-01
5.086623132228851318e-02
7.673825323581695557e-02
6.587909907102584839e-02
4.555824771523475647e-02
8.435602486133575439e-02
5.483467876911163330e-02
8.907287567853927612e-02
5.656986683607101440e-02
1.070708632469177246e-01
1.799423061311244965e-02
1.125657185912132263e-01
6.005154177546501160e-02
8.033965714275836945e-03
7.744611054658889771e-02
-9.502518177032470703e-02
-5.984358116984367371e-02
1.257610470056533813e-01
1.534249447286128998e-02
-8.551619201898574829e-02
4.000239819288253784e-02
4.656788334250450134e-02
4.113156720995903015e-02
4.582214727997779846e-02
7.864087820053100586e-02
-4.971693456172943115e-02
-7.352382689714431763e-02
-1.399049013853073120e-01
2.997822873294353485e-02
-1.134130917489528656e-02
-5.654296278953552246e-02
1.309605836868286133e-01
7.536048442125320435e-02
2.005517333745956421e-01
3.578697144985198975e-02
-3.664374351501464844e-02
2.522296458482742310e-02
-1.211056038737297058e-01
-5.664009600877761841e-02
4.410327970981597900e-02
8.378607779741287231e-02
1.333423703908920288e-01
-2.732964791357517242e-02
1.221613213419914246e-01
2.301548421382904053e-02
2.624254906550049782e-03
2.550839819014072418e-02
-1.371586918830871582e-01
1.549555733799934387e-02
9.713351726531982422e-02
6.287878751754760742e-02
-2.348071336746215820e-01
-3.779803635552525520e-03
1.653867214918136597e-01
3.945899009704589844e-02
-4.229708760976791382e-02
1.301805973052978516e-01
4.551397264003753662e-02
-4.040159285068511963e-02
7.126367092132568359e-02
2.572895884513854980e-01
-9.609293192625045776e-03
-9.318408370018005371e-02
2.658533491194248199e-02
-3.389257192611694336e-02
5.637948866933584213e-03
-5.989389866590499878e-02
3.071116097271442413e-02
9.409301728010177612e-02
-6.907144933938980103e-02
-2.849729172885417938e-02
7.916557788848876953e-02
-6.359128654003143311e-02
-6.646931916475296021e-02
-3.669365076348185539e-03
8.036825060844421387e-02
-9.156511723995208740e-02
8.205372840166091919e-02
-6.801250576972961426e-02
2.709950134158134460e-02
-1.612866073846817017e-01
-8.597905188798904419e-02
-6.315276771783828735e-02
2.603277564048767090e-01
3.991224989295005798e-02
6.692214310169219971e-02
-2.089181169867515564e-02
1.111377477645874023e-01
5.078854784369468689e-02
-8.303841948509216309e-02
-6.404855847358703613e-02
-2.098722010850906372e-02
-2.510825917124748230e-02
1.984120905399322510e-02
-8.565144985914230347e-02
9.783823788166046143e-02
4.758273437619209290e-02
1.019077375531196594e-01
-1.056352909654378891e-02
-1.240964606404304504e-01
7.384572178125381470e-02
-2.571709454059600830e-03
5.057276040315628052e-02
-1.217347458004951477e-01
7.386917620897293091e-02
2.190101295709609985e-01
1.077510416507720947e-03
-2.109952270984649658e-03
-4.047265648841857910e-02
-2.155844494700431824e-02
-3.629009239375591278e-03
1.226660460233688354e-01
-2.533124946057796478e-02
-8.620803058147430420e-02
-2.396241761744022369e-02
-4.644912108778953552e-02
2.667763503268361092e-03
-9.999874979257583618e-02
-3.014124184846878052e-02
-3.789092972874641418e-02
1.619019061326980591e-01
1.292059291154146194e-02
8.638171851634979248e-02
-1.250910311937332153e-01
1.861498877406120300e-02
-2.014732547104358673e-02
-4.028404876589775085e-02
-1.064543575048446655e-01
-2.729119732975959778e-04
-5.211034044623374939e-02
5.412745475769042969e-02
8.572649210691452026e-02
3.909222409129142761e-02
2.938216179609298706e-02
-2.429145202040672302e-02
7.696255296468734741e-02
-5.350405350327491760e-02
1.402680575847625732e-01
-7.822459936141967773e-02
-1.307322382926940918e-01
4.604649916291236877e-02
9.241675585508346558e-02
-5.875362083315849304e-02
-6.063042208552360535e-02
3.277168050408363342e-02
-1.222222205251455307e-02
8.903602138161659241e-03
-1.099816560745239258e-01
4.823163524270057678e-02
1.988881826400756836e-02
-2.177325636148452759e-02
1.123299151659011841e-01
-2.484026364982128143e-02
-3.204133536200970411e-04
-2.048537321388721466e-02
-5.476814508438110352e-02
9.251926839351654053e-02
1.559046469628810883e-02
-8.664619177579879761e-02
-4.583842307329177856e-02
-1.898674666881561279e-01
-6.030742451548576355e-02
1.163990329951047897e-02
8.732811361551284790e-02
-8.379500359296798706e-02
2.724115848541259766e-01
-9.945798665285110474e-03
-2.039879001677036285e-02
6.003729533404111862e-03
-2.857709676027297974e-02
4.800718277692794800e-02
1.105728149414062500e-01
2.279387786984443665e-02
4.299305006861686707e-02
1.362064778804779053e-01
1.349953114986419678e-01
-2.781372331082820892e-02
-7.802408188581466675e-02
6.187090650200843811e-02
1.043308451771736145e-01
8.064454793930053711e-02
2.951230406761169434e-01
9.754801541566848755e-02
7.783431094139814377e-03
1.543163508176803589e-01
-8.059398829936981201e-02
5.149612203240394592e-02
-3.001242503523826599e-02
-7.458128035068511963e-02
-9.667489677667617798e-02
-1.079631783068180084e-02
7.103177905082702637e-02
5.396353080868721008e-02
-4.474608600139617920e-02
1.063651442527770996e-01
1.115291193127632141e-01
-1.299362778663635254e-01
-6.017468497157096863e-02
7.448621559888124466e-03
1.027854606509208679e-01
-3.309856727719306946e-02
-3.812227770686149597e-02
1.174353510141372681e-01
-1.938548982143402100e-01
8.943313360214233398e-02
7.419598847627639771e-02
8.548732101917266846e-02
1.243978366255760193e-01
5.391055718064308167e-02
-1.235923171043395996e-02
-9.845974296331405640e-02
4.231834411621093750e-02
5.065052211284637451e-02
1.868545636534690857e-02
1.220083162188529968e-01
2.151390612125396729e-01
4.336327314376831055e-02
1.824846714735031128e-01
-1.181518007069826126e-02
-6.666994094848632812e-02
1.878147721290588379e-01
1.228730976581573486e-01
-6.790966261178255081e-03
-2.206932380795478821e-02
-3.517287224531173706e-02
2.602244541049003601e-02
-7.238435000181198120e-02
1.744424365460872650e-02
6.816049665212631226e-02
4.849971830844879150e-02
1.660396754741668701e-01
-1.689286679029464722e-01
-6.076122634112834930e-03
1.129706501960754395e-01
-2.050720620900392532e-03
1.463094502687454224e-01
2.945415116846561432e-02
-2.955351583659648895e-02
1.227652579545974731e-01
6.378131359815597534e-02
2.323516458272933960e-02
5.779298394918441772e-02
-2.005696296691894531e-02
-1.093516722321510315e-01
8.471043407917022705e-02
5.000911653041839600e-02
-8.881774544715881348e-02
-7.287316024303436279e-02
1.071539446711540222e-01
4.372673481702804565e-02
5.536530166864395142e-02
-1.650977879762649536e-02
-8.299405127763748169e-02
-7.931008934974670410e-02
9.222209453582763672e-02
3.299181908369064331e-02
1.527735441923141479e-01
-2.420298010110855103e-02
-3.853598982095718384e-02
8.195021748542785645e-02
3.631835803389549255e-02
2.604835899546742439e-03
-8.884401619434356689e-02
-9.935055673122406006e-02
6.086339801549911499e-02
1.007264479994773865e-01
-7.636101543903350830e-02
-4.194762930274009705e-02
1.167083610198460519e-04
-4.564031958580017090e-02
-3.091372363269329071e-02
-1.152834445238113403e-01
1.878512650728225708e-02
-8.108990639448165894e-02
1.175477951765060425e-01
1.960454322397708893e-02
2.316432446241378784e-02
-2.781063504517078400e-02
6.210783869028091431e-02
-4.633379727602005005e-02
1.857641711831092834e-02
5.156359449028968811e-02
2.780556445941329002e-03
4.048346877098083496e-01
-8.851304650306701660e-03
-2.010788582265377045e-02
3.255332633852958679e-02
5.328697618097066879e-03
2.254419773817062378e-01
1.656964570283889771e-01
3.876414149999618530e-02
-5.103165283799171448e-03
-7.240095292218029499e-04
1.677388250827789307e-01
-1.043562591075897217e-02
2.452149987220764160e-03
4.012635722756385803e-02
1.199273113161325455e-02
-3.765776753425598145e-02
-9.153537452220916748e-02
-7.382820546627044678e-02
-1.105064749717712402e-01
-4.144947230815887451e-02
6.915795803070068359e-02
3.435887023806571960e-02
-5.399708077311515808e-02
4.691525921225547791e-02
-3.214264512062072754e-01
-5.956190079450607300e-02
2.267261594533920288e-01
-9.821832925081253052e-02
-5.568192526698112488e-02
-6.700690835714340210e-02
4.972086101770401001e-02
2.925488166511058807e-02
-3.859736025333404541e-02
2.182588279247283936e-01
6.367862690240144730e-03
2.139974851161241531e-03
3.794816508889198303e-02
1.453410019166767597e-03
-6.126180291175842285e-03
-1.055717021226882935e-01
9.388245642185211182e-02
1.602034419775009155e-01
-2.276795953512191772e-01
-6.120375171303749084e-02
-1.658797711133956909e-01
-1.361731160432100296e-02
-7.463748008012771606e-02
7.038285583257675171e-02
-4.630156233906745911e-02
7.481148093938827515e-02
1.530900150537490845e-01
7.547422498464584351e-02
8.409908413887023926e-02
-1.673825532197952271e-01
6.663624197244644165e-02
2.850431762635707855e-02
-2.154793888330459595e-01
6.672096997499465942e-02
2.401592023670673370e-02
2.789313718676567078e-02
-7.893867790699005127e-02
-1.441332977265119553e-02
1.092784628272056580e-01
-3.726790100336074829e-02
8.042553812265396118e-02
7.673697173595428467e-02
2.877818793058395386e-02
2.637566998600959778e-03
-2.453439533710479736e-01
-1.157957967370748520e-02
1.369996368885040283e-02
5.680377781391143799e-02
-1.725257001817226410e-02
2.218315843492746353e-03
-8.757843077182769775e-02
-2.834454476833343506e-01
5.087303370237350464e-02
2.243601717054843903e-02
-1.497583985328674316e-01
7.162952423095703125e-02
1.061479523777961731e-01
6.241042166948318481e-02
1.169724762439727783e-01
-1.296813692897558212e-02
1.159037277102470398e-01
6.215952336788177490e-02
-8.983451873064041138e-02
1.116957664489746094e-01
1.234928052872419357e-02
-1.377622969448566437e-02
7.597031444311141968e-02
-1.190234795212745667e-01
-6.851277500391006470e-02
2.362949103116989136e-01
1.937236264348030090e-02
-3.733917325735092163e-02
3.157249465584754944e-02
-1.961390860378742218e-02
-1.643417216837406158e-02
-1.164979711174964905e-01
-1.211206763982772827e-01
-3.500048443675041199e-02
7.869111001491546631e-02
-1.705907583236694336e-01
-1.070388853549957275e-01
1.902220994234085083e-01
2.484993077814579010e-03
6.837987154722213745e-02
2.983450144529342651e-02
9.702286124229431152e-02
1.624429374933242798e-01
-5.525408685207366943e-02
-4.346610233187675476e-02
1.107273772358894348e-01
-4.376502335071563721e-02
-4.787185788154602051e-02
-1.728204078972339630e-02
1.483938097953796387e-02
2.215203084051609039e-02
1.361017227172851562e-01
-2.312278188765048981e-02
1.207923814654350281e-01
-9.523546695709228516e-02
-1.458999961614608765e-01
-4.878642410039901733e-02
5.098926648497581482e-02
7.838314771652221680e-02
-7.870805449783802032e-03
1.761265099048614502e-01
-5.986919254064559937e-02
-2.868514740839600563e-03
3.729466348886489868e-03
3.065084107220172882e-02
-1.362621188163757324e-01
6.559568643569946289e-02
6.619034335017204285e-03
-7.073670160025358200e-03
4.197368398308753967e-03
6.451491266489028931e-02
-1.000525709241628647e-02
-3.999282419681549072e-02
-1.052484102547168732e-02
-1.011094301939010620e-01
-4.987032711505889893e-02
-6.719843484461307526e-03
8.546819537878036499e-02
-4.017117246985435486e-02
1.317093968391418457e-01
4.316570982336997986e-02
1.176914647221565247e-01
4.941527172923088074e-02
3.504205495119094849e-02
1.402589082717895508e-01
4.978804290294647217e-02
-7.656092941761016846e-02
-2.151289023458957672e-02
4.139382392168045044e-02
-2.681057155132293701e-02
-1.970062032341957092e-02
-2.690833248198032379e-02
-2.352110669016838074e-02
-2.596074715256690979e-03
-9.863073378801345825e-02
-1.087553724646568298e-01
-1.699834018945693970e-01
3.802032396197319031e-02
1.569243893027305603e-02
-2.934525255113840103e-03
8.767081424593925476e-03
-8.768852055072784424e-02
7.231629639863967896e-02
-2.273970097303390503e-02
3.992426022887229919e-02
-8.472948335111141205e-03
-1.197867211885750294e-03
4.280275106430053711e-02
1.433897912502288818e-01
-6.273727864027023315e-02
-7.873262278735637665e-03
-2.587871626019477844e-02
1.528896540403366089e-01
4.037623479962348938e-02
4.895637929439544678e-02
4.331701621413230896e-02
1.433790475130081177e-01
-1.453145444393157959e-01
1.661040261387825012e-02
4.015627875924110413e-02
1.835055351257324219e-01
-3.939573466777801514e-02
-4.654021561145782471e-02
5.244660377502441406e-02
-4.473229125142097473e-02
7.716172933578491211e-02
-5.358412861824035645e-03
-6.365416198968887329e-02
5.298542603850364685e-02
8.832645416259765625e-02
-2.013676054775714874e-02
4.837729968130588531e-03
-4.849427938461303711e-02
7.224977947771549225e-03
8.520309627056121826e-02
7.415366917848587036e-02
5.169459059834480286e-02
-1.009624078869819641e-01
1.081880182027816772e-01
1.400627940893173218e-02
2.620044536888599396e-02
-4.714172333478927612e-03
2.476884238421916962e-02
1.986130699515342712e-02
4.159099236130714417e-02
1.582966595888137817e-01
-4.556349664926528931e-02
6.249598413705825806e-02
1.043248400092124939e-01
2.612759545445442200e-02
-4.677681718021631241e-03
-5.767219141125679016e-02
-1.755884103477001190e-02
8.192786015570163727e-03
3.621465002652257681e-04
5.309541895985603333e-02
-8.913150429725646973e-02
-5.057169497013092041e-02
-1.463550142943859100e-02
4.278019443154335022e-02
1.376739591360092163e-01
-7.175004575401544571e-03
-3.869414702057838440e-02
3.508891537785530090e-02
5.666816607117652893e-02
-8.240694552659988403e-02
-3.282761201262474060e-02
2.780685760080814362e-02
7.353881746530532837e-02
1.085135899484157562e-02
3.892857953906059265e-02
1.510771363973617554e-02
-1.915403082966804504e-02
-4.453327879309654236e-02
5.452694837003946304e-03
8.309743553400039673e-02
-3.634282201528549194e-02
-1.756547577679157257e-02
-1.274516880512237549e-01
-7.562658935785293579e-02
-6.143603846430778503e-02
-4.840910062193870544e-02
-8.482174016535282135e-03
-3.092574700713157654e-02
-8.836326748132705688e-02
-8.635333925485610962e-02
-1.336949411779642105e-03
-1.545637696981430054e-01
-2.772475779056549072e-01
-5.189510807394981384e-02
-7.396363466978073120e-02
-6.311082094907760620e-02
5.367587506771087646e-02
-5.839102342724800110e-02
-3.860906139016151428e-02
-1.823184825479984283e-02
1.150374785065650940e-01
-9.887117147445678711e-02
4.024696350097656250e-01
4.874569829553365707e-03
1.385836210101842880e-02
-1.704958230257034302e-01
-1.199716925621032715e-01
-5.600897595286369324e-02
2.231970988214015961e-02
-1.109475493431091309e-01
1.611764430999755859e-01
8.622635505162179470e-04
-9.539835155010223389e-03
2.809620834887027740e-02
3.271028399467468262e-02
-1.357620358467102051e-01
1.360697597265243530e-01
7.371787214651703835e-04
-1.057824790477752686e-01
-4.082847759127616882e-02
2.895966731011867523e-02
-1.632747612893581390e-02
1.496174279600381851e-02
6.802643835544586182e-02
1.435953471809625626e-02
-5.192636698484420776e-02
4.279335029423236847e-03
4.334323853254318237e-02
8.534426987171173096e-02
-1.080451309680938721e-01
5.344400554895401001e-02
-3.828936442732810974e-02
-8.235903084278106689e-02
-4.135203361511230469e-02
4.145353659987449646e-02
1.830504089593887329e-02
2.056881934404373169e-01
1.114122793078422546e-01
-6.939404644072055817e-03
3.080330498050898314e-04
1.382052898406982422e-01
3.641623631119728088e-02
9.296255558729171753e-02
-6.060445681214332581e-02
-1.423329114913940430e-01
-7.164504379034042358e-02
1.020442470908164978e-01
-4.533901438117027283e-02
-3.102820217609405518e-01
-2.828826196491718292e-02
-5.257090181112289429e-02
-3.603937849402427673e-02
1.633520238101482391e-02
7.477471977472305298e-02
-1.862763017416000366e-01
9.721782058477401733e-02
1.400029510259628296e-01
-3.365270048379898071e-02
1.398956216871738434e-02
-1.075302734971046448e-01
-3.186638280749320984e-02
4.953870549798011780e-02
-8.823648095130920410e-02
6.339580565690994263e-02
1.160769537091255188e-01
8.122432231903076172e-02
-1.423664242029190063e-01
6.728351861238479614e-02
-5.251081660389900208e-02
7.740581780672073364e-02
4.067489877343177795e-02
-1.722596585750579834e-01
6.169917806982994080e-02
3.381586819887161255e-02
-6.768655776977539062e-02
1.302308961749076843e-02
-4.937736690044403076e-02
-8.826185762882232666e-02
1.422997117042541504e-01
-2.673528902232646942e-02
6.084297224879264832e-02
3.666339814662933350e-02
1.073394790291786194e-01
1.578892618417739868e-01
-9.843815118074417114e-02
2.920362912118434906e-02
-7.626571506261825562e-02
7.161991205066442490e-03
3.406973928213119507e-02
-3.243884071707725525e-02
7.664708793163299561e-02
-1.263828873634338379e-01
2.685665488243103027e-01
1.742221787571907043e-02
4.726375453174114227e-03
2.535326778888702393e-01
6.539314985275268555e-02
2.788436412811279297e-02
-1.078602671623229980e-01
-6.588315218687057495e-02
-4.551878198981285095e-02
9.940774179995059967e-03
5.952026322484016418e-02
4.538459703326225281e-02
-1.408464740961790085e-02
-4.999138787388801575e-02
7.768417149782180786e-02
3.975004330277442932e-02
-9.485594928264617920e-03
-7.361332420259714127e-03
-1.082793530076742172e-02
-5.653714761137962341e-02
-1.546019129455089569e-02
1.532124131917953491e-01
5.780401825904846191e-02
3.040778636932373047e-02
-6.044848635792732239e-02
-6.508611142635345459e-02
7.319334149360656738e-02
-1.556198596954345703e-01
2.397782951593399048e-01
4.270707443356513977e-02
-4.235445335507392883e-02
-5.504738911986351013e-02
-8.885808289051055908e-02
-1.175979822874069214e-01
-1.484571993350982666e-01
-4.544188827276229858e-02
6.625332683324813843e-02
8.827798068523406982e-02
1.195006445050239563e-02
6.954669952392578125e-02
-5.063626542687416077e-02
-3.448245674371719360e-02
1.176168560050427914e-03
2.159462543204426765e-03
3.612092882394790649e-02
-1.445684432983398438e-01
-1.710050925612449646e-02
1.825373433530330658e-02
3.088024212047457695e-03
1.727505237795412540e-03
7.932156324386596680e-02
1.131295040249824524e-01
-2.841494381427764893e-01
-4.745418205857276917e-02
-1.623678952455520630e-02
1.637618243694305420e-02
5.844198539853096008e-02
-1.454847753047943115e-01
4.212507046759128571e-03
-2.300196699798107147e-02
-6.426321715116500854e-02
6.164387986063957214e-02
3.684350848197937012e-02
-8.362628519535064697e-02
9.881060570478439331e-02
1.070283949375152588e-01
9.137676656246185303e-02
-8.132004737854003906e-02
-3.166868165135383606e-02
7.886958308517932892e-03
-1.288150250911712646e-01
-2.592802047729492188e-02
-6.378540769219398499e-03
-1.244252361357212067e-02
-4.727998748421669006e-02
5.901136901229619980e-03
-9.431027621030807495e-02
2.137822285294532776e-02
-7.707679178565740585e-03
5.077900364995002747e-02
9.801824390888214111e-02
-1.819740794599056244e-02
-5.319992080330848694e-03
-5.396687611937522888e-02
-2.433891147375106812e-01
9.418428689241409302e-02
7.172285113483667374e-03
-5.012182891368865967e-02
-1.598937213420867920e-01
-2.153995633125305176e-02
-2.112024277448654175e-02
-3.881809860467910767e-02
-5.161779001355171204e-02
6.161503866314888000e-02
1.195330098271369934e-01
-1.023333221673965454e-01
1.061831265687942505e-01
-7.264626026153564453e-02
-2.369350008666515350e-02
2.078160084784030914e-02
3.639780357480049133e-02
1.692288666963577271e-01
-7.216934114694595337e-02
2.991847693920135498e-01
-8.956352621316909790e-02
1.148203536868095398e-01
8.349727839231491089e-02
-2.967787533998489380e-02
-3.250305075198411942e-03
5.940769612789154053e-02
9.254698455333709717e-02
6.154857575893402100e-02
-9.444818831980228424e-03
-7.655114401131868362e-03
1.517196595668792725e-01
-6.243374943733215332e-02
7.750460505485534668e-02
5.660768970847129822e-02
1.804493963718414307e-01
-6.193974241614341736e-02
5.909931659698486328e-02
7.441987097263336182e-02
5.198465287685394287e-02
1.549293100833892822e-02
3.531746193766593933e-02
-5.331377685070037842e-02
-7.224299013614654541e-02
-6.240626797080039978e-02
1.468273159116506577e-02
6.828882615081965923e-04
8.527563884854316711e-03
1.231933385133743286e-01
6.196046248078346252e-02
8.591873943805694580e-02
-1.690522581338882446e-02
-7.280508987605571747e-03
-6.470347195863723755e-02
3.658833354711532593e-02
-5.126756057143211365e-02
-3.615964204072952271e-02
-2.760235592722892761e-02
-2.810387909412384033e-01
7.532192766666412354e-02
-2.564363777637481689e-01
-4.037633910775184631e-02
-2.960153482854366302e-02
-1.613276898860931396e-01
3.779568895697593689e-02
1.533675342798233032e-01
1.888444125652313232e-01
-1.133718639612197876e-01
-3.697476908564567566e-02
-3.809111192822456360e-02
8.476554066874086857e-04
1.358494758605957031e-01
-2.404871396720409393e-02
3.868103623390197754e-01
1.048393547534942627e-02
-2.485094405710697174e-02
9.768655151128768921e-02
-1.480790972709655762e-01
-8.076756447553634644e-02
1.671923100948333740e-01
-3.115389123558998108e-02
2.484858222305774689e-02
9.966374188661575317e-02
-5.971701443195343018e-02
-5.336559936404228210e-02
-1.799457333981990814e-02
-1.419050842523574829e-01
6.423245184123516083e-03
1.212971359491348267e-01
-4.120811074972152710e-02
-1.817695796489715576e-03
2.738046273589134216e-02
-1.349341422319412231e-01
-5.141400918364524841e-02
-8.460891246795654297e-02
-1.130708083510398865e-01
8.199404925107955933e-02
-1.283128857612609863e-01
-8.463222533464431763e-02
1.022481396794319153e-01
2.356106787919998169e-02
-1.308349221944808960e-01
7.093433290719985962e-02
-1.186181008815765381e-01
-8.723187446594238281e-02
-3.276250511407852173e-02
1.617986825294792652e-03
-7.768147438764572144e-02
5.539156845770776272e-04
8.580652624368667603e-02
8.846160769462585449e-02
1.564675867557525635e-01
-1.213174462318420410e-01
-1.586307734251022339e-01
-2.030653133988380432e-02
-2.035157382488250732e-02
-7.833881676197052002e-02
-1.401839032769203186e-02
7.455813139677047729e-02
5.392606835812330246e-03
-2.804977819323539734e-02
2.333185374736785889e-01
5.883648246526718140e-02
1.435189694166183472e-01
-2.049675956368446350e-02
-1.439304556697607040e-03
2.498718500137329102e-01
-9.999578818678855896e-03
8.356917649507522583e-02
1.968338340520858765e-01
-6.489525735378265381e-02
2.853311598300933838e-02
-1.314624771475791931e-02
5.398637056350708008e-01
-8.865657262504100800e-03
-2.598961293697357178e-01
-5.861492082476615906e-02
-1.433393955230712891e-01
2.375465352088212967e-03
-1.387145719490945339e-03
-1.108167394995689392e-01
2.378740608692169189e-01
2.281801216304302216e-02
3.945183008909225464e-02
2.478344598785042763e-03
1.259744316339492798e-01
1.220274493098258972e-01
-9.107398241758346558e-02
-1.747443526983261108e-01
-4.137232527136802673e-02
-1.722482219338417053e-02
-5.563747137784957886e-02
-8.375787734985351562e-02
-1.256834864616394043e-01
8.242184668779373169e-02
5.748812854290008545e-02
-1.428132504224777222e-01
-1.350994408130645752e-02
-8.362749963998794556e-02
1.696204096078872681e-01
3.967133164405822754e-02
-7.457555085420608521e-02
-9.677562117576599121e-02
-2.675891108810901642e-02
-1.752216070890426636e-01
-9.051334112882614136e-02
-6.987842917442321777e-02
9.778605401515960693e-02
1.341056264936923981e-02
6.118516623973846436e-02
2.583089098334312439e-02
-1.259123254567384720e-02
2.504598535597324371e-02
-2.091330662369728088e-02
1.300449073314666748e-01
-4.279728606343269348e-02
-9.664388746023178101e-02
4.186485335230827332e-02
4.726784303784370422e-02
-1.524029821157455444e-01
1.188022643327713013e-01
-5.160535499453544617e-02
1.137468069791793823e-01
-1.520094126462936401e-01
2.127412706613540649e-02
-6.024896353483200073e-02
-7.743511348962783813e-02
-4.436052590608596802e-02
-6.420190632343292236e-02
-1.637301524169743061e-03
-4.620462656021118164e-02
-1.566153168678283691e-01
-2.551289089024066925e-02
-1.581256464123725891e-02
-2.004012838006019592e-02
1.002708151936531067e-01
-1.149171441793441772e-01
4.973014444112777710e-02
-7.390541024506092072e-03
3.918169531971216202e-03
-6.478242576122283936e-02
1.652644388377666473e-02
3.910434618592262268e-02
-2.281776629388332367e-02
1.627672910690307617e-01
-4.859522450715303421e-03
-7.286200672388076782e-02
8.561389148235321045e-02
4.177505895495414734e-02
-4.395163804292678833e-02
8.945916779339313507e-04
-1.640683710575103760e-01
-1.207358837127685547e-01
7.513088732957839966e-02
-2.835693582892417908e-02
1.673790365457534790e-01
-7.233170792460441589e-03
1.929862797260284424e-01
-8.205014467239379883e-02
8.928362280130386353e-02
-2.340179495513439178e-02
1.735828071832656860e-01
-1.010554581880569458e-01
2.695399820804595947e-01
-2.227407880127429962e-02
9.065283089876174927e-02
-5.450193211436271667e-02
3.863599896430969238e-01
7.400671392679214478e-02
-9.351225942373275757e-02
-1.321752220392227173e-01
2.212634123861789703e-02
-5.749656260013580322e-02
6.196596473455429077e-02
-4.111841693520545959e-02
-9.492497891187667847e-02
1.179168075323104858e-01
-5.144743248820304871e-02
-1.382101774215698242e-01
-1.115369424223899841e-02
-7.349266856908798218e-02
4.004777222871780396e-02
1.846754737198352814e-02
1.185445785522460938e-01
-1.068300455808639526e-01
-1.176185980439186096e-01
6.263667251914739609e-03
1.133993640542030334e-02
-1.039809137582778931e-01
-1.501740217208862305e-01
1.123254150152206421e-01
-1.223893612623214722e-01
1.586008518934249878e-01
6.099046394228935242e-02
9.558613412082195282e-03
-7.379295676946640015e-02
-1.468681246042251587e-01
-3.831259310245513916e-01
7.586763706058263779e-03
-1.086876168847084045e-01
-4.325923323631286621e-02
3.419421240687370300e-02
3.227691724896430969e-02
4.633057862520217896e-02
5.778131633996963501e-02
-4.847518727183341980e-02
-1.849720627069473267e-01
2.827634289860725403e-02
-1.784532517194747925e-01
-1.658954620361328125e-01
-5.245313979685306549e-03
9.117493778467178345e-02
-1.639778912067413330e-02
-6.000980734825134277e-03
1.399600505828857422e-01
-9.952399879693984985e-03
-2.091158330440521240e-01
-2.076432555913925171e-01
-1.253146082162857056e-01
-2.938666939735412598e-02
5.866169184446334839e-02
7.206705212593078613e-02
-2.425625175237655640e-02
-3.274532407522201538e-02
-1.278059184551239014e-01
-1.863898634910583496e-01
-6.010678410530090332e-02
-3.829336911439895630e-02
-2.597815170884132385e-02
-1.579338908195495605e-01
1.151841655373573303e-01
1.205862611532211304e-01
7.682585716247558594e-02
-4.945836588740348816e-02
-1.649466753005981445e-01
6.881364621222019196e-03
-7.078995555639266968e-02
-2.874840609729290009e-02
-7.527060806751251221e-02
3.291065245866775513e-02
-6.307388097047805786e-02
-9.037835150957107544e-02
-2.285409532487392426e-02
6.107442453503608704e-02
-2.466020137071609497e-01
-2.705314895138144493e-03
-6.955181807279586792e-02
2.050637602806091309e-01
6.922466307878494263e-02
-9.707858413457870483e-02
-1.137351542711257935e-01
-4.423407465219497681e-02
-9.032922983169555664e-02
3.781734034419059753e-02
-9.297479689121246338e-02
-2.953997813165187836e-03
8.712682873010635376e-02
-1.221830118447542191e-02
-2.361122705042362213e-02
-7.117218524217605591e-02
2.447266317903995514e-02
-4.649588465690612793e-02
-2.070941776037216187e-01
-9.930886328220367432e-02
5.986997485160827637e-02
9.580398909747600555e-03
-5.918142851442098618e-03
4.571752250194549561e-02
-4.727702960371971130e-02
-1.130471844226121902e-02
-7.281330972909927368e-02
1.091485843062400818e-02
-6.219860911369323730e-02
6.080178916454315186e-02
-1.375857144594192505e-01
7.637651264667510986e-02
-8.091102540493011475e-02
-6.272858381271362305e-02
-9.327048063278198242e-02
3.388844430446624756e-01
-1.310940682888031006e-01
-5.168307200074195862e-02
-8.556440472602844238e-02
-6.442391127347946167e-02
-2.273548394441604614e-02
-1.630033850669860840e-01
-5.847862362861633301e-02
2.480391971766948700e-02
-1.707219332456588745e-02
-9.123906493186950684e-02
-7.271046191453933716e-02
2.737843245267868042e-02
3.111949935555458069e-02
-1.552425697445869446e-02
1.019188836216926575e-01
-1.375083625316619873e-01
4.288067296147346497e-02
1.895617134869098663e-02
7.998684048652648926e-02
3.973254933953285217e-02
7.528976537287235260e-03
-4.292406886816024780e-02
1.207387447357177734e-01
-1.153105124831199646e-01
-2.026776373386383057e-01
8.443308994174003601e-03
-9.922970831394195557e-02
5.292212963104248047e-02
1.076220795512199402e-01
-2.107206173241138458e-02
-1.054613664746284485e-01
-1.201020926237106323e-02
1.574205420911312103e-02
-6.642429530620574951e-02
7.829405367374420166e-02
8.191510289907455444e-02
-1.553054992109537125e-02
-5.849580094218254089e-02
5.752923712134361267e-02
6.115713343024253845e-02
-2.325957268476486206e-01
1.198531240224838257e-01
2.116182073950767517e-02
9.335093945264816284e-02
8.019673079252243042e-02
8.005544543266296387e-02
5.159221962094306946e-02
-1.040339693427085876e-01
-2.091581821441650391e-01
1.354659534990787506e-02
-4.698450863361358643e-02
-1.121903434395790100e-01
1.325455904006958008e-01
2.726919576525688171e-02
9.775554388761520386e-02
2.995168045163154602e-02
1.703200042247772217e-01
8.605624735355377197e-02
-1.589293219149112701e-02
3.240547329187393188e-02
-5.643093958497047424e-02
-2.383683435618877411e-02
1.231701523065567017e-01
-6.213838234543800354e-02
-2.610492408275604248e-01
1.154208630323410034e-01
-2.008717274293303490e-03
1.222316771745681763e-01
2.028624117374420166e-01
4.484960809350013733e-02
7.674000412225723267e-02
3.008454106748104095e-02
5.479871854186058044e-02
-1.173473745584487915e-01
4.951005429029464722e-02
-2.920391969382762909e-02
3.767660260200500488e-02
-9.321085363626480103e-02
3.435336798429489136e-02
-2.280168235301971436e-02
3.765217214822769165e-02
-3.247827664017677307e-02
-4.473704844713211060e-02
-9.909102320671081543e-02
-1.547698378562927246e-01
4.646230116486549377e-02
3.581244125962257385e-02
1.127251088619232178e-01
-6.623458117246627808e-02
1.577726155519485474e-01
1.301122158765792847e-01
6.342906970530748367e-03
1.350752264261245728e-01
8.778261393308639526e-02
2.216199040412902832e-02
7.492947578430175781e-02
3.370675072073936462e-02
2.520900778472423553e-02
-1.188958957791328430e-01
1.179262250661849976e-01
1.290002614259719849e-01
1.245499625802040100e-01
2.531105875968933105e-01
-1.568413898348808289e-02
-9.076572954654693604e-02
-1.035604476928710938e-01
-4.612590745091438293e-02
3.853590413928031921e-02
-4.793117940425872803e-02
4.834081232547760010e-02
2.941208146512508392e-02
-1.274173706769943237e-01
-1.014576759189367294e-02
5.037666857242584229e-02
3.675387054681777954e-02
-1.262144744396209717e-01
2.214400023221969604e-01
-5.846551805734634399e-02
8.438277989625930786e-02
-4.064854606986045837e-02
-2.106531560420989990e-01
4.247661679983139038e-02
1.173249632120132446e-01
4.801184684038162231e-02
-1.605775803327560425e-01
1.059383824467658997e-01
7.586667314171791077e-03
1.163784936070442200e-01
5.585354194045066833e-02
8.716858178377151489e-02
1.222145855426788330e-01
5.331663787364959717e-02
4.004486277699470520e-02
4.777673631906509399e-02
-8.299070596694946289e-02
-6.278940290212631226e-02
7.502446323633193970e-02
1.759579521603882313e-03
1.686799228191375732e-01
-1.249751076102256775e-01
-2.873723767697811127e-02
1.690500378608703613e-01
7.926636934280395508e-02
1.309805177152156830e-02
-1.563058793544769287e-02
-2.279459685087203979e-02
-3.447563201189041138e-02
-6.112310662865638733e-02
-2.223194390535354614e-02
-6.932812184095382690e-02
4.756752401590347290e-02
-1.583593152463436127e-02
-4.060509800910949707e-02
-2.743686176836490631e-02
-1.869118027389049530e-02
5.469353403896093369e-03
2.517714351415634155e-02
1.940771006047725677e-02
1.304582953453063965e-01
1.908212602138519287e-01
-3.443017136305570602e-03
-6.597788631916046143e-02
-6.538785248994827271e-02
2.896634675562381744e-02
-6.411901116371154785e-02
-1.106324866414070129e-01
-1.011577472090721130e-01
6.419821083545684814e-02
4.317861050367355347e-02
1.184646859765052795e-01
3.077382408082485199e-02
-9.475648403167724609e-02
-2.112770080566406250e-02
9.428826160728931427e-03
-1.182698011398315430e-01
-5.761795118451118469e-02
1.807303540408611298e-02
3.142791986465454102e-01
-1.858649030327796936e-02
1.035332158207893372e-01
-4.692784324288368225e-02
3.330622613430023193e-02
-3.432981669902801514e-02
-2.709649130702018738e-02
5.369663611054420471e-02
1.143621280789375305e-01
4.689916968345642090e-02
1.662571169435977936e-02
1.648457720875740051e-02
-1.732961088418960571e-01
1.416281312704086304e-01
1.050956770777702332e-01
3.899246826767921448e-02
1.039770469069480896e-01
-1.343109160661697388e-01
1.050191000103950500e-01
3.518048673868179321e-02
7.876086980104446411e-03
-7.200257480144500732e-02
-1.958022825419902802e-03
-5.736899375915527344e-02
3.649190813302993774e-02
2.918931655585765839e-02
1.113763526082038879e-01
-7.203233242034912109e-02
3.240275755524635315e-02
-1.507882121950387955e-02
2.752893976867198944e-02
-1.239138990640640259e-01
5.920148640871047974e-02
-4.286189563572406769e-03
8.928260207176208496e-02
7.652769237756729126e-02
-1.882261363789439201e-03
-1.192259639501571655e-01
-1.177755817770957947e-01
-1.531584709882736206e-01
-4.687570780515670776e-02
-1.155198439955711365e-01
1.250069681555032730e-02
-6.498517841100692749e-02
-7.204674184322357178e-02
4.693609848618507385e-02
-1.439559925347566605e-02
-7.547384500503540039e-02
-3.268870338797569275e-02
-9.756932966411113739e-03
7.604356855154037476e-02
3.123578429222106934e-02
-8.574653416872024536e-03
3.841707110404968262e-02
9.024203568696975708e-02
4.281805083155632019e-02
1.537025906145572662e-02
1.588117480278015137e-01
-5.366246029734611511e-02
5.181713402271270752e-02
4.595073685050010681e-02
7.319070398807525635e-02
5.824144929647445679e-02
6.201595067977905273e-03
9.481356479227542877e-03
-9.110237658023834229e-02
5.972759053111076355e-02
-1.640556938946247101e-02
-2.068901062011718750e-02
-4.561034496873617172e-03
-6.723456084728240967e-02
1.405490338802337646e-01
-2.727459929883480072e-02
-1.475559771060943604e-01
1.536061465740203857e-01
-6.962522864341735840e-02
9.584176540374755859e-02
1.223349794745445251e-01
-7.437458634376525879e-02
4.037065431475639343e-02
-1.314191222190856934e-01
6.122157722711563110e-02
1.600380428135395050e-02
1.242932677268981934e-01
-3.112637996673583984e-01
-4.899335280060768127e-02
-6.675039231777191162e-02
6.242172047495841980e-02
1.686148643493652344e-01
-3.405784070491790771e-02
5.535500124096870422e-02
-4.639822058379650116e-03
-3.365039825439453125e-01
2.921810559928417206e-02
-3.018949180841445923e-02
8.485215902328491211e-02
7.126495707780122757e-03
-4.019369930028915405e-02
8.288931846618652344e-02
-4.038237407803535461e-02
9.597357362508773804e-03
-2.395617403090000153e-02
8.489033579826354980e-02
-7.959976047277450562e-02
1.568725891411304474e-02
3.096602670848369598e-02
-5.971704795956611633e-02
-1.975177414715290070e-02
1.736962795257568359e-02
-9.123415686190128326e-03
-2.129097282886505127e-01
1.191612854599952698e-01
9.059970825910568237e-02
5.319049209356307983e-02
1.151969470083713531e-02
1.647185534238815308e-01
5.721179023385047913e-02
-1.088338717818260193e-02
8.202951401472091675e-02
-1.986136436462402344e-01
3.575581312179565430e-02
6.119386851787567139e-02
5.229628086090087891e-02
-6.290684640407562256e-02
4.109092801809310913e-02
6.851950287818908691e-02
1.034512184560298920e-02
-1.274619847536087036e-01
1.665804982185363770e-01
8.786945044994354248e-02
-3.291978687047958374e-02
1.059646904468536377e-01
-4.554161429405212402e-02
1.298104077577590942e-01
4.625495150685310364e-02
4.233046993613243103e-02
1.139226779341697693e-01
-2.632526122033596039e-02
8.799098432064056396e-02
-6.159160286188125610e-02
-1.906426548957824707e-01
4.483208432793617249e-02
-4.122211039066314697e-02
1.959948055446147919e-02
-7.548968493938446045e-02
1.681575179100036621e-01
-8.927292376756668091e-02
-9.838300943374633789e-02
7.746523246169090271e-03
1.377416215837001801e-02
1.673212088644504547e-02
1.119795888662338257e-01
1.085610613226890564e-01
-2.849508263170719147e-02
7.155464962124824524e-03
-5.685118958353996277e-02
9.568755328655242920e-02
7.538415491580963135e-02
-3.604182228446006775e-02
-3.560733422636985779e-02
9.831748902797698975e-02
1.246194541454315186e-02
7.830759137868881226e-02
2.047800458967685699e-02
-4.750540480017662048e-02
3.364630416035652161e-02
4.284950718283653259e-02
1.252049952745437622e-01
-2.373342216014862061e-01
-2.287103608250617981e-02
4.589169099926948547e-02
1.245220098644495010e-02
2.886567078530788422e-02
6.768646836280822754e-02
-7.979675382375717163e-02
1.296478509902954102e-01
4.256438091397285461e-02
5.254576727747917175e-02
7.881742715835571289e-02
-3.897250443696975708e-02
6.158342212438583374e-02
-4.054169170558452606e-03
-1.176685914397239685e-01
-1.821457408368587494e-02
-3.370545059442520142e-02
-6.268522143363952637e-02
9.450762718915939331e-02
-1.224230527877807617e-01
5.323828384280204773e-02
3.148286044597625732e-02
1.654204130172729492e-01
2.091528475284576416e-01
-1.659464463591575623e-02
4.735265299677848816e-02
1.662655360996723175e-02
1.100883781909942627e-01
-1.471738219261169434e-01
-2.157958224415779114e-02
1.132962182164192200e-01
2.840469405055046082e-02
7.634193450212478638e-02
-3.051287233829498291e-01
-1.004453375935554504e-01
1.382847279310226440e-01
1.348465830087661743e-01
-7.656963169574737549e-02
-3.184400871396064758e-02
1.121242865920066833e-01
-1.122507732361555099e-02
-1.416541263461112976e-02
-3.517178818583488464e-02
-5.458650738000869751e-02
1.709384322166442871e-01
-8.468943834304809570e-02
-1.866448074579238892e-01
-3.514895960688591003e-02
-6.302728503942489624e-02
4.339340329170227051e-02
-1.648105978965759277e-01
-2.508648484945297241e-02
1.440430581569671631e-01
1.155443489551544189e-01
6.442116200923919678e-02
4.556924849748611450e-02
-2.044853009283542633e-02
-1.451474521309137344e-02
-3.896084055304527283e-02
1.338071823120117188e-01
9.092967957258224487e-02
1.610624641180038452e-01
-6.183810532093048096e-02
-3.538736328482627869e-02
-3.158389125019311905e-03
7.860812544822692871e-02
-8.384578675031661987e-02
3.073554299771785736e-02
-6.457029283046722412e-02
4.815875366330146790e-02
7.289272546768188477e-02
6.095154583454132080e-02
-1.078715622425079346e-01
4.828642308712005615e-02
-1.403299346566200256e-02
5.683728680014610291e-02
1.917318627238273621e-02
-4.762264713644981384e-02
-1.268215775489807129e-01
1.716877669095993042e-01
-3.490683808922767639e-02
-6.952217966318130493e-02
-5.846164375543594360e-02
-3.687715530395507812e-02
1.431501060724258423e-01
1.598756760358810425e-03
-3.957720100879669189e-02
-2.589016593992710114e-02
1.031403988599777222e-02
4.965730383992195129e-02
1.230596080422401428e-01
-1.627014279365539551e-01
1.546754240989685059e-01
1.804934442043304443e-01
-3.651008382439613342e-02
-1.713007688522338867e-02
1.470091845840215683e-02
8.616709150373935699e-03
-1.664633676409721375e-02
3.333199024200439453e-02
1.090349331498146057e-01
-1.466271877288818359e-01
-2.179632522165775299e-02
-2.387000471353530884e-01
1.615061759948730469e-01
-5.917708575725555420e-02
-1.051423177123069763e-01
2.137990444898605347e-01
-2.798587642610073090e-02
-5.401534959673881531e-02
-6.116447597742080688e-02
7.002375274896621704e-02
1.998840458691120148e-02
4.787898063659667969e-02
-8.504811674356460571e-02
-1.641164347529411316e-02
1.373454630374908447e-01
9.575903415679931641e-03
4.489304497838020325e-02
-1.491005718708038330e-01
9.044735133647918701e-02
2.420261502265930176e-01
-1.568224094808101654e-02
-1.162727251648902893e-01
2.782524377107620239e-02
7.492334395647048950e-02
-1.953020989894866943e-01
-7.130347937345504761e-02
5.447444692254066467e-02
-8.504912257194519043e-02
-2.369651629123836756e-04
-3.028352558612823486e-01
-9.147936850786209106e-02
-1.631595753133296967e-02
-4.264392331242561340e-02
-1.200804188847541809e-01
9.107836522161960602e-03
6.684575974941253662e-02
2.265046536922454834e-02
5.740777775645256042e-02
-1.196249499917030334e-01
-1.151190996170043945e-01
1.669777929782867432e-02
9.891278296709060669e-02
1.725343801081180573e-02
-7.092949002981185913e-02
8.289670199155807495e-02
-5.409875512123107910e-02
-3.620031848549842834e-02
-9.178134053945541382e-02
6.885925680398941040e-02
4.395103082060813904e-02
-7.032714784145355225e-03
7.498439401388168335e-02
-7.683396339416503906e-02
-7.012652698904275894e-03
-1.806450486183166504e-01
-3.911660611629486084e-02
2.884761430323123932e-02
-1.116174757480621338e-01
-1.529890671372413635e-02
2.453429333399981260e-04
9.273166209459304810e-02
5.992023739963769913e-03
1.626704633235931396e-02
-4.592310264706611633e-02
-1.583738625049591064e-01
6.972610950469970703e-02
7.285194844007492065e-02
1.332017481327056885e-01
4.724257811903953552e-02
-2.140124887228012085e-02
-3.012230992317199707e-01
1.001749187707901001e-01
-3.546424582600593567e-02
-1.232338622212409973e-01
1.281338632106781006e-01
2.076483517885208130e-01
-7.220882922410964966e-03
5.842558667063713074e-02
-2.746837735176086426e-01
3.947473689913749695e-02
2.088411599397659302e-01
-1.158557981252670288e-01
9.412046521902084351e-02
2.409700304269790649e-02
-5.902855191379785538e-03
2.442072890698909760e-02
8.119558542966842651e-02
1.017669290304183960e-01
7.130983471870422363e-02
1.012073084712028503e-02
-1.659555546939373016e-02
-1.102639883756637573e-01
9.006947278976440430e-02
-1.048014871776103973e-02
1.517754048109054565e-02
-7.161618769168853760e-02
4.900267347693443298e-02
-6.698128301650285721e-03
5.820115911774337292e-04
-1.049394533038139343e-02
-1.870290143415331841e-03
-1.561306864023208618e-01
-4.378182813525199890e-02
-5.837607383728027344e-02
4.401555657386779785e-02
1.513240933418273926e-01
-6.509481370449066162e-02
-3.625328093767166138e-02
-7.634390890598297119e-02
3.861695062369108200e-03
1.137612387537956238e-01
-1.061834692955017090e-01
-8.861148357391357422e-02
-8.374439924955368042e-02
1.614937745034694672e-02
2.588449046015739441e-02
4.392546787858009338e-02
-1.747829616069793701e-01
2.470556832849979401e-02
-1.492763310670852661e-02
-2.966295368969440460e-02
-4.154759459197521210e-03
-6.163575127720832825e-02
-1.006328836083412170e-01
2.591996267437934875e-02
7.066494971513748169e-02
4.720499366521835327e-02
-5.416426341980695724e-03
-1.853184029459953308e-02
-1.656315177679061890e-01
1.526315361261367798e-01
3.290900960564613342e-02
5.639603361487388611e-02
-1.522365510463714600e-01
-3.027092665433883667e-03
-9.005559235811233521e-02
-8.872490376234054565e-02
5.853986740112304688e-02
1.523586064577102661e-01
-5.515740718692541122e-03
2.231267513707280159e-03
5.483378469944000244e-02
1.255172640085220337e-01
-1.005508154630661011e-01
-6.783799827098846436e-02
-5.286296829581260681e-02
-5.416912585496902466e-02
4.182138666510581970e-02
3.744761645793914795e-02
4.005280137062072754e-02
-8.817624300718307495e-02
5.325669422745704651e-03
-7.180240005254745483e-02
-2.423873096704483032e-01
-1.625795848667621613e-02
-1.194707676768302917e-02
4.477668553590774536e-02
1.365167945623397827e-01
-2.663810038939118385e-03
5.134315416216850281e-02
-1.501694172620773315e-01
2.672291174530982971e-02
2.285916358232498169e-02
-2.577339671552181244e-02
-5.906220176257193089e-04
-5.896578729152679443e-02
-1.240408495068550110e-01
-9.368417784571647644e-03
-2.692507579922676086e-02
4.762255027890205383e-02
-2.343359665246680379e-04
-1.970646902918815613e-02
4.997198283672332764e-02
-3.504700213670730591e-02
5.135352909564971924e-02
-2.010807543992996216e-01
1.704385504126548767e-02
2.945648320019245148e-02
-5.570071563124656677e-02
-1.882570981979370117e-02
-1.659402810037136078e-02
1.540119200944900513e-01
6.268821656703948975e-02
2.104179561138153076e-02
1.297602895647287369e-02
7.407214492559432983e-02
-6.425878498703241348e-03
8.092293143272399902e-02
2.465555444359779358e-02
-3.296850994229316711e-02
-3.315151855349540710e-02
5.756615102291107178e-02
1.023016124963760376e-01
-8.396436460316181183e-03
-7.224047929048538208e-02
-6.074174121022224426e-02
-1.365405321121215820e-01
-1.725175790488719940e-02
-1.768240034580230713e-01
-1.771856285631656647e-02
4.265323281288146973e-02
-1.315772831439971924e-01
-1.292735338211059570e-01
3.851746022701263428e-02
1.648992113769054413e-02
3.973548114299774170e-02
2.001241147518157959e-01
1.136012375354766846e-01
-1.254868060350418091e-01
-7.205121219158172607e-02
-6.889490783214569092e-02
1.127780079841613770e-01
3.253072500228881836e-02
-3.361403569579124451e-02
1.495726127177476883e-02
-1.942864060401916504e-02
1.416052728891372681e-01
4.693761467933654785e-02
-1.640252023935317993e-01
-5.061186105012893677e-02
1.684784293174743652e-01
-5.217567086219787598e-04
1.342012360692024231e-02
7.206972688436508179e-02
6.829750537872314453e-02
1.649591699242591858e-02
-8.258216828107833862e-02
6.178529188036918640e-02
-5.343296006321907043e-02
1.797971874475479126e-01
8.208935707807540894e-02
-1.146042048931121826e-01
-4.631944000720977783e-02
4.808813333511352539e-02
2.493609488010406494e-02
9.156118333339691162e-02
9.737989306449890137e-02
-5.866312235593795776e-02
2.457944154739379883e-01
-1.677810586988925934e-02
-5.856521055102348328e-02
4.294102638959884644e-02
-9.944163262844085693e-02
-6.116130203008651733e-02
-1.001411601901054382e-01
-3.330259770154953003e-02
-4.016500711441040039e-02
-4.426943510770797729e-02
