-5.977437645196914673e-02
1.602740399539470673e-02
-4.973591119050979614e-02
1.110210716724395752e-01
6.067438051104545593e-02
4.316356405615806580e-02
-2.713529020547866821e-02
8.805150538682937622e-02
-1.429943554103374481e-02
7.476802915334701538e-02
-6.980123370885848999e-02
-6.597606837749481201e-02
-2.766469493508338928e-02
-3.583927825093269348e-02
-2.506597153842449188e-02
1.030704006552696228e-01
1.082247123122215271e-01
5.230886489152908325e-02
7.797489315271377563e-02
2.913562022149562836e-02
6.823477149009704590e-02
-8.847979456186294556e-02
2.386302873492240906e-02
-4.802041687071323395e-03
8.469653129577636719e-02
-9.103554487228393555e-02
3.836738318204879761e-02
1.980074495077133179e-02
4.692832008004188538e-02
-6.653310358524322510e-02
-6.035032868385314941e-02
-2.982463501393795013e-02
-8.542208373546600342e-02
1.740674115717411041e-02
-2.560833096504211426e-02
1.560178026556968689e-02
-1.384450821205973625e-03
-1.618212834000587463e-02
-8.050125092267990112e-02
7.191435992717742920e-02
8.772797882556915283e-02
-6.666964292526245117e-02
-1.426163613796234131e-01
2.713514864444732666e-02
6.470894813537597656e-02
-3.672954812645912170e-02
-1.263790428638458252e-01
-1.959582269191741943e-01
7.224027067422866821e-02
6.499958038330078125e-02
7.557316124439239502e-02
-9.200706332921981812e-02
5.180935561656951904e-02
2.684417366981506348e-02
1.331655681133270264e-01
4.435353726148605347e-02
-3.816644847393035889e-02
3.556216508150100708e-02
-7.125067710876464844e-02
-2.475029043853282928e-02
-7.222791761159896851e-02
5.282206833362579346e-02
1.517249830067157745e-02
-1.083916723728179932e-01
-4.837988317012786865e-02
7.391043007373809814e-02
-8.307208120822906494e-02
6.372445076704025269e-02
6.106123793870210648e-03
-9.507185779511928558e-03
-1.914467364549636841e-01
6.297411024570465088e-02
3.702436015009880066e-02
6.493769586086273193e-02
-3.085784055292606354e-02
3.174537420272827148e-02
4.796148836612701416e-02
5.301422253251075745e-02
1.290434319525957108e-02
3.701328113675117493e-02
-3.598009794950485229e-02
4.638506472110748291e-02
-1.550440769642591476e-02
-1.341819465160369873e-01
-1.237108111381530762e-01
-1.095287352800369263e-01
-6.142485141754150391e-02
-8.106240071356296539e-03
3.546633990481495857e-03
2.217864058911800385e-02
2.321541309356689453e-02
-7.627461850643157959e-02
-5.533723533153533936e-02
-2.659991569817066193e-02
-4.223609343171119690e-02
-2.405378222465515137e-02
-3.748203068971633911e-02
-7.927776873111724854e-02
3.297521546483039856e-02
1.112535223364830017e-01
-1.601587235927581787e-02
2.545676566660404205e-02
1.168746035546064377e-02
-8.708263188600540161e-02
4.861435387283563614e-03
3.974247723817825317e-02
7.492105662822723389e-02
7.555007934570312500e-02
7.159417960792779922e-03
7.384517788887023926e-02
-6.110938731580972672e-03
1.175005733966827393e-02
5.112057179212570190e-02
5.565097555518150330e-03
5.898640956729650497e-03
6.136774644255638123e-02
-6.362745165824890137e-02
6.789038330316543579e-02
-7.417257130146026611e-02
-6.168790534138679504e-02
6.621693819761276245e-02
-1.836052909493446350e-02
1.980676874518394470e-02
1.054057702422142029e-01
1.313497722148895264e-01
-8.330785483121871948e-02
-1.832930557429790497e-02
-1.010628044605255127e-02
