-9.660374373197555542e-02
-7.937853783369064331e-02
9.694957733154296875e-02
-2.529974877834320068e-01
-9.040995687246322632e-02
9.267545491456985474e-02
1.489740703254938126e-02
1.938161998987197876e-01
-1.352456063032150269e-01
-1.211765483021736145e-01
5.257512629032135010e-02
-2.369471937417984009e-01
-1.416420470923185349e-02
-2.813812792301177979e-01
3.380446135997772217e-02
-2.274729311466217041e-01
-3.448373377323150635e-01
-8.534666150808334351e-02
-2.907377295196056366e-02
-2.550663948059082031e-01
-4.449364244937896729e-01
-2.244313992559909821e-02
-3.416272103786468506e-01
2.180857956409454346e-01
-1.264903098344802856e-01
-2.097935788333415985e-02
-4.081754386425018311e-02
1.142984181642532349e-01
-3.073024153709411621e-01
-3.049853630363941193e-02
2.735818922519683838e-01
-1.625333577394485474e-01
-3.763435482978820801e-01
-5.693407654762268066e-01
8.637329190969467163e-02
-5.490103363990783691e-01
-3.595039546489715576e-01
3.012261390686035156e-01
-6.968507170677185059e-02
-2.104203999042510986e-01
-1.824015080928802490e-01
1.754363626241683960e-02
-4.878889024257659912e-02
-1.006867736577987671e-01
-2.038408815860748291e-01
-2.310116887092590332e-01
-1.088414639234542847e-01
1.133405640721321106e-01
1.642124950885772705e-01
-3.877485990524291992e-01
5.745663866400718689e-02
-4.955867528915405273e-01
2.084357440471649170e-01
-3.021144866943359375e-01
-4.164040833711624146e-02
-2.371955066919326782e-01
-4.172972142696380615e-01
3.284311294555664062e-02
2.921026386320590973e-02
-7.526086270809173584e-02
2.102792263031005859e-02
-3.537990525364875793e-02
-5.233214497566223145e-01
-1.452309638261795044e-01
-6.434138119220733643e-02
-4.418545365333557129e-01
-4.743527770042419434e-01
1.176383644342422485e-01
-9.965827316045761108e-02
1.608070433139801025e-01
-3.007390350103378296e-02
-1.704906076192855835e-01
-1.553778648376464844e-01
-2.246380746364593506e-01
1.107006445527076721e-01
-3.786807060241699219e-01
-3.663268983364105225e-01
1.771911531686782837e-01
-7.945324480533599854e-02
-1.106368377804756165e-01
-1.242501288652420044e-01
4.789444804191589355e-02
-9.361021220684051514e-02
-1.970901936292648315e-01
-2.613517343997955322e-01
-2.026652097702026367e-01
-7.137034088373184204e-02
1.748266965150833130e-01
-7.141411304473876953e-03
8.458940312266349792e-03
-2.518211603164672852e-01
2.438025549054145813e-03
1.249894313514232635e-02
-4.932499527931213379e-01
-1.439605504274368286e-01
-4.464281499385833740e-01
-1.280320435762405396e-01
1.957121491432189941e-02
-1.048951148986816406e-01
-8.846519887447357178e-02
-3.729026615619659424e-01
-2.897984981536865234e-01
3.872783482074737549e-01
-6.213290616869926453e-02
-1.888403296470642090e-01
-3.181159794330596924e-01
-3.503762930631637573e-02
-3.623947203159332275e-01
-2.233398258686065674e-01
-1.363157927989959717e-01
-1.326673179864883423e-01
-8.689647912979125977e-02
5.013172328472137451e-02
-2.121401280164718628e-01
1.059689521789550781e-01
1.759433448314666748e-01
-2.102109044790267944e-01
-2.123469710350036621e-01
-1.331555992364883423e-01
3.130751848220825195e-01
9.426929056644439697e-03
1.890146285295486450e-01
-1.344661414623260498e-01
-5.701412260532379150e-02
-3.715872019529342651e-02
-3.327406942844390869e-01
-9.871782362461090088e-02
-6.216365471482276917e-02
-2.621177583932876587e-02
-5.005854368209838867e-02
2.693994045257568359e-01
-3.845778107643127441e-01
5.751963704824447632e-02
-3.707024827599525452e-02
-1.719333231449127197e-01
1.274033100344240665e-03
3.561003133654594421e-02
2.280543372035026550e-02
-3.379027917981147766e-02
-1.883790343999862671e-01
6.463836133480072021e-02
-2.848741039633750916e-02
3.652087748050689697e-01
2.054072171449661255e-02
-3.185969889163970947e-01
1.980100274085998535e-01
-3.986213803291320801e-01
3.701990470290184021e-03
1.537051051855087280e-01
-4.775671958923339844e-01
-9.195014834403991699e-01
1.300519704818725586e-01
-1.128760352730751038e-01
-3.150089457631111145e-02
1.839148253202438354e-01
-3.857198357582092285e-01
1.988732367753982544e-01
1.616384950466454029e-03
1.285283416509628296e-01
3.953819870948791504e-01
6.080385670065879822e-02
-2.634993195533752441e-01
3.788091987371444702e-02
-1.607001274824142456e-01
5.206251889467239380e-02
-5.272743105888366699e-01
-2.038249932229518890e-02
-8.845441043376922607e-02
-5.355310440063476562e-01
-3.078578412532806396e-01
2.053613513708114624e-01
-1.687117293477058411e-02
-5.306954979896545410e-01
2.074522897601127625e-03
-3.096061013638973236e-02
-1.482432335615158081e-01
-1.145557686686515808e-01
-2.316050529479980469e-01
-1.613416522741317749e-01
1.143954545259475708e-01
7.362829986959695816e-03
1.016969531774520874e-01
-1.232110708951950073e-01
5.447069182991981506e-03
7.088778167963027954e-02
-7.983452826738357544e-02
-6.466644406318664551e-01
-4.271330833435058594e-01
6.404647231101989746e-02
-4.414650201797485352e-01
1.580007821321487427e-01
4.347279667854309082e-02
7.810952514410018921e-02
-7.843212038278579712e-02
1.215194538235664368e-01
-3.027729690074920654e-01
4.799402877688407898e-02
-2.538288198411464691e-02
-2.327790856361389160e-01
-3.237181305885314941e-01
-3.213810920715332031e-01
-2.770186364650726318e-01
1.470765657722949982e-02
-1.233665570616722107e-01
-4.280259907245635986e-01
-1.692683249711990356e-01
9.110248833894729614e-02
-3.047102689743041992e-01
-3.720469474792480469e-01
-3.211908042430877686e-01
2.938825264573097229e-02
-5.967338085174560547e-01
4.239523783326148987e-02
-1.226525381207466125e-01
-2.376423031091690063e-02
-1.431685537099838257e-01
-2.798880636692047119e-01
-1.941012591123580933e-01
9.176351130008697510e-02
2.291473150253295898e-01
-1.381241828203201294e-01
-1.997796595096588135e-01
-1.497184783220291138e-01
-1.349394768476486206e-01
-3.497583046555519104e-02
-2.821279466152191162e-01
-1.285159736871719360e-01
4.045554623007774353e-02
6.851242482662200928e-02
-5.885294824838638306e-02
6.620403844863176346e-03
-8.968258649110794067e-02
5.109564517624676228e-04
-4.532719030976295471e-02
-2.639585360884666443e-02
-3.856345117092132568e-01
-4.735173881053924561e-01
-6.970596313476562500e-02
-2.518443763256072998e-01
-1.884713768959045410e-01
7.644842565059661865e-02
-2.878503203392028809e-01
-4.674741625785827637e-01
-7.835954427719116211e-02
-3.486037850379943848e-01
-8.713082075119018555e-01
-6.865741610527038574e-01
-3.351829349994659424e-01
-4.364694356918334961e-01
-1.337458789348602295e-01
-1.247667819261550903e-01
2.092486619949340820e-02
-2.639850080013275146e-01
-4.777549952268600464e-02
-3.470541210845112801e-03
1.343255639076232910e-01
-4.247599840164184570e-01
-3.493485152721405029e-01
-3.508470207452774048e-02
-1.220380514860153198e-01
-2.251450568437576294e-01
-4.273384511470794678e-01
-5.226333141326904297e-01
-9.712734073400497437e-02
-5.104680061340332031e-01
-1.827168464660644531e-02
-6.021807789802551270e-01
-3.503066673874855042e-02
3.895595297217369080e-02
-3.792501986026763916e-02
5.507660657167434692e-02
2.179937809705734253e-01
-5.212815403938293457e-01
1.177691072225570679e-01
-8.108907192945480347e-02
-2.504688687622547150e-02
-3.185193240642547607e-01
-3.104084134101867676e-01
-1.774210184812545776e-01
-5.481037124991416931e-02
-7.385753095149993896e-02
-1.302391141653060913e-01
-2.453978359699249268e-01
-6.543332710862159729e-04
-2.429239153861999512e-01
3.642370924353599548e-02
2.140340507030487061e-01
-3.722139298915863037e-01
-4.598557949066162109e-01
-5.233220756053924561e-02
-7.097626477479934692e-02
-5.012451410293579102e-01
-7.493681460618972778e-02
-9.029942750930786133e-02
-9.643847495317459106e-02
-1.931853592395782471e-01
1.781198531389236450e-01
-4.229836165904998779e-01
-2.549116313457489014e-01
-1.731147170066833496e-01
-1.092935446649789810e-02
2.557284384965896606e-02
3.599745221436023712e-03
-2.062850259244441986e-02
-4.987388551235198975e-01
-2.017601132392883301e-01
-3.558641076087951660e-01
-2.198591083288192749e-01
-2.227837033569812775e-02
-3.498729169368743896e-01
6.255813408643007278e-03
-6.908524036407470703e-02
8.065596967935562134e-02
2.647656947374343872e-02
-2.547020614147186279e-01
1.312872320413589478e-01
5.661922693252563477e-02
7.102522253990173340e-02
6.552709639072418213e-02
-2.516068518161773682e-01
-4.156211018562316895e-02
-4.863604605197906494e-01
-9.022144973278045654e-02
2.978744450956583023e-04
1.481419987976551056e-02
-1.974782198667526245e-01
4.809758439660072327e-02
-3.900440037250518799e-01
-1.869523972272872925e-01
1.063829213380813599e-01
-2.491307407617568970e-01
-2.194953113794326782e-01
-2.041654884815216064e-01
-9.016038849949836731e-03
-4.296615347266197205e-02
-2.272990643978118896e-01
-4.858067631721496582e-01
-2.954873740673065186e-01
8.262876421213150024e-02
1.609602868556976318e-01
-2.211441397666931152e-01
-4.381681680679321289e-01
-7.287215441465377808e-02
3.903619572520256042e-02
-2.705138325691223145e-01
-3.803359270095825195e-01
2.032459340989589691e-02
-2.199476212263107300e-01
-3.304930031299591064e-01
-5.195141769945621490e-03
1.164864823222160339e-01
-1.021293341182172298e-03
2.340588532388210297e-02
-6.359504908323287964e-02
-1.834761202335357666e-01
-1.788179427385330200e-01
2.013452649116516113e-01
-2.693572640419006348e-01
-9.490966796875000000e-02
-1.542325615882873535e-01
-1.489419192075729370e-01
-6.768509745597839355e-03
-3.973769396543502808e-02
-5.239006504416465759e-02
4.288897663354873657e-02
-2.839154005050659180e-01
4.263871908187866211e-02
-1.793154776096343994e-01
4.231317713856697083e-02
-3.383728265762329102e-01
-4.363697469234466553e-01
-5.541232824325561523e-01
-2.430091500282287598e-01
5.120537281036376953e-01
-1.691191792488098145e-01
-6.462733447551727295e-02
-3.504449725151062012e-01
-6.174124404788017273e-02
-3.859618306159973145e-02
-3.115837275981903076e-01
-4.248235821723937988e-01
2.120796218514442444e-02
-5.461601614952087402e-01
-2.010653316974639893e-01
-1.464904546737670898e-01
-1.319249123334884644e-01
-2.560215536504983902e-03
-3.772113025188446045e-01
-5.425986051559448242e-01
-7.558914273977279663e-02
1.642152965068817139e-01
-5.629992857575416565e-02
-3.571158349514007568e-01
-5.055753588676452637e-01
1.202637776732444763e-01
-8.196987956762313843e-02
-4.049477577209472656e-01
-1.436237543821334839e-01
7.419573515653610229e-02
-3.968923091888427734e-01
4.940573498606681824e-02
-4.523134827613830566e-01
1.688949204981327057e-02
1.552084181457757950e-02
-2.165135294198989868e-01
7.660400122404098511e-02
-2.047065049409866333e-01
3.437559902667999268e-01
1.757242530584335327e-02
-3.192339539527893066e-01
-3.834829032421112061e-01
-1.074965223670005798e-01
1.088288798928260803e-02
-2.261680662631988525e-01
-2.306679785251617432e-01
-6.349328905344009399e-02
1.305019408464431763e-01
-1.354125328361988068e-02
-3.312963247299194336e-01
-9.001103043556213379e-02
-1.610348969697952271e-01
-8.059327490627765656e-03
-3.813498094677925110e-02
-1.472774446010589600e-01
-1.944541037082672119e-01
-4.107064306735992432e-01
-2.624347433447837830e-02
-5.848398432135581970e-02
4.793556779623031616e-02
6.224782671779394150e-03
-1.138376668095588684e-01
8.183321356773376465e-02
-1.288961321115493774e-01
-1.373704671859741211e-01
-3.866196274757385254e-01
-2.082782611250877380e-02
1.427519470453262329e-01
-5.716785788536071777e-01
-6.846065819263458252e-02
-7.214450836181640625e-02
-2.085763514041900635e-01
2.266395092010498047e-02
-6.865020841360092163e-02
1.040676329284906387e-02
-2.583729624748229980e-01
-3.080384433269500732e-01
-3.358099460601806641e-01
2.097252905368804932e-01
8.615077286958694458e-02
-8.113804459571838379e-02
-5.848220586776733398e-01
-8.918379247188568115e-02
-6.106443330645561218e-02
-2.214710563421249390e-01
8.870486915111541748e-02
-1.187593713402748108e-01
-1.980727761983871460e-01
1.679719835519790649e-01
-3.245644867420196533e-01
-9.942484647035598755e-02
7.448819279670715332e-02
2.903945744037628174e-02
-2.651486098766326904e-01
-2.462191581726074219e-01
-1.851468235254287720e-01
-3.351285755634307861e-01
-1.420180350542068481e-01
1.629970222711563110e-01
7.820707559585571289e-02
-1.247324347496032715e-01
-7.354169338941574097e-02
1.103661209344863892e-01
2.289423793554306030e-01
-2.362315058708190918e-01
1.712865233421325684e-01
-8.186295628547668457e-02
2.786133885383605957e-01
-9.706336259841918945e-02
-3.109815120697021484e-01
4.873319063335657120e-03
-4.961773753166198730e-01
-2.715870179235935211e-02
1.163582205772399902e-01
-1.642170846462249756e-01
-1.256708055734634399e-01
-3.777952790260314941e-01
-8.477742969989776611e-02
-2.145155072212219238e-01
-4.077727794647216797e-01
-7.304473966360092163e-02
3.951392322778701782e-02
1.803500205278396606e-02
4.710851237177848816e-02
-5.467054843902587891e-01
9.700686484575271606e-02
-2.970353662967681885e-01
2.384671941399574280e-02
-3.797881305217742920e-02
-1.627749055624008179e-01
-1.030572652816772461e-01
-1.363831609487533569e-01
-3.167633116245269775e-01
-4.127356410026550293e-02
-5.518996119499206543e-01
-1.694182157516479492e-01
6.556817144155502319e-02
-2.009239047765731812e-02
-5.767431110143661499e-03
-1.293917596340179443e-01
-1.744143478572368622e-02
1.382263600826263428e-01
2.849911451339721680e-01
