-2.112589031457901001e-02,-4.862787574529647827e-02,4.683055728673934937e-02,7.779333740472793579e-02,1.527943164110183716e-01,2.525481954216957092e-02,3.234186023473739624e-02,6.335424631834030151e-02,-1.116739809513092041e-01,1.820565760135650635e-02,-1.474865991622209549e-02,-1.803953014314174652e-02,3.072455152869224548e-02,-9.619708172976970673e-03,7.662225980311632156e-03,3.580055013298988342e-02,3.136196359992027283e-02,-1.280616819858551025e-01,-2.336634509265422821e-02,8.463708311319351196e-02,3.831113874912261963e-02,6.070956215262413025e-02,3.981418907642364502e-02,1.957613974809646606e-03,-4.264664649963378906e-02,-1.468669772148132324e-01,2.384246326982975006e-02,8.140653371810913086e-03,6.917636096477508545e-02,1.009526550769805908e-01,3.648101910948753357e-02,-6.048177927732467651e-02,7.182796299457550049e-02,-1.095043681561946869e-02,-1.769702136516571045e-01,-6.587720476090908051e-03,-6.846986711025238037e-02,3.381498157978057861e-02,-2.670523151755332947e-02,1.137822344899177551e-01,-5.966112762689590454e-02,-7.831579074263572693e-03,1.799655961804091930e-03,1.006863713264465332e-01,-5.477745085954666138e-02,-1.378712207078933716e-01,6.501707434654235840e-02,1.353652179241180420e-01,1.204553991556167603e-04,1.498872786760330200e-01,-4.611351713538169861e-02,1.304568373598158360e-03,-5.614965781569480896e-02,-3.159236535429954529e-02,1.600967496633529663e-01,4.214874282479286194e-02,1.136160120368003845e-01,6.329485774040222168e-02,-8.789001964032649994e-03,-7.951647043228149414e-02,1.391319036483764648e-01,8.332715183496475220e-02,1.775934696197509766e-01,-1.132440268993377686e-01,-1.680035591125488281e-01,6.354308873414993286e-02,-1.301049292087554932e-01,-9.589770436286926270e-02,1.054906845092773438e-01,1.277379970997571945e-02,-2.090501189231872559e-01,-1.816471805796027184e-03,9.960414469242095947e-02,-1.348978094756603241e-02,5.386016890406608582e-02,-1.158269718289375305e-01,-3.226925060153007507e-02,-1.532761603593826294e-01,-4.762602597475051880e-02,-1.334228366613388062e-01,1.411503255367279053e-01,-2.257130891084671021e-01,5.733789503574371338e-02,-1.573696918785572052e-02,2.219614014029502869e-02,-3.924287855625152588e-03,2.758209221065044403e-02,7.712367922067642212e-02,-2.359509095549583435e-02,2.220659703016281128e-02,-3.198389336466789246e-02,-1.076014265418052673e-01,3.757180646061897278e-02,-2.273999899625778198e-01,7.327681779861450195e-02,2.347205206751823425e-02,8.545107394456863403e-02,9.692047536373138428e-02,1.158404648303985596e-01,-6.038941815495491028e-02,1.733034104108810425e-02,1.557555049657821655e-01,1.141740754246711731e-01,7.478065043687820435e-02,-5.949140712618827820e-02,-7.840786129236221313e-02,2.175571955740451813e-02,2.548967301845550537e-02,-2.211716473102569580e-01,4.448710381984710693e-02,-7.214166224002838135e-02,-5.081979930400848389e-02,-2.110155485570430756e-02,7.542622089385986328e-02,-6.122718378901481628e-02,2.632784284651279449e-02,-1.823134138248860836e-03,-3.162097930908203125e-02,-6.484350562095642090e-02,1.730915307998657227e-01,-4.992414638400077820e-02,-2.301018685102462769e-02,1.783974468708038330e-02,-5.557998269796371460e-02,-1.015013828873634338e-01,-1.190254837274551392e-01,2.956401742994785309e-02,5.102108791470527649e-02
4.174969159066677094e-03,-2.038342319428920746e-02,2.288905717432498932e-02,6.816247105598449707e-02,1.024596095085144043e-01,-3.698759526014328003e-02,-5.341922398656606674e-03,1.563427783548831940e-02,5.674005299806594849e-02,-6.280549336224794388e-03,-6.527803838253021240e-02,-2.565894722938537598e-01,-1.815745830535888672e-01,2.423696778714656830e-02,3.279888769611716270e-03,-1.485708206892013550e-01,-1.104641426354646683e-02,5.229849740862846375e-02,-1.901713386178016663e-02,1.266028918325901031e-02,2.725602388381958008e-01,7.135424017906188965e-02,4.327793605625629425e-03,4.927355423569679260e-02,1.257736235857009888e-01,1.027844175696372986e-01,-6.225981563329696655e-02,-7.165603339672088623e-02,-1.211444288492202759e-01,1.057484969496726990e-01,5.379249528050422668e-02,2.005091607570648193e-01,-2.233860827982425690e-02,-7.102853804826736450e-02,4.039010778069496155e-02,-3.667189180850982666e-02,-1.735903695225715637e-02,9.399440139532089233e-02,1.388130616396665573e-02,9.298531711101531982e-02,-1.403989642858505249e-01,1.460106670856475830e-01,3.250626847147941589e-02,-8.334245532751083374e-02,-3.929632529616355896e-02,1.261342167854309082e-01,-2.403192967176437378e-01,-1.537334322929382324e-01,4.600838199257850647e-02,1.344187110662460327e-01,1.004790142178535461e-01,-1.130098700523376465e-01,-4.959023371338844299e-02,7.691722363233566284e-02,3.842344507575035095e-02,1.445307284593582153e-01,-9.791917167603969574e-03,-1.108963266015052795e-01,-4.938756301999092102e-02,1.099877245724201202e-02,-2.232076413929462433e-02,1.362797468900680542e-01,1.941858790814876556e-02,-1.510447412729263306e-01,-4.707768559455871582e-02,4.856995120644569397e-02,-3.482300555333495140e-03,-4.979210440069437027e-03,3.305667638778686523e-02,2.042333036661148071e-02,1.887897402048110962e-01,1.789636313915252686e-01,-3.382843686267733574e-03,-1.423618793487548828e-01,9.476554393768310547e-02,3.504555299878120422e-02,6.348948180675506592e-02,-4.108749032020568848e-01,1.027596443891525269e-01,2.456718981266021729e-01,-1.079812720417976379e-01,1.799683719873428345e-01,-5.509815365076065063e-02,-8.247987180948257446e-02,-5.706230644136667252e-03,-7.624774426221847534e-02,1.430405187420547009e-03,3.729207068681716919e-02,9.020247310400009155e-02,1.911811232566833496e-01,1.109113842248916626e-01,-2.403650432825088501e-01,-1.083612628281116486e-02,7.014090567827224731e-02,-3.694030269980430603e-02,-2.880301475524902344e-01,1.457673311233520508e-01,-1.021842435002326965e-01,5.178013071417808533e-02,-6.953877955675125122e-02,-5.186965316534042358e-02,5.923480167984962463e-02,-6.361149996519088745e-02,-2.216889560222625732e-01,-1.525369137525558472e-01,-5.968926846981048584e-02,1.145139411091804504e-01,-1.660930216312408447e-01,1.088232472538948059e-01,-9.985395520925521851e-02,1.631359905004501343e-01,7.624493539333343506e-02,-7.852301001548767090e-02,8.134228736162185669e-02,-2.087680697441101074e-01,-2.588234469294548035e-02,-2.068681120872497559e-01,7.983726263046264648e-02,1.552395969629287720e-01,7.925798743963241577e-02,1.098567023873329163e-01,9.789276868104934692e-02,5.181432887911796570e-02,7.279324531555175781e-02,-3.204678744077682495e-02,6.322454661130905151e-02,-6.987800449132919312e-02,-9.716971218585968018e-02
-1.543797738850116730e-02,-1.287391036748886108e-01,2.164059318602085114e-02,-3.680534660816192627e-02,2.770698256790637970e-02,1.120991557836532593e-01,9.861984848976135254e-02,-7.004796713590621948e-02,-2.907033450901508331e-02,1.435781121253967285e-01,-2.021802216768264771e-01,-4.612271487712860107e-02,-1.118595246225595474e-02,1.262981593608856201e-01,4.173336178064346313e-02,5.116615071892738342e-02,-3.357438370585441589e-02,8.618681132793426514e-02,-4.553874954581260681e-02,2.235048823058605194e-02,-5.164461955428123474e-02,-5.815329402685165405e-02,6.943135708570480347e-02,5.123780108988285065e-03,-1.010532453656196594e-01,-3.242894634604454041e-02,4.437514394521713257e-02,8.919315040111541748e-02,5.731258913874626160e-02,-2.077136561274528503e-02,-4.763088375329971313e-02,-6.606286019086837769e-02,4.826847463846206665e-02,1.921733319759368896e-01,2.434943243861198425e-02,6.588190793991088867e-02,-1.387920696288347244e-02,3.737085033208131790e-03,6.374169141054153442e-02,1.125128418207168579e-01,-1.145629677921533585e-02,-1.351490058004856110e-02,-3.068525576964020729e-03,1.778308898210525513e-01,3.296276926994323730e-02,5.677554011344909668e-02,1.265147030353546143e-01,-1.262856423854827881e-01,-2.459475770592689514e-03,-6.925322115421295166e-02,7.427241653203964233e-02,-1.275478154420852661e-01,1.569545455276966095e-02,4.253735393285751343e-02,-7.937201112508773804e-02,4.212776198983192444e-02,-1.373918820172548294e-02,3.674884885549545288e-02,4.471962526440620422e-02,9.250173717737197876e-02,-6.291934102773666382e-02,8.442497998476028442e-02,1.025161370635032654e-01,-6.136352196335792542e-02,4.088444262742996216e-02,1.002636849880218506e-01,5.272831767797470093e-02,-2.711976878345012665e-02,5.094049498438835144e-02,7.147789001464843750e-02,-3.472436685115098953e-03,7.618366926908493042e-02,-4.173965379595756531e-02,-7.215621322393417358e-02,-2.274660766124725342e-01,-3.640808910131454468e-02,-2.059999480843544006e-02,1.748600229620933533e-02,4.799499735236167908e-02,-1.034935470670461655e-02,-5.161955952644348145e-02,-5.111384764313697815e-02,8.213299512863159180e-02,7.602240890264511108e-02,1.072809845209121704e-01,-1.331274630501866341e-03,9.234359860420227051e-02,-8.039361238479614258e-02,8.770105987787246704e-02,-3.479456529021263123e-02,6.561368703842163086e-02,5.214275047183036804e-02,-1.224188040941953659e-02,-8.160966448485851288e-03,-8.016322553157806396e-02,-9.524355828762054443e-02,3.100850991904735565e-02,2.016302943229675293e-01,-1.488287188112735748e-02,9.904153645038604736e-02,2.164127863943576813e-02,7.519640773534774780e-02,-1.230629831552505493e-01,-4.411835689097642899e-03,-4.775186628103256226e-02,7.603871077299118042e-02,-1.371217966079711914e-01,1.333144842647016048e-03,-5.148471891880035400e-02,-4.929791763424873352e-02,-7.849758490920066833e-03,-1.770453713834285736e-02,5.820697918534278870e-02,-4.573239944875240326e-03,3.040848672389984131e-02,-5.166333913803100586e-02,1.072469651699066162e-01,1.550128459930419922e-01,1.950523070991039276e-02,1.921370178461074829e-01,-8.772827684879302979e-02,8.243204653263092041e-02,9.151876717805862427e-02,-3.720276057720184326e-02,6.171518191695213318e-02,-1.889367401599884033e-02,1.456601768732070923e-01,5.450605228543281555e-02
-1.411210298538208008e-01,-2.592343464493751526e-02,2.897052280604839325e-02,5.174910649657249451e-02,-5.914429202675819397e-02,-1.601861417293548584e-01,1.335432231426239014e-01,3.403976187109947205e-02,1.555930823087692261e-01,-1.265065222978591919e-01,3.874877467751502991e-02,1.504240371286869049e-02,-2.491883188486099243e-02,-6.365581601858139038e-02,1.865471154451370239e-02,1.590963155031204224e-01,1.620121113955974579e-02,-1.172292456030845642e-01,-7.424125447869300842e-03,1.498759239912033081e-01,-4.741258546710014343e-02,-3.562559187412261963e-02,-2.324167788028717041e-01,8.089265972375869751e-02,-2.812511660158634186e-02,1.154835596680641174e-01,1.335845794528722763e-02,1.945798397064208984e-01,-1.924287341535091400e-02,3.503170236945152283e-02,5.637489631772041321e-02,-1.169407390989363194e-03,-4.069298133254051208e-02,-5.282845348119735718e-02,9.643828123807907104e-02,8.811323903501033783e-03,8.905158191919326782e-02,-1.581930518150329590e-01,4.227051511406898499e-02,-3.046500310301780701e-02,5.963476374745368958e-02,5.620304122567176819e-02,5.780688486993312836e-03,9.560489095747470856e-03,-4.215600900352001190e-03,-7.884144783020019531e-02,1.526061818003654480e-02,-4.431827366352081299e-02,4.256821051239967346e-02,1.184523105621337891e-01,-4.041172936558723450e-02,8.154311031103134155e-02,-5.365242063999176025e-02,1.163165271282196045e-01,3.293742612004280090e-02,-7.261424511671066284e-02,5.247335880994796753e-03,6.470309570431709290e-03,4.028921946883201599e-02,-3.528654575347900391e-02,1.435413211584091187e-01,-3.021165356040000916e-02,-8.106400817632675171e-02,-1.514617204666137695e-01,-1.322199106216430664e-01,1.544586964882910252e-03,-3.145824652165174484e-03,1.191059350967407227e-01,-2.993785403668880463e-02,-8.991747349500656128e-02,-1.999017298221588135e-01,2.275345474481582642e-02,-3.961088135838508606e-02,1.422225236892700195e-01,1.837457716464996338e-02,2.401103964075446129e-03,1.966998130083084106e-01,-5.997604131698608398e-02,-3.268711641430854797e-02,2.981003001332283020e-02,5.411632824689149857e-03,-1.614568568766117096e-02,-4.245033860206604004e-02,-8.233412355184555054e-02,-1.624943315982818604e-01,6.371194124221801758e-02,-7.400416582822799683e-02,-9.017716161906719208e-03,-2.327957563102245331e-02,3.078638575971126556e-02,1.285253185778856277e-02,2.942702174186706543e-02,-1.007126718759536743e-01,-3.728921711444854736e-02,-8.858158439397811890e-02,8.948284387588500977e-02,1.122437044978141785e-02,-9.446786344051361084e-02,-3.372456133365631104e-02,1.014547348022460938e-01,-3.851247252896428108e-03,-3.071261756122112274e-02,-1.144465953111648560e-01,-1.492663025856018066e-01,-1.046348959207534790e-01,-3.501676768064498901e-02,-1.546785682439804077e-01,-8.863069117069244385e-03,-9.521411359310150146e-02,1.013569906353950500e-01,-6.182908639311790466e-02,-1.922336369752883911e-01,-7.022691518068313599e-02,-9.941756725311279297e-03,-2.527186647057533264e-03,-2.896752953529357910e-02,-2.224228717386722565e-02,9.404128789901733398e-02,-8.606042712926864624e-02,-3.136640787124633789e-02,1.679645925760269165e-01,1.966521702706813812e-02,-4.715545848011970520e-02,-1.469899434596300125e-02,-9.003968909382820129e-03,-6.301119923591613770e-02,-3.592954715713858604e-03,-9.052736684679985046e-03
-7.233682088553905487e-03,4.146080091595649719e-02,4.399632662534713745e-02,-3.093557991087436676e-02,-1.164930760860443115e-01,-1.065502986311912537e-01,6.780327111482620239e-02,-3.787893429398536682e-02,-1.485244184732437134e-02,2.091567218303680420e-02,-8.761639147996902466e-02,4.395449906587600708e-02,1.338341236114501953e-01,3.214029967784881592e-02,3.949420526623725891e-03,-7.966447737999260426e-04,2.883374691009521484e-02,-6.173549219965934753e-02,-2.190405726432800293e-01,-6.186810135841369629e-02,-1.351633071899414062e-01,5.594441294670104980e-02,-2.275547012686729431e-02,2.399638108909130096e-02,3.607747331261634827e-02,-1.699697077274322510e-01,-9.309685230255126953e-02,-2.597364410758018494e-02,-7.588168978691101074e-02,-6.794707477092742920e-02,-3.982281312346458435e-02,-4.999507218599319458e-02,-4.859010223299264908e-03,-1.798593788407742977e-03,7.621981948614120483e-02,-3.676963970065116882e-02,-4.400206357240676880e-02,6.796450167894363403e-02,4.192068800330162048e-02,3.246083855628967285e-02,6.979190558195114136e-02,1.062497124075889587e-01,5.962715018540620804e-03,-1.570319384336471558e-01,-5.155712366104125977e-02,5.767524242401123047e-02,-1.555876284837722778e-01,-5.251766741275787354e-02,6.417030002921819687e-03,-2.681087553501129150e-01,-1.432289928197860718e-01,3.718223422765731812e-02,-3.280240669846534729e-02,6.962758302688598633e-02,1.829103976488113403e-01,1.868859678506851196e-02,-5.894633382558822632e-02,-3.768366575241088867e-02,-1.194508820772171021e-01,3.586012125015258789e-02,1.301443129777908325e-01,-2.436578273773193359e-02,1.022235304117202759e-01,1.317106001079082489e-02,9.532667696475982666e-02,-5.101791396737098694e-02,-3.449073433876037598e-02,8.302060514688491821e-02,-2.066959254443645477e-02,4.755055904388427734e-02,1.280348096042871475e-02,4.822999984025955200e-02,-1.159519478678703308e-01,3.596336022019386292e-02,-1.093771830201148987e-01,-1.167850382626056671e-02,-1.745053231716156006e-01,-1.291536539793014526e-01,-5.198556557297706604e-02,-7.862223684787750244e-02,2.330710738897323608e-02,-1.557818800210952759e-02,1.998467892408370972e-01,-6.937106698751449585e-02,-1.080960035324096680e-01,-4.349613934755325317e-02,-4.411526396870613098e-02,-2.957471273839473724e-02,-3.945622593164443970e-03,-9.641938656568527222e-02,8.811520040035247803e-02,-1.062392443418502808e-01,1.846938580274581909e-02,1.220051273703575134e-01,-1.443361192941665649e-01,5.321549251675605774e-02,8.085364848375320435e-02,4.103435575962066650e-02,7.723896205425262451e-02,-8.152367174625396729e-02,-9.881774336099624634e-02,2.178752794861793518e-02,9.118381887674331665e-02,-1.521541774272918701e-01,5.046295747160911560e-02,-4.263613000512123108e-02,-4.069756343960762024e-02,5.051585379987955093e-03,7.954870909452438354e-02,2.614778093993663788e-02,-2.325706742703914642e-02,3.656523302197456360e-02,7.742307335138320923e-02,-1.129457261413335800e-02,1.438743770122528076e-01,-6.364942342042922974e-02,2.222885377705097198e-02,-7.919376366771757603e-04,-9.184432774782180786e-02,3.711766004562377930e-02,2.290871180593967438e-02,1.639259979128837585e-03,7.251381129026412964e-02,1.991013586521148682e-01,-2.433919114992022514e-03,-1.478541791439056396e-01,1.390317804180085659e-03,-7.208535820245742798e-02
1.079338043928146362e-02,-7.978421449661254883e-02,1.391729414463043213e-01,-2.940760739147663116e-02,-2.784117124974727631e-03,7.610838860273361206e-02,1.241136789321899414e-01,6.702170358039438725e-04,1.029006242752075195e-01,-3.029671683907508850e-02,-2.146204002201557159e-02,-4.165368527173995972e-02,4.631202295422554016e-02,-9.486191719770431519e-02,7.540088612586259842e-03,6.462263874709606171e-03,-4.925793781876564026e-02,6.622572988271713257e-02,-2.636374719440937042e-02,1.018817201256752014e-01,-1.484106928110122681e-01,-8.442349731922149658e-02,-1.253020614385604858e-01,4.158613085746765137e-02,1.054866537451744080e-01,1.622432768344879150e-01,-1.590711064636707306e-03,3.127169236540794373e-02,1.843621954321861267e-02,-1.018618419766426086e-01,-9.138951450586318970e-02,6.812344491481781006e-02,-3.231460228562355042e-02,-5.930278077721595764e-02,-7.037964463233947754e-02,-4.625986143946647644e-02,-1.881701871752738953e-02,1.823712289333343506e-01,5.791300535202026367e-02,9.407647699117660522e-02,1.707386672496795654e-01,-1.386959701776504517e-01,-6.785153876990079880e-03,4.862365126609802246e-02,-1.833146065473556519e-01,1.969036608934402466e-01,-6.295854691416025162e-03,6.686215102672576904e-02,6.878934800624847412e-02,-4.228404909372329712e-02,-1.024050787091255188e-01,-6.725288182497024536e-02,3.338313475251197815e-02,-2.241040766239166260e-01,-2.258134819567203522e-02,-1.520205847918987274e-02,1.516505330801010132e-01,-1.799736469984054565e-01,6.627557333558797836e-03,-1.379407644271850586e-01,1.304617822170257568e-01,1.356992777436971664e-02,-1.959042102098464966e-01,1.636096835136413574e-01,3.116033971309661865e-03,7.481418550014495850e-02,1.688266396522521973e-01,-4.631435871124267578e-02,2.390059083700180054e-01,2.970853075385093689e-02,-2.552422285079956055e-01,1.225488185882568359e-01,-7.568131387233734131e-02,-2.911099605262279510e-02,1.173165589570999146e-01,-1.294137686491012573e-01,1.895201206207275391e-02,9.520895779132843018e-02,2.833884395658969879e-02,6.569609791040420532e-02,-3.803463652729988098e-02,2.401418425142765045e-02,-1.840051710605621338e-01,5.815092474222183228e-02,4.371238499879837036e-02,9.957372397184371948e-02,-4.825958237051963806e-02,-6.438893824815750122e-02,-1.481249928474426270e-01,1.227626129984855652e-01,8.448346704244613647e-02,-1.461973041296005249e-01,5.752142891287803650e-02,7.817363739013671875e-02,-5.182923004031181335e-02,-1.812165044248104095e-02,1.511821895837783813e-01,2.652481384575366974e-02,-1.948077827692031860e-01,1.070980206131935120e-01,1.278328150510787964e-01,1.709290966391563416e-02,-4.346291534602642059e-03,9.536731243133544922e-02,1.079669594764709473e-01,-9.500985592603683472e-02,9.322257712483406067e-03,5.841517448425292969e-02,-5.962526425719261169e-02,9.896246343851089478e-02,7.101620733737945557e-02,1.900677382946014404e-02,-3.934675827622413635e-02,-9.874400496482849121e-02,3.951532393693923950e-02,6.063864752650260925e-02,2.005222141742706299e-01,-4.570866376161575317e-02,-4.740374162793159485e-02,-1.218504980206489563e-01,3.029416687786579132e-02,1.596488654613494873e-01,4.988504573702812195e-02,-3.187989890575408936e-01,-2.296984195709228516e-01,-3.329212777316570282e-03,7.456321269273757935e-02,3.128091618418693542e-02
6.165245920419692993e-02,1.339359134435653687e-01,4.580992087721824646e-02,2.643250860273838043e-02,-2.004172094166278839e-02,-2.310375273227691650e-01,-2.454201728105545044e-01,1.146362647414207458e-01,7.328975200653076172e-02,-1.678235977888107300e-01,-1.727265119552612305e-01,1.109728589653968811e-01,-2.501935465261340141e-03,-1.261921375989913940e-01,3.367906436324119568e-02,4.283978417515754700e-02,1.665668487548828125e-01,1.633516512811183929e-02,-2.294526845216751099e-01,-1.391781307756900787e-02,-8.039931207895278931e-02,1.824797540903091431e-01,8.739490061998367310e-02,1.085112243890762329e-01,1.276775598526000977e-01,-1.125718429684638977e-01,-5.032592639327049255e-02,1.325912959873676300e-02,-1.843394339084625244e-01,3.175600245594978333e-02,6.555745750665664673e-02,-1.617236062884330750e-02,1.223852671682834625e-02,3.986846655607223511e-02,1.572843194007873535e-01,9.776458889245986938e-02,-1.729576736688613892e-01,-1.530736088752746582e-01,-1.186913996934890747e-01,2.992858886718750000e-01,2.696639276109635830e-04,2.320336736738681793e-02,6.468588858842849731e-02,1.175443157553672791e-01,8.314976841211318970e-02,-9.470481425523757935e-02,-2.323495596647262573e-01,1.036732085049152374e-02,2.161188237369060516e-02,8.954108506441116333e-02,-8.044652640819549561e-02,-2.166437543928623199e-02,1.885727941989898682e-01,-1.020266190171241760e-01,-2.091531455516815186e-01,-1.670030951499938965e-01,9.849941730499267578e-02,9.318351745605468750e-02,-1.219000481069087982e-02,3.376204892992973328e-02,5.159046966582536697e-03,1.994205079972743988e-02,8.605689741671085358e-03,-5.729658156633377075e-02,1.092555150389671326e-01,-5.642557889223098755e-02,4.865488782525062561e-02,1.081656385213136673e-02,7.324204593896865845e-02,-2.478286772966384888e-01,-9.367316216230392456e-02,-1.435759663581848145e-01,-1.157595515251159668e-01,8.658318966627120972e-02,-9.058726578950881958e-02,-3.553065657615661621e-02,-2.651018798351287842e-01,1.111647486686706543e-02,-1.688085049390792847e-01,-3.994708880782127380e-02,-1.034561470150947571e-01,-1.528145465999841690e-02,5.707537010312080383e-02,1.412163078784942627e-01,1.975991874933242798e-01,6.011090427637100220e-02,2.604815959930419922e-01,8.551458828151226044e-03,-1.351795047521591187e-01,1.007592082023620605e-01,-2.603472173213958740e-01,-8.063735812902450562e-02,-9.773382544517517090e-02,6.655786186456680298e-02,-1.000632345676422119e-01,1.369868516921997070e-01,9.199703484773635864e-02,7.237686961889266968e-02,4.359905421733856201e-02,2.021380066871643066e-01,-1.286141481250524521e-02,1.655965745449066162e-01,-1.043016985058784485e-01,2.045880770310759544e-03,9.399476647377014160e-02,-3.109695389866828918e-02,2.158754616975784302e-01,-1.138050183653831482e-01,6.511667370796203613e-02,3.087693639099597931e-02,-7.389117777347564697e-02,-8.192502707242965698e-02,-1.522682756185531616e-01,-5.733601376414299011e-02,-3.213508427143096924e-02,-2.049077302217483521e-02,5.484490096569061279e-02,7.208668440580368042e-02,-2.869521379470825195e-01,-1.183127537369728088e-01,2.113586217164993286e-01,-7.719144225120544434e-02,1.881771162152290344e-02,-2.690249681472778320e-01,2.790010720491409302e-02,2.598407566547393799e-01,2.882290398702025414e-03,2.670484036207199097e-02
1.800120025873184204e-01,-3.401544317603111267e-02,-1.504226624965667725e-01,-4.363430663943290710e-03,7.214581966400146484e-02,-4.194346815347671509e-02,4.407694935798645020e-02,7.012965157628059387e-03,-3.471552394330501556e-03,1.755133569240570068e-01,9.183616936206817627e-02,7.448140531778335571e-02,-1.025793626904487610e-01,1.186766475439071655e-01,-4.222333803772926331e-02,-5.910965800285339355e-02,1.690492220222949982e-02,-6.059286370873451233e-02,7.097159326076507568e-02,-7.382723502814769745e-03,1.069326419383287430e-02,1.094120293855667114e-01,-8.978732675313949585e-02,-1.278545856475830078e-01,6.514607369899749756e-02,-6.758102029561996460e-02,5.292281974107027054e-03,-1.257083863019943237e-01,1.402698159217834473e-01,3.424243628978729248e-02,3.162837401032447815e-02,-1.873330585658550262e-02,1.000512316823005676e-01,9.978560358285903931e-02,2.055717259645462036e-01,2.474827691912651062e-03,-8.467532694339752197e-03,6.117874756455421448e-02,1.830190867185592651e-01,1.713059395551681519e-01,6.989250332117080688e-02,8.579764515161514282e-03,9.146568924188613892e-02,-4.664165526628494263e-02,9.083350747823715210e-02,-9.586092084646224976e-02,-1.543815340846776962e-02,-2.995418012142181396e-02,1.116209402680397034e-01,4.637803882360458374e-02,-4.870347306132316589e-02,-5.239627882838249207e-02,-1.871319562196731567e-01,2.829763107001781464e-02,2.305416315793991089e-01,-3.789599984884262085e-02,3.891585767269134521e-02,-5.365971848368644714e-02,1.117705479264259338e-01,1.212308369576931000e-02,-1.273860037326812744e-01,-1.117888614535331726e-01,2.271866425871849060e-02,1.193232461810112000e-01,6.980353593826293945e-02,-7.153161801397800446e-03,5.307941697537899017e-03,-5.330987647175788879e-02,-6.577277183532714844e-02,-7.168364524841308594e-02,3.922201693058013916e-02,6.193542852997779846e-02,-1.555954217910766602e-01,6.616656668484210968e-03,1.031543221324682236e-02,1.836189329624176025e-01,-9.077318757772445679e-02,-6.116358190774917603e-02,-2.916072495281696320e-03,5.305235739797353745e-03,-1.042828038334846497e-01,-1.922517269849777222e-01,-4.195445775985717773e-02,2.242322117090225220e-01,-7.615962624549865723e-02,-2.274569422006607056e-01,-7.926053553819656372e-02,3.910679370164871216e-02,1.056697368621826172e-01,3.452194109559059143e-02,-5.447943136096000671e-02,5.688795819878578186e-03,2.125435918569564819e-01,-1.697418689727783203e-01,1.023465096950531006e-01,7.250401377677917480e-02,-5.452021583914756775e-02,-6.943126767873764038e-02,-1.117553636431694031e-01,3.479498252272605896e-02,-5.287569016218185425e-02,8.797907084226608276e-02,-3.358630463480949402e-02,-1.311242207884788513e-02,-1.015658825635910034e-01,-9.938529133796691895e-02,1.971111744642257690e-01,3.609051927924156189e-02,-1.251479387283325195e-01,-7.035488379187881947e-04,-6.160793080925941467e-02,9.623461216688156128e-02,-1.497462391853332520e-02,7.540618628263473511e-02,4.068486392498016357e-02,-3.482539951801300049e-02,1.543233096599578857e-01,-3.795876726508140564e-02,-8.701223880052566528e-02,5.687191337347030640e-02,-1.058603636920452118e-02,8.078904449939727783e-02,8.612187951803207397e-02,1.832018941640853882e-01,-5.211506411433219910e-02,3.820615261793136597e-02,-3.714760392904281616e-02,6.242844834923744202e-02
2.984499745070934296e-02,1.347221136093139648e-01,1.900682598352432251e-02,-8.564118295907974243e-02,1.455794572830200195e-01,4.967007413506507874e-02,-5.786580964922904968e-02,1.105360537767410278e-01,5.652743205428123474e-02,-4.208981618285179138e-02,-7.345830649137496948e-02,-4.125449806451797485e-02,1.035388559103012085e-01,8.724330365657806396e-02,8.062914013862609863e-03,-6.253212690353393555e-02,4.670927673578262329e-02,-6.077352538704872131e-02,9.085584431886672974e-02,-4.430194571614265442e-02,-1.519696507602930069e-02,7.397852092981338501e-02,5.433033779263496399e-02,-5.102068558335304260e-02,2.192783169448375702e-02,-4.474675655364990234e-02,-2.774836309254169464e-02,1.652958430349826813e-02,2.597701922059059143e-02,-7.621669024229049683e-02,7.312040030956268311e-02,-1.822039783000946045e-01,5.018398910760879517e-02,2.198199629783630371e-01,6.688298285007476807e-02,-3.433291986584663391e-02,3.438565135002136230e-02,-3.008936159312725067e-02,-5.846314877271652222e-02,4.653562232851982117e-02,8.566922508180141449e-03,-6.610802374780178070e-03,7.757660001516342163e-02,1.388895791023969650e-02,-6.866321433335542679e-03,5.033658817410469055e-02,-9.740990586578845978e-03,4.361819848418235779e-02,-4.054205119609832764e-02,-3.581599518656730652e-02,2.101307064294815063e-01,-9.141980856657028198e-02,-4.073314741253852844e-02,2.920020185410976410e-02,4.518510773777961731e-02,5.917265266180038452e-02,4.506924189627170563e-03,-5.467214807868003845e-02,6.539362017065286636e-03,3.003849834203720093e-02,-8.756440132856369019e-03,-1.226544901728630066e-01,-1.400949433445930481e-02,-4.143226519227027893e-02,1.246010661125183105e-01,-7.038120180368423462e-02,-2.857567928731441498e-02,-7.034634798765182495e-02,1.180258952081203461e-02,-6.506451964378356934e-02,4.474180564284324646e-02,-9.890064597129821777e-03,8.624418079853057861e-02,5.060747638344764709e-02,1.527831610292196274e-02,-7.188370078802108765e-02,5.492563545703887939e-02,-2.437304705381393433e-02,-7.084159553050994873e-02,-6.521565467119216919e-02,-5.859354138374328613e-02,2.476775646209716797e-02,-1.521385610103607178e-01,-7.581179589033126831e-02,2.172190509736537933e-02,5.529786273837089539e-02,-7.986545562744140625e-03,-1.083570048213005066e-01,2.097684517502784729e-02,-8.098674565553665161e-02,1.853805221617221832e-02,4.557524621486663818e-02,-2.287608012557029724e-02,-6.845559459179639816e-03,1.270310878753662109e-01,-8.816368877887725830e-02,3.163589537143707275e-02,-5.880380049347877502e-03,1.793514378368854523e-02,-1.428035199642181396e-01,-3.418965265154838562e-02,-2.238647639751434326e-01,4.434431344270706177e-02,-2.705693617463111877e-02,1.603272277861833572e-03,-1.092629134654998779e-01,1.210446506738662720e-01,4.216759651899337769e-02,6.244306452572345734e-03,1.054340898990631104e-01,7.870025932788848877e-02,3.145509213209152222e-02,-4.639479890465736389e-02,-2.032969146966934204e-01,9.991773217916488647e-02,-3.641979396343231201e-02,6.180361285805702209e-02,4.378654062747955322e-02,4.168144240975379944e-02,1.638187468051910400e-02,4.337096121162176132e-03,-5.550025403499603271e-02,6.000817194581031799e-02,-4.646533727645874023e-02,2.701086923480033875e-02,1.105644926428794861e-01,-7.382040470838546753e-02,-7.092173397541046143e-02
-2.071999758481979370e-02,7.551046088337898254e-03,-1.498897676356136799e-03,1.053923275321722031e-02,-6.356398016214370728e-02,-1.301597952842712402e-01,8.067531138658523560e-02,7.144124805927276611e-02,1.143795996904373169e-01,-3.457494452595710754e-02,-4.492417350411415100e-02,-9.012804925441741943e-02,-7.735593616962432861e-02,1.207989081740379333e-01,-4.616604745388031006e-02,2.171558737754821777e-01,1.253124475479125977e-01,-1.324483100324869156e-02,2.577544935047626495e-02,-2.021797299385070801e-01,-8.296445757150650024e-02,1.449119579046964645e-02,9.926919639110565186e-02,2.790297754108905792e-02,-5.455484241247177124e-02,-1.675694882869720459e-01,1.157611384987831116e-01,2.536544948816299438e-02,-8.045667409896850586e-02,1.426798105239868164e-01,4.495405778288841248e-02,-1.438876986503601074e-01,1.276519894599914551e-01,2.579553797841072083e-02,-1.564359962940216064e-01,1.349367201328277588e-02,1.284055318683385849e-02,-3.796482831239700317e-02,-6.755032576620578766e-03,-1.247296407818794250e-01,8.753641694784164429e-02,-1.524954885244369507e-01,5.850234534591436386e-03,1.234522685408592224e-01,-6.950981914997100830e-02,-4.973229020833969116e-02,5.954524967819452286e-03,9.859041124582290649e-02,5.120519921183586121e-02,7.492165267467498779e-02,-4.250678233802318573e-03,-4.348932951688766479e-02,1.290808469057083130e-01,2.510242536664009094e-02,-1.213331371545791626e-01,5.589302629232406616e-02,1.314776837825775146e-01,-1.395256221294403076e-01,-4.487557336688041687e-02,-2.429386228322982788e-01,1.715369671583175659e-01,-1.022784411907196045e-01,-1.733355522155761719e-01,-9.490476548671722412e-02,1.088177859783172607e-01,-1.281905770301818848e-01,-2.263237955048680305e-03,4.889232665300369263e-02,-1.212800666689872742e-01,6.143432483077049255e-02,4.357651341706514359e-03,-1.048165094107389450e-02,6.688753515481948853e-02,6.463894248008728027e-02,-2.459064684808254242e-02,-1.498681008815765381e-01,2.353403419256210327e-01,1.223384495824575424e-02,7.195904385298490524e-03,-5.324665084481239319e-02,2.206331118941307068e-02,9.210216253995895386e-02,-1.103761121630668640e-01,6.016901880502700806e-02,-6.629885733127593994e-02,-1.325474530458450317e-01,-1.515931338071823120e-01,1.975567191839218140e-01,-2.116403542459011078e-02,4.745149612426757812e-02,9.586039930582046509e-02,-1.620914787054061890e-01,5.745610222220420837e-02,-1.368432492017745972e-01,1.686040014028549194e-01,-1.060702726244926453e-01,-3.860122710466384888e-02,2.498070150613784790e-01,8.918397873640060425e-02,-1.915090531110763550e-01,-7.211742550134658813e-02,5.853991955518722534e-02,9.770500659942626953e-02,-6.705873459577560425e-02,3.976513445377349854e-02,1.212963983416557312e-01,-2.672707736492156982e-01,4.589531570672988892e-02,-3.910079970955848694e-02,-8.384305983781814575e-02,-4.991162940859794617e-02,2.740632044151425362e-03,1.174211055040359497e-01,3.079943545162677765e-02,1.943293213844299316e-02,5.884632468223571777e-02,-3.726540505886077881e-02,-1.338052935898303986e-02,2.147610858082771301e-02,-2.463370263576507568e-01,2.036580592393875122e-01,-5.105546861886978149e-02,7.522370433434844017e-04,-6.612338591367006302e-03,1.344693005084991455e-01,-5.104786530137062073e-02,-5.509533453732728958e-03,5.818172916769981384e-02
1.183687895536422729e-02,3.332473710179328918e-02,5.552342534065246582e-02,-3.043009713292121887e-02,-8.209387958049774170e-02,-9.814954549074172974e-02,-7.750520482659339905e-03,-6.561990082263946533e-02,-5.740639194846153259e-02,7.660750299692153931e-02,-3.670805832371115685e-03,-1.100258976221084595e-01,1.722731254994869232e-02,3.724624216556549072e-02,-3.612015768885612488e-02,-5.754392966628074646e-02,-2.188447117805480957e-01,6.301352381706237793e-02,9.679549932479858398e-02,-8.661665767431259155e-02,1.001036241650581360e-01,-5.260396376252174377e-02,-1.843047328293323517e-03,-5.196670070290565491e-02,1.269357204437255859e-01,-1.197438500821590424e-02,-5.446287104859948158e-04,4.161964170634746552e-03,1.649311557412147522e-02,3.300663456320762634e-02,5.028372630476951599e-02,3.461794555187225342e-02,-8.334366977214813232e-02,-2.006201297044754028e-01,3.294361755251884460e-02,-4.104245081543922424e-02,1.143575161695480347e-01,1.785014010965824127e-02,-3.396200016140937805e-02,4.141185432672500610e-02,1.704834401607513428e-01,-1.113489940762519836e-01,1.377843916416168213e-01,-3.570083901286125183e-02,2.958255261182785034e-02,-2.674837782979011536e-02,-7.530151400715112686e-03,3.138278424739837646e-02,-5.276763066649436951e-02,1.462417542934417725e-01,-1.039961948990821838e-01,-5.637136846780776978e-02,-1.053114309906959534e-01,5.795884877443313599e-02,-1.033547967672348022e-01,-9.427192807197570801e-02,4.036501049995422363e-02,-5.241564288735389709e-02,1.272546965628862381e-02,3.271492198109626770e-02,-2.251343429088592529e-02,-1.648876443505287170e-02,-7.052396237850189209e-02,3.261933922767639160e-01,8.769181370735168457e-02,-7.533646374940872192e-02,5.598881095647811890e-02,1.936024753376841545e-03,1.463038027286529541e-01,1.849305629730224609e-01,-1.114775165915489197e-01,-3.415159136056900024e-02,-7.881896942853927612e-02,-3.917805477976799011e-02,-1.384565383195877075e-01,-4.527973383665084839e-02,-3.516635159030556679e-03,7.050003856420516968e-02,-2.331840246915817261e-02,-1.572852022945880890e-02,4.465653374791145325e-02,-2.545663341879844666e-02,1.046452969312667847e-01,6.610152125358581543e-02,-6.851490586996078491e-02,7.663030922412872314e-02,4.657783545553684235e-03,4.285546485334634781e-03,1.269483193755149841e-02,4.293542820960283279e-03,3.808845579624176025e-02,-2.058838494122028351e-02,-1.651192009449005127e-01,-2.035821974277496338e-01,5.067626386880874634e-02,1.745872497558593750e-01,1.107457131147384644e-01,-4.831738397479057312e-02,-7.739761378616094589e-03,1.344311982393264771e-02,-4.037520848214626312e-03,2.066077142953872681e-01,-5.126333609223365784e-02,-7.291010022163391113e-02,-2.312875166535377502e-02,-1.628138497471809387e-02,7.782948017120361328e-02,2.116203494369983673e-02,8.603525161743164062e-02,-3.742765868082642555e-03,1.324090268462896347e-02,-2.632431220263242722e-03,1.740228980779647827e-01,6.530948728322982788e-02,3.012004867196083069e-02,-4.422071203589439392e-02,1.789351552724838257e-01,4.233416542410850525e-02,3.747550398111343384e-02,5.366625636816024780e-02,1.916904300451278687e-01,1.572901904582977295e-01,-5.037008225917816162e-02,6.369667500257492065e-02,6.029975786805152893e-02,1.556896697729825974e-02,5.335110053420066833e-02,7.165353745222091675e-02
3.059033118188381195e-02,3.173298761248588562e-02,-1.180813685059547424e-01,-1.875237822532653809e-01,-1.144587844610214233e-01,8.312388509511947632e-02,-1.184183135628700256e-01,-4.546388983726501465e-02,6.102849915623664856e-02,-9.413608163595199585e-02,6.478142738342285156e-02,-6.505558639764785767e-02,-8.892768621444702148e-02,-4.435224831104278564e-02,5.985452607274055481e-02,5.301965028047561646e-02,5.988875776529312134e-02,9.750484675168991089e-02,-2.031434178352355957e-01,2.836204133927822113e-02,2.033890038728713989e-01,1.554553806781768799e-01,1.770856790244579315e-02,2.701045013964176178e-02,-4.513223841786384583e-02,-5.116948112845420837e-02,1.172900758683681488e-02,1.370262205600738525e-01,1.035875380039215088e-01,9.928111732006072998e-02,-2.905070595443248749e-02,7.716391235589981079e-02,-5.137212201952934265e-02,-6.732113659381866455e-03,-1.245122030377388000e-01,-1.376321017742156982e-01,6.404435262084007263e-03,-4.797471687197685242e-03,4.793948680162429810e-02,-1.595474332571029663e-01,-2.272097393870353699e-03,4.072492569684982300e-02,1.231585144996643066e-01,-1.139161884784698486e-01,-6.128798425197601318e-02,1.511997878551483154e-01,9.686369448900222778e-02,5.311683565378189087e-02,4.436832666397094727e-02,-2.052787840366363525e-01,8.589608967304229736e-02,-6.895235180854797363e-02,4.853845015168190002e-02,9.521818161010742188e-02,4.440031014382839203e-03,1.012206226587295532e-01,-2.344819903373718262e-02,-2.117184922099113464e-02,-8.574189990758895874e-02,-6.014378368854522705e-02,-2.791676856577396393e-02,-4.381381720304489136e-02,2.398338355123996735e-02,-2.611658349633216858e-02,-1.882247254252433777e-02,1.110549122095108032e-01,-2.705329097807407379e-02,3.855214267969131470e-02,4.622084274888038635e-02,8.845912665128707886e-02,-1.100495830178260803e-01,-7.678104937076568604e-02,6.495090574026107788e-02,-9.937704354524612427e-02,-2.146753966808319092e-01,7.591826841235160828e-03,6.697630137205123901e-02,1.040721014142036438e-01,9.082128852605819702e-02,-1.029483079910278320e-01,1.587285995483398438e-01,-8.195090293884277344e-02,-7.114603370428085327e-02,-1.275148391723632812e-01,-6.738645490258932114e-03,1.458882540464401245e-02,-1.093401908874511719e-01,-6.031213328242301941e-02,1.061566770076751709e-01,-5.873121321201324463e-02,-3.714688867330551147e-02,-1.657505892217159271e-02,2.030110955238342285e-01,5.316463485360145569e-02,1.166404336690902710e-01,-1.121918931603431702e-01,-2.573458477854728699e-02,-2.358871512115001678e-03,6.588151305913925171e-02,-1.439919471740722656e-01,-1.638194173574447632e-02,-1.261214762926101685e-01,5.052427877672016621e-04,1.558676660060882568e-01,-1.831040382385253906e-01,8.315186947584152222e-02,1.503630634397268295e-02,6.804443150758743286e-02,3.022931981831789017e-03,1.617432534694671631e-01,-1.208227947354316711e-01,-4.060903191566467285e-02,-1.902941614389419556e-01,-4.379181936383247375e-02,-7.179518789052963257e-02,3.534372150897979736e-02,-6.908716261386871338e-02,1.355841755867004395e-01,-9.043164551258087158e-03,-5.111018568277359009e-02,-2.359493970870971680e-01,1.377588659524917603e-01,1.923691853880882263e-02,-6.297350674867630005e-02,-1.133566349744796753e-01,1.676218062639236450e-01,-4.783527180552482605e-02,8.860687166452407837e-02
2.479547820985317230e-02,-1.358262449502944946e-01,-1.513798628002405167e-02,-7.802464812994003296e-02,7.092765066772699356e-03,8.046555519104003906e-02,-9.144762903451919556e-02,-4.605738073587417603e-02,-2.283734641969203949e-02,1.255479454994201660e-01,-1.010688990354537964e-01,2.491191774606704712e-02,-2.930477261543273926e-02,1.864793300628662109e-01,1.575078815221786499e-01,-8.895839005708694458e-02,8.159535378217697144e-02,1.843768358230590820e-02,-1.163281053304672241e-01,2.372324615716934204e-01,-6.362371146678924561e-02,1.137703359127044678e-01,-9.270055592060089111e-02,-8.295991271734237671e-02,-1.999256163835525513e-01,3.295539692044258118e-02,8.523488789796829224e-02,3.413753584027290344e-02,-1.501504629850387573e-01,1.867755502462387085e-01,4.094482958316802979e-02,2.795723080635070801e-02,-4.947294667363166809e-02,-1.467014700174331665e-01,1.477091573178768158e-02,1.725654155015945435e-01,-1.126639544963836670e-01,2.653742395341396332e-02,-4.586347844451665878e-03,1.370478123426437378e-01,8.900787681341171265e-02,7.868602871894836426e-02,-6.379199028015136719e-02,1.984728723764419556e-01,1.818937808275222778e-01,-7.427044957876205444e-02,-8.362019062042236328e-02,-1.359311938285827637e-01,-5.987929180264472961e-02,1.121459603309631348e-01,-1.246508583426475525e-01,7.632728666067123413e-02,3.426568582653999329e-02,-1.408822238445281982e-01,7.959979027509689331e-02,1.070760414004325867e-01,-3.971888870000839233e-02,-1.340941409580409527e-03,9.289447963237762451e-02,2.836776897311210632e-02,-7.852437347173690796e-02,-1.152049973607063293e-01,-1.579281836748123169e-01,-1.547192316502332687e-02,9.970872104167938232e-02,4.627912119030952454e-02,1.103584319353103638e-01,1.914237253367900848e-02,3.162731975317001343e-02,8.497600257396697998e-02,-5.435240920633077621e-03,3.787117823958396912e-02,1.923095583915710449e-01,-4.035015031695365906e-02,4.123356193304061890e-02,8.083775639533996582e-02,-1.723504066467285156e-02,4.536603763699531555e-02,9.515463560819625854e-02,4.838323593139648438e-02,-2.741595171391963959e-02,-1.860990077257156372e-01,3.969567362219095230e-03,-4.027010500431060791e-02,-7.452271133661270142e-02,7.075467705726623535e-02,1.132079735398292542e-01,3.500767797231674194e-02,-9.601955115795135498e-02,2.177981138229370117e-01,8.616808801889419556e-02,-6.170023232698440552e-03,7.572122663259506226e-02,2.018403820693492889e-02,2.175456658005714417e-02,9.968450665473937988e-02,6.330750137567520142e-02,7.581408321857452393e-02,2.576295658946037292e-02,-2.171510756015777588e-01,-5.917539820075035095e-03,-3.009328059852123260e-02,2.443106621503829956e-01,1.107185557484626770e-01,-1.780698001384735107e-01,-1.778332702815532684e-02,-2.197529375553131104e-01,-1.924565434455871582e-02,1.015030369162559509e-01,7.923932373523712158e-02,3.765602409839630127e-02,2.955739013850688934e-02,-8.613266050815582275e-02,6.020961701869964600e-02,-3.973131999373435974e-03,1.193044856190681458e-01,1.269793510437011719e-01,6.934263277798891068e-03,9.144587814807891846e-02,3.805362805724143982e-02,1.885959506034851074e-01,8.546736091375350952e-03,4.849413875490427017e-03,-1.739151924848556519e-01,4.466299340128898621e-02,1.686460711061954498e-02,-1.750359833240509033e-01,9.291884303092956543e-02
2.767182420939207077e-03,-6.409379839897155762e-02,1.431996971368789673e-01,-2.814536681398749352e-03,1.590318605303764343e-02,-4.008461534976959229e-02,1.015565395355224609e-01,-2.784949243068695068e-01,1.243896409869194031e-01,-1.539950221776962280e-01,-1.194730326533317566e-01,-6.114723905920982361e-02,-1.155826598405838013e-01,1.239118576049804688e-01,-1.831218600273132324e-02,1.806207560002803802e-02,6.310123205184936523e-02,1.941952556371688843e-01,-8.892350643873214722e-02,1.544093154370784760e-02,1.903444528579711914e-02,9.726475179195404053e-02,1.055968925356864929e-01,-3.232158254832029343e-03,4.623158893082290888e-04,3.813934698700904846e-02,-8.475853130221366882e-03,-5.169065669178962708e-02,-3.741938620805740356e-02,-2.787108905613422394e-02,4.838539659976959229e-02,1.242512837052345276e-01,-1.188212633132934570e-01,-4.897214099764823914e-02,-2.751193046569824219e-01,1.808687299489974976e-02,-3.553827852010726929e-02,1.182716190814971924e-01,-4.619152098894119263e-02,-1.204151776619255543e-03,4.276420176029205322e-02,-7.191940397024154663e-02,1.601444333791732788e-01,-7.679198682308197021e-02,9.055619686841964722e-02,2.230015397071838379e-02,1.008710414171218872e-01,1.396888587623834610e-02,3.099268302321434021e-02,5.965504050254821777e-02,-1.108492016792297363e-01,-2.995249442756175995e-02,-3.203772008419036865e-02,-8.237481117248535156e-02,1.380140036344528198e-01,9.522128850221633911e-02,-1.337178200483322144e-01,-1.252060383558273315e-01,9.655918926000595093e-02,7.707455195486545563e-03,5.530631169676780701e-03,3.970654308795928955e-02,4.004276916384696960e-02,-4.320466145873069763e-02,-1.472989283502101898e-02,1.031889691948890686e-01,4.377157613635063171e-02,2.389270626008510590e-02,1.527127325534820557e-01,-3.089294135570526123e-01,2.368076294660568237e-01,-1.255069077014923096e-01,1.476074308156967163e-01,1.267725601792335510e-04,4.616151377558708191e-02,1.039405763149261475e-01,1.274893879890441895e-01,1.436623185873031616e-01,-2.163826115429401398e-02,-7.227288186550140381e-02,-6.085244938731193542e-02,-7.493674755096435547e-02,1.197387464344501495e-02,5.962812900543212891e-02,-1.739883050322532654e-02,6.778391450643539429e-02,-6.828262656927108765e-02,2.100698277354240417e-02,4.936757683753967285e-02,1.447084546089172363e-02,7.427149266004562378e-02,2.033667117357254028e-01,9.200071543455123901e-02,1.755101955495774746e-03,1.159504245151765645e-04,1.108842492103576660e-01,-1.740477532148361206e-01,-2.353072911500930786e-02,1.073460355401039124e-01,6.042887642979621887e-02,1.693943701684474945e-02,7.523661851882934570e-02,3.525310754776000977e-02,5.349761247634887695e-02,-1.632682979106903076e-01,-1.399835497140884399e-01,3.291428089141845703e-02,-1.534716635942459106e-01,5.376316234469413757e-02,-1.794104278087615967e-01,8.509655296802520752e-02,6.841967254877090454e-02,-1.561868041753768921e-01,1.739732921123504639e-01,-5.048204213380813599e-02,5.177799239754676819e-02,2.314780950546264648e-01,4.026102274656295776e-02,-7.789094001054763794e-02,-6.859848741441965103e-03,1.037901043891906738e-01,-8.076975494623184204e-02,-1.620839536190032959e-01,-2.233990281820297241e-02,-6.824107468128204346e-02,4.835589975118637085e-02,1.037202179431915283e-01,-4.801233857870101929e-02
-6.341136991977691650e-02,1.259167864918708801e-02,2.603819780051708221e-02,9.350799769163131714e-02,-3.110571764409542084e-02,7.059473544359207153e-02,-6.317263841629028320e-02,1.439371798187494278e-02,-1.653900891542434692e-01,-2.235527634620666504e-01,1.461109966039657593e-01,9.343723207712173462e-02,-5.612052604556083679e-02,2.076566917821764946e-03,-8.237412571907043457e-02,4.605096299201250076e-03,-4.885114729404449463e-02,2.283964306116104126e-01,-6.056353822350502014e-02,2.775748958811163902e-03,-5.801543965935707092e-02,9.168819338083267212e-02,-1.189292743802070618e-01,-5.296828597784042358e-02,-1.010571047663688660e-01,-1.262239459902048111e-02,-8.904865011572837830e-03,-1.100240573287010193e-01,-5.498430877923965454e-02,-7.931290566921234131e-02,1.141888946294784546e-01,-2.270402200520038605e-02,-4.061052575707435608e-02,-3.087444603443145752e-02,2.037127315998077393e-01,1.121941059827804565e-01,1.061600595712661743e-01,6.145968660712242126e-02,-1.237508356571197510e-01,-1.622347384691238403e-01,-9.863550215959548950e-02,1.236687302589416504e-01,7.786600291728973389e-02,8.412837237119674683e-02,4.903309047222137451e-02,-5.393992364406585693e-02,7.827131450176239014e-02,1.338465213775634766e-01,4.962369054555892944e-02,-1.629357635974884033e-01,9.516995400190353394e-02,-1.076316386461257935e-01,-2.387752942740917206e-02,8.841666579246520996e-02,3.731878474354743958e-02,-1.832909765653312206e-03,8.478584140539169312e-02,-2.086654491722583771e-02,1.794665455818176270e-01,2.497949078679084778e-02,1.395101249217987061e-01,-2.566875703632831573e-02,1.450031250715255737e-01,1.755570024251937866e-01,-1.778268665075302124e-01,-1.923068314790725708e-01,2.732550539076328278e-02,3.168929368257522583e-02,6.380353868007659912e-02,7.138872891664505005e-02,-1.034839749336242676e-01,8.313130587339401245e-02,-1.304833739995956421e-01,8.962978608906269073e-03,1.333406269550323486e-01,-2.694830996915698051e-03,-2.238451316952705383e-02,-5.291115865111351013e-02,8.136095106601715088e-02,-9.205519407987594604e-02,-4.630057141184806824e-02,-1.498893182724714279e-02,-3.947425484657287598e-01,-2.375003099441528320e-01,4.099913313984870911e-02,-3.568013012409210205e-02,-1.056374981999397278e-01,2.954667620360851288e-02,-9.275875240564346313e-02,-4.441580269485712051e-03,-6.524737179279327393e-02,1.812714338302612305e-01,-2.816303819417953491e-02,5.901757255196571350e-02,-1.069271415472030640e-01,-1.136257052421569824e-01,-4.693312570452690125e-02,2.300094217061996460e-01,-2.018624842166900635e-01,-1.361310333013534546e-01,-6.455076485872268677e-02,2.660504775121808052e-03,-9.157198667526245117e-02,-8.584603667259216309e-02,-1.223413050174713135e-01,2.259980328381061554e-02,7.460967171937227249e-03,-2.363200997933745384e-03,4.809273034334182739e-02,-1.296982541680335999e-02,-2.555702254176139832e-02,-1.119604334235191345e-02,-5.782350897789001465e-03,-1.176789253950119019e-01,-9.758622199296951294e-02,-8.747576735913753510e-03,2.593010291457176208e-02,-6.602913141250610352e-02,2.546560578048229218e-02,1.541776210069656372e-01,4.472288489341735840e-02,1.235253550112247467e-02,-3.099623136222362518e-02,1.836227625608444214e-01,1.923053711652755737e-01,-1.578077375888824463e-01,-1.299810558557510376e-01,-4.662548378109931946e-02
2.047277987003326416e-02,-4.097291082143783569e-02,2.270347997546195984e-02,9.366710670292377472e-03,-4.829670861363410950e-02,6.308533996343612671e-02,1.535728424787521362e-01,-3.665371984243392944e-02,8.851370774209499359e-03,-1.464940235018730164e-02,-2.423744089901447296e-02,-1.229677498340606689e-01,2.752370899543166161e-03,-1.289671063423156738e-01,2.350867092609405518e-01,1.461184322834014893e-01,1.280481815338134766e-01,-3.691076859831809998e-02,-4.405442997813224792e-02,-1.662544310092926025e-01,-6.602066755294799805e-02,7.796026021242141724e-02,-8.334030210971832275e-02,2.136219292879104614e-01,5.755621194839477539e-02,-1.322183907032012939e-01,-1.506743282079696655e-01,-3.063711524009704590e-02,-3.089571371674537659e-02,5.468232184648513794e-02,-1.845481991767883301e-01,-8.156725764274597168e-02,2.709939777851104736e-01,1.040137559175491333e-01,-1.124407798051834106e-01,9.715408831834793091e-02,-7.997636497020721436e-02,2.032849192619323730e-01,-2.113573402166366577e-01,1.786764264106750488e-01,1.805507838726043701e-01,-6.426598131656646729e-02,-1.334872189909219742e-02,-9.087317623198032379e-03,1.728438436985015869e-01,2.424456737935543060e-02,-1.732642948627471924e-01,-8.140132576227188110e-02,-1.394042223691940308e-01,-1.759545505046844482e-01,-7.936535775661468506e-02,4.752486199140548706e-02,-1.490760780870914459e-02,-1.260529607534408569e-01,1.733686476945877075e-01,-1.067034453153610229e-01,-1.524311900138854980e-01,1.686255633831024170e-01,1.051931530237197876e-01,2.075260281562805176e-01,-5.539103224873542786e-02,7.211123127490282059e-03,5.076988786458969116e-02,-9.878728538751602173e-02,1.370239257812500000e-01,5.239909514784812927e-02,-1.788743436336517334e-01,2.012388221919536591e-02,-7.165196537971496582e-02,-1.117410324513912201e-02,-6.167094409465789795e-02,1.479778289794921875e-01,1.995856165885925293e-01,5.148948356509208679e-02,-2.870120108127593994e-02,3.244685381650924683e-02,-1.172510683536529541e-01,1.467964053153991699e-01,-1.980664432048797607e-01,-7.798075675964355469e-02,8.494009077548980713e-02,2.380195856094360352e-01,9.706816077232360840e-02,1.773069202899932861e-01,5.314148589968681335e-02,-1.470784395933151245e-01,-1.732300966978073120e-01,-1.533678472042083740e-01,1.110582351684570312e-01,-2.407422214746475220e-01,-2.687813527882099152e-02,-2.896802686154842377e-02,6.690949201583862305e-02,-7.949804421514272690e-04,-3.777366131544113159e-02,-2.471226900815963745e-01,9.361056983470916748e-02,-1.980241388082504272e-01,-2.233409434556961060e-01,1.285738050937652588e-01,5.212813243269920349e-02,-8.699703961610794067e-02,-1.020803377032279968e-01,-7.060565799474716187e-02,-5.405565351247787476e-02,5.200551450252532959e-02,9.617128223180770874e-02,7.994458079338073730e-03,-2.150825560092926025e-01,-3.347392007708549500e-02,5.485897883772850037e-02,1.315809190273284912e-01,3.244364559650421143e-01,2.278645187616348267e-01,-1.173714399337768555e-01,1.014203205704689026e-01,-2.307222690433263779e-03,-3.371010720729827881e-02,1.174595654010772705e-01,2.360368520021438599e-02,9.531121701002120972e-03,-1.079097623005509377e-03,6.670854240655899048e-02,-1.262486129999160767e-01,1.965699344873428345e-02,1.059972420334815979e-01,-2.813934162259101868e-02,1.251004785299301147e-01
1.086741909384727478e-01,5.812365934252738953e-02,2.338187210261821747e-02,2.084801904857158661e-02,-1.800061613321304321e-01,-8.045579493045806885e-02,1.267212182283401489e-01,-2.314618229866027832e-02,-3.637003898620605469e-02,1.545070707798004150e-01,-8.395520597696304321e-02,-2.369664423167705536e-02,1.149551495909690857e-01,-1.727121323347091675e-01,5.281969532370567322e-02,-1.405370235443115234e-01,-4.724835511296987534e-03,-1.120522469282150269e-01,5.172985792160034180e-02,9.901501238346099854e-02,1.181210111826658249e-02,1.142307464033365250e-02,-1.000118255615234375e-01,-1.105597894638776779e-02,-2.056968361139297485e-01,-5.579286254942417145e-03,1.110677272081375122e-01,5.694453790783882141e-02,7.752232253551483154e-02,-3.891147207468748093e-03,9.691605344414710999e-03,6.607856135815382004e-03,2.556591331958770752e-01,-7.951062172651290894e-02,5.186148360371589661e-02,-1.018216982483863831e-01,-8.024003356695175171e-02,1.141915991902351379e-01,8.680219203233718872e-02,9.649323299527168274e-03,-5.624308809638023376e-02,5.059457570314407349e-02,1.274459958076477051e-01,3.453497774899005890e-03,1.062785163521766663e-01,3.522180020809173584e-02,7.245069742202758789e-02,3.996784612536430359e-02,1.008096188306808472e-01,9.549076855182647705e-02,-5.904031568206846714e-04,-5.560612678527832031e-02,1.584337055683135986e-01,-5.659839138388633728e-02,-1.076980009675025940e-01,-4.435389488935470581e-02,-1.256621209904551506e-03,-2.965866774320602417e-02,-1.432988941669464111e-01,-4.519500210881233215e-02,-7.249190658330917358e-02,-1.520176767371594906e-03,2.893300056457519531e-01,1.136303916573524475e-01,5.853336676955223083e-02,-8.367142826318740845e-02,-2.576540708541870117e-01,-7.450488209724426270e-02,1.430826485157012939e-01,-1.268510967493057251e-01,3.750053420662879944e-02,-2.262318506836891174e-02,-1.374979410320520401e-02,-7.182087004184722900e-02,-9.437572956085205078e-02,2.096338383853435516e-02,1.563323289155960083e-01,2.024704515933990479e-01,8.102026581764221191e-02,-1.393499691039323807e-02,1.626306325197219849e-01,1.120006889104843140e-01,-2.013634890317916870e-01,4.482891038060188293e-02,-1.312325149774551392e-01,1.494950056076049805e-01,-5.578329414129257202e-02,3.550291061401367188e-02,-6.912778317928314209e-02,6.018217280507087708e-02,1.001955196261405945e-01,8.282273262739181519e-02,-1.487044841051101685e-01,1.587951034307479858e-01,5.092951655387878418e-02,6.081503257155418396e-02,1.245573982596397400e-01,-1.602357625961303711e-02,-5.204188823699951172e-02,4.233137518167495728e-02,1.215952448546886444e-02,-1.336224973201751709e-01,2.297981269657611847e-02,7.815009355545043945e-02,-1.696348749101161957e-02,2.306919395923614502e-01,5.549435969442129135e-03,-7.285215705633163452e-02,-2.260643377667292953e-04,-6.091871485114097595e-02,-3.813807852566242218e-04,1.378972828388214111e-01,-1.044168621301651001e-01,9.283871948719024658e-02,1.657007485628128052e-01,-9.529139846563339233e-02,-2.584177441895008087e-02,-3.264666721224784851e-02,-1.073775961995124817e-01,5.102544650435447693e-02,-4.501770436763763428e-02,7.408059388399124146e-02,-1.517428550869226456e-02,1.319002360105514526e-01,2.537645399570465088e-01,4.608976095914840698e-02,-4.454370215535163879e-02,9.221956878900527954e-02
4.848910495638847351e-02,-1.559377461671829224e-02,-2.321955934166908264e-02,-7.420167326927185059e-02,1.262547820806503296e-01,1.050258241593837738e-02,-8.961144089698791504e-02,4.588136449456214905e-02,-1.081732381135225296e-02,8.758764714002609253e-02,-7.357584685087203979e-02,-3.824471309781074524e-02,-2.837196364998817444e-02,1.317778043448925018e-02,-3.515207767486572266e-02,-4.704586043953895569e-02,7.370337098836898804e-02,-8.268631249666213989e-02,-2.354655880481004715e-03,4.637738224118947983e-03,8.114744722843170166e-02,-2.575579583644866943e-01,-1.906581409275531769e-02,2.096573449671268463e-02,2.430610358715057373e-02,1.161933019757270813e-01,-4.120131582021713257e-02,5.597586929798126221e-02,-3.961902484297752380e-02,-5.670548975467681885e-02,3.677893802523612976e-02,-1.886718533933162689e-02,1.138517446815967560e-02,1.840080022811889648e-01,2.361474633216857910e-01,1.508878022432327271e-01,1.465768218040466309e-01,-3.682043170556426048e-03,9.607566148042678833e-02,1.347098592668771744e-02,4.460504278540611267e-02,-5.567140504717826843e-02,1.960880011320114136e-01,8.049176633358001709e-02,-1.626582145690917969e-01,-2.043821476399898529e-02,1.176847741007804871e-01,6.820453703403472900e-02,7.696882635354995728e-02,-9.775373339653015137e-02,-1.249804496765136719e-01,6.995837390422821045e-02,8.473488688468933105e-02,-9.963575750589370728e-02,1.899601370096206665e-01,-9.350287169218063354e-02,-4.893578961491584778e-02,1.348956823348999023e-01,-1.276439875364303589e-01,-1.326570753008127213e-02,-3.384803608059883118e-02,1.670154780149459839e-01,-5.069367215037345886e-02,2.310081385076045990e-02,1.027434989809989929e-01,-5.181324109435081482e-02,4.090765863656997681e-02,1.638448685407638550e-01,1.046833321452140808e-01,-9.915361553430557251e-02,5.145975388586521149e-03,8.577587082982063293e-03,-1.217376962304115295e-01,6.981890648603439331e-02,2.006479725241661072e-02,9.551104158163070679e-02,7.748878747224807739e-02,8.856104314327239990e-02,3.306405246257781982e-02,2.280243486166000366e-01,1.622343659400939941e-01,-1.527004241943359375e-01,1.151451021432876587e-01,4.270845651626586914e-02,9.233865886926651001e-02,1.861949712038040161e-01,1.167837828397750854e-01,-2.572002448141574860e-02,2.832524850964546204e-02,-1.196428388357162476e-01,-1.230556741356849670e-01,6.830133497714996338e-02,-1.801146268844604492e-01,-4.507908225059509277e-02,-8.876708894968032837e-02,1.133839413523674011e-01,1.132737495936453342e-03,1.552432775497436523e-01,1.860918402671813965e-01,-1.553824394941329956e-01,-1.303545292466878891e-02,1.066020578145980835e-01,-2.693577297031879425e-02,4.357533529400825500e-02,4.999206960201263428e-02,1.656259596347808838e-01,-4.904482513666152954e-02,-1.214453950524330139e-02,-5.703049898147583008e-02,3.088871948421001434e-02,-1.568913608789443970e-01,2.294133044779300690e-02,8.549280464649200439e-02,-5.990576744079589844e-02,-2.447501942515373230e-02,-3.419223427772521973e-02,-1.733527630567550659e-01,-7.594341039657592773e-02,1.268154233694076538e-01,-4.774764925241470337e-02,4.503526538610458374e-02,1.053068861365318298e-01,1.965737938880920410e-01,1.593444496393203735e-01,-4.079398140311241150e-02,-2.186336182057857513e-02,-1.153834513388574123e-03,4.718822240829467773e-02
1.383240669965744019e-01,1.189066469669342041e-02,1.467017456889152527e-02,2.407561391592025757e-01,7.492451369762420654e-02,-1.975525729358196259e-02,6.857332587242126465e-02,4.395086318254470825e-02,-1.055602803826332092e-01,-6.872659921646118164e-02,5.196421965956687927e-02,7.285776734352111816e-02,1.952456869184970856e-02,2.790081128478050232e-02,-1.184791624546051025e-01,-3.914615511894226074e-02,-6.209596991539001465e-02,2.448894083499908447e-01,1.217967793345451355e-01,2.768075093626976013e-02,1.578945964574813843e-01,-1.091486122459173203e-02,-9.143988788127899170e-02,3.143475577235221863e-02,-2.555648423731327057e-02,-1.849654912948608398e-01,-8.831317722797393799e-02,1.430531740188598633e-01,-1.019557844847440720e-02,-2.320671640336513519e-02,3.711108118295669556e-02,-3.837367892265319824e-02,2.681283280253410339e-02,2.195627540349960327e-01,1.321022808551788330e-01,4.691369459033012390e-02,-6.175246089696884155e-03,7.046844810247421265e-02,-2.147023193538188934e-02,9.011501446366310120e-03,-4.826695844531059265e-02,-4.939058795571327209e-02,-7.548484206199645996e-02,1.396719366312026978e-01,-1.246859971433877945e-02,1.219373643398284912e-01,4.380246624350547791e-02,-3.831203654408454895e-02,-3.439066931605339050e-02,-5.181685462594032288e-02,1.397038400173187256e-01,1.641970127820968628e-02,-5.939361080527305603e-02,-2.826864644885063171e-02,-1.361470371484756470e-01,-8.436235040426254272e-02,-3.475571051239967346e-02,-9.088794142007827759e-02,8.869513869285583496e-03,4.605770856142044067e-02,-1.089564561843872070e-01,-6.415572483092546463e-03,-1.064797788858413696e-01,-8.276615291833877563e-02,-8.557628840208053589e-02,-1.349979196675121784e-03,-8.959116786718368530e-02,5.432295054197311401e-02,-3.136059502139687538e-03,1.001960858702659607e-01,3.611579164862632751e-02,6.377037148922681808e-03,7.660619914531707764e-02,-1.940912194550037384e-02,7.169130444526672363e-02,-9.456823021173477173e-02,-2.067874372005462646e-02,5.433905869722366333e-03,-5.849646031856536865e-02,1.738406717777252197e-02,2.036978863179683685e-02,1.355368345975875854e-01,2.798867411911487579e-02,7.487416267395019531e-02,-2.324844598770141602e-01,-4.531208798289299011e-02,4.878738150000572205e-02,-4.749013576656579971e-03,7.586513459682464600e-02,1.433946639299392700e-01,2.990169264376163483e-02,6.435609608888626099e-02,1.622963882982730865e-02,1.167221441864967346e-01,1.896515674889087677e-02,2.425464987754821777e-02,5.651537328958511353e-02,1.523092538118362427e-01,3.355679661035537720e-02,8.684197813272476196e-02,-8.985488116741180420e-02,-4.852642863988876343e-02,-3.422524780035018921e-02,6.562856584787368774e-02,-1.047072336077690125e-01,-4.838966205716133118e-02,-7.310520112514495850e-02,-2.021338343620300293e-01,-1.686768233776092529e-01,7.137716561555862427e-02,7.834249734878540039e-02,2.946720831096172333e-02,3.514576330780982971e-02,-4.040348157286643982e-02,2.072232067584991455e-01,1.686353236436843872e-01,-1.763831228017807007e-01,-2.467092275619506836e-01,3.239174559712409973e-02,8.069720119237899780e-02,1.253060698509216309e-01,5.041565746068954468e-02,1.552837044000625610e-01,-1.642978042364120483e-01,5.188021436333656311e-02,-1.136139258742332458e-01,-4.258062690496444702e-02,4.520742595195770264e-02
4.192471131682395935e-02,4.974854364991188049e-02,-9.570081532001495361e-02,5.609922483563423157e-02,8.849582821130752563e-02,-2.521768398582935333e-02,9.959025681018829346e-02,-3.041845187544822693e-02,5.853290483355522156e-02,2.214613258838653564e-01,5.681206285953521729e-02,1.130826547741889954e-01,-6.125756725668907166e-02,3.801612928509712219e-02,5.989761278033256531e-02,-7.499537896364927292e-04,-5.995982885360717773e-02,8.161962777376174927e-02,1.365588419139385223e-02,1.768106222152709961e-02,2.499554678797721863e-02,-8.302596979774534702e-04,8.771104365587234497e-02,-4.199302569031715393e-02,-6.513794511556625366e-02,2.178121209144592285e-01,-9.045869112014770508e-03,4.625555127859115601e-02,-2.078356891870498657e-01,-1.584362052381038666e-02,3.950715437531471252e-02,3.096309676766395569e-02,5.055375769734382629e-02,-1.370889134705066681e-03,-3.154429420828819275e-02,-1.409399881958961487e-02,2.157552167773246765e-02,-1.540111284703016281e-02,-1.394873559474945068e-01,-7.795528322458267212e-02,3.131657466292381287e-02,-1.159371957182884216e-01,8.581516891717910767e-02,-1.384692788124084473e-01,9.625695645809173584e-02,-2.604274451732635498e-02,-8.702563494443893433e-02,1.765504330396652222e-01,-1.523359119892120361e-01,9.106910973787307739e-02,-9.248388558626174927e-02,-5.486379936337471008e-02,5.659563094377517700e-02,1.825058162212371826e-01,1.230219006538391113e-01,1.330160796642303467e-01,1.429690867662429810e-01,-5.458374693989753723e-02,-3.553919121623039246e-02,2.943333238363265991e-02,1.449787467718124390e-01,-6.189595162868499756e-02,-7.755748927593231201e-02,-1.874767616391181946e-02,-6.418965756893157959e-02,1.854340173304080963e-02,1.157617717981338501e-01,-1.482919901609420776e-01,-1.067169830203056335e-01,1.249251700937747955e-02,-7.398238033056259155e-02,-7.992145419120788574e-02,4.353543370962142944e-02,-1.274139434099197388e-01,-1.226329617202281952e-02,2.040270715951919556e-02,1.739583164453506470e-02,7.161457091569900513e-02,-4.505294561386108398e-02,1.031413525342941284e-01,2.606236636638641357e-01,1.426923554390668869e-02,-1.474573016166687012e-01,1.320960521697998047e-01,1.725224852561950684e-01,1.675552688539028168e-02,-2.286289818584918976e-02,1.167584024369716644e-02,1.198131814599037170e-01,2.759489230811595917e-02,3.756543248891830444e-02,-5.573851987719535828e-02,-5.351917818188667297e-02,1.933445804752409458e-03,-1.493238359689712524e-01,1.786518841981887817e-01,2.743512019515037537e-02,9.708919376134872437e-02,6.508979946374893188e-02,-1.128658056259155273e-01,-2.571917697787284851e-02,1.420504003763198853e-01,-8.161275833845138550e-02,1.091015636920928955e-01,3.017129376530647278e-02,9.748242795467376709e-03,-6.965426355600357056e-02,2.001325041055679321e-02,-1.831892877817153931e-01,1.412952393293380737e-01,1.264365203678607941e-02,1.858993200585246086e-03,1.160470321774482727e-01,1.188360061496496201e-02,7.949294894933700562e-02,2.949751541018486023e-02,-1.169801428914070129e-01,2.164081633090972900e-01,6.187145039439201355e-02,-4.235274717211723328e-02,6.977588683366775513e-02,-2.149628475308418274e-02,1.056394800543785095e-01,-6.669065356254577637e-02,6.076293811202049255e-02,-1.293011754751205444e-02,-4.336857795715332031e-02,3.983324393630027771e-02
1.511151045560836792e-01,1.274671256542205811e-01,2.217266336083412170e-02,-5.341097712516784668e-02,-7.928925007581710815e-02,3.848942651529796422e-05,7.173485588282346725e-03,-2.415795810520648956e-02,1.891389042139053345e-01,2.672925591468811035e-02,-1.237704157829284668e-01,-4.645048826932907104e-02,-2.995562367141246796e-02,-4.784999787807464600e-02,4.606949165463447571e-02,4.523992165923118591e-02,-3.421625494956970215e-02,1.309045255184173584e-01,5.623945593833923340e-02,-9.016445279121398926e-02,1.668790169060230255e-02,-1.725164800882339478e-02,-1.308949012309312820e-02,7.091334462165832520e-02,-5.314325913786888123e-02,2.121530920267105103e-01,-7.382560521364212036e-02,2.256029285490512848e-02,-8.351197093725204468e-02,5.648090504109859467e-03,-1.544735133647918701e-01,-4.292230308055877686e-02,-1.062988191843032837e-01,9.902276843786239624e-02,-6.050284020602703094e-03,6.751555949449539185e-02,-4.394584521651268005e-02,-2.175670862197875977e-01,8.273143321275711060e-02,7.607580721378326416e-02,1.351868212223052979e-01,-1.726267486810684204e-02,7.495297491550445557e-02,8.953633904457092285e-02,4.570346698164939880e-02,-1.500245481729507446e-01,1.401415467262268066e-02,-1.936127431690692902e-02,1.811395585536956787e-01,-1.418240517377853394e-01,1.639677435159683228e-01,1.446164585649967194e-02,-1.280391514301300049e-01,1.316351294517517090e-01,-7.054193317890167236e-02,7.048040628433227539e-03,2.674701996147632599e-02,1.477263569831848145e-01,-2.640051394701004028e-02,-1.281816661357879639e-01,9.196110814809799194e-02,3.898519277572631836e-02,1.113239526748657227e-01,6.023036688566207886e-02,1.117007690481841564e-03,-6.455098837614059448e-02,-8.326169848442077637e-02,-7.954683154821395874e-02,-1.441918462514877319e-01,4.255342110991477966e-02,3.206507489085197449e-02,9.522863477468490601e-02,-3.152523562312126160e-02,3.483901033177971840e-03,6.932571530342102051e-02,-1.077205315232276917e-01,-8.266115933656692505e-02,1.056723967194557190e-01,-1.572707295417785645e-01,1.320814061909914017e-02,1.490602791309356689e-01,-1.930255559273064137e-03,2.950694411993026733e-02,-1.312588453292846680e-01,-1.988085806369781494e-01,2.685826085507869720e-02,1.672672480344772339e-01,-2.550818920135498047e-01,7.353381067514419556e-02,1.038943082094192505e-01,6.641039252281188965e-02,2.697999775409698486e-01,-2.917966432869434357e-02,-3.421391919255256653e-02,3.971999883651733398e-02,1.091948747634887695e-01,-2.025333233177661896e-03,-7.069352269172668457e-02,-1.402371674776077271e-01,8.542452938854694366e-03,-4.064207524061203003e-02,-5.080504715442657471e-02,1.204138621687889099e-01,-5.075405165553092957e-02,-1.545681357383728027e-01,7.701635360717773438e-02,-1.470653805881738663e-02,1.391064375638961792e-01,-2.465443685650825500e-02,3.938750363886356354e-03,-1.097756624221801758e-01,-1.166865881532430649e-02,5.635959655046463013e-02,8.577637374401092529e-02,-2.362511586397886276e-03,-1.070337742567062378e-02,-7.193166017532348633e-02,-3.069622442126274109e-02,5.315294116735458374e-02,-1.375539004802703857e-01,5.081501975655555725e-02,2.085057087242603302e-02,9.444931522011756897e-03,-8.751506358385086060e-02,-2.526491880416870117e-01,-1.218666583299636841e-01,-1.576499044895172119e-01,-1.448276937007904053e-01
1.279508136212825775e-02,-2.316537313163280487e-02,3.541740030050277710e-02,5.436536390334367752e-03,-6.363390386104583740e-02,-1.920064724981784821e-02,-1.578256115317344666e-02,1.742487996816635132e-01,-3.346349298954010010e-02,-5.729723256081342697e-03,3.849059715867042542e-02,-8.602832257747650146e-02,9.190162271261215210e-02,6.583806872367858887e-02,-4.982206597924232483e-02,1.139191538095474243e-02,4.689524322748184204e-02,-2.609738521277904510e-02,-2.820863127708435059e-01,-1.473335176706314087e-01,-8.899718523025512695e-02,4.754036292433738708e-02,1.233597025275230408e-01,1.463257074356079102e-01,1.155140548944473267e-01,-5.994812585413455963e-03,6.469027698040008545e-02,1.395816951990127563e-01,-1.593915373086929321e-01,4.178462177515029907e-02,-4.191543906927108765e-02,-2.477505244314670563e-02,-7.465419918298721313e-02,1.322625321336090565e-03,-1.110441759228706360e-01,-1.536892503499984741e-01,-1.171850226819515228e-02,-4.685998428612947464e-03,-4.617874696850776672e-02,9.586948156356811523e-02,-3.807301819324493408e-02,1.418104320764541626e-01,-4.819666221737861633e-02,6.427277624607086182e-02,6.806116551160812378e-03,1.946541946381330490e-03,3.328178822994232178e-01,-7.692260202020406723e-03,-3.852038979530334473e-01,6.201978307217359543e-03,-1.785275489091873169e-01,-2.004979103803634644e-01,9.066208451986312866e-02,-1.377157866954803467e-01,1.353464927524328232e-02,1.420173197984695435e-01,-2.216872274875640869e-01,1.671386137604713440e-02,-3.465174511075019836e-02,8.664106577634811401e-02,-2.599972300231456757e-02,8.616736531257629395e-02,-1.967801004648208618e-01,6.872722506523132324e-02,-1.742284446954727173e-01,-6.900355964899063110e-02,1.717761158943176270e-01,-6.844525784254074097e-02,-5.828389525413513184e-02,-1.102774590253829956e-01,4.659777134656906128e-02,-7.232029736042022705e-02,-1.419769227504730225e-01,1.007889658212661743e-01,1.851998567581176758e-01,-3.706131130456924438e-02,-2.576379664242267609e-02,-9.752406924962997437e-02,-1.497373078018426895e-02,5.996225401759147644e-03,2.325099892914295197e-03,-1.222874596714973450e-01,1.190821528434753418e-01,1.357332020998001099e-01,2.579631209373474121e-01,-1.875233948230743408e-01,7.508233189582824707e-02,-2.075182348489761353e-01,2.716010063886642456e-02,1.659755110740661621e-01,-1.330465078353881836e-01,-6.380964815616607666e-02,-1.720947399735450745e-02,1.374193131923675537e-01,1.880776323378086090e-02,1.431356966495513916e-01,-8.994067902676761150e-04,1.715511232614517212e-01,-2.088132202625274658e-01,1.872016042470932007e-01,8.978717774152755737e-02,-2.449796348810195923e-02,-9.197413921356201172e-02,9.100979566574096680e-02,-7.226256281137466431e-02,1.482945978641510010e-01,3.638111054897308350e-02,-3.638066351413726807e-02,1.222706213593482971e-01,-9.396513551473617554e-02,-2.048152089118957520e-01,1.011069715023040771e-01,-2.018760442733764648e-01,-6.307888031005859375e-02,5.252229049801826477e-02,7.784688472747802734e-02,-5.803823843598365784e-02,-8.412653952836990356e-02,-7.244995981454849243e-02,-1.571298688650131226e-01,-1.242285966873168945e-01,-1.131681576371192932e-01,1.178051065653562546e-02,-7.113039493560791016e-02,1.449742317199707031e-01,-1.642356365919113159e-01,-3.906040638685226440e-02,1.062142550945281982e-01
1.901307329535484314e-02,1.448932737112045288e-01,-7.999373599886894226e-03,-8.057972788810729980e-02,-7.855111360549926758e-02,5.463151028379797935e-04,1.235906593501567841e-02,3.556647524237632751e-02,9.770453907549381256e-03,9.556114673614501953e-03,-1.200696751475334167e-01,-1.660811156034469604e-02,2.549065742641687393e-03,-3.399970382452011108e-02,-2.523014843463897705e-01,-1.547478586435317993e-01,-2.549121975898742676e-01,2.037744522094726562e-01,-1.603122502565383911e-01,1.254531294107437134e-01,-1.159227713942527771e-01,-1.083933189511299133e-01,-2.066193968057632446e-01,3.345627710223197937e-02,-4.535755142569541931e-02,7.327931374311447144e-02,2.056298963725566864e-02,8.155770599842071533e-02,1.827870458364486694e-01,7.456714659929275513e-02,2.234105318784713745e-01,3.639138489961624146e-02,7.919967174530029297e-02,1.805634796619415283e-01,-2.819975614547729492e-01,3.891493380069732666e-02,2.463397942483425140e-02,4.899287596344947815e-03,3.098231852054595947e-01,5.596793442964553833e-02,-1.938119344413280487e-02,2.309504151344299316e-02,5.120169371366500854e-02,4.955238848924636841e-02,5.682733608409762383e-04,1.089015007019042969e-01,-4.702166467905044556e-02,-1.958407610654830933e-01,-2.758499979972839355e-02,-3.034809837117791176e-03,9.662486612796783447e-02,1.619376800954341888e-02,-7.751908898353576660e-02,-3.703001886606216431e-02,-1.340858638286590576e-01,8.098411560058593750e-02,1.373333036899566650e-01,1.474196612834930420e-01,9.573642164468765259e-02,9.329969994723796844e-03,1.259807050228118896e-01,4.978213086724281311e-02,-1.757737696170806885e-01,-1.328524649143218994e-01,-3.729871287941932678e-02,4.282524436712265015e-02,7.956013083457946777e-02,-1.958163678646087646e-01,-3.875528648495674133e-02,1.399156004190444946e-01,1.726470291614532471e-01,-8.574547618627548218e-02,1.063074544072151184e-02,3.746273368597030640e-02,-1.433492600917816162e-01,-1.994984894990921021e-01,3.054762780666351318e-01,4.227216169238090515e-02,5.033467710018157959e-02,-1.506921090185642242e-02,-1.642690598964691162e-01,-1.188853234052658081e-01,1.138754282146692276e-02,-5.515235289931297302e-02,-3.600070998072624207e-02,-5.882904306054115295e-02,-1.128817647695541382e-01,-1.115091592073440552e-01,9.978368133306503296e-02,-9.743814170360565186e-02,-1.038306280970573425e-01,7.213181257247924805e-02,1.723500639200210571e-01,-1.485866010189056396e-01,-3.310857415199279785e-01,2.777477167546749115e-02,1.372309178113937378e-01,5.068546906113624573e-02,-1.786675304174423218e-01,1.440513879060745239e-01,9.406001865863800049e-02,2.100516855716705322e-01,-3.011650443077087402e-01,6.133366841822862625e-03,7.981662452220916748e-02,7.267583161592483521e-02,-4.777628555893898010e-02,9.631573408842086792e-02,2.407146394252777100e-01,6.248520687222480774e-02,1.490563899278640747e-01,5.348585918545722961e-02,-1.516890078783035278e-01,-5.131662264466285706e-02,2.082795463502407074e-02,-1.533609349280595779e-02,9.630395099520683289e-03,-3.190827742218971252e-02,5.891519039869308472e-02,4.427874833345413208e-02,1.678408682346343994e-01,1.657658442854881287e-02,2.522669732570648193e-01,9.284950047731399536e-02,2.275915592908859253e-01,2.020963728427886963e-01,7.600434869527816772e-02,-1.676041819155216217e-02
-4.244428500533103943e-02,-4.792092740535736084e-02,-4.920262843370437622e-02,1.226494163274765015e-01,-1.075573079288005829e-02,-5.415194481611251831e-02,-3.863741829991340637e-02,1.968085300177335739e-03,-1.335411518812179565e-02,-1.914709428092464805e-04,4.642233252525329590e-02,1.712451316416263580e-02,-6.247452273964881897e-02,6.983418017625808716e-02,-1.622266471385955811e-01,-8.295335620641708374e-02,1.144099142402410507e-02,2.376315742731094360e-02,-5.922763794660568237e-02,1.116154864430427551e-01,-2.243244275450706482e-02,9.699881076812744141e-03,-4.764804989099502563e-02,-5.220398306846618652e-02,5.487047880887985229e-02,6.570283323526382446e-02,-4.450138285756111145e-02,-4.811678826808929443e-02,-1.786395721137523651e-02,3.032905980944633484e-02,-1.149824447929859161e-02,8.692512661218643188e-02,1.123225986957550049e-01,-1.470833178609609604e-02,8.814772963523864746e-02,-2.155850874260067940e-03,1.328509580343961716e-02,-2.726338244974613190e-02,7.041268981993198395e-03,1.087695583701133728e-01,-4.730652272701263428e-02,1.639131642878055573e-02,1.802712492644786835e-02,-1.238091010600328445e-02,-1.182961910963058472e-01,-8.963001519441604614e-02,-4.082968086004257202e-02,3.068737499415874481e-02,-2.100173756480216980e-02,-5.250019580125808716e-02,-6.234347447752952576e-02,-3.935506567358970642e-02,1.501054465770721436e-01,4.110481217503547668e-02,-9.998816251754760742e-02,3.447467461228370667e-02,-7.317328453063964844e-02,3.859062865376472473e-02,9.057486802339553833e-02,-3.795746341347694397e-02,-8.370216190814971924e-02,4.984545335173606873e-02,5.683432519435882568e-02,-1.416756771504878998e-02,9.361720830202102661e-02,1.376991625875234604e-02,2.726608701050281525e-02,1.849810406565666199e-02,-2.975261770188808441e-02,-3.226853534579277039e-02,1.175749152898788452e-01,-6.591749191284179688e-02,5.575362592935562134e-02,-1.891995668411254883e-01,1.339141577482223511e-01,4.989716783165931702e-02,1.009066589176654816e-02,6.255149375647306442e-03,4.071623831987380981e-02,8.507332205772399902e-02,-4.683695361018180847e-02,2.472947910428047180e-02,8.856590837240219116e-02,-5.066313967108726501e-02,-8.019410818815231323e-02,-1.680172048509120941e-02,-9.239336475729942322e-03,-4.456510022282600403e-02,-2.019417006522417068e-03,-7.182379812002182007e-02,-8.561588823795318604e-02,-1.136250607669353485e-02,2.510981820523738861e-02,-5.066089332103729248e-02,-1.219021901488304138e-01,1.993574947118759155e-02,5.528799444437026978e-02,-5.615308508276939392e-02,-2.806104533374309540e-02,-4.521056264638900757e-02,5.508976755663752556e-04,-8.536542952060699463e-02,-1.147966086864471436e-01,5.057211033999919891e-03,-1.620863676071166992e-01,-1.233529001474380493e-01,-8.798164129257202148e-02,1.016458347439765930e-01,-1.654586568474769592e-02,-8.975224941968917847e-02,1.050802022218704224e-01,-3.035576641559600830e-02,-8.101304620504379272e-02,-6.822840869426727295e-02,7.305183261632919312e-02,-6.243729218840599060e-02,4.168670997023582458e-02,1.260803788900375366e-01,-2.453093044459819794e-02,6.235060095787048340e-02,-9.148980677127838135e-02,-9.749338775873184204e-02,-3.332839906215667725e-02,-1.239717677235603333e-01,8.540941029787063599e-02,9.388013184070587158e-02,7.790122926235198975e-02,-4.288007505238056183e-03
-9.740592539310455322e-02,-2.315477281808853149e-02,9.673115797340869904e-03,-8.125032484531402588e-02,-1.133831515908241272e-01,1.180751472711563110e-01,8.668938279151916504e-02,-1.523303687572479248e-01,8.211321383714675903e-02,-7.601175457239151001e-02,1.937482655048370361e-01,-1.018905565142631531e-01,6.737799197435379028e-02,-1.197830811142921448e-01,-4.509209468960762024e-02,1.219526119530200958e-02,-1.834055781364440918e-02,-8.368526399135589600e-02,1.342041976749897003e-02,4.292264208197593689e-02,2.202368341386318207e-03,4.748912155628204346e-02,-7.068980485200881958e-02,-1.689418032765388489e-02,1.527018249034881592e-01,1.930125802755355835e-02,-6.729896366596221924e-02,7.374528050422668457e-02,-8.230651170015335083e-02,1.042075362056493759e-02,-4.646215215325355530e-02,2.266094088554382324e-02,-9.379383176565170288e-02,5.826763808727264404e-02,-1.291684806346893311e-02,7.005154341459274292e-02,-5.266912281513214111e-02,4.059387743473052979e-02,-4.077881202101707458e-02,4.543900117278099060e-02,3.670180588960647583e-02,-2.522170171141624451e-02,-2.138781175017356873e-02,-1.172930002212524414e-01,1.024867035448551178e-02,2.560476772487163544e-02,-9.471619129180908203e-02,1.125144511461257935e-01,-1.134535148739814758e-01,1.217891797423362732e-01,9.567805379629135132e-02,-4.247364774346351624e-02,-9.582779370248317719e-03,-2.161694504320621490e-02,-4.100050032138824463e-02,-6.706619751639664173e-04,5.946900695562362671e-02,2.435888908803462982e-02,8.320949273183941841e-04,-1.736645027995109558e-02,-3.546126186847686768e-02,-7.881963998079299927e-02,7.524991035461425781e-02,7.487962394952774048e-02,-1.526449061930179596e-02,-1.196644529700279236e-01,-3.881205990910530090e-02,1.282794028520584106e-01,-1.310605555772781372e-01,-1.168318465352058411e-01,1.036423742771148682e-01,2.986125461757183075e-02,8.669213950634002686e-02,1.185602694749832153e-02,-8.355942554771900177e-03,-1.809947378933429718e-02,6.647935509681701660e-02,5.159690976142883301e-02,4.798759520053863525e-02,4.342438280582427979e-02,1.051824726164340973e-02,3.741791099309921265e-02,-3.144478425383567810e-02,-6.989662535488605499e-03,6.734542082995176315e-03,2.313983254134654999e-02,-2.132339030504226685e-02,2.460247091948986053e-02,4.180879518389701843e-02,2.643621992319822311e-03,5.747458711266517639e-02,4.445734247565269470e-02,5.607162043452262878e-02,-2.059753984212875366e-02,1.238988786935806274e-01,6.875495612621307373e-02,9.522314369678497314e-02,3.080021217465400696e-02,7.133338600397109985e-02,9.675631672143936157e-02,-3.484856337308883667e-02,2.580362372100353241e-02,1.130462437868118286e-01,-6.714133173227310181e-02,-2.696378342807292938e-02,1.141895353794097900e-02,9.834390133619308472e-02,-8.524187654256820679e-02,-5.968564748764038086e-02,-5.857151467353105545e-03,2.164978906512260437e-02,-1.149276345968246460e-01,1.279212534427642822e-01,-2.121045142412185669e-01,-2.230381593108177185e-02,-1.002076417207717896e-01,-9.026911854743957520e-02,3.911965712904930115e-02,3.799196332693099976e-02,-1.607294194400310516e-02,7.628883700817823410e-03,2.335158884525299072e-01,1.564396172761917114e-01,-8.489850908517837524e-03,3.583144024014472961e-02,1.560643315315246582e-01,1.043848693370819092e-01,5.663188919425010681e-02
-7.052025198936462402e-02,-2.151609957218170166e-01,-3.055732138454914093e-02,9.009003639221191406e-02,-4.495440050959587097e-02,-8.559965528547763824e-03,8.741565048694610596e-03,-5.318374559283256531e-02,-2.795316046103835106e-03,3.040139973163604736e-01,-9.122344106435775757e-02,4.468130692839622498e-02,-5.300502851605415344e-02,-1.830748282372951508e-03,4.276574775576591492e-02,-1.119335666298866272e-01,-5.005403608083724976e-02,6.508390605449676514e-02,-4.781786818057298660e-03,6.346418708562850952e-02,4.647191613912582397e-03,8.831931650638580322e-02,1.913748867809772491e-02,-2.177116274833679199e-02,-9.254872798919677734e-02,-3.935217484831809998e-02,-8.223801851272583008e-02,-3.062064573168754578e-02,-6.983552873134613037e-02,1.369139403104782104e-01,-3.602910041809082031e-02,4.573109745979309082e-02,-3.976185247302055359e-02,4.126214608550071716e-02,1.263027731329202652e-02,7.577917724847793579e-02,1.556283086538314819e-01,-1.587723493576049805e-01,1.413688063621520996e-01,4.320751875638961792e-02,-1.688789576292037964e-02,-5.786036700010299683e-02,-3.261161446571350098e-01,-1.170764267444610596e-01,1.546010226011276245e-01,5.363090336322784424e-02,2.545656450092792511e-02,8.287079981528222561e-04,-1.635516583919525146e-01,8.564401068724691868e-04,-3.668117150664329529e-02,1.686732470989227295e-01,1.920279115438461304e-01,1.785907149314880371e-02,2.772068977355957031e-01,-8.994328975677490234e-02,-1.649552285671234131e-01,1.667523533105850220e-01,-2.447692304849624634e-02,-1.687769889831542969e-01,1.825625449419021606e-02,-2.385993720963597298e-03,-8.814609795808792114e-02,-7.128065079450607300e-02,6.142172589898109436e-02,-4.268062859773635864e-02,2.036155313253402710e-01,2.384685724973678589e-01,-6.274248007684946060e-03,-8.835770189762115479e-02,5.451062321662902832e-02,5.463294684886932373e-02,1.861334145069122314e-01,-6.933132559061050415e-02,8.442028611898422241e-02,3.189200535416603088e-02,-5.263175442814826965e-02,1.981554087251424789e-03,6.963519006967544556e-02,-1.291304677724838257e-01,5.025294423103332520e-02,-1.071973121725022793e-03,3.953212872147560120e-02,-8.834325522184371948e-02,9.545652568340301514e-02,9.461317211389541626e-02,1.489107310771942139e-01,2.792688645422458649e-02,-3.594679385423660278e-02,7.916638255119323730e-02,-1.610207408666610718e-01,1.276497840881347656e-01,-1.206930074840784073e-02,8.690503425896167755e-03,1.014607623219490051e-01,9.787486493587493896e-02,-7.308499515056610107e-02,-1.357155442237854004e-01,-1.633366495370864868e-01,-5.323130637407302856e-02,-1.710529029369354248e-01,8.681192062795162201e-03,7.017329335212707520e-02,1.147865504026412964e-01,-1.545054186135530472e-02,2.109477519989013672e-01,2.244229763746261597e-01,-1.918471753597259521e-01,1.760659515857696533e-01,1.235827654600143433e-01,-1.716298051178455353e-02,-5.177269689738750458e-03,1.215042695403099060e-01,-1.126932576298713684e-01,-2.355401776731014252e-02,-4.123461246490478516e-02,7.516346871852874756e-02,1.766723096370697021e-01,-7.383957505226135254e-02,-1.767591685056686401e-01,-6.227404251694679260e-02,-1.763757914304733276e-01,1.217073723673820496e-01,7.495851069688796997e-02,-6.420802325010299683e-03,2.005711197853088379e-02,-2.918451791629195213e-03,1.279032975435256958e-01
-1.131312176585197449e-02,5.026680976152420044e-02,3.137481212615966797e-02,-9.913697838783264160e-02,-5.926712602376937866e-02,-9.743794053792953491e-02,2.922328934073448181e-02,-1.007566079497337341e-01,-1.537602990865707397e-01,7.357358466833829880e-03,6.085313484072685242e-02,-8.252935856580734253e-02,1.004643663763999939e-01,1.804547607898712158e-01,-1.332457810640335083e-01,9.952257573604583740e-02,-8.965225517749786377e-02,6.085030734539031982e-02,1.218324229121208191e-01,-1.436919122934341431e-01,-1.576779410243034363e-02,-1.509808599948883057e-01,-6.972531229257583618e-02,1.696658134460449219e-01,-1.741458661854267120e-02,-2.678646892309188843e-02,1.491446793079376221e-01,9.043340571224689484e-03,-5.349917709827423096e-02,-4.690599441528320312e-02,2.046895027160644531e-02,-1.047354564070701599e-01,-2.389953136444091797e-01,1.378500610589981079e-01,-5.972716584801673889e-02,7.678988575935363770e-02,4.135233908891677856e-02,1.153235882520675659e-01,1.050505563616752625e-01,9.239429980516433716e-02,-1.646975427865982056e-01,5.849103257060050964e-02,-1.776129901409149170e-01,2.377969771623611450e-01,-2.069531567394733429e-02,-2.122923284769058228e-01,1.950879395008087158e-01,-3.863226249814033508e-02,-3.417883813381195068e-02,-1.469499766826629639e-01,9.294635802507400513e-02,-1.332394480705261230e-01,-4.955996945500373840e-02,5.938071012496948242e-02,1.448638271540403366e-02,-5.252866819500923157e-02,-2.095556855201721191e-01,3.112024627625942230e-02,6.737601757049560547e-02,-1.384041178971529007e-02,2.264020591974258423e-01,-2.149815559387207031e-01,-1.178781166672706604e-01,7.788600772619247437e-02,-1.046175509691238403e-02,2.052684128284454346e-01,-1.781982779502868652e-01,-1.635245829820632935e-01,8.552117645740509033e-02,-4.195505753159523010e-02,1.232177019119262695e-01,-6.085393950343132019e-02,-8.054871857166290283e-02,3.463914617896080017e-02,9.439043700695037842e-02,5.576409399509429932e-03,-1.195254400372505188e-01,2.852241098880767822e-01,-1.160780433565378189e-03,3.194104135036468506e-02,1.767615973949432373e-01,1.320885866880416870e-01,-1.424425989389419556e-01,-1.064273640513420105e-01,7.130102720111608505e-03,-2.261598780751228333e-02,4.887764528393745422e-02,1.023372039198875427e-01,-3.443088382482528687e-02,-1.415532976388931274e-01,-1.559315621852874756e-02,-2.059098333120346069e-01,7.034658640623092651e-02,-6.205149367451667786e-02,8.646511286497116089e-02,4.409959539771080017e-02,-1.193219721317291260e-01,6.033154204487800598e-02,1.477345228195190430e-01,-1.135866716504096985e-01,-4.478760808706283569e-02,-2.326034381985664368e-02,-8.538430184125900269e-02,1.194442957639694214e-01,-1.096508428454399109e-01,-4.479122534394264221e-02,6.100679188966751099e-02,1.004107668995857239e-01,6.188600137829780579e-02,-1.827086880803108215e-02,-4.604940861463546753e-02,-2.042742967605590820e-01,9.190857410430908203e-02,1.468106210231781006e-01,4.977715015411376953e-02,-5.148102343082427979e-02,-4.810819774866104126e-02,-4.970710258930921555e-03,-9.313597343862056732e-03,-5.692032724618911743e-02,2.376769483089447021e-01,3.081000596284866333e-02,8.269930630922317505e-02,6.476145982742309570e-02,-1.290915720164775848e-02,3.989553451538085938e-02,5.775250960141420364e-03,-7.392398267984390259e-02
3.668196126818656921e-02,5.910067260265350342e-02,7.738728076219558716e-02,-2.852875739336013794e-02,-3.013524785637855530e-02,-2.006446570158004761e-02,-4.039894789457321167e-02,4.164628311991691589e-02,1.693177968263626099e-01,5.741837620735168457e-02,-9.814351797103881836e-04,3.876192495226860046e-02,2.647766284644603729e-02,7.587175816297531128e-02,2.535766065120697021e-01,1.402516812086105347e-01,-1.450558155775070190e-01,2.746977843344211578e-02,8.124491572380065918e-02,-1.328112930059432983e-01,-7.221295684576034546e-02,-3.465171158313751221e-02,-1.733040809631347656e-01,1.812746226787567139e-01,-5.059104040265083313e-02,2.644922956824302673e-02,-2.261013910174369812e-02,-1.281184703111648560e-01,4.409685358405113220e-02,-6.736304610967636108e-02,1.029261574149131775e-01,-3.855501115322113037e-02,-8.554576337337493896e-02,-3.614458441734313965e-02,5.016172304749488831e-02,-1.394573748111724854e-01,-1.105839107185602188e-02,-6.600151211023330688e-02,6.761532276868820190e-02,1.166895180940628052e-01,-2.054402977228164673e-01,-2.113114297389984131e-01,-4.810609668493270874e-02,1.229435056447982788e-01,1.000815555453300476e-01,-2.799242362380027771e-02,-3.076829388737678528e-02,-3.956667706370353699e-02,-6.069592013955116272e-02,2.645270340144634247e-02,1.590102328918874264e-03,1.713211089372634888e-02,1.546342372894287109e-01,-6.289605051279067993e-02,5.501772835850715637e-02,-1.088482439517974854e-01,-2.310663089156150818e-02,2.055476233363151550e-02,4.544338583946228027e-02,1.400985568761825562e-01,6.810489296913146973e-02,2.489833533763885498e-02,-2.386691747233271599e-03,1.553144901990890503e-01,1.253642141819000244e-01,-1.731993444263935089e-02,1.244100704789161682e-01,9.758268482983112335e-03,1.947317570447921753e-01,-7.390689849853515625e-02,-1.938184648752212524e-01,-4.075492266565561295e-03,-1.152912601828575134e-01,5.166501179337501526e-02,-1.173342466354370117e-01,-3.792703524231910706e-02,8.588740974664688110e-02,-7.483579218387603760e-02,-1.194797158241271973e-01,2.790180221199989319e-02,-4.016638267785310745e-03,2.076023072004318237e-02,1.803421042859554291e-02,-2.929773181676864624e-02,1.280732899904251099e-01,-4.823273792862892151e-02,-1.130370050668716431e-01,-2.400303073227405548e-02,1.339624822139739990e-02,-7.741059362888336182e-02,4.825108125805854797e-02,6.480317562818527222e-02,3.475712239742279053e-02,-1.247316133230924606e-02,3.715851530432701111e-02,4.234961420297622681e-02,5.573835689574480057e-03,-1.482352316379547119e-01,8.087586611509323120e-03,-1.205577794462442398e-02,-4.662619903683662415e-02,2.618673071265220642e-02,-3.861281275749206543e-02,-4.199532559141516685e-04,-6.881845742464065552e-02,2.831817977130413055e-02,-2.089271098375320435e-01,1.015467662364244461e-02,-3.292930498719215393e-02,-8.628603816032409668e-02,-1.110858935862779617e-02,-5.998796597123146057e-02,-2.020461559295654297e-01,-1.603384912014007568e-01,5.230793729424476624e-02,7.098956406116485596e-02,-6.611113250255584717e-02,-5.183700844645500183e-02,-2.584577072411775589e-03,5.498197674751281738e-02,4.800397437065839767e-03,1.103506051003932953e-02,1.258292794227600098e-01,6.682278960943222046e-02,-8.512447774410247803e-02,-1.056938022375106812e-01,-1.161705926060676575e-01,9.584826231002807617e-02
-3.322722390294075012e-03,-5.903949961066246033e-02,8.578729815781116486e-03,-8.522579073905944824e-02,9.812703728675842285e-02,-1.347078830003738403e-01,1.649281978607177734e-01,1.590445078909397125e-02,3.979142755270004272e-02,7.611656188964843750e-02,-9.403602033853530884e-02,6.974102556705474854e-02,9.649652242660522461e-02,1.090893894433975220e-01,7.692412286996841431e-02,5.446831136941909790e-02,-7.203573733568191528e-02,-1.040021702647209167e-01,-5.768150463700294495e-02,-4.876519739627838135e-02,-9.849980473518371582e-02,9.177668951451778412e-03,1.952032186090946198e-02,-2.038940601050853729e-02,2.637611031532287598e-01,-7.124061882495880127e-02,5.313846841454505920e-02,3.615401312708854675e-02,7.659425586462020874e-02,9.496743790805339813e-03,-2.295303530991077423e-02,1.284766197204589844e-01,2.424892038106918335e-02,7.160875946283340454e-02,1.132485419511795044e-01,5.076024681329727173e-02,-1.669934540987014771e-01,1.456652767956256866e-02,5.350120738148689270e-02,-1.166121587157249451e-01,-5.473721772432327271e-02,-1.274840682744979858e-01,1.524911969900131226e-01,8.170677348971366882e-03,1.155239939689636230e-01,-6.068532355129718781e-03,-1.946744620800018311e-01,-6.180548667907714844e-02,8.217611908912658691e-02,2.715222239494323730e-01,1.241539493203163147e-01,1.156188100576400757e-01,2.681081183254718781e-02,8.213388919830322266e-02,1.086087152361869812e-01,6.873773783445358276e-02,-2.834121510386466980e-02,2.007181048393249512e-01,-5.231218412518501282e-03,-4.760816693305969238e-02,-1.674416358582675457e-03,1.711018383502960205e-02,-1.951727829873561859e-02,-7.155452668666839600e-02,3.995069488883018494e-02,-4.452381283044815063e-02,3.212681412696838379e-02,-2.113661020994186401e-01,-7.864187355153262615e-04,1.283978074789047241e-01,-1.430057138204574585e-01,-1.551234126091003418e-01,-4.628678038716316223e-02,8.869793266057968140e-02,9.510920196771621704e-02,7.303873449563980103e-02,-3.846122324466705322e-02,7.127708196640014648e-02,-8.004660159349441528e-02,-5.566008761525154114e-02,1.750413477420806885e-01,-5.632468685507774353e-02,1.788758188486099243e-01,-4.975525662302970886e-02,-3.580612363293766975e-03,-3.581854701042175293e-02,-3.402872011065483093e-02,-2.902181586250662804e-03,-4.826944496016949415e-04,1.120612099766731262e-01,-1.112596467137336731e-01,-1.906823553144931793e-02,3.912452608346939087e-02,2.657521367073059082e-01,1.227748245000839233e-01,-8.358043432235717773e-02,7.504799868911504745e-03,-1.074495390057563782e-01,1.206941455602645874e-01,1.541833281517028809e-01,-1.620615869760513306e-01,-3.773358091711997986e-02,-9.768613427877426147e-02,3.262104094028472900e-02,1.989840064197778702e-03,-1.606724709272384644e-01,9.543697535991668701e-02,5.151109397411346436e-02,1.142706349492073059e-01,6.235910207033157349e-02,-1.278918385505676270e-01,1.305387238971889019e-03,2.204505912959575653e-02,2.303996495902538300e-02,-1.355893462896347046e-01,2.429836988449096680e-02,-5.314145982265472412e-02,4.670954868197441101e-02,-9.321889281272888184e-02,6.558590382337570190e-02,4.508563131093978882e-02,6.066217087209224701e-03,-1.096274778246879578e-01,-4.783225432038307190e-02,4.403466358780860901e-02,-7.236189395189285278e-02,-8.526963740587234497e-02,9.113678336143493652e-02
-6.220520660281181335e-02,5.781706422567367554e-02,7.728032022714614868e-02,1.515839695930480957e-01,-1.818115413188934326e-01,7.058189809322357178e-02,1.641033776104450226e-02,2.264157310128211975e-02,-1.578627377748489380e-01,3.640826046466827393e-01,3.068850748240947723e-02,2.058158963918685913e-01,7.130766659975051880e-02,-1.054121106863021851e-01,-1.354522816836833954e-02,-2.021710574626922607e-02,1.842882633209228516e-01,-1.427584737539291382e-01,5.984202772378921509e-02,-4.205146059393882751e-02,-6.471818685531616211e-02,1.166996583342552185e-01,-7.398673146963119507e-02,9.675130248069763184e-02,-1.128789335489273071e-01,4.712747409939765930e-02,-4.480347968637943268e-03,-9.728671051561832428e-03,-2.396168410778045654e-01,-1.923447996377944946e-01,1.186061128973960876e-01,-6.929934769868850708e-02,1.330421715974807739e-01,1.855672448873519897e-01,5.025628581643104553e-02,3.780106455087661743e-02,-1.095575164072215557e-03,-1.346396654844284058e-01,1.795802861452102661e-01,-1.533177047967910767e-01,1.838285177946090698e-01,-1.271680444478988647e-01,-4.616550728678703308e-02,-9.902168810367584229e-02,7.160883396863937378e-02,9.130814671516418457e-02,-2.571865171194076538e-02,-1.499575674533843994e-01,6.466300785541534424e-02,-1.229639202356338501e-01,-1.451776642352342606e-02,-1.789560467004776001e-01,-5.932636093348264694e-03,-1.594314277172088623e-01,5.299774184823036194e-02,-2.170542255043983459e-02,1.132383272051811218e-01,1.068124771118164062e-01,-1.909518241882324219e-02,-8.256261236965656281e-03,3.955317195504903793e-03,1.593277305364608765e-01,2.197536826133728027e-02,8.655282109975814819e-02,3.033456951379776001e-02,-8.212576061487197876e-02,5.717017501592636108e-02,-2.192059010267257690e-01,4.550917074084281921e-02,-1.247104853391647339e-01,-4.364829137921333313e-02,-1.550869047641754150e-01,-8.783677965402603149e-02,4.517172649502754211e-02,2.944051846861839294e-02,-1.339025143533945084e-02,-5.442128051072359085e-03,-4.758742451667785645e-02,1.695470958948135376e-01,-5.655983462929725647e-02,-3.549522534012794495e-02,-9.527581930160522461e-02,1.321726739406585693e-01,5.736564472317695618e-02,3.135010600090026855e-02,1.853748410940170288e-02,1.186207756400108337e-01,3.579468652606010437e-02,6.657397747039794922e-02,-7.351664453744888306e-02,9.025720506906509399e-02,1.129824072122573853e-01,3.314464911818504333e-02,7.115074992179870605e-02,1.879114359617233276e-01,-1.048461347818374634e-01,-4.096950963139533997e-02,-1.101663708686828613e-02,-4.502626601606607437e-03,1.572996675968170166e-01,-2.029563114047050476e-02,-1.684373468160629272e-01,5.439304560422897339e-02,-1.229939386248588562e-01,-5.539823696017265320e-02,-4.988094791769981384e-02,1.978453099727630615e-01,2.904307283461093903e-02,5.348463356494903564e-02,-4.216605052351951599e-02,-1.542655676603317261e-01,1.135800555348396301e-01,7.780013233423233032e-02,2.317219972610473633e-01,9.948178194463253021e-03,8.459690213203430176e-02,-1.447180956602096558e-01,9.122745692729949951e-02,-1.114347204566001892e-01,-8.973115682601928711e-02,-1.332620531320571899e-01,6.001793965697288513e-02,3.408209886401891708e-03,-1.896298974752426147e-01,-4.009513929486274719e-02,-4.394939541816711426e-02,5.332073196768760681e-02,5.207826942205429077e-02
