-1.797159761190414429e-02,8.027230389416217804e-03,3.278488665819168091e-02,2.466131001710891724e-02,-1.038153655827045441e-02,5.909600108861923218e-02,4.548686370253562927e-02,-7.997156679630279541e-02,-7.865314930677413940e-02,1.141307642683386803e-03,9.788997471332550049e-02,-6.162496656179428101e-02,-2.894423156976699829e-02,-2.348544634878635406e-02,-6.724926829338073730e-02,2.464601956307888031e-02,5.763483047485351562e-02,6.356648355722427368e-02,-7.858107984066009521e-02,-7.252423465251922607e-02,-6.007714942097663879e-02,-1.375405397266149521e-02,-3.982188180088996887e-02,9.143770486116409302e-02,1.513636764138936996e-02,5.648757889866828918e-02,-2.018663659691810608e-02,-2.580050379037857056e-02,1.021966710686683655e-02,2.589197596535086632e-03,1.289339661598205566e-01,5.992421507835388184e-02,-3.610763326287269592e-02,3.888083249330520630e-02,1.422006729990243912e-02,-1.721003204584121704e-01,4.512672126293182373e-02,1.114477515220642090e-01,-2.053457126021385193e-02,4.781141877174377441e-03,5.155846476554870605e-02,5.388311576098203659e-03,1.004288643598556519e-01,1.130324527621269226e-01,5.202300846576690674e-02,-1.108114942908287048e-01,3.620113804936408997e-02,-4.273712635040283203e-02,3.820721060037612915e-02,6.486078351736068726e-02,4.409559536725282669e-03,-7.405422627925872803e-03,-6.517123430967330933e-02,6.102807447314262390e-02,3.269655629992485046e-02,-4.021370410919189453e-02,-1.085070222616195679e-01,1.131992936134338379e-01,-7.689556479454040527e-02,-3.259919583797454834e-02,7.605637423694133759e-03,-9.307388961315155029e-02,1.195162907242774963e-01,-1.930421218276023865e-02,-1.234730854630470276e-01,7.711149752140045166e-02,4.708929359912872314e-02,9.448698721826076508e-03,-2.849850431084632874e-02,3.971497341990470886e-02,5.170032382011413574e-02,2.671291120350360870e-02,9.107533842325210571e-02,-1.228851377964019775e-01,5.372506752610206604e-02,2.803490497171878815e-03,-8.762187324464321136e-03,-3.658043965697288513e-02,-1.306660026311874390e-01,1.969239860773086548e-02,-7.246183604001998901e-02,5.990794301033020020e-02,-3.263238817453384399e-02,5.206315591931343079e-02,1.210865154862403870e-01,7.804255932569503784e-02,2.758056158199906349e-03,1.700382232666015625e-01,-1.007549837231636047e-01,-8.521526306867599487e-02,-3.837710991501808167e-02,-9.985607117414474487e-02,3.075837157666683197e-02,-1.066035870462656021e-02,8.004231005907058716e-02,1.495586615055799484e-02,1.748182810842990875e-02,-4.451826587319374084e-02,4.966811463236808777e-02,-6.268659979104995728e-02,1.471966854296624660e-03,-7.884231209754943848e-02,1.076130792498588562e-01,-1.164820604026317596e-02,-9.816278517246246338e-02,-6.667448580265045166e-02,1.351420208811759949e-02,2.664608135819435120e-02,4.061888903379440308e-02,1.848079822957515717e-02,4.245005920529365540e-02,-5.626653879880905151e-02,4.944864287972450256e-02,7.046218216419219971e-02,-5.216203629970550537e-02,-5.301944911479949951e-02,-1.340573839843273163e-02,-1.936184987425804138e-02,-2.288236049935221672e-03,-1.373688224703073502e-02,-6.244317628443241119e-03,-1.686095148324966431e-01,5.366208031773567200e-03,-9.409656748175621033e-03,8.464077860116958618e-02,-8.242008090019226074e-02,1.383620593696832657e-02,5.206994339823722839e-02
-2.590366825461387634e-02,-6.891336292028427124e-02,-1.308817416429519653e-02,6.040921062231063843e-02,-4.889729619026184082e-02,-2.577710198238492012e-03,1.306083500385284424e-01,2.345554530620574951e-02,-2.519344165921211243e-02,-4.570231586694717407e-02,7.516185753047466278e-03,-6.757871061563491821e-02,1.451371908187866211e-01,4.745524749159812927e-02,3.313286975026130676e-02,9.379379451274871826e-02,-2.709667570888996124e-02,-3.081112541258335114e-02,-3.993109241127967834e-02,-5.175272375345230103e-02,5.115074664354324341e-02,5.391909554600715637e-02,5.126688629388809204e-02,-1.796530187129974365e-01,-1.751935333013534546e-01,8.574119210243225098e-02,6.567790359258651733e-02,6.575854122638702393e-02,8.985528722405433655e-03,-7.548446953296661377e-02,2.368372827768325806e-01,1.013351157307624817e-01,4.978954792022705078e-02,8.309183642268180847e-03,-5.863502249121665955e-02,-4.595867544412612915e-02,8.675640076398849487e-02,5.272526293992996216e-02,7.985266298055648804e-02,-1.052453089505434036e-02,-2.312670350074768066e-01,6.203238293528556824e-02,-7.967161945998668671e-04,-3.001229465007781982e-02,7.408546656370162964e-02,-1.786450594663619995e-01,-6.957676261663436890e-02,-1.202297303825616837e-02,-3.875238448381423950e-02,4.665682092308998108e-02,7.177098840475082397e-02,6.642263382673263550e-02,-6.488528847694396973e-02,-2.587219141423702240e-02,3.598941117525100708e-02,8.726738393306732178e-03,2.090712785720825195e-01,-9.271247312426567078e-03,7.050764560699462891e-02,-1.137192919850349426e-01,-7.720874622464179993e-03,8.894996717572212219e-03,3.697263076901435852e-02,-3.495885059237480164e-02,-6.557032465934753418e-02,3.702655807137489319e-02,-1.081803292036056519e-01,6.188850477337837219e-02,2.822977863252162933e-02,-9.784796833992004395e-02,-1.938026398420333862e-02,-2.629322744905948639e-02,1.996432431042194366e-02,5.482781678438186646e-02,-1.621496975421905518e-01,3.096771053969860077e-02,1.233683526515960693e-02,8.853174000978469849e-02,7.723091542720794678e-02,-6.468500941991806030e-02,7.163112610578536987e-02,9.961069561541080475e-03,1.539950370788574219e-01,-1.029486432671546936e-01,-1.324857212603092194e-02,1.252215802669525146e-01,-6.377631425857543945e-02,-2.405684441328048706e-02,-5.281699448823928833e-02,-7.781580090522766113e-02,-5.410902202129364014e-02,2.884245663881301880e-02,-3.213730081915855408e-02,-8.181449025869369507e-02,6.694667786359786987e-02,8.397527784109115601e-02,1.351813133805990219e-02,1.570567116141319275e-02,6.225148215889930725e-02,-5.755798518657684326e-02,3.332693502306938171e-02,5.931083858013153076e-02,-5.858905985951423645e-02,-2.829395420849323273e-02,-3.932357579469680786e-02,-4.390989616513252258e-02,-4.160990566015243530e-02,6.576673127710819244e-03,6.672409828752279282e-03,2.247521281242370605e-02,-2.306299097836017609e-02,3.932108357548713684e-02,-1.393918991088867188e-01,-5.571568384766578674e-02,7.748831063508987427e-02,2.909455448389053345e-02,1.873832754790782928e-02,-1.045740470290184021e-01,-6.177909206598997116e-03,3.690959513187408447e-02,-1.611306071281433105e-01,-4.624235257506370544e-02,1.117730215191841125e-01,6.558123975992202759e-02,-6.387005001306533813e-02,1.052844375371932983e-01,-1.051091253757476807e-01,2.777883596718311310e-02
1.199323125183582306e-02,-5.046197772026062012e-02,7.191810756921768188e-02,1.712518483400344849e-01,-2.468608878552913666e-02,1.540814489126205444e-01,-1.939322985708713531e-02,2.170472592115402222e-02,-2.837833762168884277e-01,-6.308373808860778809e-02,2.017688564956188202e-02,-3.763988986611366272e-02,2.906412445008754730e-02,1.942137442529201508e-02,-8.005133271217346191e-02,-6.062966585159301758e-02,-6.505912542343139648e-02,7.664739154279232025e-03,-7.399243302643299103e-03,-1.802504360675811768e-01,5.931212380528450012e-02,1.242103800177574158e-01,3.148503229022026062e-02,-1.484644040465354919e-02,1.795056015253067017e-01,-6.857064366340637207e-02,-1.198689863085746765e-01,3.066835924983024597e-02,5.196949467062950134e-02,-2.080708891153335571e-01,1.126021426171064377e-02,-1.975394226610660553e-02,-1.792291738092899323e-02,6.122663617134094238e-02,-7.235842943191528320e-02,-1.120497956871986389e-01,-2.150234067812561989e-03,-2.532197535037994385e-01,-1.054170541465282440e-02,9.181984513998031616e-02,-1.046316698193550110e-01,-1.634688302874565125e-02,-1.011493988335132599e-02,6.019045040011405945e-02,-8.154347538948059082e-03,-6.080009043216705322e-02,2.240753360092639923e-02,6.464552134275436401e-02,-1.493955403566360474e-01,-2.975935861468315125e-02,-6.540530920028686523e-02,-3.030972182750701904e-02,1.270196307450532913e-02,1.031042188405990601e-01,-1.898125931620597839e-02,-1.688576042652130127e-01,-2.690709382295608521e-02,-1.346230879426002502e-02,2.751782536506652832e-02,8.950930833816528320e-02,-1.367607153952121735e-02,2.748605981469154358e-02,-1.731197722256183624e-02,2.295098267495632172e-02,1.081088855862617493e-01,-1.378666311502456665e-01,-5.260577797889709473e-02,-2.358494699001312256e-02,-4.819595441222190857e-02,-4.849562048912048340e-02,6.498743593692779541e-02,7.412493228912353516e-02,-5.414954945445060730e-02,-6.079073995351791382e-02,4.500407725572586060e-02,-4.867727309465408325e-02,-9.793318808078765869e-02,-3.128647804260253906e-03,-4.720175638794898987e-02,-3.395972028374671936e-02,2.714345417916774750e-02,-8.007746189832687378e-03,-1.002926100045442581e-02,6.872141361236572266e-02,8.599888533353805542e-02,-2.907793410122394562e-02,2.496424131095409393e-03,2.893555536866188049e-02,-3.218545764684677124e-02,-4.271692782640457153e-02,-2.221565321087837219e-02,1.184376403689384460e-01,-6.280728429555892944e-02,-1.982953585684299469e-02,-1.577083580195903778e-02,-1.138580441474914551e-01,-4.180111736059188843e-02,4.579399153590202332e-02,3.047428466379642487e-02,-2.516343072056770325e-02,-9.278225153684616089e-02,6.585822999477386475e-02,4.887931048870086670e-02,5.821649357676506042e-02,5.746360123157501221e-02,6.668438017368316650e-02,4.679305106401443481e-02,7.976755499839782715e-02,-2.334379591047763824e-02,-9.759734570980072021e-02,-7.384176366031169891e-03,-1.357900258153676987e-02,-1.860941760241985321e-02,1.272996664047241211e-01,3.239940851926803589e-02,-1.097076386213302612e-01,-9.812086075544357300e-02,3.241487964987754822e-02,-1.793850660324096680e-01,-1.184620708227157593e-01,2.486277185380458832e-02,1.064461320638656616e-01,8.046687394380569458e-02,8.542677760124206543e-02,2.983033284544944763e-02,5.015085637569427490e-02,-4.952266346663236618e-03,-5.966888368129730225e-02
5.803723633289337158e-02,4.024166613817214966e-02,3.613436967134475708e-02,3.461927175521850586e-02,-3.613032773137092590e-02,4.583021998405456543e-02,2.252066507935523987e-02,-3.913442417979240417e-02,6.199480593204498291e-02,6.606250256299972534e-02,5.879582092165946960e-02,-5.252260249108076096e-03,-1.350256893783807755e-02,-3.220493346452713013e-02,-7.655045017600059509e-03,-3.567610168829560280e-03,-2.044084668159484863e-02,-1.164647564291954041e-01,-5.775922164320945740e-02,1.288887020200490952e-02,-5.817606300115585327e-02,4.825494810938835144e-02,2.791925892233848572e-02,-4.744784533977508545e-02,4.228990152478218079e-02,1.589594222605228424e-02,-7.875079661607742310e-02,-1.025821939110755920e-01,2.062023244798183441e-02,-2.972871763631701469e-03,7.925186306238174438e-02,1.267837174236774445e-02,2.859666384756565094e-02,7.600695826113224030e-03,-6.706494092941284180e-02,-6.921686232089996338e-02,-5.576523020863533020e-02,7.204314693808555603e-03,6.304347515106201172e-02,-1.318593025207519531e-01,2.599926479160785675e-02,4.874459281563758850e-02,7.769130636006593704e-03,5.147104710340499878e-02,-4.442107304930686951e-02,-1.124710030853748322e-02,3.599751368165016174e-02,-7.200536131858825684e-02,2.560750953853130341e-02,8.282015472650527954e-02,-2.213924191892147064e-02,-5.777999758720397949e-02,-4.706025123596191406e-02,-2.517354860901832581e-02,-1.526863593608140945e-02,1.905506663024425507e-02,-5.661034584045410156e-02,6.527466233819723129e-03,-3.757510706782341003e-02,2.619448117911815643e-02,-3.524259105324745178e-02,2.015850879251956940e-02,4.626041650772094727e-02,1.113712321966886520e-02,-9.877766668796539307e-02,1.007284596562385559e-01,-4.229477047920227051e-02,-1.925451494753360748e-02,1.425831299275159836e-02,3.296788409352302551e-02,-1.049569770693778992e-01,9.067981690168380737e-02,8.718384802341461182e-02,-7.448400557041168213e-02,6.419701874256134033e-02,-9.751299768686294556e-02,-1.423609107732772827e-01,1.969519257545471191e-02,-2.169053442776203156e-02,3.090736865997314453e-01,6.052839383482933044e-02,8.307605981826782227e-03,6.869313120841979980e-02,1.585100032389163971e-02,8.879829198122024536e-02,1.122488975524902344e-01,-1.349563617259263992e-02,1.429101824760437012e-01,-3.064962103962898254e-02,1.417420431971549988e-02,2.212633192539215088e-02,2.794731408357620239e-02,-1.282233148813247681e-01,-5.188289284706115723e-02,-2.029398083686828613e-01,6.581613793969154358e-03,1.032880917191505432e-01,6.056290119886398315e-02,-8.676347881555557251e-02,1.058703660964965820e-01,-4.684313759207725525e-02,-7.250073552131652832e-02,-3.419672325253486633e-02,-2.005621045827865601e-02,-1.430475115776062012e-01,5.108417198061943054e-02,-3.921490907669067383e-02,-7.540948688983917236e-02,-6.602467596530914307e-02,1.940092444419860840e-02,-2.950346097350120544e-03,7.940848171710968018e-02,4.674019664525985718e-02,-1.369121372699737549e-01,-1.543609350919723511e-01,1.074602082371711731e-01,4.926408827304840088e-02,-1.356121301651000977e-01,-1.387041956186294556e-01,-4.693990573287010193e-02,3.201524913311004639e-02,8.268656581640243530e-02,-2.278494182974100113e-03,7.445665448904037476e-02,7.323237508535385132e-02,3.526943922042846680e-02,3.021582961082458496e-03,1.504923310130834579e-02
-2.993296086788177490e-02,-2.285201400518417358e-01,4.783377051353454590e-02,-3.395079821348190308e-02,-7.395350933074951172e-02,-1.479277852922677994e-02,-4.478740692138671875e-02,1.403892412781715393e-02,5.569917336106300354e-02,1.737810671329498291e-01,4.140904173254966736e-02,8.087186515331268311e-02,3.624567016959190369e-02,4.122324660420417786e-02,4.038108885288238525e-02,9.130851924419403076e-02,5.972852185368537903e-02,-4.005051404237747192e-02,5.263812094926834106e-02,4.833126068115234375e-02,-8.633603900671005249e-02,-5.060971528291702271e-02,4.853570833802223206e-03,6.303447484970092773e-02,3.473507612943649292e-02,5.402512103319168091e-02,-3.441555425524711609e-02,8.760952204465866089e-02,1.112898364663124084e-01,-1.841504424810409546e-01,1.097494736313819885e-02,-8.916506916284561157e-02,3.866141289472579956e-02,-2.860872261226177216e-02,7.629477232694625854e-02,-5.038479343056678772e-02,-9.404150769114494324e-03,1.012665107846260071e-01,1.676999218761920929e-02,-9.930542856454849243e-02,1.318602729588747025e-02,4.611975699663162231e-02,1.071939840912818909e-01,1.779608279466629028e-01,4.329695180058479309e-02,9.236451983451843262e-02,-4.582834616303443909e-02,7.096450030803680420e-02,-4.312689602375030518e-02,-5.304309353232383728e-02,-1.235342174768447876e-01,1.342131849378347397e-02,4.689844325184822083e-02,-5.870501697063446045e-02,-9.994120150804519653e-02,-3.737254813313484192e-02,-1.218999549746513367e-02,-2.921309322118759155e-02,-4.156736540608108044e-04,6.372381746768951416e-02,2.999562770128250122e-02,1.205898355692625046e-02,-5.133757740259170532e-02,2.515532076358795166e-02,7.093463093042373657e-02,4.918735474348068237e-02,3.293537721037864685e-02,3.278766945004463196e-02,-2.342614345252513885e-02,3.084677457809448242e-02,3.601587563753128052e-02,-4.633427783846855164e-02,-1.916420832276344299e-02,-3.220554068684577942e-02,-4.040566086769104004e-02,-3.168598562479019165e-02,-2.355553209781646729e-02,3.340655565261840820e-02,-4.325765743851661682e-02,-4.275086894631385803e-02,-3.328944370150566101e-02,-8.989646285772323608e-02,1.052938550710678101e-01,-5.717376992106437683e-02,4.692378640174865723e-02,-1.365365926176309586e-02,-2.955740503966808319e-02,-1.517550796270370483e-01,2.805303968489170074e-02,-8.272383362054824829e-02,5.250257253646850586e-02,-1.070861294865608215e-01,2.623242698609828949e-02,1.076841494068503380e-03,6.736350711435079575e-03,1.228894665837287903e-01,-5.450786650180816650e-02,9.386485069990158081e-02,3.434797376394271851e-02,4.735084250569343567e-02,3.593798354268074036e-02,2.693693677429109812e-04,-3.937405347824096680e-02,9.103563614189624786e-03,-2.873505093157291412e-02,1.435009390115737915e-01,-6.739815324544906616e-02,2.705674991011619568e-02,-8.355420827865600586e-02,-2.758434857241809368e-04,-3.484836593270301819e-02,-7.695949077606201172e-02,9.326940774917602539e-02,6.330829113721847534e-02,-3.727311268448829651e-02,3.827496990561485291e-02,1.152592748403549194e-01,8.362405002117156982e-03,2.941204048693180084e-02,-2.741786651313304901e-02,6.055822223424911499e-02,-6.911480426788330078e-02,1.751223579049110413e-02,-3.987622261047363281e-02,4.022916033864021301e-02,-3.589894250035285950e-02,-3.692306578159332275e-02,5.957913398742675781e-02
-2.723588980734348297e-02,-1.663657603785395622e-03,-1.352016162127256393e-02,-6.114676967263221741e-02,3.207603096961975098e-02,-8.224607259035110474e-02,-8.038333058357238770e-02,5.429811030626296997e-02,-2.095156814903020859e-03,6.329996883869171143e-02,7.654629182070493698e-03,-3.671515733003616333e-02,-9.943060576915740967e-02,4.730254877358675003e-03,-3.426014259457588196e-02,-1.321526467800140381e-01,-2.121826410293579102e-01,2.130800634622573853e-01,2.786743640899658203e-02,9.299552999436855316e-03,-9.536021947860717773e-02,-7.471071183681488037e-02,-7.529465015977621078e-03,-1.171454414725303650e-01,4.202751908451318741e-03,-8.225812762975692749e-02,-1.441248059272766113e-01,7.228930294513702393e-02,-1.826278865337371826e-02,1.338168680667877197e-01,-1.416134387254714966e-01,2.237413637340068817e-02,5.071146041154861450e-02,-5.221845954656600952e-02,-4.247308243066072464e-03,-2.805471792817115784e-02,9.622406959533691406e-02,4.819450154900550842e-02,-1.168365590274333954e-02,1.318216770887374878e-01,5.081499926745891571e-03,5.917357746511697769e-03,1.005906537175178528e-01,-5.149650946259498596e-02,1.463517844676971436e-01,-4.688734561204910278e-02,-3.597966860979795456e-03,-4.075263440608978271e-02,-1.110142171382904053e-01,-3.901612758636474609e-02,-1.977553032338619232e-02,-9.280524100176990032e-04,6.765104830265045166e-02,6.801154464483261108e-02,-1.824233829975128174e-01,1.197133809328079224e-01,2.894775569438934326e-02,4.392359033226966858e-02,-6.007198616862297058e-02,-1.550955772399902344e-01,-6.913159787654876709e-02,2.003867477178573608e-01,1.406176835298538208e-01,-7.197801768779754639e-02,3.788601234555244446e-02,1.885905675590038300e-02,-8.942758664488792419e-03,-4.835809022188186646e-02,4.184583667665719986e-03,-7.695505768060684204e-02,-2.447970211505889893e-02,2.790337055921554565e-02,4.862168058753013611e-02,7.928207516670227051e-02,-9.676555544137954712e-02,2.584653906524181366e-02,-7.651777565479278564e-02,6.366933137178421021e-02,-1.043092831969261169e-02,1.851093024015426636e-02,-9.885169565677642822e-02,-1.411710865795612335e-02,5.095262452960014343e-02,1.334873400628566742e-02,6.225578859448432922e-02,-1.759717613458633423e-01,1.019534394145011902e-01,6.955688446760177612e-02,7.526069879531860352e-02,-2.388086542487144470e-02,9.186732023954391479e-02,-1.096350252628326416e-01,8.038283325731754303e-03,-2.138001099228858948e-02,3.694899380207061768e-02,3.835594281554222107e-02,-1.796235889196395874e-02,8.434566855430603027e-02,3.690309822559356689e-02,8.090282976627349854e-02,4.891413450241088867e-02,-8.393364399671554565e-02,-8.170869201421737671e-03,-2.093406859785318375e-03,-3.539500758051872253e-02,4.366458579897880554e-02,5.037601292133331299e-02,-2.183119207620620728e-02,-2.816817723214626312e-03,6.679626554250717163e-02,-4.767866432666778564e-02,-5.421460792422294617e-02,-8.510516583919525146e-02,-2.258368767797946930e-02,-6.887491047382354736e-02,3.232252970337867737e-02,-4.995242878794670105e-02,3.222233802080154419e-02,7.413632422685623169e-02,1.661754213273525238e-02,-1.018479652702808380e-02,-6.694381684064865112e-02,6.134278699755668640e-02,-5.405494011938571930e-03,6.360910087823867798e-02,-1.170398015528917313e-02,-7.972082495689392090e-02,1.919189840555191040e-02
1.609770804643630981e-01,1.353911403566598892e-02,1.218486130237579346e-01,1.534014344215393066e-01,-6.374781578779220581e-02,-1.688490808010101318e-02,-1.107170730829238892e-01,2.304069325327873230e-02,-1.203834414482116699e-01,-1.551592350006103516e-01,9.858592599630355835e-02,-2.323193550109863281e-01,1.591636836528778076e-01,1.261840760707855225e-01,3.222664818167686462e-02,5.050468258559703827e-03,1.534140110015869141e-01,-5.638730525970458984e-02,-5.589623004198074341e-03,-1.071338802576065063e-01,-3.978100046515464783e-02,-4.912304878234863281e-02,6.114463321864604950e-03,7.006564736366271973e-02,-2.667938591912388802e-03,-8.281087130308151245e-02,-1.634147018194198608e-01,1.465835869312286377e-01,9.410786628723144531e-02,1.445870995521545410e-01,-1.062476076185703278e-02,-9.574670344591140747e-02,9.146796166896820068e-02,7.090879976749420166e-02,1.118317618966102600e-02,-1.263066101819276810e-02,-6.517276912927627563e-02,4.722816869616508484e-02,-5.130590870976448059e-02,-1.819721050560474396e-02,-1.311905495822429657e-02,-3.508528321981430054e-02,-1.367108821868896484e-01,-2.359020523726940155e-02,-2.122079022228717804e-03,4.409341514110565186e-02,1.271407306194305420e-01,4.657619167119264603e-03,-1.112941130995750427e-01,-3.262121602892875671e-02,1.092979386448860168e-01,-1.308239549398422241e-01,4.156576469540596008e-02,-6.823869049549102783e-02,5.529053509235382080e-02,-1.050823703408241272e-01,5.603781715035438538e-02,1.499999966472387314e-02,7.386885583400726318e-02,2.875824691727757454e-03,1.517293602228164673e-02,5.425693839788436890e-02,7.642933726310729980e-02,6.143868714570999146e-02,7.089149206876754761e-02,2.316260524094104767e-02,-3.703616932034492493e-02,-3.280470147728919983e-02,7.985656149685382843e-03,-1.562132965773344040e-02,-1.286485884338617325e-02,7.447485812008380890e-03,7.951547950506210327e-02,-5.956590175628662109e-03,6.627410650253295898e-02,-2.518019080162048340e-02,4.530068114399909973e-02,1.245580166578292847e-01,1.093562990427017212e-01,3.081465885043144226e-02,-1.165962368249893188e-01,-9.698943048715591431e-02,-7.090459764003753662e-02,5.091520398855209351e-02,1.106478944420814514e-01,7.822489738464355469e-02,6.572223454713821411e-02,-9.996079839766025543e-03,-2.759342826902866364e-02,6.714061647653579712e-02,-3.503777831792831421e-02,-1.690828800201416016e-01,-7.801698893308639526e-02,1.636073365807533264e-02,-2.352528087794780731e-02,-1.612243615090847015e-02,-5.381702911108732224e-03,-1.465843152254819870e-02,-1.741012372076511383e-02,-2.139516733586788177e-02,6.484621670097112656e-03,-1.060306429862976074e-01,8.405014872550964355e-02,-8.244489878416061401e-02,1.146350055932998657e-01,5.831494182348251343e-02,1.010341220535337925e-03,5.158257484436035156e-02,-2.565938606858253479e-02,-8.902890980243682861e-02,6.585505604743957520e-02,-3.157972544431686401e-02,-8.700218982994556427e-03,-6.392558664083480835e-02,9.763798117637634277e-02,7.625038735568523407e-03,2.762917056679725647e-02,7.435470074415206909e-02,-7.640958577394485474e-02,4.200242087244987488e-02,2.486322447657585144e-02,7.858040183782577515e-02,-5.559856817126274109e-02,6.715225987136363983e-03,-4.178354516625404358e-02,-6.526242941617965698e-02,1.273438706994056702e-02,6.759992986917495728e-02
-9.448107331991195679e-02,-9.692153980722650886e-05,4.086458683013916016e-02,6.021600589156150818e-02,2.643928863108158112e-02,1.677985936403274536e-01,5.934165418148040771e-02,-3.150808811187744141e-02,1.384345740079879761e-01,2.111848630011081696e-02,4.207576066255569458e-02,1.101118326187133789e-01,4.493969678878784180e-02,-7.029905915260314941e-02,-5.784283950924873352e-02,-8.755180239677429199e-02,-1.179304569959640503e-01,1.885640323162078857e-01,-7.968934625387191772e-02,-1.404357105493545532e-01,3.287457861006259918e-03,-8.844439685344696045e-02,2.608064934611320496e-02,-1.100932955741882324e-01,1.819549873471260071e-02,7.411122322082519531e-02,9.624820202589035034e-02,2.544733136892318726e-02,5.542019382119178772e-02,-1.023409590125083923e-01,1.854352653026580811e-02,5.225335806608200073e-02,-1.415940672159194946e-01,1.530513912439346313e-01,-7.709918171167373657e-02,-3.396956622600555420e-02,-8.748173713684082031e-02,2.313742935657501221e-01,-9.685864672064781189e-03,3.217400610446929932e-02,1.068224683403968811e-01,-1.097515746951103210e-01,-4.269870743155479431e-02,-7.517417520284652710e-02,-9.890127927064895630e-02,1.402663439512252808e-01,-5.850684642791748047e-02,1.433116942644119263e-02,3.054858371615409851e-02,-7.162666320800781250e-02,-1.657996326684951782e-02,7.962089776992797852e-02,5.365781486034393311e-02,-8.860402554273605347e-02,-6.991323083639144897e-02,-1.586545258760452271e-01,7.562011480331420898e-02,1.064412947744131088e-02,8.018107153475284576e-03,3.969737142324447632e-02,-7.015623617917299271e-03,4.610443115234375000e-02,1.503091771155595779e-02,8.573184907436370850e-02,3.180556371808052063e-02,-2.261804044246673584e-02,1.877187751233577728e-02,1.207426562905311584e-01,3.324145823717117310e-02,-1.486600469797849655e-02,-6.192269176244735718e-02,9.984406083822250366e-02,1.841749399900436401e-01,1.668486371636390686e-02,1.934916153550148010e-02,-7.585965096950531006e-03,1.397423148155212402e-01,-6.256430596113204956e-02,6.317638605833053589e-02,5.607478786259889603e-03,-1.550184469670057297e-02,3.881311975419521332e-03,3.210004419088363647e-02,-5.258058011531829834e-02,-5.740619078278541565e-02,-4.054189193993806839e-03,-1.518176752142608166e-03,-2.527666045352816582e-03,-2.765239216387271881e-02,6.124218553304672241e-02,-4.495402425527572632e-02,6.443467736244201660e-02,1.174991577863693237e-01,-9.937211871147155762e-02,-1.764483004808425903e-02,6.387896835803985596e-02,-5.125500261783599854e-02,-4.111909307539463043e-03,4.288272932171821594e-02,1.101332306861877441e-01,-3.532442077994346619e-02,-1.971300505101680756e-02,-2.680740132927894592e-02,-6.700845062732696533e-02,-9.330221265554428101e-02,1.288179159164428711e-01,5.741905421018600464e-02,9.232725203037261963e-02,-4.782099649310112000e-02,-7.044292055070400238e-03,-1.177399535663425922e-03,2.911946212407201529e-04,1.528491526842117310e-01,8.386778831481933594e-02,3.160851821303367615e-02,-5.611423403024673462e-02,-1.618977636098861694e-01,3.789533674716949463e-02,-3.887819871306419373e-02,4.904966801404953003e-02,3.951467573642730713e-03,-9.174602478742599487e-02,-1.914871972985565662e-03,9.857990592718124390e-02,-1.026232093572616577e-01,9.067282080650329590e-03,1.706422418355941772e-01,1.703624613583087921e-02
-4.560124501585960388e-02,5.405987799167633057e-02,-3.447639197111129761e-02,7.362827658653259277e-02,-3.817546740174293518e-02,-3.373625129461288452e-02,4.050685465335845947e-02,-5.796679481863975525e-02,2.611505612730979919e-02,5.198275670409202576e-02,-1.675614714622497559e-02,3.933969885110855103e-02,-1.254656463861465454e-01,-5.706172063946723938e-02,6.107527390122413635e-02,5.138412863016128540e-02,2.483948506414890289e-02,-8.868849277496337891e-02,1.255223900079727173e-02,8.892916142940521240e-03,8.164962381124496460e-02,3.280534595251083374e-02,-2.360194548964500427e-02,-1.175487320870161057e-02,7.648777216672897339e-02,6.906027346849441528e-02,-8.092194795608520508e-03,2.153584361076354980e-02,-8.110271394252777100e-02,-7.084415107965469360e-02,6.508456915616989136e-02,5.783773958683013916e-03,-3.644565120339393616e-02,-3.949213027954101562e-02,2.262665517628192902e-02,-6.181428208947181702e-02,5.708172544836997986e-02,1.356753259897232056e-01,7.404174655675888062e-02,8.257839828729629517e-03,6.438097357749938965e-02,-9.134105592966079712e-02,-1.132935378700494766e-02,-1.284411549568176270e-02,1.119800135493278503e-01,-1.014590114355087280e-01,6.603377312421798706e-02,1.283857389353215694e-03,8.369080722332000732e-02,-5.625512823462486267e-02,3.327569225803017616e-03,-3.929264470934867859e-02,5.441814195364713669e-03,-5.401550605893135071e-02,1.025088038295507431e-02,-5.228387936949729919e-02,1.269542127847671509e-01,-8.483444154262542725e-02,3.826832398772239685e-02,1.227460242807865143e-02,-4.959091916680335999e-02,-3.570451214909553528e-02,-9.318000823259353638e-02,2.492749504745006561e-02,-7.823964953422546387e-02,5.362267047166824341e-02,3.195238485932350159e-02,5.529864504933357239e-02,-2.197733707726001740e-02,4.837404564023017883e-02,-1.025909632444381714e-01,1.951242610812187195e-02,2.899931510910391808e-03,1.032280027866363525e-01,-1.407520100474357605e-02,5.597604811191558838e-02,1.408998668193817139e-02,1.561506069265305996e-03,-9.139916300773620605e-02,-8.978410065174102783e-02,-4.376787319779396057e-02,3.187309578061103821e-02,4.552089422941207886e-02,3.361842781305313110e-02,7.770261913537979126e-02,-6.023523746989667416e-04,2.400210686028003693e-02,8.615929633378982544e-02,5.508891865611076355e-02,-1.384595334529876709e-01,-7.351224869489669800e-02,3.505205363035202026e-02,-1.181133277714252472e-02,-3.281747922301292419e-02,-4.729335755109786987e-02,1.744653843343257904e-02,-7.662181160412728786e-04,5.875866860151290894e-02,8.769903331995010376e-02,7.970391213893890381e-02,-1.464381366968154907e-01,-1.005068346858024597e-01,-4.676126316189765930e-02,1.722646877169609070e-02,9.550979733467102051e-02,-6.893285363912582397e-02,1.155545413494110107e-01,-5.709454044699668884e-02,5.045055598020553589e-02,8.366753160953521729e-02,-1.543077826499938965e-01,9.409025311470031738e-02,-8.098068833351135254e-02,-4.684821888804435730e-02,9.750950150191783905e-03,1.124009396880865097e-02,-6.564241647720336914e-02,-1.531652640551328659e-03,5.038191378116607666e-02,-3.054621070623397827e-02,8.799194544553756714e-02,-1.283612102270126343e-03,1.992054842412471771e-02,-6.574991159141063690e-03,6.726343184709548950e-02,3.505173698067665100e-02,-4.729900881648063660e-02,4.204071313142776489e-02
-3.584357723593711853e-02,-1.137909218668937683e-01,-1.638040691614151001e-02,-7.193021476268768311e-02,-8.861082792282104492e-02,-7.838745415210723877e-02,7.087782025337219238e-02,-1.714981906116008759e-02,1.389761269092559814e-01,-4.929234459996223450e-02,-3.187477588653564453e-02,-5.172077193856239319e-02,1.643047481775283813e-02,3.532042726874351501e-02,2.087848633527755737e-02,5.449574813246726990e-02,7.607971876859664917e-02,1.621249318122863770e-01,8.804061263799667358e-02,-5.906443297863006592e-02,2.486344240605831146e-02,8.831261843442916870e-02,1.361596286296844482e-01,-2.010465972125530243e-02,1.709791086614131927e-02,7.015232741832733154e-02,-8.544605225324630737e-04,5.485329777002334595e-03,-1.267981901764869690e-02,-4.371472448110580444e-02,1.779066398739814758e-02,3.862930461764335632e-02,-1.862339116632938385e-02,-6.498617120087146759e-03,-6.985474377870559692e-02,3.327612951397895813e-02,1.300432626157999039e-02,2.944510243833065033e-02,6.941719353199005127e-02,-1.223293095827102661e-01,1.620423942804336548e-01,4.171317070722579956e-02,-1.051048561930656433e-01,1.541214715689420700e-02,-8.299194276332855225e-02,1.932982355356216431e-02,4.926772415637969971e-02,1.018014848232269287e-01,9.381196647882461548e-02,-2.354227378964424133e-02,6.976326555013656616e-02,3.594134375452995300e-02,-3.662657737731933594e-02,1.467824075371026993e-02,9.980083443224430084e-03,-3.823085501790046692e-02,-4.379967972636222839e-02,1.008471101522445679e-01,-1.209329906851053238e-02,7.328284904360771179e-03,-3.081383928656578064e-02,3.550865873694419861e-02,-2.571512386202812195e-02,7.327356189489364624e-02,1.442194543778896332e-02,-7.114749401807785034e-02,-4.136784002184867859e-02,-1.691880077123641968e-02,-6.476340442895889282e-02,7.657252997159957886e-02,8.765685558319091797e-02,6.414379924535751343e-02,4.455945640802383423e-02,2.488984912633895874e-02,4.158715903759002686e-02,-1.052428185939788818e-01,4.094086959958076477e-02,7.418230175971984863e-02,2.231295593082904816e-02,9.461659193038940430e-02,1.010718867182731628e-01,9.726979583501815796e-02,5.821560695767402649e-02,7.137980312108993530e-02,-5.479852482676506042e-02,-2.596364915370941162e-02,-5.861214548349380493e-02,-3.760213404893875122e-02,-9.298557788133621216e-02,-4.525924474000930786e-02,5.359557271003723145e-02,1.990678953006863594e-03,2.422337792813777924e-02,1.411291491240262985e-02,9.960750490427017212e-02,1.496955752372741699e-01,-5.926946643739938736e-03,-9.089393913745880127e-02,-1.830821484327316284e-02,-3.737054765224456787e-02,-2.385861985385417938e-02,3.232016786932945251e-02,3.307893872261047363e-02,1.185098811984062195e-01,-1.869959570467472076e-02,-5.126769538037478924e-04,-1.913545420393347740e-03,-1.403902308084070683e-03,3.973946347832679749e-02,7.128334045410156250e-02,-1.527178753167390823e-02,1.509889662265777588e-01,-1.186412498354911804e-01,-1.799798011779785156e-02,-1.482962071895599365e-01,5.696460604667663574e-02,1.533305551856756210e-02,-4.889971017837524414e-02,2.195541560649871826e-02,-1.167839858680963516e-02,-3.367053344845771790e-02,-1.237543001770973206e-01,1.013500802218914032e-02,-6.801921874284744263e-02,-1.068092323839664459e-02,6.652121245861053467e-02,-7.257285714149475098e-02,-1.181093007326126099e-01
-2.558289282023906708e-02,-3.877290338277816772e-02,1.587677001953125000e-01,1.723715849220752716e-02,9.773772209882736206e-03,-4.026876389980316162e-02,9.534567594528198242e-02,-4.118098586332052946e-04,7.783485203981399536e-02,2.066698856651782990e-02,2.001417055726051331e-02,7.120905816555023193e-02,8.398924022912979126e-03,8.725612610578536987e-02,-7.222668081521987915e-02,6.458264589309692383e-02,-6.479036062955856323e-02,2.321379818022251129e-02,1.294011771678924561e-01,-4.822554066777229309e-02,3.878117725253105164e-02,-1.147183552384376526e-01,-4.321353137493133545e-02,6.462171673774719238e-02,7.140903919935226440e-02,-1.524237357079982758e-02,3.651254810392856598e-03,-6.184287741780281067e-02,-3.428489202633500099e-03,2.545867860317230225e-02,-1.249508466571569443e-02,1.218196973204612732e-01,-6.305543705821037292e-03,2.835233137011528015e-02,-1.023368835449218750e-01,-3.481712564826011658e-02,1.502763386815786362e-02,4.688932313001714647e-05,-6.975000351667404175e-02,-9.585892781615257263e-03,5.874951556324958801e-02,9.817181527614593506e-02,-9.198543429374694824e-02,-7.061152160167694092e-02,8.102980256080627441e-02,3.979202732443809509e-02,9.246086329221725464e-02,1.301897596567869186e-02,1.179461367428302765e-02,1.520410776138305664e-01,1.447817962616682053e-02,7.636680454015731812e-02,1.385607123374938965e-01,-2.402624860405921936e-02,1.182337850332260132e-01,-7.027792185544967651e-02,9.457299858331680298e-02,-1.443244982510805130e-02,-8.120546489953994751e-02,-3.065137378871440887e-02,-1.353066996671259403e-03,2.720815502107143402e-02,8.726923167705535889e-02,-3.207241743803024292e-02,-4.244482144713401794e-02,1.182062644511461258e-02,-6.673440337181091309e-02,4.339789226651191711e-02,9.918947517871856689e-02,1.196936122141778469e-03,-2.490987628698348999e-02,-9.951050579547882080e-02,-4.679287376347929239e-04,-2.068769745528697968e-02,8.055639266967773438e-02,1.053778920322656631e-02,-3.825630992650985718e-02,-3.463852219283580780e-03,4.718019068241119385e-02,-4.593704361468553543e-03,-3.052241168916225433e-02,1.578276008367538452e-01,-1.081741154193878174e-01,-7.255561649799346924e-02,1.793021708726882935e-02,1.641115918755531311e-02,9.854124486446380615e-02,8.351054787635803223e-02,-5.443857982754707336e-02,-5.124743282794952393e-02,9.544604457914829254e-03,2.812328748404979706e-02,1.383871585130691528e-02,2.591915614902973175e-02,3.608815744519233704e-02,-3.523219004273414612e-02,2.223540470004081726e-02,3.111653774976730347e-02,3.499670699238777161e-02,1.148365531116724014e-02,-5.618171021342277527e-02,-1.840005815029144287e-02,4.848416149616241455e-02,1.567315459251403809e-01,7.532979361712932587e-03,7.262017112225294113e-03,-5.636578425765037537e-03,-1.966434158384799957e-02,-2.837930060923099518e-02,-4.549081251025199890e-02,-6.869773846119642258e-03,4.897565767168998718e-02,3.983413800597190857e-02,5.414916202425956726e-02,4.709741473197937012e-02,-7.026937603950500488e-02,-7.652294635772705078e-02,-2.172355726361274719e-02,7.657278329133987427e-02,-9.277264028787612915e-02,1.324840486049652100e-01,-2.391577884554862976e-02,6.225223466753959656e-02,5.905383452773094177e-02,3.424293920397758484e-02,5.930899176746606827e-03,-1.755893044173717499e-02,-8.962017484009265900e-03
4.278366453945636749e-03,3.606209531426429749e-02,-9.837318211793899536e-02,6.163695827126502991e-02,-5.207685753703117371e-02,1.143822669982910156e-01,-6.335239857435226440e-02,-2.222201414406299591e-02,2.499875612556934357e-02,1.946195960044860840e-02,-7.985519617795944214e-02,2.473422512412071228e-02,2.725541824474930763e-03,-1.386968977749347687e-02,-5.116808041930198669e-02,2.640108950436115265e-02,-4.701495170593261719e-02,-5.347081646323204041e-02,-5.167756602168083191e-02,2.596858330070972443e-02,-8.951809257268905640e-03,-1.553869992494583130e-02,-3.112157061696052551e-02,2.004123106598854065e-02,5.235739797353744507e-02,-1.411396451294422150e-02,9.288154542446136475e-03,-2.837656438350677490e-02,-3.098379448056221008e-02,-1.216991692781448364e-01,-3.919038455933332443e-03,6.627426296472549438e-02,3.685201331973075867e-02,-2.314858511090278625e-02,-3.948100656270980835e-02,-2.069095708429813385e-02,-3.154239431023597717e-02,-1.121984422206878662e-01,2.341364882886409760e-02,1.672158390283584595e-02,2.676305547356605530e-02,-2.393713407218456268e-02,1.134211421012878418e-01,-1.525088585913181305e-02,2.865856327116489410e-02,9.092257916927337646e-02,1.029834821820259094e-01,1.019878406077623367e-02,-4.954823851585388184e-02,-6.482317298650741577e-02,-4.867515526711940765e-03,-1.893836632370948792e-02,3.281104937195777893e-02,-9.134532511234283447e-02,5.016761645674705505e-02,-1.591789424419403076e-01,1.197044029831886292e-01,4.324495792388916016e-02,-7.532317936420440674e-02,-9.248715639114379883e-02,1.411999342963099480e-03,-3.981610760092735291e-02,4.099584370851516724e-02,-1.345224492251873016e-02,-2.409360744059085846e-02,5.808209627866744995e-02,1.089106202125549316e-01,-3.654037788510322571e-02,-1.417997945100069046e-02,-5.139187723398208618e-02,5.534032732248306274e-02,4.361504316329956055e-02,-1.739341765642166138e-02,6.521187722682952881e-02,1.050185039639472961e-01,-3.534452989697456360e-02,3.119510039687156677e-02,-5.014894902706146240e-02,7.718774676322937012e-02,-1.968595385551452637e-02,-5.327914375811815262e-03,-9.879879653453826904e-02,-3.015970997512340546e-02,-1.310961786657571793e-03,-2.476419135928153992e-02,-4.592414572834968567e-02,1.079875603318214417e-01,1.366699207574129105e-02,-5.039235949516296387e-02,5.511898547410964966e-02,-1.080690473318099976e-01,-5.012484639883041382e-02,-1.776797510683536530e-02,-9.316784329712390900e-03,-2.744131535291671753e-02,-3.987931832671165466e-02,-1.737471111118793488e-02,-5.476372316479682922e-04,6.833840161561965942e-02,-7.064408622682094574e-03,-4.251065105199813843e-02,1.758107449859380722e-03,-7.331252843141555786e-02,8.971961587667465210e-02,-1.130177639424800873e-02,3.710138052701950073e-02,1.969319395720958710e-02,-5.321325361728668213e-02,8.683551102876663208e-02,-4.191785678267478943e-02,1.933932490646839142e-02,-2.449944801628589630e-02,-3.019799664616584778e-02,1.970744319260120392e-02,1.085208076983690262e-02,7.504361122846603394e-02,6.633545458316802979e-02,-2.138091437518596649e-02,2.301627583801746368e-02,3.294421359896659851e-02,-1.404612045735120773e-02,-2.989823557436466217e-02,1.880880445241928101e-02,-1.026168987154960632e-01,8.745390921831130981e-02,-5.598622933030128479e-02,4.005978256464004517e-02,-3.922995552420616150e-02
-7.721976190805435181e-02,-1.079539023339748383e-02,-2.333628758788108826e-02,-2.755036950111389160e-02,-3.726991591975092888e-03,6.585840135812759399e-02,1.009964272379875183e-01,-8.161332458257675171e-02,1.009585708379745483e-01,-4.181899502873420715e-02,2.908911928534507751e-02,3.402430191636085510e-02,5.781895667314529419e-02,-2.015190571546554565e-02,-1.028709579259157181e-02,-1.443835943937301636e-01,1.092402264475822449e-01,-4.984896257519721985e-02,-1.576122269034385681e-02,-9.795954823493957520e-02,-1.571057178080081940e-02,6.238768249750137329e-02,-4.936782270669937134e-02,6.950137764215469360e-02,-3.711647912859916687e-02,-7.237295154482126236e-03,4.629217460751533508e-02,4.194163158535957336e-02,-3.706796094775199890e-02,1.913264244794845581e-01,-7.433917373418807983e-02,-2.815808728337287903e-02,-9.890975058078765869e-02,-8.847195655107498169e-02,2.675799094140529633e-02,8.869708329439163208e-02,-8.500065654516220093e-02,-5.605458747595548630e-03,-5.861214920878410339e-02,1.000845357775688171e-01,-3.719586133956909180e-02,1.818544566631317139e-01,4.459846019744873047e-02,-6.812266539782285690e-03,-9.463515877723693848e-02,-3.642369061708450317e-02,-8.910651318728923798e-03,9.438602626323699951e-02,-8.390065282583236694e-02,5.379818007349967957e-02,-9.205570816993713379e-02,-5.907806754112243652e-02,1.839211769402027130e-02,-7.273125648498535156e-02,1.294764690101146698e-02,1.197315100580453873e-02,-7.109379023313522339e-02,3.006186522543430328e-02,-3.592430055141448975e-02,-7.558208703994750977e-02,-1.610869318246841431e-01,-5.335923284292221069e-02,-7.695810496807098389e-02,2.035850845277309418e-02,-3.682389855384826660e-02,8.014655672013759613e-03,2.497760392725467682e-02,-4.125107824802398682e-02,6.725413352251052856e-02,6.824217736721038818e-02,5.186875537037849426e-02,2.119348943233489990e-02,-3.724141791462898254e-02,-2.776845358312129974e-02,4.845018684864044189e-02,5.516020208597183228e-02,6.553341634571552277e-03,-6.284823268651962280e-02,7.188875228166580200e-02,6.770680099725723267e-02,-2.551838569343090057e-02,4.834779538214206696e-03,-7.712904363870620728e-02,6.639702618122100830e-02,5.404236540198326111e-02,5.916397273540496826e-02,-7.340457290410995483e-02,-1.239426508545875549e-01,2.221109904348850250e-02,-2.322607859969139099e-02,4.225716739892959595e-02,1.159214414656162262e-02,-2.843125537037849426e-02,9.999428689479827881e-02,6.086144968867301941e-02,1.042560674250125885e-02,-1.722728274762630463e-02,-3.547442704439163208e-02,4.123932868242263794e-02,4.030163399875164032e-03,1.760026626288890839e-02,8.147383481264114380e-02,-1.055946294218301773e-02,1.067985966801643372e-02,-1.267802715301513672e-01,-1.058424115180969238e-01,-1.343746017664670944e-02,4.033593833446502686e-02,4.454046953469514847e-03,5.969678610563278198e-02,6.887801736593246460e-02,-1.039839116856455803e-03,-1.597733236849308014e-02,-4.012777283787727356e-02,-5.413943435996770859e-03,4.430281464010477066e-03,2.070015482604503632e-02,6.414036452770233154e-02,-1.289583146572113037e-01,-6.464932858943939209e-02,-4.367294535040855408e-02,1.299432199448347092e-02,6.710401177406311035e-02,-1.166038215160369873e-01,5.862678401172161102e-03,-5.854196846485137939e-02,3.908367827534675598e-02,4.825645685195922852e-02
-1.053736805915832520e-01,1.129596382379531860e-01,-2.142088115215301514e-02,-3.610448911786079407e-02,-4.138261824846267700e-02,6.283514946699142456e-02,1.398811638355255127e-01,1.183839794248342514e-02,-3.831081464886665344e-02,3.357122465968132019e-02,-3.198581561446189880e-02,-8.023081719875335693e-02,-4.236329346895217896e-02,-3.384029120206832886e-02,4.525508731603622437e-02,7.541088014841079712e-02,1.204446144402027130e-02,-6.842489540576934814e-02,-1.247396543622016907e-01,-5.092466250061988831e-02,4.761345311999320984e-02,-9.159002453088760376e-02,1.169529408216476440e-01,-1.968782208859920502e-02,2.511596074327826500e-03,8.491396158933639526e-02,1.034564524888992310e-02,4.921665042638778687e-02,-1.075647100806236267e-01,7.757272571325302124e-02,-7.014618813991546631e-02,-1.144506409764289856e-01,2.346481010317802429e-02,7.313746213912963867e-02,-4.359471425414085388e-02,-5.128351971507072449e-03,1.663732677698135376e-01,9.124419838190078735e-02,-1.128183584660291672e-02,-1.923279464244842529e-02,-7.747957110404968262e-02,-8.162520825862884521e-02,1.155091300606727600e-01,2.524292469024658203e-02,2.947360090911388397e-02,3.703875467181205750e-02,5.840985104441642761e-02,-9.168417751789093018e-02,3.316228091716766357e-02,4.533323273062705994e-02,4.567775502800941467e-02,2.795689739286899567e-02,-3.604387491941452026e-02,-7.377739250659942627e-02,1.316647394560277462e-03,-3.348690271377563477e-02,1.452675182372331619e-02,-1.365892030298709869e-02,-5.495073739439249039e-03,1.391108240932226181e-02,8.601788431406021118e-02,5.451395735144615173e-02,-4.113408178091049194e-02,1.178482547402381897e-01,5.298280739225447178e-04,2.255649864673614502e-02,7.859508693218231201e-02,-6.382449716329574585e-02,-2.178809233009815216e-02,6.096526607871055603e-02,-3.465390577912330627e-02,-6.842616200447082520e-02,-7.861778140068054199e-02,1.215081661939620972e-02,2.406153827905654907e-02,-2.733876183629035950e-02,1.047421619296073914e-01,3.850521147251129150e-02,-1.497340202331542969e-01,1.456116978079080582e-02,-6.767349690198898315e-02,-1.916473172605037689e-02,-5.056613683700561523e-02,-6.947854999452829361e-03,8.406435139477252960e-03,-4.149992391467094421e-02,1.200458034873008728e-01,-4.535392299294471741e-02,-1.040078140795230865e-02,3.174883872270584106e-02,-7.804359309375286102e-03,3.857421875000000000e-02,3.582716360688209534e-02,-4.631740972399711609e-02,-1.750715225934982300e-01,4.489322006702423096e-02,1.087928861379623413e-01,-1.061419397592544556e-01,8.154784142971038818e-02,9.236276149749755859e-02,6.050241738557815552e-02,-1.680352538824081421e-02,2.242685994133353233e-03,-3.208991512656211853e-02,-9.190680831670761108e-02,2.201427333056926727e-02,-1.024821177124977112e-01,7.712172716856002808e-02,-1.041955314576625824e-02,-3.560097143054008484e-02,1.608334183692932129e-01,-2.005331683903932571e-03,-6.371634453535079956e-02,1.112037431448698044e-02,-2.412898931652307510e-03,5.328871309757232666e-02,-8.948440104722976685e-02,3.017460554838180542e-02,1.259116381406784058e-01,-9.393854439258575439e-02,1.714739017188549042e-02,4.155547171831130981e-02,-4.043592512607574463e-02,2.591334655880928040e-02,1.809017919003963470e-02,6.117828935384750366e-02,6.016134098172187805e-02,-4.084292426705360413e-02
-1.130380779504776001e-01,8.487713336944580078e-02,-2.091177552938461304e-02,4.415519908070564270e-02,-8.735992759466171265e-02,8.897222578525543213e-02,6.175940111279487610e-02,-2.404362335801124573e-02,-3.826073557138442993e-02,1.840646029449999332e-03,-6.385552138090133667e-02,-1.634942144155502319e-01,-8.264036849141120911e-03,-2.730990201234817505e-02,1.800872571766376495e-02,-1.196331381797790527e-01,-3.176779672503471375e-02,-4.660947248339653015e-02,-3.465019911527633667e-02,-4.637823998928070068e-02,1.361092627048492432e-01,6.888965517282485962e-02,1.710427254438400269e-01,-2.676403708755970001e-02,-8.245672285556793213e-02,4.863193258643150330e-02,-7.339853048324584961e-02,2.371632009744644165e-01,1.092199459671974182e-01,-1.728530973196029663e-01,3.524298593401908875e-02,-1.252240687608718872e-02,1.391288340091705322e-01,1.313433237373828888e-02,-3.095054067671298981e-02,-1.679800823330879211e-02,-1.036714110523462296e-02,-8.532499521970748901e-02,1.484765205532312393e-03,6.506564468145370483e-02,-6.276157498359680176e-02,3.454257175326347351e-02,-7.405560463666915894e-02,-8.328236639499664307e-02,1.385169923305511475e-01,1.358515769243240356e-01,-7.390426471829414368e-03,-9.224757552146911621e-03,1.383485198020935059e-01,7.117160409688949585e-02,-1.601368337869644165e-01,1.402938179671764374e-02,7.937636226415634155e-02,1.104215160012245178e-01,9.625569730997085571e-02,-9.439014643430709839e-02,-1.025561243295669556e-01,-5.714358389377593994e-02,-9.653759747743606567e-02,-4.620762541890144348e-02,4.469752684235572815e-02,4.355819523334503174e-02,-1.172655960544943810e-03,-9.338475018739700317e-02,-6.005048751831054688e-02,5.070527642965316772e-02,-2.294510789215564728e-02,1.679579764604568481e-01,-1.174980029463768005e-02,-8.229428529739379883e-02,6.258094310760498047e-02,2.282293513417243958e-02,6.669858098030090332e-02,-6.131617352366447449e-03,-1.694000791758298874e-03,-7.595474272966384888e-02,7.349748909473419189e-02,-5.176919698715209961e-02,1.626174710690975189e-02,-2.769638411700725555e-02,-3.047859109938144684e-02,1.939480751752853394e-01,-4.553932324051856995e-02,-6.348713301122188568e-03,6.991343200206756592e-02,3.036195179447531700e-03,-1.501158624887466431e-01,-5.166764184832572937e-02,5.372957512736320496e-02,-1.766189932823181152e-02,-4.919364675879478455e-02,1.249261945486068726e-01,-2.928312867879867554e-02,-2.603790350258350372e-02,-2.977629750967025757e-02,3.766112402081489563e-02,5.014156922698020935e-02,9.894078597426414490e-03,3.317117691040039062e-02,-1.523946411907672882e-02,-7.309620268642902374e-03,-6.770453602075576782e-02,2.596789225935935974e-02,9.201738052070140839e-03,6.144077330827713013e-02,-3.234488517045974731e-02,-4.854545742273330688e-02,-8.585954457521438599e-02,-1.134196482598781586e-02,-4.274835437536239624e-02,1.041649878025054932e-01,1.389042139053344727e-01,-3.110884688794612885e-03,4.751433432102203369e-02,-5.241561308503150940e-02,1.556095387786626816e-02,1.717266812920570374e-02,2.784648910164833069e-03,-1.241404190659523010e-02,5.641483701765537262e-03,2.316609583795070648e-02,1.034084521234035492e-02,-5.834151804447174072e-02,1.428984943777322769e-02,7.718058675527572632e-02,8.205301128327846527e-03,6.255009770393371582e-02,-1.869776472449302673e-02
-4.053274542093276978e-02,7.300238125026226044e-03,2.244096063077449799e-02,7.635991787537932396e-04,-5.843633413314819336e-02,-5.083484947681427002e-02,1.509681642055511475e-01,-5.390519648790359497e-02,-1.440027058124542236e-01,3.445407608523964882e-03,2.570583950728178024e-03,-3.761411178857088089e-03,-1.263114660978317261e-01,2.761902101337909698e-02,-1.030010581016540527e-01,-8.517234586179256439e-03,-2.473241277039051056e-02,-2.442687749862670898e-02,6.292986124753952026e-02,1.137680113315582275e-01,-4.628338292241096497e-02,-7.235258072614669800e-02,-1.286633461713790894e-01,-6.379305571317672729e-02,6.185064557939767838e-04,1.542893201112747192e-01,-9.998691268265247345e-03,2.606108970940113068e-02,1.335934400558471680e-01,5.809663236141204834e-02,2.007988691329956055e-01,1.235160678625106812e-01,-9.166756272315979004e-02,-3.183081373572349548e-02,-3.137070313096046448e-02,3.630970045924186707e-02,-1.332029551267623901e-01,-1.028086990118026733e-01,1.246307045221328735e-01,4.770601913332939148e-02,1.884490810334682465e-02,5.579450353980064392e-02,-5.342201143503189087e-02,-2.878929302096366882e-02,8.216352015733718872e-02,1.310684233903884888e-01,-8.678475022315979004e-02,-1.231864001601934433e-02,1.126598194241523743e-01,-5.609339103102684021e-02,4.691928252577781677e-02,-5.887667089700698853e-02,-1.002910733222961426e-02,4.821733757853507996e-02,2.451734840869903564e-01,9.829508513212203979e-02,-9.859953820705413818e-02,3.860939294099807739e-02,-4.732337221503257751e-02,5.061380937695503235e-02,-7.845119386911392212e-02,5.594407767057418823e-02,8.084997534751892090e-02,-7.031699270009994507e-02,7.014963775873184204e-02,-2.201117761433124542e-02,1.136963367462158203e-01,5.361142568290233612e-03,4.956687614321708679e-02,5.138209089636802673e-02,8.886778354644775391e-02,-4.672426730394363403e-03,-2.772872708737850189e-02,7.208698242902755737e-02,-1.165843196213245392e-02,-4.898466542363166809e-02,-3.453844413161277771e-02,1.242877170443534851e-02,4.479889571666717529e-02,6.633412837982177734e-02,2.764427661895751953e-02,-6.599251925945281982e-02,-2.080171741545200348e-02,7.749982923269271851e-02,-1.062706462107598782e-03,-7.536535710096359253e-02,1.091093849390745163e-02,4.115743562579154968e-02,-2.359564043581485748e-02,1.233843266963958740e-01,9.083215147256851196e-02,1.221509873867034912e-01,1.517647206783294678e-01,-1.147734075784683228e-01,-1.786598120816051960e-03,-3.362448140978813171e-02,-7.470157742500305176e-02,-2.461353316903114319e-02,-7.653114199638366699e-02,-2.886705286800861359e-02,-1.846747286617755890e-02,4.113707691431045532e-02,-1.225500479340553284e-01,-2.610503137111663818e-02,9.047087281942367554e-02,1.983179524540901184e-02,-4.165208339691162109e-02,-1.116885021328926086e-01,1.626463979482650757e-02,-2.014147117733955383e-02,-5.101082473993301392e-02,7.049844134598970413e-03,-1.314460672438144684e-02,6.273938715457916260e-02,1.315322965383529663e-01,8.269770070910453796e-03,2.352788299322128296e-02,-6.506048142910003662e-02,3.074673376977443695e-02,-8.420193195343017578e-02,-9.566140361130237579e-03,-8.137495256960391998e-03,-1.118893362581729889e-02,5.306739732623100281e-02,-1.066015660762786865e-01,-2.019262639805674553e-03,-1.044921651482582092e-01,-1.112422905862331390e-02
8.445985615253448486e-03,6.902317050844430923e-03,-9.121011942625045776e-02,7.567023485898971558e-02,-1.015722751617431641e-01,2.299756184220314026e-02,-1.068382989615201950e-02,8.587489277124404907e-02,4.136665165424346924e-02,5.437232553958892822e-02,1.236733123660087585e-01,1.001605838537216187e-01,-4.560320079326629639e-02,-1.314079314470291138e-01,-1.963399117812514305e-03,1.789651364088058472e-01,6.040324270725250244e-02,2.467728033661842346e-02,-1.294072158634662628e-02,5.591800063848495483e-02,8.614835888147354126e-02,6.627653539180755615e-02,-2.491732090711593628e-01,-8.834750950336456299e-02,-8.789180964231491089e-02,-1.235716789960861206e-01,6.441076099872589111e-02,-2.741494216024875641e-02,3.519926592707633972e-02,-2.564963884651660919e-02,-1.028583720326423645e-01,-1.368490904569625854e-01,-1.440647542476654053e-01,-4.446641355752944946e-02,-1.285502165555953979e-01,-1.190232485532760620e-02,-5.662963166832923889e-02,2.619118057191371918e-02,-1.360930800437927246e-01,-2.683917246758937836e-02,-1.825951412320137024e-02,-1.586993783712387085e-01,8.669817447662353516e-02,1.772503554821014404e-01,1.262567966477945447e-04,5.246585980057716370e-02,1.723881438374519348e-02,1.404799614101648331e-02,-1.294076591730117798e-01,-7.950922101736068726e-02,5.940524395555257797e-03,-7.608679682016372681e-02,3.194612637162208557e-02,1.597768217325210571e-01,-1.126681640744209290e-01,3.256675228476524353e-02,-1.859670504927635193e-02,5.213813483715057373e-02,-8.000928908586502075e-02,-2.091687917709350586e-01,-1.043660342693328857e-01,8.164386451244354248e-02,1.032098568975925446e-02,1.049182042479515076e-01,-8.206377923488616943e-02,-1.693364814855158329e-03,6.616293638944625854e-02,-7.470043748617172241e-02,-4.638348147273063660e-02,-6.973629444837570190e-02,-5.121726542711257935e-02,9.446327388286590576e-02,1.042823344469070435e-01,-2.763820439577102661e-02,-2.683873847126960754e-02,-5.102649703621864319e-02,4.465750604867935181e-02,8.333312720060348511e-02,8.724111318588256836e-02,-5.899963527917861938e-02,6.664781272411346436e-02,-1.744315959513187408e-02,1.888870447874069214e-02,-3.548454865813255310e-02,-8.189296722412109375e-02,2.161991968750953674e-02,-2.519945241510868073e-02,-1.654675900936126709e-01,6.691487133502960205e-02,-9.674895554780960083e-02,1.305237412452697754e-01,1.542221009731292725e-01,-9.229933470487594604e-02,1.296466868370771408e-02,-9.125167876482009888e-02,-6.572411209344863892e-02,3.533550351858139038e-02,-9.964632987976074219e-02,1.168655045330524445e-02,-1.045480892062187195e-01,8.323289453983306885e-02,-6.210377812385559082e-02,-6.168359890580177307e-03,-1.353123318403959274e-02,1.379204839468002319e-01,-6.964590400457382202e-02,-7.069227844476699829e-02,1.437898958101868629e-03,3.844999894499778748e-02,8.009151369333267212e-02,3.461912646889686584e-02,2.107652463018894196e-02,-3.698581457138061523e-02,-6.567239016294479370e-02,6.930955499410629272e-02,-1.982716470956802368e-02,-5.098233744502067566e-02,-5.224892124533653259e-02,2.409103326499462128e-02,7.820586115121841431e-02,3.631155937910079956e-02,2.642879821360111237e-02,-1.074227131903171539e-02,-4.152045771479606628e-02,7.801497727632522583e-02,-6.610598880797624588e-03,-2.050087898969650269e-01,2.116253413259983063e-02
1.836937386542558670e-03,1.935561448335647583e-01,-1.081798318773508072e-02,-7.042568176984786987e-02,1.571941561996936798e-02,-9.428296983242034912e-02,1.118997633457183838e-01,7.850826531648635864e-02,3.089074231684207916e-02,-1.595655828714370728e-01,3.103970736265182495e-02,1.496487706899642944e-01,-7.544103264808654785e-02,2.391857467591762543e-02,-3.966110944747924805e-02,-4.193954635411500931e-03,3.476459160447120667e-02,-2.492114529013633728e-02,-2.504051476716995239e-02,9.951322525739669800e-02,-4.669093713164329529e-02,-1.425073761492967606e-02,8.180717378854751587e-02,5.987032130360603333e-02,-6.647919118404388428e-02,5.007435008883476257e-02,1.451694071292877197e-01,-1.271853893995285034e-01,-5.641842260956764221e-02,5.275242403149604797e-02,-9.654365479946136475e-02,-6.025657430291175842e-02,-3.310497151687741280e-03,5.356702953577041626e-02,1.138462573289871216e-01,2.052782662212848663e-02,7.806400954723358154e-02,-7.239451259374618530e-02,4.064355045557022095e-02,-1.536022499203681946e-02,-9.476362727582454681e-03,-3.398641571402549744e-02,3.087854012846946716e-02,-1.090511530637741089e-01,3.157927095890045166e-02,-9.060100466012954712e-02,-2.854947932064533234e-02,1.487880293279886246e-02,-1.436074636876583099e-02,-1.187608465552330017e-01,2.160378918051719666e-02,-4.620773717761039734e-02,2.151567116379737854e-02,-4.929142072796821594e-02,4.686224833130836487e-02,-2.198597602546215057e-02,6.063098087906837463e-02,1.910336874425411224e-02,1.803093589842319489e-02,3.631586581468582153e-02,4.347211495041847229e-02,-4.228743910789489746e-02,-4.360451549291610718e-02,-1.566599160432815552e-01,1.506289839744567871e-02,-6.249368563294410706e-02,-1.066320613026618958e-01,-1.732963025569915771e-01,-4.074762016534805298e-02,-2.189644984900951385e-02,7.791323959827423096e-02,-2.014261484146118164e-02,8.325589448213577271e-02,9.523376077413558960e-02,-1.082046329975128174e-01,-3.312547877430915833e-02,4.179665818810462952e-02,-2.958128042519092560e-02,-4.777559544891119003e-03,1.627036742866039276e-02,-2.516772039234638214e-02,-1.051006931811571121e-02,1.581826061010360718e-01,-1.850008964538574219e-01,-8.293543010950088501e-03,-4.558273032307624817e-02,-1.933567924425005913e-03,-2.670097164809703827e-03,1.051642075181007385e-01,6.832811981439590454e-02,6.572358310222625732e-02,-1.127264425158500671e-01,-3.429652750492095947e-02,1.499599069356918335e-01,-2.358142100274562836e-02,-1.168023794889450073e-01,-1.419223099946975708e-01,3.249913454055786133e-02,-7.384406030178070068e-02,-1.054868027567863464e-01,1.541284918785095215e-01,7.119257748126983643e-02,-2.795590087771415710e-02,6.970851123332977295e-02,-3.969512879848480225e-02,-4.116047173738479614e-02,9.798558801412582397e-02,-1.739889197051525116e-02,-8.759582042694091797e-02,-5.289358645677566528e-02,1.026197522878646851e-01,-7.875464856624603271e-02,-5.948330461978912354e-02,-8.379639685153961182e-02,-5.962655693292617798e-02,1.682694703340530396e-01,6.918857991695404053e-02,6.933569908142089844e-02,1.264613419771194458e-01,5.306053906679153442e-02,-6.676150113344192505e-02,9.413258731365203857e-02,-1.346603315323591232e-02,-3.248541057109832764e-02,2.726803161203861237e-02,6.789560429751873016e-03,5.768327787518501282e-02,2.676188480108976364e-03
-4.659664630889892578e-02,6.102203857153654099e-03,-6.723081693053245544e-03,1.616778224706649780e-01,5.182812362909317017e-02,1.235411092638969421e-01,5.635291337966918945e-03,-2.874828316271305084e-02,1.930989138782024384e-02,7.660351693630218506e-02,-1.118418127298355103e-01,1.093328837305307388e-02,-4.174410551786422729e-02,5.229339003562927246e-02,1.320939660072326660e-01,-1.116057783365249634e-01,-2.594214491546154022e-02,-8.360938727855682373e-02,-2.429588697850704193e-02,3.740089014172554016e-02,-4.871634021401405334e-02,6.450606137514114380e-02,5.347791314125061035e-02,9.297391772270202637e-02,-5.258638411760330200e-02,-5.634501948952674866e-02,1.646772213280200958e-02,-7.349091023206710815e-02,-3.564321622252464294e-02,-6.582978181540966034e-03,7.207284867763519287e-02,-1.534704864025115967e-01,3.480840101838111877e-02,-6.816117465496063232e-02,2.751357294619083405e-02,-2.729959040880203247e-02,-3.663139184936881065e-03,1.251121163368225098e-01,-4.241561144590377808e-02,4.508159309625625610e-02,-4.294008761644363403e-02,-7.418176531791687012e-02,-4.609737079590559006e-03,-8.990639448165893555e-02,5.448234826326370239e-02,-6.625538319349288940e-02,8.143668621778488159e-02,3.313300199806690216e-03,3.198963776230812073e-02,-6.467618048191070557e-02,-1.731858775019645691e-02,-7.953099906444549561e-02,-1.773801073431968689e-02,4.055546596646308899e-02,3.095355816185474396e-02,7.520095910876989365e-03,1.837973017245531082e-03,7.485220581293106079e-02,2.485937066376209259e-02,-8.158128708600997925e-02,4.777781199663877487e-03,1.101123820990324020e-02,5.200592428445816040e-02,-9.323228895664215088e-02,1.299743503332138062e-01,7.199487090110778809e-02,1.621027593500912189e-03,2.956016547977924347e-02,-1.482062321156263351e-02,-5.283006280660629272e-02,-1.192120136693120003e-03,-3.791563212871551514e-02,2.100150886690244079e-04,-7.192197442054748535e-02,-3.738298267126083374e-02,7.236226461827754974e-03,3.261173516511917114e-02,-3.721066191792488098e-02,5.576117336750030518e-02,-5.359223857522010803e-02,1.052433401346206665e-01,-1.472031325101852417e-01,9.260073304176330566e-02,-9.355636686086654663e-02,3.454419970512390137e-02,5.005288124084472656e-02,-6.694070249795913696e-02,1.053167805075645447e-01,-1.007638312876224518e-02,6.429057568311691284e-02,6.627697497606277466e-02,1.322696506977081299e-01,5.473187193274497986e-02,1.352774798870086670e-01,-1.904599368572235107e-02,-3.977619484066963196e-02,1.118725314736366272e-01,4.638611525297164917e-02,4.062308743596076965e-02,2.311757020652294159e-02,6.217724457383155823e-02,8.015635423362255096e-03,-7.796467840671539307e-02,-3.156077582389116287e-03,2.300978265702724457e-02,3.722347319126129150e-02,6.951256841421127319e-02,7.276774197816848755e-02,-1.486691236495971680e-01,2.251694537699222565e-02,-2.218752354383468628e-02,5.623337998986244202e-02,1.174355018883943558e-02,-4.027295112609863281e-02,1.662717387080192566e-02,-2.903112210333347321e-02,-4.894731193780899048e-02,-4.367770254611968994e-02,-5.201212596148252487e-03,9.862938523292541504e-02,-1.301343180239200592e-02,-6.344490498304367065e-02,1.123276650905609131e-01,-5.451505631208419800e-02,-2.814965881407260895e-02,2.535520493984222412e-02,1.828453689813613892e-01,-3.898681327700614929e-02
-1.971036940813064575e-02,-1.100370008498430252e-02,-9.259942919015884399e-02,-4.718862101435661316e-02,-2.205597981810569763e-02,-3.952055796980857849e-02,-3.619479387998580933e-02,4.844216257333755493e-02,-2.225498110055923462e-02,5.678530409932136536e-02,-3.330024331808090210e-02,1.261990331113338470e-02,9.176054596900939941e-02,-2.435586415231227875e-02,9.688707441091537476e-02,-1.479951888322830200e-01,1.760825812816619873e-01,1.296465992927551270e-01,-1.407641358673572540e-02,5.716555751860141754e-03,3.470467031002044678e-02,1.941437460482120514e-02,-1.008259691298007965e-02,-3.879456967115402222e-02,3.826563060283660889e-02,-6.769886706024408340e-03,1.106910556554794312e-01,1.007479950785636902e-01,3.113527595996856689e-02,1.659365557134151459e-02,7.383237034082412720e-02,-1.116742193698883057e-02,8.961307816207408905e-03,8.781173080205917358e-02,8.983086794614791870e-02,2.144279889762401581e-02,6.068939715623855591e-02,-1.408654497936367989e-03,-1.805094443261623383e-02,-3.249494358897209167e-03,1.292552612721920013e-02,-1.666408032178878784e-01,1.694587431848049164e-02,1.083851512521505356e-02,-5.259606987237930298e-03,2.048246003687381744e-02,-2.138907322660088539e-03,7.381727546453475952e-02,3.379662334918975830e-02,1.012905463576316833e-01,-3.172378242015838623e-02,-6.245564296841621399e-02,1.069138105958700180e-02,-9.609917551279067993e-02,-3.688080469146370888e-04,-1.597040519118309021e-02,4.810905084013938904e-03,-7.998222857713699341e-02,-4.059711098670959473e-02,-6.395301222801208496e-02,8.965866267681121826e-02,-6.607419345527887344e-03,1.014263257384300232e-01,-1.879187673330307007e-02,-3.344419598579406738e-02,-2.725492045283317566e-02,-9.741448797285556793e-03,-1.551263686269521713e-02,1.116558238863945007e-01,-1.486396789550781250e-01,4.933405667543411255e-03,-2.529484964907169342e-02,2.894431911408901215e-02,-1.445919089019298553e-02,-2.042208798229694366e-02,-3.441938385367393494e-02,-5.145532265305519104e-02,3.042720817029476166e-02,7.223276793956756592e-02,5.646625161170959473e-02,-5.687188729643821716e-02,1.863209530711174011e-03,-1.426506089046597481e-03,8.031442761421203613e-03,6.744346767663955688e-02,-9.524112939834594727e-02,3.004981391131877899e-02,7.130280882120132446e-02,4.543553292751312256e-02,6.462962925434112549e-02,-1.025798097252845764e-01,2.512580901384353638e-02,1.191044896841049194e-01,6.256768852472305298e-02,5.009534209966659546e-02,-2.394406311213970184e-02,-9.413677453994750977e-02,-6.067199166864156723e-03,-1.145806685090065002e-01,6.337793171405792236e-02,8.277032524347305298e-03,1.266535278409719467e-02,-2.912391163408756256e-02,2.304143272340297699e-02,2.455542236566543579e-02,-1.868362165987491608e-02,-3.218275681138038635e-02,5.712809413671493530e-02,-9.587848186492919922e-02,3.174577653408050537e-02,4.819823428988456726e-02,-6.770035624504089355e-02,7.393552362918853760e-02,6.289648264646530151e-02,5.549466237425804138e-02,-3.647025674581527710e-03,7.284457236528396606e-02,-4.518482461571693420e-02,-4.795936867594718933e-02,-5.080593284219503403e-03,3.651655837893486023e-02,1.575893140397965908e-03,9.997975826263427734e-02,-5.608860403299331665e-02,7.573745399713516235e-02,9.543072432279586792e-03,-4.129396751523017883e-02,-1.078636851161718369e-02
1.189070120453834534e-01,-3.740346804261207581e-02,-1.421217527240514755e-02,6.803632527589797974e-02,-1.538631618022918701e-01,-1.921635493636131287e-02,-8.222294598817825317e-02,-1.843170970678329468e-01,-1.043320819735527039e-02,-7.353393733501434326e-02,5.283149704337120056e-02,3.358078375458717346e-02,6.237132474780082703e-02,-7.291018962860107422e-02,-8.957626298069953918e-03,6.055714935064315796e-02,-1.638114452362060547e-01,-8.453286439180374146e-02,-1.088321581482887268e-01,-3.099682927131652832e-02,4.084795713424682617e-02,3.397103399038314819e-02,8.835075050592422485e-02,-3.941353876143693924e-03,4.149072265136055648e-05,-9.589337743818759918e-03,-3.405649960041046143e-02,3.095179563388228416e-03,-6.346994638442993164e-02,1.465214192867279053e-01,3.570899739861488342e-02,5.874123424291610718e-02,6.718818098306655884e-02,8.360438793897628784e-02,6.032826751470565796e-02,-8.063180744647979736e-02,-3.737003356218338013e-02,-6.568057090044021606e-02,-3.259073197841644287e-02,-3.167711198329925537e-02,-4.253409057855606079e-02,-5.665224045515060425e-02,-1.401211484335362911e-03,-7.215211540460586548e-02,6.989259272813796997e-02,-2.536006085574626923e-02,-3.027668595314025879e-02,-1.147670373320579529e-01,-1.714397221803665161e-02,1.302372664213180542e-02,4.289706423878669739e-02,1.331725716590881348e-01,-1.724804565310478210e-02,-3.327322378754615784e-02,-4.258439317345619202e-02,-6.037218868732452393e-02,2.755025774240493774e-02,-5.661608651280403137e-02,3.747087030205875635e-04,7.908394187688827515e-02,-6.860624998807907104e-02,-7.085628062486648560e-02,-2.256878837943077087e-02,-2.707696519792079926e-02,-1.384604722261428833e-03,2.323683910071849823e-02,1.212489139288663864e-02,8.400081098079681396e-02,-3.529481962323188782e-02,-8.561189472675323486e-02,-2.007103525102138519e-02,1.771782524883747101e-02,2.688589505851268768e-03,9.440604597330093384e-03,-4.729798063635826111e-02,-2.342166379094123840e-02,-3.042145818471908569e-02,-1.236339844763278961e-02,-5.135908722877502441e-02,-1.541529968380928040e-02,7.092229556292295456e-03,-2.454140968620777130e-02,3.080728929489850998e-03,9.987790882587432861e-02,3.041658177971839905e-02,3.974466398358345032e-02,-9.937793016433715820e-02,-6.140528991818428040e-02,-6.427281536161899567e-03,8.151791989803314209e-02,7.858204841613769531e-02,6.853464990854263306e-02,-9.960955008864402771e-03,-2.795197628438472748e-02,1.946647278964519501e-02,-3.130745142698287964e-02,-6.479892134666442871e-02,9.468980878591537476e-02,-9.662614017724990845e-02,6.832614541053771973e-02,3.390459809452295303e-03,8.677852153778076172e-02,-6.049395725131034851e-02,-3.994398191571235657e-02,2.026061154901981354e-02,-6.937414407730102539e-02,4.609100148081779480e-02,2.929767407476902008e-02,3.211289271712303162e-02,-3.014193847775459290e-02,1.729731261730194092e-02,-2.671360969543457031e-02,2.504590339958667755e-02,6.009619683027267456e-03,-7.545534521341323853e-02,3.787430701777338982e-03,3.602283820509910583e-02,2.927671931684017181e-02,1.043135672807693481e-01,-2.350102178752422333e-02,9.170043468475341797e-02,-1.183392032980918884e-01,-1.070935279130935669e-01,-4.245543852448463440e-02,-6.450027972459793091e-02,3.449875488877296448e-02,9.037738293409347534e-02,-7.917072623968124390e-02
-4.559345543384552002e-02,-1.106376349925994873e-01,2.125345915555953979e-02,-1.035813391208648682e-01,-1.687373369932174683e-01,-9.633129090070724487e-02,-1.494988501071929932e-01,9.692572802305221558e-02,-1.056067124009132385e-01,9.437379240989685059e-02,-3.779476508498191833e-02,1.377710700035095215e-02,5.322442203760147095e-02,-1.045271828770637512e-01,-5.247663706541061401e-03,-4.173117876052856445e-02,-2.250826209783554077e-01,-1.131802052259445190e-02,2.611510455608367920e-02,-4.075710661709308624e-03,-4.338056594133377075e-02,-9.994181990623474121e-02,7.223658263683319092e-02,8.109392970800399780e-02,-1.347211897373199463e-01,-1.472841948270797729e-01,1.105452179908752441e-01,7.174113392829895020e-02,1.472534835338592529e-01,1.263998895883560181e-01,1.152962148189544678e-01,2.698372304439544678e-02,-3.433556854724884033e-02,-9.256590902805328369e-02,1.135442033410072327e-02,-5.429256334900856018e-02,-6.697337329387664795e-02,8.604551665484905243e-03,-3.614958375692367554e-02,1.831607520580291748e-01,9.711699187755584717e-02,-5.700353533029556274e-02,-6.583345681428909302e-02,1.734335869550704956e-01,1.155532747507095337e-01,-1.166237294673919678e-01,6.694967299699783325e-02,-4.252181202173233032e-02,6.025122851133346558e-02,1.478551235049962997e-02,-1.549474149942398071e-01,5.054435506463050842e-02,-3.984985128045082092e-02,5.160962417721748352e-02,-2.915323525667190552e-02,2.806912735104560852e-02,-4.524941742420196533e-02,5.035933479666709900e-02,-3.435473144054412842e-02,1.687651276588439941e-01,-8.169783651828765869e-02,-1.580001264810562134e-01,-5.462954752147197723e-03,-8.649275451898574829e-02,-1.886238530278205872e-02,-7.799212634563446045e-02,-7.395561039447784424e-02,-3.582557663321495056e-02,-1.783813908696174622e-02,5.608056113123893738e-02,5.826563760638237000e-02,-1.096719279885292053e-01,7.467265427112579346e-02,-6.844281405210494995e-02,-1.843922189436852932e-03,-3.740420192480087280e-02,-2.942068688571453094e-02,-2.271626330912113190e-02,-8.069684356451034546e-02,-7.473485916852951050e-02,6.274604704231023788e-03,-7.564042508602142334e-02,-6.769191473722457886e-02,-3.168043121695518494e-02,5.622763559222221375e-02,1.328188460320234299e-02,-2.344997413456439972e-02,4.552383348345756531e-02,-1.850119605660438538e-02,-5.981496721506118774e-02,-9.762144088745117188e-02,5.409853532910346985e-02,-4.304162785410881042e-02,-7.511968910694122314e-02,-9.714058786630630493e-02,-1.700713485479354858e-02,4.710426181554794312e-02,3.059768676757812500e-02,-4.334842786192893982e-02,-6.728480011224746704e-02,2.173324581235647202e-03,-3.705763816833496094e-02,-1.093437448143959045e-01,-1.656115241348743439e-02,-1.247852593660354614e-01,6.628070026636123657e-02,1.012666970491409302e-01,1.285535842180252075e-01,6.043576076626777649e-02,4.997970536351203918e-02,-4.472934827208518982e-02,1.481522526592016220e-02,1.743775047361850739e-02,4.572031646966934204e-02,4.105919227004051208e-02,3.420422598719596863e-02,2.218321338295936584e-02,8.339273929595947266e-02,3.195284307003021240e-02,-4.174374788999557495e-02,-1.341806650161743164e-01,8.640436083078384399e-02,7.657358795404434204e-02,1.048571839928627014e-01,-6.423443555831909180e-02,-1.037380695343017578e-01,-5.860969796776771545e-02,-1.470251288264989853e-02
-7.220431417226791382e-02,6.834413111209869385e-02,-4.082594066858291626e-02,1.759769171476364136e-01,6.308434903621673584e-02,-5.424746125936508179e-02,-1.839940249919891357e-01,-1.263085752725601196e-01,-7.086718082427978516e-02,2.384346351027488708e-02,-4.045621305704116821e-02,1.332694739103317261e-01,-3.327644616365432739e-02,2.690205909311771393e-02,7.322367280721664429e-02,-1.502212230116128922e-02,1.420019194483757019e-02,-3.191700950264930725e-02,8.184371888637542725e-02,1.012701541185379028e-01,1.016568839550018311e-01,2.486269921064376831e-02,-1.546255648136138916e-01,1.015600562095642090e-01,-6.155503913760185242e-02,2.584716305136680603e-02,-1.675990372896194458e-01,1.088321581482887268e-01,-1.074871048331260681e-01,6.752955913543701172e-02,8.398874849081039429e-02,-1.276009436696767807e-02,1.081342846155166626e-01,9.203641861677169800e-02,-4.333296045660972595e-02,4.998025670647621155e-02,-1.139450147747993469e-01,-1.705402694642543793e-02,-1.177901774644851685e-01,-1.313473656773567200e-02,1.280664950609207153e-01,2.589069120585918427e-02,5.240917578339576721e-02,-6.157893687486648560e-02,3.037283755838871002e-02,-8.765968680381774902e-02,2.063630893826484680e-02,-1.095101609826087952e-02,5.502192676067352295e-02,1.397452205419540405e-01,4.436476901173591614e-02,-2.525442105252295732e-04,5.799579899758100510e-03,-1.331019848585128784e-01,7.792488485574722290e-02,-1.896390169858932495e-01,7.012822479009628296e-02,6.369266659021377563e-02,-4.134166985750198364e-02,-2.422145381569862366e-02,1.037876605987548828e-01,-2.784965373575687408e-02,7.625273615121841431e-02,1.319654099643230438e-02,-1.894186995923519135e-02,5.653040017932653427e-03,-9.992104768753051758e-02,-5.179200693964958191e-02,-5.256992764770984650e-03,-1.234580483287572861e-02,-1.083166450262069702e-01,3.214544802904129028e-02,2.590960077941417694e-02,-2.170105464756488800e-02,1.488819122314453125e-01,-1.178171038627624512e-01,3.422067686915397644e-02,1.783175393939018250e-02,1.394488289952278137e-02,2.412362396717071533e-02,-9.105378389358520508e-02,-7.911931723356246948e-03,-6.371875107288360596e-02,-1.154686510562896729e-01,4.824192076921463013e-02,-7.093871384859085083e-02,8.739479631185531616e-02,-4.689892753958702087e-02,9.515643864870071411e-02,3.027713298797607422e-02,1.764713972806930542e-01,4.183855280280113220e-02,-4.026737809181213379e-02,-8.540498465299606323e-02,5.388335883617401123e-02,-8.475913666188716888e-03,-9.844645112752914429e-02,-3.343340009450912476e-02,-1.003612801432609558e-01,-6.229860335588455200e-02,1.130000427365303040e-01,7.530416548252105713e-02,-1.351946126669645309e-02,4.536822065711021423e-02,8.206821233034133911e-02,1.565956622362136841e-01,-2.000583708286285400e-02,7.082813885062932968e-03,1.470380276441574097e-02,-6.875101476907730103e-02,-2.937316894531250000e-02,-6.371705234050750732e-02,-7.401005178689956665e-02,-1.702937483787536621e-02,-3.415406867861747742e-02,-5.963600054383277893e-02,-1.044997125864028931e-01,-2.930933237075805664e-02,-1.664315722882747650e-02,-2.174795605242252350e-02,-1.043086498975753784e-01,-9.810403734445571899e-02,4.531883168965578079e-03,-3.499885648488998413e-02,2.131322957575321198e-02,-1.723036766052246094e-01,-1.733081229031085968e-02,-4.595139250159263611e-02
-8.509650081396102905e-02,-6.120690330862998962e-02,-6.887389346957206726e-03,4.316027462482452393e-02,-1.046665478497743607e-02,-6.973983347415924072e-02,2.067140676081180573e-02,3.515022248029708862e-02,-4.791235551238059998e-02,-8.350233733654022217e-02,4.754326120018959045e-02,1.604868844151496887e-02,1.300283428281545639e-02,-3.497241437435150146e-02,-5.230874940752983093e-02,-1.210041940212249756e-01,-8.020357042551040649e-02,-4.842468071728944778e-03,5.920574814081192017e-02,-1.204343326389789581e-02,2.488075755536556244e-02,-3.869989514350891113e-02,-7.958760112524032593e-02,2.820320427417755127e-02,4.813057556748390198e-02,4.571184515953063965e-02,-1.162083074450492859e-02,5.929676815867424011e-02,-2.700761519372463226e-02,-3.774152696132659912e-02,-3.635965287685394287e-02,-7.172441482543945312e-02,3.493779152631759644e-02,-3.306325897574424744e-02,6.159070134162902832e-02,7.117088139057159424e-02,-7.778695970773696899e-02,-3.717149794101715088e-02,-7.742605172097682953e-03,9.538037329912185669e-02,5.119823664426803589e-02,8.684610947966575623e-04,5.882151424884796143e-02,2.455344982445240021e-02,-2.614963240921497345e-02,4.625269677489995956e-03,-5.687958095222711563e-03,6.896878033876419067e-02,4.152608662843704224e-02,-8.277671039104461670e-02,7.799353450536727905e-02,-1.618414558470249176e-02,-5.985978245735168457e-02,-8.844873867928981781e-03,-7.014628499746322632e-03,-4.680617898702621460e-02,5.042013898491859436e-02,-8.646380156278610229e-02,4.388444125652313232e-02,-1.670534908771514893e-02,4.461330175399780273e-02,-8.395757526159286499e-02,7.867575436830520630e-02,1.813198439776897430e-02,-3.047612681984901428e-02,1.007172614336013794e-01,-7.729582488536834717e-02,7.587060332298278809e-02,-4.236644133925437927e-02,-7.953830063343048096e-02,1.599552854895591736e-02,-1.080226432532072067e-02,2.278841100633144379e-03,-3.105996735394001007e-02,-1.562125384807586670e-01,2.614045143127441406e-02,-4.933098331093788147e-02,-7.541431486606597900e-02,6.918033119291067123e-03,4.371069371700286865e-02,6.548052281141281128e-02,-4.044194519519805908e-02,7.683501392602920532e-02,-2.136888951063156128e-01,-3.467646613717079163e-02,-1.409153454005718231e-02,-3.226583823561668396e-02,7.552015036344528198e-02,-3.564956039190292358e-02,-1.885846070945262909e-02,-1.010291557759046555e-02,-2.505432441830635071e-02,-4.481175169348716736e-02,-3.273988142609596252e-02,-9.639866650104522705e-03,6.269001215696334839e-02,1.015418916940689087e-01,1.057471241801977158e-02,-1.849822327494621277e-02,-1.129581779241561890e-02,2.023228257894515991e-02,6.295522302389144897e-02,-5.394760891795158386e-02,-1.141034364700317383e-01,-3.310473635792732239e-02,-8.252288401126861572e-02,9.108105301856994629e-02,-7.405910640954971313e-02,9.311078488826751709e-02,-9.559537470340728760e-02,-4.766908288002014160e-02,2.912750653922557831e-02,5.603297427296638489e-02,7.716122269630432129e-02,6.576240807771682739e-02,-2.067498676478862762e-02,-5.805670842528343201e-02,1.343449801206588745e-01,2.617311663925647736e-02,-1.220916733145713806e-01,-7.543569896370172501e-03,5.927916988730430603e-02,-3.489721938967704773e-02,-3.310789912939071655e-02,6.997376680374145508e-02,-7.359115406870841980e-03,-2.195723354816436768e-02,2.218069136142730713e-02
-8.452832698822021484e-02,-9.731896221637725830e-03,7.733202725648880005e-02,-4.282286763191223145e-02,5.310895293951034546e-02,6.794757395982742310e-02,-5.225527100265026093e-03,1.810861565172672272e-02,-2.125005237758159637e-03,2.756259404122829437e-02,3.953072428703308105e-02,-6.555886566638946533e-02,7.377593219280242920e-02,-7.936593890190124512e-02,5.758421495556831360e-02,1.357419695705175400e-02,-3.766737133264541626e-02,-1.792090758681297302e-02,1.362929679453372955e-02,-9.076885879039764404e-03,-1.396479755640029907e-01,4.294935986399650574e-02,-9.982582926750183105e-02,1.524180918931961060e-02,-7.230933010578155518e-02,-2.748236432671546936e-02,-1.173071786761283875e-01,2.152205444872379303e-03,-1.347651425749063492e-02,6.250768899917602539e-02,2.207578159868717194e-03,-2.818612009286880493e-02,-5.923982709646224976e-02,-3.247063606977462769e-02,1.102835014462471008e-01,-8.772463537752628326e-03,-5.633074324578046799e-03,-3.167613875120878220e-03,6.643382459878921509e-02,-4.255848005414009094e-02,-1.380214542150497437e-01,-2.738514449447393417e-03,8.098012208938598633e-02,6.946126371622085571e-02,-1.059208735823631287e-01,2.219320461153984070e-02,-1.597796380519866943e-01,-9.099585562944412231e-02,-6.464038975536823273e-03,-7.913542538881301880e-02,6.790242344141006470e-02,1.259532719850540161e-01,-5.535786971449851990e-03,-2.763875387609004974e-02,7.994834333658218384e-02,-1.280095875263214111e-01,4.231874831020832062e-03,-8.510528504848480225e-02,3.275505453348159790e-02,3.764361515641212463e-02,-1.488785818219184875e-02,-3.451344370841979980e-02,-1.045645177364349365e-01,-2.299773320555686951e-02,5.154192447662353516e-02,-5.735815688967704773e-02,4.673252627253532410e-02,8.058635890483856201e-02,1.082971319556236267e-01,1.202652975916862488e-01,-7.804635912179946899e-02,5.940822884440422058e-02,9.545008093118667603e-02,-5.863277241587638855e-02,2.976080030202865601e-02,-4.750902205705642700e-02,2.007795497775077820e-03,-1.131316530518233776e-03,-4.811086226254701614e-03,-9.161851555109024048e-02,1.726382412016391754e-02,-5.342204589396715164e-03,-5.504129920154809952e-03,-1.250735204666852951e-02,-2.583449706435203552e-02,1.440821588039398193e-01,8.307378739118576050e-02,6.094156578183174133e-02,-3.933664038777351379e-02,-2.614101208746433258e-02,-2.134034968912601471e-02,-2.293570199981331825e-03,3.793286904692649841e-02,6.659856438636779785e-02,-4.820481315255165100e-02,-5.964212492108345032e-02,-3.167214244604110718e-02,-2.243543863296508789e-01,4.876912012696266174e-02,9.106563404202461243e-03,-1.090784929692745209e-02,3.051512502133846283e-02,-9.544745087623596191e-02,-1.287269219756126404e-02,-1.110395789146423340e-02,-4.146370291709899902e-02,6.877658516168594360e-02,2.619387954473495483e-02,8.641075342893600464e-02,9.304385632276535034e-02,2.290370687842369080e-02,5.355289950966835022e-02,3.011793270707130432e-02,-6.902738660573959351e-02,-8.719458244740962982e-03,6.857713311910629272e-02,-2.138955891132354736e-02,1.861806213855743408e-02,-1.009032577276229858e-01,-6.075743213295936584e-02,7.247201353311538696e-02,2.056854777038097382e-02,4.880427569150924683e-02,-1.028794124722480774e-01,-2.211977168917655945e-02,9.602439403533935547e-02,3.001857735216617584e-02,-1.039884909987449646e-01
9.256977587938308716e-03,8.987271040678024292e-02,-7.925946265459060669e-02,5.260518565773963928e-02,-3.765991702675819397e-02,-1.304394900798797607e-01,5.258446559309959412e-02,-8.865887671709060669e-02,8.582840114831924438e-02,1.111586540937423706e-01,-2.455247938632965088e-01,-1.555348187685012817e-01,1.096944361925125122e-01,2.260775268077850342e-01,4.747788480017334223e-04,-9.097256697714328766e-03,-2.165343426167964935e-02,4.363560304045677185e-02,5.636808276176452637e-02,2.855832874774932861e-02,-1.417042165994644165e-01,-6.803666055202484131e-02,6.384812295436859131e-02,1.630760878324508667e-01,-2.430495433509349823e-02,3.926049452275037766e-03,5.545356869697570801e-02,-5.802113935351371765e-02,-1.228015050292015076e-01,-1.381746381521224976e-01,-2.570621855556964874e-02,5.112605541944503784e-02,-3.245592862367630005e-02,3.780228644609451294e-02,9.841900318861007690e-02,2.139405719935894012e-02,-4.329875856637954712e-02,1.214105356484651566e-02,-4.282190278172492981e-02,7.147344201803207397e-02,2.839386463165283203e-02,-1.078481450676918030e-01,-2.170337438583374023e-01,2.131287157535552979e-01,1.636162102222442627e-01,9.940876811742782593e-02,-3.640756011009216309e-02,-1.253909314982593060e-03,-9.072040021419525146e-02,3.067012503743171692e-02,-1.043389365077018738e-01,8.122526109218597412e-02,-1.650884188711643219e-02,1.679271012544631958e-01,-4.467787966132164001e-02,-6.615473330020904541e-02,3.739812597632408142e-02,-1.243995428085327148e-01,2.673856168985366821e-02,-5.638195946812629700e-02,-6.428682804107666016e-02,5.564574524760246277e-02,7.383695989847183228e-02,-1.096883229911327362e-02,-3.262206912040710449e-02,-2.877870388329029083e-02,-4.831732809543609619e-02,-6.136461347341537476e-02,-5.339914560317993164e-02,9.549449896439909935e-04,-9.714254736900329590e-02,-3.379772976040840149e-02,5.976791679859161377e-02,3.155994042754173279e-02,1.095764338970184326e-01,4.553166031837463379e-02,1.358530018478631973e-03,1.396080702543258667e-01,4.992092773318290710e-02,-3.091495297849178314e-02,6.586411595344543457e-02,1.058328673243522644e-01,4.610496573150157928e-03,3.789773210883140564e-02,-1.036951988935470581e-01,4.402662441134452820e-02,-4.807222262024879456e-02,4.098319634795188904e-02,9.554307162761688232e-02,1.692965743131935596e-03,-2.112855762243270874e-02,2.236181870102882385e-02,5.106996744871139526e-02,-1.630864851176738739e-02,5.911452323198318481e-02,-2.547307685017585754e-02,4.009902849793434143e-02,3.856744244694709778e-02,3.229234740138053894e-02,1.014143824577331543e-01,-8.369331061840057373e-02,-5.080047994852066040e-04,-5.640007555484771729e-02,-2.503354661166667938e-02,6.874773651361465454e-02,-2.347826361656188965e-01,-1.843271777033805847e-02,-1.300767995417118073e-02,7.300567347556352615e-03,4.522284865379333496e-02,3.850794956088066101e-02,-4.170919954776763916e-02,2.564396895468235016e-02,-4.430409148335456848e-02,-9.463814646005630493e-02,-7.650808896869421005e-03,2.883806265890598297e-02,1.312179416418075562e-01,4.446443635970354080e-03,-9.103330969810485840e-02,-6.920189410448074341e-02,3.599449992179870605e-03,-3.987225517630577087e-02,9.930748492479324341e-02,5.161882936954498291e-02,3.065811656415462494e-02,5.083942413330078125e-02,-3.335302323102951050e-02
5.255910754203796387e-02,-6.900741904973983765e-02,-4.730984568595886230e-02,-2.432532375678420067e-03,1.606994867324829102e-02,-1.344177424907684326e-01,-6.948322802782058716e-02,3.148335218429565430e-02,4.815097153186798096e-02,1.687944680452346802e-02,5.699276179075241089e-02,-6.051649525761604309e-02,-4.410417005419731140e-02,-4.145861789584159851e-02,-1.111907586455345154e-01,7.004407793283462524e-02,-4.471383243799209595e-02,3.272369876503944397e-02,5.112903565168380737e-02,3.805680572986602783e-02,4.613087698817253113e-02,4.541235044598579407e-02,-6.060201674699783325e-02,5.986432731151580811e-02,-5.773836746811866760e-02,-2.721320278942584991e-02,-5.816077440977096558e-02,8.397710509598255157e-03,1.255174167454242706e-02,3.375808522105216980e-02,-3.945847600698471069e-02,-1.124065718613564968e-03,-4.597976058721542358e-02,7.324180752038955688e-02,4.885469749569892883e-02,-9.763996303081512451e-02,-2.437235228717327118e-02,6.044734641909599304e-02,-3.135212883353233337e-02,1.689254189841449261e-03,-5.607005674391984940e-03,9.314859658479690552e-02,-9.876067191362380981e-02,-5.013480782508850098e-02,-1.072498317807912827e-02,-1.637665331363677979e-01,-6.515422137454152107e-04,-2.190533094108104706e-02,3.697097674012184143e-02,7.810623198747634888e-02,-8.426160365343093872e-02,8.740790071897208691e-04,-5.226270854473114014e-02,-2.720764093101024628e-02,-4.636982921510934830e-03,-6.690173596143722534e-02,-1.310023963451385498e-01,1.143563464283943176e-01,-1.769997924566268921e-02,6.630788557231426239e-03,3.856417909264564514e-02,1.333210170269012451e-01,1.154916826635599136e-02,8.379572629928588867e-02,-7.635480910539627075e-02,7.414647191762924194e-02,-2.673477865755558014e-02,3.990301920566707850e-04,-4.361533373594284058e-02,3.540200740098953247e-02,3.606602549552917480e-02,1.266753673553466797e-01,-5.067661777138710022e-02,2.047719992697238922e-02,-3.551337495446205139e-02,4.004362970590591431e-02,5.636583268642425537e-02,6.529833376407623291e-02,-5.314657464623451233e-02,7.547700405120849609e-02,3.952585533261299133e-02,1.840686611831188202e-02,-1.391388848423957825e-02,-4.327898100018501282e-02,-1.433980092406272888e-02,3.979934006929397583e-02,-2.176752313971519470e-02,6.373077630996704102e-03,-3.040580824017524719e-02,1.637054979801177979e-02,-1.534120589494705200e-01,-5.891416221857070923e-02,6.067357212305068970e-02,-3.993782773613929749e-02,-4.162594676017761230e-02,-3.894549980759620667e-02,-4.924721643328666687e-02,6.925862282514572144e-02,-5.028319358825683594e-02,5.972053855657577515e-03,-5.022698547691106796e-03,3.419176861643791199e-02,3.340918570756912231e-02,-8.392465114593505859e-02,4.697758704423904419e-02,-5.752315744757652283e-02,-8.548161387443542480e-02,2.949729934334754944e-02,7.427452504634857178e-02,9.870227426290512085e-02,-1.048642303794622421e-02,3.095590136945247650e-02,3.938592597842216492e-02,6.203810870647430420e-02,4.292063787579536438e-02,8.827470988035202026e-02,-7.525913417339324951e-02,-5.638149008154869080e-02,-8.069333434104919434e-02,8.559566736221313477e-02,-6.032156571745872498e-02,-1.060869768261909485e-01,1.745849847793579102e-01,-4.020697996020317078e-02,1.248819828033447266e-01,-8.452397771179676056e-03,-4.082375671714544296e-03,1.950415782630443573e-02
5.527850985527038574e-02,1.394839286804199219e-01,1.677196659147739410e-02,3.100272826850414276e-02,-3.011820837855339050e-02,-4.179923236370086670e-02,8.863480389118194580e-02,-1.176114310510456562e-03,1.049711834639310837e-02,7.824068889021873474e-03,-1.169060692191123962e-01,-3.985668066889047623e-03,-2.079212106764316559e-03,-2.080650031566619873e-01,-2.076508402824401855e-01,-8.526010438799858093e-03,1.515339463949203491e-01,8.018779009580612183e-02,1.118018925189971924e-01,4.689095169305801392e-02,-7.339758798480033875e-03,-5.311519838869571686e-03,-9.146711230278015137e-02,-2.134636193513870239e-01,8.766300976276397705e-02,-3.562770725693553686e-04,1.001857221126556396e-01,-3.995734453201293945e-02,4.526635259389877319e-02,-2.634739875793457031e-02,1.563495025038719177e-02,7.821038365364074707e-02,1.424834430217742920e-01,5.902342125773429871e-02,-9.804320335388183594e-02,1.191957518458366394e-01,2.784943580627441406e-02,-8.017919212579727173e-02,-6.216384097933769226e-02,-4.875854775309562683e-02,1.105389371514320374e-01,4.744531214237213135e-02,7.949530333280563354e-02,3.737863153219223022e-02,4.092836380004882812e-02,-2.459315210580825806e-02,-3.914070874452590942e-02,1.225635856389999390e-01,-2.837181650102138519e-02,4.183786362409591675e-02,-1.285756230354309082e-01,7.731680572032928467e-02,-1.348543614149093628e-01,-5.618251487612724304e-02,-1.256815064698457718e-02,-1.315121203660964966e-01,-3.148035705089569092e-02,8.547946810722351074e-02,3.158036619424819946e-02,3.464648872613906860e-02,-3.935802355408668518e-02,4.460479319095611572e-02,-4.302555695176124573e-02,-2.832360914908349514e-04,-5.778265371918678284e-02,-3.522948175668716431e-02,1.175524070858955383e-01,-2.271817624568939209e-02,-4.417340829968452454e-02,4.393550008535385132e-02,-8.115667104721069336e-02,-4.456651583313941956e-02,1.164975836873054504e-01,-2.763986028730869293e-02,3.166266903281211853e-02,1.010796707123517990e-02,1.500145904719829559e-02,1.008189097046852112e-01,-1.315051913261413574e-01,-1.312214601784944534e-02,9.985952824354171753e-02,-9.259942919015884399e-03,-5.075363442301750183e-02,-6.668639928102493286e-02,5.969721078872680664e-02,-9.928390383720397949e-02,1.526059489697217941e-02,1.020232215523719788e-01,-1.471495479345321655e-01,-8.674541115760803223e-02,-6.339333206415176392e-02,9.262341074645519257e-03,8.233217149972915649e-02,-7.348331809043884277e-02,1.684870384633541107e-02,-2.413116861134767532e-03,-1.048488914966583252e-02,-8.991020172834396362e-02,1.060828752815723419e-02,-3.229879215359687805e-02,1.820354349911212921e-02,-8.266689628362655640e-02,-1.407770216464996338e-01,-3.884464129805564880e-02,-9.543121606111526489e-02,-4.040803015232086182e-02,2.224194444715976715e-02,-6.221110373735427856e-02,-2.691906318068504333e-02,-9.439817070960998535e-02,1.323237176984548569e-02,3.440297394990921021e-02,5.551278591156005859e-02,4.927681386470794678e-02,1.508753281086683273e-02,-5.616065487265586853e-02,7.977862842381000519e-03,-1.232437863945960999e-01,-4.302889108657836914e-02,-3.032633662223815918e-02,2.080440707504749298e-02,-4.266542941331863403e-02,-2.282395400106906891e-02,3.596887737512588501e-02,1.889695879071950912e-03,1.566113531589508057e-02,1.665128394961357117e-03,4.096239060163497925e-02
-1.658390611410140991e-01,-7.808468490839004517e-02,-6.384978443384170532e-02,-4.979691468179225922e-03,1.711203753948211670e-01,-7.946588099002838135e-02,-7.011450827121734619e-02,7.147419732064008713e-03,-5.102406442165374756e-02,-7.941289991140365601e-02,3.981819376349449158e-03,2.277690730988979340e-02,1.291325986385345459e-01,2.977794222533702850e-02,6.218327581882476807e-02,3.658674191683530807e-03,1.279155816882848740e-02,-3.506479412317276001e-02,7.767578959465026855e-02,-1.706679910421371460e-02,-1.092987805604934692e-01,-3.124868310987949371e-02,5.512067303061485291e-02,2.672324143350124359e-02,-2.447968721389770508e-02,-5.890904366970062256e-02,7.444319874048233032e-02,-1.471940279006958008e-01,2.891221828758716583e-02,4.312714189291000366e-02,2.695878222584724426e-02,-4.378677159547805786e-02,1.086383014917373657e-01,-6.964349001646041870e-02,4.563255608081817627e-02,1.959265395998954773e-02,8.636835217475891113e-02,-1.804184615612030029e-01,2.900599129498004913e-02,-5.763461440801620483e-02,-1.761635765433311462e-02,-9.131503105163574219e-02,-6.250880658626556396e-02,4.258537199348211288e-03,-6.542336195707321167e-02,3.378962352871894836e-02,1.174343377351760864e-01,1.357127279043197632e-01,7.373966276645660400e-02,6.253547221422195435e-02,-6.480254977941513062e-02,3.913685679435729980e-02,5.741566792130470276e-02,-7.120447605848312378e-02,4.188522323966026306e-02,5.246198922395706177e-02,-1.164329051971435547e-01,-4.385615512728691101e-02,1.932992599904537201e-02,-1.697743684053421021e-02,-1.969652920961380005e-01,4.162491485476493835e-02,-2.812534943222999573e-02,-5.440765619277954102e-02,7.096297573298215866e-03,9.740900993347167969e-02,4.502412304282188416e-02,-6.968833506107330322e-02,-2.364332415163516998e-02,1.589462347328662872e-02,5.118174478411674500e-02,-2.688924781978130341e-02,2.555951103568077087e-02,6.176729127764701843e-02,-5.407069623470306396e-02,-5.659894272685050964e-02,1.015008389949798584e-01,-3.282596170902252197e-02,-9.549253620207309723e-03,9.836926311254501343e-02,-3.627267107367515564e-02,6.920475512742996216e-02,4.115363210439682007e-02,8.004736900329589844e-02,4.401441197842359543e-03,7.469419389963150024e-03,-4.548820666968822479e-03,-2.394476719200611115e-02,-1.887180842459201813e-02,2.624153345823287964e-02,-7.028364390134811401e-02,5.793368816375732422e-02,-1.663029491901397705e-01,-7.505501061677932739e-02,8.755876123905181885e-02,-4.615869373083114624e-02,1.008884236216545105e-01,-2.401795983314514160e-02,1.249893456697463989e-01,-6.598866079002618790e-03,1.890182122588157654e-02,-3.561643883585929871e-02,-5.733189731836318970e-02,-9.859360009431838989e-02,-8.426259737461805344e-04,8.414106070995330811e-02,1.357002109289169312e-01,-4.273972287774085999e-02,-2.314398251473903656e-02,8.626476675271987915e-02,-8.747680112719535828e-04,-7.386158406734466553e-02,7.210031896829605103e-02,6.183695420622825623e-02,-3.915965184569358826e-02,-5.876353010535240173e-02,7.119996100664138794e-02,-9.074361063539981842e-03,8.492210507392883301e-02,1.078054681420326233e-01,9.931178763508796692e-03,-5.142055824398994446e-02,2.223305962979793549e-02,6.197940558195114136e-03,-5.485365912318229675e-02,-3.851605951786041260e-02,3.720669308677315712e-03,-3.431568667292594910e-02
1.741568674333393574e-03,-4.006322473287582397e-02,-1.648705005645751953e-01,-2.146505415439605713e-01,9.542071819305419922e-02,3.791877999901771545e-02,1.000872347503900528e-02,-6.840217858552932739e-02,1.098087951540946960e-01,-8.992151916027069092e-02,9.335674345493316650e-02,-2.226486206054687500e-01,-2.553393505513668060e-02,-5.736073851585388184e-02,1.113533452153205872e-01,1.256503630429506302e-02,4.278464708477258682e-03,1.077967658638954163e-01,6.232278421521186829e-02,-5.311907082796096802e-02,-5.282858014106750488e-02,-5.270682275295257568e-02,-2.123878896236419678e-02,-6.025430280715227127e-03,-9.683796018362045288e-02,6.042715907096862793e-02,-2.728151739574968815e-04,7.155823707580566406e-02,7.562483847141265869e-02,-3.164514899253845215e-02,-9.442511200904846191e-02,3.157590702176094055e-02,1.071462500840425491e-02,-1.836443692445755005e-02,-2.206050157546997070e-01,2.338649705052375793e-02,2.794166840612888336e-02,-5.261430889368057251e-02,-1.223141998052597046e-01,-5.133567750453948975e-02,6.621762365102767944e-02,-1.429601013660430908e-01,6.274292618036270142e-02,2.807737560942769051e-03,-8.499386906623840332e-02,7.211100310087203979e-02,1.065124943852424622e-01,-3.201238065958023071e-02,-1.303467452526092529e-01,-9.892776142805814743e-05,2.082098275423049927e-03,4.814649000763893127e-03,-6.812752783298492432e-02,2.419479191303253174e-01,-3.489013016223907471e-02,1.592136174440383911e-01,1.942578405141830444e-01,1.046294420957565308e-01,9.900669753551483154e-02,5.400793999433517456e-02,1.563509851694107056e-01,-1.906116753816604614e-01,-1.111137345433235168e-01,-9.603653103113174438e-02,7.004161924123764038e-02,8.014225214719772339e-02,-6.074305623769760132e-02,-8.824967592954635620e-02,6.958892196416854858e-02,1.169972121715545654e-02,1.406948566436767578e-01,-3.494001552462577820e-02,-7.411983609199523926e-02,8.973313868045806885e-02,2.726111747324466705e-02,6.805353797972202301e-03,-7.676646113395690918e-02,-6.086998432874679565e-02,-6.742275506258010864e-02,-3.794836997985839844e-02,-1.144437268376350403e-01,5.658479873090982437e-03,-8.645691722631454468e-02,-5.310100317001342773e-02,-3.295261040329933167e-02,-1.193832755088806152e-01,2.166078798472881317e-02,6.178200244903564453e-03,1.498177065514028072e-03,3.584247082471847534e-02,4.495844244956970215e-03,-1.231823861598968506e-01,5.741366744041442871e-02,1.939503662288188934e-02,-1.472657918930053711e-02,-1.614682003855705261e-02,2.730022743344306946e-02,2.968161925673484802e-02,3.972395136952400208e-02,-5.759324133396148682e-02,-5.112854763865470886e-02,-1.050514429807662964e-01,-6.051727756857872009e-02,1.649377867579460144e-02,-5.747867375612258911e-02,5.294437333941459656e-02,-3.171619400382041931e-02,5.541035160422325134e-02,-8.143142610788345337e-02,1.723005771636962891e-01,-3.599568270146846771e-03,-2.440334856510162354e-02,-6.957225501537322998e-02,-8.092317730188369751e-02,1.173505559563636780e-01,1.130001172423362732e-01,7.852227985858917236e-02,5.423537921160459518e-03,9.775362163782119751e-02,3.935141861438751221e-02,-2.134653367102146149e-02,-1.535666640847921371e-02,-1.182363778352737427e-01,1.375286132097244263e-01,2.420246042311191559e-02,-3.517091274261474609e-02,-5.585306510329246521e-02,-2.780999243259429932e-02
