1.208104863762855530e-01
-9.832140989601612091e-03
-2.690190821886062622e-02
-3.764260560274124146e-02
-5.406917259097099304e-02
7.562521845102310181e-02
-2.774994447827339172e-02
-2.132675610482692719e-02
-8.467014878988265991e-02
-9.991594590246677399e-03
-3.227034583687782288e-02
1.678603515028953552e-02
-1.141876727342605591e-01
-3.915286809206008911e-02
-2.652750117704272270e-03
1.403558701276779175e-01
-4.517016187310218811e-02
-4.416500777006149292e-02
-4.661589115858078003e-02
3.787712007761001587e-02
-1.194610912352800369e-02
-1.155438721179962158e-01
-1.946191489696502686e-01
9.542469680309295654e-02
-1.147707849740982056e-01
-3.733880817890167236e-02
-1.075836364179849625e-03
8.692304603755474091e-03
1.947590559720993042e-01
4.637850821018218994e-02
-4.499100148677825928e-02
-7.313314359635114670e-03
-1.483363471925258636e-02
1.060758829116821289e-01
-8.633791469037532806e-03
-6.394430249929428101e-02
1.463906024582684040e-03
-7.079396396875381470e-02
-8.600571006536483765e-02
-8.082332462072372437e-02
5.915427953004837036e-02
5.965092033147811890e-02
4.197841510176658630e-02
-2.265876717865467072e-02
1.637896895408630371e-01
-2.928385324776172638e-02
-1.955749541521072388e-01
4.598248749971389771e-02
7.757203280925750732e-02
-7.322148303501307964e-05
-1.001034006476402283e-01
8.687555789947509766e-02
-7.617021352052688599e-02
-8.883954584598541260e-02
-7.627914100885391235e-02
-2.498655347153544426e-03
8.537067100405693054e-03
7.823426276445388794e-02
-7.214632816612720490e-03
-2.878887765109539032e-02
-5.927615799009799957e-03
-1.569772325456142426e-02
-9.574460983276367188e-02
-1.705626845359802246e-01
5.880805850028991699e-02
6.209434568881988525e-02
5.390444770455360413e-02
1.113108322024345398e-01
-3.325831890106201172e-02
8.809477090835571289e-02
8.405625075101852417e-02
-9.315612167119979858e-02
-4.855719953775405884e-02
9.011107683181762695e-02
2.278041280806064606e-02
6.391017884016036987e-02
-3.476178273558616638e-02
-5.031502991914749146e-02
1.451811939477920532e-01
2.429744303226470947e-01
7.856328785419464111e-02
-1.137318275868892670e-02
-1.712005236186087132e-03
-2.077797651290893555e-01
1.110678464174270630e-01
6.589255295693874359e-03
-9.717570990324020386e-02
1.180017516016960144e-01
-6.255744397640228271e-02
-5.262040346860885620e-02
1.089845374226570129e-01
1.131866574287414551e-01
2.295955643057823181e-02
-1.495492062531411648e-03
9.535907953977584839e-02
-5.486121028661727905e-02
-4.623096808791160583e-02
-8.400500565767288208e-02
-1.102972030639648438e-01
-1.205934658646583557e-01
7.759508211165666580e-03
5.120542272925376892e-02
7.673703879117965698e-02
1.501704603433609009e-01
-2.461013942956924438e-02
-1.150256022810935974e-01
-6.506891548633575439e-02
3.621659800410270691e-02
-1.908845454454421997e-02
-7.996136695146560669e-02
1.731252297759056091e-02
1.266424804925918579e-01
-1.130358800292015076e-01
2.609007619321346283e-02
3.168383240699768066e-02
2.987735345959663391e-02
7.212969008833169937e-03
8.588539808988571167e-02
1.200930848717689514e-01
3.077275119721889496e-02
5.131633207201957703e-02
-1.812892593443393707e-02
-5.800669640302658081e-02
-1.143464148044586182e-01
1.916662901639938354e-01
-2.474083006381988525e-02
5.437829717993736267e-02
-6.723926216363906860e-02
