-3.220038115978240967e-02
4.281325265765190125e-02
-1.524100601673126221e-01
-1.716142296791076660e-01
-4.008249938488006592e-01
2.430447377264499664e-02
8.452345430850982666e-02
-6.801050156354904175e-02
1.499219052493572235e-02
-9.604252129793167114e-02
1.287643909454345703e-01
-1.138905510306358337e-01
-4.388160705566406250e-01
8.950145542621612549e-02
-1.023649498820304871e-01
2.200516164302825928e-01
3.816364407539367676e-01
1.253320723772048950e-01
2.134403437376022339e-01
8.791743963956832886e-02
2.311668097972869873e-01
1.168469786643981934e-01
-9.502264112234115601e-02
2.333734631538391113e-01
2.358469069004058838e-01
-8.229902386665344238e-02
1.027488783001899719e-01
7.351882755756378174e-02
1.223068088293075562e-01
-3.826470375061035156e-01
-7.179829291999340057e-03
-4.201122820377349854e-01
7.811578921973705292e-03
1.150903850793838501e-01
-7.163788378238677979e-02
-3.133461177349090576e-01
-1.331010609865188599e-01
-1.598067879676818848e-01
6.748963892459869385e-02
-1.099196728318929672e-03
-8.121126331388950348e-03
1.313999295234680176e-01
1.006989702582359314e-01
2.986949086189270020e-01
-4.020892679691314697e-01
-4.349169731140136719e-01
1.004561632871627808e-01
-2.260274626314640045e-02
2.211689651012420654e-01
-2.115494459867477417e-01
4.789626691490411758e-03
2.943002879619598389e-01
2.392927557229995728e-01
-2.898771874606609344e-02
-1.484171450138092041e-01
1.606202423572540283e-01
9.704402089118957520e-02
-1.325456351041793823e-01
-1.749610602855682373e-01
-1.425628215074539185e-01
5.192523822188377380e-02
2.591843903064727783e-01
-3.140617907047271729e-01
-4.327868819236755371e-01
-1.045501306653022766e-01
-3.625891506671905518e-01
-1.902503967285156250e-01
-2.802633643150329590e-01
3.511184155941009521e-01
-5.581629928201436996e-03
7.322135567665100098e-02
1.335188895463943481e-01
8.031570352613925934e-03
-2.077313959598541260e-01
-3.355167433619499207e-02
5.653038248419761658e-02
-2.269266992807388306e-01
-7.473520934581756592e-02
-1.417630463838577271e-01
-7.930329442024230957e-02
-4.784614443778991699e-01
2.144335359334945679e-01
3.724828362464904785e-02
6.206576246768236160e-03
-3.132459223270416260e-01
-2.403127104043960571e-01
-4.837498664855957031e-01
4.047249630093574524e-02
-5.949216336011886597e-02
-1.107725501060485840e-01
-4.117751419544219971e-01
-1.662729233503341675e-01
4.947451055049896240e-01
-3.487035632133483887e-01
6.387014687061309814e-02
-2.745869569480419159e-02
4.631338119506835938e-01
-9.332157671451568604e-02
-7.507218420505523682e-02
-8.700492233037948608e-02
-2.793526649475097656e-01
2.793584465980529785e-01
1.147936470806598663e-02
-4.689203798770904541e-01
-2.235906720161437988e-01
3.290294706821441650e-01
1.538295000791549683e-01
-1.650631614029407501e-02
4.967478513717651367e-01
2.219573035836219788e-02
2.517416477203369141e-01
-1.263588815927505493e-01
-3.406892716884613037e-01
-1.801108270883560181e-01
3.133071362972259521e-01
-8.827531337738037109e-02
6.728608161211013794e-03
-4.255867004394531250e-01
-1.715556383132934570e-01
-3.246719539165496826e-01
-1.581351608037948608e-01
-1.575063914060592651e-01
-1.281013935804367065e-01
5.958126783370971680e-01
-2.790258824825286865e-01
3.134684264659881592e-01
-2.456846684217453003e-01
3.572090296074748039e-03
