-1.221167445182800293e-01
-3.128293901681900024e-02
2.019949555397033691e-01
-2.781462371349334717e-01
-8.278694748878479004e-02
1.319161057472229004e-01
1.702630966901779175e-01
-1.563660427927970886e-02
-2.004049420356750488e-01
7.350741326808929443e-02
-6.574571132659912109e-02
-1.179030165076255798e-01
-1.299690902233123779e-01
-2.059268020093441010e-02
-1.141487956047058105e-01
-1.329111009836196899e-01
-1.598692536354064941e-01
1.501127779483795166e-01
9.894312918186187744e-02
9.653528779745101929e-02
5.695042014122009277e-02
1.098567470908164978e-01
-7.192911952733993530e-02
-1.421317607164382935e-01
1.391424238681793213e-01
7.143620401620864868e-02
2.080224603414535522e-01
1.241504922509193420e-01
5.197061970829963684e-02
-9.375334047945216298e-05
8.478602021932601929e-02
-1.056146845221519470e-01
4.090596735477447510e-02
1.045178622007369995e-01
1.580508947372436523e-01
2.362480759620666504e-01
-1.061571985483169556e-01
-4.337855149060487747e-03
-9.512379020452499390e-02
1.317293494939804077e-01
1.204050928354263306e-01
6.033024564385414124e-02
-5.382147151976823807e-03
1.977805048227310181e-01
1.974311769008636475e-01
5.565435811877250671e-02
8.587117306888103485e-03
6.031730771064758301e-02
1.318794637918472290e-01
2.436732500791549683e-01
-4.756560549139976501e-02
-4.159000888466835022e-02
-1.720262467861175537e-01
-1.011442020535469055e-01
-1.058874279260635376e-01
1.850757449865341187e-01
-1.408088505268096924e-01
-2.117029130458831787e-01
2.926657199859619141e-01
-8.618955314159393311e-02
1.072819456458091736e-01
-1.303404867649078369e-01
-6.866393983364105225e-02
-1.960908994078636169e-02
1.088722050189971924e-01
-1.526637375354766846e-02
-4.308963939547538757e-02
9.998328983783721924e-02
1.465382147580385208e-02
-1.216500718146562576e-02
2.678196178749203682e-03
-4.047993198037147522e-02
5.671653151512145996e-02
-2.907999046146869659e-02
-7.975036650896072388e-02
1.369224768131971359e-02
3.571744263172149658e-02
-5.219769477844238281e-02
9.524783119559288025e-03
-4.794444143772125244e-02
1.367272529751062393e-02
4.278390854597091675e-02
6.091256439685821533e-02
7.170116901397705078e-02
-4.972035437822341919e-02
-9.059440344572067261e-02
-1.055644918233156204e-02
-3.503089770674705505e-02
-1.479943469166755676e-02
-3.764984384179115295e-02
3.666036576032638550e-02
-2.238852158188819885e-02
1.069540902972221375e-02
3.184767812490463257e-02
1.511431392282247543e-02
7.188706099987030029e-02
5.528461933135986328e-02
-8.464907854795455933e-02
-6.210700422525405884e-02
1.034349948167800903e-01
-2.792975306510925293e-02
4.881899431347846985e-02
-1.131499111652374268e-01
3.109936229884624481e-02
1.990243792533874512e-02
-2.036191150546073914e-02
-1.313936561346054077e-01
3.265526890754699707e-02
-4.687433131039142609e-03
3.923238068819046021e-02
-2.577269636094570160e-02
3.534801676869392395e-02
-5.275020003318786621e-02
-1.132987625896930695e-02
-3.488205000758171082e-02
-2.067152410745620728e-02
-2.446471899747848511e-02
-1.763930544257164001e-02
1.751978881657123566e-02
5.740122497081756592e-02
2.321719750761985779e-02
4.220927075948566198e-04
-9.962501376867294312e-02
-1.600448414683341980e-02
2.382514439523220062e-02
-3.063707426190376282e-02
4.540539532899856567e-02
5.064484197646379471e-03
