3.244461864233016968e-02
2.323768660426139832e-02
-1.335030654445290565e-03
7.280773669481277466e-02
5.266120284795761108e-02
2.907672151923179626e-02
3.259211406111717224e-02
5.788804590702056885e-02
1.602682285010814667e-02
4.730296321213245392e-03
-3.839582577347755432e-02
6.398040056228637695e-02
7.929514162242412567e-03
-6.265455158427357674e-04
8.673754520714282990e-03
-2.663443423807621002e-02
-2.529803290963172913e-02
-7.900922000408172607e-02
-5.098341777920722961e-02
1.440974790602922440e-02
-1.884832605719566345e-02
3.043571673333644867e-02
1.285219378769397736e-02
-5.402863025665283203e-02
-5.991125851869583130e-02
-2.626235969364643097e-02
8.915838785469532013e-03
1.086527388542890549e-02
-4.343236237764358521e-02
-5.671509355306625366e-02
2.456235699355602264e-02
7.179543375968933105e-02
3.992459550499916077e-02
5.686119943857192993e-02
1.447018142789602280e-02
6.337160617113113403e-02
-8.528845012187957764e-02
6.079275161027908325e-03
-4.823739826679229736e-02
-1.597865670919418335e-02
5.663330666720867157e-03
-3.383842855691909790e-02
2.638711594045162201e-03
-1.506516616791486740e-02
-2.788144862279295921e-03
1.079789269715547562e-02
-3.301656991243362427e-02
-5.320652946829795837e-02
3.345275064930319786e-03
2.070827409625053406e-02
4.224148020148277283e-02
-2.517563104629516602e-02
-2.441933751106262207e-02
1.244268286973237991e-02
-1.398671325296163559e-02
-9.940696880221366882e-03
-6.457311660051345825e-02
6.260652840137481689e-02
3.179045394062995911e-02
4.139673709869384766e-02
4.525877162814140320e-02
1.449931412935256958e-02
6.891891360282897949e-02
3.794004023075103760e-02
-1.862200163304805756e-02
2.729220315814018250e-02
-3.058870136737823486e-02
-1.711954735219478607e-02
-9.173579514026641846e-03
-1.216790289618074894e-03
3.085280768573284149e-02
-4.129476845264434814e-02
2.940243296325206757e-02
-6.726694852113723755e-02
7.847772538661956787e-02
-1.682626083493232727e-02
-1.887261518277227879e-03
3.855088725686073303e-02
6.585524231195449829e-02
4.429861530661582947e-02
-4.823921993374824524e-02
4.294460266828536987e-02
-7.228081673383712769e-02
-1.148678734898567200e-02
-2.433642745018005371e-03
5.439849570393562317e-03
-1.478516310453414917e-02
-7.389838993549346924e-02
-3.712470084428787231e-02
6.702818907797336578e-03
-1.001351699233055115e-02
4.276354983448982239e-02
2.060076594352722168e-02
-3.951185569167137146e-02
2.663730829954147339e-02
1.719698123633861542e-02
7.021073997020721436e-02
-3.674666211009025574e-02
5.013639107346534729e-02
-3.289856761693954468e-02
-2.467308379709720612e-02
4.431978613138198853e-02
-2.348026074469089508e-02
1.983617804944515228e-02
4.881112277507781982e-02
2.583184279501438141e-02
2.270763926208019257e-02
-2.358161844313144684e-02
-2.462346106767654419e-02
3.256277646869421005e-03
-1.241769082844257355e-02
-1.859205216169357300e-02
3.243848681449890137e-02
5.091781169176101685e-02
2.148428186774253845e-02
4.168584570288658142e-02
-7.640523370355367661e-03
2.768812328577041626e-02
1.924184896051883698e-02
-1.319853402674198151e-02
5.797494202852249146e-03
3.797798976302146912e-02
3.006385825574398041e-02
1.250641420483589172e-02
8.842139691114425659e-02
-3.679766878485679626e-02
2.180170640349388123e-02
1.617311686277389526e-02
