-1.393788307905197144e-01
-2.214313894510269165e-01
-3.618224561214447021e-01
-8.254987746477127075e-02
2.379229217767715454e-01
-4.474942088127136230e-01
-3.387200087308883667e-02
7.501113414764404297e-02
2.487893998622894287e-01
-3.249655365943908691e-01
-3.648893237113952637e-01
1.914305686950683594e-01
-1.160790994763374329e-01
7.970764487981796265e-02
3.790394365787506104e-01
-1.813969612121582031e-01
1.486930549144744873e-01
1.773912012577056885e-01
2.302767932415008545e-01
2.452875971794128418e-01
-2.382734976708889008e-02
-2.719392180442810059e-01
-1.259609907865524292e-01
2.892633676528930664e-01
-3.423434793949127197e-01
-3.803928196430206299e-02
2.854982614517211914e-01
1.824699155986309052e-02
-2.594944238662719727e-01
2.562144696712493896e-01
-3.148108124732971191e-01
-2.584704756736755371e-01
2.866240143775939941e-01
3.810293227434158325e-02
1.659263670444488525e-01
3.204957246780395508e-01
1.549029648303985596e-01
1.173073127865791321e-01
-5.865100398659706116e-02
3.574523031711578369e-01
9.037866443395614624e-02
-4.550801217555999756e-01
-1.418668031692504883e-01
-1.087260246276855469e-01
-1.195097565650939941e-01
1.850067824125289917e-01
1.447391360998153687e-01
2.487480789422988892e-01
2.495934665203094482e-01
-3.690640330314636230e-01
2.535571455955505371e-01
1.239610016345977783e-01
3.666612505912780762e-01
3.498158156871795654e-01
-2.915714681148529053e-01
3.643709123134613037e-01
5.298047065734863281e-01
-3.601686954498291016e-01
7.321199774742126465e-02
-4.807974398136138916e-02
4.308169186115264893e-01
1.275557875633239746e-01
1.891421675682067871e-01
-2.447092235088348389e-01
2.468493282794952393e-01
-2.357630282640457153e-01
-4.563780426979064941e-01
-3.821676075458526611e-01
1.778050661087036133e-01
-3.241980969905853271e-01
4.657489806413650513e-02
1.946301162242889404e-01
2.712047100067138672e-01
4.372067749500274658e-01
-2.218883931636810303e-01
3.155912756919860840e-01
2.319680303335189819e-01
3.780379146337509155e-02
-3.499504923820495605e-02
1.632899641990661621e-01
-1.057118400931358337e-01
-2.454506456851959229e-01
9.218802303075790405e-02
1.033722758293151855e-01
-3.030093573033809662e-02
-4.745298624038696289e-01
-1.765074282884597778e-01
-1.846033632755279541e-01
3.316142857074737549e-01
1.200705692172050476e-01
2.521157264709472656e-01
-1.788296252489089966e-01
1.156890466809272766e-01
2.131505869328975677e-02
-5.903135240077972412e-02
4.813357442617416382e-02
1.845571249723434448e-01
1.429199576377868652e-01
-8.068264275789260864e-02
7.934923470020294189e-02
1.621164754033088684e-02
-3.273056820034980774e-02
-4.094498232007026672e-02
-3.166504949331283569e-02
3.335444033145904541e-01
-8.234634995460510254e-02
9.020411223173141479e-02
1.575296670198440552e-01
-3.253198266029357910e-01
1.615711152553558350e-01
-5.699663236737251282e-02
-2.191660925745964050e-02
-3.990628421306610107e-01
-2.583326697349548340e-01
-8.313951641321182251e-02
2.914725542068481445e-01
1.198054924607276917e-01
-1.457634270191192627e-01
3.109799027442932129e-01
1.809472590684890747e-01
-2.717963755130767822e-01
2.232192754745483398e-01
-3.596101999282836914e-01
-1.287451088428497314e-01
1.750213801860809326e-01
1.896115392446517944e-02
1.534240394830703735e-01
-1.087285354733467102e-01
