3.769736364483833313e-02
5.707921087741851807e-02
4.916344303637742996e-03
6.660401821136474609e-02
-4.695016890764236450e-03
6.439942121505737305e-02
3.674793615937232971e-02
-8.124470710754394531e-03
-4.483819752931594849e-02
-2.000096142292022705e-01
-3.029691055417060852e-02
-9.739428758621215820e-02
-5.155886709690093994e-02
-6.763420253992080688e-02
1.733361631631851196e-01
-9.785550832748413086e-02
-6.573594175279140472e-03
3.385801985859870911e-02
-5.193381011486053467e-02
-3.359410911798477173e-02
-5.399995669722557068e-02
8.188571780920028687e-02
3.314695134758949280e-02
4.873931035399436951e-02
5.072280392050743103e-02
8.454032987356185913e-02
-6.842193752527236938e-02
3.910242021083831787e-02
-3.688994795083999634e-02
9.480997920036315918e-03
3.430032357573509216e-02
-4.303452558815479279e-03
1.781945116817951202e-02
4.300479590892791748e-02
2.384901512414216995e-03
-3.528555110096931458e-02
5.139597877860069275e-02
1.056089326739311218e-01
-1.107996981590986252e-02
3.499534726142883301e-02
-3.926761075854301453e-02
1.176269203424453735e-01
-6.098126620054244995e-02
4.743920639157295227e-02
-6.458510458469390869e-02
1.685157790780067444e-02
1.114229392260313034e-02
-3.511961922049522400e-02
4.943102598190307617e-02
-1.031193602830171585e-02
-2.857660502195358276e-02
2.926588803529739380e-02
4.354890063405036926e-02
-1.799540221691131592e-01
2.859184751287102699e-03
2.378614852204918861e-03
1.554646529257297516e-02
9.058306924998760223e-03
-3.373837471008300781e-02
5.383947119116783142e-02
-2.487339451909065247e-02
-2.894003130495548248e-02
6.724024564027786255e-02
7.331100851297378540e-02
-2.634050138294696808e-02
-1.129906773567199707e-01
-1.680834405124187469e-02
-2.390136942267417908e-02
-4.631585255265235901e-02
2.863855566829442978e-03
3.219311311841011047e-02
1.089204251766204834e-01
-4.915493354201316833e-02
3.279903158545494080e-02
7.378966361284255981e-02
-2.218091301620006561e-02
-6.429175846278667450e-03
-1.872125715017318726e-01
-2.253307774662971497e-02
-1.138260401785373688e-02
1.015877071768045425e-02
1.414116621017456055e-01
-1.176083181053400040e-02
-9.541606903076171875e-02
-7.669412996619939804e-03
-8.200647681951522827e-02
-2.703692018985748291e-02
-4.304208979010581970e-02
2.570574171841144562e-02
1.512952707707881927e-02
1.257056277245283127e-02
4.265508055686950684e-02
9.525772929191589355e-02
-2.367071434855461121e-02
9.205876290798187256e-02
1.936190575361251831e-02
5.058909580111503601e-02
9.153445810079574585e-02
-3.623831644654273987e-02
1.327200606465339661e-02
3.669637069106101990e-02
-6.258299946784973145e-02
1.178702190518379211e-01
3.688668832182884216e-02
5.419740453362464905e-02
5.905006080865859985e-02
2.434632554650306702e-02
5.100176483392715454e-02
-5.667732656002044678e-02
-1.868349686264991760e-02
-7.137089222669601440e-02
1.040208414196968079e-01
6.593240052461624146e-02
-5.939327180385589600e-02
-1.452010776847600937e-02
2.691035624593496323e-03
-8.135560899972915649e-02
-3.063932433724403381e-02
5.085777863860130310e-02
-1.109411418437957764e-01
5.589711479842662811e-03
-3.640191629528999329e-02
-6.951099634170532227e-02
9.087321907281875610e-02
1.212142221629619598e-02
1.390650123357772827e-02
8.996911346912384033e-04
3.016610741615295410e-01
1.345185190439224243e-01
9.648304432630538940e-02
6.781780719757080078e-02
6.695380061864852905e-02
5.227384343743324280e-02
-1.116822101175785065e-02
5.338026210665702820e-02
1.538555771112442017e-01
-1.606946811079978943e-02
-4.217906389385461807e-03
7.128746807575225830e-02
6.535400450229644775e-02
6.760479509830474854e-02
5.353926867246627808e-02
-7.162814587354660034e-02
5.537647753953933716e-02
-6.727119535207748413e-02
2.184917964041233063e-02
6.678684800863265991e-02
1.668594963848590851e-02
-2.862269617617130280e-02
4.935162141919136047e-02
6.055919453501701355e-02
-4.080738406628370285e-03
3.215314820408821106e-03
-1.424444746226072311e-02
-5.254663527011871338e-02
1.196434069424867630e-02
3.314659371972084045e-02
-1.075359210371971130e-01
-6.717029958963394165e-02
1.195846647024154663e-01
3.318747133016586304e-02
1.675823926925659180e-01
2.760531380772590637e-02
9.861265122890472412e-02
1.631266921758651733e-01
5.698624998331069946e-03
-5.082418769598007202e-02
-1.205385252833366394e-01
1.080230250954627991e-01
-1.142603810876607895e-02
9.395433962345123291e-02
-2.147549064829945564e-03
5.197952315211296082e-02
-1.318225450813770294e-02
1.058308407664299011e-02
5.389798432588577271e-02
8.861186355352401733e-02
-4.195107147097587585e-02
-6.997803598642349243e-02
2.200685255229473114e-02
1.633130200207233429e-02
-3.094990253448486328e-01
9.725147485733032227e-02
5.210585426539182663e-03
-1.959673594683408737e-03
4.387250915169715881e-02
-5.268653854727745056e-02
9.109126403927803040e-03
-1.175285689532756805e-02
1.101709976792335510e-01
-6.655739247798919678e-02
2.651583850383758545e-01
5.043737962841987610e-02
1.335901319980621338e-01
3.325237706303596497e-02
1.075396835803985596e-01
7.151390612125396729e-02
5.249057337641716003e-02
-2.846716158092021942e-02
1.136059314012527466e-01
7.405149936676025391e-02
-5.426188185811042786e-02
-3.469648212194442749e-02
6.619415432214736938e-02
4.444361478090286255e-02
3.454277664422988892e-02
-9.284057468175888062e-02
-6.594360619783401489e-02
-4.849697928875684738e-03
-1.591373421251773834e-02
-6.344344466924667358e-02
-5.734054744243621826e-02
7.353488355875015259e-02
3.751923888921737671e-02
-1.706028357148170471e-02
3.280663490295410156e-02
-3.247372433543205261e-02
6.856370717287063599e-02
-7.524769753217697144e-02
3.831551596522331238e-02
2.590886689722537994e-02
6.241099908947944641e-02
5.586679652333259583e-02
6.515067070722579956e-02
1.066030934453010559e-01
-2.402674593031406403e-02
-2.613035775721073151e-02
5.863498896360397339e-02
1.367340534925460815e-01
3.162615746259689331e-02
4.382626712322235107e-02
-1.530852317810058594e-01
-4.958066716790199280e-02
1.232125535607337952e-01
3.820310533046722412e-02
3.641729801893234253e-02
-6.859230995178222656e-02
-1.778264194726943970e-01
-7.438672333955764771e-02
8.857649751007556915e-03
9.855462610721588135e-02
1.566343903541564941e-01
2.820388786494731903e-02
2.167251519858837128e-02
1.188135519623756409e-01
5.951482430100440979e-02
-7.358707487583160400e-02
3.014388307929039001e-02
4.283380880951881409e-02
3.822816535830497742e-02
1.293905265629291534e-02
2.085009589791297913e-03
1.071533188223838806e-01
-2.004011720418930054e-02
4.244864359498023987e-02
-1.565252095460891724e-01
8.168186247348785400e-02
5.652592983096837997e-03
9.533840231597423553e-03
-3.917141258716583252e-02
3.927863761782646179e-02
1.326705366373062134e-01
-1.285970304161310196e-02
6.678035110235214233e-02
2.892366237938404083e-02
-5.842456221580505371e-02
4.357051104307174683e-02
-5.006477236747741699e-03
-2.806624956429004669e-02
-3.442059096414595842e-04
7.085127383470535278e-02
-4.705015569925308228e-02
3.171743825078010559e-02
-5.497379973530769348e-02
6.824418157339096069e-02
-1.452335994690656662e-02
-1.901611685752868652e-02
-4.772104788571596146e-03
-1.919668912887573242e-02
5.949679389595985413e-02
4.668392241001129150e-03
-1.640592329204082489e-02
-1.897473819553852081e-02
8.442353457212448120e-02
-3.123081661760807037e-02
2.220321260392665863e-02
2.793108299374580383e-02
7.718455977737903595e-03
2.764267660677433014e-02
-6.970611959695816040e-02
2.576426416635513306e-02
-3.601737320423126221e-02
3.871315717697143555e-02
-9.467202238738536835e-03
6.567506585270166397e-03
-5.580802634358406067e-02
-2.238163352012634277e-02
-1.441381685435771942e-02
6.633238494396209717e-02
1.420510961906984448e-04
7.075933367013931274e-02
8.118189126253128052e-02
2.647074870765209198e-02
4.093444719910621643e-02
-1.492425240576267242e-02
-7.084359228610992432e-02
-3.296269848942756653e-02
-1.414846442639827728e-02
6.099908053874969482e-02
-4.667318984866142273e-02
1.726506650447845459e-02
4.057538136839866638e-02
2.305831760168075562e-03
5.927003920078277588e-02
1.435115933418273926e-02
6.044523790478706360e-02
3.080975264310836792e-02
4.936846718192100525e-02
3.349955193698406219e-03
1.412027329206466675e-02
-2.026647515594959259e-02
-2.470971085131168365e-02
4.113771021366119385e-02
-5.896219611167907715e-02
-1.203801576048135757e-02
6.597443949431180954e-03
1.747763343155384064e-02
-2.506298013031482697e-02
3.767842054367065430e-02
8.406287990510463715e-03
1.280906517058610916e-02
-2.344448678195476532e-02
-5.574947968125343323e-02
4.743973538279533386e-02
2.784497477114200592e-02
-3.139048581942915916e-03
8.164652623236179352e-03
2.183724381029605865e-02
5.462063942104578018e-03
4.448029398918151855e-02
2.462310530245304108e-02
6.470176577568054199e-02
1.772708445787429810e-02
-3.372524399310350418e-03
-1.358760427683591843e-02
4.427614063024520874e-02
2.179192565381526947e-02
1.067985743284225464e-01
5.501953139901161194e-02
2.622376009821891785e-02
-4.049104079604148865e-02
-1.433591078966856003e-02
-6.224603205919265747e-02
-1.162203308194875717e-02
4.499897360801696777e-02
3.078526444733142853e-02
5.337276495993137360e-03
-1.708522252738475800e-02
-1.356579456478357315e-02
8.314064145088195801e-02
2.804598025977611542e-02
-1.403388939797878265e-02
1.079059243202209473e-01
-6.567446049302816391e-03
2.696036174893379211e-02
1.351049542427062988e-02
6.942565739154815674e-02
5.375346541404724121e-02
4.562141746282577515e-02
1.723103225231170654e-02
9.770227223634719849e-02
1.458443515002727509e-02
-2.748450450599193573e-02
5.885472986847162247e-03
6.224473938345909119e-03
-5.467543378472328186e-02
2.459397539496421814e-03
-4.144245013594627380e-02
1.263805385679006577e-02
-7.363562937825918198e-03
-2.394212037324905396e-02
-4.620354995131492615e-02
2.978226542472839355e-02
1.932065039873123169e-01
2.766748368740081787e-01
-1.099965795874595642e-01
-8.170288801193237305e-02
3.381748450919985771e-03
-3.214839845895767212e-02
1.359253004193305969e-02
-9.547319263219833374e-02
-1.052607744932174683e-01
-8.264535106718540192e-03
4.174396861344575882e-03
1.071807855623774230e-04
-8.720223605632781982e-02
-9.878188371658325195e-03
-2.677919529378414154e-02
5.550049245357513428e-03
-9.483469184488058090e-04
-1.525122672319412231e-03
-5.869795754551887512e-02
-8.287638425827026367e-02
-2.138381451368331909e-02
6.334424251690506935e-04
-3.749473020434379578e-02
1.390243042260408401e-02
4.576565697789192200e-03
2.227244526147842407e-01
-1.514585781842470169e-02
4.673075745813548565e-04
-2.426461279392242432e-01
-1.038612350821495056e-01
1.074581593275070190e-02
1.104611251503229141e-02
2.327694743871688843e-01
9.584391862154006958e-02
-6.693597137928009033e-02
2.375097246840596199e-03
-1.176154017448425293e-01
1.599745266139507294e-02
1.921389810740947723e-02
-1.000592038035392761e-01
2.934673568233847618e-03
1.993797123432159424e-01
-3.698161989450454712e-02
-7.859855145215988159e-02
-4.325831681489944458e-02
-4.535726457834243774e-02
-1.017348095774650574e-01
1.531455107033252716e-02
1.514851767569780350e-02
-1.372222453355789185e-01
-7.733723521232604980e-02
-1.081213820725679398e-03
4.756536334753036499e-02
-9.613514691591262817e-02
-4.485758952796459198e-03
-9.771207720041275024e-02
-8.305735141038894653e-02
-2.267009392380714417e-02
-8.358526229858398438e-02
5.890721082687377930e-02
9.332873672246932983e-02
-1.374694555997848511e-01
9.961100295186042786e-03
5.463491193950176239e-03
4.811998922377824783e-03
-5.104650557041168213e-02
-3.507676348090171814e-02
-2.693034708499908447e-03
6.220123544335365295e-02
6.396736949682235718e-02
-8.962179720401763916e-02
-3.915360942482948303e-02
-1.104773283004760742e-01
3.783969674259424210e-03
2.003264427185058594e-02
-5.326509103178977966e-02
-8.885222673416137695e-02
7.200498878955841064e-02
9.229201823472976685e-03
2.465741708874702454e-02
1.092370599508285522e-02
-5.327466875314712524e-02
-1.985902665182948112e-03
-3.732514753937721252e-02
-1.809592917561531067e-02
-4.159423708915710449e-02
1.035972386598587036e-01
-7.394219283014535904e-03
-4.461839422583580017e-02
1.200586035847663879e-01
-3.788573294878005981e-02
-1.274785958230495453e-02
-9.670197963714599609e-02
1.418122369796037674e-02
-5.812891945242881775e-02
-1.155839953571557999e-02
-5.825394392013549805e-02
-4.690916277468204498e-03
4.575889185070991516e-02
-5.005887150764465332e-02
2.352285012602806091e-02
-4.726843163371086121e-02
-2.258034236729145050e-02
-6.216130033135414124e-02
1.349138654768466949e-02
-1.307713333517313004e-02
-9.682389348745346069e-02
8.855660259723663330e-02
3.636975772678852081e-03
-4.633472114801406860e-02
1.799849094823002815e-03
-7.277332246303558350e-02
-1.359817478805780411e-02
-7.539052516222000122e-02
2.843596739694476128e-03
-3.891239687800407410e-02
-7.968911901116371155e-03
-4.547106847167015076e-02
-1.016539242118597031e-02
-1.496230717748403549e-02
-2.237714640796184540e-02
-1.383933722972869873e-01
-1.216746196150779724e-01
-4.865493625402450562e-02
-1.820724457502365112e-02
-1.048287898302078247e-01
6.196652725338935852e-02
-8.206314593553543091e-02
7.542449235916137695e-02
8.714509755373001099e-02
-3.096191957592964172e-02
-4.688258096575737000e-02
1.695484737865626812e-03
-1.155288815498352051e-01
-1.006883755326271057e-01
7.054504752159118652e-02
9.039025462698191404e-05
-1.776645891368389130e-02
-1.032899133861064911e-02
-1.053167954087257385e-01
-7.766255736351013184e-02
-1.271005421876907349e-01
-9.154575876891613007e-03
1.600749045610427856e-01
4.665548040065914392e-04
3.406868502497673035e-02
4.317140951752662659e-02
1.842541620135307312e-02
4.442808032035827637e-02
-3.601489216089248657e-02
4.518384113907814026e-02
-8.270788937807083130e-02
4.615328833460807800e-02
-2.183228963986039162e-03
-2.515579387545585632e-02
5.841404199600219727e-03
-9.946729987859725952e-02
-1.316150426864624023e-01
-5.660666897892951965e-02
-5.616463720798492432e-02
4.360640794038772583e-02
3.853018209338188171e-02
-8.314782381057739258e-02
5.935712717473506927e-03
4.948754608631134033e-02
-3.965901210904121399e-02
-2.011484280228614807e-02
4.298997670412063599e-02
-1.408866513520479202e-02
5.399706959724426270e-02
1.658287271857261658e-02
-6.673699617385864258e-02
-6.244470179080963135e-02
-8.791120350360870361e-02
-3.810229524970054626e-02
-2.675252221524715424e-02
3.342494741082191467e-02
6.789805740118026733e-02
4.305175319314002991e-02
-4.987849667668342590e-02
-1.035998575389385223e-02
-3.008203022181987762e-02
-2.051684260368347168e-01
-7.212822884321212769e-02
-1.162094026803970337e-01
-3.138740733265876770e-02
-1.394321210682392120e-02
-1.749527268111705780e-02
1.394760757684707642e-01
2.505456283688545227e-02
2.187715284526348114e-02
-4.669564589858055115e-02
1.945796608924865723e-01
4.565245285630226135e-02
-1.093005985021591187e-01
-7.041801512241363525e-02
-2.298861742019653320e-02
1.224433258175849915e-02
3.071482665836811066e-02
-1.433241926133632660e-02
-9.399496018886566162e-02
1.296200882643461227e-02
-7.146231085062026978e-02
1.099164318293333054e-02
2.968584187328815460e-03
-4.562822356820106506e-02
-6.000228598713874817e-02
-7.246708124876022339e-02
-3.334811329841613770e-02
1.251088920980691910e-02
7.149194926023483276e-02
7.986511290073394775e-02
-9.027779102325439453e-03
-5.474809091538190842e-03
-8.718719333410263062e-02
1.053702980279922485e-01
2.952671423554420471e-02
4.598487541079521179e-02
-2.583405561745166779e-02
-1.854673586785793304e-02
-8.758733421564102173e-02
2.220558375120162964e-02
-3.578493371605873108e-02
1.400508335791528225e-03
-1.198050156235694885e-01
-1.047421246767044067e-01
-3.928405791521072388e-02
-5.073758959770202637e-02
-2.497230470180511475e-02
3.852670639753341675e-02
-2.392283268272876740e-02
-7.447310537099838257e-02
-6.789663434028625488e-02
3.864881815388798714e-03
1.191477291285991669e-02
5.964610353112220764e-02
-1.978323906660079956e-01
-8.141150325536727905e-02
-5.167056992650032043e-02
-6.865534931421279907e-02
-8.415301144123077393e-02
-1.465587168931961060e-01
1.429322361946105957e-01
-4.420777317136526108e-03
-2.672627568244934082e-02
-2.834356203675270081e-02
-7.969991862773895264e-02
9.432665258646011353e-02
-4.887029528617858887e-02
-5.677418410778045654e-02
-1.068921387195587158e-01
-3.513099858537316322e-03
2.172198519110679626e-02
1.927018724381923676e-02
-1.776939779520034790e-01
5.650961771607398987e-02
3.533681854605674744e-02
2.922184020280838013e-02
8.487316966056823730e-02
-9.399652481079101562e-02
-1.583205908536911011e-02
-3.617503866553306580e-02
-7.773648947477340698e-02
-3.914050012826919556e-02
5.249699577689170837e-03
2.408426627516746521e-02
-7.769007235765457153e-03
-4.177292808890342712e-02
1.184685062617063522e-02
4.749016463756561279e-02
5.647037923336029053e-02
-3.266725689172744751e-02
2.643782831728458405e-02
-6.292575597763061523e-02
3.331033140420913696e-02
-8.504521846771240234e-02
1.217898055911064148e-01
1.846494339406490326e-02
1.518545392900705338e-02
-6.434115767478942871e-02
9.250051341950893402e-03
-3.446575254201889038e-02
-3.164853900671005249e-02
-4.398748278617858887e-02
-1.180328242480754852e-02
-5.891831591725349426e-02
-8.990052342414855957e-02
-3.628116101026535034e-02
-1.135018393397331238e-01
7.921955734491348267e-02
-9.298555552959442139e-03
-3.700182214379310608e-02
8.541653305292129517e-02
6.227977946400642395e-02
2.694527385756373405e-03
1.075924187898635864e-02
7.418154925107955933e-02
-3.334839642047882080e-02
-3.503903374075889587e-02
5.304761230945587158e-02
-4.178181663155555725e-02
-9.165709465742111206e-02
-6.423316895961761475e-02
1.905760541558265686e-02
1.074998080730438232e-02
1.134778000414371490e-02
4.998565465211868286e-02
6.131101027131080627e-02
1.846735477447509766e-01
3.810850158333778381e-02
-2.650276198983192444e-02
-1.506804395467042923e-02
-6.383217871189117432e-02
1.799059472978115082e-02
2.541051618754863739e-02
-1.047447975724935532e-02
6.077115982770919800e-02
-2.550112642347812653e-02
6.652008742094039917e-03
6.338670384138822556e-03
2.337083816528320312e-01
-4.392940551042556763e-02
-2.167747588828206062e-03
-6.291668117046356201e-02
-8.060070872306823730e-02
2.181384712457656860e-02
-1.216669380664825439e-01
8.168039470911026001e-02
-1.615239679813385010e-01
-2.676947228610515594e-02
9.384704381227493286e-02
-4.495890066027641296e-02
5.623173899948596954e-03
-7.495258469134569168e-03
-1.075022295117378235e-01
3.260540962219238281e-02
-1.118216849863529205e-02
5.495733022689819336e-02
1.473796088248491287e-02
5.967170745134353638e-02
5.696852505207061768e-02
4.028967022895812988e-02
1.100210174918174744e-01
-5.439455062150955200e-02
1.122317165136337280e-01
5.906618013978004456e-02
-2.321787551045417786e-02
1.022799611091613770e-01
-9.021983295679092407e-02
-3.904989361763000488e-02
-2.461648359894752502e-02
8.333956450223922729e-02
3.697707131505012512e-02
-9.016244858503341675e-02
-1.538951843976974487e-01
4.223314672708511353e-02
8.245132863521575928e-02
-1.495158020406961441e-02
5.170599371194839478e-02
-6.421252340078353882e-02
-6.516938656568527222e-02
6.934550125151872635e-03
5.646634846925735474e-02
4.728670045733451843e-02
7.901316881179809570e-02
-2.925254637375473976e-03
-1.080859377980232239e-01
-7.309419661760330200e-02
-1.196143254637718201e-01
-5.596842244267463684e-02
-4.861402511596679688e-02
-8.368809707462787628e-03
8.404717780649662018e-03
1.787830702960491180e-02
4.425333067774772644e-02
9.426210075616836548e-02
-6.971857976168394089e-03
2.309253625571727753e-02
7.170744985342025757e-02
2.692758291959762573e-02
3.839470446109771729e-02
-1.497548967599868774e-01
2.598860301077365875e-02
3.559662401676177979e-02
2.037315666675567627e-01
-6.823703180998563766e-03
1.340862214565277100e-01
9.469429403543472290e-02
1.060193181037902832e-01
-4.857841506600379944e-02
1.013839617371559143e-01
3.068188577890396118e-02
-7.457844913005828857e-02
4.876644164323806763e-02
-4.477380961179733276e-02
-5.830722302198410034e-02
-3.013548254966735840e-02
-4.850871488451957703e-02
-3.809949383139610291e-02
-3.841044753789901733e-02
-7.214514911174774170e-02
1.296738088130950928e-01
7.175357546657323837e-03
-8.308328688144683838e-02
-1.486017275601625443e-02
5.571978539228439331e-02
-1.179109886288642883e-02
5.205110460519790649e-02
-1.016244217753410339e-01
8.090786635875701904e-02
1.213173847645521164e-03
-1.196663379669189453e-01
-1.582153345225378871e-04
7.251973450183868408e-02
-8.974933624267578125e-02
-2.005806192755699158e-02
-1.199559308588504791e-02
-1.241834908723831177e-01
4.234658926725387573e-02
4.652046039700508118e-02
-1.044026296585798264e-02
1.898588687181472778e-01
-5.524725466966629028e-02
-1.848640665411949158e-02
1.738349795341491699e-01
4.438181873410940170e-03
2.881527505815029144e-02
2.474698424339294434e-02
-9.020114690065383911e-02
1.106460019946098328e-01
2.518567070364952087e-02
7.919827103614807129e-02
-2.046998403966426849e-02
4.985118750482797623e-03
2.182379513978958130e-01
5.465873330831527710e-02
2.328752167522907257e-02
8.311774581670761108e-02
1.047731041908264160e-01
-7.126653939485549927e-02
3.557202219963073730e-02
-2.010730467736721039e-02
1.270172595977783203e-01
4.206947342026978731e-04
1.764313131570816040e-02
-7.936017960309982300e-02
9.439297765493392944e-02
7.573989219963550568e-03
2.942827343940734863e-02
8.531782776117324829e-02
1.218214035034179688e-01
-7.362116128206253052e-02
-1.013940647244453430e-01
6.099589541554450989e-02
4.709030315279960632e-02
4.876139014959335327e-02
1.702084243297576904e-01
1.390767190605401993e-02
1.574341207742691040e-02
-2.394164539873600006e-02
-6.979461014270782471e-02
-3.705634549260139465e-02
6.983166188001632690e-02
-2.334262710064649582e-03
-3.578239306807518005e-02
2.080995123833417892e-03
-6.167183816432952881e-02
-4.935731366276741028e-02
6.319651752710342407e-02
2.750307507812976837e-02
3.451316803693771362e-02
-6.170120090246200562e-02
1.634072326123714447e-02
-4.322702437639236450e-02
-1.672726683318614960e-02
-6.892897188663482666e-02
9.001406282186508179e-02
7.313594967126846313e-02
-1.784486919641494751e-01
-2.350314147770404816e-02
1.517767906188964844e-01
7.921818643808364868e-02
-5.563842877745628357e-02
5.448907986283302307e-02
6.389636546373367310e-02
-6.702253967523574829e-02
-3.617183864116668701e-02
-1.121410802006721497e-01
1.644310206174850464e-01
-2.106924355030059814e-02
-1.994573883712291718e-02
-6.728883832693099976e-02
-7.339708972722291946e-03
7.135650515556335449e-02
5.135447904467582703e-02
6.442312896251678467e-02
-1.019520312547683716e-01
-1.132187470793724060e-01
-3.990515321493148804e-02
-5.856437236070632935e-02
-9.174199774861335754e-03
-9.450591355562210083e-02
-5.851400643587112427e-02
-1.209169477224349976e-01
-1.249816268682479858e-02
-1.084775626659393311e-01
4.768865555524826050e-02
6.051990762352943420e-02
-9.495757520198822021e-03
-3.477441146969795227e-02
9.363631904125213623e-02
1.932122558355331421e-02
-1.285340264439582825e-02
2.305722422897815704e-02
-9.972956031560897827e-03
-4.120348487049341202e-03
8.100426942110061646e-02
-3.970814123749732971e-02
1.016757935285568237e-01
1.895965449512004852e-02
5.238103121519088745e-02
3.277179226279258728e-02
1.788686811923980713e-01
-1.553427986800670624e-02
-2.836142666637897491e-04
-6.859425455331802368e-02
8.110088296234607697e-03
-8.548238128423690796e-02
-6.279815919697284698e-03
1.254064124077558517e-02
-1.260557398200035095e-02
4.007416218519210815e-02
1.415953040122985840e-01
9.095762856304645538e-03
-3.708031727001070976e-03
9.106439352035522461e-02
3.929832205176353455e-02
-5.437462031841278076e-02
1.144725531339645386e-01
-6.474138237535953522e-03
-9.048574604094028473e-03
5.567348748445510864e-02
-1.115895286202430725e-01
-3.751774877309799194e-02
7.531879097223281860e-02
-9.328532963991165161e-02
5.603458359837532043e-02
2.885494008660316467e-02
5.600562691688537598e-02
6.436616182327270508e-02
-2.962352521717548370e-02
7.846739143133163452e-03
5.086313467472791672e-03
-2.743852138519287109e-02
1.567572355270385742e-02
5.390674248337745667e-02
1.128247231245040894e-01
1.308148503303527832e-01
-6.710080802440643311e-02
-2.899387385696172714e-03
-1.502029597759246826e-02
5.612180009484291077e-02
1.329456269741058350e-01
-1.197654008865356445e-02
1.576469279825687408e-02
-8.972198516130447388e-02
-1.619137823581695557e-01
1.238529533147811890e-01
-6.598358601331710815e-02
-4.116695746779441833e-02
-3.004624322056770325e-02
9.509998559951782227e-02
-4.911367222666740417e-02
2.767805755138397217e-02
7.610929198563098907e-03
3.245473280549049377e-02
1.073047295212745667e-01
-1.850718632340431213e-02
-2.994305826723575592e-02
-1.874720305204391479e-01
2.747718989849090576e-02
5.053636431694030762e-02
4.220397397875785828e-02
-2.248308993875980377e-02
1.038523390889167786e-01
-1.320884823799133301e-01
-3.267394378781318665e-02
2.188714593648910522e-02
-6.905724853277206421e-02
5.013866350054740906e-03
2.641038298606872559e-01
4.797694459557533264e-02
-4.159430414438247681e-02
-6.705560721457004547e-03
2.306590089574456215e-03
-9.671985357999801636e-02
-1.033224985003471375e-01
6.634869426488876343e-02
1.093219444155693054e-01
-7.036112248897552490e-02
-2.253345213830471039e-02
-1.398323196917772293e-02
7.930416613817214966e-03
-2.847603056579828262e-03
5.035931617021560669e-02
1.208290234208106995e-01
5.429157614707946777e-02
-2.125199884176254272e-01
-1.802842132747173309e-02
1.113625392317771912e-01
4.273318126797676086e-02
-3.119074366986751556e-02
4.691635444760322571e-02
4.937143251299858093e-02
-2.546793408691883087e-02
5.260629579424858093e-03
1.891860514879226685e-01
-6.004105135798454285e-02
-1.412596087902784348e-02
-4.994471743702888489e-02
7.618571817874908447e-02
1.388395112007856369e-02
2.248737663030624390e-01
-7.365906238555908203e-02
8.768462575972080231e-03
6.798037886619567871e-02
2.459548413753509521e-03
1.774946786463260651e-02
2.166965790092945099e-02
1.508481949567794800e-01
-1.151248365640640259e-01
5.197991430759429932e-02
2.034612596035003662e-01
7.568967994302511215e-03
8.002525568008422852e-02
-3.214345872402191162e-02
-5.626676604151725769e-02
4.137061908841133118e-02
6.247117370367050171e-02
2.450518868863582611e-02
8.415247499942779541e-02
1.098730880767107010e-02
3.453556448221206665e-02
-5.231546983122825623e-02
-1.025401279330253601e-01
2.620366960763931274e-02
-9.119697642745450139e-05
-3.365058917552232742e-03
6.943529099225997925e-02
6.636838614940643311e-02
-6.493026018142700195e-02
4.030874744057655334e-02
7.675934582948684692e-02
7.813140004873275757e-02
1.872168155387043953e-03
-3.786574676632881165e-02
4.057769104838371277e-02
-2.361090667545795441e-02
3.502644971013069153e-02
5.257600545883178711e-02
4.577942937612533569e-02
4.480917379260063171e-02
7.781362161040306091e-03
-9.450987726449966431e-02
3.503636643290519714e-02
-3.594058752059936523e-02
2.210964448750019073e-02
3.373143449425697327e-02
-2.479408867657184601e-02
1.249573230743408203e-01
1.593413576483726501e-02
4.679689183831214905e-02
-2.109038876369595528e-03
-5.635699257254600525e-02
2.356871031224727631e-02
6.808678619563579559e-03
4.774771258234977722e-02
-1.189203746616840363e-02
-1.839609257876873016e-02
6.783664226531982422e-02
3.503811731934547424e-02
2.607754431664943695e-02
-7.911305129528045654e-02
9.076929092407226562e-02
3.513403981924057007e-02
6.320212781429290771e-02
-3.867040947079658508e-02
5.956789851188659668e-02
-6.863311227789381519e-06
6.130738556385040283e-02
1.428202390670776367e-01
6.045762076973915100e-02
3.748886287212371826e-02
4.947365075349807739e-02
2.025014162063598633e-01
2.330113574862480164e-02
-3.382968530058860779e-02
4.288778454065322876e-02
1.006836667656898499e-01
3.013403713703155518e-02
4.279498942196369171e-03
1.427580118179321289e-01
4.551162943243980408e-02
5.069162696599960327e-02
-1.935242712497711182e-01
2.133322507143020630e-02
1.129519268870353699e-01
1.079563573002815247e-01
6.304325163364410400e-02
1.926699467003345490e-02
9.434497356414794922e-02
7.314427196979522705e-02
4.922542721033096313e-02
4.390512406826019287e-02
4.560158774256706238e-02
-4.836031049489974976e-02
8.281605690717697144e-02
5.730814300477504730e-03
-1.541051417589187622e-01
9.595478326082229614e-02
4.998776689171791077e-02
-7.575421780347824097e-02
-3.781644627451896667e-02
1.184013206511735916e-02
-3.833708539605140686e-02
5.380658060312271118e-02
2.975886687636375427e-02
-3.086245246231555939e-02
-4.020672291517257690e-02
4.413105919957160950e-02
1.775175333023071289e-02
4.523772746324539185e-02
1.425278186798095703e-01
-8.030824363231658936e-02
-8.292081952095031738e-02
1.118259280920028687e-01
8.454076200723648071e-02
-1.187670528888702393e-01
7.961105555295944214e-02
4.397844895720481873e-02
4.750971868634223938e-02
3.921314328908920288e-02
-3.061751089990139008e-02
7.913890294730663300e-03
2.446243166923522949e-02
3.273437917232513428e-02
6.301186233758926392e-02
-5.677249655127525330e-02
2.031964957714080811e-01
-2.250056527554988861e-02
-5.744927749037742615e-02
-1.556504424661397934e-02
1.125747039914131165e-01
-1.445665583014488220e-02
-2.370395883917808533e-02
6.427396833896636963e-02
6.359673570841550827e-03
6.745451688766479492e-02
7.866440713405609131e-02
-3.231224417686462402e-02
6.357263308018445969e-03
1.146865636110305786e-01
1.462680399417877197e-01
4.835198447108268738e-02
-1.339079346507787704e-02
4.650795366615056992e-03
-2.039369195699691772e-02
6.185406818985939026e-02
1.117774173617362976e-01
-1.438696533441543579e-01
5.701391026377677917e-02
-1.235689669847488403e-01
8.591062575578689575e-02
7.149850577116012573e-02
-1.463035494089126587e-01
-4.559498652815818787e-02
-6.380403041839599609e-02
6.045226007699966431e-03
-1.275424808263778687e-01
-3.248317539691925049e-02
1.216283254325389862e-02
-1.016563177108764648e-01
3.245749697089195251e-02
-2.120416425168514252e-02
4.483809694647789001e-02
-1.047565601766109467e-02
-4.042634367942810059e-02
-2.375786006450653076e-02
6.120507046580314636e-02
2.195775741711258888e-03
-5.536139383912086487e-02
1.329579651355743408e-01
-4.440691322088241577e-02
-4.185515921562910080e-03
3.336851298809051514e-02
-7.248000055551528931e-02
3.651741147041320801e-02
-5.885260179638862610e-02
-1.495572179555892944e-01
-5.676381289958953857e-02
-4.437686502933502197e-02
6.071586906909942627e-02
-5.097707360982894897e-02
-3.462868928909301758e-02
-6.963568180799484253e-02
-2.161775715649127960e-03
-1.538425404578447342e-02
4.302018880844116211e-02
2.606468042358756065e-03
-1.521696709096431732e-02
7.130536437034606934e-02
-1.242074370384216309e-02
1.243207901716232300e-01
-3.237539529800415039e-02
3.158454969525337219e-02
5.086904764175415039e-02
3.929369151592254639e-02
-2.298058196902275085e-02
-1.090315133333206177e-01
-6.889458000659942627e-02
2.465371973812580109e-02
4.246937576681375504e-03
-1.502595990896224976e-01
-6.798630952835083008e-02
-9.486193209886550903e-02
-4.535920545458793640e-02
-3.630668157711625099e-03
-2.163440734148025513e-02
1.798777468502521515e-02
5.369644984602928162e-02
-4.626673087477684021e-02
-1.171238496899604797e-01
-9.517075493931770325e-03
-2.754877321422100067e-02
-9.960111230611801147e-02
3.049946948885917664e-02
-6.753616780042648315e-02
-8.459898084402084351e-02
-5.188386887311935425e-02
3.527300059795379639e-02
1.092068627476692200e-01
1.893406957387924194e-01
-3.963214531540870667e-02
7.151931524276733398e-02
-1.038583293557167053e-01
2.037435770034790039e-02
6.443706154823303223e-02
-5.570631474256515503e-02
-4.417191073298454285e-02
3.303315490484237671e-02
-6.669822335243225098e-02
8.241553604602813721e-02
-1.027530431747436523e-01
8.549781143665313721e-02
-6.146441400051116943e-02
1.802889071404933929e-02
-1.667541451752185822e-02
6.951088458299636841e-02
2.001450769603252411e-02
-5.312202498316764832e-02
1.256122346967458725e-02
1.021766662597656250e-01
5.031520128250122070e-02
2.898785658180713654e-02
-5.288203805685043335e-02
1.847942471504211426e-01
-7.671545259654521942e-03
-8.965688198804855347e-02
1.515530236065387726e-02
-2.970705926418304443e-02
1.155616831965744495e-03
6.411126255989074707e-02
9.714134968817234039e-03
-5.713018402457237244e-02
-1.040623933076858521e-01
-4.472095146775245667e-02
5.224024131894111633e-02
-1.056976150721311569e-02
-1.639266163110733032e-01
-4.057562351226806641e-02
-2.471162565052509308e-02
4.893716052174568176e-02
-1.419557332992553711e-01
1.036069020628929138e-01
1.737053692340850830e-02
-9.842140227556228638e-02
-8.268292248249053955e-02
1.382414996623992920e-01
5.555320903658866882e-02
-1.093762740492820740e-02
-5.036310106515884399e-02
4.274380579590797424e-02
6.572819501161575317e-02
2.203145064413547516e-02
-3.808598592877388000e-02
2.487534657120704651e-03
-3.060635328292846680e-01
-1.458000112324953079e-02
-1.147567853331565857e-02
-1.950459368526935577e-02
4.569227620959281921e-02
7.344893645495176315e-03
9.224277734756469727e-02
-2.295470051467418671e-02
-5.303154885768890381e-02
-2.155236899852752686e-02
-1.276339292526245117e-01
-1.520209386944770813e-02
-1.182300820946693420e-01
2.027119100093841553e-01
3.953243046998977661e-02
-6.523432582616806030e-02
-1.386575251817703247e-01
7.617240399122238159e-02
-3.469522111117839813e-03
1.547034364193677902e-03
-9.275148808956146240e-02
-1.298878062516450882e-02
-2.711232751607894897e-02
1.352969557046890259e-03
-7.982216775417327881e-02
3.808907419443130493e-02
-3.179540857672691345e-02
-1.163837909698486328e-01
4.172422736883163452e-02
-1.002654880285263062e-01
-5.926245450973510742e-02
-4.562003538012504578e-02
-4.823528975248336792e-02
-2.201682515442371368e-02
-1.108874566853046417e-02
-1.347702648490667343e-02
-2.523908950388431549e-02
-2.407182566821575165e-02
5.281309410929679871e-02
-3.749095275998115540e-02
1.705563440918922424e-02
-7.715313136577606201e-02
-2.995283156633377075e-02
5.258730426430702209e-02
-3.178530931472778320e-02
3.464359091594815254e-03
4.865399748086929321e-02
6.706232577562332153e-02
-5.027778446674346924e-02
-1.495343074202537537e-02
-1.823884844779968262e-01
-7.408873736858367920e-02
2.257160656154155731e-02
3.938960656523704529e-02
-3.123552799224853516e-01
-8.480966836214065552e-02
2.798674628138542175e-02
3.518084436655044556e-02
-1.092199757695198059e-01
-2.909928373992443085e-02
1.440184842795133591e-02
-6.614905595779418945e-02
-3.834397299215197563e-03
1.384585499763488770e-01
2.059224992990493774e-01
-6.515032798051834106e-02
-7.687195390462875366e-02
-9.352433681488037109e-02
-1.402910426259040833e-02
-1.535184960812330246e-02
-1.834312081336975098e-02
3.183901309967041016e-02
-9.723234176635742188e-02
-8.040765672922134399e-02
6.563081406056880951e-03
4.373254999518394470e-02
-7.029125839471817017e-02
-2.918306551873683929e-02
-2.204805910587310791e-01
9.372214227914810181e-02
-6.848333030939102173e-02
-3.179371356964111328e-02
-6.715836375951766968e-02
1.027325354516506195e-02
-7.406800240278244019e-02
-5.717032402753829956e-02
-4.712340608239173889e-02
-9.529534727334976196e-02
-8.127770572900772095e-02
5.367607623338699341e-02
-7.467696815729141235e-02
1.317039579153060913e-01
-1.085659340023994446e-01
-2.759314700961112976e-02
-3.289972618222236633e-02
8.875694870948791504e-02
1.329273171722888947e-02
-2.652283757925033569e-02
-6.275884807109832764e-02
-9.040062874555587769e-02
-1.447542663663625717e-02
-6.641283631324768066e-02
1.165976095944643021e-02
1.453748438507318497e-02
-3.049502847716212273e-03
-9.065882861614227295e-02
-3.755431622266769409e-02
-4.684833809733390808e-02
1.181409060955047607e-01
3.075596317648887634e-02
2.862266264855861664e-02
9.421200491487979889e-03
-5.174296349287033081e-02
-8.193833753466606140e-03
-9.334672987461090088e-02
-3.146599605679512024e-02
-2.717360481619834900e-02
-3.448318690061569214e-03
1.091377884149551392e-01
-1.436237432062625885e-02
-2.133625596761703491e-01
3.288118168711662292e-02
4.255690146237611771e-03
-5.936443805694580078e-03
-3.676751628518104553e-02
1.662819460034370422e-02
2.905013598501682281e-02
4.863072559237480164e-02
2.288412600755691528e-01
-7.498951256275177002e-02
-6.362279504537582397e-02
1.595726981759071350e-02
1.558954827487468719e-02
5.206029862165451050e-03
6.413572281599044800e-02
-6.211229134351015091e-03
8.492498844861984253e-02
5.358594283461570740e-02
2.582651935517787933e-02
1.121891140937805176e-01
-5.179255083203315735e-02
-6.180264521390199661e-03
-5.475139245390892029e-03
1.594376564025878906e-02
-4.156044498085975647e-02
-1.127711962908506393e-02
-3.716301545500755310e-02
-6.607924401760101318e-02
5.362763069570064545e-03
-5.797296017408370972e-02
-2.380442805588245392e-02
7.372503168880939484e-04
3.845927491784095764e-02
-6.785052269697189331e-02
2.215879596769809723e-02
4.803000390529632568e-02
3.917250037193298340e-02
1.020637806504964828e-02
8.500434458255767822e-03
-6.427436321973800659e-02
-3.897189348936080933e-02
-1.801326987333595753e-03
-1.332899183034896851e-02
-2.131859771907329559e-02
4.727269057184457779e-03
-1.258866488933563232e-02
-5.604673177003860474e-02
-6.133545190095901489e-02
-9.017584472894668579e-02
-5.013365764170885086e-03
-3.646495565772056580e-02
1.445026509463787079e-02
2.082931995391845703e-02
-1.448514405637979507e-02
1.940807700157165527e-02
-1.163897453807294369e-03
4.410865530371665955e-02
1.038743648678064346e-02
8.719927817583084106e-02
-7.620940357446670532e-02
-5.378470569849014282e-02
1.526912394911050797e-02
-5.577639937400817871e-01
1.077877543866634369e-02
-9.475838392972946167e-03
-5.227482691407203674e-02
5.045456439256668091e-02
-3.543973434716463089e-03
5.056589096784591675e-02
-1.067673638463020325e-01
4.414521902799606323e-02
2.334835007786750793e-02
5.110017657279968262e-01
-7.772946730256080627e-03
-3.077916800975799561e-02
-8.902508765459060669e-02
7.797387242317199707e-02
1.224818523041903973e-03
-9.468411654233932495e-02
-1.728814095258712769e-02
-2.892286330461502075e-02
-5.706530436873435974e-02
-1.451032701879739761e-02
1.549145020544528961e-02
-5.874883756041526794e-02
2.978429943323135376e-02
-5.681015923619270325e-02
-8.865003287792205811e-02
-1.019313186407089233e-01
7.556971162557601929e-02
-8.737631887197494507e-02
4.663859307765960693e-02
-1.956647075712680817e-02
2.912079729139804840e-02
9.353082627058029175e-02
6.712859962135553360e-03
2.521160617470741272e-02
-5.243456736207008362e-02
-3.882272168993949890e-02
-2.826227061450481415e-02
3.542821481823921204e-02
3.033324331045150757e-02
-5.567481741309165955e-03
4.116748459637165070e-03
4.309482499957084656e-02
1.122761284932494164e-03
-6.136675924062728882e-02
-1.669325679540634155e-02
9.460330009460449219e-02
-4.762199241667985916e-03
8.125050924718379974e-03
-5.732648074626922607e-02
-4.441357031464576721e-02
-1.791071444749832153e-01
-7.769606262445449829e-02
-1.033962294459342957e-01
-8.689022064208984375e-02
-2.058750204741954803e-02
-1.255056355148553848e-03
-1.224321033805608749e-02
3.668959066271781921e-02
9.634593501687049866e-03
4.737923387438058853e-03
-1.835403032600879669e-02
3.036502457689493895e-04
3.112537600100040436e-02
-7.307482510805130005e-02
8.253932744264602661e-02
-5.904921144247055054e-02
-6.545691192150115967e-02
-5.933769047260284424e-03
-1.849117502570152283e-02
-2.520551159977912903e-02
-1.962767913937568665e-02
-2.276785485446453094e-02
3.222804889082908630e-02
1.180198565125465393e-01
-1.996345818042755127e-02
7.100582122802734375e-02
-8.270050399005413055e-03
6.298241764307022095e-02
-7.318620383739471436e-02
1.511218845844268799e-01
4.442273452877998352e-02
-2.095945551991462708e-02
-3.413308411836624146e-02
-4.140555486083030701e-02
-1.636763475835323334e-02
9.804093092679977417e-02
-1.298188138753175735e-02
-1.775688491761684418e-02
1.151419356465339661e-01
-1.045011263340711594e-02
-5.417189747095108032e-02
-9.721121191978454590e-02
8.206978440284729004e-02
4.221823811531066895e-02
1.670846715569496155e-03
8.429317176342010498e-02
-1.608535498380661011e-01
-1.309366375207901001e-01
7.795105874538421631e-02
-1.026428267359733582e-01
-1.539395302534103394e-01
2.418763749301433563e-02
8.241263031959533691e-02
-1.534837931394577026e-01
-5.131195858120918274e-02
8.898384124040603638e-02
-3.524730727076530457e-02
1.393151469528675079e-02
-4.860510118305683136e-03
6.346058100461959839e-02
1.764795780181884766e-01
4.183625057339668274e-02
-5.670661479234695435e-02
-7.947207428514957428e-03
-1.961093395948410034e-02
6.371596455574035645e-02
5.119761824607849121e-02
8.248262107372283936e-02
1.244843006134033203e-01
3.998795524239540100e-02
8.065742254257202148e-02
2.358240075409412384e-02
-5.259830877184867859e-02
-2.227038294076919556e-01
-3.455013781785964966e-02
-2.655652537941932678e-02
-2.412171848118305206e-02
-1.143769696354866028e-01
1.190317422151565552e-01
-5.075487866997718811e-02
7.192040327936410904e-03
1.489589810371398926e-01
6.685564666986465454e-02
-2.084567211568355560e-02
2.343386970460414886e-02
-4.912817850708961487e-02
1.048950012773275375e-03
1.483955532312393188e-01
8.406614512205123901e-02
-3.525540977716445923e-02
7.251756638288497925e-02
-2.447796985507011414e-02
5.739618558436632156e-03
1.242385581135749817e-01
-6.643708795309066772e-02
6.447003036737442017e-02
5.563658103346824646e-02
5.041508004069328308e-02
1.892771013081073761e-02
3.700948087498545647e-03
-1.975623145699501038e-02
-8.511899411678314209e-02
-3.010131418704986572e-02
-1.383893424645066261e-03
1.022406071424484253e-01
1.589089818298816681e-02
3.623926267027854919e-02
1.005160808563232422e-01
-7.046166807413101196e-02
4.108504578471183777e-02
5.649340897798538208e-02
4.282983392477035522e-02
-3.476332500576972961e-02
-1.855149678885936737e-02
-2.839825116097927094e-03
7.076037675142288208e-02
-3.827561810612678528e-02
7.334098219871520996e-02
9.705586358904838562e-03
-5.848773196339607239e-02
-2.323965281248092651e-01
-3.470154479146003723e-02
-1.201292723417282104e-01
8.915804326534271240e-02
-2.277698367834091187e-02
-8.044993877410888672e-02
1.335267722606658936e-01
5.444388091564178467e-02
1.468931441195309162e-03
2.479235082864761353e-02
1.355973631143569946e-02
-7.870776951313018799e-02
5.730998143553733826e-02
8.211011998355388641e-03
-5.690702423453330994e-02
1.341781169176101685e-01
7.924870401620864868e-02
-3.951787948608398438e-02
1.836990863084793091e-01
1.018774881958961487e-02
-1.163923218846321106e-01
3.198794275522232056e-02
-4.313041269779205322e-02
-8.678673207759857178e-02
5.817358568310737610e-02
7.731795310974121094e-02
3.418073803186416626e-02
-1.594097726047039032e-02
2.683295868337154388e-02
1.994756795465946198e-02
-1.927303522825241089e-02
-7.732263952493667603e-02
7.746902108192443848e-02
9.127666801214218140e-02
8.822432160377502441e-02
-2.761912345886230469e-02
-4.083168134093284607e-02
5.286800861358642578e-02
-1.093591796234250069e-03
8.655115962028503418e-02
8.251453936100006104e-02
-4.205754399299621582e-02
-2.745149284601211548e-02
1.494583785533905029e-01
2.385822124779224396e-02
3.648919751867651939e-03
-9.762977249920368195e-03
-7.132990658283233643e-02
-1.471412088721990585e-02
4.531551897525787354e-02
-3.897945582866668701e-02
-8.164009451866149902e-02
3.584162518382072449e-02
-4.120736569166183472e-02
-1.072362810373306274e-02
-2.185078337788581848e-02
-3.002874366939067841e-02
1.059961542487144470e-01
3.040619753301143646e-02
2.567691355943679810e-02
1.174340676516294479e-02
-3.729121387004852295e-02
1.384619530290365219e-02
-7.726817578077316284e-02
-6.302702426910400391e-02
-5.047305300831794739e-02
-3.309837775304913521e-03
1.598507352173328400e-02
3.699816763401031494e-02
8.713383227586746216e-03
1.243377029895782471e-01
-3.010233677923679352e-02
1.085337176918983459e-01
8.960153162479400635e-02
3.018054366111755371e-02
2.487675053998827934e-03
1.308511476963758469e-02
-1.262146532535552979e-01
5.010078474879264832e-02
-2.876047790050506592e-02
8.863042294979095459e-02
1.128492578864097595e-01
-2.324722148478031158e-02
7.695203274488449097e-02
7.904621958732604980e-02
1.852983608841896057e-02
4.073951765894889832e-02
1.863891631364822388e-02
1.545333210378885269e-02
-6.344465911388397217e-02
1.175290811806917191e-02
-2.038212679326534271e-02
7.059944421052932739e-02
1.467906683683395386e-02
1.231202781200408936e-01
-1.928299665451049805e-01
5.121923610568046570e-02
-4.045290499925613403e-02
1.258069425821304321e-01
7.791537791490554810e-02
-8.038081577979028225e-04
-7.900004088878631592e-02
2.670313231647014618e-02
5.106836184859275818e-02
-1.176310703158378601e-01
3.218287602066993713e-02
2.886157855391502380e-02
5.311037227511405945e-02
-1.205103844404220581e-02
-1.284604370594024658e-01
1.573345065116882324e-02
1.974440552294254303e-02
3.246069326996803284e-02
-9.453921765089035034e-02
3.611328080296516418e-02
1.886766031384468079e-02
7.291783392429351807e-02
-2.019726671278476715e-02
4.592717811465263367e-02
4.256841540336608887e-02
1.534052845090627670e-02
-1.899660192430019379e-02
7.366749644279479980e-02
-4.383656661957502365e-03
2.915419265627861023e-02
-8.981943875551223755e-02
8.966048248112201691e-03
1.855878945207223296e-04
-5.857080221176147461e-03
-4.522291943430900574e-02
2.074862830340862274e-02
4.054047912359237671e-02
1.173113435506820679e-01
-5.912722647190093994e-02
1.219078665599226952e-03
1.292721778154373169e-01
-4.860770329833030701e-02
6.331288069486618042e-02
6.847486365586519241e-03
1.376027762889862061e-01
-3.202960267663002014e-02
1.205293312668800354e-01
1.215633656829595566e-02
3.917151689529418945e-02
1.870986074209213257e-02
9.866432845592498779e-02
1.913734711706638336e-02
-5.497892852872610092e-03
8.898225426673889160e-02
-6.378556042909622192e-02
-6.949643045663833618e-02
-1.654399931430816650e-02
1.746942847967147827e-02
1.047917380928993225e-01
3.308493643999099731e-02
-4.624538496136665344e-02
-3.778413310647010803e-02
-8.937235921621322632e-02
4.776484519243240356e-02
1.295168548822402954e-01
-5.029695108532905579e-02
-7.771560549736022949e-02
-2.332045324146747589e-02
1.199313700199127197e-01
5.187693238258361816e-02
-7.357957214117050171e-02
-1.774684339761734009e-02
3.013185039162635803e-02
6.073267664760351181e-03
-4.249651357531547546e-02
5.326298996806144714e-02
-5.471531674265861511e-02
1.294168550521135330e-02
2.788935974240303040e-02
8.068472892045974731e-02
-1.644835248589515686e-02
-4.464423656463623047e-02
-2.343224332435056567e-04
-3.889903053641319275e-02
-5.581364408135414124e-02
7.154598832130432129e-02
-8.719459921121597290e-02
-5.284390226006507874e-02
-2.043123990297317505e-01
-1.846013963222503662e-02
-2.117281779646873474e-03
-1.960209310054779053e-01
-6.410397589206695557e-02
9.804628789424896240e-02
-3.907278180122375488e-02
-1.056877057999372482e-02
1.766810268163681030e-01
-4.349515587091445923e-02
6.928502023220062256e-02
-3.865417558699846268e-03
-8.147858083248138428e-02
-1.485879123210906982e-01
-9.677569568157196045e-02
-8.940627798438072205e-03
-8.186201006174087524e-02
3.387827798724174500e-02
-3.266208618879318237e-02
3.869022056460380554e-02
1.339954137802124023e-01
1.539319008588790894e-02
2.650861255824565887e-02
1.246917918324470520e-01
-8.998773992061614990e-02
-3.374675288796424866e-02
-1.292965859174728394e-01
-5.309427622705698013e-03
5.566142965108156204e-03
5.311118904501199722e-03
2.714827097952365875e-02
6.210934743285179138e-02
1.162343919277191162e-01
-3.439287096261978149e-02
6.159082520753145218e-03
1.949269673787057400e-03
-1.186279207468032837e-02
-2.637066319584846497e-02
-5.509312450885772705e-02
1.393109280616044998e-02
-6.681668758392333984e-02
1.015233993530273438e-02
-7.784222066402435303e-02
-9.060474485158920288e-02
7.588071376085281372e-02
6.797859817743301392e-02
5.351924896240234375e-02
-2.381455898284912109e-02
1.154216900467872620e-01
-4.175217449665069580e-02
-1.195349246263504028e-01
3.314556181430816650e-02
6.579053401947021484e-02
5.529326200485229492e-02
-1.082557365298271179e-01
3.418161720037460327e-02
-2.250524796545505524e-02
-2.206814847886562347e-02
-1.246856451034545898e-01
5.980584537610411644e-04
-3.778719902038574219e-02
-1.672706566751003265e-02
1.251241266727447510e-01
-5.355184897780418396e-02
-2.624073624610900879e-02
-1.199925225228071213e-02
4.959314689040184021e-02
-4.366873204708099365e-02
3.195613995194435120e-02
3.960324078798294067e-02
1.458190530538558960e-01
2.357294782996177673e-02
-1.751544512808322906e-02
-6.150767207145690918e-02
-2.043733140453696251e-03
4.966155812144279480e-02
-7.701756805181503296e-02
3.722210973501205444e-02
-1.673656255006790161e-01
5.880431085824966431e-02
-3.007445298135280609e-02
-4.150842875242233276e-02
8.965063095092773438e-02
-3.902049735188484192e-02
-7.635974138975143433e-02
-4.501606151461601257e-02
-2.191996946930885315e-02
9.475655853748321533e-03
-5.047448351979255676e-02
4.517438635230064392e-02
8.822219073772430420e-02
6.878295540809631348e-02
5.897603114135563374e-04
1.352325975894927979e-01
-7.235544174909591675e-02
-3.854992985725402832e-02
-7.656832039356231689e-02
-1.803519017994403839e-02
5.527283996343612671e-02
-5.338023230433464050e-02
-4.102233797311782837e-03
-3.563569858670234680e-02
6.908603757619857788e-02
1.555946469306945801e-02
-1.718405783176422119e-01
-3.862747922539710999e-02
-2.732929133344441652e-04
9.974147193133831024e-03
2.939829416573047638e-02
-8.624984882771968842e-03
-8.224276453256607056e-02
-4.445263184607028961e-03
3.333524102345108986e-03
-1.641276478767395020e-02
2.688436023890972137e-02
-1.095137745141983032e-01
1.285856403410434723e-02
-2.800862304866313934e-02
1.605025827884674072e-01
-4.480649530887603760e-02
1.397801749408245087e-02
3.190123289823532104e-02
-1.715679652988910675e-02
4.615659266710281372e-02
-3.454313427209854126e-02
8.223458193242549896e-03
1.019648183137178421e-02
1.033080276101827621e-02
-4.057431221008300781e-02
4.008337389677762985e-03
2.405388467013835907e-02
-5.461919680237770081e-02
-1.158766634762287140e-02
-1.471593044698238373e-02
4.352889582514762878e-02
1.267299614846706390e-02
-2.302728965878486633e-02
2.632799744606018066e-02
-1.423020064830780029e-01
-3.076936351135373116e-03
-1.628903672099113464e-02
2.698320336639881134e-02
5.021055787801742554e-02
-2.385524474084377289e-02
2.742071077227592468e-02
5.152085423469543457e-02
-7.395487278699874878e-02
-7.319030817598104477e-03
-8.409375697374343872e-02
-1.971087418496608734e-02
4.542550817131996155e-02
3.433709219098091125e-02
-8.357851952314376831e-02
2.497572265565395355e-02
7.090019434690475464e-02
-2.656103856861591339e-02
-6.912465672940015793e-03
-2.470057085156440735e-02
-7.104766555130481720e-03
4.537434875965118408e-02
-9.330255538225173950e-02
-3.933191299438476562e-03
3.702737390995025635e-02
1.154291629791259766e-01
1.174840554594993591e-01
2.776571549475193024e-02
4.425876960158348083e-02
-9.820383274927735329e-04
-5.425196513533592224e-02
-6.305664312094449997e-03
1.073601767420768738e-01
-2.245256900787353516e-01
1.916873082518577576e-02
-2.014863491058349609e-02
3.920593485236167908e-02
-1.829688064754009247e-02
1.477458328008651733e-02
-2.823534188792109489e-03
1.349184811115264893e-01
-8.565638214349746704e-02
1.018909458070993423e-02
1.642146613448858261e-03
8.216574788093566895e-02
1.055794283747673035e-01
-1.874200999736785889e-02
-5.721938982605934143e-02
-4.437573254108428955e-02
-1.006127372384071350e-01
3.099737316370010376e-02
-3.374807536602020264e-02
-2.721524611115455627e-02
-1.146578579209744930e-03
1.766312494874000549e-02
-2.166164852678775787e-02
1.201875135302543640e-01
-8.902781456708908081e-02
-2.635484933853149414e-02
8.559579961001873016e-03
-3.113775253295898438e-01
-3.404285758733749390e-02
6.693667173385620117e-02
1.077003404498100281e-02
-2.169568836688995361e-02
2.852917835116386414e-02
-7.576333731412887573e-02
6.242773309350013733e-02
1.126839686185121536e-02
1.207023486495018005e-02
9.950161725282669067e-02
-3.385349363088607788e-02
-4.926244262605905533e-03
-1.377597004175186157e-01
2.881780639290809631e-02
1.192400380969047546e-01
4.519424960017204285e-02
-6.637649144977331161e-03
8.074458688497543335e-03
-1.063637658953666687e-01
-1.652460545301437378e-02
6.675173342227935791e-02
-2.401556819677352905e-02
-8.884224295616149902e-02
-3.393910080194473267e-02
-7.076627761125564575e-02
5.678900331258773804e-02
9.555276483297348022e-02
-1.212122216820716858e-01
9.186157025396823883e-03
-7.209435850381851196e-02
-7.570907473564147949e-02
1.903299428522586823e-02
6.288190931081771851e-02
4.700259864330291748e-02
-3.268985077738761902e-02
1.321740597486495972e-01
-3.756762295961380005e-02
3.538266196846961975e-02
-1.776649430394172668e-02
-7.626260817050933838e-02
6.019092351198196411e-02
-4.461336415261030197e-03
3.374160453677177429e-02
-2.247480116784572601e-02
2.421648986637592316e-02
7.269325200468301773e-03
-9.174456447362899780e-02
1.888655126094818115e-02
1.678786613047122955e-02
9.281588345766067505e-02
9.335084259510040283e-02
-4.116827994585037231e-02
5.954506993293762207e-02
1.767610199749469757e-02
7.593356072902679443e-02
5.747699737548828125e-02
5.063939094543457031e-02
-6.903546303510665894e-02
5.928735807538032532e-02
9.737852960824966431e-03
-4.991455469280481339e-03
-1.879470609128475189e-02
9.904637187719345093e-02
-5.419661290943622589e-03
-5.735242273658514023e-03
8.537010848522186279e-02
6.252261810004711151e-03
1.191043332219123840e-01
-2.366165071725845337e-02
1.949525438249111176e-02
8.905785530805587769e-02
1.443857047706842422e-02
1.442626118659973145e-02
8.455727249383926392e-02
8.380787447094917297e-03
-1.863658614456653595e-02
-5.773899331688880920e-02
-1.304657757282257080e-02
1.211530268192291260e-01
6.899526715278625488e-02
2.326836064457893372e-02
-2.478174865245819092e-02
1.338477060198783875e-02
8.979368209838867188e-02
6.172861158847808838e-02
4.251676797866821289e-02
-5.226862430572509766e-02
2.044198662042617798e-01
1.141259223222732544e-01
1.017281785607337952e-01
-1.127417609095573425e-01
2.237451262772083282e-02
5.433017760515213013e-02
-7.898300141096115112e-02
4.172433912754058838e-02
1.041959598660469055e-01
-1.119470074772834778e-01
-3.825070708990097046e-02
-9.055995941162109375e-02
9.647096693515777588e-02
-1.151133552193641663e-01
5.731386691331863403e-02
1.847098022699356079e-02
-1.796195656061172485e-02
-3.796445950865745544e-02
2.500046417117118835e-02
1.112623363733291626e-01
-6.484016776084899902e-02
-5.598397925496101379e-02
9.329351037740707397e-02
2.784223854541778564e-02
5.323864147067070007e-02
6.047404184937477112e-02
3.229942545294761658e-02
-3.440310060977935791e-02
-1.211337596178054810e-01
-7.851330447010695934e-04
-1.095753982663154602e-01
1.509656012058258057e-01
8.135890960693359375e-02
2.350217849016189575e-02
-9.530082345008850098e-02
3.393501276150345802e-03
-2.209773659706115723e-02
6.122184544801712036e-02
-3.122896142303943634e-02
5.176651105284690857e-02
2.470899373292922974e-02
9.475170634686946869e-03
-3.352647647261619568e-02
8.241672813892364502e-02
6.508456170558929443e-02
-6.706790532916784286e-03
1.108361184597015381e-01
-1.140380557626485825e-02
1.488564014434814453e-01
2.198172919452190399e-02
-3.905308991670608521e-02
-2.215817384421825409e-02
-1.279797703027725220e-01
6.566532887518405914e-03
-2.466737525537610054e-03
-6.012170761823654175e-02
-8.943998068571090698e-02
7.372032850980758667e-02
-1.052269414067268372e-01
4.718520119786262512e-02
-4.884874448180198669e-02
1.701092720031738281e-02
2.897665137425065041e-03
-3.573998436331748962e-02
-1.246596351265907288e-01
6.868749111890792847e-02
1.054598763585090637e-01
4.638770967721939087e-02
9.325170516967773438e-02
6.080782786011695862e-02
-3.056227229535579681e-02
-6.554546952247619629e-02
-7.429020013660192490e-03
7.056873291730880737e-02
-1.701208651065826416e-01
6.730336695909500122e-03
4.194690287113189697e-02
6.651123613119125366e-02
1.409997045993804932e-02
9.594096802175045013e-03
-7.579847425222396851e-02
-2.470781095325946808e-02
-2.919558435678482056e-02
4.743141680955886841e-02
1.704412996768951416e-01
-1.070813164114952087e-01
-2.100814692676067352e-02
9.163570404052734375e-02
1.131834369152784348e-02
7.422846555709838867e-02
6.551055610179901123e-02
-3.750988841056823730e-02
-2.751926891505718231e-02
2.794640138745307922e-02
6.261254101991653442e-02
1.661344245076179504e-02
-3.244301304221153259e-02
-3.889882238581776619e-03
1.128390710800886154e-02
-8.240258693695068359e-02
1.985347829759120941e-02
6.440707016736268997e-03
-4.920344799757003784e-02
-8.307690732181072235e-03
-3.148711472749710083e-02
-7.730805128812789917e-02
-4.318851977586746216e-02
8.009386807680130005e-02
-7.037530653178691864e-03
-1.596711389720439911e-02
7.540647871792316437e-03
6.247083097696304321e-02
-1.181977540254592896e-01
4.073511436581611633e-02
1.014813780784606934e-01
6.440801918506622314e-02
-1.510741468518972397e-02
-4.576768260449171066e-03
3.733513504266738892e-02
-2.105014771223068237e-02
-3.483506664633750916e-02
1.984932273626327515e-02
-6.748488638550043106e-03
2.717845141887664795e-02
1.813243776559829712e-01
-3.417142108082771301e-02
8.204708248376846313e-02
2.974123507738113403e-02
-1.897946596145629883e-01
-2.579341456294059753e-02
9.292688965797424316e-02
-2.178370952606201172e-02
3.616821765899658203e-02
9.687758237123489380e-02
-4.369898885488510132e-02
3.601279482245445251e-02
9.393370896577835083e-02
1.893544755876064301e-02
1.199700087308883667e-01
-3.323310613632202148e-02
6.889946293085813522e-03
3.843725845217704773e-02
-2.454530261456966400e-02
1.494659632444381714e-01
-4.178925231099128723e-02
1.225983817130327225e-02
-1.408850997686386108e-01
-1.979785114526748657e-01
5.332313850522041321e-02
-3.424450382590293884e-02
4.988427832722663879e-02
-2.898900397121906281e-02
-2.503132075071334839e-02
6.600365787744522095e-02
-3.838502615690231323e-02
2.261403016746044159e-02
-3.494720160961151123e-02
5.945856124162673950e-02
3.616345673799514771e-02
-7.018110901117324829e-02
5.822720751166343689e-02
2.062022499740123749e-02
6.369580328464508057e-02
-2.175279892981052399e-02
1.671052165329456329e-02
-1.917892135679721832e-02
5.809291079640388489e-02
1.125433668494224548e-02
9.125968813896179199e-02
-9.936538524925708771e-03
1.780407503247261047e-02
-3.869482502341270447e-02
-1.580212451517581940e-02
-7.328985631465911865e-02
-9.938082844018936157e-02
3.142032399773597717e-02
-4.064268618822097778e-02
3.916255384683609009e-02
-3.769439160823822021e-01
-5.489775910973548889e-02
-3.912368789315223694e-02
1.163571923971176147e-01
-1.906399279832839966e-01
3.483148664236068726e-02
-7.570988684892654419e-02
1.809610985219478607e-02
3.092819079756736755e-02
-4.128217324614524841e-02
5.086155235767364502e-02
1.504443492740392685e-02
-1.194805745035409927e-02
8.681797236204147339e-02
-6.025321036577224731e-02
-1.195823103189468384e-01
-1.096295472234487534e-02
5.879294872283935547e-02
5.988388787955045700e-03
7.369451969861984253e-02
1.163687482476234436e-01
-3.929092362523078918e-02
5.327034741640090942e-02
-4.375596065074205399e-03
-1.965538561344146729e-01
-5.828506499528884888e-02
1.240313500165939331e-01
-3.543840721249580383e-02
-9.684526920318603516e-02
3.378119692206382751e-02
-3.257482871413230896e-02
3.821513429284095764e-02
1.930895447731018066e-02
4.532471299171447754e-02
2.531241476535797119e-01
3.262391313910484314e-02
-7.545143365859985352e-03
1.005651578307151794e-01
-7.120431214570999146e-02
-1.057291403412818909e-01
2.218191511929035187e-02
-1.619342900812625885e-02
6.127117201685905457e-02
1.698837578296661377e-01
-2.639584429562091827e-02
-3.954137116670608521e-02
-8.870930410921573639e-03
-6.986127700656652451e-03
1.038097366690635681e-01
-2.166639827191829681e-02
-5.091747734695672989e-03
1.469767838716506958e-01
-1.920405216515064240e-02
8.072009682655334473e-02
6.561809033155441284e-02
4.519219044595956802e-03
5.045363679528236389e-02
5.668504163622856140e-02
-1.849416829645633698e-02
-7.483329973183572292e-04
-3.175650164484977722e-02
-1.513207424432039261e-02
-6.115130707621574402e-02
3.670394793152809143e-02
8.964028209447860718e-02
-1.080432534217834473e-02
-4.620896279811859131e-02
-3.993156552314758301e-02
-1.078852117061614990e-01
-2.989672124385833740e-03
-1.179783046245574951e-01
-5.060851946473121643e-02
2.074923552572727203e-02
-3.075805678963661194e-02
2.732530236244201660e-01
-1.769371517002582550e-02
-5.015705525875091553e-02
6.491167098283767700e-02
-5.193113163113594055e-02
-3.792399168014526367e-02
2.358200773596763611e-02
4.077661409974098206e-02
-1.909705810248851776e-02
-1.508250683546066284e-01
-6.983498483896255493e-02
2.059159427881240845e-01
8.660576492547988892e-02
8.770240843296051025e-02
1.334740817546844482e-01
5.486462265253067017e-02
-4.140564426779747009e-02
2.607603073120117188e-01
9.559243917465209961e-02
7.568921148777008057e-02
1.154578998684883118e-01
5.778213962912559509e-02
1.459972113370895386e-01
-1.486485302448272705e-01
-9.706027060747146606e-02
1.141101773828268051e-02
-4.848953336477279663e-03
-2.611671201884746552e-02
1.835929453372955322e-01
-9.538377076387405396e-02
-4.742839839309453964e-03
-3.404001891613006592e-02
-2.105706557631492615e-02
1.526364497840404510e-02
2.976928837597370148e-02
-2.698888257145881653e-02
-3.975803777575492859e-02
-2.950176596641540527e-03
2.331610582768917084e-02
-4.910345375537872314e-02
7.025092840194702148e-02
-1.069534718990325928e-01
1.292127072811126709e-01
-3.978130966424942017e-02
1.473817378282546997e-01
-1.452327519655227661e-01
3.128784149885177612e-02
-6.054175272583961487e-02
5.241224914789199829e-02
2.300214581191539764e-02
-6.032057479023933411e-02
6.968311220407485962e-02
-5.502502247691154480e-02
1.231588125228881836e-01
-3.967457450926303864e-03
-5.569439008831977844e-02
1.390432566404342651e-01
-6.872129440307617188e-02
2.472596429288387299e-02
2.795563824474811554e-02
1.856045126914978027e-01
1.922243833541870117e-02
1.442577876150608063e-02
1.333469152450561523e-01
1.043094545602798462e-01
9.201708436012268066e-02
-3.283270169049501419e-03
1.267597824335098267e-01
4.830902442336082458e-02
1.211297605186700821e-02
8.154627680778503418e-02
4.453154280781745911e-02
4.858595877885818481e-02
-1.901005208492279053e-02
-1.864989660680294037e-02
1.050705239176750183e-01
-6.241608411073684692e-02
3.368512913584709167e-02
-3.249062597751617432e-02
8.771914243698120117e-02
3.666583448648452759e-02
3.939446061849594116e-02
-1.536619383841753006e-02
-5.828207731246948242e-02
4.933483153581619263e-02
5.078689381480216980e-02
4.566516354680061340e-02
-1.812764094211161137e-04
-3.300445154309272766e-02
-5.499534681439399719e-02
-6.311058253049850464e-02
1.596428453922271729e-02
-1.872302405536174774e-02
8.045502938330173492e-03
-7.521324604749679565e-02
-3.579995129257440567e-03
2.129847370088100433e-02
5.498393625020980835e-02
2.958642505109310150e-02
6.986137479543685913e-02
-1.992845535278320312e-02
-3.351419419050216675e-02
-4.197631496936082840e-03
-1.723253517411649227e-04
-9.778325445950031281e-03
-1.702489703893661499e-02
1.579954661428928375e-02
9.197852760553359985e-02
4.604259878396987915e-02
3.229426592588424683e-02
-5.878144502639770508e-02
9.677878022193908691e-02
7.083176076412200928e-02
-2.958668861538171768e-03
2.400672063231468201e-02
1.118047721683979034e-02
3.661996871232986450e-02
4.125360399484634399e-02
-3.500049933791160583e-02
-1.485520601272583008e-02
-6.560340989381074905e-03
-1.766481623053550720e-02
-3.350515663623809814e-02
-5.337297171354293823e-02
-4.278528317809104919e-02
1.101824268698692322e-02
2.029611729085445404e-02
3.766421601176261902e-02
6.437017768621444702e-02
4.960703477263450623e-02
5.700407549738883972e-02
3.922922536730766296e-02
4.482285380363464355e-01
5.164549872279167175e-02
8.849873393774032593e-02
4.886144027113914490e-02
-5.237437412142753601e-02
-1.213988382369279861e-02
-2.761623822152614594e-03
-1.041508745402097702e-02
-6.861148029565811157e-02
3.777056187391281128e-02
-4.206111729145050049e-01
4.103216901421546936e-02
7.771404087543487549e-02
1.124561652541160583e-01
-5.216749384999275208e-02
-1.583042927086353302e-02
-5.022893659770488739e-03
3.187847882509231567e-02
-1.953820735216140747e-01
-3.416118770837783813e-02
8.230662345886230469e-02
3.863090649247169495e-02
3.364821895956993103e-02
-6.661024875938892365e-03
-2.649945206940174103e-02
3.452909365296363831e-02
9.564948081970214844e-02
3.016059659421443939e-02
6.396688520908355713e-02
-4.553063213825225830e-02
2.004802785813808441e-02
-5.749969277530908585e-03
-1.873985677957534790e-02
-4.884789139032363892e-02
4.415144771337509155e-02
4.660428687930107117e-02
5.777473095804452896e-03
7.745606452226638794e-02
5.553640890866518021e-03
6.756246555596590042e-03
-7.767523080110549927e-02
1.546426303684711456e-02
5.087766051292419434e-02
-4.358717799186706543e-02
5.251712165772914886e-03
-4.704172909259796143e-02
4.833445698022842407e-02
4.058834537863731384e-02
5.146089196205139160e-02
5.812291428446769714e-02
5.561268702149391174e-02
1.169408410787582397e-01
-4.097129218280315399e-03
-1.632815971970558167e-02
-4.593709111213684082e-02
8.552305400371551514e-02
2.850241586565971375e-02
-7.323320955038070679e-02
8.322363346815109253e-02
-5.414101295173168182e-03
8.355103433132171631e-02
1.226896978914737701e-02
-1.158962585031986237e-02
4.267017170786857605e-02
3.602628409862518311e-02
-3.054022602736949921e-02
-6.758557260036468506e-02
7.255627214908599854e-02
6.853003054857254028e-02
2.292904630303382874e-02
-4.287320375442504883e-02
-6.634624302387237549e-02
-9.946065954864025116e-03
1.252778060734272003e-02
-3.725160658359527588e-02
1.698181219398975372e-02
-3.364828601479530334e-02
-1.129659488797187805e-01
9.103126078844070435e-02
1.243457756936550140e-02
-4.460342228412628174e-02
3.213087329640984535e-03
-3.314202651381492615e-02
-2.438278496265411377e-02
6.956834346055984497e-02
-1.103575229644775391e-01
-8.741515874862670898e-02
-1.816399842500686646e-01
6.922265887260437012e-02
1.168993115425109863e-01
8.687923103570938110e-02
-3.999481443315744400e-03
1.702258596196770668e-04
4.948111250996589661e-02
-5.183238536119461060e-02
5.285074934363365173e-03
-1.970673445612192154e-03
4.108252748847007751e-02
-4.743836354464292526e-03
2.097828499972820282e-02
5.767149850726127625e-02
-7.701826840639114380e-02
-2.275441773235797882e-02
-1.953814923763275146e-02
2.862220862880349159e-03
1.697126217186450958e-02
4.997641220688819885e-02
-1.412529870867729187e-02
2.625098451972007751e-02
7.370208390057086945e-03
-2.872589789330959320e-02
2.769799530506134033e-02
9.312107414007186890e-02
5.781781300902366638e-02
-2.217839658260345459e-02
-6.709711160510778427e-03
-6.352824717760086060e-02
1.827281783334910870e-03
5.175325646996498108e-02
5.015723407268524170e-02
6.044209003448486328e-02
1.159833837300539017e-02
-4.750942438840866089e-02
-1.063396409153938293e-02
2.180552668869495392e-02
-1.182518550194799900e-03
-8.163042366504669189e-03
-1.885936595499515533e-02
8.368635922670364380e-02
2.048568986356258392e-02
5.216891877353191376e-03
-6.272225081920623779e-02
-4.016802122350782156e-04
1.159322354942560196e-02
3.395853564143180847e-02
-4.340053349733352661e-02
-1.571493409574031830e-02
-8.066245168447494507e-02
-2.421085834503173828e-01
2.452302537858486176e-02
-1.906133890151977539e-01
-1.581270247697830200e-01
-4.699087888002395630e-02
-9.118799120187759399e-02
-7.723103463649749756e-02
-1.342078018933534622e-02
-1.888954788446426392e-01
1.239892747253179550e-02
-4.221973940730094910e-03
4.229169711470603943e-02
-7.641679048538208008e-02
3.762071020901203156e-03
1.896982043981552124e-01
5.909034237265586853e-02
9.121451526880264282e-03
-3.633112460374832153e-02
7.924798876047134399e-02
3.229220211505889893e-02
-4.444181174039840698e-02
-1.427224278450012207e-02
-5.824416503310203552e-02
-2.487927302718162537e-02
-2.645967528223991394e-02
2.783055882900953293e-03
1.063721403479576111e-01
5.935417860746383667e-02
-5.572647601366043091e-02
1.368726193904876709e-01
-6.766643840819597244e-03
-1.314979642629623413e-01
1.171088870614767075e-02
6.250844895839691162e-02
-5.270139500498771667e-02
1.014681067317724228e-02
-7.324719429016113281e-02
-4.707510769367218018e-02
2.219743654131889343e-02
-4.795357584953308105e-03
-1.492616906762123108e-02
5.713221058249473572e-02
-2.172526344656944275e-02
-2.406504563987255096e-02
-6.877715885639190674e-02
-5.341520160436630249e-02
1.405860856175422668e-02
-1.037087198346853256e-02
9.708669036626815796e-03
-4.110480472445487976e-02
-8.994742482900619507e-02
-7.344371080398559570e-02
-2.013081312179565430e-02
3.731422359123826027e-03
-1.334220916032791138e-01
-1.522075384855270386e-01
1.406260728836059570e-01
-2.549102529883384705e-02
-7.215147465467453003e-02
-1.961762085556983948e-02
-2.114959806203842163e-02
-4.678472876548767090e-03
1.916023902595043182e-02
1.912145875394344330e-02
1.068625748157501221e-01
-4.819190502166748047e-02
-1.020465195178985596e-01
9.918829798698425293e-02
1.431053224951028824e-02
-1.439354121685028076e-01
9.809435904026031494e-02
2.432175911962985992e-03
1.263500470668077469e-02
4.661984369158744812e-02
6.381244957447052002e-02
-8.156758733093738556e-03
7.579315453767776489e-02
7.195567339658737183e-02
3.906409547198563814e-04
1.279280781745910645e-01
6.274327635765075684e-02
-5.509796086698770523e-03
3.068069368600845337e-02
-5.100753903388977051e-02
5.741407722234725952e-02
4.645034298300743103e-02
9.994856268167495728e-02
-1.885798410512506962e-03
-1.313675642013549805e-01
-1.269674599170684814e-01
9.108119993470609188e-04
-5.864403769373893738e-02
-9.109809994697570801e-03
-6.876683980226516724e-02
-5.906971171498298645e-02
3.434576466679573059e-02
-6.496538408100605011e-03
8.605236071161925793e-04
3.319120407104492188e-02
-2.426932565867900848e-03
-3.936893492937088013e-02
-2.881595678627490997e-02
-8.955886214971542358e-02
-3.592966496944427490e-02
2.400957196950912476e-01
-1.366090327501296997e-01
5.495932325720787048e-02
7.686097174882888794e-02
-5.628836341202259064e-03
1.135988254100084305e-02
-4.422966390848159790e-02
1.026452779769897461e-01
3.735183551907539368e-02
1.524950494058430195e-03
-1.316574960947036743e-01
4.704845324158668518e-02
3.062507370486855507e-03
5.693564563989639282e-02
1.849365085363388062e-01
6.461191922426223755e-02
5.644398927688598633e-02
-1.009231712669134140e-02
-1.446002442389726639e-02
-2.547947689890861511e-02
-8.691755123436450958e-03
1.102704554796218872e-01
-8.039060980081558228e-02
6.294884253293275833e-03
-1.000673398375511169e-01
-3.437774628400802612e-02
1.250220537185668945e-01
1.804757416248321533e-01
-1.149216219782829285e-01
1.432853750884532928e-02
8.195506408810615540e-03
3.632035478949546814e-02
-1.815352588891983032e-02
-6.719180196523666382e-02
-2.651435136795043945e-02
-1.253353357315063477e-01
-1.788015067577362061e-01
-5.355412513017654419e-02
-2.518586628139019012e-02
7.059112191200256348e-02
2.924552559852600098e-02
-1.602395996451377869e-02
-1.921943575143814087e-01
1.992665231227874756e-02
-1.786673814058303833e-02
-4.762310907244682312e-02
8.731222152709960938e-02
2.776463888585567474e-02
6.882805377244949341e-03
-2.611907012760639191e-02
-7.280404865741729736e-02
-1.287906318902969360e-01
-6.592878699302673340e-02
5.348975956439971924e-02
-3.179236873984336853e-02
-6.405346840620040894e-02
-6.891590356826782227e-02
-4.954890534281730652e-02
-9.509617812000215054e-04
4.589264094829559326e-02
-3.755073994398117065e-02
-1.093965843319892883e-01
1.521724089980125427e-02
-1.239982843399047852e-01
-1.572076976299285889e-01
-4.861468076705932617e-02
1.175746470689773560e-01
-1.880752854049205780e-02
-4.114530608057975769e-02
1.098124459385871887e-01
2.586786635220050812e-02
-1.409523487091064453e-01
6.520257890224456787e-02
-1.193390861153602600e-01
-2.004631794989109039e-02
-3.198365494608879089e-02
-1.904560439288616180e-02
-4.307810962200164795e-02
-8.946559578180313110e-02
1.733723878860473633e-01
-2.496341615915298462e-02
1.044905036687850952e-01
-1.480217427015304565e-01
-1.485038362443447113e-02
2.776343189179897308e-02
-9.953411668539047241e-02
5.545886605978012085e-02
1.048767715692520142e-01
1.869730651378631592e-01
1.837105490267276764e-02
-5.888991430401802063e-02
3.707819059491157532e-02
3.276953846216201782e-02
-4.464527592062950134e-03
8.324266225099563599e-02
3.827825933694839478e-02
5.977530032396316528e-02
-4.034437239170074463e-03
1.102750934660434723e-02
-1.732482388615608215e-02
-5.597418546676635742e-02
-9.336710907518863678e-03
-1.460482738912105560e-02
-3.048129938542842865e-02
-9.128321893513202667e-03
6.859721243381500244e-02
7.306200265884399414e-02
-2.851057611405849457e-02
6.121360138058662415e-02
-1.964837312698364258e-02
-2.545883506536483765e-02
3.450330346822738647e-02
1.501644216477870941e-02
-5.764641985297203064e-02
1.850812695920467377e-02
1.375281251966953278e-02
-5.498871579766273499e-02
1.364051550626754761e-02
-3.743707761168479919e-02
-3.221853717150224838e-07
-5.957517400383949280e-02
-7.446338981389999390e-02
-4.178407788276672363e-02
-1.088027004152536392e-02
4.003450646996498108e-02
-1.013870984315872192e-01
6.281534582376480103e-02
-2.446336299180984497e-02
8.209948427975177765e-03
6.196695938706398010e-02
-9.257385879755020142e-02
-4.292097315192222595e-02
5.387368425726890564e-02
1.857119798660278320e-02
-6.192205101251602173e-02
-2.206262387335300446e-02
-1.055477932095527649e-01
2.087738364934921265e-02
6.395243108272552490e-02
2.093329280614852905e-02
2.726570470258593559e-03
-3.099463693797588348e-02
1.496654283255338669e-02
2.519660163670778275e-03
1.186625882983207703e-01
1.706719584763050079e-02
2.157683949917554855e-03
-2.727025561034679413e-02
1.495630387216806412e-02
3.582865465432405472e-03
-2.606721222400665283e-02
-4.730502609163522720e-03
8.106204913929104805e-04
-7.492148317396640778e-03
-5.467908829450607300e-02
4.470505937933921814e-02
5.978805944323539734e-02
-1.153708100318908691e-01
-1.617243327200412750e-02
-1.091660186648368835e-02
1.597450673580169678e-02
-2.643786929547786713e-02
8.876843005418777466e-02
3.636215999722480774e-02
-1.859161769971251488e-03
3.339562937617301941e-02
7.252228446304798126e-03
-5.878852307796478271e-02
-4.964289721101522446e-03
-1.852649496868252754e-03
5.583897978067398071e-02
3.732901811599731445e-02
-5.493186041712760925e-02
8.054608106613159180e-02
-1.044533848762512207e-01
6.301768124103546143e-02
-4.086389392614364624e-02
2.456356957554817200e-02
-6.064121797680854797e-02
-4.346976056694984436e-02
-1.178819313645362854e-01
3.004482714459300041e-03
1.263408511877059937e-01
-5.543560255318880081e-03
3.769704326987266541e-02
5.120924115180969238e-02
-7.119707018136978149e-02
5.961662530899047852e-02
-2.711523324251174927e-02
5.626408383250236511e-02
2.941346727311611176e-02
-1.486885249614715576e-01
2.116344682872295380e-02
1.242706831544637680e-02
1.462047267705202103e-02
-3.851088136434555054e-02
-3.071301802992820740e-02
-1.756661012768745422e-02
4.408551380038261414e-02
-4.250294715166091919e-02
-7.243938744068145752e-02
6.882975250482559204e-02
-1.918016746640205383e-02
-7.520483434200286865e-02
2.233282849192619324e-02
4.425457678735256195e-03
1.432009041309356689e-02
-9.372371435165405273e-02
-1.734336372464895248e-03
1.290906313806772232e-02
-1.252138055860996246e-03
-8.098147064447402954e-02
-1.446290872991085052e-02
-3.423892706632614136e-02
3.543169051408767700e-02
-5.063581466674804688e-02
1.790885329246520996e-01
4.924900084733963013e-02
5.705737322568893433e-02
-1.859628967940807343e-02
-1.004123836755752563e-01
7.770837843418121338e-02
6.931079179048538208e-02
-7.227434217929840088e-02
1.155066266655921936e-01
3.889315947890281677e-02
7.249884307384490967e-02
3.713499009609222412e-02
1.504985708743333817e-02
4.229193925857543945e-02
3.288774564862251282e-02
8.268013596534729004e-02
8.580467104911804199e-02
-5.847738590091466904e-03
2.228168025612831116e-02
6.082325056195259094e-02
-3.696958348155021667e-02
-3.162855282425880432e-02
1.388796325773000717e-02
-1.001593619585037231e-01
6.164417788386344910e-02
4.327299818396568298e-02
-2.696768380701541901e-03
4.849008098244667053e-02
5.980701744556427002e-02
1.379230171442031860e-01
-1.140416041016578674e-02
-4.895949363708496094e-02
-5.993353575468063354e-02
-2.393340133130550385e-02
-3.350481390953063965e-02
-1.038248464465141296e-02
5.615683645009994507e-02
-1.416013855487108231e-02
-8.329446613788604736e-02
-6.281790882349014282e-02
-1.252311281859874725e-02
-3.426871821284294128e-02
-3.556540608406066895e-02
3.449420910328626633e-03
-2.525283582508563995e-02
2.453244663774967194e-02
2.678547753021121025e-03
-9.811415337026119232e-03
3.969830647110939026e-02
4.872383549809455872e-03
-4.990468919277191162e-02
-5.521593615412712097e-02
1.652304083108901978e-02
7.546602748334407806e-03
-1.388775706291198730e-01
7.098720222711563110e-02
1.120823621749877930e-02
-7.562322542071342468e-03
1.557607296854257584e-02
-3.200570121407508850e-02
-6.823881715536117554e-02
-2.130215987563133240e-02
-5.129646137356758118e-02
3.140461444854736328e-02
5.656673014163970947e-02
4.591082409024238586e-02
5.834773555397987366e-02
1.872703246772289276e-02
-1.557157654315233231e-02
3.749419376254081726e-02
1.084580346941947937e-01
-2.062340965494513512e-03
-1.253405772149562836e-02
-1.344142854213714600e-01
-3.111932426691055298e-02
5.106589943170547485e-02
7.762421667575836182e-02
-7.091725245118141174e-03
-1.131038144230842590e-01
4.594614356756210327e-02
-2.614473365247249603e-02
4.217215627431869507e-02
-1.554783154278993607e-02
-6.809129263274371624e-04
2.249486930668354034e-02
-5.763253662735223770e-03
2.466310933232307434e-02
1.085503306239843369e-02
-1.907421462237834930e-02
6.323532760143280029e-02
-2.133418992161750793e-02
-2.973824366927146912e-02
-1.946562435477972031e-03
-2.188942022621631622e-02
6.922956090420484543e-04
-9.215074242092669010e-04
2.990993671119213104e-02
-1.393148154020309448e-01
-4.611873999238014221e-02
7.205802947282791138e-03
3.666703402996063232e-02
-1.093395985662937164e-02
-2.479203604161739349e-02
-4.180448129773139954e-02
-2.891529798507690430e-01
-2.155947871506214142e-02
5.920535326004028320e-02
5.667388439178466797e-02
-6.153685972094535828e-02
1.197172608226537704e-02
-8.235555887222290039e-02
5.472307279706001282e-02
-3.315493091940879822e-02
2.600306086242198944e-02
-2.602289021015167236e-01
-4.304255917668342590e-02
2.632695250213146210e-02
1.005171015858650208e-01
-5.328613892197608948e-02
1.145141851156949997e-02
1.094149309210479259e-03
-1.032551676034927368e-01
2.081234473735094070e-03
1.195238456130027771e-01
-5.164558067917823792e-02
-2.290973626077175140e-02
-5.631824955344200134e-02
2.112877927720546722e-02
4.730609431862831116e-02
-4.788265004754066467e-02
-5.516513064503669739e-02
-2.294340543448925018e-02
-1.535297837108373642e-02
-6.368359178304672241e-02
-4.351111128926277161e-02
7.804295420646667480e-02
6.220157374627888203e-04
-8.397861570119857788e-02
1.350423321127891541e-02
6.313228607177734375e-02
-5.020106956362724304e-02
-1.644430011510848999e-01
3.642173483967781067e-02
3.086859360337257385e-02
5.703692883253097534e-02
-5.813441798090934753e-02
-7.986243814229965210e-02
4.937855899333953857e-02
-5.438047647476196289e-02
-6.107053533196449280e-02
3.360449802130460739e-03
7.362740114331245422e-03
1.012445241212844849e-01
3.608410432934761047e-02
9.089598059654235840e-02
-1.303663011640310287e-02
-3.091323887929320335e-03
2.910015173256397247e-03
-5.227197334170341492e-02
-3.188142552971839905e-02
-1.159403622150421143e-01
6.336820125579833984e-02
-4.698065295815467834e-02
-3.945691138505935669e-02
-1.663888990879058838e-02
-6.238620728254318237e-02
-6.681793928146362305e-02
-6.434898078441619873e-02
-1.869575530290603638e-01
1.970410579815506935e-03
-1.104995533823966980e-01
-5.442202836275100708e-02
2.556411083787679672e-03
-3.344421274960041046e-03
2.607017010450363159e-02
-6.881078332662582397e-02
1.053312886506319046e-02
1.079172082245349884e-02
-2.405544221401214600e-01
-3.332982584834098816e-02
-6.114520877599716187e-02
1.694110780954360962e-02
-8.205519616603851318e-02
-4.470789432525634766e-02
1.297763921320438385e-02
-2.240620739758014679e-02
-4.196564480662345886e-02
4.658851400017738342e-02
-5.696214735507965088e-02
3.573458641767501831e-02
-1.198202744126319885e-01
2.448102273046970367e-02
-2.296354807913303375e-02
-7.330338656902313232e-02
-8.745004236698150635e-02
5.552292335778474808e-03
2.784770913422107697e-02
7.127007842063903809e-02
-9.789166599512100220e-02
-4.054884985089302063e-02
-1.096266582608222961e-01
-1.678150892257690430e-02
4.694949835538864136e-02
6.286521255970001221e-02
-1.001330614089965820e-01
-3.207985311746597290e-02
1.389131397008895874e-01
-6.681909412145614624e-02
1.900257915258407593e-02
6.124529242515563965e-02
2.010860145092010498e-01
6.207252293825149536e-02
-2.238245680928230286e-02
-1.806067302823066711e-03
-5.292526260018348694e-02
8.515255153179168701e-02
3.544632717967033386e-02
2.000729180872440338e-02
-3.273606672883033752e-02
8.702382445335388184e-02
-1.785534434020519257e-02
9.548919647932052612e-02
5.252445116639137268e-02
-1.410993635654449463e-01
1.955423876643180847e-02
-2.987530780956149101e-03
-1.950690895318984985e-02
-7.809718698263168335e-02
2.641502395272254944e-02
-2.261523529887199402e-02
-4.906708747148513794e-02
-4.298494756221771240e-02
2.178526669740676880e-01
7.862944155931472778e-02
-4.965611547231674194e-02
-5.513919517397880554e-03
2.099493145942687988e-01
-4.157542064785957336e-02
1.034392267465591431e-01
1.732389256358146667e-02
-4.125382751226425171e-02
-6.837207078933715820e-02
8.737964928150177002e-02
-5.063515529036521912e-02
-3.031157702207565308e-02
-1.084592267870903015e-01
-5.241522192955017090e-02
4.255511611700057983e-02
2.158111184835433960e-01
-7.911295443773269653e-02
-3.698544204235076904e-02
-7.027038931846618652e-02
-1.526731904596090317e-02
-1.013988479971885681e-01
-3.822086378931999207e-02
-8.557201921939849854e-02
-1.520512700080871582e-01
6.138998270034790039e-02
-4.397416114807128906e-02
5.666776373982429504e-02
-8.480779081583023071e-02
-2.594567462801933289e-02
3.022815659642219543e-02
-1.719838008284568787e-02
-9.331318549811840057e-03
2.290590479969978333e-02
-6.540808826684951782e-02
-6.239409372210502625e-02
-3.679885342717170715e-02
4.368717595934867859e-02
-1.252055983059108257e-03
-8.816591650247573853e-02
-3.505618078634142876e-03
4.105427116155624390e-02
-5.769822746515274048e-02
-9.319361299276351929e-02
9.372770041227340698e-02
1.355419028550386429e-02
-2.093164809048175812e-02
9.480663388967514038e-02
1.045797467231750488e-01
-1.584933698177337646e-02
-1.892132684588432312e-02
1.506915390491485596e-01
1.928713358938694000e-02
-8.015895728021860123e-04
5.610020831227302551e-02
-8.726740255951881409e-03
-7.333775609731674194e-02
-2.500558458268642426e-02
-7.565481960773468018e-02
-2.975782379508018494e-02
-1.122495010495185852e-01
-3.791181370615959167e-02
8.558019250631332397e-02
6.849228590726852417e-02
6.820261478424072266e-02
-2.554007060825824738e-02
2.017688937485218048e-02
-4.506187140941619873e-02
-7.634305953979492188e-02
8.772882074117660522e-02
-4.795806854963302612e-02
-8.776651322841644287e-02
-1.102767437696456909e-01
-6.549649685621261597e-02
1.422412544488906860e-01
2.443893812596797943e-02
3.299652412533760071e-02
2.465765364468097687e-02
8.365797251462936401e-02
-2.084465324878692627e-02
6.263028085231781006e-02
-3.716405853629112244e-02
3.206205740571022034e-02
2.194630727171897888e-02
2.270808443427085876e-02
5.829660966992378235e-02
-4.906439781188964844e-02
-4.917039722204208374e-02
1.050349250435829163e-01
-1.842989400029182434e-02
-1.180457547307014465e-01
2.560127340257167816e-02
-9.228753298521041870e-02
-1.185594052076339722e-01
-7.300838828086853027e-02
-7.225880771875381470e-02
-6.159854307770729065e-02
7.958217710256576538e-02
9.927143156528472900e-02
3.306600265204906464e-03
-1.847270876169204712e-02
-1.133581809699535370e-02
-1.549154706299304962e-02
6.346837431192398071e-02
4.774895310401916504e-02
-6.892819702625274658e-02
-1.231464324519038200e-03
-1.269704010337591171e-02
7.657656073570251465e-02
3.915352746844291687e-02
-1.009298637509346008e-01
1.222756057977676392e-01
4.389671143144369125e-03
2.244341559708118439e-02
6.477449089288711548e-02
-3.542033955454826355e-02
-1.228016316890716553e-01
-4.090161994099617004e-02
-4.797310009598731995e-02
6.434879451990127563e-02
9.562118351459503174e-02
1.282434761524200439e-01
-2.684197388589382172e-02
8.430100977420806885e-03
-5.664225667715072632e-02
2.015082538127899170e-02
-1.887067407369613647e-02
-8.306075632572174072e-02
-9.758480638265609741e-02
-8.014646358788013458e-03
-1.121006980538368225e-01
-2.128707803785800934e-02
3.287088498473167419e-02
4.826754704117774963e-02
-1.275149881839752197e-01
-3.485973924398422241e-02
3.024311363697052002e-02
6.032304372638463974e-03
-9.824164211750030518e-03
1.439430518075823784e-03
-6.335700396448373795e-03
2.979049086570739746e-02
5.288174748420715332e-02
6.774555891752243042e-02
-3.499572724103927612e-02
-2.499485760927200317e-02
-6.013898178935050964e-02
-9.570866078138351440e-02
-3.872733563184738159e-02
-1.173808127641677856e-01
5.927620083093643188e-02
2.989507745951414108e-03
-1.114250048995018005e-01
-6.802240759134292603e-02
-5.824494734406471252e-02
-6.547954678535461426e-02
6.810159981250762939e-02
9.872078150510787964e-02
-4.248633235692977905e-02
-3.702544048428535461e-02
-6.570285558700561523e-02
-3.334990469738841057e-03
-1.113734096288681030e-01
-1.439764164388179779e-02
-2.359114959836006165e-02
-5.578543245792388916e-02
-3.671609610319137573e-02
-3.462017327547073364e-02
-2.620107308030128479e-02
8.314431458711624146e-02
6.745363585650920868e-03
-2.874918095767498016e-02
-8.226280659437179565e-02
9.754967689514160156e-02
-8.192935585975646973e-02
7.869391888380050659e-02
-5.013735964894294739e-02
1.465347502380609512e-02
-1.763273775577545166e-02
-8.899720013141632080e-02
6.180541589856147766e-03
-2.057709172368049622e-02
-2.915352210402488708e-02
-1.626013033092021942e-02
8.021518588066101074e-02
-3.055488876998424530e-02
3.948405385017395020e-02
-9.049337357282638550e-03
-5.440215021371841431e-02
4.250319674611091614e-02
4.836839437484741211e-02
-1.879750937223434448e-02
-5.568464472889900208e-02
-5.948771536350250244e-02
-7.797063887119293213e-02
1.373021211475133896e-02
-6.601510196924209595e-02
-2.696727588772773743e-02
5.113869532942771912e-02
4.215981066226959229e-02
8.697829395532608032e-02
1.930416002869606018e-02
-3.072035610675811768e-01
5.216167867183685303e-02
-7.223375141620635986e-02
-5.953540280461311340e-02
2.872668802738189697e-01
-4.267856478691101074e-02
1.159955561161041260e-02
-2.472357824444770813e-02
-1.038025319576263428e-01
-2.170119248330593109e-02
7.976875454187393188e-02
2.581396698951721191e-02
-5.898482725024223328e-02
-7.069516927003860474e-02
-1.873103231191635132e-01
-3.213582187891006470e-02
6.274519115686416626e-02
-6.566089391708374023e-02
-5.703962594270706177e-02
-1.528919581323862076e-02
-2.454751171171665192e-02
-1.038003526628017426e-02
-1.364244427531957626e-02
1.221471130847930908e-01
-3.250413807108998299e-03
7.935744524002075195e-02
3.336572274565696716e-02
1.209046505391597748e-02
3.501356393098831177e-02
-9.890478104352951050e-02
4.683927446603775024e-02
8.379854261875152588e-02
1.198179181665182114e-02
-3.986684232950210571e-02
6.913280580192804337e-03
-7.679531723260879517e-02
-2.859750203788280487e-02
-2.055847086012363434e-02
-2.065579593181610107e-02
1.198884332552552223e-03
2.225822024047374725e-02
1.480607688426971436e-01
4.202068317681550980e-03
6.351517885923385620e-02
9.596105664968490601e-02
4.162400960922241211e-02
-6.605491787195205688e-02
8.937325328588485718e-02
3.465232998132705688e-02
1.882595382630825043e-02
-3.788235783576965332e-02
-9.373658895492553711e-02
-3.825713694095611572e-02
2.992902509868144989e-02
3.917078673839569092e-02
5.788111314177513123e-02
-3.883559256792068481e-02
-7.368463277816772461e-02
2.268188819289207458e-02
-2.787939971312880516e-03
-1.046657264232635498e-01
-9.021037071943283081e-02
-1.237658485770225525e-01
-1.118039786815643311e-01
-1.241706684231758118e-01
5.151892080903053284e-02
-2.546597085893154144e-02
-9.431344270706176758e-02
-1.312323939055204391e-02
-5.657575279474258423e-02
1.076198462396860123e-02
-9.514084458351135254e-02
-2.221994660794734955e-02
-2.483988739550113678e-02
3.041122481226921082e-02
4.982664063572883606e-02
-1.794303804636001587e-01
-9.469553828239440918e-02
-6.991706043481826782e-02
5.115137249231338501e-02
-7.712863385677337646e-02
-4.960433021187782288e-02
6.491872668266296387e-02
-7.215226441621780396e-02
-1.268351525068283081e-01
5.865512788295745850e-02
-1.674810424447059631e-02
-9.929643012583255768e-03
-7.774652540683746338e-02
-1.817520707845687866e-02
-4.611336812376976013e-02
-1.966962032020092010e-02
3.549317643046379089e-02
1.143877208232879639e-02
-7.760864496231079102e-02
-7.437166757881641388e-03
-4.034877568483352661e-02
3.278849180787801743e-03
-3.314208984375000000e-02
-5.507062003016471863e-02
3.596225008368492126e-02
7.963426411151885986e-02
2.116069756448268890e-02
1.567485556006431580e-02
1.706787496805191040e-01
-8.872579783201217651e-02
1.012159232050180435e-02
-1.493254899978637695e-01
6.574929505586624146e-02
-2.073771134018898010e-02
4.544896632432937622e-02
-4.987637698650360107e-02
-4.425392672419548035e-02
3.254662454128265381e-02
3.991325944662094116e-02
-1.406321823596954346e-01
2.264671027660369873e-02
-1.070088595151901245e-01
5.996605753898620605e-02
-6.895485520362854004e-02
8.245301432907581329e-03
5.002240836620330811e-02
-1.060225069522857666e-01
2.418955974280834198e-02
-1.907464466057717800e-03
4.290692508220672607e-02
-2.693541580811142921e-03
-7.253667805343866348e-03
-7.795593142509460449e-02
-7.178238779306411743e-02
6.410080194473266602e-02
2.097388356924057007e-02
-2.685374617576599121e-01
-3.345720469951629639e-02
-3.719555586576461792e-02
-2.452386077493429184e-03
-1.286001950502395630e-01
3.803202509880065918e-02
6.616492569446563721e-02
-1.240024790167808533e-01
-2.650932781398296356e-02
1.237651556730270386e-01
-1.375798415392637253e-02
2.480333484709262848e-02
1.336250454187393188e-01
1.543050110340118408e-01
-2.827206254005432129e-02
3.534537181258201599e-02
4.819770529866218567e-02
2.007926069200038910e-02
9.795755147933959961e-03
-1.238498538732528687e-01
1.973485015332698822e-02
-4.006059840321540833e-02
6.255801767110824585e-02
-3.128359839320182800e-02
-4.757355898618698120e-02
4.044633358716964722e-02
-8.644986152648925781e-02
-2.598492242395877838e-02
4.392245784401893616e-03
-1.033078134059906006e-01
4.765298217535018921e-02
4.250347241759300232e-02
4.398473724722862244e-02
-5.189873650670051575e-02
-3.200510889291763306e-02
-2.692284621298313141e-02
4.062982648611068726e-02
-5.107519403100013733e-02
-2.863551676273345947e-02
1.298784166574478149e-01
-8.046451210975646973e-02
-1.648770272731781006e-02
2.052662894129753113e-02
7.632094621658325195e-02
7.525327801704406738e-02
3.760426864027976990e-02
2.325782738626003265e-02
-3.898879140615463257e-02
4.231040831655263901e-03
-2.885760925710201263e-02
1.455189734697341919e-01
-6.308928877115249634e-02
3.600636497139930725e-02
-3.793498873710632324e-02
2.357780635356903076e-01
9.212999045848846436e-02
7.796484231948852539e-02
-2.572564966976642609e-02
-6.639304757118225098e-02
-1.282723620533943176e-02
6.422184407711029053e-02
-1.196558773517608643e-02
4.459560732357203960e-04
3.244301304221153259e-02
-9.920461475849151611e-02
-6.868623197078704834e-02
3.170898184180259705e-02
-8.914984762668609619e-02
-2.529767528176307678e-02
2.718057483434677124e-02
-3.171767666935920715e-02
7.953232526779174805e-02
2.174143306910991669e-02
1.323170308023691177e-02
1.262710839509963989e-01
2.899243310093879700e-02
-2.901664702221751213e-04
-3.446155751589685678e-04
-8.189375698566436768e-02
2.247870899736881256e-02
-2.652402967214584351e-02
3.753550350666046143e-02
-1.072275564074516296e-01
1.044808551669120789e-01
1.457162499427795410e-01
-8.936338126659393311e-02
-6.389728933572769165e-02
2.022709138691425323e-02
-1.533313933759927750e-02
-1.218441277742385864e-01
1.025904044508934021e-01
-8.071165531873703003e-02
2.977357804775238037e-02
-4.374258965253829956e-02
-2.571561932563781738e-02
6.909494102001190186e-02
-2.338122762739658356e-02
-2.868036366999149323e-02
-1.168525367975234985e-01
5.549828056246042252e-03
-5.329621583223342896e-02
9.219530038535594940e-03
2.514121588319540024e-03
-3.624112159013748169e-02
-2.246915735304355621e-02
3.686415031552314758e-02
-5.100942030549049377e-02
-9.076830931007862091e-03
-1.996637135744094849e-02
2.093526907265186310e-02
-6.245593354105949402e-02
-3.768666088581085205e-02
-1.276110950857400894e-02
4.176859930157661438e-02
-3.830346837639808655e-02
-5.900602415204048157e-02
8.014430850744247437e-02
-6.603989750146865845e-02
-6.135952845215797424e-02
3.810618072748184204e-02
5.614744871854782104e-02
9.655458480119705200e-02
2.579583600163459778e-02
-5.308737233281135559e-02
-1.280434578657150269e-01
-4.256905056536197662e-03
4.725807905197143555e-02
4.476915672421455383e-02
4.061362892389297485e-02
1.544406265020370483e-02
-1.224573999643325806e-01
-4.621496424078941345e-02
-1.897875517606735229e-01
-1.241996958851814270e-01
-2.128421328961849213e-02
-9.101284295320510864e-02
-1.145151406526565552e-01
-1.017244979739189148e-01
-1.710765808820724487e-02
4.323553293943405151e-02
-5.862146243453025818e-02
-2.178262472152709961e-01
-1.443360745906829834e-01
-6.622669845819473267e-02
-1.580444276332855225e-01
8.794987946748733521e-02
6.706444919109344482e-02
2.649516984820365906e-02
-1.345894671976566315e-02
2.493884228169918060e-02
3.045343421399593353e-02
-2.998613938689231873e-02
1.274388134479522705e-01
4.781979136168956757e-03
-5.055544897913932800e-02
9.270686656236648560e-02
-3.565294146537780762e-01
3.450675401836633682e-03
-3.980368375778198242e-02
-2.899723686277866364e-02
-1.462782323360443115e-01
-6.091466173529624939e-02
-3.277100995182991028e-02
3.138180077075958252e-02
-1.037309877574443817e-02
1.155290193855762482e-02
-4.477673023939132690e-02
-3.671456873416900635e-02
-8.843356370925903320e-02
-6.740818917751312256e-02
2.382943034172058105e-02
-6.346097588539123535e-02
6.886424124240875244e-02
-7.974118739366531372e-02
-8.290536701679229736e-02
-9.824178367853164673e-02
2.350484207272529602e-02
2.744844928383827209e-02
-1.916743814945220947e-01
-1.937870383262634277e-01
2.358577027916908264e-02
-1.856791973114013672e-02
-6.905933469533920288e-02
-7.759545743465423584e-02
-1.119690686464309692e-01
-5.972367525100708008e-02
5.224547907710075378e-02
1.014523208141326904e-01
-6.628718972206115723e-02
-1.054083332419395447e-01
-4.181286692619323730e-02
-8.410356938838958740e-02
-1.395111829042434692e-01
-7.283551990985870361e-02
9.539885818958282471e-02
1.254490856081247330e-02
-6.131605803966522217e-02
-3.166645392775535583e-02
-2.586131356656551361e-02
-1.910504326224327087e-02
6.304059643298387527e-03
-9.466095268726348877e-02
1.916320025920867920e-01
3.833347558975219727e-02
-7.254588603973388672e-02
-4.029752381029538810e-05
1.595919951796531677e-02
2.598526328802108765e-02
2.762613818049430847e-02
8.654700592160224915e-03
1.884847693145275116e-02
2.550600655376911163e-02
-1.440270841121673584e-01
-5.984503030776977539e-02
4.014556854963302612e-02
1.831681430339813232e-01
-2.048542536795139313e-02
3.197260200977325439e-02
-1.324871927499771118e-01
7.103447336703538895e-03
2.920771948993206024e-02
4.720872268080711365e-03
-4.964816942811012268e-02
-2.147118933498859406e-02
-6.841139867901802063e-03
-1.300964411348104477e-02
-1.550041791051626205e-02
-7.092710584402084351e-02
-2.082997933030128479e-02
-7.828996330499649048e-02
-1.941013522446155548e-02
-1.352945156395435333e-02
1.949481219053268433e-01
4.991964437067508698e-03
-4.330790042877197266e-02
1.901182159781455994e-02
1.948588527739048004e-02
4.459348507225513458e-03
-4.108360409736633301e-02
-5.640019103884696960e-02
4.693891108036041260e-02
8.801854401826858521e-02
8.646609634160995483e-02
3.886171802878379822e-02
5.970958620309829712e-02
-1.209875717759132385e-01
-4.163335636258125305e-02
4.102163761854171753e-02
-8.629177697002887726e-03
5.657844617962837219e-02
-3.411789238452911377e-02
5.670797824859619141e-02
1.573238521814346313e-01
-3.158556297421455383e-02
4.880984500050544739e-02
7.029092311859130859e-02
-1.608775705099105835e-01
7.496749609708786011e-02
-4.499569907784461975e-02
6.092557311058044434e-02
7.085294276475906372e-02
-3.906973451375961304e-02
-5.087728053331375122e-02
-2.115983515977859497e-02
5.059110932052135468e-03
1.013539955019950867e-01
1.197173520922660828e-01
2.942094765603542328e-02
-1.757458969950675964e-02
-2.036826014518737793e-01
-5.658183991909027100e-02
-1.067002341151237488e-01
4.320656508207321167e-02
5.687009543180465698e-02
-1.932315230369567871e-01
-8.014854043722152710e-02
-3.518421435728669167e-03
2.782702445983886719e-02
5.421103164553642273e-02
1.120728999376296997e-02
-2.645383179187774658e-01
-1.428616791963577271e-02
-5.539195984601974487e-02
-4.727497324347496033e-02
-1.234526000916957855e-02
3.732399642467498779e-02
-3.571077808737754822e-02
-7.343654055148363113e-03
-3.500287607312202454e-02
4.235751181840896606e-02
7.922921329736709595e-02
1.463515870273113251e-02
-3.732626140117645264e-02
1.286194100975990295e-02
3.892298042774200439e-02
-1.400559395551681519e-02
-3.072689520195126534e-03
1.444281488656997681e-01
7.519064098596572876e-02
-1.557011716067790985e-02
-2.797529846429824829e-02
5.398254841566085815e-02
-6.631252169609069824e-02
2.175214933231472969e-03
8.471404202282428741e-03
3.701515868306159973e-02
-1.508351564407348633e-01
-3.503813594579696655e-02
-1.149048656225204468e-02
-2.729581296443939209e-02
-2.236791886389255524e-02
-2.609574235975742340e-02
-9.447987377643585205e-02
-2.629750594496726990e-02
-3.226862475275993347e-02
-6.877807527780532837e-02
-7.090516737662255764e-04
-9.016725420951843262e-02
2.639964222908020020e-02
3.257639706134796143e-02
1.005059406161308289e-01
-1.700184680521488190e-02
-2.738230526447296143e-01
7.094122935086488724e-03
1.082277745008468628e-01
-8.870135247707366943e-02
-8.268180489540100098e-02
3.312433883547782898e-02
-3.771690279245376587e-02
-7.909674197435379028e-03
1.189977899193763733e-01
9.924663603305816650e-02
-1.726554706692695618e-02
6.685492396354675293e-02
-1.370518356561660767e-01
4.540247097611427307e-02
-6.020932272076606750e-02
6.665977649390697479e-03
4.911515489220619202e-02
5.293686408549547195e-03
9.777814894914627075e-02
-2.225138060748577118e-02
6.495877355337142944e-02
3.853299841284751892e-02
-3.758366405963897705e-02
5.934435874223709106e-02
7.730233669281005859e-02
1.876241900026798248e-02
9.132844954729080200e-02
8.437543362379074097e-02
8.059653639793395996e-02
-1.358355581760406494e-02
1.121208257973194122e-02
-4.407007712870836258e-03
1.455701291561126709e-01
-2.167438529431819916e-02
-1.636091619729995728e-02
1.406151205301284790e-01
4.024674370884895325e-02
7.633457332849502563e-02
-6.337516009807586670e-02
5.855242535471916199e-02
9.672450833022594452e-03
-4.581924155354499817e-02
5.479494854807853699e-02
3.785663470625877380e-02
-2.753069996833801270e-02
2.020879648625850677e-02
5.747565254569053650e-02
1.755106449127197266e-01
1.957151144742965698e-01
3.549435734748840332e-02
-2.482866309583187103e-02
7.127063721418380737e-02
-3.331680595874786377e-02
-2.847769297659397125e-02
-4.100679978728294373e-02
-1.069059073925018311e-01
2.349476329982280731e-02
6.777566671371459961e-02
2.909230887889862061e-01
6.029709801077842712e-02
9.795126505196094513e-03
4.321658611297607422e-02
3.146125972270965576e-01
1.452790945768356323e-02
1.780310645699501038e-02
2.233351953327655792e-02
7.439109683036804199e-02
-1.929247938096523285e-02
-2.398537658154964447e-02
7.535763084888458252e-02
2.594394143670797348e-03
1.128834672272205353e-02
-4.792271554470062256e-02
8.810918778181076050e-02
-5.907717347145080566e-02
-1.318170130252838135e-01
3.499394282698631287e-02
-1.389077864587306976e-02
-4.942487552762031555e-02
4.393031820654869080e-02
-2.847484126687049866e-02
-4.464637115597724915e-02
-6.833732128143310547e-02
-2.633646875619888306e-02
-2.108271047472953796e-02
-2.933324128389358521e-02
5.013987049460411072e-02
2.600367181003093719e-02
9.699150919914245605e-02
-6.107758730649948120e-02
