-6.843081116676330566e-02
5.605693534016609192e-02
-4.326855018734931946e-02
1.610598899424076080e-02
-2.180139720439910889e-02
4.333609249442815781e-03
5.316327791661024094e-03
4.359576106071472168e-02
-6.384978443384170532e-02
-4.910078644752502441e-02
-1.889968104660511017e-02
3.859392926096916199e-02
4.090840462595224380e-03
-1.780761219561100006e-02
-1.692138612270355225e-02
-5.087196081876754761e-02
3.509746119379997253e-02
2.269784919917583466e-02
5.915787070989608765e-03
-6.437943875789642334e-02
6.049880757927894592e-02
4.537595808506011963e-02
-1.212575063109397888e-01
5.965288262814283371e-03
1.348128356039524078e-02
-4.116318002343177795e-02
5.393499135971069336e-02
-4.066108912229537964e-02
-2.115932665765285492e-02
4.552665352821350098e-02
2.394211478531360626e-02
2.756827324628829956e-02
-1.216881908476352692e-02
-7.372876256704330444e-02
-9.411958977580070496e-03
3.020875155925750732e-02
6.503894925117492676e-02
1.513911597430706024e-02
-7.305032014846801758e-02
9.787702560424804688e-02
4.966182634234428406e-03
-6.549098342657089233e-02
4.104006662964820862e-02
-5.115211009979248047e-02
4.353420063853263855e-02
2.984071150422096252e-02
-9.298348799347877502e-03
1.801924407482147217e-02
8.342096209526062012e-02
-2.047746069729328156e-02
-9.868822060525417328e-03
9.503098577260971069e-02
-5.385181680321693420e-02
-1.920642331242561340e-02
1.960687339305877686e-02
3.564677014946937561e-02
4.707183688879013062e-02
-5.184938013553619385e-02
9.918753802776336670e-02
-1.814489811658859253e-02
-3.480533882975578308e-02
4.459884762763977051e-02
2.100203000009059906e-02
1.309015788137912750e-02
-2.715589478611946106e-02
2.585086738690733910e-03
-8.263505063951015472e-03
-6.398308556526899338e-03
-1.891407556831836700e-02
5.004567652940750122e-02
1.230767462402582169e-02
7.075995206832885742e-02
5.033211782574653625e-02
4.560613259673118591e-02
-2.009730041027069092e-02
1.085031591355800629e-02
-3.261612355709075928e-02
-2.630551718175411224e-02
-6.779889762401580811e-02
4.721623845398426056e-03
1.952206529676914215e-02
5.459162592887878418e-02
-5.912390351295471191e-02
1.139918994158506393e-02
2.652782481163740158e-03
7.144437730312347412e-02
-6.757411360740661621e-02
2.721520140767097473e-02
-3.346951305866241455e-02
-1.340078003704547882e-02
2.984513528645038605e-02
-3.978486731648445129e-02
1.032638084143400192e-02
-4.613402113318443298e-02
2.171129360795021057e-02
-5.417438596487045288e-02
4.106828011572360992e-03
6.753347814083099365e-02
1.109564956277608871e-02
1.351835206151008606e-02
-3.231070563197135925e-02
-4.599098488688468933e-02
2.107253670692443848e-02
-7.301287353038787842e-02
-2.111893706023693085e-02
-3.139157220721244812e-02
-2.521963231265544891e-02
4.036604240536689758e-02
4.117364063858985901e-02
-7.460694015026092529e-02
8.168870583176612854e-03
4.792001470923423767e-02
6.857474893331527710e-02
7.681856397539377213e-03
3.961795940995216370e-02
-6.347441673278808594e-02
-4.072162881493568420e-02
7.716006785631179810e-02
-5.194302648305892944e-03
2.420036680996417999e-02
5.135961994528770447e-02
-7.885958999395370483e-03
-5.496950075030326843e-02
1.926816441118717194e-02
-9.413585066795349121e-03
2.112217061221599579e-02
3.894107788801193237e-02
-2.010076865553855896e-02
