8.937533944845199585e-02
3.053076006472110748e-02
8.064732886850833893e-03
-2.466526441276073456e-02
-2.044927030801773071e-01
-1.774149686098098755e-01
5.684532597661018372e-02
2.437251061201095581e-02
1.747747361660003662e-01
-1.151956841349601746e-01
1.605279557406902313e-02
5.712850019335746765e-02
-1.945929601788520813e-02
1.194067373871803284e-01
2.404671460390090942e-01
4.011516645550727844e-02
-2.930523641407489777e-02
-6.890898197889328003e-02
-1.450446993112564087e-01
-1.964598596096038818e-01
7.985993474721908569e-02
5.142183974385261536e-02
1.082399785518646240e-01
-2.404447644948959351e-02
1.741299964487552643e-02
-4.598324187099933624e-03
7.736604660749435425e-02
5.107574537396430969e-02
1.312872469425201416e-01
-1.770992279052734375e-01
3.821272775530815125e-02
1.913457661867141724e-01
-6.890190392732620239e-02
1.371035724878311157e-01
-1.271776109933853149e-01
1.723066121339797974e-01
9.475339949131011963e-02
2.949947863817214966e-02
7.193281501531600952e-02
-1.146662309765815735e-01
-7.856142520904541016e-02
2.628453262150287628e-02
2.865921705961227417e-02
-3.092004060745239258e-01
-3.849357739090919495e-02
1.188653409481048584e-01
-9.678451716899871826e-02
-4.343703761696815491e-02
-1.600143611431121826e-01
-2.070952206850051880e-02
2.957577258348464966e-02
-2.089364640414714813e-02
-7.837967574596405029e-02
6.715984642505645752e-02
-6.483519100584089756e-04
3.811812773346900940e-02
-3.325780108571052551e-02
3.468179702758789062e-02
5.763108283281326294e-02
3.576077753677964211e-03
2.922257967293262482e-02
5.267105251550674438e-02
4.707684367895126343e-02
-5.366786569356918335e-02
-2.947464957833290100e-02
-7.809428125619888306e-02
2.316625043749809265e-02
-2.639073505997657776e-02
3.953165933489799500e-02
3.108995966613292694e-02
6.292136758565902710e-02
1.201686337590217590e-01
-2.964142337441444397e-02
2.787583880126476288e-02
1.392780840396881104e-01
-1.510173082351684570e-01
-6.359502673149108887e-02
1.315649412572383881e-02
-4.661026410758495331e-03
8.452423661947250366e-02
5.811846349388360977e-03
4.702007770538330078e-02
6.916081905364990234e-02
9.095484018325805664e-02
2.211626991629600525e-02
1.413065791130065918e-01
6.410533934831619263e-02
-2.820266224443912506e-02
-1.179287880659103394e-01
-1.286570429801940918e-01
6.384138949215412140e-03
3.467018157243728638e-02
7.362984120845794678e-03
-1.620418392121791840e-02
8.164761960506439209e-02
3.831782191991806030e-02
-2.806100621819496155e-02
-5.071426182985305786e-02
5.017077550292015076e-02
-9.983772039413452148e-02
1.891409419476985931e-02
-1.215441301465034485e-01
1.492872387170791626e-01
2.756484597921371460e-02
4.296641796827316284e-02
1.367715280503034592e-02
7.617216557264328003e-02
-9.894223511219024658e-02
4.398388788104057312e-02
-1.982230246067047119e-01
1.381797790527343750e-01
-2.861651591956615448e-02
-6.241061538457870483e-02
-1.216593533754348755e-01
6.176868919283151627e-03
7.551123201847076416e-02
4.131006076931953430e-02
-1.398932337760925293e-01
-1.934656500816345215e-01
-2.510132268071174622e-02
-5.399208515882492065e-02
-1.362906098365783691e-01
1.268484443426132202e-01
-7.141673471778631210e-03
1.016785353422164917e-01
-4.637756571173667908e-02
-9.009596705436706543e-02
6.422323733568191528e-02
1.831055991351604462e-02
-5.333982780575752258e-02
3.638636693358421326e-02
-1.872658729553222656e-01
-8.694700896739959717e-03
9.259691834449768066e-02
-1.789939217269420624e-02
-3.342654556035995483e-02
-8.372493088245391846e-02
-1.005613282322883606e-01
-1.195695623755455017e-01
4.474833235144615173e-02
1.337575614452362061e-01
1.145948544144630432e-01
4.346600547432899475e-02
-3.649497777223587036e-02
4.691648110747337341e-02
-7.669930160045623779e-02
8.335864543914794922e-02
1.907317638397216797e-01
7.887271791696548462e-02
-6.945139262825250626e-03
1.185718178749084473e-02
7.436122745275497437e-02
-3.102911636233329773e-02
2.926606126129627228e-02
8.718518912792205811e-02
2.291981317102909088e-02
-6.247613579034805298e-03
2.765819802880287170e-02
9.023149311542510986e-02
-4.973513633012771606e-02
-6.767495721578598022e-02
-1.029942855238914490e-01
-1.095690503716468811e-01
7.878617197275161743e-02
2.732528932392597198e-02
-8.570125699043273926e-02
1.228629648685455322e-01
7.472921162843704224e-02
-2.067578211426734924e-02
-6.736288219690322876e-02
4.989062622189521790e-02
-1.820823401212692261e-01
1.429873704910278320e-01
-5.948754400014877319e-02
1.860786415636539459e-02
1.068830713629722595e-01
1.166972443461418152e-01
-3.418238461017608643e-02
5.174595117568969727e-02
-1.354227513074874878e-01
-4.592118784785270691e-03
4.281451180577278137e-02
-5.722865462303161621e-02
1.286422926932573318e-02
1.084266602993011475e-01
-6.508332490921020508e-02
1.163930520415306091e-01
1.933974958956241608e-02
1.040640920400619507e-01
-1.083316430449485779e-01
-1.046608984470367432e-01
5.966217443346977234e-02
-2.483016252517700195e-02
7.326506823301315308e-02
-2.984495647251605988e-02
-5.175401456654071808e-03
1.940760388970375061e-02
1.221733633428812027e-02
-3.359863534569740295e-02
-9.932188689708709717e-02
-2.779105491936206818e-02
1.144422665238380432e-01
3.810236230492591858e-02
-9.603772312402725220e-02
-5.946025252342224121e-02
-1.115494593977928162e-02
-2.514556609094142914e-02
6.589915137737989426e-04
2.520889602601528168e-02
-2.493686601519584656e-02
5.912348162382841110e-03
-2.249350771307945251e-02
-1.461606705561280251e-03
-7.390704751014709473e-02
-1.207167580723762512e-01
1.034081280231475830e-01
6.873671710491180420e-02
-1.704945415258407593e-01
7.213650643825531006e-02
3.008971735835075378e-02
-2.930302917957305908e-02
3.609853237867355347e-02
4.628092423081398010e-02
5.176107212901115417e-02
-2.387455850839614868e-01
2.082700812024995685e-04
-3.711589425802230835e-02
4.673184454441070557e-02
2.055580355226993561e-02
-2.213031239807605743e-02
-2.008958347141742706e-02
3.059135749936103821e-02
4.601556062698364258e-02
5.108498781919479370e-02
-7.973074913024902344e-03
-1.117429416626691818e-02
8.253937959671020508e-02
3.987487405538558960e-02
8.182445541024208069e-03
-1.418877094984054565e-01
-1.327206045389175415e-01
-2.810953184962272644e-02
-8.462257683277130127e-02
-3.366017937660217285e-01
-6.027441006153821945e-03
9.603487700223922729e-02
-1.412969678640365601e-01
-1.093846485018730164e-01
3.742619603872299194e-02
3.076734393835067749e-02
-3.456644713878631592e-02
2.257105335593223572e-02
1.152328848838806152e-01
-1.028322279453277588e-01
-9.326828643679618835e-03
6.769710220396518707e-03
-5.718709528446197510e-02
-4.116306081414222717e-02
-8.076529949903488159e-02
-3.618190065026283264e-03
1.203496940433979034e-02
-5.519409477710723877e-02
3.292778506875038147e-02
4.571835696697235107e-02
2.075170911848545074e-02
1.360598392784595490e-02
-1.905626989901065826e-02
5.788616463541984558e-02
8.483992516994476318e-02
-1.026409398764371872e-02
1.130592152476310730e-01
-6.891653407365083694e-03
-5.745571479201316833e-02
5.556110758334398270e-03
1.343947369605302811e-02
5.081679299473762512e-02
-5.786856636404991150e-02
5.430642515420913696e-02
-3.330495953559875488e-02
8.525799214839935303e-02
3.441221313551068306e-03
-1.771839149296283722e-02
-6.286670919507741928e-03
3.859499469399452209e-02
-4.366203770041465759e-02
2.784393541514873505e-02
6.730203330516815186e-02
1.445743441581726074e-01
-1.074646487832069397e-01
1.160974130034446716e-01
-7.059285417199134827e-03
-3.309625759720802307e-02
-5.145651753991842270e-03
-3.574692830443382263e-02
-1.238102689385414124e-01
6.667111068964004517e-03
1.403778046369552612e-02
-4.159419983625411987e-02
4.628679901361465454e-02
4.548905417323112488e-03
-6.464534252882003784e-02
4.207271710038185120e-02
2.208382077515125275e-02
8.175519853830337524e-02
1.819434762001037598e-01
-1.615735143423080444e-02
-9.195727109909057617e-02
-3.495065495371818542e-02
5.208364129066467285e-02
-6.339910440146923065e-03
6.674827635288238525e-02
-3.810655698180198669e-02
5.038947239518165588e-02
-1.679853647947311401e-01
-3.368737548589706421e-02
4.276469349861145020e-02
1.181638687849044800e-01
6.608379632234573364e-02
-2.062943018972873688e-02
5.466995015740394592e-02
2.012432552874088287e-03
1.435807496309280396e-01
1.381620019674301147e-01
-2.497635968029499054e-02
2.748514898121356964e-02
4.566807672381401062e-02
1.143888607621192932e-01
1.436843536794185638e-02
8.027223497629165649e-02
-5.079163983464241028e-02
7.455713301897048950e-02
-2.234276756644248962e-02
3.880908712744712830e-02
3.899218514561653137e-02
3.868979588150978088e-02
-1.376238465309143066e-01
-1.908697001636028290e-02
5.501224473118782043e-02
2.062458731234073639e-02
2.189607126638293266e-03
-6.501302868127822876e-02
6.138044968247413635e-02
3.522249311208724976e-02
-8.933215588331222534e-02
4.071305692195892334e-02
-1.686531752347946167e-01
1.654702052474021912e-02
8.766719698905944824e-02
-7.648764178156852722e-03
3.412911668419837952e-02
9.348703175783157349e-02
-1.549248546361923218e-01
-9.323409199714660645e-02
3.005007095634937286e-02
4.734552279114723206e-02
-6.787023972719907761e-03
-4.204418044537305832e-03
1.760412603616714478e-01
4.039097577333450317e-02
-3.348767384886741638e-02
-8.118447661399841309e-02
-7.000140845775604248e-03
-1.176822707056999207e-01
-1.045422106981277466e-01
-8.249668776988983154e-02
2.399116940796375275e-02
-1.236414462327957153e-01
-1.541654206812381744e-02
1.651386469602584839e-01
-5.620871484279632568e-02
5.861249938607215881e-02
2.090184539556503296e-01
3.962885960936546326e-02
-6.349612493067979813e-03
-2.171437442302703857e-02
3.270011767745018005e-02
-9.416136145591735840e-02
2.566295303404331207e-02
1.058585271239280701e-01
-6.525290012359619141e-02
-4.886021837592124939e-02
3.556565195322036743e-02
-4.900697991251945496e-02
5.214952304959297180e-02
-5.274192988872528076e-02
1.687089167535305023e-02
-7.778301835060119629e-02
-1.652733795344829559e-02
-8.078514039516448975e-02
-2.515808865427970886e-02
-1.642377860844135284e-02
5.123817920684814453e-02
3.557526692748069763e-02
-1.885061711072921753e-01
8.800590783357620239e-02
1.962823234498500824e-02
-1.691782921552658081e-01
4.652289673686027527e-02
3.724811971187591553e-02
-1.073684077709913254e-02
1.251052618026733398e-01
-1.430352590978145599e-02
-1.729603409767150879e-01
1.284786462783813477e-01
-2.983666397631168365e-02
-1.247267425060272217e-02
-3.276344761252403259e-02
-1.858419030904769897e-01
-2.746473811566829681e-02
5.122796283103525639e-04
-2.526774816215038300e-02
-1.056434027850627899e-02
-1.109598553739488125e-03
-2.404357306659221649e-02
-5.956013873219490051e-02
-4.903233796358108521e-02
-2.814057767391204834e-01
1.086269095540046692e-01
6.175146624445915222e-02
4.687216132879257202e-02
-1.070472151041030884e-01
1.409685462713241577e-01
-7.022882997989654541e-02
3.583564460277557373e-01
6.238071713596582413e-03
-1.058687549084424973e-02
5.825170781463384628e-03
-7.241486106067895889e-03
-6.662135571241378784e-02
9.153576940298080444e-02
1.904191076755523682e-01
-7.097970694303512573e-02
9.088388085365295410e-02
-1.188404038548469543e-01
-2.459320425987243652e-02
7.784130424261093140e-02
3.601109609007835388e-02
-4.849476739764213562e-02
1.316659338772296906e-02
-3.987413272261619568e-02
-7.211202383041381836e-02
-1.492861062288284302e-01
-5.070063099265098572e-02
-8.465617895126342773e-02
9.979024529457092285e-02
1.028674393892288208e-01
5.058851465582847595e-02
-5.130489170551300049e-02
-5.951862782239913940e-02
-1.200307756662368774e-01
-5.078485980629920959e-02
5.583217367529869080e-02
9.921973571181297302e-03
8.347651362419128418e-02
7.824103347957134247e-03
-4.357976466417312622e-02
1.485315710306167603e-02
-4.122878983616828918e-02
-1.043037846684455872e-01
-4.423634149134159088e-03
-5.320863798260688782e-03
-1.454869061708450317e-01
-3.688380122184753418e-02
-6.984280049800872803e-02
-1.398853026330471039e-02
9.147696942090988159e-02
-4.285976290702819824e-02
6.082428619265556335e-02
-2.217342704534530640e-02
-5.810991302132606506e-02
1.169236898422241211e-01
-1.810693554580211639e-02
6.850944459438323975e-02
8.004735410213470459e-02
-6.002079695463180542e-02
9.306708350777626038e-03
1.171897202730178833e-01
-9.702156484127044678e-02
-8.990979939699172974e-02
6.290894746780395508e-02
1.198608651757240295e-01
6.451897323131561279e-02
1.320838835090398788e-02
-2.793612331151962280e-02
-9.038353711366653442e-02
-5.363447219133377075e-02
2.411621809005737305e-02
9.945333749055862427e-02
3.649212792515754700e-02
-3.235021233558654785e-02
-3.915063571184873581e-03
6.806093454360961914e-02
1.233778595924377441e-01
-3.782092034816741943e-02
1.836373507976531982e-01
1.402852870523929596e-02
8.774206042289733887e-02
-9.110431373119354248e-02
-1.025787275284528732e-02
-7.796584069728851318e-02
3.316255658864974976e-02
-3.875883296132087708e-02
1.209724768996238708e-01
-3.154365718364715576e-02
2.479024417698383331e-02
-9.730658493936061859e-03
-4.649309068918228149e-02
-2.911558374762535095e-02
1.794633865356445312e-01
-3.041890449821949005e-02
1.151595823466777802e-02
5.809145979583263397e-03
-9.929115325212478638e-02
-1.192901432514190674e-01
2.692277729511260986e-02
-5.864568054676055908e-02
-2.424184978008270264e-02
1.748143695294857025e-02
1.411758661270141602e-01
-9.322609752416610718e-03
7.394535094499588013e-02
9.013076871633529663e-02
1.236042287200689316e-02
1.193929389119148254e-01
-5.284739658236503601e-02
-1.207657810300588608e-02
-1.833236813545227051e-01
-1.284955143928527832e-01
8.195503801107406616e-02
-2.139483988285064697e-01
-8.232248947024345398e-03
7.382291555404663086e-02
2.197716850787401199e-03
-9.617704898118972778e-03
-1.646955497562885284e-02
1.210094615817070007e-02
-2.232150547206401825e-02
-1.399627979844808578e-02
-6.897327303886413574e-02
-6.712561100721359253e-02
-5.022912751883268356e-03
8.490610867738723755e-02
-7.700367271900177002e-02
-2.002915367484092712e-02
1.119618639349937439e-01
-1.404678970575332642e-01
6.448816508054733276e-02
3.870426863431930542e-02
7.673167437314987183e-02
1.087584272027015686e-01
4.418644681572914124e-02
-1.077661290764808655e-01
-8.108006441034376621e-04
7.020437717437744141e-02
-2.199607938528060913e-01
-2.499653398990631104e-01
1.315350830554962158e-01
-5.859034508466720581e-02
-3.069332614541053772e-02
2.484190650284290314e-02
1.423079967498779297e-01
4.832235351204872131e-02
-3.712597489356994629e-02
-4.772025719285011292e-02
5.471843853592872620e-02
-2.123915404081344604e-02
-5.931041232543066144e-05
-4.789088293910026550e-02
-8.566563948988914490e-03
1.329678297042846680e-01
-9.486873447895050049e-02
-8.482380211353302002e-02
1.158376112580299377e-01
5.376866459846496582e-02
-6.741566583514213562e-03
8.646779507398605347e-02
6.127381697297096252e-02
-1.000581216067075729e-02
-1.040606759488582611e-02
4.405918344855308533e-02
-7.512613385915756226e-02
-2.107077687978744507e-01
-5.609464272856712341e-02
-1.343333572149276733e-01
-7.698084414005279541e-02
-3.685255348682403564e-02
-6.534548848867416382e-02
3.450433490797877312e-03
-8.060569316148757935e-02
1.313560903072357178e-01
-6.655437499284744263e-02
8.053588867187500000e-02
-1.337764114141464233e-01
8.453871309757232666e-02
6.331095099449157715e-02
-8.114355057477951050e-02
2.691660523414611816e-01
-9.113295376300811768e-02
-1.202330440282821655e-01
8.734894543886184692e-02
-1.292782835662364960e-02
5.808965116739273071e-02
-4.869170859456062317e-02
-1.593622728250920773e-03
1.469847839325666428e-02
8.206004649400711060e-02
-1.532543301582336426e-01
-1.189360693097114563e-01
-2.547923941165208817e-03
-2.275857031345367432e-01
-1.150516420602798462e-01
9.395128488540649414e-02
-1.614196002483367920e-01
-2.806464023888111115e-02
-7.723644841462373734e-03
5.363498255610466003e-02
9.516245871782302856e-02
2.110431492328643799e-01
-9.302295744419097900e-02
7.345302030444145203e-03
1.160816848278045654e-01
-6.020381301641464233e-02
-6.283835321664810181e-02
-9.207002073526382446e-02
2.674536220729351044e-02
3.972012549638748169e-02
-6.914900243282318115e-02
-1.317870765924453735e-01
-4.058117419481277466e-02
-9.933501482009887695e-02
-1.718739569187164307e-01
-9.385371208190917969e-02
9.858467429876327515e-02
1.368371844291687012e-01
-2.424841932952404022e-02
-5.523535888642072678e-03
-1.047482192516326904e-01
-6.818138808012008667e-02
2.292119525372982025e-02
1.198828499764204025e-02
-1.033133454620838165e-02
-3.059650212526321411e-02
3.642232716083526611e-02
-5.744056776165962219e-02
-3.052902035415172577e-02
-2.546794898808002472e-02
5.153474211692810059e-02
-2.671177871525287628e-02
3.935545682907104492e-02
-4.101075604557991028e-02
-8.556500077247619629e-03
-3.934825211763381958e-02
-8.732164651155471802e-02
-2.832709997892379761e-02
1.879065781831741333e-01
1.131270602345466614e-01
2.192158810794353485e-02
-9.908027201890945435e-02
7.662241905927658081e-02
1.075216606259346008e-01
-6.225313618779182434e-02
1.182501465082168579e-01
8.202381432056427002e-02
-8.013480901718139648e-02
-1.347601320594549179e-02
2.024532109498977661e-02
4.115864634513854980e-02
7.116139680147171021e-02
2.549434453248977661e-02
3.063426539301872253e-02
6.810112297534942627e-02
5.659925751388072968e-03
7.395514100790023804e-02
4.819407314062118530e-02
-5.568123608827590942e-02
-1.199253425002098083e-01
7.244139909744262695e-02
-9.011545777320861816e-02
2.041267044842243195e-02
-1.285418868064880371e-01
-8.612727373838424683e-02
-2.044721506536006927e-02
9.006687998771667480e-02
2.660807371139526367e-01
-5.937974154949188232e-02
3.643593192100524902e-02
-9.134013205766677856e-02
-3.426041454076766968e-02
-2.084005326032638550e-01
1.074433848261833191e-01
2.533460967242717743e-02
3.807695582509040833e-02
1.464475840330123901e-01
-6.110245734453201294e-02
7.581229507923126221e-02
6.726450473070144653e-02
3.077717125415802002e-02
1.262770593166351318e-01
5.281990021467208862e-02
6.651557236909866333e-02
-6.796373426914215088e-02
-1.383871026337146759e-02
9.478484839200973511e-02
1.153696235269308090e-02
3.149231895804405212e-02
-7.199911773204803467e-02
-3.734251111745834351e-02
-1.062177419662475586e-01
1.483244122937321663e-03
9.331614524126052856e-02
-6.940309889614582062e-03
1.061451733112335205e-01
3.872334212064743042e-02
1.215659454464912415e-01
-8.130058646202087402e-03
1.112261041998863220e-01
-1.056258901953697205e-01
1.357741951942443848e-01
8.310067467391490936e-03
5.022007599472999573e-02
-1.979270204901695251e-02
5.286022648215293884e-02
1.694215536117553711e-01
6.844027340412139893e-02
2.325481548905372620e-02
7.289250846952199936e-03
-2.521805465221405029e-02
2.205062285065650940e-02
-6.563599407672882080e-02
-1.302055269479751587e-02
4.490437731146812439e-02
3.721194341778755188e-02
-1.137771382927894592e-01
5.087309330701828003e-02
7.527747750282287598e-02
1.420710086822509766e-01
1.843770034611225128e-02
1.527100950479507446e-01
-9.500966221094131470e-02
-5.215045809745788574e-02
1.132559850811958313e-01
-7.829711586236953735e-02
2.036246238276362419e-03
-5.816008429974317551e-03
-1.022103242576122284e-03
1.091384794563055038e-02
-3.418093547224998474e-02
-2.136024832725524902e-02
-8.691854774951934814e-02
9.844218194484710693e-02
1.584163121879100800e-02
-1.478425785899162292e-02
-7.071653753519058228e-02
-7.475889474153518677e-02
8.612451702356338501e-02
-6.450256705284118652e-02
8.642109483480453491e-02
3.533447906374931335e-02
-1.302103698253631592e-01
-4.470493644475936890e-03
4.089572466909885406e-03
-1.395853329449892044e-02
-2.701975405216217041e-02
7.081350311636924744e-03
-1.114587709307670593e-01
-5.444480571895837784e-03
-3.452143445611000061e-02
-8.521392196416854858e-02
1.013942658901214600e-01
4.678789898753166199e-02
-2.110940031707286835e-02
-3.411773219704627991e-02
8.276512473821640015e-02
7.658416777849197388e-02
-4.272382706403732300e-02
9.786249697208404541e-02
1.239708662033081055e-01
-3.594046086072921753e-02
1.812950894236564636e-02
-1.129417940974235535e-01
-7.915683835744857788e-02
-4.775046929717063904e-02
-4.627542197704315186e-02
2.779212780296802521e-02
-8.657915517687797546e-03
1.365181356668472290e-01
6.437943130731582642e-02
-3.199516981840133667e-02
-4.571424797177314758e-02
9.030354022979736328e-02
3.423444554209709167e-02
-1.621652543544769287e-01
6.058007944375276566e-03
-4.666141234338283539e-03
-1.783408224582672119e-02
-7.881996035575866699e-02
5.463473126292228699e-02
1.998286508023738861e-02
-3.714134171605110168e-02
5.093234032392501831e-02
-2.420788072049617767e-02
3.084494732320308685e-02
-6.553069502115249634e-02
7.259859144687652588e-02
3.988005220890045166e-02
-1.491598039865493774e-01
8.459034562110900879e-02
1.196317076683044434e-01
-4.166023281868547201e-04
2.205518446862697601e-02
-4.957839380949735641e-03
2.646375000476837158e-01
4.225303884595632553e-03
-8.428509533405303955e-02
-9.538636356592178345e-02
1.552290399558842182e-03
2.259818166494369507e-01
1.090982742607593536e-02
7.207213342189788818e-02
1.327329594641923904e-02
-5.952763184905052185e-02
-1.603002250194549561e-01
2.121196687221527100e-02
5.882854573428630829e-03
1.271955519914627075e-01
-4.846347123384475708e-02
3.115798532962799072e-02
9.973489493131637573e-02
-7.700473070144653320e-03
6.704938411712646484e-02
3.538863034918904305e-03
-6.662015616893768311e-02
-6.460166722536087036e-02
4.216424748301506042e-02
7.204548269510269165e-02
-4.105743020772933960e-02
-1.500534825026988983e-02
-5.624806508421897888e-02
-7.968804240226745605e-02
2.700871601700782776e-02
1.175888553261756897e-01
-5.322804208844900131e-03
-3.326908871531486511e-02
-4.823103547096252441e-02
-2.189521864056587219e-02
-1.098457798361778259e-01
-3.518494963645935059e-02
1.342534273862838745e-01
4.693748429417610168e-02
-6.481385976076126099e-02
4.771878197789192200e-02
-1.342380344867706299e-01
1.029597297310829163e-01
-7.744699716567993164e-02
2.533033676445484161e-02
1.987609267234802246e-02
8.189534768462181091e-03
-2.271560207009315491e-02
1.628659963607788086e-01
-2.536865882575511932e-02
4.824645444750785828e-02
-6.892927736043930054e-02
1.184199154376983643e-01
-8.967696875333786011e-02
-1.215763855725526810e-02
-2.192962318658828735e-01
7.632329314947128296e-02
1.652169786393642426e-02
2.204391919076442719e-02
5.300439894199371338e-02
-3.113896353170275688e-03
-1.229969505220651627e-02
1.098026856780052185e-01
-8.962082117795944214e-02
1.717612147331237793e-01
-8.050895482301712036e-02
1.208011656999588013e-01
4.754857718944549561e-02
-5.041556805372238159e-02
6.051933020353317261e-02
4.739956557750701904e-02
-1.368382200598716736e-02
-1.102883070707321167e-01
-1.040164008736610413e-02
-8.076126873493194580e-02
-5.108254030346870422e-02
-1.461550593376159668e-01
4.807374626398086548e-02
5.441009532660245895e-03
1.528834998607635498e-01
-1.479763239622116089e-01
9.972433745861053467e-02
-1.464740484952926636e-01
-1.194844488054513931e-02
-9.185414761304855347e-03
6.054452434182167053e-02
2.691007778048515320e-02
-5.323854088783264160e-02
3.842012584209442139e-02
-1.554564945399761200e-02
5.591013655066490173e-02
1.207951903343200684e-01
-2.359846979379653931e-02
-5.114833265542984009e-02
-1.867086254060268402e-02
-8.254027366638183594e-02
5.326197296380996704e-02
-4.634792357683181763e-02
6.513494998216629028e-02
-3.022242151200771332e-02
1.534823775291442871e-01
6.568303704261779785e-02
-1.267076581716537476e-01
2.619572356343269348e-02
-3.930697217583656311e-02
8.012579381465911865e-02
6.362327188253402710e-02
-9.777440875768661499e-02
1.048905402421951294e-01
1.392690539360046387e-01
2.980541205033659935e-03
-1.872640848159790039e-02
1.252623051404953003e-01
1.590913161635398865e-02
-6.171047687530517578e-02
-7.264581322669982910e-02
-9.744396805763244629e-02
1.716215908527374268e-02
-1.039413139224052429e-01
1.766752265393733978e-02
-5.995516106486320496e-02
3.930771723389625549e-03
-5.079910904169082642e-02
2.310318499803543091e-01
-4.856170341372489929e-02
-4.326950386166572571e-02
3.214403055608272552e-03
-8.856665343046188354e-02
1.831726580858230591e-01
1.390762925148010254e-01
1.827300637960433960e-01
1.365336868911981583e-02
-6.099569424986839294e-02
9.604229591786861420e-03
4.372364375740289688e-03
5.646358802914619446e-02
1.069858446717262268e-01
1.305722072720527649e-02
1.862203888595104218e-02
-5.691114440560340881e-02
9.843618609011173248e-03
1.768230344168841839e-03
8.385117352008819580e-02
1.351053477264940739e-03
4.180568829178810120e-02
1.431192010641098022e-01
-9.755974262952804565e-02
-3.534350916743278503e-02
1.375864893198013306e-01
-7.147349417209625244e-02
1.236223503947257996e-01
2.910659241024404764e-04
1.094338670372962952e-01
-9.872126579284667969e-02
1.581751853227615356e-01
8.073669672012329102e-02
-5.926139280200004578e-02
-1.596114188432693481e-01
1.004472821950912476e-01
6.910085212439298630e-03
1.256185919046401978e-01
7.539561390876770020e-02
-2.116562053561210632e-02
4.273640515748411417e-04
-6.964812427759170532e-02
2.069489471614360809e-02
3.354687243700027466e-02
-4.198528081178665161e-02
-7.266681641340255737e-02
1.051382645964622498e-01
-1.439340263605117798e-01
1.036248728632926941e-01
-1.478756312280893326e-02
-1.528563722968101501e-02
-1.504399776458740234e-01
-1.594823040068149567e-02
6.261900416575372219e-04
5.842442810535430908e-02
1.353073716163635254e-01
1.178904063999652863e-02
-7.515539415180683136e-03
-9.287174046039581299e-02
4.491274431347846985e-02
4.484000802040100098e-02
-1.224044859409332275e-01
2.103915065526962280e-02
2.400255203247070312e-02
3.178978338837623596e-02
-5.266110971570014954e-02
5.341078713536262512e-02
4.760618321597576141e-04
2.063091546297073364e-01
3.930466994643211365e-02
-9.575317800045013428e-02
-7.475057244300842285e-02
-1.285939216613769531e-01
-1.456953287124633789e-01
4.098181799054145813e-02
6.370706111192703247e-02
4.666876420378684998e-02
-5.769984424114227295e-02
-8.571378141641616821e-02
-5.054802447557449341e-02
2.718120254576206207e-02
5.542637035250663757e-02
4.732359200716018677e-02
2.067411877214908600e-02
-2.168243192136287689e-02
-3.962727636098861694e-02
1.899064481258392334e-01
-1.005404740571975708e-01
6.125007942318916321e-02
-2.910960465669631958e-02
6.684905290603637695e-02
3.898913413286209106e-02
1.942564919590950012e-02
-6.065654754638671875e-02
4.582740366458892822e-02
2.614983171224594116e-02
8.226425945758819580e-02
4.175777360796928406e-02
-1.305786669254302979e-01
-1.358919441699981689e-01
-7.537781447172164917e-02
1.805463433265686035e-02
-7.654653489589691162e-02
-3.783086314797401428e-03
1.227886378765106201e-01
3.541170656681060791e-01
1.094833314418792725e-01
-1.911042779684066772e-01
5.930177494883537292e-02
1.409647464752197266e-01
8.913247147575020790e-04
8.283548802137374878e-02
7.968071848154067993e-02
-1.687626354396343231e-02
2.082081586122512817e-01
-1.539523806422948837e-02
-1.039617508649826050e-02
7.074529770761728287e-03
-4.652004688978195190e-02
-1.836401522159576416e-01
-6.602773070335388184e-02
-1.782453060150146484e-01
7.399757951498031616e-02
-1.446022242307662964e-01
2.903774194419384003e-02
6.111017987132072449e-02
-1.075692288577556610e-02
-1.869251579046249390e-01
2.642028778791427612e-02
-1.781604019924998283e-03
-4.793499782681465149e-02
-4.889837652444839478e-02
1.936693675816059113e-02
1.000752449035644531e-01
3.407101035118103027e-01
-1.346224695444107056e-01
1.566466689109802246e-01
-3.021361865103244781e-02
3.368088975548744202e-02
-1.601754724979400635e-01
-1.229129955172538757e-01
2.847521193325519562e-02
6.310885399580001831e-02
1.024891510605812073e-01
1.555547676980495453e-02
-4.097771830856800079e-03
-1.210053265094757080e-01
-5.808133631944656372e-02
-1.131507456302642822e-01
-1.463020220398902893e-02
-1.311276257038116455e-01
-9.030351042747497559e-02
-1.500597149133682251e-01
6.846767663955688477e-02
3.903711140155792236e-01
8.204478025436401367e-02
2.410397119820117950e-02
-1.256191730499267578e-01
6.937472522258758545e-02
-7.720211148262023926e-02
1.135623678565025330e-01
2.047346346080303192e-02
1.475003957748413086e-01
-5.675632879137992859e-02
-7.486032694578170776e-02
1.098512262105941772e-01
-1.819644682109355927e-02
-1.161415055394172668e-01
6.542193144559860229e-02
3.148486092686653137e-02
8.266393840312957764e-02
3.803576529026031494e-02
-1.736216545104980469e-01
-1.411357074975967407e-01
-6.186847016215324402e-02
-2.439154684543609619e-01
1.796543970704078674e-02
9.849816560745239258e-04
-8.996370248496532440e-03
-3.784035891294479370e-02
4.789873957633972168e-02
-1.502181123942136765e-02
-6.747874617576599121e-02
3.244668990373611450e-02
6.588562577962875366e-02
-6.721065938472747803e-02
1.322750151157379150e-01
5.254437401890754700e-02
1.050508692860603333e-01
5.377220734953880310e-02
-6.716168671846389771e-02
-4.330798238515853882e-02
3.905426710844039917e-02
3.250749036669731140e-02
2.535998448729515076e-02
2.273933775722980499e-02
2.521326020359992981e-02
5.539553612470626831e-02
8.486088365316390991e-02
-2.300926297903060913e-02
-3.657935187220573425e-02
1.922232359647750854e-01
-1.688705757260322571e-02
1.329428143799304962e-02
-2.899548411369323730e-02
1.348012238740921021e-01
-1.204729229211807251e-01
-6.774859968572854996e-03
1.543984711170196533e-01
2.684837765991687775e-02
-1.017644722014665604e-02
6.854008883237838745e-02
1.768828779458999634e-01
-2.395546250045299530e-02
3.984221257269382477e-03
-6.401185691356658936e-02
9.069531410932540894e-02
-8.241022378206253052e-02
-3.943097963929176331e-02
-3.401771560311317444e-02
6.201033480465412140e-03
-2.263539843261241913e-02
9.140004962682723999e-02
4.042659327387809753e-02
-7.736048847436904907e-02
7.537174969911575317e-02
-4.864451661705970764e-02
-1.156436558812856674e-02
2.836826071143150330e-02
-1.738808900117874146e-01
1.340574771165847778e-01
1.323782056570053101e-01
1.357969641685485840e-01
-3.156651183962821960e-02
-1.696266047656536102e-02
1.665099523961544037e-02
-4.456298053264617920e-02
1.293894350528717041e-01
8.154809474945068359e-02
6.890024244785308838e-02
-6.201799586415290833e-02
-1.239481568336486816e-01
-6.347379530780017376e-04
-8.311644941568374634e-02
2.345841191709041595e-02
-1.581504791975021362e-01
-2.894867956638336182e-02
-1.476774960756301880e-01
-8.800682425498962402e-02
2.507475018501281738e-02
-1.589780487120151520e-02
6.207841634750366211e-02
4.757117945700883865e-03
1.095583196729421616e-02
1.822346076369285583e-02
1.113553717732429504e-02
-2.554259598255157471e-01
-1.014849636703729630e-02
1.392675340175628662e-01
5.609896406531333923e-02
6.129891052842140198e-02
2.841244824230670929e-02
1.321322191506624222e-02
3.198322374373674393e-04
2.894727289676666260e-01
1.017616093158721924e-01
-4.094038531184196472e-02
2.145295739173889160e-01
-9.517265111207962036e-02
-3.444989398121833801e-02
-1.730357296764850616e-03
3.269720077514648438e-02
4.201287403702735901e-02
5.411570146679878235e-02
8.264413475990295410e-02
-1.052976548671722412e-01
-1.004005149006843567e-01
2.457398176193237305e-02
2.996832691133022308e-02
1.637435890734195709e-02
-3.013485344126820564e-03
3.198704123497009277e-02
-1.997216939926147461e-01
3.285602480173110962e-02
1.693851500749588013e-02
1.437054276466369629e-01
-1.042171940207481384e-01
1.861265301704406738e-02
-1.327610760927200317e-01
-1.455207634717226028e-02
1.509051024913787842e-01
-2.580336667597293854e-02
-1.774804852902889252e-02
-3.016324341297149658e-02
1.568751758895814419e-03
-9.806376183405518532e-04
8.339839428663253784e-02
-1.413236465305089951e-02
3.275476396083831787e-02
-2.599189989268779755e-02
3.513394668698310852e-02
2.011168748140335083e-01
-1.360692456364631653e-02
2.037285417318344116e-01
5.855715647339820862e-02
-8.437596261501312256e-02
5.820248275995254517e-02
-1.543695628643035889e-01
-3.064729273319244385e-01
3.679106384515762329e-02
8.089233934879302979e-02
-7.531730830669403076e-02
-6.200025975704193115e-02
-4.352832213044166565e-02
1.946775475516915321e-03
5.930240079760551453e-02
-3.025319613516330719e-02
4.755553603172302246e-02
-4.811206459999084473e-02
-7.951603271067142487e-03
3.409561887383460999e-02
-3.548991307616233826e-02
7.992571592330932617e-02
5.595556460320949554e-03
-2.383625321090221405e-02
4.039518162608146667e-02
-1.015831306576728821e-01
8.618487976491451263e-03
-2.503668144345283508e-02
-1.080096513032913208e-02
-4.789728298783302307e-02
-1.092447489500045776e-01
-1.340163648128509521e-01
6.885289400815963745e-02
-9.282435476779937744e-02
-3.701959177851676941e-02
1.546015292406082153e-01
1.041741147637367249e-01
4.535387083888053894e-02
-5.913869291543960571e-02
-7.196122407913208008e-02
8.147630840539932251e-02
-1.795804798603057861e-01
2.178969681262969971e-01
6.501172482967376709e-02
-5.331978201866149902e-02
-1.471772044897079468e-01
2.758198790252208710e-02
1.395448893308639526e-01
-6.100651994347572327e-02
-5.663411319255828857e-02
-2.394385822117328644e-02
-1.946440488100051880e-01
-3.250836208462715149e-02
-1.176673695445060730e-01
-2.514237351715564728e-02
1.415289938449859619e-01
-7.048831135034561157e-02
-5.759645625948905945e-02
-1.160551831126213074e-01
-2.274175360798835754e-02
-2.157419919967651367e-01
-3.932727128267288208e-02
1.494239922612905502e-02
8.829071372747421265e-02
-2.070617228746414185e-01
3.598311170935630798e-02
-1.958217918872833252e-01
5.748455971479415894e-02
8.207013458013534546e-02
6.417193263769149780e-02
-6.203856319189071655e-02
-2.988141775131225586e-02
-2.479614689946174622e-02
1.315830796957015991e-01
6.039724498987197876e-02
3.046317026019096375e-02
6.297278683632612228e-03
5.352495238184928894e-02
-5.024714022874832153e-02
1.610093861818313599e-01
9.684270620346069336e-02
-7.108445465564727783e-02
1.264674514532089233e-01
2.660558223724365234e-01
-1.449206005781888962e-02
-5.274957418441772461e-02
-1.453798264265060425e-02
-1.164932698011398315e-01
6.692451983690261841e-02
-1.522977352142333984e-01
-9.011533111333847046e-02
6.412531435489654541e-02
1.078542098402976990e-01
1.124210208654403687e-01
-7.440961152315139771e-02
2.886821329593658447e-02
5.235415324568748474e-02
1.713095605373382568e-01
-2.270476706326007843e-02
-1.095145661383867264e-02
-8.841104805469512939e-03
-8.377516269683837891e-02
-9.558245539665222168e-02
1.202818527817726135e-01
-1.692113280296325684e-02
7.770691812038421631e-02
-1.568393595516681671e-02
-8.616926148533821106e-03
-2.025344781577587128e-02
-6.261779367923736572e-02
-1.427277550101280212e-02
8.201505988836288452e-02
2.013181149959564209e-01
-1.149274688214063644e-02
2.296280115842819214e-02
6.429518014192581177e-02
2.929694950580596924e-02
1.500632762908935547e-01
6.859579682350158691e-02
8.164922706782817841e-03
1.528278887271881104e-01
-7.679508626461029053e-02
2.191189862787723541e-02
2.871092781424522400e-02
4.762690514326095581e-04
4.262153059244155884e-02
8.939363062381744385e-02
1.543508842587471008e-02
3.743163868784904480e-02
3.403752669692039490e-02
4.893776774406433105e-02
-3.141188248991966248e-02
5.423912033438682556e-02
-1.212081909179687500e-01
-2.114796638488769531e-02
-9.401293843984603882e-02
-1.398337446153163910e-02
7.517789304256439209e-02
2.786732278764247894e-02
-1.968837529420852661e-02
7.546524703502655029e-02
1.862396299839019775e-02
-7.384542375802993774e-02
1.253951638936996460e-01
-1.999867893755435944e-02
3.046398982405662537e-02
7.902739197015762329e-02
5.094592645764350891e-02
-8.494767360389232635e-03
-7.228388916701078415e-03
1.327229756861925125e-02
1.483168900012969971e-01
1.263596466742455959e-03
-9.601167589426040649e-02
-6.963886320590972900e-02
1.251067966222763062e-01
-9.451610594987869263e-02
6.449049711227416992e-02
-1.203443631529808044e-01
6.758663803339004517e-02
1.390536576509475708e-01
-2.281208038330078125e-01
3.888302668929100037e-02
6.260403990745544434e-02
-1.018291115760803223e-01
9.770076721906661987e-03
3.846269473433494568e-02
7.442659698426723480e-03
3.099474497139453888e-02
-1.833588257431983948e-02
-2.405186742544174194e-01
-1.086273342370986938e-01
1.144024953246116638e-01
1.508767623454332352e-02
7.847410440444946289e-02
-8.227921277284622192e-02
3.130442649126052856e-02
1.359139978885650635e-01
5.075411126017570496e-02
-9.899105131626129150e-02
-3.149692714214324951e-02
-1.204333379864692688e-01
-7.500202953815460205e-02
5.739431828260421753e-02
6.443803757429122925e-02
-2.082108892500400543e-02
-5.910586938261985779e-02
-4.693393781781196594e-02
-3.899960815906524658e-01
9.793911129236221313e-03
-1.098518222570419312e-01
-2.489552646875381470e-02
6.728144735097885132e-02
1.145494170486927032e-03
-1.431820914149284363e-02
-1.129729598760604858e-01
9.717590361833572388e-02
1.322342306375503540e-01
-4.398678243160247803e-02
4.412592947483062744e-02
-4.910660535097122192e-02
5.513971671462059021e-02
-3.884799405932426453e-02
9.502173215150833130e-02
6.759807467460632324e-02
1.290250848978757858e-02
-1.159040629863739014e-01
-1.921419613063335419e-02
1.059639640152454376e-02
-1.191272065043449402e-01
1.715587452054023743e-02
-2.963690757751464844e-01
2.614431641995906830e-02
6.335778534412384033e-02
3.849526867270469666e-02
1.900697243399918079e-03
1.120360121130943298e-01
1.480096429586410522e-01
3.798728575929999352e-03
1.204004604369401932e-02
-1.874316856265068054e-02
2.390640228986740112e-02
-1.432043313980102539e-01
9.756438434123992920e-03
6.894025206565856934e-02
1.836314611136913300e-02
-1.608683355152606964e-02
-1.207339316606521606e-01
4.936773329973220825e-02
4.473138973116874695e-02
8.353948593139648438e-02
1.109918728470802307e-01
-1.714515984058380127e-01
2.023026347160339355e-02
-2.092389762401580811e-01
-4.736803472042083740e-02
4.627284407615661621e-02
1.655237078666687012e-01
-4.241785779595375061e-02
-7.118660211563110352e-02
-1.150289848446846008e-01
1.833954267203807831e-02
-4.091591760516166687e-02
1.360195577144622803e-01
-7.352416962385177612e-02
-2.476374618709087372e-02
-5.147580802440643311e-02
8.185444027185440063e-02
-4.018499515950679779e-03
4.208625480532646179e-02
3.501344472169876099e-02
4.796208441257476807e-02
-1.236059237271547318e-02
-1.329987216740846634e-02
-9.526336938142776489e-02
1.948831975460052490e-02
-1.533747613430023193e-01
1.958282478153705597e-02
-9.872656315565109253e-02
-4.707165807485580444e-02
5.071710050106048584e-02
4.170279577374458313e-02
4.470664635300636292e-02
-4.966745898127555847e-02
2.775698155164718628e-02
-8.227854222059249878e-02
-1.220251619815826416e-01
-5.506635457277297974e-02
-1.827737838029861450e-01
-6.083562225103378296e-02
-1.992978341877460480e-02
-1.987579315900802612e-01
-2.712898515164852142e-02
-5.002155527472496033e-02
-8.744345977902412415e-03
1.148673519492149353e-01
2.040367014706134796e-02
-1.538993567228317261e-01
1.632628589868545532e-02
-4.225910454988479614e-02
-8.594243228435516357e-02
2.146502733230590820e-01
-9.575425833463668823e-02
7.614899426698684692e-02
2.216298878192901611e-01
-3.627165406942367554e-02
3.557630255818367004e-02
1.383395791053771973e-01
9.230849333107471466e-03
-2.022170089185237885e-02
-8.348589763045310974e-03
2.752456639427691698e-04
5.808600038290023804e-02
3.507266938686370850e-02
-6.466811895370483398e-02
3.468503355979919434e-01
-5.074929073452949524e-02
-2.687418460845947266e-02
-3.209504112601280212e-02
-1.204270520247519016e-03
1.234882604330778122e-02
1.645475625991821289e-02
5.871392413973808289e-02
-7.843403518199920654e-02
4.312739893794059753e-02
-8.106252551078796387e-02
-3.418366611003875732e-02
-2.779639139771461487e-02
-6.009001657366752625e-02
2.217417210340499878e-02
-1.779439672827720642e-02
-8.804386109113693237e-02
-1.763043999671936035e-01
2.145615406334400177e-02
6.790593266487121582e-02
1.130736842751502991e-01
1.147675048559904099e-02
-4.218593612313270569e-02
-2.158339694142341614e-02
-1.997322961688041687e-02
-4.755533486604690552e-02
5.402154754847288132e-03
1.430745050311088562e-02
4.690111055970191956e-02
1.282318830490112305e-01
2.053869664669036865e-01
9.684784710407257080e-02
3.307325392961502075e-02
9.029699862003326416e-02
3.257459774613380432e-02
-6.561996787786483765e-02
-2.285305783152580261e-02
5.438368767499923706e-03
-3.273549675941467285e-02
5.809574946761131287e-02
9.199441410601139069e-03
5.841961503028869629e-02
-5.434731394052505493e-02
-1.283716876059770584e-02
7.717037200927734375e-02
-4.131724685430526733e-02
-9.843945503234863281e-02
3.587504476308822632e-02
-2.039581164717674255e-02
-1.269033253192901611e-01
-2.128303498029708862e-01
-9.151750057935714722e-02
-1.475114934146404266e-02
-2.741192094981670380e-02
-1.352656749077141285e-03
-1.438621133565902710e-01
-2.452146448194980621e-02
-1.454478502273559570e-01
2.749565243721008301e-02
6.637140363454818726e-02
-1.632053870707750320e-03
-9.923296980559825897e-03
1.211546510457992554e-01
-1.404771208763122559e-02
-8.676613867282867432e-02
-7.977822422981262207e-02
-3.104136325418949127e-02
3.804166615009307861e-02
-4.028319939970970154e-02
-1.312113404273986816e-01
1.201939955353736877e-02
4.840827081352472305e-03
-9.171318262815475464e-02
2.287342585623264313e-02
-8.829528838396072388e-02
6.711708754301071167e-02
-4.817983508110046387e-02
2.416928112506866455e-02
3.051868267357349396e-02
5.713803321123123169e-02
-1.671493425965309143e-02
4.751519113779067993e-02
2.821593545377254486e-02
-7.665971666574478149e-02
-6.169673427939414978e-02
1.435627695173025131e-02
1.890202239155769348e-02
-6.643582135438919067e-02
-4.777994006872177124e-02
3.941086679697036743e-02
-5.314954090863466263e-03
3.669352456927299500e-02
-2.396693825721740723e-02
-2.022276166826486588e-03
-7.202190160751342773e-02
3.459177166223526001e-02
1.164795681834220886e-01
3.308415412902832031e-02
1.656858772039413452e-01
-7.662072777748107910e-02
6.560482829809188843e-02
-8.010289072990417480e-02
3.337711095809936523e-01
3.048807382583618164e-03
-1.266998946666717529e-01
3.611476719379425049e-02
-3.580725193023681641e-02
9.629446268081665039e-02
-1.689911633729934692e-01
-4.818616062402725220e-02
8.411406539380550385e-03
1.443993002176284790e-01
-8.031047135591506958e-02
-2.822530642151832581e-02
-1.505196373909711838e-02
-5.486162751913070679e-02
-5.012794584035873413e-02
7.319054566323757172e-03
6.162525713443756104e-02
-7.892149686813354492e-02
1.693893224000930786e-02
2.303404361009597778e-02
9.101564437150955200e-02
-4.883559420704841614e-02
1.677402257919311523e-01
-1.509203761816024780e-02
-1.042348425835371017e-02
1.039605140686035156e-01
-6.511180102825164795e-02
9.771581739187240601e-02
1.357402056455612183e-01
2.640484832227230072e-02
-1.259324252605438232e-01
1.039718836545944214e-01
9.940695017576217651e-03
8.943445235490798950e-02
4.367252811789512634e-02
8.115203119814395905e-03
-5.975494906306266785e-02
-5.231874994933605194e-03
2.432062290608882904e-02
-5.665013194084167480e-02
-5.217370018362998962e-02
-7.352928072214126587e-02
-1.967229694128036499e-02
-3.251259401440620422e-02
-1.965715736150741577e-02
4.246211424469947815e-02
8.229029923677444458e-02
2.975953221321105957e-01
8.325296640396118164e-02
-8.616626262664794922e-02
-3.884747624397277832e-02
3.975934535264968872e-02
1.141055952757596970e-03
-1.183036193251609802e-01
3.818928962573409081e-03
1.269816607236862183e-01
1.686322391033172607e-01
3.531960770487785339e-02
-4.870569705963134766e-02
-3.614539280533790588e-02
5.848094075918197632e-02
-7.199484854936599731e-02
4.587832093238830566e-02
-2.427220158278942108e-02
8.781974762678146362e-02
3.645097464323043823e-02
-8.477324992418289185e-02
-1.345526892691850662e-02
-1.380124092102050781e-01
8.701594918966293335e-02
-2.335374243557453156e-02
2.907621487975120544e-02
-2.438739128410816193e-02
-1.789559237658977509e-02
-2.696411497890949249e-02
-4.500069469213485718e-02
1.079109087586402893e-01
1.323772370815277100e-01
-1.111498624086380005e-01
-2.276879735291004181e-02
-5.851035937666893005e-02
-1.426035314798355103e-01
6.530417501926422119e-02
4.499847441911697388e-02
-6.498128175735473633e-02
-1.861749589443206787e-02
-1.466244808398187160e-03
7.768620550632476807e-02
1.294104382395744324e-02
-2.943245321512222290e-02
7.516543567180633545e-02
-6.424320489168167114e-02
3.976869955658912659e-02
-1.912669539451599121e-01
5.486938357353210449e-02
1.818708260543644428e-03
-1.861090771853923798e-02
-7.104325294494628906e-02
-1.761689968407154083e-02
9.433825314044952393e-02
-6.534988433122634888e-02
9.699666500091552734e-02
7.954475283622741699e-02
5.926549434661865234e-02
1.096904873847961426e-01
2.644768729805946350e-02
2.563345618546009064e-02
-9.566661715507507324e-02
-2.888288535177707672e-02
-1.243439875543117523e-02
1.934029161930084229e-02
1.337686367332935333e-02
4.473115503787994385e-02
-1.173042505979537964e-01
1.669941842555999756e-02
6.527619808912277222e-02
6.067956238985061646e-02
1.627539992332458496e-01
8.739437162876129150e-02
-5.855166912078857422e-02
-4.440122470259666443e-02
8.044558018445968628e-02
-9.543707594275474548e-03
1.899606734514236450e-01
3.345444053411483765e-02
-8.246139436960220337e-02
4.108156077563762665e-03
-1.830956339836120605e-02
1.910762041807174683e-01
-2.246472798287868500e-02
-9.049619734287261963e-02
-5.798318982124328613e-02
4.205708578228950500e-02
-6.041075568646192551e-03
3.995578363537788391e-02
7.587652653455734253e-03
1.416677702218294144e-02
-1.342674046754837036e-01
-2.555403485894203186e-02
-1.843834668397903442e-02
-1.532366033643484116e-03
-3.012579865753650665e-02
-1.411652285605669022e-02
-4.056620597839355469e-02
-1.472128834575414658e-02
-5.148018896579742432e-02
9.268743544816970825e-02
-1.739309285767376423e-03
9.525058791041374207e-03
-8.803856372833251953e-02
1.220059394836425781e-01
-5.663313716650009155e-02
-3.980376571416854858e-02
2.787450514733791351e-02
7.623460888862609863e-02
-3.001198917627334595e-02
-3.050916828215122223e-02
4.680158570408821106e-02
-5.125086009502410889e-02
4.119850322604179382e-02
8.553731255233287811e-03
1.049672253429889679e-02
-1.059996411204338074e-01
-4.881144501268863678e-03
3.006282448768615723e-02
1.029160618782043457e-01
5.645680055022239685e-02
-2.614986151456832886e-02
5.834892857819795609e-03
-3.124241344630718231e-02
1.346461009234189987e-02
-7.609780877828598022e-02
-8.962972462177276611e-02
1.633038967847824097e-01
8.841142803430557251e-02
4.736704006791114807e-02
-5.290735512971878052e-02
3.952011466026306152e-02
-3.395536169409751892e-02
1.203213110566139221e-01
7.623567432165145874e-02
1.038629096001386642e-02
-2.680506557226181030e-02
-9.989272803068161011e-02
5.977830663323402405e-02
7.752376794815063477e-02
1.288327127695083618e-01
9.312720969319343567e-03
5.121721699833869934e-02
-1.449333131313323975e-01
-3.892953740432858467e-03
-1.425883620977401733e-01
3.602256253361701965e-02
3.699143230915069580e-02
-2.853989228606224060e-02
-4.045616835355758667e-02
2.273135036230087280e-01
-2.260355744510889053e-03
5.790419504046440125e-02
-9.779688715934753418e-02
8.128351531922817230e-03
4.078128933906555176e-02
-1.191774569451808929e-02
2.077928632497787476e-01
-1.817856580018997192e-01
1.412911992520093918e-02
9.460902772843837738e-03
5.991620570421218872e-02
2.101158723235130310e-02
-5.594123899936676025e-02
5.870308354496955872e-02
-7.852356880903244019e-02
-2.553095482289791107e-02
4.817860201001167297e-03
3.315386548638343811e-02
5.684939026832580566e-02
1.684856601059436798e-02
1.800389289855957031e-01
7.241569925099611282e-03
2.289460226893424988e-02
-1.388682574033737183e-01
5.665366770699620247e-04
-9.370785206556320190e-02
9.502031654119491577e-02
-1.737099885940551758e-01
-1.072530001401901245e-01
5.222928524017333984e-02
1.067589875310659409e-02
-9.921907447278499603e-03
-2.273015305399894714e-02
-6.529038399457931519e-02
-3.359700739383697510e-02
-8.820732682943344116e-02
-6.419180333614349365e-02
4.082198813557624817e-02
5.330365523695945740e-02
1.117365993559360504e-02
3.711020573973655701e-02
-1.595248728990554810e-01
8.935553580522537231e-02
-2.458932250738143921e-02
-2.283498793840408325e-01
-5.621890351176261902e-02
-6.568846851587295532e-02
-1.178113445639610291e-01
-2.028430700302124023e-01
1.246674880385398865e-01
5.868723616003990173e-03
3.451579436659812927e-02
1.104698106646537781e-01
8.842216432094573975e-02
1.108192955143749714e-03
-2.811640873551368713e-02
1.837010979652404785e-01
-1.059409752488136292e-01
-8.036014437675476074e-02
-3.245160579681396484e-01
-6.308303028345108032e-02
-7.638829201459884644e-02
-1.412662118673324585e-02
1.956723928451538086e-01
-1.486953496932983398e-01
-1.397938728332519531e-01
-3.373718261718750000e-02
3.909444436430931091e-02
-8.476869761943817139e-02
8.228924125432968140e-02
7.095825672149658203e-02
1.889751479029655457e-02
-8.530300855636596680e-02
-6.169357523322105408e-02
-2.748630642890930176e-01
-4.801436141133308411e-02
1.823026090860366821e-01
5.544245708733797073e-03
-1.956502906978130341e-02
1.761015355587005615e-01
5.982566624879837036e-02
2.572399936616420746e-02
-9.429158270359039307e-02
3.618972003459930420e-02
-7.560295611619949341e-02
-1.456176936626434326e-01
-3.141589835286140442e-02
3.299004212021827698e-02
1.802238374948501587e-01
2.112028189003467560e-02
-1.155876889824867249e-01
-5.102080479264259338e-02
4.384705051779747009e-02
-1.852178014814853668e-02
5.236664414405822754e-02
-3.409111127257347107e-02
3.262923331931233406e-03
2.473396956920623779e-01
9.069433063268661499e-02
-4.060641513206064701e-04
-5.494805797934532166e-02
-4.002678766846656799e-02
1.221723705530166626e-01
-1.713578961789608002e-02
1.155881360173225403e-01
1.068797484040260315e-01
-9.406788647174835205e-02
7.096072286367416382e-02
1.303804107010364532e-02
5.259399488568305969e-02
-5.415943264961242676e-02
-5.508876219391822815e-02
-1.030936557799577713e-02
5.007191374897956848e-02
-1.740487292408943176e-03
-2.793037705123424530e-02
-4.319665953516960144e-02
5.592989269644021988e-03
4.426076635718345642e-02
-1.432405263185501099e-01
-2.590882405638694763e-02
-8.045431226491928101e-02
-7.082581520080566406e-02
-3.512636199593544006e-02
-1.856843754649162292e-02
-4.217602312564849854e-02
1.002992037683725357e-02
6.431853864341974258e-03
-6.061825435608625412e-03
8.438003133051097393e-04
-6.425729393959045410e-02
-8.722709491848945618e-03
7.394341379404067993e-02
-1.103964745998382568e-01
-8.677966892719268799e-02
2.595137953758239746e-01
7.265038788318634033e-02
1.944212615489959717e-02
1.260067708790302277e-02
1.886188797652721405e-02
8.416192233562469482e-02
1.006415486335754395e-01
1.036386340856552124e-01
-7.719239592552185059e-02
-3.768977243453264236e-03
-4.377894476056098938e-02
2.910907380282878876e-02
1.905707642436027527e-02
3.120156750082969666e-02
-2.602514997124671936e-02
-2.108587920665740967e-01
-2.791827917098999023e-02
-6.815110892057418823e-02
2.210241928696632385e-02
6.931519508361816406e-02
5.685013905167579651e-02
-2.553667873144149780e-02
9.892543777823448181e-03
4.933191463351249695e-02
-4.801622405648231506e-02
-1.108736917376518250e-02
6.485988199710845947e-02
-8.071492426097393036e-03
-1.985444426536560059e-01
-8.994365110993385315e-03
1.417255215346813202e-02
2.311736904084682465e-02
-1.035231053829193115e-01
-1.634254120290279388e-02
-4.801843315362930298e-02
-2.049915306270122528e-02
1.373621821403503418e-01
2.220694124698638916e-01
-4.641287960112094879e-03
4.428253695368766785e-02
1.894165016710758209e-02
2.754695899784564972e-02
2.500697970390319824e-02
1.815992436604574323e-04
-5.106237530708312988e-02
-3.755225241184234619e-02
1.001536399126052856e-01
9.205959737300872803e-03
-7.285922765731811523e-02
1.181519702076911926e-01
2.868328429758548737e-02
9.126339852809906006e-02
-2.439493127167224884e-02
5.448429659008979797e-02
-1.510850787162780762e-01
4.194907844066619873e-02
-8.881269395351409912e-02
-1.567865014076232910e-01
1.183844283223152161e-01
1.986046694219112396e-02
-3.251482546329498291e-02
4.264831170439720154e-02
1.082944199442863464e-01
-1.090791150927543640e-01
1.630205512046813965e-01
-1.391338533721864223e-03
-2.858227677643299103e-02
-1.086118444800376892e-01
4.972379654645919800e-03
9.101945161819458008e-02
1.996895670890808105e-02
-1.705274432897567749e-01
7.346489932388067245e-03
-1.285991445183753967e-02
-1.235883012413978577e-01
1.837123483419418335e-01
-2.299160510301589966e-02
7.326500117778778076e-02
1.200217455625534058e-01
1.083750091493129730e-02
1.090604066848754883e-01
-1.572895944118499756e-01
-9.188967943191528320e-02
-2.877213805913925171e-02
1.644785851240158081e-01
-2.911373227834701538e-02
6.377417594194412231e-02
4.894286766648292542e-02
-3.817851096391677856e-02
-3.766934573650360107e-02
7.725573610514402390e-03
-4.300810769200325012e-02
1.161344721913337708e-01
7.217217981815338135e-02
1.535393148660659790e-01
-4.357311129570007324e-02
9.079661965370178223e-02
-1.304473429918289185e-01
1.312891840934753418e-01
1.174678727984428406e-01
-4.389103502035140991e-02
5.199163407087326050e-02
6.991188507527112961e-03
-4.434815049171447754e-02
-1.208582241088151932e-02
-1.934493519365787506e-02
7.338250428438186646e-02
-1.272747814655303955e-01
-2.642226815223693848e-01
2.612954564392566681e-02
2.476507052779197693e-02
-4.648625850677490234e-02
-1.212928257882595062e-02
5.983509495854377747e-02
-1.277428120374679565e-01
-1.807490289211273193e-01
4.636071249842643738e-02
7.438278291374444962e-03
1.506018545478582382e-02
7.134154438972473145e-03
1.616099029779434204e-01
-3.792098164558410645e-02
5.860180407762527466e-02
-9.731975942850112915e-02
1.280721873044967651e-01
3.140483796596527100e-02
9.401245042681694031e-03
-1.004211604595184326e-02
-6.760708242654800415e-02
-3.036386668682098389e-01
6.409194320440292358e-02
7.900738716125488281e-02
7.336349785327911377e-02
-4.358332604169845581e-02
-6.881839781999588013e-02
1.098453551530838013e-01
-3.317978978157043457e-02
-5.479549244046211243e-02
-7.212633639574050903e-02
1.076348219066858292e-02
-2.329401858150959015e-02
-7.791124284267425537e-02
1.233252733945846558e-01
-9.305404126644134521e-02
-7.241129130125045776e-02
5.205078795552253723e-02
6.127364188432693481e-02
-2.147698402404785156e-02
-1.920493096113204956e-01
-3.993412107229232788e-02
-4.538414627313613892e-02
1.040097773075103760e-01
8.677405864000320435e-02
-8.343778550624847412e-03
-1.774920672178268433e-01
-4.645883291959762573e-02
-6.468203663825988770e-02
-8.943628519773483276e-03
2.414925023913383484e-02
-6.383327301591634750e-03
1.492028087377548218e-01
2.144924132153391838e-03
-1.035822704434394836e-01
-2.119779959321022034e-02
3.225370123982429504e-02
-6.020385771989822388e-02
1.731598377227783203e-02
-5.110893771052360535e-02
-7.038521766662597656e-02
3.846137970685958862e-02
-4.555526748299598694e-02
3.910214081406593323e-02
1.958487741649150848e-02
3.708143532276153564e-02
1.056619584560394287e-01
5.228012800216674805e-03
-5.731582641601562500e-02
-1.367828925140202045e-03
-9.594557434320449829e-02
2.912473678588867188e-02
1.057029142975807190e-01
-1.460874527692794800e-01
-1.941932886838912964e-01
9.989206679165363312e-03
-4.750954359769821167e-02
-1.203024983406066895e-01
2.630002610385417938e-02
2.405253238976001740e-02
-5.083838477730751038e-03
1.666165888309478760e-01
-4.262416437268257141e-02
-1.165223717689514160e-01
-2.090570703148841858e-02
-2.629374526441097260e-02
2.635978907346725464e-02
1.669437438249588013e-01
-8.280442655086517334e-02
-2.785664796829223633e-02
1.931341737508773804e-02
-4.269991070032119751e-02
-2.550770342350006104e-01
-4.686240851879119873e-02
-5.030142609030008316e-03
1.849154196679592133e-02
-7.667845487594604492e-02
6.890401989221572876e-02
-6.418143957853317261e-02
-6.982885301113128662e-02
-1.831740289926528931e-01
-9.066597558557987213e-03
-5.148613825440406799e-02
-2.948824502527713776e-02
1.599209010601043701e-01
1.909664832055568695e-03
-6.391237676143646240e-02
-4.338152706623077393e-02
9.181476384401321411e-02
1.327596455812454224e-01
-1.054550856351852417e-01
-1.621542870998382568e-02
-5.605533346533775330e-02
-6.037298962473869324e-02
8.426118642091751099e-02
6.661719083786010742e-02
-4.094130825251340866e-03
-3.928261250257492065e-02
-1.304011642932891846e-01
2.217388898134231567e-01
-6.237393617630004883e-02
-8.464828878641128540e-02
4.291525855660438538e-02
1.186270937323570251e-01
-4.643179476261138916e-02
-3.589451685547828674e-02
6.618966814130544662e-03
-1.155914068222045898e-01
4.224759936332702637e-01
6.848799437284469604e-02
8.473859727382659912e-02
-3.114496916532516479e-02
6.425464153289794922e-02
3.804730996489524841e-02
6.556636095046997070e-02
-4.658181220293045044e-02
-7.135277986526489258e-02
1.096401885151863098e-01
6.829100847244262695e-02
-8.231222629547119141e-02
8.719457313418388367e-03
-4.177582263946533203e-02
2.054841965436935425e-01
3.656388819217681885e-02
-1.314119398593902588e-01
-1.614537648856639862e-02
2.900562807917594910e-02
-3.045829571783542633e-02
-3.035663068294525146e-01
9.961742907762527466e-02
-1.035910546779632568e-01
-2.467311546206474304e-02
-4.995718598365783691e-02
-1.141253709793090820e-01
7.327738404273986816e-02
2.358135208487510681e-02
-3.430136421229690313e-04
6.080179661512374878e-02
1.204165723174810410e-02
-4.459133744239807129e-02
-1.941317319869995117e-02
3.740133345127105713e-02
7.939970493316650391e-02
6.583920866250991821e-02
-2.709040790796279907e-02
-7.415539771318435669e-02
8.134967833757400513e-02
-4.021039977669715881e-02
1.623423397541046143e-02
5.811029300093650818e-02
-5.294196680188179016e-02
-8.875121921300888062e-02
4.046830907464027405e-02
-2.742193639278411865e-02
-1.931094974279403687e-01
1.193136093206703663e-03
1.291324347257614136e-01
-6.714135408401489258e-02
-5.375871434807777405e-02
2.339801006019115448e-02
-4.812281578779220581e-02
2.934657596051692963e-02
-1.088200435042381287e-01
8.277387171983718872e-02
2.876627026125788689e-03
-1.991564780473709106e-02
4.702414444182068110e-04
-8.252168446779251099e-02
-6.276942789554595947e-02
9.481966495513916016e-03
-6.595718860626220703e-02
-1.258899867534637451e-01
7.146003842353820801e-02
1.087413057684898376e-01
1.087900996208190918e-01
-5.152964964509010315e-02
-1.232627965509891510e-02
-1.051572337746620178e-01
-1.035624090582132339e-02
-9.503744542598724365e-02
5.356924235820770264e-02
7.282253354787826538e-03
1.448287516832351685e-01
4.825466126203536987e-02
1.089778840541839600e-01
-2.851583296433091164e-03
-1.183560341596603394e-01
-2.187955565750598907e-02
4.193005338311195374e-02
-1.029231771826744080e-02
-1.835143119096755981e-01
-2.334962598979473114e-02
-1.465841662138700485e-03
-1.355997622013092041e-01
3.529416397213935852e-03
-1.458858996629714966e-01
-4.198767989873886108e-02
2.621555887162685394e-02
1.361019909381866455e-01
8.980689942836761475e-02
-3.208203241229057312e-03
1.471029687672853470e-02
2.780971676111221313e-02
-5.532885715365409851e-02
3.692071139812469482e-02
5.289191007614135742e-02
-1.668448001146316528e-01
-6.897505372762680054e-02
2.277706936001777649e-02
-4.991761874407529831e-03
-2.504238509573042393e-04
3.990599513053894043e-02
-9.229613840579986572e-02
6.289715319871902466e-02
1.651133894920349121e-01
-8.239277452230453491e-02
2.557344734668731689e-02
-4.133779555559158325e-02
-1.327164173126220703e-01
-5.788138136267662048e-02
-2.307770848274230957e-01
-5.596958473324775696e-02
-4.846579581499099731e-02
9.609869681298732758e-03
-1.158187240362167358e-01
2.685805223882198334e-02
-4.314454272389411926e-02
6.186717655509710312e-03
5.647525936365127563e-02
5.601337179541587830e-02
-3.566420078277587891e-02
1.044661253690719604e-01
1.131610497832298279e-01
3.204256296157836914e-02
-1.281902752816677094e-02
-3.204908221960067749e-02
-1.940122693777084351e-01
-6.809627264738082886e-02
5.469512939453125000e-02
-1.465493142604827881e-01
5.528433714061975479e-03
3.218663483858108521e-02
1.049976870417594910e-01
6.673368811607360840e-02
-6.173623725771903992e-02
3.920883685350418091e-02
2.759576961398124695e-02
-1.589641571044921875e-01
-1.510358601808547974e-01
1.679812557995319366e-02
6.579133123159408569e-02
5.828449130058288574e-02
9.472344070672988892e-03
-8.900322951376438141e-03
-3.586724051274359226e-04
-4.743271321058273315e-02
2.254496961832046509e-01
7.954317145049571991e-03
2.047030627727508545e-02
-7.841865532100200653e-03
5.373325943946838379e-02
-2.264691591262817383e-01
1.387465186417102814e-02
-4.729364439845085144e-02
-1.115650981664657593e-01
3.040063194930553436e-02
-2.022092975676059723e-02
3.752514719963073730e-02
3.404598310589790344e-02
-4.232763312757015228e-03
-1.031476631760597229e-01
1.556482017040252686e-01
-5.999308452010154724e-02
-1.105405390262603760e-02
-5.473707243800163269e-02
6.195932626724243164e-02
-1.433217898011207581e-02
3.565076505765318871e-03
4.724949970841407776e-02
2.153477668762207031e-01
-5.373140797019004822e-02
-7.017505168914794922e-02
-5.283454433083534241e-02
-2.659636549651622772e-02
1.765920817852020264e-01
1.042040344327688217e-02
-3.777242731302976608e-03
-3.309840708971023560e-02
8.684179931879043579e-02
6.031807139515876770e-02
3.224525228142738342e-02
1.560378372669219971e-01
7.976876571774482727e-03
3.301719203591346741e-02
4.396246746182441711e-03
-7.649115473031997681e-02
1.042207330465316772e-01
8.173827081918716431e-02
-9.560584090650081635e-03
3.033692948520183563e-02
5.645009875297546387e-02
-1.916211247444152832e-01
-2.637758851051330566e-01
2.583657391369342804e-03
2.793659642338752747e-02
-3.452979773283004761e-02
-7.230588793754577637e-02
9.367323666810989380e-02
1.055836603045463562e-01
-1.824396103620529175e-01
6.301260739564895630e-02
4.771544411778450012e-02
2.907227165997028351e-02
4.499295726418495178e-02
-1.725969761610031128e-01
-3.766901558265089989e-03
-5.751103535294532776e-02
1.003076601773500443e-02
-6.249530613422393799e-02
-1.345187146216630936e-02
-8.434269111603498459e-04
-4.938381910324096680e-02
-1.655155606567859650e-02
3.721870109438896179e-02
2.267890796065330505e-02
-1.908442005515098572e-02
9.129572659730911255e-03
1.172068491578102112e-01
2.864388227462768555e-01
1.979509368538856506e-02
2.609844505786895752e-02
-1.522751003503799438e-01
-7.291222363710403442e-02
-1.280947923660278320e-01
2.143903262913227081e-02
1.190557796508073807e-02
-3.780186176300048828e-02
1.291493773460388184e-01
6.488869339227676392e-02
-1.794727444648742676e-01
-1.963334828615188599e-01
-5.385097116231918335e-02
2.309685014188289642e-02
-1.780335046350955963e-02
-6.951548904180526733e-02
3.024720586836338043e-02
3.155454248189926147e-02
-3.984483703970909119e-02
1.169916018843650818e-01
-1.002211570739746094e-01
1.159959379583597183e-02
8.767396956682205200e-02
1.722200363874435425e-01
1.099906116724014282e-02
1.588807441294193268e-02
-4.200518596917390823e-03
6.956724077463150024e-02
-1.581022515892982483e-02
-1.732311910018324852e-03
6.542713940143585205e-02
-1.256847195327281952e-02
-6.264441460371017456e-02
-1.194348186254501343e-01
-2.304462529718875885e-02
4.759668558835983276e-02
-8.911848813295364380e-02
9.079099632799625397e-03
-8.576055616140365601e-02
2.285006083548069000e-02
5.607579275965690613e-02
-8.045239746570587158e-02
1.354395598173141479e-01
8.716827142052352428e-04
1.025307700037956238e-01
-6.476169079542160034e-02
-7.655353099107742310e-02
-9.143977612257003784e-02
-1.397576928138732910e-02
1.677689701318740845e-01
-1.218652259558439255e-02
-2.323249354958534241e-02
1.504489332437515259e-01
-2.827293053269386292e-02
-5.699039902538061142e-03
-3.584033995866775513e-02
1.413500159978866577e-01
2.773155644536018372e-02
-3.841099096462130547e-03
4.737022146582603455e-02
-8.687806129455566406e-02
3.818183019757270813e-02
2.618859522044658661e-02
-1.074965968728065491e-01
2.326377108693122864e-02
5.646133050322532654e-02
4.563609883189201355e-02
6.673557311296463013e-02
5.268064886331558228e-02
6.378442049026489258e-02
1.657463237643241882e-02
1.796777248382568359e-01
-1.280111372470855713e-01
-3.202286735177040100e-02
-9.107024967670440674e-02
-7.143709063529968262e-02
3.722763434052467346e-02
3.738876059651374817e-02
-6.573442835360765457e-03
-4.367483034729957581e-02
-2.797313779592514038e-02
3.750502690672874451e-02
2.075612358748912811e-02
3.038392588496208191e-02
1.092308759689331055e-02
4.637425392866134644e-02
6.289212405681610107e-02
-2.503002621233463287e-02
9.727635420858860016e-03
-4.891382530331611633e-02
2.054444327950477600e-02
-2.052729204297065735e-02
1.166537627577781677e-01
5.102044343948364258e-02
1.989958435297012329e-02
5.242418870329856873e-02
-4.400816932320594788e-02
-9.745211899280548096e-02
-8.305537700653076172e-02
1.603499986231327057e-02
-1.380947381258010864e-01
-1.089797466993331909e-01
-2.775107137858867645e-02
-5.505665391683578491e-02
-6.528501957654953003e-02
1.398464888334274292e-01
4.308298695832490921e-03
-1.310069300234317780e-02
-3.177934512495994568e-02
2.593020200729370117e-01
-5.847037583589553833e-02
-8.790963888168334961e-02
5.074540525674819946e-02
5.073519051074981689e-02
-5.178317427635192871e-02
4.658427555114030838e-03
-2.580226771533489227e-02
9.327164292335510254e-02
-9.224875271320343018e-02
1.444125771522521973e-01
-7.699292153120040894e-02
1.356377080082893372e-02
-2.286035865545272827e-01
5.061075557023286819e-03
-1.150019541382789612e-01
-7.580225169658660889e-02
1.370818018913269043e-01
2.263796031475067139e-01
7.621081918478012085e-02
-1.099330931901931763e-01
-1.077178586274385452e-02
8.432852476835250854e-02
1.119060665369033813e-01
8.247870206832885742e-02
-6.903356313705444336e-02
-1.339146196842193604e-01
-9.902908653020858765e-02
-8.220759034156799316e-02
2.585854195058345795e-02
-6.970251351594924927e-02
-1.942521706223487854e-02
-2.287827245891094208e-02
-7.659357041120529175e-02
1.032399684190750122e-01
3.467465937137603760e-02
-6.929607689380645752e-02
7.029178738594055176e-02
-3.362802788615226746e-02
5.530196800827980042e-02
-2.280290611088275909e-02
-4.338070284575223923e-03
-6.725505227223038673e-04
-4.061982780694961548e-02
-7.885684072971343994e-02
-2.059685438871383667e-01
-2.744886092841625214e-02
-1.104149371385574341e-01
7.893631607294082642e-02
-6.991891562938690186e-02
-7.961159944534301758e-02
-1.335701495409011841e-01
1.646820269525051117e-02
-6.334502715617418289e-03
-1.921576410531997681e-01
7.051484286785125732e-02
3.815306117758154869e-03
-6.103494390845298767e-02
1.549544930458068848e-01
-4.319223389029502869e-02
-1.098152473568916321e-01
1.059363782405853271e-01
1.110691651701927185e-01
-1.484234910458326340e-02
5.518028140068054199e-02
1.028555706143379211e-01
-8.232037653215229511e-04
-2.051853388547897339e-02
-2.462417632341384888e-02
4.159298539161682129e-02
6.326361745595932007e-02
7.130968570709228516e-02
-7.836803793907165527e-02
1.959472447633743286e-01
-1.370259523391723633e-01
-1.437384933233261108e-01
1.187118217349052429e-01
9.701526165008544922e-02
3.449794650077819824e-02
2.565128356218338013e-02
-6.120125763118267059e-03
-4.512193426489830017e-02
4.568185657262802124e-02
-1.333182305097579956e-01
-3.227698057889938354e-02
1.172793507575988770e-01
-1.174704581499099731e-01
-1.302588135004043579e-01
-3.620016947388648987e-02
-7.531849294900894165e-02
-8.554170280694961548e-02
7.241201400756835938e-02
-3.450501337647438049e-02
8.299823850393295288e-02
-8.475135080516338348e-03
-3.584243729710578918e-02
3.496735170483589172e-02
-6.628293544054031372e-02
6.782626360654830933e-02
-2.981315553188323975e-02
-7.676021754741668701e-02
-4.026529937982559204e-02
1.314244419336318970e-01
-5.226316303014755249e-02
1.627068221569061279e-02
1.826658286154270172e-02
-6.354378163814544678e-02
2.017355114221572876e-01
-1.314819902181625366e-01
4.831470549106597900e-02
-1.769533567130565643e-02
2.929472923278808594e-02
3.378480300307273865e-02
-8.214572072029113770e-02
3.780928999185562134e-02
-4.487049207091331482e-02
4.753172025084495544e-02
-2.195954322814941406e-02
-4.226308315992355347e-02
-7.705699186772108078e-03
5.240848660469055176e-02
-2.313989214599132538e-02
-7.489666342735290527e-02
2.292161807417869568e-02
-4.926840215921401978e-02
2.107535302639007568e-02
6.410900503396987915e-02
-5.317057669162750244e-02
2.161306701600551605e-02
6.810948252677917480e-02
6.374966353178024292e-02
-5.558751896023750305e-02
-1.368537396192550659e-01
2.771546831354498863e-03
7.388346642255783081e-02
8.906802535057067871e-02
-1.559466868638992310e-01
-7.150854170322418213e-02
3.818793594837188721e-02
-3.607212379574775696e-02
8.441320061683654785e-02
5.999190360307693481e-02
3.922423347830772400e-02
1.222603991627693176e-01
-3.265736252069473267e-02
-3.971517831087112427e-02
-2.543981373310089111e-01
-8.910121768712997437e-02
-8.022207766771316528e-03
7.856348156929016113e-02
4.051432758569717407e-02
-5.752003565430641174e-02
1.351991742849349976e-01
1.360858231782913208e-01
8.450869470834732056e-02
-5.480173975229263306e-02
-5.888330051675438881e-04
6.176799652166664600e-04
-1.959523931145668030e-02
-5.617024376988410950e-03
1.283277124166488647e-01
-1.746449037455022335e-03
1.714434772729873657e-01
1.314423512667417526e-03
3.996675834059715271e-02
1.168595179915428162e-01
4.350082203745841980e-02
1.606653630733489990e-02
5.665462091565132141e-02
3.021724987775087357e-03
-1.686478555202484131e-01
6.940048770047724247e-04
3.747657872736454010e-03
-2.651004195213317871e-01
1.435200423002243042e-01
-1.062930375337600708e-01
-4.833914805203676224e-03
7.267090678215026855e-02
-7.434427272528409958e-03
-3.901819139719009399e-02
2.777777845039963722e-03
-7.655365858227014542e-03
8.633320778608322144e-02
3.637596592307090759e-02
9.224914759397506714e-02
1.258753892034292221e-02
5.583326146006584167e-02
-8.932937867939472198e-03
5.059616267681121826e-02
7.746290415525436401e-02
3.066865168511867523e-02
-1.566704511642456055e-01
1.231217756867408752e-03
-3.013640269637107849e-02
-1.094044819474220276e-01
1.340512558817863464e-02
7.185932248830795288e-02
-7.122068107128143311e-02
-1.199217606335878372e-02
-8.271402120590209961e-02
2.600094676017761230e-02
4.577380791306495667e-02
2.508051395416259766e-01
-2.007673680782318115e-01
5.558617413043975830e-02
1.644587330520153046e-02
-2.456873469054698944e-02
-1.594009995460510254e-01
2.965814992785453796e-02
-5.430645495653152466e-02
-9.501221776008605957e-02
3.380395099520683289e-02
-1.567072351463139057e-03
-2.060201391577720642e-02
-5.603994429111480713e-02
-1.345321908593177795e-02
9.808241575956344604e-02
1.104353517293930054e-01
-6.668628007173538208e-02
-1.005267649888992310e-01
-7.635280489921569824e-02
-6.937002390623092651e-02
7.733867317438125610e-02
-7.279890775680541992e-02
1.283314824104309082e-01
-2.410882152616977692e-02
-4.864209517836570740e-02
-7.029440999031066895e-02
2.723934128880500793e-02
1.109724566340446472e-01
1.468471735715866089e-01
2.076148241758346558e-01
-7.719352841377258301e-02
2.793534845113754272e-02
8.033809810876846313e-02
-6.337168812751770020e-02
7.779096066951751709e-02
-3.783749043941497803e-02
-1.222081948071718216e-02
-1.042313128709793091e-01
-2.041300199925899506e-02
9.544526040554046631e-02
-1.486848853528499603e-02
-1.428477764129638672e-01
3.426831960678100586e-02
-1.357419136911630630e-02
-1.400727480649948120e-01
9.648083150386810303e-02
6.160665303468704224e-02
1.028864011168479919e-01
4.989540670067071915e-03
-9.792234748601913452e-02
-9.157386422157287598e-02
-1.080865934491157532e-01
-1.212564781308174133e-01
6.601791828870773315e-02
1.985904872417449951e-01
-7.967426208779215813e-04
-5.877623707056045532e-02
-1.013733539730310440e-02
-5.735126323997974396e-04
6.568451225757598877e-02
-8.605819940567016602e-02
-7.702300697565078735e-02
7.329982519149780273e-02
1.438454687595367432e-01
8.942070603370666504e-02
4.023716226220130920e-02
7.393711712211370468e-04
-1.133327111601829529e-01
-6.989518646150827408e-03
1.123579218983650208e-02
1.546741276979446411e-02
1.128676533699035645e-01
3.394877314567565918e-01
3.229376673698425293e-02
1.189996376633644104e-01
-8.460725098848342896e-02
-2.354790922254323959e-03
6.602746993303298950e-02
-8.328462392091751099e-02
-1.280237734317779541e-02
-2.513946406543254852e-02
-3.576388582587242126e-02
2.575897797942161560e-02
2.192288637161254883e-02
1.398800164461135864e-01
6.361500173807144165e-02
-7.007164508104324341e-02
9.487881325185298920e-03
2.778103388845920563e-02
2.436307258903980255e-02
7.227481901645660400e-02
-7.330213673412799835e-03
-3.248542547225952148e-02
1.152721699327230453e-02
3.840268775820732117e-02
1.269437465816736221e-02
-1.500799059867858887e-01
-4.493255913257598877e-02
9.617933630943298340e-02
3.487443923950195312e-01
1.601817607879638672e-01
-4.818938300013542175e-02
-2.796443179249763489e-02
9.393499046564102173e-02
-3.686384856700897217e-02
2.824061550199985504e-03
7.099514454603195190e-02
2.486259862780570984e-02
-5.380983278155326843e-02
8.260019123554229736e-03
7.446914911270141602e-02
9.748976444825530052e-04
-2.646222012117505074e-03
4.156437888741493225e-02
6.262501236051321030e-03
-8.622191846370697021e-02
-2.390180155634880066e-02
1.094675716012716293e-02
-3.063192404806613922e-02
-1.363121904432773590e-02
-8.723005652427673340e-02
3.035807050764560699e-03
1.016868725419044495e-01
4.835083708167076111e-02
-1.196311339735984802e-01
1.291314326226711273e-02
6.369129568338394165e-02
-6.585916876792907715e-02
2.773385941982269287e-01
2.840421535074710846e-02
-1.794926938600838184e-03
-3.604193776845932007e-02
-1.115101389586925507e-02
-2.387865185737609863e-01
1.829032204113900661e-03
-1.984681561589241028e-02
7.100896537303924561e-02
-7.427641656249761581e-03
4.354881122708320618e-02
-8.448763936758041382e-02
3.934400156140327454e-02
5.584967881441116333e-02
-9.150158613920211792e-02
4.459033906459808350e-02
4.744379594922065735e-02
-7.571678608655929565e-02
6.425714585930109024e-03
4.020403698086738586e-02
1.074445545673370361e-01
2.608412131667137146e-02
-4.192276298999786377e-02
6.015304103493690491e-02
-1.134936287999153137e-01
-3.160778060555458069e-02
4.973655194044113159e-02
-7.510121213272213936e-04
3.073078766465187073e-02
-3.701307624578475952e-02
6.624867022037506104e-02
3.324676677584648132e-02
1.122192665934562683e-01
1.151068955659866333e-01
-1.269242446869611740e-02
-1.755053922533988953e-02
3.977005556225776672e-02
-8.728387951850891113e-02
-7.749067246913909912e-02
6.623011827468872070e-02
1.284875441342592239e-03
9.255567938089370728e-02
-1.184942424297332764e-01
8.855171501636505127e-02
-6.874243170022964478e-02
-5.929785966873168945e-02
4.693478345870971680e-02
-1.830147206783294678e-02
1.020724326372146606e-01
-4.040754400193691254e-03
-1.676409319043159485e-02
-5.294467136263847351e-02
6.229810789227485657e-02
5.053843185305595398e-02
9.857861697673797607e-02
8.871723897755146027e-03
-6.893549114465713501e-02
4.506066814064979553e-02
-6.971808150410652161e-03
-4.184686392545700073e-02
-1.083520352840423584e-01
-1.503673149272799492e-03
2.564178314059972763e-03
8.433365821838378906e-02
4.516552388668060303e-02
-1.123961508274078369e-01
6.787177920341491699e-02
3.016795814037322998e-01
9.134739637374877930e-02
1.962541230022907257e-02
2.426206320524215698e-02
5.268744006752967834e-02
-1.125140190124511719e-01
-8.312117308378219604e-02
-6.071618199348449707e-02
6.731776148080825806e-02
1.025517005473375320e-02
-1.480177640914916992e-01
-3.865994140505790710e-02
-4.125905036926269531e-02
9.018845856189727783e-03
2.129271440207958221e-02
-6.434742361307144165e-02
8.899319171905517578e-02
8.834755048155784607e-03
-3.187200054526329041e-02
4.907137714326381683e-03
7.377621531486511230e-02
3.035246208310127258e-02
-1.292581111192703247e-01
1.279158592224121094e-01
-3.268676623702049255e-02
-1.555762719362974167e-02
9.066075831651687622e-02
-7.412091363221406937e-04
4.356651101261377335e-03
6.634553521871566772e-02
2.823447436094284058e-02
8.316697180271148682e-02
-2.483600825071334839e-01
-8.890999108552932739e-02
1.135660186409950256e-01
-1.096492819488048553e-02
-1.387640181928873062e-02
7.273974828422069550e-03
3.738204715773463249e-03
-2.354330942034721375e-02
-3.250226378440856934e-02
2.811578810214996338e-01
1.271156668663024902e-01
5.524446442723274231e-02
-8.920316398143768311e-02
-1.407989710569381714e-01
-3.221336379647254944e-02
1.852096430957317352e-02
7.342317700386047363e-02
-4.290654510259628296e-02
-2.430066838860511780e-02
-1.440652906894683838e-01
7.507234066724777222e-02
4.350643232464790344e-02
3.588560596108436584e-02
-1.679586172103881836e-01
-1.498987199738621712e-03
-1.028666347265243530e-01
7.062639296054840088e-02
1.041113771498203278e-02
-8.566440641880035400e-02
-5.806528031826019287e-02
2.879152297973632812e-01
-1.429171413183212280e-01
-2.171977907419204712e-01
4.593177512288093567e-02
-1.419543772935867310e-01
6.005929037928581238e-02
-6.255993992090225220e-02
3.394080325961112976e-02
-1.672199964523315430e-01
5.792591348290443420e-02
2.101774094626307487e-03
5.254415050148963928e-02
-1.299084443598985672e-02
2.308063954114913940e-01
5.063998326659202576e-02
6.784853339195251465e-02
7.922182232141494751e-02
-3.072179853916168213e-02
-3.667721897363662720e-02
-1.786287724971771240e-01
-4.578583315014839172e-02
-2.816829644143581390e-02
1.581368595361709595e-01
-5.925837531685829163e-02
4.473755508661270142e-02
-3.890227898955345154e-02
-2.368504367768764496e-02
6.161327008157968521e-03
-6.521376222372055054e-02
-4.345452785491943359e-02
-4.309881478548049927e-03
9.177262336015701294e-02
1.762607991695404053e-01
-2.456977777183055878e-02
-3.520297259092330933e-02
5.636325851082801819e-02
1.731109023094177246e-01
-2.019515335559844971e-01
-6.501491367816925049e-02
-1.142021566629409790e-01
5.479066446423530579e-02
2.952259406447410583e-02
9.205526113510131836e-02
7.179782260209321976e-03
1.922503858804702759e-02
1.862621754407882690e-01
4.356269538402557373e-02
4.886329919099807739e-02
-7.957662642002105713e-02
1.207590103149414062e-03
2.237392961978912354e-02
9.079413115978240967e-02
-5.973644927144050598e-02
-5.290478840470314026e-02
-9.552668780088424683e-04
1.247746944427490234e-01
-1.543810665607452393e-01
-4.311468824744224548e-02
4.847604036331176758e-02
1.255363374948501587e-01
1.744690388441085815e-01
2.260056883096694946e-02
2.214633859694004059e-02
3.706642612814903259e-02
-1.913321316242218018e-01
2.080796211957931519e-01
2.012156322598457336e-02
1.738827116787433624e-02
7.798130810260772705e-02
1.124455258250236511e-01
1.977224498987197876e-01
-2.140316516160964966e-01
-4.020917043089866638e-02
2.994364360347390175e-03
1.841637492179870605e-02
-4.583937302231788635e-02
-1.271106600761413574e-01
1.986144669353961945e-02
-1.937931925058364868e-01
6.032691150903701782e-02
1.638136804103851318e-01
1.619974076747894287e-01
1.052155867218971252e-01
-5.468706041574478149e-02
-6.823923438787460327e-02
5.700810346752405167e-03
9.138191491365432739e-02
5.260573234409093857e-03
1.425611227750778198e-01
-1.499628648161888123e-02
-8.088707178831100464e-02
1.165593741461634636e-03
5.842855945229530334e-02
-1.448019221425056458e-02
2.671415358781814575e-02
1.567944437265396118e-01
1.494598016142845154e-02
-5.945555120706558228e-02
3.241593539714813232e-01
-3.473306447267532349e-02
1.219715848565101624e-01
-1.802601367235183716e-01
1.959865540266036987e-02
-1.414036005735397339e-01
-7.143421471118927002e-02
-4.269772022962570190e-02
3.068657219409942627e-02
2.594555616378784180e-01
-1.180234085768461227e-02
-1.091886833310127258e-01
-7.190743926912546158e-03
9.834691882133483887e-03
-3.968667238950729370e-02
-2.222597226500511169e-02
4.753303900361061096e-02
1.002198532223701477e-01
1.317766159772872925e-01
-2.681526914238929749e-02
-2.031027153134346008e-02
5.945101007819175720e-02
-1.332900077104568481e-01
2.255859598517417908e-02
-7.394377142190933228e-02
-5.638214200735092163e-02
5.515035241842269897e-02
1.203114762902259827e-01
-6.551595777273178101e-02
-3.296173736453056335e-02
2.600263059139251709e-01
-2.742485143244266510e-02
5.817822180688381195e-03
-2.886990457773208618e-02
5.463974177837371826e-02
1.192408129572868347e-01
1.351095736026763916e-01
-1.152490302920341492e-01
5.539033934473991394e-02
5.318263173103332520e-02
-4.247489199042320251e-02
-2.885428257286548615e-02
-1.673237830400466919e-01
5.830487608909606934e-02
-4.195664450526237488e-02
7.808315008878707886e-02
3.531838953495025635e-02
5.334957037121057510e-03
-2.088096886873245239e-01
-2.513665854930877686e-01
-7.152222096920013428e-02
1.587218418717384338e-02
9.133078902959823608e-02
1.371531840413808823e-02
1.270920038223266602e-01
-4.017613455653190613e-02
3.544195368885993958e-02
-2.946265041828155518e-02
7.691103965044021606e-04
-1.232247874140739441e-01
-9.930660575628280640e-02
1.773636043071746826e-02
-7.434278726577758789e-02
8.019071072340011597e-02
-3.225907310843467712e-02
8.481536060571670532e-02
-2.230308577418327332e-02
1.144137308001518250e-01
8.515393733978271484e-02
-5.049419775605201721e-02
1.001783683896064758e-01
-1.324920207262039185e-01
-1.058206930756568909e-01
1.096035540103912354e-01
-1.117677837610244751e-01
-1.020428240299224854e-01
1.403342280536890030e-02
1.205580756068229675e-01
5.080953612923622131e-02
-1.937002688646316528e-02
6.462351232767105103e-02
1.056459620594978333e-01
2.139473799616098404e-03
5.900040641427040100e-02
2.215275540947914124e-02
7.996313273906707764e-02
-6.707934290170669556e-02
-6.491684168577194214e-02
-7.109296321868896484e-02
7.280919700860977173e-02
3.676652908325195312e-02
-6.857880204916000366e-02
-5.937318876385688782e-02
-3.313408792018890381e-02
1.814425587654113770e-01
-2.188554935855790973e-05
-6.409012526273727417e-02
-3.981231153011322021e-02
-1.929019391536712646e-01
7.307510823011398315e-02
1.032242402434349060e-01
1.309769004583358765e-01
-3.287853300571441650e-02
-2.953979372978210449e-02
4.641930386424064636e-02
-2.897555567324161530e-02
1.067421585321426392e-01
-5.318047106266021729e-02
7.075884193181991577e-02
1.156563684344291687e-01
8.305925875902175903e-02
-7.549304515123367310e-02
7.218836247920989990e-02
-2.317743599414825439e-01
-5.787404254078865051e-02
-5.109474062919616699e-02
3.037494607269763947e-02
5.726350843906402588e-02
1.117220744490623474e-01
-7.734360545873641968e-02
1.425060480833053589e-01
-6.234113126993179321e-02
8.897022157907485962e-02
-1.728928834199905396e-02
7.492201030254364014e-02
1.113291233777999878e-01
-1.387882046401500702e-02
5.509449541568756104e-02
-3.429622054100036621e-01
1.897847093641757965e-02
-4.078375548124313354e-02
-1.094275969080626965e-03
1.176383346319198608e-01
-7.663077116012573242e-02
-3.366681933403015137e-02
-9.847649931907653809e-02
-1.106491545215249062e-03
2.594867907464504242e-02
9.595373272895812988e-02
2.546395733952522278e-02
5.533953383564949036e-02
1.410228163003921509e-01
5.865170806646347046e-02
-4.942555353045463562e-02
8.806561678647994995e-02
-1.084423586726188660e-01
3.209240362048149109e-02
4.161017388105392456e-02
-8.884628862142562866e-02
-4.078292846679687500e-02
-4.711053520441055298e-02
-3.042690455913543701e-02
-2.342964289709925652e-03
-3.597652167081832886e-02
1.027938947081565857e-01
-1.152072697877883911e-01
1.525678038597106934e-01
2.405451685190200806e-01
-7.335271686315536499e-02
4.512157663702964783e-02
1.483410447835922241e-01
1.513633430004119873e-01
5.444844439625740051e-02
-2.003749608993530273e-01
-9.285754710435867310e-02
-1.454689800739288330e-01
1.264123991131782532e-02
-1.196239367127418518e-01
-2.677292190492153168e-02
-1.868895739316940308e-01
-4.481009393930435181e-02
1.269559115171432495e-01
1.968729496002197266e-01
-2.402912639081478119e-02
-1.803087629377841949e-02
7.827801257371902466e-02
3.553865849971771240e-02
3.219059482216835022e-02
-1.641340702772140503e-01
1.666684895753860474e-01
-5.171825643628835678e-03
-2.744897268712520599e-02
1.918798312544822693e-02
5.586658045649528503e-02
9.146571159362792969e-03
1.078151017427444458e-01
1.058320701122283936e-01
-5.305522680282592773e-02
9.654074162244796753e-02
1.283306721597909927e-02
5.823064222931861877e-02
-2.813432365655899048e-02
5.147470161318778992e-02
-4.733530431985855103e-02
-9.409189224243164062e-02
-1.832190901041030884e-02
1.768665388226509094e-02
5.306858569383621216e-03
-3.240578621625900269e-02
-2.420600689947605133e-02
6.839378178119659424e-02
-9.599379450082778931e-02
1.537816971540451050e-01
-1.176799610257148743e-01
-2.034071087837219238e-02
1.027069985866546631e-02
-1.071745753288269043e-01
-8.088050782680511475e-02
1.323959231376647949e-01
-1.163515970110893250e-01
-1.394289731979370117e-01
1.988847255706787109e-01
-6.380239874124526978e-02
-1.073187738656997681e-01
-7.174313068389892578e-02
-8.079934120178222656e-02
-6.385207176208496094e-02
7.443110644817352295e-02
7.245024293661117554e-02
5.634055659174919128e-02
1.449316889047622681e-01
-6.836994737386703491e-02
6.556271016597747803e-02
-4.421466588973999023e-02
-5.523312836885452271e-02
-9.113541245460510254e-02
-7.349408417940139771e-02
-1.085193082690238953e-01
2.536164596676826477e-02
3.194215521216392517e-02
-2.872730232775211334e-02
-5.095423758029937744e-02
1.133340001106262207e-01
5.505837872624397278e-02
-6.219351664185523987e-02
-1.222049593925476074e-01
4.129052907228469849e-02
1.704438179731369019e-01
1.123040467500686646e-01
-5.475391820073127747e-02
-2.332635037600994110e-02
8.669421821832656860e-02
2.460249513387680054e-02
-8.705435693264007568e-02
-9.142817556858062744e-02
-1.007590442895889282e-01
4.205079004168510437e-02
-4.441171512007713318e-02
3.398539498448371887e-02
-6.541544198989868164e-02
-5.690884217619895935e-02
3.842143714427947998e-02
9.034042805433273315e-02
-1.008174046874046326e-01
-2.702551186084747314e-01
1.136187463998794556e-02
2.834063470363616943e-01
2.590375021100044250e-02
-1.165877431631088257e-01
3.244507685303688049e-02
-1.016356423497200012e-01
1.605595648288726807e-02
1.399273425340652466e-01
8.479029871523380280e-03
1.305481642484664917e-01
6.255660206079483032e-02
-2.795760892331600189e-02
-1.137093082070350647e-01
-6.137307733297348022e-02
-9.347008913755416870e-02
2.202911488711833954e-02
4.558844119310379028e-02
2.213495597243309021e-02
4.721803218126296997e-02
-3.603670746088027954e-02
9.157694131135940552e-02
5.814170930534601212e-03
1.762656611390411854e-03
2.418836345896124840e-03
4.161723703145980835e-02
2.152968384325504303e-02
7.504501938819885254e-02
3.566534817218780518e-02
2.742789871990680695e-02
6.378730386495590210e-02
1.277630329132080078e-01
9.321610443294048309e-03
9.109128266572952271e-02
4.117536544799804688e-02
8.005761355161666870e-02
1.199310943484306335e-01
-2.596039511263370514e-02
-1.242290288209915161e-01
1.890700310468673706e-01
1.299794167280197144e-01
-4.495112970471382141e-02
2.084233425557613373e-02
-1.692538559436798096e-01
-7.881684601306915283e-02
-9.123631566762924194e-02
8.438437432050704956e-02
6.479091476649045944e-03
-4.817782342433929443e-02
8.678339421749114990e-02
5.959776043891906738e-02
-7.594560831785202026e-02
-7.796010468155145645e-03
-1.080600693821907043e-01
6.789398193359375000e-02
1.310018450021743774e-01
7.445666939020156860e-02
1.026047989726066589e-01
-1.324758529663085938e-01
7.603541761636734009e-02
7.602127734571695328e-04
1.762104034423828125e-02
1.556050032377243042e-01
4.170800000429153442e-02
-1.486398559063673019e-02
-1.560721993446350098e-01
-7.223673164844512939e-02
1.044607907533645630e-01
-5.123519524931907654e-02
-1.794975809752941132e-02
-1.520083546638488770e-01
7.064411044120788574e-02
4.117824137210845947e-03
1.315077207982540131e-02
4.260209202766418457e-02
-1.715964972972869873e-01
-5.308133363723754883e-02
5.206175893545150757e-02
-1.145756803452968597e-02
-1.145560666918754578e-01
-1.839113608002662659e-02
4.497532546520233154e-02
4.537306725978851318e-02
3.299475647509098053e-03
6.647323071956634521e-02
1.665126681327819824e-01
1.044613588601350784e-02
1.506324950605630875e-02
2.041742578148841858e-02
3.503153473138809204e-02
2.524124225601553917e-03
3.286317363381385803e-02
-5.696442350745201111e-02
2.680953033268451691e-02
5.439031496644020081e-02
-1.185434609651565552e-01
-7.911985367536544800e-02
-1.149997208267450333e-02
-1.045016273856163025e-01
8.535545319318771362e-02
5.184818804264068604e-02
7.742989808320999146e-02
2.507090754806995392e-02
1.752226799726486206e-02
9.589164704084396362e-02
-2.385240495204925537e-01
-5.141106620430946350e-02
1.393549609929323196e-02
-9.734874218702316284e-02
-6.374132819473743439e-03
7.168220728635787964e-02
-1.052309349179267883e-01
2.291669845581054688e-01
1.238274946808815002e-01
4.838467389345169067e-02
-3.476346656680107117e-02
3.169453516602516174e-02
2.252589166164398193e-02
4.291542991995811462e-02
2.352495910599827766e-03
3.905452787876129150e-03
7.928394526243209839e-02
1.983409933745861053e-02
-1.759252697229385376e-02
5.361799895763397217e-02
-7.776301354169845581e-03
1.186315938830375671e-01
-8.147060871124267578e-02
-1.011498719453811646e-01
-1.259680986404418945e-01
1.430931985378265381e-01
-2.406589873135089874e-02
-3.033778630197048187e-02
1.614861339330673218e-01
4.549208655953407288e-02
-4.841030389070510864e-02
-8.263939619064331055e-02
6.515946239233016968e-02
-4.752554744482040405e-02
-8.647084981203079224e-02
-1.720888889394700527e-03
5.881864205002784729e-02
8.761253207921981812e-03
7.823302596807479858e-02
7.843364030122756958e-02
-1.599153131246566772e-01
6.188162788748741150e-02
5.238122865557670593e-02
-8.734841644763946533e-02
-4.169038031250238419e-03
-9.856098145246505737e-02
4.832053929567337036e-02
-3.900513797998428345e-02
1.523547917604446411e-01
1.836393028497695923e-02
7.345953583717346191e-02
-9.072519093751907349e-02
-8.213772624731063843e-02
-4.108548164367675781e-02
-9.235017001628875732e-02
3.470311313867568970e-02
-7.807517051696777344e-02
-5.181792378425598145e-02
1.571338064968585968e-02
2.048823609948158264e-02
-1.687715016305446625e-02
8.633606880903244019e-02
-1.095576025545597076e-02
5.558379366993904114e-02
-2.705056071281433105e-01
-3.164258599281311035e-02
-1.204698905348777771e-01
7.955209165811538696e-02
4.119524359703063965e-02
1.093016117811203003e-01
3.077282570302486420e-02
-1.144573464989662170e-02
-1.317751407623291016e-01
-4.804740846157073975e-02
4.821827262639999390e-02
-6.371812522411346436e-02
3.012107312679290771e-02
-1.071928367018699646e-01
-5.925227701663970947e-02
-5.473667010664939880e-02
-1.315989904105663300e-02
1.478727068752050400e-02
6.266302615404129028e-02
-2.156837144866585732e-03
1.103989630937576294e-01
1.309685781598091125e-02
1.559288948774337769e-01
-3.733910620212554932e-02
-2.240026742219924927e-02
5.189073085784912109e-02
-1.502848602831363678e-02
-2.375918067991733551e-02
9.344381839036941528e-02
-3.316023200750350952e-02
-1.024597138166427612e-01
6.875542458146810532e-03
-1.481000520288944244e-02
2.037530764937400818e-02
-1.891439594328403473e-02
7.585571706295013428e-02
9.787021204829216003e-03
-2.097474411129951477e-02
-2.187062427401542664e-02
1.584662310779094696e-02
9.778022021055221558e-02
3.645537048578262329e-02
8.443742059171199799e-03
-4.758866503834724426e-03
5.619742348790168762e-02
-9.823974967002868652e-02
-7.218354195356369019e-02
-1.027305573225021362e-01
3.264351934194564819e-02
1.382734067738056183e-02
3.831940144300460815e-02
-1.139283552765846252e-01
5.710929632186889648e-02
-8.192550390958786011e-03
3.112528100609779358e-02
2.357416413724422455e-02
7.175753265619277954e-02
1.027766689658164978e-01
-1.232448965311050415e-01
-5.817488208413124084e-02
-4.560556262731552124e-02
-9.671079367399215698e-02
3.216401338577270508e-01
-6.364049855619668961e-03
-3.825692087411880493e-02
1.507140882313251495e-02
-6.232640519738197327e-02
9.797310829162597656e-02
2.736666053533554077e-02
-6.165315583348274231e-02
5.972117558121681213e-02
5.148480832576751709e-02
-3.760765492916107178e-02
-8.895565569400787354e-02
3.050619736313819885e-02
5.297875776886940002e-02
9.139785170555114746e-02
4.138818755745887756e-02
-1.267662364989519119e-02
-1.978930551558732986e-03
-1.251454651355743408e-01
-1.031932160258293152e-01
4.895389452576637268e-02
1.322770770639181137e-02
-4.658916220068931580e-02
8.547143638134002686e-02
4.233051463961601257e-02
2.117604762315750122e-02
-5.072736740112304688e-02
-3.444927930831909180e-02
-1.216394361108541489e-03
-6.875230930745601654e-03
-5.389083921909332275e-02
-1.194914132356643677e-01
-8.780132047832012177e-03
5.967612192034721375e-02
-9.900164604187011719e-02
1.070653740316629410e-02
8.289227634668350220e-02
-6.344256550073623657e-02
-6.204232946038246155e-02
2.727753110229969025e-02
-6.417560577392578125e-02
-6.269951816648244858e-03
-1.310073733329772949e-01
1.628958433866500854e-01
-8.783860504627227783e-02
1.037203818559646606e-01
-3.043661452829837799e-02
-7.436033338308334351e-02
-5.729570612311363220e-02
3.889768943190574646e-02
-7.361442595720291138e-02
-8.148373663425445557e-02
-2.942432463169097900e-01
-1.027434915304183960e-01
-4.799549654126167297e-02
-1.379841119050979614e-01
-1.493836939334869385e-02
1.105670332908630371e-01
-1.639051176607608795e-02
8.431835472583770752e-02
-7.035752385854721069e-02
2.475040033459663391e-02
4.508362617343664169e-03
-4.271909594535827637e-02
5.652927979826927185e-02
-1.878739595413208008e-01
-5.275465548038482666e-03
-7.152729481458663940e-02
-2.004468627274036407e-02
-5.336895212531089783e-02
-1.187661662697792053e-01
-4.710700362920761108e-02
6.404421478509902954e-02
-8.416297845542430878e-03
-6.100403610616922379e-03
6.751070916652679443e-02
-4.262141510844230652e-02
1.740751117467880249e-01
5.737081542611122131e-02
1.086513474583625793e-01
1.425346452742815018e-02
9.774299338459968567e-03
2.139571905136108398e-01
3.126082569360733032e-02
9.567102789878845215e-02
2.725083380937576294e-02
-8.129057288169860840e-02
-9.177108108997344971e-02
-1.274240016937255859e-01
7.136031240224838257e-02
-7.292966544628143311e-02
-6.650186330080032349e-02
-8.886521309614181519e-02
1.542658656835556030e-01
7.277607172727584839e-02
-4.820385016500949860e-03
3.056454472243785858e-02
1.113282963633537292e-01
9.551523253321647644e-03
6.254898011684417725e-02
2.832544781267642975e-02
-1.893821507692337036e-01
-1.917097270488739014e-01
-1.886438578367233276e-02
-4.995832219719886780e-02
6.919138133525848389e-02
1.906071305274963379e-01
7.621929794549942017e-02
3.681163117289543152e-02
9.531744755804538727e-03
6.693512946367263794e-02
4.539325460791587830e-02
-8.782935887575149536e-02
1.677066534757614136e-01
2.533971369266510010e-01
1.325895451009273529e-02
-6.904390454292297363e-02
-2.248444557189941406e-01
-5.690562725067138672e-02
6.089146062731742859e-02
-4.084840416908264160e-02
3.601256757974624634e-02
-5.790291354060173035e-02
-8.330832421779632568e-02
4.372470825910568237e-02
-2.256233990192413330e-02
-4.607233405113220215e-02
9.827950038015842438e-03
2.405065149068832397e-01
2.008992992341518402e-02
-4.263358563184738159e-02
-5.230332165956497192e-02
9.652281552553176880e-02
-4.534156247973442078e-02
8.336993865668773651e-03
3.713504225015640259e-02
-3.510679677128791809e-02
-6.478835362941026688e-03
1.192708015441894531e-01
-4.864062368869781494e-02
-5.415803566575050354e-02
5.824944470077753067e-03
1.808666624128818512e-02
-1.981106773018836975e-02
-6.945630908012390137e-02
-4.496855661273002625e-02
1.288818120956420898e-01
-1.044660620391368866e-02
1.937712728977203369e-02
-9.109233319759368896e-02
-5.836080387234687805e-02
3.911712765693664551e-02
4.628787189722061157e-02
-2.239294163882732391e-02
-1.237677410244941711e-01
6.554299592971801758e-02
-5.352950096130371094e-02
5.576572567224502563e-02
-2.165582776069641113e-02
-4.207237437367439270e-02
1.737956404685974121e-01
-1.217724476009607315e-02
-5.431804805994033813e-03
-6.551528815180063248e-03
-9.599434211850166321e-03
-1.219879090785980225e-01
-1.222962141036987305e-02
-8.001283556222915649e-02
-1.098915338516235352e-01
-8.838651329278945923e-02
-7.490172516554594040e-03
-9.825328364968299866e-03
-2.506648749113082886e-02
4.501977562904357910e-02
-1.802436821162700653e-02
2.554445900022983551e-02
-1.632115244865417480e-01
-2.012948319315910339e-02
-9.823392331600189209e-02
-2.034165151417255402e-02
6.093272008001804352e-03
3.665291704237461090e-03
2.660827524960041046e-02
1.553669339045882225e-03
1.084342598915100098e-01
1.258607953786849976e-01
4.901611059904098511e-02
-1.485715713351964951e-02
-3.722049295902252197e-02
-9.463927126489579678e-04
1.910469494760036469e-02
4.023789986968040466e-02
-5.493220314383506775e-02
7.484878413379192352e-03
1.489734649658203125e-02
-4.963047802448272705e-02
1.474493462592363358e-02
7.218714058399200439e-02
-9.328881651163101196e-02
-1.353864222764968872e-01
8.127298206090927124e-02
2.063111402094364166e-03
2.126747742295265198e-03
3.697844967246055603e-02
1.246973425149917603e-01
1.944720447063446045e-01
-4.344232752919197083e-02
-3.579379618167877197e-02
1.020453646779060364e-01
-5.536702275276184082e-02
7.583685219287872314e-02
5.910582095384597778e-02
3.160880878567695618e-02
-1.933613605797290802e-02
-9.235969930887222290e-02
7.065503392368555069e-03
-1.329835504293441772e-01
7.262308150529861450e-02
1.635765098035335541e-02
-4.617164283990859985e-02
-2.287962846457958221e-02
5.271301418542861938e-02
2.672781050205230713e-02
1.552944257855415344e-02
-8.329180628061294556e-02
-5.457576736807823181e-02
9.440527111291885376e-02
-6.631834432482719421e-03
-7.159020751714706421e-02
-9.095512330532073975e-02
-6.261531263589859009e-02
-1.200864613056182861e-01
-8.045080304145812988e-02
-1.528224092908203602e-03
6.546030938625335693e-02
1.162214949727058411e-02
-1.316317170858383179e-01
2.609817683696746826e-02
-1.592718064785003662e-01
-2.111780829727649689e-02
-6.582530587911605835e-02
-1.206151321530342102e-01
1.872589439153671265e-02
3.329292684793472290e-02
-1.288266200572252274e-02
-8.321961760520935059e-02
-1.163761094212532043e-01
-7.340806722640991211e-02
1.789807230234146118e-01
-5.652235448360443115e-02
-3.193377330899238586e-02
9.621543437242507935e-02
8.165051788091659546e-02
5.074969306588172913e-02
2.339115832000970840e-03
-6.730188429355621338e-02
-1.859018653631210327e-01
6.225644028745591640e-04
-5.614829435944557190e-02
-5.275900289416313171e-02
-3.152535483241081238e-02
3.657589852809906006e-02
-4.344675317406654358e-02
8.203375153243541718e-03
8.046037703752517700e-02
-8.680202811956405640e-02
-2.845557220280170441e-02
7.843100465834140778e-03
-9.849311411380767822e-02
9.995615482330322266e-02
-2.092804759740829468e-02
2.282824739813804626e-02
9.357895702123641968e-03
3.462217375636100769e-02
-3.262315317988395691e-02
6.934021413326263428e-02
-1.413450539112091064e-01
-3.313836827874183655e-02
2.413650751113891602e-01
-9.931214153766632080e-02
3.206696361303329468e-02
-6.102783232927322388e-02
-7.875657081604003906e-02
8.133574575185775757e-02
-1.109507828950881958e-01
-7.422766089439392090e-02
-2.457905188202857971e-02
-8.083454519510269165e-02
-2.126418501138687134e-01
2.479197271168231964e-02
-6.729032099246978760e-02
2.772970870137214661e-02
-1.496123895049095154e-02
1.812370680272579193e-02
-8.772049844264984131e-02
-1.572470180690288544e-02
-1.555454283952713013e-01
-4.818519577383995056e-02
-1.107541248202323914e-01
-4.476174246519804001e-03
-1.071489527821540833e-01
2.180497720837593079e-02
5.250990390777587891e-02
1.629087179899215698e-01
9.750261157751083374e-02
-8.152687922120094299e-03
-4.083334505558013916e-01
2.229132317006587982e-02
1.500553637742996216e-02
-3.766570985317230225e-02
6.282558292150497437e-02
-1.364888250827789307e-01
-2.726061642169952393e-01
-2.434953004121780396e-01
-7.401840388774871826e-02
3.874650225043296814e-02
-3.769443929195404053e-02
-5.309506878256797791e-02
1.215200871229171753e-01
7.493848353624343872e-02
1.258087754249572754e-01
-3.406587615609169006e-02
8.223245292901992798e-02
2.952606417238712311e-02
-7.445904612541198730e-02
-1.193094998598098755e-01
-4.041617736220359802e-02
9.415026754140853882e-02
-6.100071594119071960e-02
6.704899668693542480e-02
-6.206101924180984497e-02
-1.577538698911666870e-01
-4.313540458679199219e-02
1.422683745622634888e-01
-8.585562556982040405e-02
-2.278998866677284241e-02
2.433424815535545349e-02
2.030337345786392689e-04
-4.278803244233131409e-02
-1.271278262138366699e-01
-5.522029101848602295e-02
-1.287367492914199829e-01
-5.043972283601760864e-03
6.084891408681869507e-02
6.568035483360290527e-02
1.298224739730358124e-02
-1.292400211095809937e-01
-1.224334910511970520e-01
1.672177389264106750e-02
-6.584736704826354980e-02
-1.168770194053649902e-01
