-1.313843727111816406e-01
-5.522050708532333374e-02
2.315617911517620087e-02
4.798250272870063782e-02
1.367574557662010193e-02
1.625921949744224548e-02
-4.760360810905694962e-03
-1.035800948739051819e-01
2.212746068835258484e-02
-2.557757776230573654e-03
3.142591938376426697e-02
-5.813260003924369812e-02
-7.758609484881162643e-03
-1.973863318562507629e-02
-8.567121811211109161e-03
9.604812657926231623e-05
8.269701898097991943e-02
2.361578308045864105e-02
-7.826843298971652985e-03
3.599359840154647827e-02
-2.866143919527530670e-02
-7.139076292514801025e-02
8.371194452047348022e-02
-6.122218910604715347e-03
-5.742915347218513489e-02
-3.281102478504180908e-01
-2.651141397655010223e-02
-1.387751251459121704e-01
2.079967595636844635e-02
4.367274045944213867e-02
1.529259383678436279e-01
1.968240737915039062e-02
-8.463077992200851440e-02
-2.788257971405982971e-02
1.828251332044601440e-01
-7.740661501884460449e-02
-2.318008057773113251e-02
-2.116406708955764771e-02
-3.205879032611846924e-02
-3.516013547778129578e-02
8.062240481376647949e-02
-4.185397922992706299e-02
1.190940588712692261e-01
-1.882120519876480103e-01
-4.939047619700431824e-02
-5.067213252186775208e-02
-1.208476200699806213e-01
1.041323840618133545e-01
-4.488707333803176880e-02
2.204999700188636780e-02
-5.335231311619281769e-03
-1.054731663316488266e-02
2.619042620062828064e-02
-1.643696613609790802e-02
1.635746471583843231e-02
-1.144355311989784241e-01
3.696721792221069336e-02
-3.585768043994903564e-01
-1.925017833709716797e-01
-4.198922216892242432e-02
-8.059624582529067993e-03
-1.221007853746414185e-02
1.811921782791614532e-02
-1.736681759357452393e-01
-9.158179908990859985e-02
-7.257798314094543457e-02
-7.103174924850463867e-02
4.093376919627189636e-02
4.853903129696846008e-02
-2.096351049840450287e-02
-5.686040595173835754e-02
-2.996535599231719971e-02
-5.436413735151290894e-02
-5.416201055049896240e-02
-2.828158903867006302e-03
-3.992642462253570557e-02
-2.546337991952896118e-02
2.472856082022190094e-02
-1.574817448854446411e-01
7.788439840078353882e-02
-5.152667686343193054e-02
-5.192155763506889343e-02
-4.590346291661262512e-02
-1.096985116600990295e-02
3.005073172971606255e-03
-6.751565635204315186e-02
-7.303075492382049561e-02
1.513202637434005737e-01
2.895264700055122375e-02
-4.013171046972274780e-02
-1.118829473853111267e-01
9.675842523574829102e-02
9.144820272922515869e-02
1.721006073057651520e-02
5.050603672862052917e-02
2.507176622748374939e-02
1.105580292642116547e-02
-1.083547435700893402e-02
1.511812489479780197e-02
7.578811049461364746e-02
1.323203090578317642e-02
-1.657265871763229370e-01
6.929908692836761475e-02
1.214378178119659424e-01
-3.802299499511718750e-02
3.245517238974571228e-02
2.205605432391166687e-02
-1.412503048777580261e-02
1.038210093975067139e-01
-9.536215662956237793e-02
-1.271889358758926392e-01
1.304536461830139160e-01
-4.040764644742012024e-02
-6.871635466814041138e-02
-2.887440659105777740e-02
6.406431645154953003e-02
1.528514642268419266e-02
5.965242162346839905e-02
2.197102904319763184e-01
4.569381847977638245e-02
-1.201131492853164673e-01
1.942642033100128174e-02
6.021270155906677246e-02
-3.167622163891792297e-02
-8.602061308920383453e-03
-4.812115058302879333e-02
-1.407542079687118530e-01
-5.710407160222530365e-03
1.495804488658905029e-01
-3.889511898159980774e-02
3.640870004892349243e-02
1.260633859783411026e-02
3.491802141070365906e-02
-5.360822193324565887e-03
-4.572209715843200684e-02
3.958284854888916016e-02
-1.772681809961795807e-02
1.456810627132654190e-02
1.534482464194297791e-02
-4.486137628555297852e-02
-9.624869562685489655e-04
1.165723577141761780e-01
6.350970268249511719e-02
-1.576129347085952759e-02
4.161036014556884766e-02
2.006744965910911560e-02
-5.177566781640052795e-03
-6.811094284057617188e-02
-4.881390556693077087e-02
-3.618285804986953735e-02
-8.323027193546295166e-02
-2.769546583294868469e-02
5.564050003886222839e-02
9.892741590738296509e-02
8.971706032752990723e-02
-2.823316305875778198e-02
1.206341162323951721e-01
-1.724714599549770355e-02
6.809887010604143143e-03
-5.362280458211898804e-02
-5.552527680993080139e-02
-2.971937134861946106e-02
-1.999647915363311768e-02
1.800550892949104309e-02
7.646461576223373413e-02
-8.238998800516128540e-02
5.330184847116470337e-02
-1.201296132057905197e-02
-6.248821038752794266e-03
-6.822670996189117432e-02
3.207443514838814735e-03
1.015020534396171570e-01
5.731065571308135986e-02
6.851276010274887085e-02
-2.091920189559459686e-02
8.876060694456100464e-02
3.678053990006446838e-02
3.125912696123123169e-02
-2.264505252242088318e-02
2.262150682508945465e-02
-1.664198236539959908e-03
1.071375608444213867e-02
1.950684934854507446e-02
-5.790132284164428711e-02
2.782860398292541504e-02
2.242526710033416748e-01
-1.127853915095329285e-01
7.844067178666591644e-03
1.552919112145900726e-02
-2.291686236858367920e-01
4.624688625335693359e-02
3.753743320703506470e-02
1.318060308694839478e-01
-6.190351676195859909e-03
1.077587381005287170e-01
-4.596211388707160950e-02
8.342925459146499634e-02
6.499662250280380249e-02
-5.756682157516479492e-02
4.678557813167572021e-02
1.706336885690689087e-01
1.439055800437927246e-02
5.639524385333061218e-02
-2.283573523163795471e-02
-2.810179721564054489e-03
9.448014944791793823e-02
7.438684999942779541e-02
-2.722277306020259857e-02
-9.686572104692459106e-02
1.367581263184547424e-02
-4.305116087198257446e-02
-2.818347141146659851e-02
-9.332700818777084351e-02
-1.599747873842716217e-02
-6.527761369943618774e-02
-9.412238001823425293e-02
-2.903964743018150330e-02
2.697713486850261688e-02
7.258867472410202026e-02
6.664722412824630737e-02
2.363669499754905701e-02
4.024975001811981201e-02
1.753359829308465123e-04
-3.061681985855102539e-02
8.079727739095687866e-02
-2.870625257492065430e-02
-3.997111693024635315e-02
-7.183096557855606079e-02
-9.981106221675872803e-02
9.511666744947433472e-02
-9.629495441913604736e-02
-5.793703347444534302e-02
-4.119310155510902405e-02
2.609183313325047493e-03
-7.930345600470900536e-04
-5.868029966950416565e-02
-1.658930815756320953e-02
6.582751870155334473e-02
1.321520507335662842e-01
-6.590135395526885986e-02
-1.871832646429538727e-02
1.313422108069062233e-03
-8.192325942218303680e-03
-9.418303519487380981e-02
7.343129813671112061e-02
-3.514554817229509354e-03
-4.735396429896354675e-02
1.625912040472030640e-01
-5.054096132516860962e-02
-1.333496719598770142e-02
5.623284354805946350e-02
6.747283786535263062e-02
2.916476130485534668e-02
1.651098427828401327e-04
-1.105071678757667542e-01
3.250904753804206848e-02
1.201738715171813965e-01
5.198369547724723816e-02
6.267850100994110107e-02
8.431940525770187378e-02
-4.318077862262725830e-02
2.523656561970710754e-02
1.489042043685913086e-01
2.601155266165733337e-02
-2.024982869625091553e-02
-2.481568977236747742e-02
2.345920912921428680e-02
-8.678071945905685425e-02
-3.552521346136927605e-03
3.994617983698844910e-02
6.015413999557495117e-02
6.047711521387100220e-02
1.180630177259445190e-02
1.775298714637756348e-01
-6.413161009550094604e-02
6.268244981765747070e-02
3.500007838010787964e-02
1.070564165711402893e-01
6.127548962831497192e-02
-5.093935396871529520e-05
-1.380520164966583252e-01
3.834052979946136475e-01
1.054990012198686600e-02
2.630835585296154022e-02
4.147899746894836426e-01
1.865080744028091431e-02
6.381531804800033569e-02
6.981749087572097778e-02
1.123376935720443726e-02
-3.038582392036914825e-02
-5.182631313800811768e-03
7.334677875041961670e-02
1.208139657974243164e-01
4.036289453506469727e-02
3.257615491747856140e-02
3.108810400590300560e-03
5.269755423069000244e-02
-9.670728445053100586e-02
3.363050147891044617e-02
1.853914745151996613e-02
1.014378815889358521e-01
1.279200017452239990e-01
-4.154414683580398560e-02
-1.149223074316978455e-01
-2.312169037759304047e-02
7.539233565330505371e-02
-3.872846066951751709e-02
1.612543314695358276e-01
-6.181810796260833740e-02
-8.489060215651988983e-03
-1.005756855010986328e-02
1.148204281926155090e-01
-2.599000930786132812e-02
1.687106341123580933e-01
9.479948878288269043e-02
5.549398809671401978e-02
-5.036074295639991760e-02
-1.021302342414855957e-01
5.101313069462776184e-02
6.047091260552406311e-02
8.853142708539962769e-02
-5.649751797318458557e-02
5.668010935187339783e-02
-1.401785667985677719e-02
1.304123736917972565e-02
-7.476423680782318115e-02
9.665139764547348022e-02
2.568982243537902832e-01
1.046695634722709656e-01
7.453255355358123779e-02
1.191915869712829590e-01
1.324869971722364426e-02
-5.434885970316827297e-04
7.046599686145782471e-02
-5.804961919784545898e-02
8.111457340419292450e-03
-3.381885588169097900e-02
1.967016048729419708e-02
1.645336300134658813e-02
4.907745495438575745e-02
-3.991395235061645508e-02
-1.330362409353256226e-01
8.581340312957763672e-02
1.570283994078636169e-02
8.089702576398849487e-02
6.452056765556335449e-02
7.278171926736831665e-02
7.631009072065353394e-02
3.028248809278011322e-02
5.360726639628410339e-02
-5.282349884510040283e-02
1.916360110044479370e-02
1.715302765369415283e-01
7.679449021816253662e-02
-9.144385159015655518e-02
1.991629973053932190e-02
-1.052590608596801758e-01
1.263102293014526367e-01
-2.179341018199920654e-02
1.879499480128288269e-02
-1.645004376769065857e-02
6.375679373741149902e-02
1.240243241190910339e-01
7.421050965785980225e-02
9.834834933280944824e-02
6.566335260868072510e-02
-2.649119589477777481e-03
-4.225657135248184204e-02
1.779180765151977539e-02
-6.381668150424957275e-02
5.975338816642761230e-02
-4.907407984137535095e-02
-4.233919084072113037e-02
6.369040161371231079e-02
-1.431875824928283691e-01
-3.608794882893562317e-02
-2.719576470553874969e-02
-5.106733739376068115e-02
1.373890228569507599e-02
8.084640651941299438e-02
8.229523897171020508e-02
1.854275912046432495e-02
1.800440698862075806e-01
6.162891536951065063e-02
1.670507900416851044e-02
1.350898146629333496e-01
-2.055809050798416138e-01
-3.245535492897033691e-02
-4.887209460139274597e-02
1.053514406085014343e-01
2.537791617214679718e-02
7.898608595132827759e-02
-4.490112885832786560e-02
8.864363282918930054e-02
3.918181359767913818e-02
-3.740595653653144836e-02
1.613399386405944824e-01
-5.006175488233566284e-02
5.634386539459228516e-01
-4.347144067287445068e-02
-1.779020018875598907e-02
-2.793233096599578857e-02
-4.201535880565643311e-02
5.614104866981506348e-02
-3.266247361898422241e-02
-3.851895779371261597e-02
1.964553724974393845e-03
-2.206189632415771484e-01
9.024453908205032349e-02
2.608909085392951965e-02
-8.613066375255584717e-02
-9.903721511363983154e-03
1.946496893651783466e-03
-2.840223163366317749e-02
3.312194049358367920e-01
1.339521259069442749e-01
-7.913368195295333862e-02
-1.217640284448862076e-02
-6.228296551853418350e-03
-4.290083423256874084e-02
-3.524881973862648010e-02
6.453958153724670410e-02
-7.744436617940664291e-03
-3.006342984735965729e-02
-1.439943537116050720e-02
1.106513012200593948e-02
-4.286157339811325073e-02
3.468286246061325073e-02
2.028108807280659676e-03
-6.793117523193359375e-02
5.733740981668233871e-04
4.820170253515243530e-02
-1.522417273372411728e-02
3.095741011202335358e-02
-1.015844009816646576e-02
-1.072195619344711304e-01
1.036569289863109589e-02
5.120022967457771301e-02
3.417785093188285828e-02
-9.195569902658462524e-02
-8.993498049676418304e-03
3.301844745874404907e-02
-4.155705869197845459e-02
4.425244778394699097e-02
-4.972695559263229370e-02
1.836728677153587341e-02
-4.939451813697814941e-02
8.046803995966911316e-03
-4.520776122808456421e-02
-4.955893382430076599e-04
-1.591649092733860016e-02
-6.531853228807449341e-03
-4.503475129604339600e-02
2.196037769317626953e-02
1.813630759716033936e-02
-2.794140204787254333e-02
3.355791093781590462e-03
-3.420620039105415344e-02
-1.788797229528427124e-02
1.213203743100166321e-02
-7.759310305118560791e-02
5.961648747324943542e-02
-3.219759836792945862e-02
4.987138323485851288e-03
-2.442492842674255371e-01
1.923597417771816254e-02
6.453956663608551025e-02
1.307251211255788803e-02
-3.251536563038825989e-02
7.460479537257924676e-05
-2.545387297868728638e-02
6.151589378714561462e-02
9.689576178789138794e-02
3.155134618282318115e-02
-4.857216775417327881e-02
-4.309263825416564941e-02
-2.038433216512203217e-02
9.622977115213871002e-03
1.136546302586793900e-02
9.619081392884254456e-03
2.956406585872173309e-02
-6.163873150944709778e-02
3.454079851508140564e-02
-1.425533443689346313e-01
-2.900502271950244904e-02
-3.077128157019615173e-02
4.046535585075616837e-03
-5.507919006049633026e-03
-3.770686686038970947e-03
-8.834439516067504883e-02
-4.026923328638076782e-02
-1.720165759325027466e-01
-6.206731777638196945e-03
4.377757664769887924e-03
1.901312358677387238e-02
5.201055482029914856e-02
-5.661416426301002502e-02
-1.970740407705307007e-01
-8.019664324820041656e-03
3.738391399383544922e-02
-1.591888628900051117e-02
-1.904475688934326172e-02
-4.994850605726242065e-02
-1.344424299895763397e-02
-1.144690662622451782e-01
4.560901969671249390e-02
3.258882761001586914e-01
3.808335214853286743e-02
3.874716162681579590e-01
-1.893767900764942169e-02
5.517451465129852295e-02
-7.858914136886596680e-02
-4.135918989777565002e-02
-3.631800413131713867e-02
7.223423104733228683e-03
6.402856111526489258e-02
2.017033100128173828e-02
8.629250526428222656e-02
4.056793451309204102e-02
-8.971419185400009155e-02
1.469727456569671631e-01
-7.964539341628551483e-03
-9.966317564249038696e-02
-3.318309783935546875e-02
8.751206845045089722e-02
5.138178355991840363e-03
-9.119644761085510254e-02
4.762866348028182983e-02
-7.387793622910976410e-03
1.230643596500158310e-03
6.128996983170509338e-02
4.140493273735046387e-02
-9.885060042142868042e-02
-2.449134290218353271e-01
1.226924881339073181e-01
3.933192789554595947e-02
-8.897644281387329102e-02
-1.818794161081314087e-01
-3.229789808392524719e-02
-8.977301418781280518e-02
5.097686499357223511e-02
-3.037514910101890564e-02
-6.302034109830856323e-02
-8.883899077773094177e-03
9.117290377616882324e-03
3.753918921574950218e-03
-1.155369216576218605e-03
-1.458057314157485962e-01
-1.578227616846561432e-02
-3.378371521830558777e-02
-1.917190104722976685e-02
-9.250758588314056396e-02
3.955882415175437927e-02
6.045663729310035706e-03
-5.217895656824111938e-02
-8.475499600172042847e-02
-5.174782127141952515e-02
-9.185037016868591309e-02
1.004801392555236816e-01
-1.007552370429039001e-01
-3.135096281766891479e-02
-1.838399912230670452e-03
1.332757323980331421e-01
7.201385498046875000e-02
3.750438988208770752e-02
2.984279126394540071e-04
-1.694008149206638336e-02
-5.698937922716140747e-02
-3.038542531430721283e-02
-5.570805072784423828e-02
1.544952988624572754e-01
4.536923021078109741e-03
3.214173950254917145e-03
-1.584490090608596802e-01
8.069573342800140381e-02
-4.825037717819213867e-02
-6.332480162382125854e-02
-8.937975019216537476e-02
-1.406262367963790894e-01
7.060155272483825684e-03
2.942402102053165436e-02
3.829098492860794067e-02
3.981839865446090698e-02
-1.474294364452362061e-01
8.563873916864395142e-02
1.534883081912994385e-01
-4.301343858242034912e-02
7.695200853049755096e-03
6.788347661495208740e-02
1.614002883434295654e-02
4.872573167085647583e-02
6.976124644279479980e-02
1.210310161113739014e-01
2.288843877613544464e-02
-3.580173011869192123e-03
8.710032328963279724e-03
-9.586072526872158051e-03
-3.898947313427925110e-02
-5.122175067663192749e-02
4.732236638665199280e-02
-1.515721976757049561e-01
-1.327311545610427856e-01
1.627791374921798706e-01
1.209550723433494568e-02
3.808028623461723328e-02
-8.378706872463226318e-03
-1.188226416707038879e-01
6.008580094203352928e-04
-5.655854195356369019e-02
1.691909506916999817e-02
1.704369038343429565e-01
3.542399033904075623e-02
2.623542957007884979e-02
1.007009670138359070e-02
6.818017363548278809e-02
-5.325261875987052917e-02
6.431238725781440735e-03
-2.473779954016208649e-02
1.249799877405166626e-02
8.412574231624603271e-02
8.449677377939224243e-02
-6.356085836887359619e-02
-6.385432928800582886e-02
-8.943027933128178120e-04
6.457911431789398193e-02
5.249685794115066528e-02
1.539927572011947632e-01
5.793521553277969360e-02
1.225914992392063141e-02
-1.597677916288375854e-02
1.226547062397003174e-01
6.732298433780670166e-02
-4.272350668907165527e-02
7.432365324348211288e-03
-4.028176143765449524e-02
-1.583233848214149475e-02
-1.182202249765396118e-01
3.188814036548137665e-03
1.390786916017532349e-01
-3.391258791089057922e-02
-5.021392181515693665e-02
-1.053246781229972839e-01
6.915925443172454834e-02
-1.596966832876205444e-01
2.055747061967849731e-02
-5.086519196629524231e-02
-3.254620358347892761e-02
1.459192186594009399e-01
-5.156242102384567261e-02
-8.342275023460388184e-02
-6.646673381328582764e-02
2.323623001575469971e-02
-5.110181495547294617e-02
2.436779811978340149e-02
-4.775147512555122375e-02
-3.733107075095176697e-02
-4.392882809042930603e-02
-3.190043941140174866e-02
4.594082012772560120e-02
2.082168310880661011e-02
-2.876900136470794678e-02
-1.211581304669380188e-01
-8.696332573890686035e-02
1.446844637393951416e-01
2.726238407194614410e-02
-8.001895993947982788e-02
7.736971229314804077e-02
5.980114266276359558e-02
-2.475267052650451660e-01
-1.280677318572998047e-01
4.540428053587675095e-03
-2.896210178732872009e-02
5.992253497242927551e-02
5.111135542392730713e-02
-1.793162524700164795e-02
-7.170236110687255859e-02
-2.727859467267990112e-02
-1.228680685162544250e-01
-1.494275033473968506e-01
1.780419237911701202e-02
5.929493531584739685e-02
7.127653807401657104e-02
2.977044694125652313e-02
-1.101399883627891541e-01
1.191692724823951721e-01
7.369396090507507324e-02
-3.449259325861930847e-03
4.158340394496917725e-02
-5.382074043154716492e-02
1.507779210805892944e-02
6.195175927132368088e-03
1.941581070423126221e-01
1.534956507384777069e-02
4.801530018448829651e-02
-5.360777676105499268e-02
-8.334928192198276520e-03
-4.386276006698608398e-02
-2.739549875259399414e-01
8.817226439714431763e-02
1.403971165418624878e-01
6.390367448329925537e-02
-3.000606968998908997e-02
1.311090290546417236e-01
9.050659090280532837e-02
-1.323579717427492142e-02
-6.482555717229843140e-02
5.920639634132385254e-02
-1.448813229799270630e-01
2.474135346710681915e-02
2.504114434123039246e-02
-9.314581006765365601e-02
-4.461855068802833557e-02
-5.199330300092697144e-02
-1.640744805335998535e-01
-1.437407173216342926e-02
1.244203839451074600e-02
1.133692357689142227e-02
-7.316970825195312500e-02
-2.423377148807048798e-02
-1.247826591134071350e-01
1.188242882490158081e-01
4.362620413303375244e-02
-6.084590777754783630e-02
9.575297683477401733e-02
6.929349154233932495e-02
1.268025189638137817e-01
2.890469133853912354e-02
2.363750012591481209e-03
-8.592124097049236298e-03
-7.643629796802997589e-03
-1.478826552629470825e-01
2.180592343211174011e-02
-1.267412751913070679e-01
3.327822685241699219e-02
-1.218556798994541168e-02
2.068027295172214508e-02
-2.402662038803100586e-01
-6.708478927612304688e-02
-5.537936836481094360e-02
2.181685715913772583e-02
5.607469007372856140e-02
6.975191086530685425e-02
6.941803544759750366e-02
1.547071244567632675e-02
2.630068175494670868e-02
6.744524464011192322e-03
5.380994454026222229e-02
1.159404292702674866e-01
-8.589038252830505371e-02
9.441801905632019043e-02
6.535159796476364136e-02
8.139944821596145630e-02
-4.674122855067253113e-02
-3.856021538376808167e-02
3.141664713621139526e-02
2.755732089281082153e-02
-7.195492740720510483e-03
7.034090906381607056e-02
4.819358512759208679e-02
3.420396149158477783e-02
5.056734010577201843e-02
5.299542564898729324e-03
-4.534566029906272888e-02
-8.781218528747558594e-02
-1.896084658801555634e-02
1.747062616050243378e-02
-7.202947884798049927e-02
-7.079146057367324829e-02
-7.535445690155029297e-02
-2.025872096419334412e-02
1.162196043878793716e-02
1.432396024465560913e-01
-2.717914991080760956e-02
1.722925901412963867e-02
1.917929016053676605e-02
4.797777161002159119e-02
8.344946429133415222e-03
-3.656162321567535400e-02
7.510537281632423401e-03
1.047622412443161011e-01
-6.717094779014587402e-02
8.225258439779281616e-02
-1.659837737679481506e-02
-6.001788005232810974e-02
7.265552133321762085e-02
-3.170091286301612854e-02
-3.030041605234146118e-02
-1.403613090515136719e-01
4.272459819912910461e-02
1.574516147375106812e-01
7.756965700536966324e-03
2.481556311249732971e-02
-2.610812485218048096e-01
2.162605226039886475e-01
8.758652210235595703e-02
1.822625286877155304e-02
2.222408540546894073e-02
1.294057220220565796e-01
-6.951563991606235504e-03
-5.141857638955116272e-02
1.013264153152704239e-02
1.193225458264350891e-01
3.817708231508731842e-03
9.319591335952281952e-03
1.943559348583221436e-01
7.221084088087081909e-02
-4.079212248325347900e-02
1.254544705152511597e-01
-4.253996536135673523e-02
4.027527943253517151e-02
-1.865513622760772705e-03
1.445642709732055664e-01
-2.930990792810916901e-02
2.146957628428936005e-02
6.847357004880905151e-02
-5.242411419749259949e-02
-1.036879569292068481e-01
-5.774480476975440979e-02
-1.575339883565902710e-01
-1.711824163794517517e-02
-4.777354001998901367e-02
-2.773340046405792236e-02
8.235827833414077759e-02
-1.324481368064880371e-01
4.158361349254846573e-03
2.169500887393951416e-01
-1.866108477115631104e-01
-8.480042964220046997e-02
1.067800819873809814e-01
5.364998430013656616e-02
1.241987422108650208e-01
-1.017721593379974365e-01
-4.545729234814643860e-02
1.857638359069824219e-02
-2.124110423028469086e-02
5.447345227003097534e-02
-5.976399406790733337e-02
-4.932653158903121948e-03
3.150960803031921387e-02
1.630787253379821777e-01
2.104325890541076660e-01
1.274537593126296997e-01
-3.285694867372512817e-02
6.571316719055175781e-02
-1.201957240700721741e-01
1.366844307631254196e-02
-1.795019395649433136e-02
1.077149584889411926e-01
4.862310737371444702e-02
1.730095297098159790e-01
8.470091037452220917e-03
3.076321072876453400e-02
-1.502827703952789307e-01
1.077853329479694366e-02
4.676853120326995850e-02
-1.613911986351013184e-01
-9.923855960369110107e-02
1.981362327933311462e-02
1.960451304912567139e-01
-9.352669119834899902e-02
1.761164888739585876e-02
6.457220762968063354e-02
-1.357409544289112091e-02
3.287659585475921631e-02
5.741708725690841675e-02
-2.087175380438566208e-03
-1.160298138856887817e-01
-8.760941773653030396e-02
-1.388483196496963501e-01
8.760678768157958984e-02
-1.439212076365947723e-02
3.823615983128547668e-02
-1.803707890212535858e-02
5.839553195983171463e-03
-1.785801202058792114e-01
6.677429378032684326e-02
-8.574905246496200562e-02
-2.863505855202674866e-02
-1.007285416126251221e-01
1.514119375497102737e-02
1.815369538962841034e-02
1.224578265100717545e-02
1.880660951137542725e-01
7.977855950593948364e-02
-9.985332190990447998e-02
-1.508812326937913895e-02
-1.349909603595733643e-01
4.274533316493034363e-02
4.590465687215328217e-03
6.991571187973022461e-02
-1.754349656403064728e-02
-6.414118409156799316e-02
2.065837383270263672e-02
-3.401819244027137756e-02
2.465324848890304565e-02
8.582559227943420410e-02
6.675241049379110336e-03
-3.349668160080909729e-02
4.006295651197433472e-02
2.746787853538990021e-02
-1.765016615390777588e-01
4.880295693874359131e-02
2.683394588530063629e-02
3.135073184967041016e-02
-4.830921441316604614e-02
3.653062507510185242e-02
-1.183520630002021790e-01
1.251736935228109360e-02
-1.937478408217430115e-02
-2.928274497389793396e-02
1.977670378983020782e-02
4.786995425820350647e-02
-1.217203214764595032e-02
-1.101663038134574890e-01
-2.066328190267086029e-02
-1.293421834707260132e-01
5.868611484766006470e-02
-8.363849669694900513e-02
5.234237015247344971e-02
-1.432435028254985809e-02
1.834529191255569458e-01
4.512687772512435913e-02
-6.738094985485076904e-02
2.399667166173458099e-02
-1.978226453065872192e-01
1.518353726714849472e-02
-5.330535024404525757e-02
1.350848525762557983e-01
-6.098458170890808105e-02
7.937195152044296265e-02
6.284007430076599121e-02
4.690532386302947998e-02
7.479140162467956543e-02
-3.714019432663917542e-02
-4.880914092063903809e-02
-2.297901362180709839e-01
-3.519865497946739197e-02
-1.767258532345294952e-02
5.742099508643150330e-02
1.255480498075485229e-01
6.754092127084732056e-02
-3.459699079394340515e-02
-7.724654395133256912e-03
4.140952602028846741e-02
1.217599399387836456e-02
-3.648375347256660461e-02
-7.846181839704513550e-02
5.563864856958389282e-02
7.920312881469726562e-02
-3.534976765513420105e-02
4.537400230765342712e-02
3.879350051283836365e-02
6.204606592655181885e-02
2.047733068466186523e-01
-1.321900486946105957e-01
2.342895790934562683e-02
1.368598826229572296e-02
1.041247881948947906e-02
8.399528264999389648e-02
-7.896243594586849213e-03
-1.379663776606321335e-02
-8.897637575864791870e-02
5.948965623974800110e-02
-1.900595496408641338e-03
5.080723017454147339e-02
6.642170250415802002e-02
5.318338423967361450e-02
-2.183015830814838409e-02
1.879303343594074249e-02
6.152936071157455444e-02
2.415445446968078613e-02
-2.963377162814140320e-02
-1.926280856132507324e-01
6.610596925020217896e-02
7.276787608861923218e-02
-1.103384420275688171e-01
3.503734245896339417e-02
-8.120065927505493164e-02
-1.505106538534164429e-01
-6.771820783615112305e-02
-9.477216750383377075e-02
-5.754218250513076782e-02
2.260913606733083725e-03
-6.683254987001419067e-02
1.082736346870660782e-02
-4.799188673496246338e-02
7.656592130661010742e-02
-4.966497886925935745e-03
3.079892881214618683e-02
-1.025190763175487518e-02
1.461372803896665573e-02
-5.900163203477859497e-02
-5.598405376076698303e-02
6.188786029815673828e-02
6.718543171882629395e-02
-9.941186010837554932e-02
-1.161224171519279480e-01
1.934338063001632690e-01
-1.577376201748847961e-02
7.301240414381027222e-02
2.368024922907352448e-02
-3.096370212733745575e-02
4.401672258973121643e-02
7.814287394285202026e-02
1.934458166360855103e-01
3.582627326250076294e-02
3.802016377449035645e-03
-9.745278209447860718e-02
-3.438246622681617737e-02
-8.255556970834732056e-02
-8.144885650835931301e-04
1.061096116900444031e-01
8.790883421897888184e-02
-7.116237282752990723e-02
1.803621125873178244e-04
1.010053232312202454e-02
-5.475401505827903748e-02
-1.451125275343656540e-02
-1.024638637900352478e-01
1.390442550182342529e-01
1.073104739189147949e-01
6.672538071870803833e-02
-1.983167231082916260e-01
1.784167811274528503e-02
2.624152302742004395e-01
-1.389351964462548494e-04
4.371022805571556091e-02
7.008150964975357056e-02
-8.692019036971032619e-05
-3.804680332541465759e-02
-3.135752305388450623e-02
4.727648943662643433e-02
-3.419314324855804443e-02
-9.489204734563827515e-03
-1.293908152729272842e-02
-1.217324868775904179e-03
2.711937949061393738e-02
2.337776497006416321e-02
-5.262495577335357666e-02
4.692836850881576538e-02
-1.557276025414466858e-02
7.007867097854614258e-02
-8.039358258247375488e-02
1.896723918616771698e-02
4.556339234113693237e-02
2.057471498847007751e-02
-1.398732978850603104e-02
1.003819704055786133e-01
1.114566102623939514e-01
3.581824898719787598e-01
-4.955461993813514709e-02
-1.526849996298551559e-02
-1.081693023443222046e-01
-1.580195967108011246e-04
-5.569466203451156616e-02
6.540295481681823730e-02
1.144735068082809448e-01
-2.498922869563102722e-02
-6.064144428819417953e-03
-2.300062682479619980e-03
-6.171790137887001038e-02
2.008650898933410645e-01
-6.207372248172760010e-02
5.042015016078948975e-02
5.117283388972282410e-02
9.664551168680191040e-02
-2.443278208374977112e-02
8.254402130842208862e-02
-2.499355562031269073e-02
7.784313708543777466e-02
-9.033846668899059296e-03
-1.427238583564758301e-01
7.360829040408134460e-03
-2.380326017737388611e-02
2.551457285881042480e-02
9.298178553581237793e-02
-5.117266252636909485e-02
1.165027031674981117e-03
-8.144943416118621826e-02
6.133120041340589523e-03
5.777729302644729614e-02
1.606811285018920898e-01
-8.721190504729747772e-03
6.856976449489593506e-02
2.633718959987163544e-02
-6.225585192441940308e-02
4.574535042047500610e-02
1.350591629743576050e-01
5.071894079446792603e-02
-6.939626485109329224e-02
8.941062539815902710e-02
3.940328955650329590e-02
1.040511429309844971e-01
4.498045146465301514e-02
3.537322580814361572e-02
9.309959411621093750e-02
-1.175967156887054443e-01
1.561535447835922241e-01
-4.219774156808853149e-02
2.003658376634120941e-02
2.914775907993316650e-02
-6.439014524221420288e-02
-1.544043514877557755e-02
-5.623139813542366028e-02
2.331708092242479324e-03
-1.300645768642425537e-01
-1.243960708379745483e-01
3.524988517165184021e-02
-3.814525902271270752e-02
-1.598671376705169678e-01
4.463146440684795380e-03
5.147125339135527611e-04
-4.282651096582412720e-02
-1.075916271656751633e-02
6.960403174161911011e-02
-4.789341613650321960e-02
-5.047231167554855347e-02
6.509749591350555420e-02
-2.326186932623386383e-02
-6.295650452375411987e-02
1.215621381998062134e-01
-6.891109980642795563e-03
6.178668513894081116e-02
-2.032363554462790489e-03
5.930154398083686829e-02
2.224749326705932617e-01
-7.500233501195907593e-02
-1.340015679597854614e-01
1.100929006934165955e-01
-6.356541998684406281e-03
3.581678960472345352e-03
8.872766047716140747e-02
4.298560693860054016e-02
6.321910768747329712e-02
1.279896590858697891e-02
4.188807215541601181e-03
3.315214812755584717e-02
4.188772290945053101e-02
5.655021220445632935e-02
-1.012829020619392395e-01
-3.965480625629425049e-02
-5.233121570199728012e-03
-2.751674354076385498e-01
4.112733528017997742e-02
-1.594515284523367882e-03
-6.305979192256927490e-02
-5.018452182412147522e-03
3.016381524503231049e-02
-1.949675008654594421e-02
-7.515708357095718384e-02
-1.495853066444396973e-01
4.656001459807157516e-03
1.511504501104354858e-01
-7.459985464811325073e-02
-1.056514121592044830e-02
-5.944527685642242432e-02
2.562178112566471100e-02
5.537967756390571594e-02
2.540928497910499573e-02
-1.272078156471252441e-01
-2.346062660217285156e-02
1.961342245340347290e-02
-9.566812217235565186e-02
1.121780648827552795e-01
-1.721613258123397827e-01
9.035082161426544189e-02
5.376047268509864807e-02
1.510887872427701950e-02
-1.223716232925653458e-02
-7.685013115406036377e-02
-3.436853736639022827e-02
-5.559343844652175903e-02
1.149229891598224640e-02
-5.565656349062919617e-02
4.148880764842033386e-02
5.087350681424140930e-02
-1.536036580801010132e-01
-1.173640266060829163e-01
8.962172083556652069e-03
1.005592569708824158e-02
-6.982625927776098251e-03
-6.356551498174667358e-02
9.675482288002967834e-03
-7.824753224849700928e-02
-8.375079929828643799e-02
3.968562558293342590e-02
-9.015579707920551300e-03
-6.222609803080558777e-02
-4.239151254296302795e-02
-5.944992229342460632e-02
4.112928733229637146e-02
5.166661366820335388e-02
1.173514872789382935e-02
1.292639821767807007e-01
3.189858794212341309e-02
-5.344687961041927338e-03
3.989929705858230591e-02
6.049193814396858215e-02
3.465772792696952820e-02
1.375773102045059204e-01
-1.042674481868743896e-02
1.633503846824169159e-02
1.185598894953727722e-01
1.749688684940338135e-01
-8.084119111299514771e-02
-4.136723652482032776e-02
-9.805059432983398438e-02
-3.115665353834629059e-02
-4.411311075091362000e-02
-4.885704070329666138e-02
-1.116910800337791443e-01
9.143911302089691162e-02
2.433511195704340935e-03
-1.102061849087476730e-02
9.185706079006195068e-02
1.810812652111053467e-01
-5.078125745058059692e-02
-4.942249134182929993e-02
1.553422026336193085e-02
-3.486261889338493347e-02
-4.368780925869941711e-02
-8.630283921957015991e-02
-6.942424923181533813e-02
-1.067028045654296875e-01
-1.120346412062644958e-01
-1.225210502743721008e-01
-9.151733666658401489e-02
2.445835620164871216e-02
1.362408697605133057e-01
-3.725845739245414734e-02
8.791870623826980591e-02
3.521295264363288879e-02
2.729388326406478882e-02
-3.010498732328414917e-02
-1.109434477984905243e-02
3.707329928874969482e-02
1.118938773870468140e-01
6.370414793491363525e-02
5.227270722389221191e-02
9.270348399877548218e-02
-8.323716372251510620e-02
2.722499333322048187e-02
-6.036363169550895691e-02
-1.624133996665477753e-02
-5.664728954434394836e-02
-1.435209717601537704e-02
-4.572355002164840698e-02
-1.057711243629455566e-01
-1.032517626881599426e-01
-1.286850422620773315e-01
-4.543449357151985168e-02
3.511665761470794678e-02
5.620343610644340515e-02
6.382007151842117310e-02
-6.017797440290451050e-02
-1.120825856924057007e-01
-9.518955647945404053e-02
4.729563370347023010e-03
4.331435542553663254e-03
7.715779542922973633e-02
4.232120141386985779e-02
-5.692926049232482910e-02
2.987610548734664917e-02
1.244797185063362122e-02
4.348892346024513245e-02
9.863836690783500671e-03
7.430808991193771362e-02
-1.445092856884002686e-01
-2.993985451757907867e-02
1.569501869380474091e-02
1.596579998731613159e-01
-3.336970508098602295e-02
-6.719650328159332275e-02
-2.577773667871952057e-02
2.259002998471260071e-02
-3.826846182346343994e-02
5.425407737493515015e-02
-3.005240112543106079e-02
-7.850763946771621704e-02
-5.897874943912029266e-03
-3.090419992804527283e-02
1.395731568336486816e-01
6.848956458270549774e-03
-6.346373260021209717e-02
-1.020845323801040649e-01
-2.462174184620380402e-02
7.857508957386016846e-02
-4.864144697785377502e-02
-3.691295906901359558e-02
1.147158592939376831e-01
-1.170244738459587097e-01
-3.067146986722946167e-02
7.195843011140823364e-02
-1.420234143733978271e-01
-3.768975660204887390e-02
-1.039578206837177277e-02
1.939002238214015961e-02
6.877110898494720459e-02
9.179984219372272491e-03
1.464859992265701294e-01
-1.284762006253004074e-02
4.916895925998687744e-02
-3.996833413839340210e-02
-6.605970114469528198e-02
-5.710361152887344360e-02
-1.382618993520736694e-01
4.498347267508506775e-02
-3.625144064426422119e-02
-1.584774404764175415e-01
-5.455752089619636536e-02
-4.802348837256431580e-02
1.438379287719726562e-01
-8.537402749061584473e-02
-1.094703227281570435e-01
-1.631411463022232056e-01
-1.345430761575698853e-01
-2.991237305104732513e-02
-1.763478368520736694e-01
-5.546330288052558899e-02
-3.660941869020462036e-02
-1.381130814552307129e-01
4.038177430629730225e-03
8.585349470376968384e-02
-9.653222560882568359e-02
-1.260104216635227203e-02
-7.715047150850296021e-02
-1.176361590623855591e-01
1.098909750580787659e-01
-6.163058429956436157e-02
7.449105381965637207e-02
6.283082813024520874e-02
-6.942403316497802734e-02
6.792784482240676880e-02
-1.719832047820091248e-02
8.298483490943908691e-02
3.478966420516371727e-03
-2.083639055490493774e-02
-7.792244851589202881e-02
5.411577597260475159e-02
2.080286294221878052e-02
-8.622162789106369019e-02
4.864869173616170883e-03
-8.584640175104141235e-02
1.703067682683467865e-02
-1.679114699363708496e-01
-1.591183394193649292e-01
-4.865463450551033020e-02
3.433481033425778151e-04
-4.198066517710685730e-02
-1.378720393404364586e-03
1.582072465680539608e-03
-1.030776351690292358e-01
-8.171124756336212158e-02
3.193445876240730286e-02
9.633844718337059021e-03
-1.118894442915916443e-01
3.456253930926322937e-02
-2.964607998728752136e-02
-4.522909596562385559e-02
1.891031675040721893e-02
-1.618843339383602142e-02
1.816983819007873535e-01
-1.776685267686843872e-01
6.800762563943862915e-02
1.313645225309301168e-05
-1.066293045878410339e-01
-1.494560390710830688e-01
4.749772697687149048e-02
6.239540502429008484e-02
-1.135199368000030518e-01
-1.494977972470223904e-03
-6.333573907613754272e-02
-5.152246728539466858e-02
-7.496722787618637085e-02
-5.380082130432128906e-02
-6.702640093863010406e-03
7.291727513074874878e-02
-9.186730720102787018e-03
-1.906214654445648193e-01
-7.192169874906539917e-02
1.452006120234727859e-02
-1.180368214845657349e-01
3.610828891396522522e-02
-4.512691497802734375e-02
-1.502903830260038376e-02
-4.768352210521697998e-02
1.564421951770782471e-01
-1.441002637147903442e-01
-1.303260624408721924e-01
-9.532926231622695923e-02
-7.986875623464584351e-02
-2.227608487010002136e-02
-1.906939782202243805e-02
-3.709834814071655273e-02
-3.457260131835937500e-02
1.362039446830749512e-01
3.272059932351112366e-02
4.105724859982728958e-03
2.846389636397361755e-02
-3.794452920556068420e-02
-1.296875905245542526e-02
1.190021634101867676e-01
1.044871937483549118e-02
-5.983621254563331604e-02
-1.003388594835996628e-02
-1.038430705666542053e-01
-1.827342249453067780e-02
-3.463583998382091522e-03
-1.572063714265823364e-01
-1.537166833877563477e-01
-2.943184971809387207e-02
-7.796962279826402664e-03
4.431423172354698181e-02
2.762501686811447144e-02
-2.397381961345672607e-01
4.295618087053298950e-02
6.947605311870574951e-02
-4.243668541312217712e-02
5.870132148265838623e-02
1.320339143276214600e-01
-1.973788812756538391e-02
1.651099533773958683e-03
2.814353443682193756e-03
7.426522206515073776e-03
-1.573208719491958618e-01
-1.593726500868797302e-02
-1.028480753302574158e-02
-1.252913475036621094e-01
-1.330361962318420410e-01
-1.215903759002685547e-01
5.464718490839004517e-02
-4.968041926622390747e-02
2.232112735509872437e-01
-6.804469227790832520e-02
-1.050183326005935669e-01
1.116863861680030823e-01
-3.663509711623191833e-02
-3.111689351499080658e-02
-9.346529096364974976e-02
2.267331816256046295e-02
2.517694793641567230e-02
1.349223852157592773e-01
9.139246493577957153e-02
1.013030949980020523e-02
4.936590045690536499e-02
1.940427720546722412e-01
9.211848676204681396e-02
-7.101448718458414078e-03
1.143782772123813629e-02
1.721190102398395538e-02
-1.258795410394668579e-01
1.318768318742513657e-02
-3.534167632460594177e-02
3.211984038352966309e-02
9.810508042573928833e-02
-1.298808120191097260e-02
3.289846703410148621e-02
-1.661215126514434814e-01
1.421031542122364044e-02
5.052006803452968597e-03
-4.872550442814826965e-02
5.321304872632026672e-02
-3.811559174209833145e-03
-8.460347354412078857e-02
-5.494428798556327820e-03
-1.077358201146125793e-01
-2.186463028192520142e-01
6.797580420970916748e-02
1.732126437127590179e-02
-1.370661705732345581e-01
1.427380293607711792e-01
7.429942488670349121e-02
1.909848898649215698e-01
6.781616061925888062e-02
-1.144807413220405579e-01
8.092395961284637451e-02
-3.338000550866127014e-02
1.791778802871704102e-01
-1.624180562794208527e-02
-8.987258374691009521e-02
5.136428773403167725e-02
-4.407868906855583191e-02
-1.121707633137702942e-01
1.189418788999319077e-02
-1.342416554689407349e-01
-3.712327405810356140e-02
-3.554490103852003813e-04
-8.586105704307556152e-02
-6.797435134649276733e-02
-1.066505387425422668e-01
-9.339300915598869324e-03
-1.554310768842697144e-01
1.225599553436040878e-02
-1.110435053706169128e-01
2.395121380686759949e-03
-5.684909224510192871e-02
-6.520217657089233398e-02
-3.572755679488182068e-02
1.105792596936225891e-01
-4.656557738780975342e-02
6.479696929454803467e-02
-8.065796643495559692e-02
-9.860369376838207245e-03
5.451372824609279633e-03
-1.881336718797683716e-01
-1.303286571055650711e-02
1.172259375452995300e-01
4.896125942468643188e-02
-1.981972530484199524e-02
-1.450095772743225098e-01
-2.195228487253189087e-01
1.973073370754718781e-02
1.331633776426315308e-01
-6.999410688877105713e-03
-1.141863837838172913e-01
1.168457977473735809e-02
-8.745627477765083313e-03
8.550001308321952820e-03
-2.908182214014232159e-04
1.025865301489830017e-01
7.834351062774658203e-02
-7.279954105615615845e-02
4.458997864276170731e-04
1.724145747721195221e-02
-8.874867856502532959e-02
-1.184460967779159546e-01
9.342670440673828125e-02
-1.457725744694471359e-02
-1.116193085908889771e-01
-6.092326715588569641e-02
-5.586282163858413696e-02
7.661806046962738037e-02
4.614527523517608643e-02
8.399949222803115845e-02
3.684977442026138306e-02
-1.992803364992141724e-01
2.252862304449081421e-01
-5.705317016690969467e-03
-1.051158457994461060e-01
2.715203911066055298e-02
-5.675407871603965759e-02
1.826821081340312958e-02
-5.627001076936721802e-02
8.348001539707183838e-02
-1.157071143388748169e-01
-2.446623891592025757e-02
7.709340751171112061e-02
-1.193246245384216309e-01
-2.654852159321308136e-02
-8.750889450311660767e-02
7.644065469503402710e-02
-1.563748717308044434e-02
9.919349104166030884e-02
1.985256373882293701e-02
3.387187048792839050e-02
-7.950489223003387451e-02
8.886963874101638794e-02
2.085821703076362610e-02
-3.719497239217162132e-03
3.084211796522140503e-02
-2.843645215034484863e-01
-6.152268126606941223e-02
-6.140810251235961914e-02
1.171024236828088760e-02
-1.936847716569900513e-01
-7.679042220115661621e-02
-6.086136773228645325e-02
-8.500629104673862457e-03
4.618564993143081665e-02
-5.898247007280588150e-03
6.178816035389900208e-02
3.854209184646606445e-02
1.067786440253257751e-01
-5.547112226486206055e-02
7.055430114269256592e-02
-5.364208295941352844e-02
1.216476969420909882e-02
-5.400696396827697754e-02
7.363537698984146118e-02
-1.551873534917831421e-01
1.091261431574821472e-01
-4.596430808305740356e-02
-6.068774964660406113e-03
8.013155311346054077e-02
-3.673864156007766724e-02
8.247841894626617432e-02
-1.272750645875930786e-01
-1.457427591085433960e-01
3.960767015814781189e-02
5.202791187912225723e-03
-6.584800779819488525e-02
-6.606477499008178711e-02
-5.399477481842041016e-02
-1.846897006034851074e-01
-3.560883924365043640e-04
-3.714410588145256042e-02
-1.008828803896903992e-01
1.031534820795059204e-01
-2.901974879205226898e-02
-1.171833835542201996e-03
-1.833437681198120117e-01
4.576199874281883240e-02
1.118080765008926392e-01
2.222993597388267517e-02
-6.572138518095016479e-02
-7.035728543996810913e-02
-6.526059657335281372e-02
-2.007946558296680450e-02
-2.678825147449970245e-02
-7.865127176046371460e-02
-8.121379464864730835e-02
-1.595750451087951660e-03
5.950661376118659973e-02
-3.195057436823844910e-02
-5.069015547633171082e-02
-5.553957819938659668e-02
8.060927502810955048e-03
-9.174680709838867188e-02
-5.177553370594978333e-02
-3.707821294665336609e-02
-3.805122524499893188e-02
-1.773266941308975220e-01
3.632282838225364685e-02
7.400551438331604004e-02
7.410676777362823486e-02
2.139290422201156616e-02
-3.740717470645904541e-01
-3.800245001912117004e-02
1.148807331919670105e-01
6.520821899175643921e-02
-5.252565070986747742e-02
2.146966010332107544e-02
-7.609325647354125977e-02
-1.332520786672830582e-02
1.713715344667434692e-01
-3.217020630836486816e-02
8.685225993394851685e-02
-5.477952584624290466e-02
8.165356516838073730e-02
4.654774442315101624e-02
-6.993745267391204834e-02
1.315060257911682129e-02
1.969662867486476898e-02
-6.216921657323837280e-02
1.278738118708133698e-02
1.423328835517168045e-02
-5.593280307948589325e-03
6.420425325632095337e-02
-4.567482043057680130e-03
6.587885320186614990e-02
-1.989411935210227966e-02
5.385879799723625183e-02
2.895271964371204376e-02
-9.079111367464065552e-02
-7.844182848930358887e-02
-4.441029205918312073e-02
-1.670888438820838928e-02
1.664113439619541168e-02
7.877600193023681641e-02
9.029124863445758820e-03
5.957938358187675476e-02
1.080811116844415665e-02
-1.950892955064773560e-01
-1.434352546930313110e-01
-2.030125707387924194e-01
8.136509917676448822e-03
4.609617963433265686e-02
-7.188447564840316772e-02
5.104219168424606323e-02
3.669856814667582512e-03
-6.605613231658935547e-02
-3.349768370389938354e-02
-1.065227985382080078e-01
-1.095060631632804871e-01
-2.286037616431713104e-02
6.057373061776161194e-02
-3.972803801298141479e-02
-5.127745494246482849e-02
-2.734838053584098816e-02
5.539400503039360046e-02
3.707705438137054443e-02
-2.916978113353252411e-02
-8.776434697210788727e-03
5.439369380474090576e-02
2.174304276704788208e-01
-1.027830764651298523e-01
-6.445920467376708984e-02
-1.189695019274950027e-02
4.756985604763031006e-01
3.721825405955314636e-02
1.364928018301725388e-02
2.506390400230884552e-02
-1.594459265470504761e-01
-2.813824079930782318e-02
-1.104737445712089539e-01
1.117856055498123169e-01
-2.425936050713062286e-02
2.874400466680526733e-02
-5.549282953143119812e-02
1.089944224804639816e-02
-1.374673377722501755e-02
-1.134005188941955566e-01
-2.225055592134594917e-03
-1.336938887834548950e-01
9.189274162054061890e-02
-8.296522311866283417e-03
4.588047415018081665e-02
4.650665819644927979e-02
5.002828687429428101e-02
-5.219873785972595215e-02
-2.574680745601654053e-02
-1.735934317111968994e-01
2.866882644593715668e-02
-1.412028968334197998e-01
5.491206049919128418e-02
-4.987590014934539795e-02
9.857787191867828369e-02
-4.744697827845811844e-03
-7.846332341432571411e-02
-1.413215547800064087e-01
-3.772862255573272705e-02
-2.712680492550134659e-03
7.308787107467651367e-02
-1.494019664824008942e-02
-7.610930502414703369e-02
5.791376903653144836e-02
-1.469230055809020996e-01
-9.610737860202789307e-02
-6.599132902920246124e-03
3.917799144983291626e-02
1.159802675247192383e-01
-3.474047873169183731e-03
2.835609763860702515e-02
-5.259194597601890564e-02
-9.765634685754776001e-02
1.437166035175323486e-01
-1.715179719030857086e-02
-1.662438660860061646e-01
5.945194978266954422e-03
-2.909109182655811310e-02
9.983178973197937012e-02
-6.419388228096067905e-04
7.755531370639801025e-02
-1.939840987324714661e-02
6.516902893781661987e-02
1.006171181797981262e-01
-3.563632071018218994e-02
5.474227666854858398e-02
3.204280883073806763e-02
-2.085414249449968338e-03
4.271556157618761063e-03
8.977951854467391968e-02
-2.580634690821170807e-02
1.220447570085525513e-01
-1.643741875886917114e-01
-6.416119635105133057e-03
1.787112653255462646e-02
2.844577655196189880e-02
-1.940638273954391479e-01
1.485880464315414429e-01
-1.544222533702850342e-01
5.334358662366867065e-02
-1.202324330806732178e-01
1.443954533897340298e-04
5.651000887155532837e-02
-1.905231177806854248e-01
6.104582548141479492e-02
1.016731336712837219e-01
-1.422632485628128052e-01
2.960166521370410919e-02
9.021851420402526855e-02
1.901715621352195740e-02
1.226738095283508301e-01
-6.802826374769210815e-02
-4.718467593193054199e-02
2.922363206744194031e-02
4.674374312162399292e-02
1.198649499565362930e-02
-6.908286362886428833e-02
-9.036737680435180664e-02
5.984004586935043335e-02
6.590919941663742065e-02
-9.181782603263854980e-02
2.756408043205738068e-02
2.936691790819168091e-02
-3.288443386554718018e-02
-1.479595303535461426e-01
-1.514023244380950928e-01
-1.177037358283996582e-01
-4.071466624736785889e-02
-3.833133354783058167e-02
-2.872562408447265625e-02
-5.581774935126304626e-02
2.759067714214324951e-02
-6.927981227636337280e-02
-2.180531248450279236e-02
-3.777944296598434448e-02
7.772516459226608276e-02
1.378964073956012726e-02
1.845420524477958679e-02
1.196507457643747330e-02
2.013758011162281036e-02
5.671440437436103821e-02
8.596356958150863647e-03
5.426353774964809418e-03
-2.486886456608772278e-02
-7.672317326068878174e-02
6.844895333051681519e-02
-5.074812471866607666e-02
-1.470602005720138550e-01
-1.127108233049511909e-03
-3.815623000264167786e-02
-2.610385790467262268e-02
-7.739749550819396973e-02
5.185530707240104675e-02
5.489233136177062988e-02
-2.376693785190582275e-01
8.991470932960510254e-02
-1.851858347654342651e-01
2.859278209507465363e-02
1.072810888290405273e-01
9.700336307287216187e-02
4.064866155385971069e-02
7.361175119876861572e-02
-2.818611264228820801e-02
9.957519918680191040e-02
2.027855366468429565e-01
-4.775161296129226685e-02
-7.045321911573410034e-02
5.993406474590301514e-02
-1.168425660580396652e-02
-1.951496154069900513e-01
2.394784614443778992e-02
3.054951876401901245e-02
-4.904056712985038757e-02
-8.718793094158172607e-02
1.257469318807125092e-02
-4.431734606623649597e-02
-5.379761755466461182e-02
3.630431368947029114e-02
-9.369668364524841309e-02
-4.350208491086959839e-02
-3.512910008430480957e-02
-1.798026449978351593e-02
2.587198838591575623e-02
9.864606708288192749e-02
8.229196071624755859e-02
-2.911954559385776520e-02
1.556149777024984360e-02
-1.821744889020919800e-01
6.663957610726356506e-03
-1.188279464840888977e-01
-1.095809694379568100e-02
-5.530980974435806274e-02
-2.764828689396381378e-02
-5.800380022265017033e-04
9.598383307456970215e-02
-9.980162233114242554e-02
-8.701156079769134521e-02
4.860154166817665100e-02
-3.854436799883842468e-02
-1.252310629934072495e-02
3.249520435929298401e-02
1.391650084406137466e-02
2.430296093225479126e-01
-2.294360101222991943e-02
-4.517271369695663452e-02
5.896970629692077637e-02
-1.624496467411518097e-02
8.221113681793212891e-02
-4.413031041622161865e-02
8.796775341033935547e-02
7.360956817865371704e-02
1.349936798214912415e-02
2.365444786846637726e-02
2.940720692276954651e-02
9.051796048879623413e-02
8.550167083740234375e-03
-5.934308469295501709e-02
-6.344108283519744873e-02
1.202378123998641968e-01
-1.840234547853469849e-02
1.597213894128799438e-01
-9.624458849430084229e-02
3.713046759366989136e-02
-2.169857360422611237e-02
-7.274457812309265137e-02
8.864278346300125122e-02
-1.596846431493759155e-01
-2.135597355663776398e-02
-8.780650049448013306e-02
-2.566578984260559082e-02
-9.214022755622863770e-02
-5.298577994108200073e-02
-4.826423153281211853e-02
-4.585351049900054932e-02
4.215539619326591492e-02
5.616077687591314316e-03
6.811293959617614746e-02
1.109166815876960754e-02
1.067333146929740906e-01
-5.077368021011352539e-02
5.600091442465782166e-02
-1.227757781744003296e-01
5.948733910918235779e-02
-7.147376239299774170e-02
-1.490075290203094482e-01
-6.653693318367004395e-02
7.092929631471633911e-02
-1.451390683650970459e-01
6.000055372714996338e-02
-3.124907612800598145e-03
1.175847835838794708e-02
3.235351992771029472e-03
-9.800540655851364136e-02
4.463022574782371521e-02
-1.517533604055643082e-02
5.107274278998374939e-02
-1.328257769346237183e-01
7.755111157894134521e-02
1.194528564810752869e-01
5.530056357383728027e-02
3.230898827314376831e-02
8.511627465486526489e-02
3.159633278846740723e-02
-2.284963149577379227e-03
9.498621523380279541e-02
-1.624381244182586670e-01
-1.570266485214233398e-02
3.277394920587539673e-02
-1.263064593076705933e-01
-7.952568680047988892e-02
1.029120311141014099e-01
6.206222623586654663e-02
-4.333919286727905273e-02
-4.530112445354461670e-02
1.037131324410438538e-01
-2.800579555332660675e-02
4.130185395479202271e-02
2.502084709703922272e-02
1.804794184863567352e-02
6.893197447061538696e-02
3.084771335124969482e-02
9.111804515123367310e-02
-2.609423100948333740e-01
-6.029986962676048279e-02
6.347563862800598145e-02
-7.810354977846145630e-02
1.511258166283369064e-02
-1.558882277458906174e-02
-4.949493450112640858e-04
9.561938047409057617e-02
-2.428494766354560852e-02
-1.310639083385467529e-01
3.271471709012985229e-02
-5.542353726923465729e-03
5.242600664496421814e-02
-2.949463576078414917e-02
-1.277677342295646667e-02
-2.475951798260211945e-02
-8.622486889362335205e-02
-1.116914581507444382e-02
-2.963466383516788483e-02
1.740196645259857178e-01
-2.768532745540142059e-02
5.892858654260635376e-02
1.831272616982460022e-02
2.641607541590929031e-03
3.547753766179084778e-02
-3.435774939134716988e-03
-2.099529467523097992e-02
5.950323864817619324e-02
-2.929889969527721405e-02
-1.272283792495727539e-01
-1.315726339817047119e-01
-1.150213181972503662e-01
7.271750830113887787e-03
2.789634168148040771e-01
1.311680376529693604e-01
6.627786904573440552e-03
2.551990561187267303e-02
-1.168138533830642700e-02
-5.454144626855850220e-02
-1.872697658836841583e-02
1.318427920341491699e-01
-7.018042355775833130e-02
1.046538236550986767e-03
-8.841106295585632324e-02
-4.617647826671600342e-02
8.827278763055801392e-02
-2.877978794276714325e-02
2.615126036107540131e-02
-1.605963706970214844e-01
4.272339493036270142e-02
-7.460841536521911621e-02
-4.211080819368362427e-02
1.456464920192956924e-02
6.213918793946504593e-03
3.557747974991798401e-02
1.124156415462493896e-01
8.568297140300273895e-03
2.867783419787883759e-02
-1.944649219512939453e-02
2.362949214875698090e-02
-6.153675727546215057e-03
5.520291626453399658e-03
-7.878158986568450928e-02
-1.350632775574922562e-02
-1.670068651437759399e-01
-2.715672552585601807e-02
1.801746934652328491e-01
2.176780626177787781e-02
5.204331129789352417e-02
-7.549684494733810425e-02
9.338838607072830200e-02
-2.388066612184047699e-02
1.526360213756561279e-01
-2.007508091628551483e-02
1.250991523265838623e-01
8.699821680784225464e-02
1.032012328505516052e-02
1.374799013137817383e-01
2.743991836905479431e-02
5.451230754260905087e-05
-1.872801105491816998e-03
6.054101139307022095e-02
1.507237702608108521e-01
-6.033904850482940674e-02
2.707568556070327759e-02
-8.679186552762985229e-02
3.625497221946716309e-02
3.223003074526786804e-02
4.493048414587974548e-02
-5.358728021383285522e-02
5.073636397719383240e-02
-2.853410784155130386e-03
-4.662743210792541504e-02
2.919448912143707275e-02
8.866647630929946899e-02
5.723867937922477722e-02
9.626398980617523193e-02
8.063717931509017944e-02
1.500718854367733002e-02
-1.238215491175651550e-01
1.234798133373260498e-02
-2.259008213877677917e-02
3.559411037713289261e-03
-2.042973972856998444e-02
1.363622695207595825e-01
6.892231851816177368e-02
-1.294085532426834106e-01
-6.804981827735900879e-02
-4.248410835862159729e-02
8.636903762817382812e-02
7.029513362795114517e-03
4.736560583114624023e-02
1.002284139394760132e-02
7.910570502281188965e-02
-6.939268205314874649e-03
-6.190197542309761047e-03
2.065835446119308472e-01
-2.952445484697818756e-02
-3.456972306594252586e-03
-8.680931478738784790e-02
-1.642009615898132324e-02
3.028855472803115845e-02
4.241535067558288574e-02
9.934172779321670532e-02
6.068596616387367249e-02
4.078139737248420715e-02
9.182726591825485229e-02
-1.173067763447761536e-01
-2.233898639678955078e-01
-6.552291102707386017e-03
8.490120992064476013e-03
3.348179534077644348e-02
-5.764547735452651978e-02
-2.398223057389259338e-02
5.244121700525283813e-02
5.641063302755355835e-02
2.053156262263655663e-03
9.724646806716918945e-03
1.503565628081560135e-02
-8.568695932626724243e-02
-9.126582741737365723e-02
-1.935968399047851562e-01
-8.369145914912223816e-03
4.205412790179252625e-02
-4.824896901845932007e-02
2.358200959861278534e-02
-5.282913520932197571e-02
6.265528500080108643e-02
1.102564390748739243e-02
2.317305281758308411e-02
-2.618439868092536926e-02
1.306718587875366211e-01
-6.284330040216445923e-02
-1.157885068096220493e-03
-1.555399782955646515e-02
2.566679194569587708e-02
5.504478141665458679e-02
6.215610355138778687e-02
6.541484594345092773e-02
-7.584783434867858887e-02
-3.349844738841056824e-02
1.085593476891517639e-01
1.661177575588226318e-01
-3.016467578709125519e-02
-6.028104573488235474e-02
-5.848631635308265686e-02
9.503547102212905884e-03
1.709542237222194672e-02
5.368371307849884033e-02
6.834830343723297119e-02
-3.716968372464179993e-02
3.540644049644470215e-02
6.249183788895606995e-03
6.609160453081130981e-02
-2.760836482048034668e-02
-2.345229685306549072e-02
-7.643394917249679565e-02
6.472104787826538086e-02
1.061519328504800797e-02
-1.248124688863754272e-01
2.423985674977302551e-02
-1.816346123814582825e-02
-7.189675234258174896e-03
-5.792520940303802490e-02
-5.291311535984277725e-04
-1.300122495740652084e-02
1.746422611176967621e-02
-2.412347681820392609e-02
1.664128527045249939e-02
-4.785256087779998779e-02
-9.231474995613098145e-02
-9.828095138072967529e-02
1.314565539360046387e-01
-7.211280986666679382e-03
-8.791828155517578125e-02
-8.501052856445312500e-02
-1.777946203947067261e-02
-5.712074413895606995e-02
-2.431731205433607101e-03
5.091418325901031494e-02
3.321688622236251831e-02
-6.440735422074794769e-03
5.850391462445259094e-02
-6.994847953319549561e-02
-5.400897562503814697e-02
-6.725743412971496582e-02
-5.658704414963722229e-02
-7.348633557558059692e-02
-9.412202984094619751e-02
-2.243196777999401093e-02
3.322640806436538696e-02
-7.448312640190124512e-02
-1.335581839084625244e-01
-1.650323509238660336e-03
4.491321370005607605e-02
-3.135210648179054260e-02
2.922185231000185013e-03
-1.439331322908401489e-01
-8.278769440948963165e-03
-5.142395384609699249e-03
-7.776000350713729858e-02
-5.328324064612388611e-02
-4.735959321260452271e-02
-4.002389032393693924e-03
-4.765030369162559509e-02
1.152657121419906616e-01
-2.722601033747196198e-02
5.169015005230903625e-02
5.294333398342132568e-02
9.676500223577022552e-03
1.714387983083724976e-01
7.413784507662057877e-03
1.522989869117736816e-01
6.135974079370498657e-02
-9.384688735008239746e-02
-7.217705994844436646e-02
-5.274740047752857208e-03
4.087727516889572144e-02
2.966875024139881134e-02
2.054170668125152588e-01
3.402617573738098145e-02
-8.064693771302700043e-03
-1.063217073678970337e-01
3.968601673841476440e-02
6.110771745443344116e-02
-1.255614161491394043e-01
6.417816504836082458e-03
-8.760016411542892456e-02
-1.180965453386306763e-01
9.316390007734298706e-02
-5.423244088888168335e-02
4.564447700977325439e-02
-1.212292388081550598e-01
2.234791964292526245e-01
1.024453267455101013e-01
7.518889755010604858e-02
6.572213768959045410e-02
7.386454939842224121e-02
-2.188516221940517426e-02
8.644934743642807007e-02
1.707086712121963501e-01
-7.850699126720428467e-02
-1.083794161677360535e-01
5.570241250097751617e-03
3.285947488620877266e-03
9.189032018184661865e-02
-1.541638933122158051e-02
-5.946932360529899597e-02
6.598401814699172974e-02
1.925045438110828400e-02
3.975830972194671631e-02
-9.907430503517389297e-04
1.663325726985931396e-02
1.150048058480024338e-02
-3.078831918537616730e-02
-1.531046032905578613e-01
-4.685688763856887817e-03
3.059225389733910561e-03
-5.162777006626129150e-02
2.001552730798721313e-01
-1.647278852760791779e-02
-9.178509563207626343e-02
-7.083146274089813232e-02
-3.465452045202255249e-02
1.420373655855655670e-02
5.432476103305816650e-02
8.373954892158508301e-02
5.838938802480697632e-02
-9.646706283092498779e-02
-2.169614136219024658e-01
1.392437070608139038e-01
3.018701449036598206e-02
-6.988345086574554443e-02
-1.174168381839990616e-02
2.668591961264610291e-02
1.265595108270645142e-01
6.965856999158859253e-03
3.322289884090423584e-02
-1.660558432340621948e-01
-4.397704452276229858e-02
3.738173469901084900e-02
-3.767497465014457703e-02
1.134802997112274170e-01
-6.170830503106117249e-02
5.973436683416366577e-02
7.876804471015930176e-02
-1.289649456739425659e-01
-9.465802460908889771e-02
2.569538168609142303e-02
-2.643493190407752991e-02
-3.088014386594295502e-02
-7.727746665477752686e-02
5.476616322994232178e-02
-3.481664508581161499e-02
6.864937953650951385e-03
-6.180712953209877014e-02
8.189663290977478027e-02
5.936576053500175476e-02
1.332585066556930542e-01
-9.588890825398266315e-04
9.534306824207305908e-02
-3.479112172499299049e-03
-2.950564958155155182e-02
1.576786115765571594e-02
-1.498193945735692978e-02
-1.208912506699562073e-01
5.328674800693988800e-03
-7.230830192565917969e-02
-1.953834742307662964e-01
-1.281055063009262085e-01
-2.469919435679912567e-02
-5.055544897913932800e-02
-7.427423447370529175e-02
-1.016875505447387695e-01
8.498141914606094360e-02
1.373200304806232452e-02
-3.641933947801589966e-02
1.938521675765514374e-02
-3.928691521286964417e-02
9.203494340181350708e-02
3.334992378950119019e-02
4.312838241457939148e-02
-9.638203680515289307e-02
-4.100232198834419250e-02
2.538196370005607605e-02
-2.770966663956642151e-02
-1.806358061730861664e-02
7.857016474008560181e-02
2.976942248642444611e-02
-1.012241374701261520e-02
2.045861259102821350e-02
-3.281775489449501038e-02
6.985539104789495468e-03
-6.829099357128143311e-02
-3.095476515591144562e-02
-3.934908192604780197e-03
-2.337495610117912292e-02
1.418396234512329102e-01
9.488443844020366669e-03
-1.406867615878582001e-02
1.058667525649070740e-01
-9.006288647651672363e-02
1.544389575719833374e-01
7.356102764606475830e-02
8.296786993741989136e-02
-5.018464848399162292e-02
-1.273022964596748352e-02
5.786879360675811768e-02
-6.731522828340530396e-02
-2.557961829006671906e-02
1.642918027937412262e-02
-1.936200074851512909e-02
-1.372829973697662354e-01
1.266423165798187256e-01
-4.210723936557769775e-02
1.601405441761016846e-02
-1.745388284325599670e-02
-3.973925113677978516e-02
-9.067399427294731140e-03
-5.556474626064300537e-02
1.582870483398437500e-01
-1.016304176300764084e-02
1.786568760871887207e-02
6.883462518453598022e-02
5.747276544570922852e-01
1.334709972143173218e-01
1.245637387037277222e-01
-4.059939179569482803e-03
9.946789592504501343e-02
3.423546999692916870e-02
-1.339277327060699463e-01
-7.183030992746353149e-02
8.412023633718490601e-02
-1.521098986268043518e-02
-3.478042781352996826e-02
2.766229212284088135e-02
5.566242709755897522e-02
1.696770191192626953e-01
6.675917655229568481e-02
6.143445149064064026e-03
5.880370154045522213e-04
-2.196421101689338684e-02
7.020387420197948813e-05
6.034442037343978882e-02
1.166315302252769470e-01
6.053440645337104797e-02
6.845317035913467407e-02
-9.939402341842651367e-02
-2.615514770150184631e-02
-5.062410235404968262e-02
1.641834899783134460e-02
2.841915749013423920e-02
1.269239373505115509e-02
-8.075446635484695435e-02
-8.985055983066558838e-02
4.563017562031745911e-02
8.051773905754089355e-02
1.033739894628524780e-01
-6.112267076969146729e-02
-1.175810117274522781e-02
8.693937212228775024e-02
-1.376426033675670624e-02
-6.075573712587356567e-02
8.697747439146041870e-02
-2.854985417798161507e-03
-3.818762302398681641e-02
6.398238986730575562e-02
3.765266761183738708e-02
-3.203476592898368835e-02
-7.629203796386718750e-02
3.132399916648864746e-02
1.273663789033889771e-01
7.172008603811264038e-02
-5.868848413228988647e-02
1.107694208621978760e-01
5.319271609187126160e-02
2.809581160545349121e-01
5.528935045003890991e-02
-2.562648616731166840e-02
1.996403932571411133e-01
3.455419465899467468e-02
9.858371689915657043e-03
4.475931078195571899e-02
1.892951875925064087e-02
-2.153439261019229889e-02
1.280815154314041138e-01
2.529957564547657967e-03
8.238212019205093384e-02
1.762363314628601074e-02
1.387120932340621948e-01
-1.490166485309600830e-01
-6.666313856840133667e-02
5.715712439268827438e-03
1.071652099490165710e-01
-5.677021667361259460e-02
1.464564949274063110e-01
1.383354812860488892e-01
-9.876856207847595215e-02
8.709346503019332886e-02
4.306618496775627136e-02
-5.139872059226036072e-02
1.541053354740142822e-01
-4.573086649179458618e-02
-4.337361082434654236e-02
1.454936861991882324e-01
4.275360703468322754e-02
2.388644590973854065e-02
6.145747378468513489e-02
6.522781401872634888e-02
-4.899685829877853394e-02
-4.196866974234580994e-02
-5.579312518239021301e-02
-3.060038760304450989e-02
5.009840242564678192e-03
-4.428910836577415466e-02
-8.944696187973022461e-02
1.399817503988742828e-02
4.325162619352340698e-03
-8.844026178121566772e-02
9.315658360719680786e-03
1.372355818748474121e-01
5.056217685341835022e-02
-3.113749809563159943e-02
-2.237290842458605766e-03
-2.686835639178752899e-02
-2.084461599588394165e-02
-1.056452393531799316e-01
-8.753466606140136719e-02
7.373853586614131927e-03
-8.422720432281494141e-02
1.110213547945022583e-01
-8.178784698247909546e-02
4.086837917566299438e-02
-1.039134487509727478e-01
-7.454103231430053711e-02
-5.514210206456482410e-04
-4.564916342496871948e-02
-3.743299096822738647e-02
4.754114896059036255e-03
-2.990464866161346436e-02
-1.446271091699600220e-01
-4.106242582201957703e-02
-4.711378738284111023e-02
1.816569454967975616e-02
1.347009185701608658e-02
3.201555833220481873e-02
1.918441243469715118e-02
-5.228334292769432068e-02
-4.778139758855104446e-03
-3.506777435541152954e-02
-1.280624698847532272e-02
1.186826638877391815e-02
1.767414212226867676e-01
-1.957656349986791611e-03
9.914889186620712280e-02
1.698634773492813110e-02
-1.135092899203300476e-01
3.503423556685447693e-02
-5.065907165408134460e-02
-1.618957221508026123e-01
3.199446946382522583e-03
-7.870879769325256348e-02
-1.029882431030273438e-01
2.618903235998004675e-04
7.397629320621490479e-02
-1.488150358200073242e-01
4.392097517848014832e-02
-8.310602605342864990e-02
-4.338160902261734009e-02
2.123928628861904144e-02
1.085858121514320374e-01
-2.231816947460174561e-01
9.599273093044757843e-03
2.628731541335582733e-02
-7.302360981702804565e-02
1.728941313922405243e-02
2.646183408796787262e-02
-4.414003342390060425e-03
-8.470304310321807861e-03
-1.800527796149253845e-02
3.295568376779556274e-02
3.800414875149726868e-02
-1.423274539411067963e-02
5.478556826710700989e-02
7.998600602149963379e-02
-3.411025702953338623e-01
-1.040897890925407410e-01
3.175403457134962082e-03
2.675513178110122681e-02
-6.932991743087768555e-02
-1.091064438223838806e-01
-8.244195580482482910e-02
-1.912061683833599091e-02
5.791150778532028198e-02
-2.024186402559280396e-02
1.745757088065147400e-02
4.831846337765455246e-03
-6.729342043399810791e-02
2.762332372367382050e-02
1.784888282418251038e-02
7.864729501307010651e-03
-9.673330187797546387e-02
-9.997324086725711823e-03
-1.418307609856128693e-02
-1.738338544964790344e-02
-4.918249323964118958e-02
-1.193763539195060730e-01
-1.440513730049133301e-01
-3.069486282765865326e-02
-1.160231307148933411e-01
-7.091695815324783325e-02
-2.414098381996154785e-02
6.622520834207534790e-02
2.634370885789394379e-02
-6.235590577125549316e-02
7.141681015491485596e-02
8.336117118597030640e-02
-7.173813134431838989e-02
-2.221537530422210693e-01
1.285690069198608398e-01
-9.473586827516555786e-02
2.806500904262065887e-02
3.212087601423263550e-02
-9.208228439092636108e-03
-1.523571610450744629e-01
-8.061430417001247406e-03
-9.291709400713443756e-03
7.688993960618972778e-02
1.248373463749885559e-01
-2.604360580444335938e-01
2.307999879121780396e-02
1.163812652230262756e-01
-1.013652905821800232e-01
-1.531893853098154068e-02
2.399610588327050209e-03
-9.151055663824081421e-02
1.319763064384460449e-01
9.107108414173126221e-02
2.251335792243480682e-02
4.998037964105606079e-02
-7.925285026431083679e-03
1.554460078477859497e-01
-3.960095718502998352e-02
6.692642718553543091e-02
-4.265753924846649170e-02
-5.466467514634132385e-02
1.232693344354629517e-02
8.554794639348983765e-02
9.912244975566864014e-02
-8.059510588645935059e-02
-6.356151401996612549e-02
-3.163454681634902954e-02
-3.316827863454818726e-02
9.313537925481796265e-02
1.569211296737194061e-02
1.101314797997474670e-01
1.800655722618103027e-01
4.905294254422187805e-02
2.013309858739376068e-02
-2.551818639039993286e-02
-7.952080108225345612e-03
-7.967054843902587891e-02
1.614036560058593750e-01
-1.229805648326873779e-01
5.704201976186595857e-05
3.586997510865330696e-03
-4.887569695711135864e-02
1.221023723483085632e-01
4.454978927969932556e-02
-6.411004811525344849e-02
-7.896891236305236816e-02
-1.107645872980356216e-02
-9.684378281235694885e-03
-8.355061709880828857e-02
7.038569450378417969e-02
1.837853156030178070e-02
-2.733130007982254028e-02
-1.062922645360231400e-02
8.849324658513069153e-03
-6.700945086777210236e-03
-1.560329794883728027e-01
1.032780110836029053e-01
6.589945405721664429e-02
-9.750930964946746826e-02
-1.589920967817306519e-01
-3.024829924106597900e-02
1.101835072040557861e-01
7.216709107160568237e-02
9.427252225577831268e-03
4.206796362996101379e-02
-1.122588217258453369e-01
-9.686470031738281250e-02
7.840160280466079712e-03
-8.879504166543483734e-03
2.079444704577326775e-03
-1.145595461130142212e-01
1.871218555606901646e-03
-4.134797677397727966e-02
-6.678524613380432129e-02
-3.587376698851585388e-02
1.218670047819614410e-02
-1.020198464393615723e-01
-1.071139425039291382e-01
-1.201264038681983948e-01
-5.705298483371734619e-02
5.336479470133781433e-02
5.989645048975944519e-02
-7.386913895606994629e-02
-5.123311281204223633e-02
8.365412242710590363e-03
3.219740092754364014e-02
7.584033533930778503e-03
-1.608308404684066772e-02
2.606482617557048798e-02
9.918742626905441284e-02
-2.537970058619976044e-02
6.789055652916431427e-03
-7.613516598939895630e-02
-2.282495237886905670e-02
1.979895122349262238e-02
-8.094780147075653076e-02
-1.373828016221523285e-02
-8.551454544067382812e-02
-1.313574984669685364e-02
6.317733973264694214e-02
-5.232148990035057068e-02
4.172648489475250244e-02
-5.841628089547157288e-02
1.810873113572597504e-02
-9.294348210096359253e-02
3.776594623923301697e-02
4.443012550473213196e-02
7.544776797294616699e-02
-3.606943786144256592e-02
4.269019886851310730e-02
-1.535146776586771011e-02
-8.970549702644348145e-02
-4.536509886384010315e-02
4.648846387863159180e-02
2.399943070486187935e-03
2.071754634380340576e-02
-6.054849922657012939e-02
-1.260994225740432739e-01
4.144889861345291138e-02
1.408415883779525757e-01
6.176299415528774261e-03
2.665213495492935181e-02
-3.194326907396316528e-02
-1.526892483234405518e-01
-1.003120988607406616e-01
2.935379371047019958e-02
-1.191212981939315796e-02
1.613879799842834473e-01
4.353843163698911667e-03
5.788855627179145813e-02
-3.970675542950630188e-02
-6.363532692193984985e-02
-2.006867825984954834e-01
-2.265810407698154449e-02
-8.107428997755050659e-02
-8.525940589606761932e-03
3.683665022253990173e-02
1.094091236591339111e-01
-6.968304514884948730e-02
-1.669668033719062805e-02
-4.197802860289812088e-03
-1.025050953030586243e-01
-7.554595358669757843e-03
-7.555510848760604858e-02
6.959286984056234360e-03
-1.007835865020751953e-01
8.967562764883041382e-02
-2.579349093139171600e-02
-3.080537309870123863e-03
-1.735568493604660034e-01
9.170605987310409546e-02
-1.408241223543882370e-02
5.311130359768867493e-02
9.595409035682678223e-03
-3.456249460577964783e-02
6.773824989795684814e-02
-8.768222481012344360e-02
-1.900155097246170044e-02
-1.364146322011947632e-01
-8.875392377376556396e-02
9.442307800054550171e-02
-2.220018953084945679e-02
-2.951920963823795319e-02
-2.432445995509624481e-02
1.122983172535896301e-02
-4.941849410533905029e-02
6.981810182332992554e-02
-1.158212423324584961e-01
3.492833673954010010e-02
9.668817371129989624e-02
2.733204141259193420e-02
1.939289569854736328e-01
2.734505571424961090e-02
-4.033678397536277771e-02
1.855412498116493225e-02
6.288790702819824219e-02
4.519513994455337524e-02
-8.085846155881881714e-02
5.521985236555337906e-03
-3.532086685299873352e-02
4.603106901049613953e-02
4.405603557825088501e-02
-1.814849860966205597e-02
-4.696374535560607910e-01
1.830677986145019531e-01
4.790463484823703766e-03
1.424374897032976151e-02
-6.090067699551582336e-02
-7.426472753286361694e-02
-9.456370770931243896e-02
2.025544047355651855e-01
1.061008311808109283e-02
2.971546538174152374e-02
6.885851919651031494e-02
-1.170719321817159653e-02
-2.575131133198738098e-02
2.716347202658653259e-02
-1.084613427519798279e-01
5.076265707612037659e-02
1.189034879207611084e-01
1.063652485609054565e-01
1.447067316621541977e-02
-1.331954002380371094e-01
-1.350470259785652161e-02
1.154656484723091125e-01
4.327057301998138428e-02
-1.185392290353775024e-01
-6.937669217586517334e-02
2.761141024529933929e-02
-1.833076030015945435e-02
1.454125493764877319e-01
-2.906321734189987183e-02
-7.852634787559509277e-02
-1.179713159799575806e-01
2.540765143930912018e-02
-7.999899983406066895e-02
-1.315232664346694946e-01
3.060568682849407196e-02
-1.519037634134292603e-01
3.842835873365402222e-02
1.204343233257532120e-02
1.906027942895889282e-01
1.601328141987323761e-02
2.078554127365350723e-03
7.595875114202499390e-02
4.564113169908523560e-02
-3.698567673563957214e-02
-1.055304110050201416e-01
2.235867269337177277e-02
-3.241803869605064392e-02
8.689629286527633667e-02
-8.498404175043106079e-02
3.425661101937294006e-02
-1.598835736513137817e-01
-3.658909723162651062e-02
9.933881461620330811e-02
3.809215128421783447e-02
-4.488861188292503357e-02
1.584053188562393188e-01
1.225031912326812744e-01
-4.208698496222496033e-02
-6.604220718145370483e-02
-1.380932144820690155e-02
8.069447427988052368e-02
8.531992323696613312e-03
-2.601550146937370300e-02
7.400548458099365234e-02
-1.175042092800140381e-01
-7.650816440582275391e-02
1.043628901243209839e-02
9.755419567227363586e-03
3.839395195245742798e-02
3.633510693907737732e-02
-1.601934432983398438e-01
-1.172199696302413940e-01
-1.691784262657165527e-01
-5.697085708379745483e-02
-1.986171007156372070e-01
7.963423617184162140e-03
6.044356152415275574e-03
-1.220986396074295044e-01
4.216406866908073425e-02
-1.770111471414566040e-01
-4.363497719168663025e-02
2.941242419183254242e-02
-2.798365894705057144e-03
8.459273725748062134e-02
-1.046521216630935669e-01
-1.045273393392562866e-01
-1.043727025389671326e-01
-6.048068404197692871e-02
6.618628650903701782e-02
-6.588982045650482178e-02
1.111822575330734253e-01
-5.446226894855499268e-02
3.695039777085185051e-03
-5.222573131322860718e-02
9.555801749229431152e-02
-5.324418470263481140e-02
-4.524299874901771545e-02
-2.366699650883674622e-02
-1.512637585401535034e-01
-5.850913375616073608e-02
-1.069240421056747437e-01
-2.099582925438880920e-02
-8.854130655527114868e-02
9.457679837942123413e-02
-1.714540570974349976e-01
-3.265944495797157288e-02
-7.045070081949234009e-02
-1.373119950294494629e-01
-2.774045616388320923e-02
-6.090097129344940186e-02
-3.813856467604637146e-02
-4.312820360064506531e-02
-1.264659464359283447e-01
2.523271832615137100e-03
1.695829257369041443e-02
5.544097721576690674e-02
-3.645274788141250610e-02
2.530377916991710663e-02
-2.737822942435741425e-02
3.091892600059509277e-02
-6.095737591385841370e-02
-5.360944196581840515e-02
-9.024287573993206024e-03
1.662744954228401184e-02
-2.694355323910713196e-02
-3.359115496277809143e-02
1.709286272525787354e-01
-9.164426475763320923e-02
1.442207545042037964e-01
6.200389936566352844e-02
-1.032166853547096252e-01
2.028820104897022247e-02
-1.818044632673263550e-01
1.452723634429275990e-03
-1.016792953014373779e-01
-7.494588196277618408e-02
7.639875262975692749e-02
-2.725315280258655548e-02
8.376045525074005127e-02
6.683487445116043091e-02
5.053110048174858093e-02
1.061168611049652100e-01
-3.354509174823760986e-02
2.229898981750011444e-02
-1.402104943990707397e-01
-5.359369143843650818e-02
-9.343786537647247314e-02
-3.413996994495391846e-01
2.320066653192043304e-02
4.277665913105010986e-02
-1.143178045749664307e-01
-7.881088554859161377e-02
-4.557183012366294861e-02
8.078711107373237610e-03
1.045733317732810974e-01
3.281636163592338562e-02
-3.824759274721145630e-02
6.864833086729049683e-02
-6.226350739598274231e-02
-1.382800750434398651e-02
-2.184527367353439331e-02
-4.594521224498748779e-01
-1.343632210046052933e-02
4.267490282654762268e-02
5.630098748952150345e-04
1.620247215032577515e-01
5.523942876607179642e-03
2.192276902496814728e-02
6.465212255716323853e-02
-7.732203602790832520e-02
1.188510060310363770e-01
4.050280433148145676e-03
-5.882107838988304138e-02
8.949203416705131531e-03
-9.176012873649597168e-02
4.432545974850654602e-02
-1.517916023731231689e-01
-2.161360979080200195e-01
-1.146717071533203125e-01
-4.121767356991767883e-02
3.638807684183120728e-02
-1.131369266659021378e-02
-1.212421730160713196e-01
-5.672072619199752808e-02
-3.691557794809341431e-02
-3.358386922627687454e-03
-7.631370425224304199e-02
8.993069082498550415e-02
-1.872434653341770172e-02
-7.370667159557342529e-02
-1.148292496800422668e-01
6.720039248466491699e-02
1.427403930574655533e-02
-7.344757020473480225e-02
-1.963997632265090942e-01
1.177047844976186752e-02
-7.875595986843109131e-02
-2.990295737981796265e-02
1.598528213798999786e-02
3.256119089201092720e-03
-1.863653510808944702e-01
-2.850304171442985535e-02
3.705585841089487076e-03
-8.522074669599533081e-02
5.697121098637580872e-02
-2.883392572402954102e-01
-1.819245815277099609e-01
-3.954318165779113770e-02
5.663024261593818665e-02
1.270537078380584717e-01
2.716689184308052063e-02
4.271815344691276550e-02
-9.475292265415191650e-02
-1.136779934167861938e-01
1.821110025048255920e-02
5.125420633703470230e-03
-9.237828105688095093e-02
-4.243568331003189087e-02
4.979578033089637756e-02
-2.729976177215576172e-01
-4.237609729170799255e-02
-5.400693044066429138e-02
2.538518309593200684e-01
4.773233085870742798e-02
-8.985739946365356445e-02
9.374062716960906982e-02
-1.607245653867721558e-01
8.891253382898867130e-04
-1.929855495691299438e-01
5.145701393485069275e-02
-9.658866375684738159e-02
-7.497435808181762695e-02
-1.697637885808944702e-01
-1.511364877223968506e-01
-4.480148106813430786e-02
-6.163736432790756226e-02
2.362187765538692474e-02
2.734040096402168274e-02
7.754359394311904907e-02
1.765574514865875244e-02
-8.414605632424354553e-03
-1.455955300480127335e-02
9.842324256896972656e-02
-4.866691306233406067e-02
-2.205986082553863525e-01
5.864218994975090027e-02
9.221419692039489746e-03
-6.625073403120040894e-02
9.340287069790065289e-04
6.288935989141464233e-02
3.128547919914126396e-03
-2.535173855721950531e-02
8.598937094211578369e-02
8.537710458040237427e-02
-3.087366372346878052e-02
7.487060874700546265e-02
1.708953529596328735e-01
-1.475592702627182007e-01
-8.011553436517715454e-03
-1.973601430654525757e-02
1.412562560290098190e-02
-7.289393991231918335e-02
7.085182704031467438e-03
-1.210755929350852966e-01
-2.339974511414766312e-03
1.606079377233982086e-02
1.979317069053649902e-01
6.674741953611373901e-02
-3.345015645027160645e-02
7.054591178894042969e-02
9.462083876132965088e-02
1.261746436357498169e-01
1.746406964957714081e-02
6.567646563053131104e-02
-6.232666224241256714e-02
-1.076069325208663940e-01
7.232703268527984619e-03
5.997342988848686218e-02
5.718062818050384521e-02
-1.123123615980148315e-01
2.483137696981430054e-02
-1.283399909734725952e-01
9.906531311571598053e-03
3.521935269236564636e-02
-2.708766795694828033e-02
3.546003950759768486e-03
-5.215894803404808044e-02
1.557787656784057617e-01
3.570911288261413574e-02
-1.702433824539184570e-01
-2.617414593696594238e-01
2.785005606710910797e-02
-2.826667390763759613e-03
1.171489618718624115e-02
-1.348007190972566605e-02
1.204929426312446594e-01
-9.512905031442642212e-02
6.058006547391414642e-03
8.452459424734115601e-02
3.675318136811256409e-02
-3.612058609724044800e-02
-6.231347844004631042e-02
6.715032458305358887e-02
2.305300673469901085e-03
-2.819838374853134155e-02
-2.504924535751342773e-01
-1.060163602232933044e-02
1.990858837962150574e-02
-4.948184266686439514e-02
-1.338929384946823120e-01
2.669827663339674473e-04
3.203628957271575928e-02
6.112528964877128601e-02
-5.492489784955978394e-02
-1.053046993911266327e-02
-1.002989560365676880e-01
-5.767934396862983704e-02
2.296453155577182770e-02
-1.054785680025815964e-02
4.311802238225936890e-02
-1.208634451031684875e-01
6.160989403724670410e-02
-2.346605509519577026e-01
5.436598509550094604e-02
2.399590983986854553e-02
5.494873970746994019e-02
-8.977920562028884888e-02
1.169966310262680054e-01
-1.237473338842391968e-01
1.242882013320922852e-01
8.867171406745910645e-02
-1.490044523961842060e-04
6.675072014331817627e-02
-1.953900456428527832e-01
-4.680354148149490356e-03
6.460622698068618774e-02
4.362854640930891037e-03
-6.103428080677986145e-02
-2.071699649095535278e-01
1.515961289405822754e-01
-8.100148290395736694e-02
-1.237105019390583038e-02
-3.603291884064674377e-02
4.596453532576560974e-02
8.426338434219360352e-02
5.118804797530174255e-02
7.256283611059188843e-02
-8.366779983043670654e-02
-2.130482811480760574e-03
-1.418857648968696594e-02
-2.311738394200801849e-02
1.113843731582164764e-02
5.028089880943298340e-02
-5.619745701551437378e-02
2.502313815057277679e-02
8.094715327024459839e-02
-5.529912188649177551e-02
1.188737899065017700e-01
-1.192361861467361450e-01
9.760808944702148438e-02
2.013437449932098389e-02
-1.136640533804893494e-01
5.157576873898506165e-02
5.580994486808776855e-02
9.412415325641632080e-02
6.289204582571983337e-03
-1.068094149231910706e-01
5.115869268774986267e-02
-3.994343802332878113e-02
-1.334681734442710876e-02
-4.726794140879064798e-04
-4.062897339463233948e-02
-7.636623829603195190e-02
5.925119668245315552e-02
5.771404504776000977e-02
3.949847072362899780e-03
-3.968420252203941345e-02
9.286507219076156616e-02
3.659651800990104675e-02
-4.511893540620803833e-02
3.070922195911407471e-02
-1.257197856903076172e-01
-2.668547816574573517e-02
-2.934090327471494675e-03
-3.134336471557617188e-01
-7.928212732076644897e-02
1.432798802852630615e-02
-9.926086291670799255e-03
4.238409176468849182e-02
1.575648412108421326e-02
5.536751076579093933e-02
-6.898877769708633423e-02
1.306586991995573044e-02
7.054472714662551880e-02
8.049672842025756836e-02
-2.823940664529800415e-02
2.621276490390300751e-02
-7.885447144508361816e-02
2.076199464499950409e-02
-7.091052085161209106e-02
-3.506776690483093262e-02
-2.017937228083610535e-02
7.459405064582824707e-02
-3.151268884539604187e-02
2.241232432425022125e-02
3.339258255437016487e-03
4.720551520586013794e-02
1.069665253162384033e-01
1.595603823661804199e-01
-5.563286319375038147e-02
6.582099944353103638e-03
1.014167070388793945e-01
-1.110684359446167946e-03
6.226415187120437622e-02
-3.484690934419631958e-02
-7.434838265180587769e-02
-7.828646898269653320e-02
-1.986670494079589844e-02
-9.445976465940475464e-02
-4.767651855945587158e-02
1.188556291162967682e-02
-4.188759997487068176e-02
1.358369290828704834e-01
-3.455618023872375488e-02
-1.570595949888229370e-01
-4.850700031965970993e-03
-3.120414353907108307e-02
7.110729068517684937e-02
3.051960840821266174e-03
-2.617949433624744415e-02
-2.124638855457305908e-02
-1.628399826586246490e-02
-1.199494451284408569e-01
1.966447755694389343e-02
-9.940684586763381958e-02
-5.898746475577354431e-02
1.165535449981689453e-01
-6.019857153296470642e-02
3.916634991765022278e-02
4.465364292263984680e-02
9.083087556064128876e-03
-2.289407886564731598e-02
3.292563604190945625e-03
-1.233998313546180725e-01
4.959474503993988037e-02
-1.648266427218914032e-02
4.127739742398262024e-02
7.408790290355682373e-02
-7.288247346878051758e-02
4.125420376658439636e-02
-8.887662738561630249e-02
-5.250017344951629639e-02
1.103639975190162659e-01
-1.966530084609985352e-02
4.808926954865455627e-02
4.452905431389808655e-02
2.863966859877109528e-02
-5.939548090100288391e-02
3.178112208843231201e-02
8.757837861776351929e-02
3.710283711552619934e-02
1.424476057291030884e-01
-3.675334900617599487e-02
-1.169105153530836105e-02
-4.374334216117858887e-02
8.491049520671367645e-03
-2.273075096309185028e-02
5.295185372233390808e-02
-9.283154271543025970e-03
-1.384794116020202637e-01
-1.118796542286872864e-01
-2.634129952639341354e-03
5.741794034838676453e-02
-2.220569178462028503e-02
9.601565450429916382e-02
4.151618573814630508e-03
-8.643448352813720703e-03
-2.509373798966407776e-02
-4.365846142172813416e-02
-4.665173962712287903e-02
1.005824003368616104e-02
-3.678532689809799194e-02
4.267426580190658569e-02
-5.599261447787284851e-02
3.631175309419631958e-02
8.391328155994415283e-02
-6.033685803413391113e-02
-6.515027582645416260e-02
-3.204611688852310181e-02
4.212539643049240112e-02
-3.715423122048377991e-02
-5.921072512865066528e-02
1.132709532976150513e-01
-6.041181832551956177e-02
-1.818169280886650085e-02
-8.668229728937149048e-02
-4.070265591144561768e-02
-1.243276335299015045e-02
7.128608226776123047e-02
1.371798068284988403e-01
-4.154289141297340393e-02
-1.569377444684505463e-02
-1.828857511281967163e-02
2.222693525254726410e-02
3.933419659733772278e-02
4.106795787811279297e-02
-2.319308184087276459e-02
1.989378780126571655e-02
3.108750469982624054e-02
-7.630139589309692383e-02
-8.999355882406234741e-02
-2.675211429595947266e-02
2.198888920247554779e-02
1.572708040475845337e-01
2.777937613427639008e-02
-1.489434204995632172e-02
-1.265252083539962769e-01
6.716642994433641434e-03
6.643813103437423706e-02
4.314532130956649780e-02
6.990122050046920776e-02
-5.409555882215499878e-02
8.136389404535293579e-02
7.969779521226882935e-02
3.915769234299659729e-02
7.119753211736679077e-02
-1.722793281078338623e-02
-4.458337090909481049e-03
-8.271602541208267212e-02
-1.443432178348302841e-02
2.163860388100147247e-02
-1.202609576284885406e-02
-8.007362484931945801e-02
3.145243972539901733e-02
-7.583801448345184326e-02
-7.663975656032562256e-02
6.556755397468805313e-03
9.778478741645812988e-02
9.497305005788803101e-02
1.074736714363098145e-01
-5.586712062358856201e-02
-9.687568992376327515e-02
-5.855900421738624573e-02
2.049441486597061157e-01
-4.993884265422821045e-02
4.403860867023468018e-02
1.708853431046009064e-02
2.493017353117465973e-03
3.735511377453804016e-02
-1.542302519083023071e-01
4.037224873900413513e-02
-3.118027374148368835e-02
-1.170515897683799267e-03
-3.876453265547752380e-02
2.487435936927795410e-02
-7.492882758378982544e-02
3.556342795491218567e-02
-3.900905605405569077e-03
-7.609154284000396729e-02
5.763747915625572205e-02
-5.843402072787284851e-02
-3.169946372509002686e-02
1.438026595860719681e-02
7.398201525211334229e-02
-5.217806622385978699e-02
2.405709773302078247e-02
3.275587409734725952e-02
3.278369084000587463e-03
-8.704285137355327606e-03
1.856276392936706543e-02
9.517085552215576172e-02
1.007958874106407166e-02
6.067334488034248352e-02
1.376751959323883057e-01
-6.021074950695037842e-02
6.645376235246658325e-02
2.384391240775585175e-02
-6.780311465263366699e-02
4.496644809842109680e-02
4.930036514997482300e-02
-1.111276149749755859e-01
-5.869314447045326233e-02
8.482996054226532578e-05
-9.813304245471954346e-02
8.618630236014723778e-04
-2.680482808500528336e-03
6.678640097379684448e-02
1.205811426043510437e-01
-3.897257149219512939e-02
1.067327484488487244e-01
5.668981000781059265e-02
1.154566779732704163e-01
-3.341447561979293823e-02
1.917445063591003418e-01
1.157218813896179199e-01
1.708191633224487305e-02
2.853506244719028473e-02
-1.143851317465305328e-02
-7.643845677375793457e-02
2.488269656896591187e-02
-3.507999330759048462e-02
2.660188451409339905e-02
2.039765194058418274e-02
2.967662736773490906e-02
3.059976920485496521e-02
7.876367121934890747e-02
-8.311814814805984497e-02
-5.534742958843708038e-03
1.244351789355278015e-01
-7.666830718517303467e-02
4.777613282203674316e-02
-1.168489456176757812e-01
5.655425786972045898e-02
4.153301566839218140e-02
1.152723357081413269e-01
-1.177147310227155685e-02
-9.568585455417633057e-02
6.518758088350296021e-02
-8.385840058326721191e-02
2.691477537155151367e-02
-4.106052592396736145e-02
8.722201734781265259e-02
-6.902977079153060913e-02
6.802403181791305542e-02
1.276874728500843048e-02
-2.703913860023021698e-02
2.794089540839195251e-02
-1.010726857930421829e-02
8.484661579132080078e-02
-1.336098909378051758e-01
4.457143694162368774e-02
1.135549135506153107e-02
-5.938092619180679321e-02
-1.263422667980194092e-01
9.494289010763168335e-02
-7.415159139782190323e-03
3.859092295169830322e-02
-8.253578096628189087e-02
-1.116807162761688232e-01
-2.176127135753631592e-01
-2.780793905258178711e-01
-4.731914401054382324e-02
-1.959895044565200806e-01
-2.970624156296253204e-02
-1.365688443183898926e-01
1.206599026918411255e-01
-6.492003798484802246e-02
1.105013266205787659e-01
5.631664395332336426e-02
6.133512035012245178e-02
7.640154659748077393e-02
-5.581717565655708313e-02
1.078650914132595062e-02
1.418575793504714966e-01
4.239537194371223450e-02
6.647349894046783447e-02
-4.677829891443252563e-02
2.382907271385192871e-02
-2.086738646030426025e-01
1.109935864806175232e-01
-5.342867597937583923e-02
-1.548649221658706665e-01
8.490256965160369873e-02
1.378291100263595581e-01
-1.008226070553064346e-03
-9.434203803539276123e-02
7.845151424407958984e-02
-2.865027189254760742e-01
5.749559402465820312e-02
8.412080258131027222e-02
6.172627955675125122e-02
9.968424588441848755e-02
-3.878067061305046082e-02
1.622163504362106323e-01
-5.289644002914428711e-02
8.692721277475357056e-02
-6.521647423505783081e-02
7.277694530785083771e-04
-8.001084625720977783e-02
-2.148614963516592979e-03
-1.733604818582534790e-01
3.448591008782386780e-02
-1.321066915988922119e-01
2.821115590631961823e-02
-1.210508774966001511e-02
-1.183075234293937683e-01
2.484745159745216370e-02
-1.220465525984764099e-01
1.445259004831314087e-01
-2.511516772210597992e-02
6.181021779775619507e-02
-3.283146768808364868e-02
2.097534574568271637e-02
-1.223779991269111633e-01
-3.327353671193122864e-02
-2.296927720308303833e-01
-1.211672276258468628e-01
-2.261020801961421967e-02
9.845561534166336060e-02
-1.517221480607986450e-01
-4.275401681661605835e-02
2.420173771679401398e-02
-2.871661912649869919e-03
-9.836940467357635498e-02
1.173937767744064331e-01
-8.821760863065719604e-02
-7.745786011219024658e-02
-2.609652094542980194e-02
-8.517977595329284668e-02
-1.022621914744377136e-01
-3.401612862944602966e-02
-2.649397961795330048e-02
1.801172643899917603e-02
-2.102047391235828400e-02
-8.921448141336441040e-02
-1.363128125667572021e-01
5.562019348144531250e-02
1.534094102680683136e-03
5.235324427485466003e-02
1.623376458883285522e-01
4.690138623118400574e-02
-4.346097633242607117e-02
-4.882927611470222473e-02
-6.047233194112777710e-02
-6.023729220032691956e-02
5.783499777317047119e-02
1.136345136910676956e-02
1.247429922223091125e-01
-1.229815110564231873e-01
7.580761332064867020e-03
-7.928868383169174194e-02
4.304185882210731506e-02
-2.775099128484725952e-02
3.167253732681274414e-02
-1.399126648902893066e-02
1.180413588881492615e-01
-1.014588996767997742e-01
5.905997380614280701e-02
1.355126351118087769e-01
2.555035613477230072e-02
2.623261325061321259e-02
5.831888690590858459e-02
6.746484339237213135e-02
-7.181324809789657593e-02
-2.812989428639411926e-02
-1.578378379344940186e-01
8.285335451364517212e-02
5.975557118654251099e-02
-6.522848457098007202e-02
-8.450143784284591675e-02
-1.653677374124526978e-01
7.542850077152252197e-02
2.773647382855415344e-02
-4.118162021040916443e-02
9.475393593311309814e-02
-1.149453073740005493e-01
-1.621300280094146729e-01
4.237945005297660828e-02
-5.019713193178176880e-02
-1.639867871999740601e-01
-2.423603646457195282e-02
6.938494276255369186e-03
-2.087355591356754303e-02
-1.073023006319999695e-01
-5.779948830604553223e-02
7.774418592453002930e-02
-1.886647939682006836e-02
-2.301603555679321289e-02
-7.699467241764068604e-02
-3.511625807732343674e-03
5.885096266865730286e-02
2.762253861874341965e-03
1.833897382020950317e-01
7.681525312364101410e-03
-2.434139698743820190e-02
-1.263041328638792038e-02
-4.952938854694366455e-02
4.347864910960197449e-02
6.361442804336547852e-02
1.704133115708827972e-02
2.362276054918766022e-02
1.784853935241699219e-01
-4.441327229142189026e-02
7.116179168224334717e-02
-1.111354455351829529e-01
5.306150764226913452e-02
1.094685494899749756e-02
-4.772410169243812561e-02
-2.682406455278396606e-02
8.874085731804370880e-03
-1.404185034334659576e-02
-6.130966916680335999e-02
-7.602139562368392944e-02
1.366500928997993469e-02
-4.431663826107978821e-02
-1.997940056025981903e-02
-4.293583706021308899e-02
-8.085705339908599854e-02
1.732260920107364655e-02
-2.583368867635726929e-02
6.141612678766250610e-02
-6.845849752426147461e-02
-3.177825212478637695e-01
-1.474081575870513916e-01
8.619680255651473999e-02
-1.120764091610908508e-01
2.533489139750599861e-03
5.216224491596221924e-02
1.807255297899246216e-02
-5.265864357352256775e-02
-8.573877811431884766e-02
-5.029054731130599976e-02
-4.475068673491477966e-02
-3.695993870496749878e-02
-1.110315918922424316e-01
6.408383138477802277e-03
-2.365476824343204498e-02
3.131750971078872681e-02
-3.513683378696441650e-02
5.692998319864273071e-02
1.727523282170295715e-02
1.004985906183719635e-02
-7.031745743006467819e-03
6.732840090990066528e-02
-5.083768069744110107e-02
-6.454703211784362793e-02
-2.633436955511569977e-02
-1.256901025772094727e-02
2.491548098623752594e-02
3.956561535596847534e-02
1.687512174248695374e-02
-1.825070125050842762e-03
-3.064735792577266693e-02
-5.057341232895851135e-02
6.998153030872344971e-02
-1.572454907000064850e-02
8.438334800302982330e-03
-2.171610668301582336e-02
6.990753114223480225e-02
3.797642514109611511e-02
-6.639041751623153687e-02
-1.125788092613220215e-01
-1.071106195449829102e-01
-6.151691079139709473e-02
-7.070507854223251343e-02
-8.973181992769241333e-02
1.165259070694446564e-02
-1.018361970782279968e-01
1.275547146797180176e-01
5.954655632376670837e-02
-5.897007882595062256e-02
-4.870681837201118469e-02
-1.115646287798881531e-01
-3.241714462637901306e-02
3.198702260851860046e-02
-5.476187169551849365e-02
3.381704911589622498e-02
-2.070862334221601486e-03
-1.157309859991073608e-02
-2.811333723366260529e-02
-4.332739859819412231e-02
-8.009053021669387817e-02
1.693259365856647491e-02
1.016425341367721558e-02
4.665732011198997498e-02
-1.484552323818206787e-01
-1.976993307471275330e-02
-1.250478625297546387e-02
4.567947611212730408e-02
1.901772245764732361e-02
-6.816946715116500854e-02
1.185695976018905640e-01
4.164300486445426941e-02
-7.520446181297302246e-02
1.215763017535209656e-01
4.858113080263137817e-02
-2.411242015659809113e-02
-6.377068907022476196e-02
1.111217141151428223e-01
-1.239090040326118469e-02
4.009080678224563599e-02
-2.462771162390708923e-02
-1.674912869930267334e-01
-8.681581914424896240e-02
-2.026979476213455200e-01
-3.801715373992919922e-02
-4.439329355955123901e-02
3.704249858856201172e-02
1.043989136815071106e-01
6.542643404827686027e-06
-5.063689500093460083e-02
-5.833905190229415894e-02
-8.342990279197692871e-02
-1.181231066584587097e-02
-3.113568201661109924e-02
5.558108538389205933e-02
2.533904090523719788e-02
-4.084648936986923218e-02
1.816584728658199310e-02
-3.580407053232192993e-02
1.052058339118957520e-01
6.245332583785057068e-02
6.447371095418930054e-02
-1.937589794397354126e-01
-8.391714096069335938e-02
-5.681446567177772522e-02
-4.938964918255805969e-02
1.508158352226018906e-02
1.463247835636138916e-01
-8.795501291751861572e-02
-7.265312224626541138e-02
-5.069106351584196091e-03
-5.493161082267761230e-02
-6.478222459554672241e-02
1.290721297264099121e-01
-2.169725298881530762e-02
-4.100249335169792175e-02
-5.562384054064750671e-02
-8.372100442647933960e-02
3.875730559229850769e-02
-2.510571852326393127e-02
3.365686908364295959e-02
-2.135194092988967896e-02
-1.591058820486068726e-01
1.065030228346586227e-02
-4.213169962167739868e-02
1.300311833620071411e-01
-1.140887010842561722e-02
-7.968693971633911133e-02
-7.900630682706832886e-02
-1.097657755017280579e-01
-8.654003590345382690e-02
-2.972001023590564728e-02
8.272051811218261719e-02
-1.659358292818069458e-01
-5.496143177151679993e-02
4.522093012928962708e-02
-1.153415534645318985e-02
-3.656358271837234497e-02
1.119554564356803894e-01
9.030127525329589844e-02
6.271434947848320007e-03
4.675615578889846802e-02
-9.240102954208850861e-03
-5.273422971367835999e-02
7.735926657915115356e-02
-1.311840023845434189e-02
5.977751314640045166e-02
5.721696466207504272e-02
2.245274931192398071e-02
-6.846132129430770874e-02
-8.516564220190048218e-02
2.158770710229873657e-02
4.700016975402832031e-02
4.803365841507911682e-02
-5.087371543049812317e-02
-6.635596603155136108e-02
-4.531006515026092529e-02
-3.141207620501518250e-02
-3.993878141045570374e-02
2.084036357700824738e-02
-9.239101782441139221e-03
3.937033191323280334e-02
1.595487147569656372e-01
1.796796359121799469e-02
8.971079252660274506e-03
1.377213094383478165e-02
-5.629007518291473389e-02
5.175486207008361816e-02
9.281462430953979492e-02
-3.252926468849182129e-02
1.339982915669679642e-02
-5.825278349220752716e-03
-9.122008830308914185e-02
1.162139512598514557e-02
7.920696586370468140e-02
-3.938724473118782043e-02
-9.141446650028228760e-02
-1.295669097453355789e-02
-5.470607429742813110e-02
2.681728824973106384e-02
3.899993002414703369e-02
-7.062772661447525024e-02
7.900962233543395996e-02
-5.010593682527542114e-02
6.497457623481750488e-02
-3.906889632344245911e-02
3.089134395122528076e-02
6.673666182905435562e-03
9.902995824813842773e-02
3.014888986945152283e-02
-7.997003383934497833e-03
-1.033030450344085693e-01
6.164851412177085876e-02
9.574370831251144409e-02
6.290441751480102539e-02
8.723424375057220459e-02
-1.066615618765354156e-02
1.451785117387771606e-02
-9.604342281818389893e-03
1.867808215320110321e-02
-9.780989587306976318e-02
-2.273993380367755890e-02
4.864802584052085876e-03
-1.548796594142913818e-01
1.602832786738872528e-02
-2.380932681262493134e-02
-8.796309679746627808e-02
6.797712296247482300e-02
2.138469554483890533e-02
-7.680251449346542358e-02
-5.613142997026443481e-02
-5.346869677305221558e-02
1.515257917344570160e-02
-2.406246773898601532e-02
6.571953743696212769e-02
-5.641759186983108521e-02
7.126232236623764038e-02
7.257052510976791382e-02
5.603181663900613785e-03
-8.573545515537261963e-02
-9.201931953430175781e-02
7.113536447286605835e-02
1.593560166656970978e-02
3.095403909683227539e-01
-1.772167533636093140e-01
-3.947563841938972473e-02
-2.200473472476005554e-02
3.128954768180847168e-02
-6.482636183500289917e-02
-5.859312415122985840e-02
-8.404561877250671387e-02
5.432099476456642151e-02
6.374692078679800034e-03
-1.306887902319431305e-02
-2.978376112878322601e-02
9.466621093451976776e-03
-1.001754850149154663e-01
4.983785375952720642e-02
-1.475059986114501953e-01
-2.233098447322845459e-02
-3.121173195540904999e-02
-1.280189375393092632e-03
4.920568689703941345e-02
-8.898080885410308838e-02
1.072781044058501720e-03
-4.922257363796234131e-02
-1.418226119130849838e-02
3.809987753629684448e-02
-5.780907347798347473e-02
-5.810580775141716003e-02
2.834517695009708405e-02
2.297380752861499786e-02
8.251816779375076294e-02
3.432063758373260498e-02
-4.122832044959068298e-02
-2.217711694538593292e-02
1.116283014416694641e-01
-2.287822030484676361e-02
8.197297155857086182e-02
3.198724612593650818e-02
1.616263091564178467e-01
2.796678431332111359e-02
-3.624285385012626648e-02
1.022222712635993958e-01
-1.577935554087162018e-02
1.885354891419410706e-02
7.608503103256225586e-02
3.463413193821907043e-02
1.211687847971916199e-01
1.019992232322692871e-01
-7.110556960105895996e-02
-1.074110120534896851e-01
4.344962164759635925e-02
1.737296697683632374e-03
-1.025747433304786682e-01
-6.693832576274871826e-02
5.016739014536142349e-03
7.047077268362045288e-02
-4.730863124132156372e-02
4.331182688474655151e-03
-1.076086312532424927e-01
-7.990743964910507202e-02
-2.110989578068256378e-02
-8.405256085097789764e-03
-9.538193047046661377e-02
-1.722290366888046265e-01
-2.408384904265403748e-02
-5.618595704436302185e-02
4.173381254076957703e-03
1.814799457788467407e-01
4.385544359683990479e-02
8.412370085716247559e-02
-6.093337759375572205e-02
4.040538519620895386e-02
1.177926082164049149e-02
2.161825634539127350e-02
1.334653645753860474e-01
2.520350366830825806e-02
1.554627716541290283e-02
1.708711870014667511e-02
1.769302487373352051e-01
-1.460424042306840420e-03
2.099342271685600281e-02
-1.231025811284780502e-02
-9.875654429197311401e-02
-4.470627289265394211e-03
-1.365907117724418640e-02
1.728613972663879395e-01
3.297445923089981079e-02
4.626559466123580933e-02
6.566135585308074951e-02
8.033694326877593994e-02
1.221290007233619690e-01
9.897193312644958496e-02
7.838938385248184204e-02
-7.658417522907257080e-02
2.782905846834182739e-02
8.826474100351333618e-02
-2.612345665693283081e-02
5.228607729077339172e-02
-3.273729234933853149e-02
-2.332539856433868408e-02
1.316274553537368774e-01
-7.507099956274032593e-02
5.290274694561958313e-02
6.644836068153381348e-02
-3.278614580631256104e-02
3.154405206441879272e-02
1.472512632608413696e-01
5.341267585754394531e-02
6.095594167709350586e-02
-9.174118191003799438e-02
4.066959023475646973e-02
-1.150498818606138229e-02
-3.237541764974594116e-03
1.347155589610338211e-02
-9.169732779264450073e-02
-1.393890827894210815e-01
-6.005297228693962097e-02
1.029283925890922546e-01
-1.146121472120285034e-01
-1.533946096897125244e-01
-7.120555639266967773e-02
-3.904400765895843506e-02
-6.004302948713302612e-02
-5.283040925860404968e-02
-5.202127620577812195e-02
7.669052481651306152e-02
2.720717899501323700e-02
-7.635492831468582153e-02
-5.714453011751174927e-02
1.625750660896301270e-01
9.475525468587875366e-02
-3.034915402531623840e-02
-9.672811254858970642e-03
1.898291856050491333e-01
4.153062775731086731e-02
-1.081358119845390320e-01
-3.247231617569923401e-02
-3.589628636837005615e-02
5.402113497257232666e-02
1.646538525819778442e-01
-3.266599401831626892e-02
1.395616829395294189e-01
-8.723054081201553345e-02
2.893592044711112976e-02
4.137873277068138123e-02
5.804162472486495972e-02
4.296342656016349792e-02
-6.052544340491294861e-02
2.273798361420631409e-02
-1.141908317804336548e-01
-1.376806795597076416e-01
-3.177707642316818237e-02
-9.480693936347961426e-02
-6.525807827711105347e-02
-1.290605515241622925e-01
-4.627460241317749023e-02
-1.607868224382400513e-01
2.872974798083305359e-02
-1.073208302259445190e-01
7.200222462415695190e-03
2.257422171533107758e-02
-5.971349403262138367e-02
5.926679447293281555e-02
1.723975986242294312e-01
-8.789527416229248047e-02
-7.326576858758926392e-02
1.824248880147933960e-01
-9.901531785726547241e-02
-7.739311456680297852e-02
-9.429725259542465210e-02
1.286986023187637329e-01
-1.336883902549743652e-01
1.037215813994407654e-01
-7.379834074527025223e-03
-1.321938335895538330e-01
-3.695053607225418091e-02
3.513928875327110291e-02
-1.352666020393371582e-01
2.322055399417877197e-02
7.562950998544692993e-02
-1.201088353991508484e-02
6.173388287425041199e-02
-2.677855780348181725e-03
-7.735011726617813110e-02
