5.133674144744873047e-01
-4.028339982032775879e-01
-4.772393703460693359e-01
8.490270120091736317e-04
2.944804728031158447e-01
4.737704396247863770e-01
-8.995511531829833984e-01
-7.030958533287048340e-01
-6.875193715095520020e-01
1.580992043018341064e-01
3.861284554004669189e-01
-8.610206656157970428e-03
2.048143148422241211e-01
1.535494327545166016e-01
-4.767619967460632324e-01
1.052449643611907959e-01
6.055023148655891418e-02
5.692514777183532715e-01
1.000291034579277039e-01
2.055963873863220215e-01
1.130955219268798828e-01
-3.266278207302093506e-01
2.437345385551452637e-01
-2.061385214328765869e-01
-1.531534790992736816e-01
-5.444195270538330078e-01
4.345406889915466309e-01
-9.912782907485961914e-01
3.085577189922332764e-01
-6.746239215135574341e-02
1.916045546531677246e-01
1.534555256366729736e-01
7.783226966857910156e-01
-5.293213725090026855e-01
-2.306886166334152222e-01
-3.606570065021514893e-01
1.706190854310989380e-01
3.148392140865325928e-01
-1.010987237095832825e-01
-2.282905876636505127e-01
-1.403528153896331787e-01
-3.740855306386947632e-02
1.015536040067672729e-01
6.241095662117004395e-01
9.989944100379943848e-01
8.290866017341613770e-01
-1.664962172508239746e-01
-3.756261169910430908e-01
5.141855478286743164e-01
-2.055723369121551514e-01
-7.466933131217956543e-01
-1.758954524993896484e-01
4.374712109565734863e-01
-4.489596486091613770e-01
5.038939118385314941e-01
5.054633319377899170e-02
6.479386240243911743e-02
7.305975258350372314e-02
-2.721541225910186768e-01
-6.280897855758666992e-01
-4.612686336040496826e-01
3.493733406066894531e-01
3.386867344379425049e-01
-2.201631963253021240e-01
-2.659237086772918701e-01
9.697260856628417969e-01
2.097517400979995728e-01
7.665908336639404297e-02
-3.093345463275909424e-01
2.349903881549835205e-01
-3.071959912776947021e-01
-5.838060975074768066e-01
-1.078064322471618652e+00
1.356612611562013626e-02
6.577655076980590820e-01
6.195331811904907227e-01
-5.755742788314819336e-01
9.049470424652099609e-01
1.024545729160308838e-01
2.862374484539031982e-01
4.187884330749511719e-01
2.009779065847396851e-01
-2.815164625644683838e-01
-7.387797832489013672e-01
-1.417212933301925659e-01
-1.275103166699409485e-02
-1.117701381444931030e-01
2.051767110824584961e-01
-3.772037327289581299e-01
-2.979008667171001434e-02
-4.431623518466949463e-01
5.547130703926086426e-01
-5.376996994018554688e-01
-1.113703846931457520e+00
5.663480758666992188e-01
-1.052239388227462769e-01
-7.343928217887878418e-01
4.359368607401847839e-02
-1.753217875957489014e-01
-3.891609609127044678e-01
8.378028869628906250e-01
5.842639803886413574e-01
7.470598816871643066e-01
-3.726516664028167725e-01
1.324718259274959564e-02
-4.551321566104888916e-01
-4.529106020927429199e-01
-1.076564192771911621e+00
1.052976772189140320e-02
1.058719456195831299e-01
-2.273937761783599854e-01
4.028718173503875732e-01
-1.353001296520233154e-01
9.516583383083343506e-02
-3.091257438063621521e-02
-4.198001027107238770e-01
5.452067255973815918e-01
7.617021799087524414e-01
5.926767587661743164e-01
-3.828770816326141357e-01
1.881943345069885254e-01
3.152712583541870117e-01
1.746605709195137024e-02
-2.433249503374099731e-01
1.253377079963684082e+00
-1.404417157173156738e-01
5.986711382865905762e-01
1.131158918142318726e-01
