-1.808118820190429688e-01
1.079251710325479507e-02
-1.211009323596954346e-01
4.702731035649776459e-03
-1.116221845149993896e-01
6.456980854272842407e-02
-9.442205727100372314e-02
-1.969373412430286407e-02
2.310087904334068298e-02
2.310499548912048340e-02
1.292838365770876408e-03
1.906197518110275269e-02
2.082523703575134277e-02
9.541806578636169434e-02
-1.034875363111495972e-01
2.217396348714828491e-02
4.273984581232070923e-02
8.887281641364097595e-03
-7.517042756080627441e-02
-1.136205065995454788e-02
7.342992722988128662e-02
2.888093516230583191e-02
4.308673739433288574e-02
-8.365315198898315430e-02
-9.386996924877166748e-02
1.084934826940298080e-02
-1.642739474773406982e-01
5.966488271951675415e-02
5.245439335703849792e-02
1.222964655607938766e-02
2.647076267749071121e-03
-1.291038468480110168e-02
-2.392366155982017517e-02
-6.812249124050140381e-02
1.258383691310882568e-02
1.149276569485664368e-01
-1.054672673344612122e-01
-1.283448003232479095e-02
-1.122000906616449356e-02
-1.272016763687133789e-01
3.874310851097106934e-02
1.452110409736633301e-01
-1.511259973049163818e-01
6.587848812341690063e-02
-3.099732100963592529e-02
1.029757875949144363e-02
-1.299058645963668823e-01
1.218752041459083557e-01
2.926424890756607056e-02
4.047559574246406555e-02
2.851233631372451782e-02
-1.072016637772321701e-02
1.922733063111081719e-04
6.841304153203964233e-02
9.262936562299728394e-02
4.748086631298065186e-02
-5.790647491812705994e-02
4.126980528235435486e-02
5.654647201299667358e-02
1.684612408280372620e-02
1.769898645579814911e-02
-6.988310813903808594e-02
2.114667929708957672e-02
3.489970043301582336e-02
3.930563852190971375e-02
-1.058015227317810059e-01
5.354091525077819824e-02
-6.730628013610839844e-02
1.445217877626419067e-01
5.782550200819969177e-02
1.571134775876998901e-01
9.834634838625788689e-04
-1.515025198459625244e-01
-1.524490583688020706e-02
8.765231072902679443e-02
-4.803964402526617050e-03
2.999188750982284546e-02
-1.097955554723739624e-02
4.759514704346656799e-03
3.314474597573280334e-02
5.968450754880905151e-02
-1.093050837516784668e-02
-5.505152046680450439e-02
-1.167604923248291016e-01
1.271576881408691406e-01
-3.731509670615196228e-02
-1.134066656231880188e-02
-7.415385544300079346e-02
2.743296138942241669e-02
-1.745852269232273102e-02
-3.835620358586311340e-02
6.404282897710800171e-02
-1.745984889566898346e-03
1.574839204549789429e-01
2.860934101045131683e-02
5.207137763500213623e-02
-8.770754188299179077e-02
-9.434171020984649658e-02
-1.552743613719940186e-01
-3.285318240523338318e-02
-6.188461929559707642e-02
4.625892732292413712e-03
-1.562559604644775391e-01
-3.276117891073226929e-02
-9.269694983959197998e-02
2.675882168114185333e-02
-1.466690152883529663e-01
-8.118361979722976685e-02
1.582102733664214611e-03
1.620692014694213867e-02
1.657523363828659058e-01
5.655073001980781555e-02
-1.050083562731742859e-01
1.451911032199859619e-01
-7.432042062282562256e-02
-4.289675052859820426e-05
2.692009881138801575e-02
2.839172445237636566e-02
6.283196620643138885e-03
-2.257841639220714569e-03
-2.007839456200599670e-02
-1.748653948307037354e-01
-6.327706575393676758e-02
8.803444355726242065e-02
-1.739745438098907471e-01
5.184704065322875977e-02
6.003464758396148682e-02
1.107042208313941956e-01
